~o
<STREAMINFO> 1 39
<VECSIZE> 39<NULLD><MFCC_D_A_0><DIAGC>
~s "silst"
<MEAN> 39
 -1.074638e+01 1.891703e+00 -2.116131e+00 -6.198987e-01 -2.773743e+00 -2.264499e+00 -2.715566e+00 -2.132811e+00 -2.479376e+00 -1.868639e+00 -1.258288e+00 -1.333551e+00 3.469085e+01 -3.428999e-02 9.645032e-03 5.860420e-03 -2.267376e-03 1.531817e-02 3.513108e-02 2.232952e-02 -3.687297e-03 8.697898e-03 3.175834e-02 1.128840e-02 1.286221e-03 -3.010251e-02 2.900145e-03 -2.357333e-02 5.104643e-04 -1.073446e-03 -8.503444e-03 -5.741933e-03 -1.059439e-02 1.768824e-03 -9.393377e-03 -2.732629e-03 -1.101683e-02 -3.678523e-03 3.172782e-02
<VARIANCE> 39
 8.883413e+00 7.602847e+00 8.735743e+00 1.106763e+01 1.202762e+01 1.482828e+01 1.536984e+01 1.849590e+01 1.719492e+01 1.698398e+01 1.556634e+01 1.507378e+01 1.838515e+01 1.657805e-01 3.444500e-01 5.131229e-01 7.242129e-01 9.068260e-01 1.106256e+00 1.227948e+00 1.450142e+00 1.437290e+00 1.435240e+00 1.349389e+00 1.269827e+00 9.337616e-02 3.389203e-02 7.098793e-02 1.057467e-01 1.490595e-01 1.873354e-01 2.271732e-01 2.531018e-01 2.957648e-01 2.958256e-01 2.972583e-01 2.783920e-01 2.623020e-01 2.029056e-02
<GCONST> 7.608574e+01
~h "@"
<BEGINHMM>
<NUMSTATES> 5
<STATE> 2
<MEAN> 39
 -1.037944e+01 7.940069e-01 -5.564998e-01 -2.160994e+00 -5.807108e+00 -5.511226e+00 -6.864379e+00 -4.236390e+00 -4.004488e+00 -2.190972e+00 -2.144073e+00 -3.091213e+00 5.495000e+01 1.303826e-01 -6.268944e-01 -1.934044e-01 -5.139467e-01 -2.185566e-01 -1.020201e-01 -4.227155e-01 1.164551e-01 1.783103e-01 -6.394223e-02 2.178405e-01 -1.451305e-01 1.612054e+00 3.633605e-01 -2.917569e-01 -2.633738e-02 -1.971703e-01 -3.431901e-01 1.494927e-01 -2.601630e-01 6.299651e-02 2.887732e-02 9.456246e-03 1.295025e-01 -2.354108e-01 4.889480e-01
<VARIANCE> 39
 1.217394e+02 5.133252e+01 6.409686e+01 3.990398e+01 5.374226e+01 5.367829e+01 4.782502e+01 5.199686e+01 5.084748e+01 3.332058e+01 3.532933e+01 3.181734e+01 1.602395e+02 9.937351e+00 5.044825e+00 4.689692e+00 4.409119e+00 5.625658e+00 4.557756e+00 4.939030e+00 4.892059e+00 4.729394e+00 3.336129e+00 3.714169e+00 3.642852e+00 1.366108e+01 1.227805e+00 7.994570e-01 6.903546e-01 6.627431e-01 9.116929e-01 7.938882e-01 7.818673e-01 8.596462e-01 7.942386e-01 6.191521e-01 6.623200e-01 6.186661e-01 1.662555e+00
<GCONST> 1.423227e+02
<STATE> 3
<MEAN> 39
 -4.391317e+00 -4.479569e+00 -1.805180e+00 -6.219848e+00 -9.195906e+00 -5.515835e+00 -1.098277e+01 -4.226083e+00 -4.133993e+00 -2.073904e+00 -1.205551e+00 -5.754897e+00 6.452073e+01 1.949281e+00 -1.519561e+00 -8.439326e-02 -1.420346e+00 -1.893872e+00 7.817179e-01 -1.658380e+00 5.126855e-01 4.554934e-01 -3.904573e-02 1.021243e+00 -1.556597e+00 3.320911e+00 -7.245934e-02 1.488892e-01 9.685533e-02 1.949519e-01 -6.824762e-02 3.976389e-01 1.566947e-01 1.060043e-01 1.244184e-02 -3.104014e-02 5.184652e-02 -1.254021e-01 -7.725593e-01
<VARIANCE> 39
 4.932766e+01 4.581491e+01 8.615111e+01 5.861885e+01 6.509582e+01 8.075153e+01 5.198141e+01 6.563996e+01 6.671287e+01 4.382674e+01 4.696577e+01 4.144817e+01 1.081105e+02 6.607597e+00 5.268550e+00 6.772679e+00 5.381011e+00 6.768438e+00 6.867763e+00 5.986106e+00 8.099526e+00 7.957110e+00 4.741637e+00 5.408608e+00 5.002676e+00 1.060129e+01 1.099602e+00 6.994584e-01 9.038359e-01 8.183687e-01 1.099349e+00 9.740478e-01 8.892791e-01 9.990572e-01 9.784561e-01 7.345498e-01 8.766444e-01 7.838008e-01 1.192968e+00
<GCONST> 1.478799e+02
<STATE> 4
<MEAN> 39
 -5.245637e-01 -6.986366e+00 -1.312967e+00 -7.834437e+00 -1.370877e+01 -8.466204e-01 -1.370818e+01 -3.763715e+00 -3.702474e+00 -2.619011e+00 1.143440e+00 -9.432714e+00 6.832984e+01 3.099380e-01 -1.035154e-01 7.754920e-02 1.066204e-01 -1.505214e-01 2.538981e-01 -4.183960e-02 1.410951e-01 9.767842e-03 -8.063491e-03 -6.651939e-02 -2.211216e-01 -1.560481e-02 -2.265786e-01 3.118544e-01 5.956624e-02 2.858994e-01 2.994217e-01 -1.511417e-01 3.075444e-01 -1.125843e-01 -1.263148e-01 1.086652e-02 -2.424923e-01 2.349707e-01 -5.375322e-01
<VARIANCE> 39
 3.038428e+01 5.956680e+01 9.263454e+01 7.235034e+01 7.479945e+01 1.078316e+02 6.280726e+01 1.070357e+02 1.039098e+02 5.470033e+01 6.439024e+01 5.036817e+01 8.568079e+01 2.275103e+00 4.165568e+00 3.794293e+00 4.371280e+00 5.373729e+00 5.556816e+00 4.522106e+00 6.299705e+00 6.071216e+00 3.689268e+00 4.807763e+00 3.856871e+00 6.252907e+00 4.842145e-01 6.350304e-01 6.757186e-01 8.124748e-01 1.016061e+00 9.527630e-01 9.125375e-01 1.167329e+00 1.113407e+00 7.387345e-01 9.223469e-01 7.408733e-01 1.008922e+00
<GCONST> 1.443275e+02
<TRANSP> 5
 0.000000e+00 1.000000e+00 0.000000e+00 0.000000e+00 0.000000e+00
 0.000000e+00 6.386417e-01 3.613583e-01 0.000000e+00 0.000000e+00
 0.000000e+00 0.000000e+00 3.127238e-01 6.872762e-01 0.000000e+00
 0.000000e+00 0.000000e+00 0.000000e+00 7.566445e-01 2.433555e-01
 0.000000e+00 0.000000e+00 0.000000e+00 0.000000e+00 0.000000e+00
<ENDHMM>
~h "a"
<BEGINHMM>
<NUMSTATES> 5
<STATE> 2
<MEAN> 39
 -1.549774e+00 -1.142902e+01 -4.564097e+00 -9.575436e+00 -1.097013e+01 -4.271051e-02 -1.153124e+01 8.391352e-01 -1.253592e+00 -3.830805e+00 -1.859439e+00 -1.029132e+01 7.047489e+01 1.453573e-02 -1.172762e+00 -7.672579e-01 -1.940199e-01 6.918885e-01 9.796153e-01 1.592111e-01 5.309210e-01 4.503871e-01 -6.744127e-01 -6.495655e-01 -5.225099e-01 7.046356e-01 -1.632805e-01 4.169376e-01 2.297093e-01 3.302405e-01 1.924258e-01 -2.244503e-01 8.492137e-02 -3.660068e-01 -2.906744e-01 9.395310e-02 -3.193915e-02 3.259815e-01 -4.956495e-01
<VARIANCE> 39
 3.052820e+01 6.214445e+01 6.056046e+01 5.359921e+01 7.220497e+01 8.854082e+01 5.657020e+01 8.973933e+01 7.097581e+01 6.058091e+01 5.487264e+01 4.575897e+01 1.097789e+02 1.228201e+00 2.497490e+00 2.299464e+00 2.334244e+00 3.253885e+00 3.522077e+00 2.970844e+00 4.175825e+00 3.217653e+00 3.224774e+00 3.550642e+00 2.686875e+00 2.757707e+00 2.917372e-01 3.825918e-01 3.570067e-01 4.362617e-01 6.112636e-01 5.927909e-01 5.759522e-01 7.715506e-01 6.125358e-01 5.810956e-01 6.302238e-01 5.268850e-01 5.026726e-01
<GCONST> 1.301651e+02
<STATE> 3
<MEAN> 39
 -2.209301e+00 -1.408664e+01 -6.709280e+00 -1.015126e+01 -7.692222e+00 2.062816e+00 -1.106687e+01 3.698118e-01 -1.163824e+00 -5.972573e+00 -3.673582e+00 -1.091363e+01 7.179691e+01 5.655501e-02 2.406081e-01 5.264210e-02 1.443597e-01 1.192402e-01 -1.663199e-01 1.666820e-03 -7.826392e-03 -2.358279e-01 1.070057e-01 -1.607963e-01 4.400885e-02 -4.186703e-01 5.433546e-02 2.948726e-01 1.572911e-01 8.221318e-02 -1.255116e-01 -2.175653e-01 -2.773084e-02 -7.482740e-02 -7.530125e-02 1.825420e-01 6.478290e-02 8.059172e-02 -2.540999e-01
<VARIANCE> 39
 2.583059e+01 6.239452e+01 4.793314e+01 4.504381e+01 6.076568e+01 7.451104e+01 4.879843e+01 7.169825e+01 6.543153e+01 6.145760e+01 4.784603e+01 4.581650e+01 8.904507e+01 4.219686e-01 1.026116e+00 9.640416e-01 1.098660e+00 1.732215e+00 1.851633e+00 1.596737e+00 1.977584e+00 1.592901e+00 1.641592e+00 1.713501e+00 1.441478e+00 8.475307e-01 8.921123e-02 1.996499e-01 1.718622e-01 2.030289e-01 2.774128e-01 2.871500e-01 3.027476e-01 3.732291e-01 3.073916e-01 3.073209e-01 3.170663e-01 2.805931e-01 1.605842e-01
<GCONST> 1.083329e+02
<STATE> 4
<MEAN> 39
 -1.104433e+00 -7.568132e+00 -3.878345e+00 -5.811148e+00 -7.230212e+00 -1.814505e+00 -1.003238e+01 -4.707159e-01 -3.625084e+00 -2.441633e+00 -5.646912e+00 -8.626530e+00 6.151166e+01 -2.586189e-02 1.133904e+00 5.452059e-01 7.150923e-01 8.844323e-03 -5.229663e-01 2.217188e-01 -6.016667e-01 -2.352942e-01 2.480652e-01 -3.990883e-02 4.772389e-01 -1.719907e+00 -9.001793e-02 4.425900e-02 5.568911e-02 5.041687e-02 3.898922e-02 2.415076e-02 5.353318e-02 -9.546087e-02 -1.091355e-02 -4.496450e-02 3.960110e-02 5.859293e-02 -4.616150e-02
<VARIANCE> 39
 3.457952e+01 5.957641e+01 5.180164e+01 5.539819e+01 6.286900e+01 6.315624e+01 5.457660e+01 7.338947e+01 5.902806e+01 5.751067e+01 5.837117e+01 4.473744e+01 1.485837e+02 1.409768e+00 2.534811e+00 2.032740e+00 2.459237e+00 2.802306e+00 2.868028e+00 2.939633e+00 3.707196e+00 3.060138e+00 2.966985e+00 2.863925e+00 2.320616e+00 3.423576e+00 2.285101e-01 4.090837e-01 3.350012e-01 4.495218e-01 4.641973e-01 4.922294e-01 5.275791e-01 6.788630e-01 5.172697e-01 5.420341e-01 5.229092e-01 4.148813e-01 5.412802e-01
<GCONST> 1.273568e+02
<TRANSP> 5
 0.000000e+00 1.000000e+00 0.000000e+00 0.000000e+00 0.000000e+00
 0.000000e+00 5.281479e-01 4.718521e-01 0.000000e+00 0.000000e+00
 0.000000e+00 0.000000e+00 7.675559e-01 2.324441e-01 0.000000e+00
 0.000000e+00 0.000000e+00 0.000000e+00 7.106495e-01 2.893505e-01
 0.000000e+00 0.000000e+00 0.000000e+00 0.000000e+00 0.000000e+00
<ENDHMM>
~h "b"
<BEGINHMM>
<NUMSTATES> 5
<STATE> 2
<MEAN> 39
 -4.002416e-01 1.211332e+00 2.817228e+00 -9.893501e-01 -9.289396e+00 -2.406694e+00 -8.133813e+00 -6.895596e+00 -6.905800e+00 -1.964670e+00 -2.180303e+00 -6.050909e+00 5.367559e+01 1.381642e-01 1.013196e+00 3.567222e-01 5.075202e-01 4.510593e-01 7.836081e-02 5.020561e-01 -1.210886e-01 -8.772235e-02 5.658019e-02 -2.408940e-01 9.381702e-02 -1.297428e+00 -1.384899e-01 -1.876152e-01 -1.134386e-01 -1.977746e-01 -1.666022e-02 -5.733696e-02 -1.199097e-01 1.047414e-01 1.152886e-01 -3.407147e-02 9.949299e-02 1.989301e-02 3.930577e-01
<VARIANCE> 39
 6.870192e+01 4.433154e+01 5.870669e+01 4.292670e+01 6.285248e+01 6.169311e+01 4.716249e+01 6.105349e+01 6.313771e+01 4.394898e+01 4.790893e+01 3.332484e+01 1.250154e+02 2.263434e+00 2.566881e+00 2.235167e+00 2.368594e+00 2.948892e+00 2.855047e+00 2.859708e+00 3.785816e+00 3.346494e+00 2.630710e+00 2.635594e+00 2.186510e+00 4.454052e+00 4.209326e-01 4.282609e-01 3.982445e-01 4.464513e-01 5.737984e-01 5.228029e-01 5.361383e-01 6.789798e-01 6.484989e-01 5.188418e-01 5.101106e-01 4.284062e-01 6.752657e-01
<GCONST> 1.285928e+02
<STATE> 3
<MEAN> 39
 -1.866494e+00 4.785897e+00 3.431839e+00 3.442740e-01 -6.221948e+00 -2.649581e+00 -6.212267e+00 -5.931589e+00 -6.653825e+00 -2.018063e+00 -2.559453e+00 -5.188458e+00 4.885421e+01 -5.418269e-01 -8.023386e-01 -4.991504e-01 -6.739350e-01 2.496872e-01 -3.408979e-01 -4.546992e-01 8.961760e-02 3.661067e-01 1.135509e-02 4.476113e-01 3.965285e-01 1.908691e+00 -1.558754e-01 -8.164762e-01 -3.217297e-01 -5.530953e-01 -4.231157e-01 -6.024860e-02 -4.234267e-01 1.267782e-01 1.513807e-01 3.896014e-02 2.516749e-01 -4.842324e-02 1.241455e+00
<VARIANCE> 39
 8.724432e+01 4.522466e+01 4.393582e+01 3.580637e+01 5.172281e+01 5.441163e+01 4.026823e+01 4.876511e+01 5.386305e+01 3.320250e+01 3.805307e+01 3.061572e+01 1.196211e+02 6.691221e+00 4.933790e+00 4.076375e+00 3.966228e+00 4.665307e+00 4.127542e+00 4.034207e+00 4.229426e+00 4.793890e+00 3.414204e+00 3.425857e+00 2.995156e+00 1.085614e+01 9.399621e-01 6.900004e-01 6.261528e-01 6.733091e-01 8.522200e-01 8.106914e-01 6.828937e-01 8.954030e-01 9.953565e-01 6.437055e-01 6.486897e-01 6.119125e-01 1.242219e+00
<GCONST> 1.384498e+02
<STATE> 4
<MEAN> 39
 -2.135765e+00 -3.211473e+00 -5.075659e-01 -5.229160e+00 -1.018978e+01 -3.228497e+00 -1.169839e+01 -4.890214e+00 -5.659575e+00 -1.018080e+00 6.061202e-01 -6.139423e+00 6.361861e+01 8.130707e-02 -1.075051e+00 -3.650925e-01 -7.336477e-01 -7.262050e-01 1.417278e-02 -6.021935e-01 5.588227e-01 4.715125e-01 -5.087604e-02 2.606067e-01 -4.051134e-01 1.889481e+00 8.011621e-02 1.226812e-01 1.017030e-01 1.110398e-01 -4.409551e-02 1.409929e-01 1.367126e-01 8.328161e-02 -5.196237e-02 -1.095970e-01 -1.235203e-01 -1.073787e-01 -3.331934e-01
<VARIANCE> 39
 5.122553e+01 5.504845e+01 8.680513e+01 7.090053e+01 7.914799e+01 8.010587e+01 6.350723e+01 8.897962e+01 8.454659e+01 5.145123e+01 5.853223e+01 4.589632e+01 1.039869e+02 4.516246e+00 5.970324e+00 5.860163e+00 6.220590e+00 7.440733e+00 6.392215e+00 6.039403e+00 7.507021e+00 7.612980e+00 4.890794e+00 5.928042e+00 4.739140e+00 1.260533e+01 7.562449e-01 8.078602e-01 8.515974e-01 9.914258e-01 1.322266e+00 1.043194e+00 1.065434e+00 1.195108e+00 1.105167e+00 8.917766e-01 1.064832e+00 8.405504e-01 1.448112e+00
<GCONST> 1.508587e+02
<TRANSP> 5
 0.000000e+00 1.000000e+00 0.000000e+00 0.000000e+00 0.000000e+00
 0.000000e+00 6.997319e-01 3.002681e-01 0.000000e+00 0.000000e+00
 0.000000e+00 0.000000e+00 5.883580e-01 4.116419e-01 0.000000e+00
 0.000000e+00 0.000000e+00 0.000000e+00 7.739887e-01 2.260113e-01
 0.000000e+00 0.000000e+00 0.000000e+00 0.000000e+00 0.000000e+00
<ENDHMM>
~h "c"
<BEGINHMM>
<NUMSTATES> 5
<STATE> 2
<MEAN> 39
 -8.265473e+00 2.743479e+00 1.509157e+00 -5.127481e-01 -6.645468e+00 -7.247739e+00 -7.417092e+00 -3.675055e+00 -3.837157e+00 -2.465792e+00 -3.072989e+00 -3.744334e+00 5.111850e+01 -9.842221e-01 2.206362e-01 -2.475010e-01 9.205018e-02 5.751629e-01 1.956008e-03 3.715282e-01 3.044942e-02 1.259113e-01 -8.296860e-02 5.762675e-02 3.561490e-01 -7.277147e-01 -1.494277e-01 -3.426246e-01 -1.385722e-01 -2.404877e-01 -1.089149e-01 6.770172e-02 -1.087185e-01 2.074745e-02 7.528207e-03 4.038139e-03 1.187925e-01 -9.882201e-03 6.239342e-01
<VARIANCE> 39
 9.518757e+01 4.041832e+01 5.261821e+01 3.109761e+01 5.310140e+01 4.403174e+01 4.423934e+01 4.251299e+01 4.198816e+01 2.997565e+01 3.128693e+01 2.977725e+01 1.580101e+02 5.074782e+00 3.763967e+00 2.625990e+00 2.478440e+00 3.675867e+00 2.991696e+00 3.163909e+00 3.170910e+00 2.972455e+00 2.387764e+00 2.580269e+00 2.293674e+00 6.774933e+00 8.141822e-01 6.373734e-01 4.432269e-01 4.950325e-01 6.809531e-01 5.746177e-01 5.919030e-01 6.280960e-01 5.936902e-01 4.703615e-01 5.148137e-01 4.580662e-01 1.276761e+00
<GCONST> 1.302672e+02
<STATE> 3
<MEAN> 39
 -1.553762e+01 -4.251677e-02 -1.682358e+00 -3.309663e+00 -5.123732e+00 -6.247167e+00 -5.963643e+00 -3.957495e+00 -3.113744e+00 -2.553346e+00 -1.684613e+00 -1.364754e+00 5.715412e+01 5.289940e-02 -9.769775e-01 -8.455081e-02 -8.587543e-01 -8.033216e-01 -4.779811e-01 -7.948177e-01 1.258753e-02 8.609802e-02 -1.862002e-01 2.361421e-01 -1.365890e-01 3.426660e+00 1.013666e+00 -1.607916e-01 2.649674e-01 -7.295558e-02 -5.913001e-01 3.984788e-02 -4.730260e-01 7.931626e-02 -1.198379e-02 -7.615259e-02 5.934487e-02 -4.802248e-01 2.342883e-01
<VARIANCE> 39
 1.051674e+02 4.366134e+01 5.919035e+01 4.212228e+01 4.761335e+01 4.213254e+01 3.743250e+01 3.946342e+01 3.938610e+01 2.692092e+01 2.562298e+01 2.434562e+01 1.335535e+02 1.352910e+01 5.057567e+00 6.380299e+00 4.240701e+00 6.382665e+00 5.021038e+00 4.822801e+00 4.964351e+00 4.777680e+00 3.188293e+00 3.337668e+00 3.442122e+00 1.370450e+01 1.684208e+00 9.801310e-01 9.367198e-01 7.622880e-01 1.034527e+00 9.747381e-01 8.205130e-01 1.009496e+00 8.565085e-01 6.090044e-01 6.447386e-01 5.942771e-01 1.860734e+00
<GCONST> 1.420734e+02
<STATE> 4
<MEAN> 39
 -3.725216e+00 -3.194755e+00 3.208266e+00 -3.815242e+00 -1.407756e+01 -7.143777e+00 -1.294819e+01 -3.689185e+00 -6.314888e+00 -3.316513e+00 7.266438e-01 -5.804230e+00 6.607447e+01 1.277718e+00 -1.000045e+00 -9.439619e-02 -5.050983e-01 -8.578367e-01 4.483899e-01 -7.562995e-01 4.879732e-01 3.232770e-01 -5.454402e-02 2.960937e-01 -8.730417e-01 1.161473e+00 -1.877461e-01 5.647286e-02 -1.979717e-01 2.339201e-02 3.177161e-01 2.940512e-01 2.872446e-01 2.143065e-02 3.150077e-02 5.089979e-02 -9.488198e-02 -1.307941e-02 -4.851548e-01
<VARIANCE> 39
 4.287947e+01 5.175576e+01 1.049930e+02 5.463582e+01 7.567964e+01 7.776164e+01 5.921358e+01 7.613094e+01 8.820494e+01 5.010888e+01 4.975792e+01 3.610985e+01 9.509729e+01 6.581415e+00 5.765716e+00 6.109432e+00 4.438699e+00 8.435931e+00 5.524995e+00 6.514081e+00 7.293224e+00 6.492546e+00 4.321668e+00 4.862261e+00 4.138478e+00 8.988377e+00 8.643408e-01 7.099251e-01 8.548537e-01 7.447317e-01 1.359467e+00 1.020810e+00 1.110072e+00 1.085528e+00 9.782734e-01 6.967084e-01 8.736188e-01 6.649313e-01 1.317624e+00
<GCONST> 1.476676e+02
<TRANSP> 5
 0.000000e+00 1.000000e+00 0.000000e+00 0.000000e+00 0.000000e+00
 0.000000e+00 8.092360e-01 1.907640e-01 0.000000e+00 0.000000e+00
 0.000000e+00 0.000000e+00 6.866909e-01 3.133090e-01 0.000000e+00
 0.000000e+00 0.000000e+00 0.000000e+00 7.017846e-01 2.982155e-01
 0.000000e+00 0.000000e+00 0.000000e+00 0.000000e+00 0.000000e+00
<ENDHMM>
~h "d"
<BEGINHMM>
<NUMSTATES> 5
<STATE> 2
<MEAN> 39
 -4.665017e+00 2.433179e+00 2.269654e+00 4.098369e-01 -7.282119e+00 -5.878384e+00 -7.607922e+00 -3.955594e+00 -3.992560e+00 -2.287682e+00 -3.652947e+00 -5.187768e+00 5.074313e+01 -3.543691e-01 3.835421e-01 1.947767e-01 2.001370e-01 4.664441e-01 -1.883075e-01 2.421125e-01 1.327581e-01 1.332898e-01 -1.207766e-01 -4.944578e-02 2.701139e-01 -3.451579e-01 -1.658466e-01 -4.643734e-01 -1.034557e-01 -3.444393e-01 -1.968051e-01 -1.180929e-02 -1.536819e-01 2.820927e-02 -8.406907e-02 -1.036765e-02 2.221527e-01 4.629932e-02 8.385899e-01
<VARIANCE> 39
 1.112268e+02 4.383822e+01 5.732071e+01 3.938977e+01 5.096279e+01 4.846880e+01 4.506192e+01 5.046135e+01 4.846954e+01 3.587976e+01 3.606234e+01 3.624726e+01 1.400807e+02 5.619434e+00 4.010751e+00 3.040660e+00 3.045883e+00 3.886647e+00 3.309950e+00 3.431391e+00 4.187765e+00 3.495156e+00 2.838817e+00 3.102096e+00 2.652081e+00 8.276917e+00 9.172387e-01 7.010585e-01 5.240668e-01 5.999551e-01 7.577524e-01 6.616631e-01 6.420353e-01 8.462561e-01 7.324563e-01 5.637936e-01 6.307422e-01 5.141820e-01 1.346765e+00
<GCONST> 1.354762e+02
<STATE> 3
<MEAN> 39
 -7.032033e+00 -5.555310e-01 1.692024e+00 -1.918075e+00 -6.446084e+00 -6.413214e+00 -7.753024e+00 -3.952421e+00 -4.850718e+00 -2.382229e+00 -2.590821e+00 -3.274442e+00 5.730437e+01 -1.696339e-01 -1.540576e+00 -5.947337e-02 -1.167577e+00 -1.064129e+00 -3.416196e-01 -8.678700e-01 1.520935e-01 -2.717978e-01 -1.290018e-01 9.484540e-01 5.368681e-02 3.836961e+00 4.340014e-01 -1.512048e-01 4.638242e-02 -1.475330e-01 -6.755480e-01 2.115099e-01 -3.390323e-01 8.680886e-02 1.214144e-02 -4.238157e-02 2.646814e-01 -3.725799e-01 2.651884e-01
<VARIANCE> 39
 8.595734e+01 5.308585e+01 8.068782e+01 4.778223e+01 5.675380e+01 5.669875e+01 4.691602e+01 5.001612e+01 5.205924e+01 3.725884e+01 3.491107e+01 3.250230e+01 1.336291e+02 9.984238e+00 5.901999e+00 7.027778e+00 5.418561e+00 8.033725e+00 6.090153e+00 5.701689e+00 7.488865e+00 6.707920e+00 4.255988e+00 5.073422e+00 4.465011e+00 1.355485e+01 1.283442e+00 9.649501e-01 9.900815e-01 9.058785e-01 1.232953e+00 1.056198e+00 9.465458e-01 1.167865e+00 1.062299e+00 7.636490e-01 8.122087e-01 7.140846e-01 1.965499e+00
<GCONST> 1.485272e+02
<STATE> 4
<MEAN> 39
 -1.910629e+00 -4.246855e+00 3.561586e+00 -4.251992e+00 -1.488621e+01 -4.818916e+00 -1.300560e+01 -2.657242e+00 -6.667202e+00 -2.523636e+00 1.391305e+00 -6.666748e+00 6.721171e+01 3.132864e-01 -6.083941e-01 -2.420625e-01 -4.578456e-01 -7.406694e-01 3.469096e-01 -3.600238e-01 4.271389e-01 2.361515e-01 -8.881895e-02 3.403598e-01 -4.849534e-01 9.153239e-01 -6.276286e-02 1.714847e-01 -1.155095e-01 1.259891e-01 3.121128e-01 1.444372e-01 2.486226e-01 -4.543864e-02 7.352418e-02 -2.046680e-02 -2.666712e-01 -2.638534e-02 -4.801820e-01
<VARIANCE> 39
 3.646376e+01 5.372227e+01 1.020242e+02 5.570605e+01 7.982391e+01 9.048419e+01 6.443969e+01 1.016355e+02 8.648717e+01 5.123986e+01 6.024339e+01 3.920591e+01 7.569653e+01 3.506363e+00 4.305178e+00 5.024502e+00 4.166910e+00 7.509067e+00 5.423348e+00 5.539749e+00 7.791457e+00 6.173669e+00 4.135294e+00 5.475942e+00 3.803223e+00 6.871087e+00 5.904347e-01 6.115994e-01 6.655023e-01 6.805053e-01 1.193778e+00 9.633743e-01 9.543509e-01 1.208415e+00 9.698164e-01 7.319742e-01 9.154730e-01 6.414148e-01 1.048797e+00
<GCONST> 1.451406e+02
<TRANSP> 5
 0.000000e+00 1.000000e+00 0.000000e+00 0.000000e+00 0.000000e+00
 0.000000e+00 7.363446e-01 2.636554e-01 0.000000e+00 0.000000e+00
 0.000000e+00 0.000000e+00 6.080915e-01 3.919085e-01 0.000000e+00
 0.000000e+00 0.000000e+00 0.000000e+00 7.215009e-01 2.784991e-01
 0.000000e+00 0.000000e+00 0.000000e+00 0.000000e+00 0.000000e+00
<ENDHMM>
~h "e"
<BEGINHMM>
<NUMSTATES> 5
<STATE> 2
<MEAN> 39
 -1.491672e+00 -9.620642e+00 1.195386e+00 -7.353297e+00 -1.610166e+01 -2.892939e+00 -1.257823e+01 1.676982e+00 -4.308724e+00 -3.281440e+00 -3.773038e-01 -8.610827e+00 7.010416e+01 3.874665e-02 -4.959088e-01 2.278965e-01 -2.605509e-01 -5.939857e-01 3.298750e-01 1.644246e-01 5.250507e-01 -1.138602e-01 -3.119632e-01 1.315537e-01 -2.001481e-01 4.728943e-01 -1.284188e-01 3.513014e-01 -2.944139e-02 1.816884e-01 3.517608e-01 -5.194763e-02 1.597023e-01 -3.168910e-01 -7.332250e-02 1.189036e-01 -1.257594e-01 1.382741e-01 -4.484241e-01
<VARIANCE> 39
 2.876566e+01 6.597923e+01 9.779494e+01 4.925213e+01 8.079221e+01 9.098203e+01 5.698540e+01 1.050485e+02 7.371293e+01 5.422681e+01 6.558868e+01 4.133995e+01 8.423050e+01 1.414913e+00 2.877586e+00 3.190260e+00 2.573325e+00 4.429367e+00 3.742927e+00 3.488658e+00 4.832253e+00 3.602108e+00 3.041917e+00 3.830744e+00 2.647689e+00 3.538062e+00 3.350834e-01 4.655310e-01 4.718549e-01 4.638902e-01 8.056667e-01 6.705348e-01 6.604200e-01 9.256042e-01 7.238085e-01 6.001167e-01 6.971195e-01 5.134863e-01 5.874943e-01
<GCONST> 1.341759e+02
<STATE> 3
<MEAN> 39
 -2.447080e+00 -1.084368e+01 1.114615e+00 -9.374926e+00 -1.683746e+01 -3.011085e+00 -1.111204e+01 9.400722e-01 -4.045924e+00 -4.681527e+00 7.506657e-01 -9.537755e+00 7.180713e+01 2.517488e-02 2.641609e-01 9.790842e-02 1.270624e-01 1.218872e-01 -8.096940e-02 3.846963e-02 -1.810808e-01 -1.900489e-01 1.011811e-01 -1.368182e-01 -5.023452e-03 -3.722460e-01 3.600381e-02 1.670105e-01 -5.118039e-03 1.407373e-01 1.414863e-01 -1.123295e-01 -2.924360e-02 -1.128284e-01 -6.503504e-03 7.943367e-02 -7.165497e-02 5.591344e-02 -2.175873e-01
<VARIANCE> 39
 2.598478e+01 5.868496e+01 1.086136e+02 4.495296e+01 8.995158e+01 1.188265e+02 4.994436e+01 1.043381e+02 6.809866e+01 5.257254e+01 7.242542e+01 4.124435e+01 5.401032e+01 4.193503e-01 1.063563e+00 1.216009e+00 1.216380e+00 1.558640e+00 1.572912e+00 1.554821e+00 1.913681e+00 1.724016e+00 1.495137e+00 1.745408e+00 1.292353e+00 9.841951e-01 8.750761e-02 1.832591e-01 2.045505e-01 2.075869e-01 3.173130e-01 2.847598e-01 3.101245e-01 3.792727e-01 3.112687e-01 2.873975e-01 3.169872e-01 2.436743e-01 1.636422e-01
<GCONST> 1.102046e+02
<STATE> 4
<MEAN> 39
 -1.765512e+00 -2.545034e+00 6.485947e+00 -3.469746e+00 -1.534177e+01 -3.474481e+00 -1.134624e+01 -2.953674e+00 -8.049623e+00 -2.476242e+00 -1.255231e+00 -7.148678e+00 6.123563e+01 6.910117e-03 6.161044e-01 -7.884254e-02 4.938219e-01 5.661640e-01 -1.541469e-01 3.086954e-01 -4.067415e-01 4.821027e-02 7.559141e-02 -2.695577e-01 2.146709e-01 -1.171699e+00 -5.553281e-02 -9.897836e-03 -6.278224e-02 -1.497006e-02 7.718068e-02 6.859072e-03 2.410395e-02 2.063596e-02 5.876070e-02 2.126093e-03 1.253282e-02 2.014137e-02 -1.970357e-02
<VARIANCE> 39
 3.458345e+01 6.173661e+01 9.756171e+01 4.745185e+01 9.204417e+01 7.656429e+01 5.998181e+01 8.264384e+01 6.184369e+01 4.676534e+01 7.635662e+01 3.472393e+01 1.062260e+02 8.735244e-01 1.794519e+00 1.691240e+00 1.807933e+00 2.444830e+00 2.209442e+00 2.431443e+00 2.898412e+00 2.301852e+00 2.053984e+00 2.228875e+00 1.716908e+00 2.119427e+00 1.485129e-01 2.710929e-01 2.500220e-01 3.019256e-01 4.119502e-01 3.830926e-01 4.314028e-01 5.086346e-01 4.157975e-01 3.660997e-01 4.023100e-01 3.101436e-01 2.918330e-01
<GCONST> 1.201695e+02
<TRANSP> 5
 0.000000e+00 1.000000e+00 0.000000e+00 0.000000e+00 0.000000e+00
 0.000000e+00 5.859097e-01 4.140904e-01 0.000000e+00 0.000000e+00
 0.000000e+00 0.000000e+00 7.626329e-01 2.373671e-01 0.000000e+00
 0.000000e+00 0.000000e+00 0.000000e+00 7.284621e-01 2.715379e-01
 0.000000e+00 0.000000e+00 0.000000e+00 0.000000e+00 0.000000e+00
<ENDHMM>
~h "f"
<BEGINHMM>
<NUMSTATES> 5
<STATE> 2
<MEAN> 39
 -7.280079e+00 1.082736e+00 -1.602181e-01 -1.587776e+00 -5.734037e+00 -5.253508e+00 -7.427913e+00 -3.920387e+00 -4.688507e+00 -2.797262e+00 -4.150167e+00 -4.044442e+00 5.617698e+01 -2.273443e+00 7.046001e-01 -2.116320e-01 5.539305e-01 1.089530e+00 -2.845106e-01 6.365080e-01 2.806631e-01 5.751581e-01 -6.773837e-02 3.679505e-02 7.169923e-01 -8.558481e-01 -1.853595e-01 -4.436192e-01 -9.235961e-02 -2.632618e-01 -2.881070e-01 9.638482e-02 -1.917051e-01 4.812006e-02 -4.288176e-02 3.971090e-02 2.242939e-01 -1.099620e-01 3.578974e-01
<VARIANCE> 39
 7.453721e+01 4.653556e+01 5.168710e+01 3.819342e+01 5.361365e+01 5.324304e+01 4.354346e+01 5.039494e+01 4.349094e+01 3.447750e+01 3.965944e+01 2.998580e+01 1.305398e+02 5.717864e+00 4.281559e+00 3.045761e+00 3.322092e+00 4.221448e+00 4.039210e+00 3.536429e+00 4.233573e+00 3.824532e+00 3.027014e+00 3.432657e+00 2.476402e+00 4.207983e+00 7.751548e-01 6.129460e-01 4.588526e-01 5.084295e-01 7.061895e-01 6.576641e-01 6.015304e-01 6.542982e-01 6.456796e-01 5.376548e-01 5.733117e-01 4.371178e-01 6.206066e-01
<GCONST> 1.325953e+02
<STATE> 3
<MEAN> 39
 -1.972421e+01 -1.450791e+00 -3.333258e+00 -1.817581e+00 -3.289513e+00 -4.951201e+00 -5.741524e+00 -1.716419e+00 -2.449373e+00 -1.753701e+00 -1.422434e+00 -1.693769e+00 5.627930e+01 -4.380812e-02 -3.707567e-01 -1.074114e-01 -1.510876e-01 -2.419008e-01 -6.466752e-02 -7.760649e-02 -6.030252e-02 1.498383e-03 5.036181e-02 8.323123e-02 -4.164353e-02 2.124416e-01 7.075018e-01 -4.709922e-02 1.515376e-01 -1.178986e-01 -2.413042e-01 2.298281e-02 -2.047171e-01 -1.185185e-01 -1.269829e-01 -6.656365e-02 -2.825638e-02 -2.038610e-01 2.748369e-01
<VARIANCE> 39
 9.263261e+01 5.047719e+01 3.809418e+01 2.622215e+01 3.523485e+01 3.589686e+01 3.706936e+01 3.080239e+01 3.008151e+01 2.360394e+01 2.338714e+01 2.053598e+01 9.293431e+01 5.466371e+00 2.153051e+00 2.333660e+00 1.954919e+00 2.253539e+00 2.421188e+00 2.407945e+00 2.412311e+00 2.456204e+00 2.120354e+00 2.289329e+00 1.863568e+00 3.304167e+00 8.095475e-01 4.384309e-01 4.139906e-01 4.448115e-01 5.097034e-01 5.174585e-01 5.229583e-01 5.181437e-01 5.107570e-01 4.589870e-01 4.836800e-01 3.950386e-01 4.811331e-01
<GCONST> 1.210206e+02
<STATE> 4
<MEAN> 39
 -6.085475e+00 -1.355704e+00 1.995931e+00 -2.490090e+00 -1.039999e+01 -5.155727e+00 -1.057057e+01 -5.121265e+00 -5.800601e+00 -2.298527e+00 -1.025701e+00 -4.691843e+00 6.199118e+01 1.558295e+00 -5.826497e-01 1.911390e-01 -5.814139e-01 -9.629360e-01 2.565327e-01 -8.220854e-01 -1.021066e-01 -2.165090e-01 -1.425658e-01 3.601886e-01 -6.474985e-01 1.333346e+00 -8.936554e-02 -8.436850e-02 -6.401738e-02 -6.723216e-02 -3.365471e-02 1.673162e-01 4.386187e-02 1.365803e-01 6.004432e-02 -1.234308e-02 6.507217e-02 -6.781635e-02 -3.124314e-02
<VARIANCE> 39
 8.881295e+01 5.612571e+01 9.585820e+01 5.187048e+01 8.315865e+01 7.103631e+01 5.668322e+01 6.523944e+01 6.487674e+01 4.035326e+01 4.707646e+01 3.694551e+01 1.091261e+02 9.991647e+00 5.508464e+00 5.861304e+00 4.905760e+00 7.275904e+00 5.863778e+00 5.581727e+00 6.206625e+00 5.637329e+00 4.069128e+00 4.765859e+00 4.087012e+00 9.342224e+00 1.264282e+00 7.905993e-01 7.622324e-01 7.628512e-01 1.162464e+00 9.248472e-01 9.322596e-01 9.173356e-01 8.922392e-01 6.662594e-01 8.108590e-01 6.546642e-01 1.189204e+00
<GCONST> 1.470215e+02
<TRANSP> 5
 0.000000e+00 1.000000e+00 0.000000e+00 0.000000e+00 0.000000e+00
 0.000000e+00 6.413144e-01 3.586856e-01 0.000000e+00 0.000000e+00
 0.000000e+00 0.000000e+00 7.661559e-01 2.338441e-01 0.000000e+00
 0.000000e+00 0.000000e+00 0.000000e+00 7.316605e-01 2.683395e-01
 0.000000e+00 0.000000e+00 0.000000e+00 0.000000e+00 0.000000e+00
<ENDHMM>
~h "g"
<BEGINHMM>
<NUMSTATES> 5
<STATE> 2
<MEAN> 39
 7.350432e-01 -2.815585e+00 1.663649e+00 -3.338159e+00 -1.078806e+01 -4.604224e+00 -1.117409e+01 -3.355024e+00 -5.738445e+00 -1.086382e+00 -1.378018e+00 -7.871810e+00 6.002647e+01 1.415351e-01 1.237885e+00 6.544124e-01 1.087871e+00 3.943690e-01 -4.539109e-01 5.249927e-01 -3.988828e-01 -3.065461e-01 1.351923e-01 -3.864554e-01 4.791175e-01 -1.744462e+00 -2.756135e-01 -1.425676e-01 -1.428970e-01 -1.822960e-01 1.053688e-01 9.482558e-02 7.048163e-02 1.802789e-02 1.045450e-01 -1.087399e-01 -1.443829e-02 4.797361e-02 2.436131e-01
<VARIANCE> 39
 3.579498e+01 5.644936e+01 6.873066e+01 5.557211e+01 6.833909e+01 7.944619e+01 5.834824e+01 7.632011e+01 7.112984e+01 4.801239e+01 5.564138e+01 4.123805e+01 1.253294e+02 2.332930e+00 3.295741e+00 2.975222e+00 3.595187e+00 4.057839e+00 4.159555e+00 3.770995e+00 4.959095e+00 5.018071e+00 3.465255e+00 3.649251e+00 2.822725e+00 5.969748e+00 4.365129e-01 5.549898e-01 4.874617e-01 5.833942e-01 8.202018e-01 8.322164e-01 6.976950e-01 7.964324e-01 8.536957e-01 6.407340e-01 7.271734e-01 5.234378e-01 1.024429e+00
<GCONST> 1.371917e+02
<STATE> 3
<MEAN> 39
 -4.208846e+00 -7.626454e-01 2.532372e+00 -1.479887e+00 -9.001516e+00 -6.614371e+00 -9.174163e+00 -3.786088e+00 -5.465912e+00 -1.761327e+00 -1.252469e+00 -4.625351e+00 5.852786e+01 -4.961077e-01 -6.098493e-01 2.773716e-02 -4.882417e-01 -4.148069e-01 -3.003999e-01 -9.027341e-02 1.265530e-01 1.320084e-01 -2.175514e-01 4.139814e-01 1.471166e-01 1.407863e+00 1.201340e-01 -2.340386e-01 -9.623116e-02 -2.610284e-01 -2.631653e-01 2.218114e-01 -1.039017e-01 1.098417e-01 7.035026e-02 -7.739028e-02 1.158175e-01 -1.963918e-01 3.072323e-01
<VARIANCE> 39
 7.487858e+01 5.651571e+01 7.682607e+01 4.677991e+01 8.038993e+01 7.743431e+01 5.114452e+01 6.259197e+01 6.190353e+01 3.988439e+01 4.662944e+01 3.274097e+01 1.374914e+02 6.720840e+00 5.554649e+00 5.114271e+00 4.377348e+00 8.313696e+00 5.922762e+00 4.772882e+00 5.698123e+00 5.893864e+00 3.929512e+00 4.775440e+00 3.453752e+00 1.168860e+01 1.050360e+00 9.048110e-01 8.273104e-01 7.383224e-01 1.382311e+00 1.124695e+00 8.207439e-01 9.721745e-01 1.003556e+00 7.420377e-01 8.844386e-01 6.168971e-01 1.720439e+00
<GCONST> 1.467339e+02
<STATE> 4
<MEAN> 39
 -1.099790e+00 -2.152391e+00 5.157264e+00 -2.533634e+00 -1.367642e+01 -4.517533e+00 -1.049301e+01 -2.987036e+00 -7.763936e+00 -1.267960e+00 -1.126029e+00 -5.914969e+00 6.290009e+01 -1.013240e-01 -4.393483e-02 -2.423322e-01 -1.665948e-01 1.327201e-01 1.879868e-01 1.414069e-01 1.249397e-01 2.270945e-01 -1.236973e-01 -5.794228e-02 -6.358209e-02 -1.284045e-01 -6.755874e-02 -6.245241e-02 -1.232265e-01 -4.595064e-02 1.244694e-01 4.723828e-02 -2.782482e-02 3.601968e-02 4.030282e-02 -3.675367e-02 -2.781677e-02 -1.837651e-02 4.423001e-02
<VARIANCE> 39
 4.480960e+01 5.779949e+01 7.303218e+01 5.210650e+01 8.521913e+01 7.549332e+01 6.056424e+01 1.033507e+02 7.505794e+01 4.771951e+01 6.154847e+01 3.498069e+01 1.032601e+02 1.954735e+00 2.679678e+00 2.654277e+00 2.744848e+00 3.763259e+00 3.223198e+00 3.016317e+00 4.778373e+00 3.703424e+00 2.825425e+00 3.144489e+00 2.315199e+00 3.647470e+00 3.121298e-01 3.793839e-01 3.935816e-01 4.691324e-01 7.404529e-01 5.603928e-01 5.811788e-01 8.082952e-01 6.158539e-01 4.969096e-01 6.101655e-01 3.865770e-01 5.722604e-01
<GCONST> 1.315754e+02
<TRANSP> 5
 0.000000e+00 1.000000e+00 0.000000e+00 0.000000e+00 0.000000e+00
 0.000000e+00 5.302243e-01 4.697758e-01 0.000000e+00 0.000000e+00
 0.000000e+00 0.000000e+00 6.913174e-01 3.086826e-01 0.000000e+00
 0.000000e+00 0.000000e+00 0.000000e+00 7.394860e-01 2.605140e-01
 0.000000e+00 0.000000e+00 0.000000e+00 0.000000e+00 0.000000e+00
<ENDHMM>
~h "h"
<BEGINHMM>
<NUMSTATES> 5
<STATE> 2
<MEAN> 39
 -3.969995e+00 -2.250811e+00 -1.478161e-01 -2.077650e+00 -5.237127e+00 -2.964744e+00 -6.910983e+00 -3.252485e+00 -4.819811e+00 -2.797067e+00 -4.109320e+00 -5.690162e+00 5.884552e+01 -1.175357e+00 5.922144e-01 7.912117e-02 5.583369e-01 9.974020e-01 -4.603866e-02 7.474614e-01 -9.091258e-03 3.539847e-01 -5.441212e-02 3.724119e-02 7.961528e-01 -1.355459e+00 -1.492468e-01 -2.907773e-01 -1.642593e-01 -2.707675e-01 -2.316877e-01 5.299048e-02 -1.554395e-01 8.148237e-02 1.786912e-02 1.553323e-02 1.784986e-01 -7.958264e-02 1.629690e-01
<VARIANCE> 39
 5.233820e+01 6.356910e+01 6.803305e+01 4.568170e+01 8.413776e+01 6.394604e+01 5.316859e+01 6.698649e+01 5.759906e+01 4.778613e+01 5.042188e+01 3.933911e+01 1.306463e+02 3.498115e+00 3.585499e+00 2.592121e+00 2.587264e+00 3.464017e+00 3.299990e+00 3.111360e+00 3.985541e+00 3.253906e+00 2.825542e+00 3.090375e+00 2.558353e+00 3.054734e+00 3.436502e-01 5.102747e-01 3.643294e-01 4.350538e-01 5.857943e-01 5.520852e-01 5.410111e-01 6.521629e-01 5.646678e-01 4.942058e-01 5.150182e-01 4.308907e-01 3.420930e-01
<GCONST> 1.301638e+02
<STATE> 3
<MEAN> 39
 -1.208714e+01 -3.334397e+00 -3.309002e+00 -2.517105e+00 -2.961319e+00 -3.789165e+00 -5.085652e+00 -1.919926e+00 -2.943084e+00 -2.839456e+00 -2.331290e+00 -2.400680e+00 5.111322e+01 -4.207604e-01 -1.829874e-03 -1.601295e-01 -8.257006e-02 -6.454573e-02 -5.186734e-02 3.428687e-02 -2.239698e-02 3.843003e-02 4.260474e-02 1.178572e-01 1.203667e-01 -5.191435e-01 2.000188e-01 -3.849373e-02 3.632260e-02 -6.124062e-02 -1.111010e-01 -2.370673e-03 -9.126016e-02 -2.343340e-02 -4.806169e-02 -1.723980e-02 -2.803467e-02 -1.236910e-01 1.919044e-01
<VARIANCE> 39
 8.712468e+01 6.937482e+01 4.569885e+01 3.256537e+01 4.642831e+01 4.123895e+01 3.971844e+01 3.786705e+01 3.477858e+01 3.070239e+01 2.858817e+01 2.749389e+01 1.483289e+02 1.982189e+00 2.150402e+00 1.795332e+00 1.669877e+00 1.985144e+00 2.058530e+00 2.064715e+00 2.347580e+00 2.265630e+00 2.037265e+00 2.023474e+00 1.795445e+00 2.240452e+00 3.447573e-01 3.755395e-01 3.036186e-01 3.336540e-01 4.080142e-01 3.931395e-01 4.196079e-01 4.548202e-01 4.387028e-01 3.993480e-01 3.929465e-01 3.669826e-01 3.511531e-01
<GCONST> 1.178172e+02
<STATE> 4
<MEAN> 39
 -8.471398e+00 -2.771820e+00 -2.182354e+00 -4.214070e+00 -6.104342e+00 -4.083267e+00 -7.489685e+00 -3.111725e+00 -3.871761e+00 -2.158943e+00 -1.961946e+00 -4.682518e+00 5.833478e+01 6.921339e-01 -3.088953e-01 6.898736e-02 -2.922990e-01 -4.732835e-01 1.820702e-02 -3.876992e-01 -2.030456e-02 -8.567701e-02 -6.227432e-02 7.212421e-02 -3.643492e-01 8.925251e-01 1.428078e-01 -7.363291e-02 1.342332e-02 -3.268057e-02 -1.169901e-01 6.206014e-02 -7.523445e-02 3.298814e-02 -5.358823e-04 -1.769042e-02 4.336735e-02 -8.852578e-02 1.692103e-01
<VARIANCE> 39
 1.036992e+02 6.675134e+01 7.742927e+01 5.157645e+01 6.797545e+01 6.115091e+01 5.423233e+01 5.627673e+01 5.469858e+01 4.131376e+01 4.289632e+01 3.908085e+01 1.621577e+02 7.668998e+00 4.570556e+00 3.918297e+00 3.816372e+00 4.523924e+00 3.847375e+00 3.865818e+00 4.397742e+00 3.638315e+00 3.157275e+00 3.400147e+00 3.204736e+00 8.986889e+00 1.109710e+00 7.224085e-01 6.159326e-01 6.357802e-01 7.719138e-01 6.724592e-01 6.987825e-01 7.476195e-01 6.309414e-01 5.743986e-01 6.272219e-01 5.512296e-01 1.199543e+00
<GCONST> 1.400228e+02
<TRANSP> 5
 0.000000e+00 1.000000e+00 0.000000e+00 0.000000e+00 0.000000e+00
 0.000000e+00 5.452886e-01 4.547114e-01 0.000000e+00 0.000000e+00
 0.000000e+00 0.000000e+00 7.519180e-01 2.480820e-01 0.000000e+00
 0.000000e+00 0.000000e+00 0.000000e+00 7.452209e-01 2.547791e-01
 0.000000e+00 0.000000e+00 0.000000e+00 0.000000e+00 0.000000e+00
<ENDHMM>
~h "i"
<BEGINHMM>
<NUMSTATES> 5
<STATE> 2
<MEAN> 39
 -4.960963e+00 -2.211862e+00 6.800628e+00 -3.031867e+00 -1.513140e+01 -6.488526e+00 -1.187424e+01 -4.780926e+00 -8.855124e+00 -3.760064e+00 1.467512e+00 -5.772850e+00 6.429717e+01 4.318769e-02 1.159865e-01 1.369975e+00 -2.374589e-01 -1.418686e+00 2.067523e-01 -7.106778e-01 -4.352955e-01 -7.991532e-01 -2.988816e-01 9.302062e-01 -8.838609e-02 6.396446e-01 -4.169653e-02 4.077537e-02 -2.323040e-01 -4.502878e-02 1.828401e-01 1.844623e-01 8.479200e-02 5.302720e-02 2.002983e-01 7.796879e-02 -1.361211e-01 -4.239294e-02 -2.148199e-01
<VARIANCE> 39
 6.492561e+01 5.012421e+01 1.024418e+02 4.785639e+01 9.151292e+01 8.153989e+01 6.557918e+01 7.746125e+01 6.575313e+01 4.244975e+01 5.253132e+01 3.635571e+01 1.002413e+02 4.456066e+00 3.012357e+00 5.002138e+00 3.178478e+00 6.407062e+00 4.527408e+00 5.622134e+00 4.893681e+00 4.570489e+00 3.222216e+00 4.131755e+00 2.944302e+00 5.494974e+00 6.896587e-01 5.129370e-01 7.412270e-01 5.337020e-01 1.105048e+00 7.915517e-01 9.062870e-01 8.888104e-01 8.045613e-01 5.842528e-01 7.064011e-01 5.019962e-01 8.503207e-01
<GCONST> 1.404768e+02
<STATE> 3
<MEAN> 39
 -5.656535e+00 -1.547222e+00 1.330873e+01 -5.709795e+00 -2.172748e+01 -4.708134e+00 -1.515516e+01 -7.542402e+00 -1.115510e+01 -5.130216e+00 4.408491e+00 -7.278926e+00 6.728958e+01 4.832958e-02 2.048043e-01 2.550736e-02 -1.086009e-02 -2.636911e-02 7.835145e-02 8.876620e-02 -6.361053e-02 -4.896773e-02 1.169705e-01 -7.969888e-02 -5.060650e-02 -3.267443e-01 5.314951e-02 1.275335e-02 -3.017252e-01 1.384459e-01 3.420008e-01 -1.657095e-01 2.453602e-01 1.515085e-01 1.495615e-01 8.330906e-02 -2.385540e-01 3.495592e-02 -2.127321e-01
<VARIANCE> 39
 3.031376e+01 3.825721e+01 9.752134e+01 4.366278e+01 6.763352e+01 8.954688e+01 5.725380e+01 7.546332e+01 5.027948e+01 4.374502e+01 5.186640e+01 3.692583e+01 5.649571e+01 6.075419e-01 1.309809e+00 1.292353e+00 1.362694e+00 1.615642e+00 1.721025e+00 1.913389e+00 2.088609e+00 1.710031e+00 1.585901e+00 1.650029e+00 1.309354e+00 1.273410e+00 1.598196e-01 2.104218e-01 2.774034e-01 2.430749e-01 4.266495e-01 3.506061e-01 4.328815e-01 4.230796e-01 3.749578e-01 3.227472e-01 3.748680e-01 2.782389e-01 2.201409e-01
<GCONST> 1.126405e+02
<STATE> 4
<MEAN> 39
 -3.684602e+00 9.356908e-01 9.202633e+00 -2.868502e+00 -1.625822e+01 -5.190167e+00 -1.091058e+01 -6.278308e+00 -1.010930e+01 -2.870859e+00 2.397435e-01 -6.164353e+00 5.771479e+01 8.856993e-02 1.976075e-01 -8.755580e-01 3.562707e-01 9.755962e-01 -1.774586e-01 6.870550e-01 2.247623e-01 5.212047e-01 1.078773e-01 -6.315394e-01 1.766430e-01 -1.264374e+00 -8.459672e-02 -5.336397e-02 -7.953811e-02 -4.123966e-02 1.118605e-01 6.220366e-02 -2.757038e-02 1.475783e-02 8.197872e-02 -3.213521e-02 -3.040260e-02 1.214753e-03 3.967505e-02
<VARIANCE> 39
 3.680507e+01 4.796664e+01 7.464019e+01 4.704380e+01 8.027841e+01 8.163499e+01 5.835731e+01 6.796693e+01 4.987482e+01 3.944325e+01 5.380335e+01 3.508572e+01 1.339932e+02 1.709160e+00 2.425478e+00 2.404330e+00 2.161802e+00 3.332324e+00 2.943949e+00 3.368284e+00 3.578849e+00 2.898593e+00 2.468542e+00 2.903750e+00 2.124937e+00 3.469540e+00 2.460913e-01 3.606466e-01 3.464221e-01 3.670130e-01 5.819557e-01 5.079475e-01 5.668333e-01 5.908520e-01 5.104274e-01 4.491490e-01 5.056132e-01 3.728676e-01 4.607740e-01
<GCONST> 1.265773e+02
<TRANSP> 5
 0.000000e+00 1.000000e+00 0.000000e+00 0.000000e+00 0.000000e+00
 0.000000e+00 6.415226e-01 3.584774e-01 0.000000e+00 0.000000e+00
 0.000000e+00 0.000000e+00 7.407878e-01 2.592122e-01 0.000000e+00
 0.000000e+00 0.000000e+00 0.000000e+00 7.388251e-01 2.611748e-01
 0.000000e+00 0.000000e+00 0.000000e+00 0.000000e+00 0.000000e+00
<ENDHMM>
~h "j"
<BEGINHMM>
<NUMSTATES> 5
<STATE> 2
<MEAN> 39
 -6.431277e+00 3.057176e+00 2.542282e+00 -1.974994e-01 -7.668290e+00 -6.365056e+00 -6.939856e+00 -3.627954e+00 -4.330206e+00 -2.725861e+00 -2.814918e+00 -4.065098e+00 5.212490e+01 -5.946437e-01 6.480370e-01 7.276124e-02 2.302284e-01 6.948533e-01 8.209711e-02 4.002754e-01 1.288740e-01 2.087516e-01 -6.708741e-02 -6.772798e-02 2.986079e-01 -9.470720e-01 -2.064901e-01 -3.569120e-01 -1.239852e-01 -2.659808e-01 -6.233414e-02 6.576897e-02 -1.521794e-01 -1.825004e-02 -2.863037e-02 -1.275585e-03 1.401131e-01 -1.502159e-02 6.407244e-01
<VARIANCE> 39
 1.078624e+02 4.214193e+01 6.142788e+01 3.306815e+01 5.507999e+01 4.822828e+01 4.247078e+01 4.777532e+01 4.760152e+01 3.474843e+01 3.528330e+01 2.638951e+01 1.399167e+02 5.231869e+00 3.560815e+00 2.671098e+00 2.653635e+00 3.821849e+00 3.087239e+00 3.212908e+00 3.784479e+00 3.306531e+00 2.708288e+00 2.833063e+00 2.251458e+00 6.521524e+00 9.518495e-01 6.126272e-01 4.900659e-01 5.112916e-01 7.245352e-01 6.039411e-01 6.152437e-01 7.320981e-01 6.811739e-01 5.348049e-01 5.647792e-01 4.550002e-01 1.224735e+00
<GCONST> 1.324602e+02
<STATE> 3
<MEAN> 39
 -1.187342e+01 2.424736e+00 1.898590e+00 -1.867582e+00 -5.094059e+00 -5.688169e+00 -6.968533e+00 -4.524258e+00 -4.210465e+00 -3.096924e+00 -2.078563e+00 -2.414097e+00 5.714885e+01 -4.400640e-01 -1.215618e+00 9.340093e-02 -7.990071e-01 -9.266731e-01 -6.432359e-01 -8.644448e-01 -1.323726e-01 -2.236091e-01 -2.311272e-01 6.434106e-01 2.179135e-01 3.479960e+00 8.291464e-01 -3.750076e-01 1.390460e-01 -1.170874e-01 -8.101889e-01 -4.950225e-02 -3.706416e-01 1.971668e-01 2.954765e-02 -4.531955e-02 2.304139e-01 -3.042050e-01 3.512228e-01
<VARIANCE> 39
 9.776026e+01 5.664568e+01 6.999646e+01 3.706058e+01 5.025685e+01 5.223185e+01 3.997474e+01 4.038351e+01 3.961079e+01 2.818047e+01 2.714159e+01 2.405951e+01 1.351366e+02 1.264955e+01 5.265588e+00 6.687284e+00 4.671486e+00 8.474703e+00 5.779204e+00 4.486358e+00 5.186926e+00 4.627068e+00 3.501590e+00 3.907373e+00 3.413458e+00 1.076439e+01 1.598628e+00 1.058198e+00 9.934122e-01 8.776444e-01 1.240114e+00 1.121457e+00 7.619288e-01 1.037152e+00 9.266751e-01 6.872799e-01 6.482022e-01 6.260010e-01 1.866122e+00
<GCONST> 1.440074e+02
<STATE> 4
<MEAN> 39
 -4.004882e+00 -3.551571e+00 6.098627e+00 -3.893025e+00 -1.650895e+01 -7.278257e+00 -1.289128e+01 -3.108237e+00 -6.062194e+00 -4.424525e+00 2.454423e+00 -5.176982e+00 6.783842e+01 1.118249e+00 -1.452080e+00 -5.902872e-01 -7.951168e-01 -1.003814e+00 4.664597e-01 -5.358212e-01 9.712085e-01 5.994313e-01 -4.856378e-03 3.150726e-01 -8.771452e-01 1.288110e+00 -1.097109e-01 1.095066e-01 -3.576652e-01 1.798651e-02 5.317335e-01 4.069477e-01 2.885160e-01 2.678636e-02 7.968841e-02 6.522451e-02 -3.510813e-01 -1.385609e-01 -4.964052e-01
<VARIANCE> 39
 3.508789e+01 4.898893e+01 1.042736e+02 5.049402e+01 8.688640e+01 7.940848e+01 5.624659e+01 7.921579e+01 7.406976e+01 4.640448e+01 5.268532e+01 3.712780e+01 7.863462e+01 4.526657e+00 5.765858e+00 5.723984e+00 3.950500e+00 8.350696e+00 5.640695e+00 5.565364e+00 7.062026e+00 6.000546e+00 3.729338e+00 5.475019e+00 3.869534e+00 6.842848e+00 7.616298e-01 6.677024e-01 8.126532e-01 6.556026e-01 1.377864e+00 1.016626e+00 8.725038e-01 1.098940e+00 8.750522e-01 6.521330e-01 9.379054e-01 7.051795e-01 8.724332e-01
<GCONST> 1.448896e+02
<TRANSP> 5
 0.000000e+00 1.000000e+00 0.000000e+00 0.000000e+00 0.000000e+00
 0.000000e+00 7.794800e-01 2.205199e-01 0.000000e+00 0.000000e+00
 0.000000e+00 0.000000e+00 6.751423e-01 3.248577e-01 0.000000e+00
 0.000000e+00 0.000000e+00 0.000000e+00 7.005353e-01 2.994647e-01
 0.000000e+00 0.000000e+00 0.000000e+00 0.000000e+00 0.000000e+00
<ENDHMM>
~h "k"
<BEGINHMM>
<NUMSTATES> 5
<STATE> 2
<MEAN> 39
 -5.205495e+00 7.021815e-01 -8.336359e-02 -2.228842e+00 -7.757712e+00 -4.903625e+00 -7.786231e+00 -4.343629e+00 -5.005466e+00 -2.163015e+00 -2.872335e+00 -4.906413e+00 4.990073e+01 -7.414604e-01 4.283639e-01 -1.267267e-01 3.044634e-01 5.320382e-01 -2.180479e-01 3.561590e-01 -9.347036e-03 1.896365e-01 -1.938809e-03 -1.830167e-01 4.737015e-01 -1.347790e+00 -1.429698e-01 -3.767868e-01 -1.446554e-01 -2.162185e-01 -1.923132e-02 2.247064e-02 -1.013969e-01 1.195177e-01 2.187986e-02 1.517292e-02 1.047781e-01 -2.633428e-02 6.317883e-01
<VARIANCE> 39
 7.282917e+01 4.810817e+01 5.637519e+01 4.199654e+01 5.793180e+01 5.570241e+01 4.798535e+01 5.403899e+01 5.023127e+01 3.818497e+01 4.090117e+01 3.623937e+01 1.493699e+02 2.825256e+00 2.898619e+00 2.384893e+00 2.482271e+00 3.401252e+00 3.033515e+00 3.093010e+00 3.294254e+00 3.027895e+00 2.771028e+00 2.890772e+00 2.347612e+00 5.341096e+00 4.794319e-01 5.576113e-01 4.558748e-01 4.928826e-01 6.418434e-01 5.733615e-01 6.103308e-01 6.383222e-01 5.905131e-01 5.479464e-01 5.434883e-01 4.562944e-01 9.870191e-01
<GCONST> 1.303785e+02
<STATE> 3
<MEAN> 39
 -9.492354e+00 -3.709817e-01 -1.036180e+00 -1.910493e+00 -5.716935e+00 -5.463986e+00 -7.062243e+00 -3.696543e+00 -4.274493e+00 -1.702601e+00 -2.807617e+00 -2.966759e+00 5.077996e+01 -5.923240e-01 -1.297114e+00 -8.171260e-01 -5.927473e-01 3.858035e-01 -3.635123e-01 -2.743091e-01 5.159108e-01 9.100094e-02 1.740262e-01 5.678752e-03 1.632925e-01 2.472171e+00 4.299173e-01 -3.273817e-01 -8.250719e-02 -3.482511e-01 -3.813448e-01 1.064907e-01 -2.682794e-01 1.330138e-01 -3.511323e-02 -4.211860e-02 1.200354e-01 -3.703602e-01 9.703503e-01
<VARIANCE> 39
 9.036366e+01 5.488488e+01 5.594680e+01 4.044797e+01 5.767728e+01 5.164429e+01 4.615497e+01 4.733461e+01 4.467120e+01 3.405516e+01 3.625675e+01 3.077047e+01 1.704565e+02 6.861670e+00 5.558702e+00 5.158160e+00 4.089747e+00 5.877220e+00 4.903465e+00 4.687640e+00 4.735173e+00 4.347371e+00 3.662072e+00 3.710233e+00 3.461045e+00 1.426192e+01 9.624093e-01 8.412282e-01 7.532108e-01 6.798916e-01 9.987754e-01 9.286976e-01 7.783217e-01 8.504875e-01 7.590702e-01 7.001189e-01 6.714504e-01 6.529559e-01 1.824608e+00
<GCONST> 1.419878e+02
<STATE> 4
<MEAN> 39
 -4.511851e+00 -6.436872e+00 -3.632998e+00 -6.556339e+00 -8.379321e+00 -5.008070e+00 -1.037846e+01 -1.075089e+00 -5.044082e+00 -1.132878e+00 -2.576097e+00 -7.164680e+00 6.441431e+01 6.007854e-01 -6.158440e-01 -1.118970e-01 -5.763549e-01 -5.859109e-01 2.366903e-01 -2.990807e-01 3.840539e-01 1.420102e-01 -2.141000e-01 2.299968e-01 -6.733773e-01 1.564449e+00 4.954026e-02 1.434612e-01 1.159742e-01 8.834505e-02 -4.746403e-02 1.911517e-01 8.622195e-02 -1.003838e-01 2.463222e-02 -1.166709e-01 2.604645e-02 -3.854060e-02 -3.635653e-01
<VARIANCE> 39
 5.943301e+01 6.405224e+01 7.705005e+01 5.578093e+01 7.714882e+01 8.379667e+01 5.651790e+01 7.339671e+01 5.994837e+01 4.619364e+01 5.096117e+01 4.630946e+01 1.326208e+02 5.180612e+00 5.035926e+00 4.724715e+00 4.635645e+00 5.928956e+00 5.610441e+00 4.682114e+00 6.114449e+00 4.881094e+00 4.331788e+00 4.135756e+00 4.553690e+00 1.265275e+01 8.519027e-01 6.907926e-01 7.801903e-01 7.304413e-01 1.137352e+00 9.355684e-01 8.338869e-01 9.903675e-01 7.875301e-01 7.525037e-01 7.936563e-01 7.554573e-01 1.379449e+00
<GCONST> 1.457694e+02
<TRANSP> 5
 0.000000e+00 1.000000e+00 0.000000e+00 0.000000e+00 0.000000e+00
 0.000000e+00 6.660576e-01 3.339424e-01 0.000000e+00 0.000000e+00
 0.000000e+00 0.000000e+00 5.552663e-01 4.447337e-01 0.000000e+00
 0.000000e+00 0.000000e+00 0.000000e+00 7.170230e-01 2.829770e-01
 0.000000e+00 0.000000e+00 0.000000e+00 0.000000e+00 0.000000e+00
<ENDHMM>
~h "l"
<BEGINHMM>
<NUMSTATES> 5
<STATE> 2
<MEAN> 39
 -1.414467e+00 -7.032677e+00 -1.774268e+00 -7.031789e+00 -1.209171e+01 -2.003106e+00 -1.253801e+01 -3.260134e+00 -2.873065e+00 -2.426637e+00 -2.477197e-01 -8.109277e+00 6.728241e+01 3.652007e-01 -4.361632e-01 -3.195879e-01 -5.842485e-01 -1.231942e-01 7.262699e-01 -5.610542e-01 1.104394e-01 4.007921e-01 2.428694e-01 8.601156e-02 -4.709333e-01 4.313663e-01 -7.650457e-02 1.326381e-01 7.544623e-02 3.859489e-02 1.072089e-01 3.314953e-02 6.983377e-02 -8.231734e-02 -1.387184e-01 1.266984e-02 -4.997779e-02 6.968511e-02 -2.097312e-01
<VARIANCE> 39
 3.915747e+01 5.955619e+01 8.771629e+01 6.968668e+01 7.171903e+01 9.839192e+01 6.722644e+01 1.035370e+02 8.481271e+01 5.346897e+01 5.605472e+01 4.621567e+01 1.118235e+02 2.425326e+00 3.062196e+00 3.993684e+00 4.007479e+00 4.952444e+00 4.935320e+00 4.377878e+00 5.581835e+00 5.172759e+00 4.172307e+00 4.146013e+00 3.190431e+00 4.245279e+00 4.354322e-01 4.525719e-01 5.254526e-01 6.711209e-01 8.211038e-01 8.342007e-01 7.746502e-01 9.620612e-01 8.362980e-01 7.040410e-01 6.827853e-01 6.007561e-01 5.647843e-01
<GCONST> 1.397949e+02
<STATE> 3
<MEAN> 39
 -5.710138e-02 -9.807146e+00 -3.255986e+00 -1.103263e+01 -1.337546e+01 2.057147e+00 -1.434593e+01 -6.584112e+00 1.076048e+00 -3.249791e+00 1.865176e+00 -1.056690e+01 6.987356e+01 1.189721e-01 8.153372e-02 9.385194e-02 -1.351107e-01 1.029426e-01 1.662918e-01 -1.585135e-01 -9.768958e-02 -2.420848e-01 2.454170e-01 -5.518523e-02 -9.953901e-03 -2.993162e-01 -7.816574e-02 1.297696e-01 5.172037e-02 1.455928e-01 9.321351e-02 -2.108385e-01 1.502030e-01 2.746027e-02 -1.489804e-01 -5.237449e-02 -1.196694e-01 1.424353e-01 -1.161299e-01
<VARIANCE> 39
 2.697315e+01 5.472979e+01 7.893376e+01 8.014707e+01 6.308214e+01 9.934306e+01 7.037341e+01 1.250124e+02 8.894062e+01 5.594296e+01 5.702380e+01 5.172737e+01 7.683329e+01 6.229784e-01 1.408097e+00 1.776085e+00 2.044035e+00 2.310215e+00 2.878032e+00 2.432123e+00 3.268517e+00 2.776284e+00 2.828747e+00 2.381330e+00 1.982471e+00 1.085737e+00 1.190306e-01 2.321782e-01 2.758419e-01 3.273072e-01 4.487866e-01 4.610736e-01 4.784508e-01 5.838550e-01 4.977046e-01 5.221687e-01 4.469820e-01 3.860798e-01 1.824549e-01
<GCONST> 1.215668e+02
<STATE> 4
<MEAN> 39
 1.482994e+00 -6.370338e+00 -8.882092e-01 -8.959913e+00 -1.265692e+01 2.630286e+00 -1.477052e+01 -2.583627e+00 -6.631576e+00 1.094106e-01 -2.590269e+00 -8.784628e+00 6.737850e+01 -1.076381e-01 3.236897e-01 1.808543e-01 3.952802e-01 2.226532e-01 -3.484056e-01 3.649620e-01 -6.009536e-02 -1.525430e-01 -1.445847e-01 -2.883375e-01 2.324781e-01 -5.064835e-01 -6.869118e-02 3.027964e-03 -2.360474e-02 5.338133e-02 3.971352e-02 -3.468831e-02 9.121011e-02 1.038743e-02 6.286079e-02 -9.567428e-02 1.227037e-02 1.903318e-02 -1.833325e-02
<VARIANCE> 39
 2.342265e+01 6.227728e+01 7.751550e+01 8.525820e+01 7.699580e+01 8.820865e+01 6.409571e+01 1.090436e+02 8.040897e+01 5.714418e+01 6.896033e+01 4.423439e+01 7.540147e+01 8.283400e-01 2.423818e+00 2.789211e+00 3.114241e+00 2.987269e+00 3.297965e+00 3.200043e+00 4.814314e+00 3.751258e+00 3.237941e+00 3.389889e+00 2.499119e+00 2.206796e+00 1.297191e-01 3.249128e-01 3.763005e-01 4.743386e-01 4.903100e-01 5.184368e-01 5.641482e-01 7.448351e-01 5.910754e-01 5.647580e-01 5.707446e-01 4.276522e-01 2.699790e-01
<GCONST> 1.285760e+02
<TRANSP> 5
 0.000000e+00 1.000000e+00 0.000000e+00 0.000000e+00 0.000000e+00
 0.000000e+00 4.761328e-01 5.238671e-01 0.000000e+00 0.000000e+00
 0.000000e+00 0.000000e+00 6.283871e-01 3.716129e-01 0.000000e+00
 0.000000e+00 0.000000e+00 0.000000e+00 7.919379e-01 2.080621e-01
 0.000000e+00 0.000000e+00 0.000000e+00 0.000000e+00 0.000000e+00
<ENDHMM>
~h "m"
<BEGINHMM>
<NUMSTATES> 5
<STATE> 2
<MEAN> 39
 -5.604093e-01 -6.228320e+00 -2.834933e-01 -6.194845e+00 -1.120085e+01 -1.938600e+00 -1.103543e+01 -5.051567e+00 -6.777631e+00 -2.764824e+00 -1.146877e+00 -8.820509e+00 6.468814e+01 2.950140e-02 6.152952e-01 6.079183e-01 6.832768e-01 1.640378e-01 -1.473793e-01 5.068948e-01 -1.046984e+00 -8.781406e-01 9.071574e-02 -2.701578e-01 1.671616e-01 -8.325726e-01 -8.875149e-02 -3.564271e-02 -2.777030e-02 -5.729636e-02 3.002133e-02 9.491209e-03 -4.476648e-03 1.169824e-01 8.856281e-02 -2.712626e-02 -3.123506e-02 4.803704e-02 4.775554e-02
<VARIANCE> 39
 4.121557e+01 5.530003e+01 7.767080e+01 6.048954e+01 7.248702e+01 7.792700e+01 5.839553e+01 1.174522e+02 7.711125e+01 5.703403e+01 6.979411e+01 4.801950e+01 1.262066e+02 1.007141e+00 1.984966e+00 2.594152e+00 3.028980e+00 2.713916e+00 2.806709e+00 2.980703e+00 4.669905e+00 4.145096e+00 2.981651e+00 3.421171e+00 2.476216e+00 2.108315e+00 1.779746e-01 3.012473e-01 3.695880e-01 4.397282e-01 4.452257e-01 4.476905e-01 4.906875e-01 7.543305e-01 6.253041e-01 4.919432e-01 5.775715e-01 4.225722e-01 2.776574e-01
<GCONST> 1.282749e+02
<STATE> 3
<MEAN> 39
 -1.971029e+00 -3.053682e+00 2.486110e+00 -3.524639e+00 -1.024606e+01 -3.512176e+00 -7.964505e+00 -8.280661e+00 -9.093131e+00 -3.873488e+00 -2.326505e+00 -6.643792e+00 5.795037e+01 -7.818018e-02 2.347990e-01 5.370186e-02 1.501673e-01 1.405031e-01 1.390701e-02 2.234795e-01 -5.621906e-02 -9.309313e-02 1.819230e-02 -8.106355e-02 1.354904e-01 -4.763818e-01 -2.603167e-03 -3.733997e-02 -1.094314e-01 -9.582077e-02 1.452314e-04 2.046678e-02 -8.754419e-02 1.754379e-01 1.546844e-01 1.455166e-02 5.579771e-02 -1.269696e-02 5.580041e-02
<VARIANCE> 39
 5.423910e+01 4.677003e+01 6.525570e+01 4.607121e+01 7.278710e+01 6.838603e+01 5.874947e+01 9.225883e+01 6.808051e+01 6.271639e+01 6.423588e+01 4.402417e+01 1.268150e+02 4.161096e-01 8.893599e-01 8.968391e-01 1.084907e+00 1.318757e+00 1.440506e+00 1.495931e+00 1.702312e+00 1.725766e+00 1.635128e+00 1.791847e+00 1.312666e+00 9.241548e-01 8.637661e-02 1.546150e-01 1.975877e-01 2.612131e-01 2.534751e-01 2.709398e-01 3.183751e-01 4.066528e-01 4.178069e-01 3.308385e-01 3.553046e-01 2.763917e-01 1.391165e-01
<GCONST> 1.098785e+02
<STATE> 4
<MEAN> 39
 -2.167178e+00 -1.973286e+00 5.702505e-01 -3.694213e+00 -8.161422e+00 -1.973653e+00 -7.716551e+00 -6.966451e+00 -8.206751e+00 -2.323073e+00 -2.698795e+00 -6.006865e+00 5.551312e+01 -1.960781e-01 1.086275e-02 -3.159384e-01 -2.336770e-01 1.542814e-01 9.948848e-03 -1.132592e-01 4.461691e-01 5.482799e-01 1.054381e-02 9.011546e-02 5.822974e-02 -2.404731e-01 -4.980801e-02 -1.294224e-01 -9.340227e-02 -1.269249e-01 1.068427e-02 2.492500e-02 -1.288873e-01 1.724769e-01 2.044284e-01 -6.247283e-02 3.592319e-02 -2.666496e-02 2.013822e-01
<VARIANCE> 39
 5.734826e+01 5.261761e+01 5.872181e+01 6.090192e+01 6.820175e+01 6.549210e+01 5.650484e+01 8.572903e+01 7.684959e+01 5.488943e+01 5.878993e+01 3.784115e+01 1.627146e+02 1.302304e+00 2.396175e+00 2.300689e+00 3.046926e+00 2.657367e+00 2.792771e+00 3.030360e+00 3.521562e+00 3.994275e+00 2.827701e+00 2.988118e+00 2.145978e+00 3.389114e+00 2.643110e-01 3.853566e-01 3.909715e-01 5.122647e-01 4.979308e-01 4.883872e-01 5.363993e-01 6.988901e-01 7.568147e-01 5.195590e-01 5.453115e-01 3.891024e-01 4.902400e-01
<GCONST> 1.293845e+02
<TRANSP> 5
 0.000000e+00 1.000000e+00 0.000000e+00 0.000000e+00 0.000000e+00
 0.000000e+00 5.721943e-01 4.278056e-01 0.000000e+00 0.000000e+00
 0.000000e+00 0.000000e+00 7.439503e-01 2.560496e-01 0.000000e+00
 0.000000e+00 0.000000e+00 0.000000e+00 5.760347e-01 4.239653e-01
 0.000000e+00 0.000000e+00 0.000000e+00 0.000000e+00 0.000000e+00
<ENDHMM>
~h "n"
<BEGINHMM>
<NUMSTATES> 5
<STATE> 2
<MEAN> 39
 -6.488450e-01 -9.016426e+00 -1.592943e+00 -5.980587e+00 -1.188685e+01 -3.307517e+00 -1.286561e+01 -6.577678e-01 -3.457418e+00 -3.047457e+00 -2.877752e+00 -9.864005e+00 6.684681e+01 5.712538e-01 1.428792e+00 1.074008e+00 1.247388e+00 2.612776e-02 -1.318256e+00 3.669749e-01 -1.609778e+00 -6.837142e-01 9.977781e-01 -7.504153e-01 2.230366e-01 -1.651002e+00 -7.323963e-02 2.755721e-01 1.230768e-01 7.840071e-02 9.884573e-02 -2.106080e-02 2.812092e-01 -3.811180e-01 -1.204802e-01 5.037886e-02 -7.226882e-02 1.400028e-01 -2.401484e-01
<VARIANCE> 39
 3.163641e+01 6.357030e+01 6.736252e+01 4.494743e+01 6.251542e+01 7.759273e+01 5.936645e+01 1.034949e+02 6.767030e+01 5.847284e+01 5.791882e+01 4.828267e+01 1.154009e+02 1.488444e+00 3.521969e+00 3.353835e+00 2.975830e+00 3.858461e+00 4.919932e+00 4.231060e+00 6.795921e+00 3.992974e+00 4.472178e+00 4.148257e+00 3.333482e+00 4.046402e+00 2.312788e-01 4.423644e-01 3.908526e-01 4.630415e-01 5.855281e-01 6.965814e-01 7.593884e-01 1.028580e+00 5.974896e-01 6.540708e-01 6.254210e-01 4.807476e-01 4.816850e-01
<GCONST> 1.346390e+02
<STATE> 3
<MEAN> 39
 1.737521e+00 -2.738361e+00 3.598904e+00 -1.091935e+00 -1.232569e+01 -9.649733e+00 -8.653906e+00 -1.041350e+01 -6.375130e+00 1.303458e-01 -6.813258e+00 -9.848694e+00 5.997756e+01 5.468203e-02 8.938754e-01 3.912967e-01 5.157742e-01 2.049115e-01 -1.514647e-01 4.409743e-01 -5.685198e-01 -4.482721e-01 2.676004e-01 -2.856581e-01 3.080743e-01 -1.124277e+00 -2.165296e-01 -2.661094e-01 -2.335343e-01 -2.805113e-01 1.056153e-01 3.482762e-01 -1.806525e-01 5.151969e-01 1.380919e-01 -3.254749e-01 2.798273e-01 4.511307e-02 2.351473e-01
<VARIANCE> 39
 2.422612e+01 2.995251e+01 4.113329e+01 3.739231e+01 4.946086e+01 9.112949e+01 5.944757e+01 8.001995e+01 6.108028e+01 4.764336e+01 6.668050e+01 5.902501e+01 6.653842e+01 9.949027e-01 2.071211e+00 2.054212e+00 1.951072e+00 2.503616e+00 2.936867e+00 3.069472e+00 4.470089e+00 2.808770e+00 2.896562e+00 2.857202e+00 2.199033e+00 2.717026e+00 1.888781e-01 3.527332e-01 3.351381e-01 3.738199e-01 4.552571e-01 5.472072e-01 5.335475e-01 7.281284e-01 4.986974e-01 5.806968e-01 5.317985e-01 4.362929e-01 3.658353e-01
<GCONST> 1.237670e+02
<STATE> 4
<MEAN> 39
 -9.972091e-01 -2.403224e+00 2.517504e+00 -3.952300e+00 -1.244371e+01 -3.271386e+00 -1.159513e+01 -4.355847e+00 -8.241796e+00 -1.129820e+00 -2.213014e+00 -7.450204e+00 6.164063e+01 -3.795208e-01 4.295470e-02 -1.598874e-01 -1.440482e-01 2.721983e-01 1.474491e-01 6.048824e-02 3.942341e-01 2.213051e-01 -3.400019e-01 2.023647e-01 1.900373e-01 -2.404305e-01 -9.251657e-02 -7.050295e-02 -8.479206e-02 -5.099762e-02 2.460198e-02 1.974700e-02 2.732962e-02 6.065351e-02 1.074418e-01 -6.145371e-02 2.590675e-02 -1.463991e-02 7.540574e-02
<VARIANCE> 39
 3.769532e+01 5.171761e+01 8.884068e+01 5.862163e+01 8.278571e+01 8.303544e+01 6.673768e+01 9.111495e+01 7.729941e+01 5.264627e+01 7.060785e+01 4.408237e+01 1.237722e+02 2.320984e+00 3.556160e+00 3.855095e+00 3.649594e+00 4.814561e+00 4.515064e+00 4.347802e+00 5.680331e+00 4.747848e+00 3.908890e+00 4.363467e+00 3.224835e+00 5.993086e+00 3.943652e-01 5.143287e-01 5.769514e-01 6.182038e-01 8.281047e-01 7.356784e-01 7.724720e-01 9.574481e-01 8.354943e-01 7.041692e-01 7.768219e-01 5.711232e-01 7.373943e-01
<GCONST> 1.398566e+02
<TRANSP> 5
 0.000000e+00 1.000000e+00 0.000000e+00 0.000000e+00 0.000000e+00
 0.000000e+00 4.826901e-01 5.173099e-01 0.000000e+00 0.000000e+00
 0.000000e+00 0.000000e+00 6.597048e-01 3.402952e-01 0.000000e+00
 0.000000e+00 0.000000e+00 0.000000e+00 7.445750e-01 2.554250e-01
 0.000000e+00 0.000000e+00 0.000000e+00 0.000000e+00 0.000000e+00
<ENDHMM>
~h "o"
<BEGINHMM>
<NUMSTATES> 5
<STATE> 2
<MEAN> 39
 -4.113804e+00 -2.143465e+00 -3.229004e+00 -6.368238e+00 -8.508001e+00 -2.516561e+00 -1.045286e+01 -5.201358e+00 -5.164023e+00 -2.058911e+00 -8.147388e-01 -5.248101e+00 6.019478e+01 8.654897e-01 -7.287954e-01 -6.248308e-01 -1.341673e+00 -8.238698e-01 9.992878e-01 -6.454750e-01 3.487112e-02 3.134807e-01 -1.880792e-01 8.336798e-01 -6.408515e-01 2.198557e+00 9.540014e-02 -3.418097e-02 8.422606e-02 -6.032000e-02 -2.184147e-01 2.361141e-01 2.363071e-02 2.654922e-02 7.242700e-02 -6.284407e-02 9.704548e-02 -1.541542e-01 -7.105665e-02
<VARIANCE> 39
 6.789091e+01 5.261732e+01 9.036042e+01 8.261843e+01 7.709128e+01 7.617522e+01 6.116536e+01 6.691874e+01 6.964555e+01 4.953012e+01 4.858054e+01 4.195111e+01 1.523999e+02 7.026261e+00 4.713401e+00 6.244535e+00 7.056108e+00 8.186456e+00 7.018152e+00 5.441139e+00 6.580563e+00 6.137418e+00 5.033891e+00 5.317377e+00 4.735544e+00 1.249826e+01 1.019261e+00 7.542316e-01 1.012479e+00 1.027413e+00 1.355780e+00 1.013038e+00 9.999781e-01 9.959306e-01 9.824988e-01 8.416148e-01 8.472217e-01 7.542320e-01 1.914177e+00
<GCONST> 1.507616e+02
<STATE> 3
<MEAN> 39
 1.845294e-01 -6.993254e+00 -5.356750e+00 -1.289887e+01 -1.282277e+01 3.088907e+00 -1.249556e+01 -5.523966e+00 -1.304002e+00 -4.094890e+00 3.488344e+00 -9.341901e+00 6.908575e+01 4.532286e-01 -6.294764e-01 -3.500445e-01 -9.074867e-01 -4.711076e-01 1.541543e+00 -2.705532e-02 2.754123e-02 3.826163e-01 -3.178578e-01 6.268929e-01 -5.977021e-01 6.750458e-01 -4.185861e-01 3.170502e-01 1.996102e-01 5.982451e-01 5.247097e-01 -4.583329e-01 3.029975e-01 -2.279729e-04 -2.602562e-01 1.231113e-01 -5.102043e-01 3.457283e-01 -7.422654e-01
<VARIANCE> 39
 3.219307e+01 4.814883e+01 7.178963e+01 1.172284e+02 6.126515e+01 9.245601e+01 6.206243e+01 9.315761e+01 8.347220e+01 6.093697e+01 6.564490e+01 4.896741e+01 9.293840e+01 1.590800e+00 2.633433e+00 2.477556e+00 3.996965e+00 4.053231e+00 4.208797e+00 3.659339e+00 4.515077e+00 4.582656e+00 3.453496e+00 3.621080e+00 3.138142e+00 2.933293e+00 4.482006e-01 4.175587e-01 5.259913e-01 7.635334e-01 7.847086e-01 8.092303e-01 7.380993e-01 8.909085e-01 8.042333e-01 7.092990e-01 7.491027e-01 6.444973e-01 5.672867e-01
<GCONST> 1.368243e+02
<STATE> 4
<MEAN> 39
 1.726102e+00 -5.810807e+00 -5.364990e+00 -1.378380e+01 -1.317439e+01 5.948987e+00 -1.234479e+01 -6.934007e+00 -3.132935e+00 -4.003716e+00 1.564535e+00 -8.847762e+00 6.786433e+01 -1.822836e-02 1.958873e-01 2.066458e-01 5.833955e-01 2.851491e-01 -4.560636e-01 1.005555e-01 2.276575e-02 -1.456229e-01 1.542146e-01 -4.526748e-01 7.357363e-02 -6.066154e-01 -6.612805e-02 1.087222e-01 8.188967e-02 1.809318e-01 9.039360e-02 -2.168471e-01 4.517372e-02 5.403826e-03 -3.108718e-02 2.030284e-02 -1.021004e-01 7.343719e-02 -1.730950e-01
<VARIANCE> 39
 2.240450e+01 5.819752e+01 6.321609e+01 1.190597e+02 6.990048e+01 7.992536e+01 6.073420e+01 9.627905e+01 8.183527e+01 6.360050e+01 6.503114e+01 5.189348e+01 7.566441e+01 8.070395e-01 2.136547e+00 2.213683e+00 3.897580e+00 2.908917e+00 3.773550e+00 2.834468e+00 3.519396e+00 3.427213e+00 2.997300e+00 3.359547e+00 2.729088e+00 2.490242e+00 1.492055e-01 3.142591e-01 3.459944e-01 5.360739e-01 5.323012e-01 6.268959e-01 5.214504e-01 6.251701e-01 5.984309e-01 5.423012e-01 5.936116e-01 5.029784e-01 3.202956e-01
<GCONST> 1.285037e+02
<TRANSP> 5
 0.000000e+00 1.000000e+00 0.000000e+00 0.000000e+00 0.000000e+00
 0.000000e+00 6.534668e-01 3.465332e-01 0.000000e+00 0.000000e+00
 0.000000e+00 0.000000e+00 4.319593e-01 5.680408e-01 0.000000e+00
 0.000000e+00 0.000000e+00 0.000000e+00 8.417174e-01 1.582826e-01
 0.000000e+00 0.000000e+00 0.000000e+00 0.000000e+00 0.000000e+00
<ENDHMM>
~h "p"
<BEGINHMM>
<NUMSTATES> 5
<STATE> 2
<MEAN> 39
 -8.847923e+00 9.445506e-01 -1.681618e+00 -2.307698e+00 -5.777660e+00 -4.250340e+00 -6.314767e+00 -4.216579e+00 -4.148962e+00 -2.496487e+00 -2.769489e+00 -3.838985e+00 4.759365e+01 -7.293370e-01 3.709479e-01 -5.712117e-02 2.221775e-01 3.098473e-01 -1.206528e-01 2.737075e-01 7.850540e-02 1.394268e-01 7.567953e-03 -1.455756e-02 2.561287e-01 -9.451170e-01 2.428314e-03 -2.406448e-01 -4.642472e-02 -1.300791e-01 -7.648614e-02 1.829252e-02 -8.447093e-02 3.026811e-02 1.375687e-02 -1.656247e-03 7.647421e-02 -2.129891e-02 4.420784e-01
<VARIANCE> 39
 1.035928e+02 4.178093e+01 4.621948e+01 3.361196e+01 4.126294e+01 4.057800e+01 3.835567e+01 4.135672e+01 4.109806e+01 3.071321e+01 3.281390e+01 3.218148e+01 1.505605e+02 2.882411e+00 2.440590e+00 1.949046e+00 2.033231e+00 2.527571e+00 2.401786e+00 2.426515e+00 2.625737e+00 2.543369e+00 2.313899e+00 2.508608e+00 1.965915e+00 3.804652e+00 4.715509e-01 4.551025e-01 3.798759e-01 4.144310e-01 4.790043e-01 4.727699e-01 4.642562e-01 5.037079e-01 4.977463e-01 4.457701e-01 4.769425e-01 3.861744e-01 6.917520e-01
<GCONST> 1.231035e+02
<STATE> 3
<MEAN> 39
 -9.386934e+00 1.883318e+00 -9.709282e-01 -1.486340e+00 -5.361434e+00 -4.063891e+00 -5.962956e+00 -4.226657e+00 -3.920451e+00 -2.228056e+00 -2.976248e+00 -3.506928e+00 4.712232e+01 -4.714847e-01 -9.582561e-01 -4.473847e-01 -5.342938e-01 1.311368e-01 -2.384693e-01 -1.249473e-01 9.407999e-02 2.315108e-01 -5.437398e-02 2.667524e-01 2.065201e-01 2.291627e+00 4.491639e-01 -5.715424e-01 -1.748041e-01 -4.943603e-01 -4.006174e-01 1.065688e-01 -3.567098e-01 -8.008260e-03 7.899087e-04 -2.697344e-02 1.901709e-01 -2.853672e-01 1.391052e+00
<VARIANCE> 39
 1.014489e+02 4.331187e+01 4.887564e+01 3.605645e+01 4.253170e+01 4.239626e+01 3.890997e+01 3.877876e+01 3.965438e+01 2.925500e+01 3.057480e+01 2.969554e+01 1.617501e+02 6.610020e+00 4.354774e+00 3.978127e+00 3.667243e+00 3.978334e+00 3.952185e+00 3.455208e+00 3.758297e+00 3.548725e+00 2.879408e+00 3.120038e+00 2.838740e+00 1.301182e+01 9.865699e-01 7.623416e-01 6.682898e-01 7.149782e-01 7.862796e-01 8.305068e-01 6.489589e-01 7.781153e-01 6.889178e-01 5.991868e-01 6.414386e-01 5.953705e-01 1.735616e+00
<GCONST> 1.363109e+02
<STATE> 4
<MEAN> 39
 -4.209853e+00 -3.737868e+00 -3.191544e+00 -4.301946e+00 -1.035193e+01 -3.132144e+00 -8.223642e+00 -6.069676e+00 -2.139737e+00 -2.529896e+00 -2.780739e-01 -5.367553e+00 6.148444e+01 5.855870e-01 -6.404738e-01 -1.314507e-01 -4.754176e-01 -5.063020e-01 2.010954e-01 -4.164604e-01 1.200805e-01 1.162595e-01 -5.008398e-02 2.507154e-01 -4.376108e-01 1.597359e+00 6.010806e-02 5.637132e-02 5.807522e-02 3.582138e-02 -6.038393e-02 1.048766e-01 -4.172714e-03 5.421455e-02 -1.300228e-02 -2.610663e-02 -1.130858e-02 -7.351024e-02 -2.092598e-01
<VARIANCE> 39
 8.250455e+01 6.331482e+01 8.355010e+01 6.146598e+01 8.756631e+01 8.004414e+01 4.983582e+01 7.313031e+01 7.145387e+01 4.091302e+01 4.580104e+01 4.199744e+01 1.373656e+02 6.806125e+00 6.134900e+00 4.990276e+00 4.797530e+00 7.298915e+00 5.592711e+00 4.290967e+00 5.796951e+00 5.173712e+00 3.725840e+00 4.335175e+00 4.068366e+00 1.574238e+01 1.065354e+00 8.902272e-01 7.836696e-01 8.064628e-01 1.283160e+00 9.502465e-01 7.620509e-01 9.597450e-01 8.534361e-01 6.618006e-01 7.829929e-01 7.030584e-01 1.779532e+00
<GCONST> 1.475006e+02
<TRANSP> 5
 0.000000e+00 1.000000e+00 0.000000e+00 0.000000e+00 0.000000e+00
 0.000000e+00 7.632411e-01 2.367590e-01 0.000000e+00 0.000000e+00
 0.000000e+00 0.000000e+00 4.943092e-01 5.056908e-01 0.000000e+00
 0.000000e+00 0.000000e+00 0.000000e+00 8.154529e-01 1.845471e-01
 0.000000e+00 0.000000e+00 0.000000e+00 0.000000e+00 0.000000e+00
<ENDHMM>
~h "q"
<BEGINHMM>
<NUMSTATES> 5
<STATE> 2
<MEAN> 39
 -7.289900e+00 -1.178902e+01 -9.038384e+00 -6.053923e+00 -6.314719e+00 -5.723492e+00 -5.411676e+00 1.374001e+00 -7.017281e+00 2.264525e+00 -5.412270e+00 -7.936141e+00 6.778436e+01 1.299020e-02 -6.702195e-02 -5.612548e-02 1.617735e-01 1.090311e-01 -2.232357e-01 2.172777e-02 3.087316e-01 3.328381e-02 -8.719730e-02 -1.652450e-01 1.783701e-01 8.211881e-02 1.996953e-02 2.997291e-02 2.797203e-02 1.094254e-02 4.077327e-03 -1.172921e-02 3.036769e-02 -4.793580e-02 5.618966e-03 -2.220425e-02 3.405255e-02 -2.197325e-04 -3.014538e-02
<VARIANCE> 39
 8.205934e+01 9.160412e+01 2.885100e+01 4.161520e+01 5.753094e+01 4.021410e+01 3.380415e+01 5.366518e+01 4.351398e+01 3.038878e+01 3.744522e+01 6.456344e+01 1.455853e+02 4.788336e+00 5.946129e+00 1.904158e+00 3.811829e+00 3.311240e+00 2.363628e+00 2.748875e+00 4.094557e+00 3.613399e+00 2.708476e+00 4.047415e+00 3.545236e+00 8.779095e+00 6.683099e-01 8.208633e-01 2.463217e-01 6.288426e-01 4.956109e-01 3.528172e-01 5.203027e-01 7.525268e-01 6.699515e-01 4.876212e-01 6.974813e-01 6.126639e-01 1.208468e+00
<GCONST> 1.329011e+02
<STATE> 3
<MEAN> 39
 -4.223157e-01 -5.507567e+00 3.435910e-02 -3.065917e+00 -1.170121e+01 -4.358428e+00 -8.699021e+00 6.313178e+00 -2.014997e-01 -2.947235e-01 -6.581808e+00 -6.272322e+00 6.514748e+01 -2.863335e-01 7.049580e-01 -2.684233e-02 4.248590e-01 1.183703e+00 2.211353e-01 7.413546e-01 -9.228425e-01 3.001036e-01 -2.608630e-01 -3.766725e-01 1.978766e-01 -1.319070e+00 -1.090423e-01 -3.291979e-03 -1.540593e-01 -1.530906e-01 1.727412e-01 9.330346e-02 -5.819927e-02 -4.624785e-01 -2.501675e-01 8.239557e-02 2.280065e-01 -1.328923e-02 -1.041277e-01
<VARIANCE> 39
 1.898126e+01 3.706272e+01 1.304185e+01 3.811636e+01 5.705270e+01 6.604603e+01 3.415580e+01 6.187956e+01 3.203514e+01 3.174773e+01 2.626036e+01 2.347562e+01 9.463496e+01 2.021594e+00 1.454676e+00 3.264436e+00 2.133100e+00 4.526599e+00 6.717700e+00 4.279201e+00 8.029580e+00 3.090589e+00 9.755767e-01 2.274241e+00 2.845449e+00 4.028985e+00 4.762105e-01 3.566124e-01 2.824816e-01 3.951045e-01 6.620772e-01 1.203065e+00 7.920726e-01 1.604533e+00 4.402415e-01 1.640290e-01 4.006732e-01 6.767556e-01 7.771494e-01
<GCONST> 1.244278e+02
<STATE> 4
<MEAN> 39
 -5.551289e+00 -1.005756e+01 -6.948145e+00 -5.459836e+00 -1.329543e+00 -3.848529e+00 -6.438062e+00 -3.102213e+00 -2.898357e+00 -1.652115e+00 -6.634076e+00 -7.180989e+00 5.651801e+01 -9.037594e-02 1.341065e-01 -5.547924e-02 5.915355e-02 -3.461172e-02 -7.586852e-02 -1.442229e-01 -1.759642e-01 -2.495579e-02 -9.568803e-02 1.233608e-01 1.310831e-02 -5.314035e-01 1.954710e-02 1.287629e-02 5.555310e-02 -2.846203e-02 -9.672175e-02 1.410069e-02 -4.259848e-02 1.047256e-02 -3.233350e-02 -8.871598e-03 4.299629e-02 -7.333197e-03 1.016550e-01
<VARIANCE> 39
 3.067741e+01 6.569909e+01 3.866907e+01 2.676181e+01 4.177141e+01 3.455626e+01 5.155247e+01 4.385662e+01 4.809973e+01 3.060174e+01 3.732681e+01 2.604231e+01 2.441989e+02 1.285306e+00 3.413054e+00 4.060081e+00 2.205505e+00 2.496523e+00 2.261561e+00 3.104977e+00 3.625399e+00 3.749598e+00 1.991380e+00 2.110108e+00 2.020033e+00 8.625704e+00 1.809071e-01 5.018705e-01 8.513847e-01 3.763499e-01 4.263313e-01 4.113182e-01 5.218758e-01 7.402380e-01 6.624675e-01 4.006258e-01 4.362455e-01 3.916202e-01 1.088989e+00
<GCONST> 1.250981e+02
<TRANSP> 5
 0.000000e+00 1.000000e+00 0.000000e+00 0.000000e+00 0.000000e+00
 0.000000e+00 8.984823e-01 1.015176e-01 0.000000e+00 0.000000e+00
 0.000000e+00 0.000000e+00 6.931742e-01 3.068258e-01 0.000000e+00
 0.000000e+00 0.000000e+00 0.000000e+00 9.344279e-01 6.557217e-02
 0.000000e+00 0.000000e+00 0.000000e+00 0.000000e+00 0.000000e+00
<ENDHMM>
~h "r"
<BEGINHMM>
<NUMSTATES> 5
<STATE> 2
<MEAN> 39
 -2.047437e+00 -6.931468e+00 -3.972277e+00 -5.718044e+00 -1.027709e+01 -2.992335e+00 -1.089423e+01 -2.917003e+00 -1.543725e+00 -2.326186e+00 -1.664926e+00 -8.272636e+00 6.465304e+01 2.910364e-01 -4.267462e-01 -1.282152e-01 4.072073e-02 -1.732655e-01 1.906792e-01 -4.176731e-01 3.271495e-01 7.202669e-02 1.104007e-01 -2.077007e-03 -2.654165e-01 4.014015e-01 -4.765277e-02 7.966752e-02 1.276553e-01 -1.441872e-03 2.997681e-02 3.607219e-02 2.287681e-02 -4.004844e-02 -2.094815e-01 2.240994e-02 2.311935e-02 5.894670e-02 -1.239971e-01
<VARIANCE> 39
 4.169636e+01 5.832803e+01 7.520300e+01 5.689706e+01 7.026312e+01 8.514876e+01 5.512723e+01 8.298993e+01 7.445553e+01 4.765518e+01 5.197582e+01 4.812436e+01 1.474961e+02 2.934364e+00 3.528527e+00 3.376658e+00 4.082961e+00 4.488602e+00 4.476147e+00 3.682189e+00 5.039941e+00 4.346736e+00 3.466953e+00 3.931675e+00 3.484183e+00 8.184789e+00 5.484269e-01 6.086693e-01 5.290835e-01 7.356248e-01 8.180154e-01 8.000263e-01 6.954882e-01 9.138510e-01 8.176163e-01 6.496111e-01 6.905219e-01 6.983558e-01 1.230759e+00
<GCONST> 1.401948e+02
<STATE> 3
<MEAN> 39
 -6.738643e-01 -9.465278e+00 -4.604892e+00 -6.152371e+00 -1.141948e+01 -2.201837e+00 -1.260419e+01 -1.602418e+00 -7.780063e-01 -2.633186e+00 -1.472281e+00 -1.039863e+01 6.790990e+01 2.338959e-01 1.515311e-01 3.764393e-01 2.676437e-01 -6.510835e-02 3.799134e-02 -2.234931e-01 -5.076542e-03 -5.836909e-01 2.799408e-01 -9.678919e-03 6.878833e-02 -5.527353e-01 -1.221536e-01 2.357154e-01 1.744562e-01 1.611598e-02 8.968820e-02 -8.273987e-02 1.747137e-01 -1.736760e-01 -1.970784e-01 -2.777291e-02 6.909010e-03 2.095594e-01 -2.253212e-01
<VARIANCE> 39
 2.850869e+01 5.444392e+01 7.204230e+01 5.089622e+01 6.235123e+01 8.311815e+01 5.807543e+01 9.298913e+01 7.411349e+01 4.773856e+01 5.490671e+01 4.785269e+01 1.140800e+02 1.306317e+00 2.519224e+00 2.590089e+00 2.854773e+00 3.335605e+00 3.829791e+00 2.977557e+00 4.595455e+00 3.762164e+00 3.223506e+00 3.463102e+00 2.662664e+00 3.352231e+00 2.447608e-01 3.974469e-01 3.576197e-01 4.895306e-01 6.111930e-01 6.079338e-01 5.743549e-01 7.957373e-01 6.406658e-01 6.029180e-01 6.264398e-01 4.698303e-01 5.186216e-01
<GCONST> 1.307663e+02
<STATE> 4
<MEAN> 39
 6.797308e-01 -6.076253e+00 3.346682e-01 -6.241582e+00 -1.408077e+01 -1.459838e-01 -1.412858e+01 -1.956854e+00 -7.203083e+00 -6.907129e-01 -1.476825e+00 -9.002091e+00 6.728491e+01 -6.963997e-02 3.920944e-01 3.240786e-01 2.126217e-01 1.460270e-01 -2.136671e-01 2.710527e-01 -2.365332e-01 -2.253126e-01 -5.277991e-02 -1.137032e-01 2.558370e-01 -5.448302e-01 -8.779043e-02 2.504414e-02 -4.739484e-02 -6.261770e-03 6.811886e-02 -1.162273e-02 9.292633e-02 -5.175699e-03 8.934932e-02 -8.669981e-02 -7.236157e-03 1.236305e-02 -2.150616e-02
<VARIANCE> 39
 2.541439e+01 6.041787e+01 9.132817e+01 6.099287e+01 7.985970e+01 9.403414e+01 6.261357e+01 1.137605e+02 7.969995e+01 5.371087e+01 7.196468e+01 4.474464e+01 7.361469e+01 1.240452e+00 2.925315e+00 3.479293e+00 3.306514e+00 3.998925e+00 3.978717e+00 3.653049e+00 5.755687e+00 4.505710e+00 3.361402e+00 3.950745e+00 2.885623e+00 3.390939e+00 2.096714e-01 4.026700e-01 4.753134e-01 5.351166e-01 6.872476e-01 6.558878e-01 6.506967e-01 9.325963e-01 7.257197e-01 6.092027e-01 7.168927e-01 5.096670e-01 4.312295e-01
<GCONST> 1.342873e+02
<TRANSP> 5
 0.000000e+00 1.000000e+00 0.000000e+00 0.000000e+00 0.000000e+00
 0.000000e+00 4.709212e-01 5.290787e-01 0.000000e+00 0.000000e+00
 0.000000e+00 0.000000e+00 3.969592e-01 6.030408e-01 0.000000e+00
 0.000000e+00 0.000000e+00 0.000000e+00 7.873554e-01 2.126446e-01
 0.000000e+00 0.000000e+00 0.000000e+00 0.000000e+00 0.000000e+00
<ENDHMM>
~h "s"
<BEGINHMM>
<NUMSTATES> 5
<STATE> 2
<MEAN> 39
 -9.834600e+00 2.917930e+00 -2.610364e-01 -1.641235e+00 -4.990513e+00 -6.452465e+00 -6.758408e+00 -3.456878e+00 -4.331645e+00 -3.097294e+00 -3.960542e+00 -4.000523e+00 5.861383e+01 -2.770871e+00 1.077289e+00 -6.190568e-01 4.508340e-01 1.090894e+00 -1.192092e-01 9.555381e-01 2.567859e-01 4.145828e-01 -1.710849e-01 3.267246e-01 9.185864e-01 -8.295336e-01 -9.105262e-02 -5.540542e-01 -1.874214e-01 -2.790292e-01 -3.709075e-01 1.803801e-01 -2.207367e-01 2.439578e-02 -2.465503e-02 5.955138e-02 2.313508e-01 -1.146737e-01 2.344884e-01
<VARIANCE> 39
 8.707992e+01 4.927279e+01 5.760714e+01 3.712053e+01 5.572412e+01 5.337620e+01 5.400493e+01 5.172104e+01 4.561647e+01 3.745647e+01 3.972235e+01 3.126963e+01 1.406609e+02 5.514528e+00 5.377059e+00 3.661076e+00 3.156206e+00 4.364841e+00 3.928744e+00 3.842338e+00 4.669641e+00 3.490297e+00 3.109167e+00 3.259314e+00 2.768483e+00 3.926806e+00 8.050991e-01 7.442420e-01 4.888361e-01 4.927137e-01 6.666628e-01 6.050637e-01 6.713889e-01 7.049825e-01 6.177824e-01 5.444056e-01 5.473490e-01 4.502297e-01 5.130963e-01
<GCONST> 1.339247e+02
<STATE> 3
<MEAN> 39
 -2.101898e+01 1.233165e+00 -5.614974e+00 -2.319764e+00 -3.519527e+00 -5.487700e+00 -4.071439e+00 -1.478248e+00 -2.415453e+00 -2.355673e+00 -8.913627e-01 -8.622532e-01 5.513972e+01 -3.270095e-01 -2.991584e-01 -2.116182e-01 -1.518683e-01 -1.442045e-01 3.122411e-02 2.766625e-02 1.625190e-02 9.856521e-02 1.075570e-01 1.098547e-01 1.095879e-01 -2.202891e-01 5.414835e-01 -7.008933e-02 2.132735e-01 -5.141540e-02 -1.258194e-01 -4.263993e-02 -1.724041e-01 -7.114987e-02 -5.813340e-02 -3.066065e-02 -1.208238e-01 -1.731522e-01 1.683653e-01
<VARIANCE> 39
 1.084336e+02 3.567253e+01 4.448294e+01 2.762199e+01 3.147168e+01 3.122847e+01 3.685816e+01 3.201243e+01 2.840017e+01 2.344095e+01 2.459282e+01 2.165433e+01 1.302768e+02 2.620616e+00 1.661693e+00 1.977640e+00 1.594289e+00 1.720193e+00 1.946361e+00 1.915032e+00 2.065024e+00 2.038677e+00 1.819109e+00 1.843150e+00 1.600702e+00 2.213994e+00 5.980148e-01 3.271770e-01 3.618132e-01 3.357415e-01 3.967559e-01 4.190729e-01 4.450878e-01 4.541146e-01 4.197493e-01 3.744578e-01 3.763498e-01 3.694302e-01 3.558599e-01
<GCONST> 1.150644e+02
<STATE> 4
<MEAN> 39
 -1.159473e+01 -4.862244e-01 -2.239223e+00 -3.465214e+00 -6.518629e+00 -5.817358e+00 -7.552373e+00 -3.429105e+00 -2.969400e+00 -2.121706e+00 -2.126438e+00 -3.512467e+00 5.770488e+01 2.166442e+00 -7.177863e-01 6.092487e-01 -4.277756e-01 -9.179515e-01 2.514794e-02 -1.081235e+00 -3.711396e-01 -1.907049e-01 -1.402473e-01 -6.546941e-02 -8.718121e-01 1.383687e+00 2.191696e-01 -1.536653e-01 4.000076e-02 -6.263062e-02 -1.646289e-01 1.729181e-01 -1.619203e-01 1.428282e-02 -5.094211e-02 -3.917830e-02 1.422157e-01 -1.484216e-01 2.543159e-01
<VARIANCE> 39
 1.149698e+02 4.699681e+01 6.455876e+01 4.161803e+01 5.211304e+01 5.524758e+01 5.460202e+01 5.213018e+01 4.622735e+01 3.248681e+01 3.394878e+01 3.352166e+01 1.639559e+02 1.061553e+01 4.816824e+00 5.139359e+00 4.054020e+00 4.845919e+00 4.751349e+00 5.065164e+00 5.756694e+00 4.424775e+00 3.311643e+00 3.648973e+00 3.761782e+00 9.630944e+00 1.462950e+00 6.972846e-01 6.674200e-01 6.394700e-01 8.147916e-01 7.565585e-01 8.972214e-01 8.983376e-01 7.174559e-01 5.711679e-01 6.427310e-01 6.331520e-01 1.297977e+00
<GCONST> 1.415261e+02
<TRANSP> 5
 0.000000e+00 1.000000e+00 0.000000e+00 0.000000e+00 0.000000e+00
 0.000000e+00 6.316720e-01 3.683279e-01 0.000000e+00 0.000000e+00
 0.000000e+00 0.000000e+00 7.833534e-01 2.166466e-01 0.000000e+00
 0.000000e+00 0.000000e+00 0.000000e+00 6.704090e-01 3.295909e-01
 0.000000e+00 0.000000e+00 0.000000e+00 0.000000e+00 0.000000e+00
<ENDHMM>
~h "t"
<BEGINHMM>
<NUMSTATES> 5
<STATE> 2
<MEAN> 39
 -5.874354e+00 2.010447e+00 -1.811488e-01 -1.825080e+00 -7.220942e+00 -5.469368e+00 -7.940016e+00 -5.078607e+00 -4.031190e+00 -2.154882e+00 -3.461990e+00 -5.120687e+00 4.868394e+01 -8.905934e-01 3.318272e-01 -1.452263e-01 1.585794e-01 5.064520e-01 -1.235712e-01 4.389685e-01 9.105932e-02 1.010693e-01 -7.687511e-02 1.830085e-02 5.077561e-01 -1.206736e+00 -1.508825e-01 -4.335092e-01 -1.454410e-01 -2.572020e-01 -1.035430e-01 4.458269e-02 -9.480017e-02 8.856618e-02 2.997401e-02 2.579968e-04 1.549838e-01 -7.228825e-03 7.934022e-01
<VARIANCE> 39
 7.969415e+01 3.976750e+01 5.847881e+01 4.090903e+01 4.809196e+01 4.895008e+01 4.281137e+01 4.845164e+01 5.018911e+01 3.394540e+01 3.698685e+01 3.845144e+01 1.434619e+02 3.683958e+00 3.172286e+00 2.627149e+00 2.567530e+00 3.403605e+00 2.965017e+00 2.957513e+00 3.244871e+00 3.144923e+00 2.695644e+00 2.893215e+00 2.457883e+00 6.710553e+00 6.159369e-01 5.719213e-01 5.040855e-01 5.350283e-01 6.612101e-01 5.782743e-01 5.733228e-01 6.380072e-01 6.356971e-01 5.444784e-01 5.721920e-01 4.841903e-01 1.244382e+00
<GCONST> 1.310828e+02
<STATE> 3
<MEAN> 39
 -1.131385e+01 -3.922796e-02 -1.654722e+00 -2.254257e+00 -5.158514e+00 -5.586998e+00 -6.294672e+00 -3.965826e+00 -3.534357e+00 -2.214557e+00 -2.450780e+00 -2.368214e+00 5.198002e+01 -3.633955e-01 -1.396706e+00 -6.486616e-01 -9.818261e-01 -1.595875e-01 -1.901688e-01 -3.496141e-01 2.859206e-01 2.071788e-01 -6.632884e-02 3.093065e-01 -7.000521e-03 3.510186e+00 7.117409e-01 -2.676351e-01 5.355737e-02 -2.930290e-01 -5.610944e-01 1.693473e-01 -4.475482e-01 3.672701e-02 -7.011246e-03 -2.645662e-02 1.059767e-01 -4.819840e-01 8.438245e-01
<VARIANCE> 39
 9.412740e+01 4.726676e+01 5.465621e+01 3.702767e+01 4.523184e+01 4.642143e+01 4.160280e+01 4.040525e+01 4.082903e+01 2.940664e+01 3.163665e+01 2.901326e+01 1.707829e+02 8.553592e+00 4.917242e+00 5.761285e+00 4.353344e+00 5.657141e+00 4.994532e+00 4.428141e+00 4.709122e+00 4.997407e+00 3.680975e+00 3.936702e+00 3.767947e+00 1.611475e+01 1.056793e+00 8.198978e-01 8.487713e-01 7.115080e-01 9.406998e-01 9.708359e-01 7.461811e-01 9.163648e-01 8.329915e-01 6.478671e-01 7.016333e-01 6.664734e-01 2.002511e+00
<GCONST> 1.417478e+02
<STATE> 4
<MEAN> 39
 -3.953286e+00 -4.781726e+00 -2.415399e+00 -6.215721e+00 -1.076646e+01 -3.060531e+00 -1.110173e+01 -3.779718e+00 -4.329540e+00 -2.119931e+00 -1.057655e+00 -6.642999e+00 6.476586e+01 7.935439e-01 -7.209399e-01 2.048527e-02 -5.373967e-01 -8.453628e-01 3.990260e-01 -6.510931e-01 3.202317e-01 1.139909e-01 -9.323560e-02 3.416953e-01 -7.446898e-01 1.748765e+00 5.721182e-03 1.813996e-01 1.245067e-01 1.635010e-01 2.901442e-02 1.227154e-01 9.738649e-02 -3.041250e-02 -4.203207e-02 -5.022980e-02 -1.991333e-02 -3.853519e-03 -5.649995e-01
<VARIANCE> 39
 5.756071e+01 5.737461e+01 9.459739e+01 5.863830e+01 8.008061e+01 9.047726e+01 6.116675e+01 7.403036e+01 7.185021e+01 4.651041e+01 5.506768e+01 4.809710e+01 1.277268e+02 5.469842e+00 5.269959e+00 5.624348e+00 4.963176e+00 7.275389e+00 6.480413e+00 5.315522e+00 6.614903e+00 5.982509e+00 4.097494e+00 5.070247e+00 4.747007e+00 1.362445e+01 9.128602e-01 7.237428e-01 8.672876e-01 7.855322e-01 1.248507e+00 1.059540e+00 9.182912e-01 1.013441e+00 9.442292e-01 7.220955e-01 8.919762e-01 8.064842e-01 1.515909e+00
<GCONST> 1.487617e+02
<TRANSP> 5
 0.000000e+00 1.000000e+00 0.000000e+00 0.000000e+00 0.000000e+00
 0.000000e+00 7.288758e-01 2.711242e-01 0.000000e+00 0.000000e+00
 0.000000e+00 0.000000e+00 5.487578e-01 4.512422e-01 0.000000e+00
 0.000000e+00 0.000000e+00 0.000000e+00 6.705654e-01 3.294347e-01
 0.000000e+00 0.000000e+00 0.000000e+00 0.000000e+00 0.000000e+00
<ENDHMM>
~h "u"
<BEGINHMM>
<NUMSTATES> 5
<STATE> 2
<MEAN> 39
 -5.130251e+00 -8.671789e-01 -4.258046e-01 -4.053195e+00 -8.800017e+00 -4.414226e+00 -1.002461e+01 -4.994316e+00 -5.582829e+00 -2.259226e+00 -1.163103e+00 -4.676691e+00 5.921306e+01 6.715526e-01 -2.173212e-01 -5.910718e-02 -7.394146e-01 -7.374123e-01 5.156028e-01 -6.716614e-01 -2.956694e-01 -2.666954e-01 -6.982638e-02 6.832774e-01 -2.488347e-01 1.335649e+00 1.131264e-01 -4.507764e-02 3.555545e-02 -1.049355e-01 -2.048194e-01 2.358785e-01 -3.804668e-02 3.347085e-02 -1.163517e-02 -1.096352e-02 1.084419e-01 -1.076524e-01 5.491152e-04
<VARIANCE> 39
 8.373849e+01 5.251582e+01 9.068658e+01 6.667432e+01 7.175545e+01 6.918685e+01 6.402189e+01 6.967612e+01 6.173243e+01 4.289428e+01 4.511142e+01 3.720663e+01 1.450898e+02 7.764656e+00 4.858560e+00 6.108384e+00 5.836540e+00 7.604066e+00 5.903415e+00 5.670536e+00 7.165656e+00 5.546459e+00 4.292796e+00 4.772704e+00 4.009525e+00 1.190522e+01 1.061392e+00 7.872856e-01 9.232064e-01 8.997405e-01 1.172578e+00 9.563535e-01 9.718919e-01 1.060804e+00 9.168778e-01 7.444276e-01 7.581098e-01 6.678041e-01 1.762966e+00
<GCONST> 1.485669e+02
<STATE> 3
<MEAN> 39
 2.975509e-01 -3.148808e+00 -1.466171e+00 -8.567189e+00 -1.403652e+01 -4.103794e-01 -1.371272e+01 -8.180350e+00 -6.290843e+00 -3.207047e+00 3.115216e+00 -6.678630e+00 6.584964e+01 6.973760e-01 -2.613400e-01 -9.969269e-02 -8.840712e-01 -9.065197e-01 1.254181e+00 -4.525850e-01 -1.003670e-01 -1.543244e-01 -2.852440e-02 7.852069e-01 -4.658032e-01 5.480558e-01 -4.227980e-01 1.204352e-01 9.716263e-03 3.757372e-01 5.182529e-01 -2.382350e-01 3.930204e-01 2.787887e-01 1.192106e-01 2.474081e-02 -4.984106e-01 1.062446e-01 -5.899711e-01
<VARIANCE> 39
 3.635529e+01 4.851189e+01 8.419367e+01 9.397065e+01 6.982143e+01 8.986046e+01 7.219264e+01 1.282701e+02 7.843638e+01 6.023203e+01 5.908889e+01 4.399054e+01 8.942127e+01 2.556054e+00 3.756255e+00 3.534923e+00 5.543650e+00 5.678563e+00 5.679722e+00 5.033285e+00 6.959455e+00 5.624236e+00 4.362617e+00 4.640344e+00 3.697983e+00 4.580817e+00 5.481735e-01 5.609546e-01 6.922950e-01 9.705883e-01 9.760277e-01 9.483007e-01 9.374208e-01 1.265295e+00 9.926185e-01 8.748320e-01 8.539809e-01 7.325174e-01 7.392709e-01
<GCONST> 1.442587e+02
<STATE> 4
<MEAN> 39
 1.558941e+00 -3.086888e+00 -1.370453e+00 -1.006886e+01 -1.428899e+01 2.374395e+00 -1.438795e+01 -6.472473e+00 -7.477796e+00 -1.946600e+00 9.201912e-01 -8.046331e+00 6.647718e+01 -7.047141e-02 1.047994e-01 9.560084e-02 4.281825e-01 3.480810e-01 -2.948036e-01 2.689860e-01 7.893558e-02 8.869695e-02 1.046637e-01 -4.488488e-01 -4.421744e-03 -4.744924e-01 -1.190281e-01 6.299649e-02 2.778656e-02 1.671464e-01 1.587933e-01 -1.742255e-01 1.172467e-01 2.328704e-02 5.829711e-02 -1.970444e-02 -1.227661e-01 6.758733e-02 -1.571341e-01
<VARIANCE> 39
 2.509247e+01 5.724723e+01 8.238359e+01 9.659219e+01 6.813160e+01 8.941804e+01 6.683526e+01 1.149997e+02 7.757896e+01 6.298550e+01 6.763537e+01 4.439667e+01 6.773528e+01 1.087638e+00 2.582688e+00 2.661587e+00 4.186923e+00 3.489491e+00 3.992171e+00 3.416483e+00 4.821969e+00 4.000960e+00 3.447863e+00 3.990650e+00 2.921546e+00 2.776898e+00 2.034372e-01 3.708780e-01 4.106109e-01 6.471449e-01 6.375585e-01 6.731474e-01 6.388736e-01 8.523093e-01 7.051628e-01 6.475862e-01 7.328206e-01 5.382203e-01 3.715921e-01
<GCONST> 1.332219e+02
<TRANSP> 5
 0.000000e+00 1.000000e+00 0.000000e+00 0.000000e+00 0.000000e+00
 0.000000e+00 6.364862e-01 3.635139e-01 0.000000e+00 0.000000e+00
 0.000000e+00 0.000000e+00 3.984824e-01 6.015176e-01 0.000000e+00
 0.000000e+00 0.000000e+00 0.000000e+00 8.370466e-01 1.629534e-01
 0.000000e+00 0.000000e+00 0.000000e+00 0.000000e+00 0.000000e+00
<ENDHMM>
~h "v"
<BEGINHMM>
<NUMSTATES> 5
<STATE> 2
<MEAN> 39
 -5.720369e+00 -3.212366e+00 -9.603557e-01 -4.140341e+00 -8.282138e+00 -2.741488e+00 -8.362382e+00 -2.900852e+00 -4.227129e+00 -2.588475e+00 -1.643602e+00 -5.417910e+00 5.514945e+01 4.041251e-04 8.054070e-04 2.982348e-04 -7.923298e-04 1.777842e-04 5.770657e-04 1.920456e-06 -1.539215e-03 -3.851559e-04 2.390032e-04 -1.168943e-03 -1.209440e-03 7.453487e-05 5.293762e-05 1.484293e-04 1.038093e-04 6.097702e-05 2.683362e-05 9.535497e-05 -3.359811e-05 -1.456941e-05 1.142907e-04 1.394317e-04 6.521364e-05 -2.366633e-05 -8.404750e-05
<VARIANCE> 39
 6.548970e+01 6.558094e+01 6.975499e+01 5.597869e+01 7.619009e+01 6.664177e+01 6.092598e+01 6.794641e+01 5.794476e+01 4.215612e+01 4.686914e+01 4.500091e+01 2.513958e+02 2.532669e+00 2.732701e+00 2.556041e+00 2.640352e+00 3.358491e+00 3.125732e+00 3.024375e+00 3.669678e+00 3.178414e+00 2.664217e+00 2.899224e+00 2.436845e+00 5.033377e+00 3.927859e-01 4.190547e-01 3.991563e-01 4.514541e-01 5.906611e-01 5.447152e-01 5.501792e-01 6.469660e-01 5.645853e-01 4.966201e-01 5.287678e-01 4.459183e-01 6.618989e-01
<GCONST> 1.316507e+02
<STATE> 3
<MEAN> 39
 -5.720369e+00 -3.212366e+00 -9.603557e-01 -4.140341e+00 -8.282138e+00 -2.741488e+00 -8.362382e+00 -2.900852e+00 -4.227129e+00 -2.588475e+00 -1.643602e+00 -5.417910e+00 5.514945e+01 4.041251e-04 8.054070e-04 2.982348e-04 -7.923298e-04 1.777842e-04 5.770657e-04 1.920456e-06 -1.539215e-03 -3.851559e-04 2.390032e-04 -1.168943e-03 -1.209440e-03 7.453487e-05 5.293762e-05 1.484293e-04 1.038093e-04 6.097702e-05 2.683362e-05 9.535497e-05 -3.359811e-05 -1.456941e-05 1.142907e-04 1.394317e-04 6.521364e-05 -2.366633e-05 -8.404750e-05
<VARIANCE> 39
 6.548970e+01 6.558094e+01 6.975499e+01 5.597869e+01 7.619009e+01 6.664177e+01 6.092598e+01 6.794641e+01 5.794476e+01 4.215612e+01 4.686914e+01 4.500091e+01 2.513958e+02 2.532669e+00 2.732701e+00 2.556041e+00 2.640352e+00 3.358491e+00 3.125732e+00 3.024375e+00 3.669678e+00 3.178414e+00 2.664217e+00 2.899224e+00 2.436845e+00 5.033377e+00 3.927859e-01 4.190547e-01 3.991563e-01 4.514541e-01 5.906611e-01 5.447152e-01 5.501792e-01 6.469660e-01 5.645853e-01 4.966201e-01 5.287678e-01 4.459183e-01 6.618989e-01
<GCONST> 1.316507e+02
<STATE> 4
<MEAN> 39
 -5.720369e+00 -3.212366e+00 -9.603557e-01 -4.140341e+00 -8.282138e+00 -2.741488e+00 -8.362382e+00 -2.900852e+00 -4.227129e+00 -2.588475e+00 -1.643602e+00 -5.417910e+00 5.514945e+01 4.041251e-04 8.054070e-04 2.982348e-04 -7.923298e-04 1.777842e-04 5.770657e-04 1.920456e-06 -1.539215e-03 -3.851559e-04 2.390032e-04 -1.168943e-03 -1.209440e-03 7.453487e-05 5.293762e-05 1.484293e-04 1.038093e-04 6.097702e-05 2.683362e-05 9.535497e-05 -3.359811e-05 -1.456941e-05 1.142907e-04 1.394317e-04 6.521364e-05 -2.366633e-05 -8.404750e-05
<VARIANCE> 39
 6.548970e+01 6.558094e+01 6.975499e+01 5.597869e+01 7.619009e+01 6.664177e+01 6.092598e+01 6.794641e+01 5.794476e+01 4.215612e+01 4.686914e+01 4.500091e+01 2.513958e+02 2.532669e+00 2.732701e+00 2.556041e+00 2.640352e+00 3.358491e+00 3.125732e+00 3.024375e+00 3.669678e+00 3.178414e+00 2.664217e+00 2.899224e+00 2.436845e+00 5.033377e+00 3.927859e-01 4.190547e-01 3.991563e-01 4.514541e-01 5.906611e-01 5.447152e-01 5.501792e-01 6.469660e-01 5.645853e-01 4.966201e-01 5.287678e-01 4.459183e-01 6.618989e-01
<GCONST> 1.316507e+02
<TRANSP> 5
 0.000000e+00 1.000000e+00 0.000000e+00 0.000000e+00 0.000000e+00
 0.000000e+00 6.000000e-01 4.000000e-01 0.000000e+00 0.000000e+00
 0.000000e+00 0.000000e+00 6.000000e-01 4.000000e-01 0.000000e+00
 0.000000e+00 0.000000e+00 0.000000e+00 7.000000e-01 3.000000e-01
 0.000000e+00 0.000000e+00 0.000000e+00 0.000000e+00 0.000000e+00
<ENDHMM>
~h "w"
<BEGINHMM>
<NUMSTATES> 5
<STATE> 2
<MEAN> 39
 -4.966937e+00 -2.024482e+00 -1.908725e+00 -5.606567e+00 -8.605178e+00 -3.447529e+00 -9.534331e+00 -4.773276e+00 -5.307628e+00 -1.755898e+00 -1.451523e+00 -5.698566e+00 5.865671e+01 4.365793e-01 -1.804138e-01 -1.496160e-01 -6.437615e-01 -3.994886e-01 4.244426e-01 -3.033219e-01 -5.376064e-02 -9.446134e-02 5.389117e-03 3.081628e-01 -1.032954e-02 9.400089e-01 6.322293e-02 -1.691503e-01 -3.059036e-02 -1.330090e-01 -1.416234e-01 1.320891e-01 -3.135850e-02 1.112421e-01 3.668466e-02 -4.101680e-02 2.697805e-02 -9.975863e-02 1.994086e-01
<VARIANCE> 39
 8.479621e+01 6.234019e+01 7.804385e+01 7.418746e+01 7.493082e+01 7.049252e+01 5.918298e+01 6.464609e+01 6.426390e+01 4.129738e+01 4.712658e+01 3.967269e+01 1.721942e+02 6.383014e+00 4.446519e+00 4.585929e+00 4.878611e+00 5.819649e+00 4.968770e+00 4.596844e+00 5.185279e+00 4.401114e+00 3.832369e+00 4.071820e+00 3.625700e+00 1.129877e+01 9.284183e-01 6.858121e-01 7.040684e-01 7.191026e-01 9.121888e-01 7.938473e-01 8.424926e-01 8.448130e-01 7.535453e-01 7.012224e-01 6.933540e-01 6.272468e-01 1.481663e+00
<GCONST> 1.443607e+02
<STATE> 3
<MEAN> 39
 2.492050e+00 -2.842174e+00 -2.148765e+00 -1.513167e+01 -1.500549e+01 3.839145e+00 -1.124041e+01 -8.048866e+00 -3.980470e+00 -5.615534e+00 3.243920e+00 -5.261302e+00 6.431827e+01 7.257549e-02 -6.018870e-01 -2.951455e-01 -5.753266e-01 -1.067611e-01 5.800054e-01 -3.204997e-02 2.128354e-01 2.887233e-01 6.010139e-02 2.764270e-01 -2.467398e-01 5.165661e-01 -2.421795e-01 -2.131840e-01 -9.532494e-02 3.085654e-01 3.394347e-01 -1.597260e-01 5.085180e-02 1.380000e-01 1.462941e-01 1.024978e-01 -2.045632e-01 -2.072972e-01 2.449051e-03
<VARIANCE> 39
 3.614256e+01 4.779603e+01 5.811009e+01 1.344699e+02 5.736662e+01 8.269009e+01 5.553310e+01 7.496304e+01 7.502741e+01 6.554670e+01 6.146563e+01 3.235096e+01 7.867812e+01 1.378497e+00 3.353091e+00 2.284879e+00 2.937371e+00 3.095077e+00 2.958987e+00 2.824604e+00 3.442314e+00 3.172991e+00 3.033069e+00 2.898802e+00 2.955136e+00 3.288445e+00 2.450173e-01 3.265122e-01 3.649223e-01 5.171710e-01 4.954196e-01 5.414892e-01 4.640479e-01 5.840055e-01 4.875374e-01 5.626035e-01 6.249231e-01 4.912435e-01 3.676285e-01
<GCONST> 1.285916e+02
<STATE> 4
<MEAN> 39
 5.298251e-01 -7.188153e+00 -3.607891e+00 -1.084884e+01 -1.268133e+01 3.756579e+00 -1.388435e+01 -3.732861e+00 -5.213953e+00 -6.287245e-01 -6.572281e-01 -9.096783e+00 6.786641e+01 -2.372011e-01 -5.805043e-01 -5.556745e-02 4.874297e-01 3.986347e-01 -3.204105e-01 7.963406e-02 4.058846e-01 3.259477e-01 1.133274e-02 -5.261710e-01 -3.803438e-01 1.138992e-01 -1.017750e-01 1.010144e-01 8.929896e-02 1.159055e-01 4.014648e-02 -1.659060e-01 1.044205e-01 3.939330e-02 -1.805173e-02 -1.870264e-01 -1.075847e-01 1.092762e-01 -1.179866e-01
<VARIANCE> 39
 3.187425e+01 6.070977e+01 8.650298e+01 9.278191e+01 8.061454e+01 1.085302e+02 6.646294e+01 8.516278e+01 7.885699e+01 5.743377e+01 7.042958e+01 4.165624e+01 1.023547e+02 1.255165e+00 3.266557e+00 3.093728e+00 3.318063e+00 3.919020e+00 4.294850e+00 3.096875e+00 4.560601e+00 3.850351e+00 3.345765e+00 3.508678e+00 3.069619e+00 3.149520e+00 2.038850e-01 3.654770e-01 4.539882e-01 5.049761e-01 6.720462e-01 6.704847e-01 5.965626e-01 7.012596e-01 6.370026e-01 6.412427e-01 6.139971e-01 4.649483e-01 3.859746e-01
<GCONST> 1.334358e+02
<TRANSP> 5
 0.000000e+00 1.000000e+00 0.000000e+00 0.000000e+00 0.000000e+00
 0.000000e+00 7.498370e-01 2.501629e-01 0.000000e+00 0.000000e+00
 0.000000e+00 0.000000e+00 6.158481e-01 3.841519e-01 0.000000e+00
 0.000000e+00 0.000000e+00 0.000000e+00 6.562892e-01 3.437109e-01
 0.000000e+00 0.000000e+00 0.000000e+00 0.000000e+00 0.000000e+00
<ENDHMM>
~h "y"
<BEGINHMM>
<NUMSTATES> 5
<STATE> 2
<MEAN> 39
 -3.865795e+00 -7.520098e+00 4.224977e+00 -8.420325e+00 -1.596614e+01 -6.690176e+00 -1.098718e+01 -5.324478e-01 -4.838322e+00 -5.704065e+00 2.391020e+00 -7.993386e+00 6.790492e+01 -6.882311e-02 2.847946e-02 1.798531e-02 -1.751743e-03 4.349290e-02 4.829336e-03 1.089190e-01 1.684964e-02 -7.513345e-02 8.215930e-03 -1.465622e-01 3.254673e-02 -2.401689e-01 8.134707e-04 -3.076389e-03 -1.115696e-01 3.552338e-02 1.466369e-01 5.394277e-02 2.847111e-02 -4.253663e-02 2.272708e-02 9.314165e-03 -1.199710e-01 -7.211915e-03 -3.685936e-02
<VARIANCE> 39
 3.142981e+01 6.291164e+01 1.118142e+02 5.428384e+01 8.088770e+01 1.061953e+02 5.521745e+01 9.748952e+01 6.854980e+01 5.882319e+01 6.833459e+01 3.863435e+01 1.095432e+02 5.742169e-01 1.894379e+00 2.975145e+00 1.329362e+00 2.568929e+00 2.294968e+00 2.383462e+00 3.217656e+00 2.581803e+00 1.963576e+00 3.107120e+00 1.818497e+00 1.493545e+00 1.051124e-01 2.518417e-01 3.033738e-01 2.233312e-01 4.027235e-01 3.827853e-01 4.202866e-01 5.284914e-01 4.088099e-01 3.526335e-01 4.340796e-01 3.157122e-01 1.598146e-01
<GCONST> 1.200748e+02
<STATE> 3
<MEAN> 39
 -6.765434e+00 -5.446696e+00 -1.487847e+00 -3.095769e+00 -7.439918e+00 -4.875185e+00 -7.089498e+00 -1.677732e+00 -4.758168e+00 -3.637027e+00 -2.948217e+00 -3.900536e+00 5.247820e+01 -1.050943e-01 5.843554e-02 -8.034563e-02 4.298628e-02 1.276309e-01 7.875890e-02 1.030552e-01 -1.490973e-02 -3.176009e-03 5.583207e-02 -5.161045e-02 3.647059e-02 -3.622152e-01 1.962432e-02 1.712066e-02 -7.091993e-03 -1.404953e-02 2.460214e-03 9.700088e-03 -2.501479e-02 1.023466e-02 1.654880e-02 1.143014e-02 -5.094406e-03 -3.420164e-02 1.605387e-02
<VARIANCE> 39
 5.521825e+01 6.083584e+01 5.426408e+01 4.465384e+01 5.700363e+01 4.987138e+01 4.004450e+01 5.928854e+01 4.116607e+01 3.767980e+01 3.586977e+01 3.221158e+01 1.716253e+02 4.703779e-01 1.205783e+00 1.112289e+00 1.042589e+00 1.525964e+00 1.500323e+00 1.594410e+00 1.847603e+00 1.726344e+00 1.661736e+00 1.844439e+00 1.391968e+00 8.036476e-01 7.329458e-02 1.821701e-01 1.824041e-01 1.974167e-01 2.689883e-01 2.717659e-01 3.193141e-01 3.500987e-01 3.317142e-01 3.192322e-01 3.384334e-01 2.736646e-01 9.681784e-02
<GCONST> 1.067201e+02
<STATE> 4
<MEAN> 39
 -1.538749e+00 -9.127878e+00 -8.893398e-01 -8.820164e+00 -1.155730e+01 -1.818791e+00 -1.100957e+01 1.485953e+00 -6.922053e+00 -9.908140e-01 -3.634417e+00 -8.229530e+00 6.669588e+01 6.160077e-02 -4.407774e-02 -1.912026e-01 8.669361e-02 1.537896e-01 6.620993e-02 3.838403e-02 3.322959e-02 1.030472e-01 -2.963415e-02 -2.668370e-01 -1.211479e-01 -1.929714e-01 -5.898620e-03 1.668243e-02 -2.181079e-02 3.422305e-02 6.375763e-02 1.733553e-02 -1.764812e-02 -4.634114e-02 7.534783e-02 -6.900743e-02 3.080278e-02 -8.903690e-03 -1.455476e-02
<VARIANCE> 39
 3.643166e+01 6.914555e+01 8.327322e+01 6.652156e+01 9.072707e+01 7.236188e+01 6.373878e+01 1.005145e+02 5.758126e+01 6.847498e+01 5.143114e+01 3.961623e+01 1.435699e+02 8.885871e-01 2.357140e+00 2.649942e+00 2.118776e+00 3.196379e+00 2.482096e+00 2.930424e+00 3.931350e+00 2.647718e+00 2.843644e+00 2.802213e+00 1.966660e+00 1.951570e+00 1.314867e-01 3.154206e-01 3.410940e-01 3.510117e-01 4.696602e-01 3.865200e-01 5.088244e-01 6.669925e-01 4.475012e-01 5.047585e-01 4.696620e-01 3.425991e-01 2.708635e-01
<GCONST> 1.252102e+02
<TRANSP> 5
 0.000000e+00 1.000000e+00 0.000000e+00 0.000000e+00 0.000000e+00
 0.000000e+00 6.669070e-01 3.330930e-01 0.000000e+00 0.000000e+00
 0.000000e+00 0.000000e+00 7.524942e-01 2.475058e-01 0.000000e+00
 0.000000e+00 0.000000e+00 0.000000e+00 5.993283e-01 4.006717e-01
 0.000000e+00 0.000000e+00 0.000000e+00 0.000000e+00 0.000000e+00
<ENDHMM>
~h "z"
<BEGINHMM>
<NUMSTATES> 5
<STATE> 2
<MEAN> 39
 -5.391272e+00 9.089947e-03 -1.715810e+00 -1.749349e+00 -5.755123e+00 -4.138360e+00 -8.162528e+00 -1.868480e+00 -3.148445e+00 -3.047649e+00 -4.143668e+00 -3.486614e+00 5.612799e+01 -9.993843e-01 6.461645e-01 -1.888927e-01 5.321888e-01 5.165611e-01 -1.051712e-01 4.961283e-01 1.320270e-02 4.026739e-02 -4.339568e-02 1.796746e-01 3.901476e-01 -9.378340e-01 5.805999e-03 -1.545886e-01 2.976759e-02 -9.728628e-02 -1.088175e-01 1.546279e-02 -8.783893e-02 1.964415e-02 -2.117202e-02 3.618619e-02 7.947343e-02 -9.738768e-02 9.033701e-02
<VARIANCE> 39
 7.591835e+01 5.431639e+01 3.952617e+01 4.977401e+01 4.461664e+01 5.479626e+01 4.608047e+01 5.648879e+01 3.945956e+01 3.807539e+01 4.275366e+01 3.345113e+01 1.348438e+02 2.473516e+00 2.785340e+00 1.992800e+00 2.343501e+00 2.543697e+00 2.450346e+00 2.489220e+00 2.520325e+00 2.318377e+00 2.196573e+00 2.495527e+00 1.806619e+00 1.606496e+00 2.878893e-01 4.152800e-01 3.178934e-01 3.629008e-01 4.336893e-01 4.027086e-01 4.349753e-01 4.258398e-01 4.144056e-01 3.758712e-01 4.418659e-01 3.408897e-01 1.919754e-01
<GCONST> 1.203645e+02
<STATE> 3
<MEAN> 39
 -1.210835e+01 -3.111566e+00 -3.766844e+00 -2.036212e+00 -5.135422e+00 -6.067857e+00 -6.140731e+00 -1.855695e+00 -3.039784e+00 -3.126864e+00 -1.524006e+00 -1.360591e+00 4.524291e+01 -1.629475e-01 9.748136e-02 3.016086e-02 9.920734e-02 5.591901e-02 8.477952e-02 1.121118e-01 9.436538e-03 2.515722e-02 3.974013e-02 -1.116660e-02 7.397039e-03 -2.459932e-01 6.446370e-02 -2.654260e-02 3.920086e-02 -3.046781e-02 -1.792104e-02 1.400833e-03 -4.135785e-02 -1.831970e-02 -1.703021e-02 -1.466583e-02 -1.110302e-02 -3.110814e-02 8.648930e-02
<VARIANCE> 39
 5.498714e+01 6.587517e+01 2.877753e+01 2.586892e+01 2.784320e+01 3.218727e+01 3.024023e+01 2.863645e+01 2.988207e+01 2.391533e+01 2.077162e+01 1.905454e+01 1.190320e+02 5.276786e-01 9.257603e-01 8.556373e-01 9.604635e-01 1.149755e+00 1.393880e+00 1.521718e+00 1.472501e+00 1.673861e+00 1.572748e+00 1.552729e+00 1.389775e+00 5.852188e-01 1.109322e-01 1.603223e-01 1.629603e-01 1.904503e-01 2.241544e-01 2.591266e-01 3.154826e-01 2.895935e-01 3.328764e-01 3.231281e-01 2.976226e-01 2.775939e-01 9.693380e-02
<GCONST> 9.914819e+01
<STATE> 4
<MEAN> 39
 -1.003300e+01 2.858238e+00 -6.806383e-01 7.879722e-02 -5.505847e+00 -5.806004e+00 -6.649741e+00 -3.378310e+00 -3.275165e+00 -2.190197e+00 -2.192712e+00 -3.013036e+00 5.332323e+01 8.296051e-01 -6.340554e-01 2.737239e-01 -4.353538e-01 -5.936276e-01 -1.929018e-01 -5.900590e-01 -2.373542e-01 -3.434264e-02 -9.266239e-02 1.127295e-01 -2.736977e-01 1.481392e+00 2.773689e-01 -2.854766e-01 -5.071075e-02 -2.375374e-01 -2.828652e-01 8.959913e-02 -1.503736e-01 9.610817e-03 6.558180e-02 -4.375507e-02 9.689638e-02 -1.157765e-01 3.901024e-01
<VARIANCE> 39
 8.937207e+01 5.955785e+01 4.129521e+01 3.977767e+01 4.483298e+01 4.935973e+01 4.052925e+01 4.613028e+01 3.584771e+01 2.793955e+01 2.706698e+01 2.644307e+01 1.724108e+02 6.344346e+00 4.754279e+00 3.097224e+00 3.552765e+00 4.133481e+00 3.585658e+00 3.131173e+00 4.014393e+00 3.149853e+00 2.600610e+00 2.460215e+00 2.413734e+00 7.148531e+00 8.457127e-01 6.387944e-01 4.805624e-01 5.396461e-01 6.772570e-01 6.405944e-01 5.212042e-01 7.137327e-01 5.385131e-01 4.941339e-01 4.629958e-01 4.882669e-01 1.021826e+00
<GCONST> 1.318342e+02
<TRANSP> 5
 0.000000e+00 1.000000e+00 0.000000e+00 0.000000e+00 0.000000e+00
 0.000000e+00 7.323982e-01 2.676018e-01 0.000000e+00 0.000000e+00
 0.000000e+00 0.000000e+00 8.538398e-01 1.461603e-01 0.000000e+00
 0.000000e+00 0.000000e+00 0.000000e+00 7.538014e-01 2.461986e-01
 0.000000e+00 0.000000e+00 0.000000e+00 0.000000e+00 0.000000e+00
<ENDHMM>
~h "ai"
<BEGINHMM>
<NUMSTATES> 5
<STATE> 2
<MEAN> 39
 -6.798219e+00 -1.149949e-01 5.708225e-01 -2.412545e+00 -7.800763e+00 -5.297749e+00 -8.217247e+00 -4.492682e+00 -4.642899e+00 -2.923440e+00 -2.425799e+00 -3.558809e+00 5.671723e+01 -3.979708e-01 -8.105341e-01 -5.060678e-02 -4.832058e-01 -4.177801e-01 -4.968967e-01 -1.908503e-01 2.983769e-01 3.625149e-02 -4.784724e-02 3.862825e-01 8.430059e-02 1.611181e+00 2.731680e-01 -2.574280e-01 5.473443e-02 -1.609765e-01 -4.734960e-01 1.616173e-01 -2.124997e-01 1.295483e-01 4.141043e-02 -6.057149e-02 1.953128e-01 -2.306205e-01 4.354762e-01
<VARIANCE> 39
 9.892144e+01 6.783215e+01 7.507648e+01 5.623567e+01 7.493261e+01 6.812560e+01 4.803009e+01 6.080295e+01 5.527277e+01 4.006211e+01 4.299166e+01 3.541105e+01 1.485731e+02 8.798608e+00 6.200647e+00 5.741018e+00 4.812140e+00 8.484673e+00 5.143236e+00 5.574561e+00 5.572469e+00 6.087904e+00 4.471511e+00 5.107500e+00 4.072264e+00 1.535732e+01 1.463134e+00 1.029780e+00 8.681455e-01 8.413154e-01 1.327153e+00 9.779352e-01 8.938411e-01 9.727730e-01 9.697739e-01 8.056728e-01 9.121718e-01 7.216629e-01 1.932963e+00
<GCONST> 1.491972e+02
<STATE> 3
<MEAN> 39
 -2.978631e+00 -7.958016e+00 1.117957e+00 -6.564424e+00 -1.512949e+01 -6.268550e+00 -1.155318e+01 -1.719893e+00 -3.453370e+00 -4.734310e+00 1.535572e+00 -7.185142e+00 6.899043e+01 8.014128e-01 -1.355195e+00 2.189808e-01 -7.239631e-01 -1.809346e+00 7.247889e-01 -6.518961e-01 1.102549e+00 4.751638e-01 -6.090529e-01 7.836736e-01 -1.030905e+00 1.749050e+00 -1.775156e-01 4.041659e-01 -8.977595e-02 2.748637e-01 5.075150e-01 2.962171e-01 3.175198e-01 -1.037135e-01 -1.583158e-01 8.084404e-02 -3.621662e-01 9.438170e-02 -8.294389e-01
<VARIANCE> 39
 3.518080e+01 6.312364e+01 9.001865e+01 5.719934e+01 7.675642e+01 1.104692e+02 6.101027e+01 7.840368e+01 8.487393e+01 6.170857e+01 5.942605e+01 4.209937e+01 1.027404e+02 4.158381e+00 4.409776e+00 4.822562e+00 4.533210e+00 7.247287e+00 5.548450e+00 5.323032e+00 6.227880e+00 6.105139e+00 4.718036e+00 5.674061e+00 4.106593e+00 5.412942e+00 6.824151e-01 5.367052e-01 7.857394e-01 7.333220e-01 1.056257e+00 9.770246e-01 9.222808e-01 9.625808e-01 1.143044e+00 8.416184e-01 9.409987e-01 6.983631e-01 8.413675e-01
<GCONST> 1.455804e+02
<STATE> 4
<MEAN> 39
 -1.978631e+00 -8.682980e+00 3.550915e+00 -7.357218e+00 -1.846563e+01 -4.405492e+00 -1.134728e+01 -5.158249e-01 -5.876119e+00 -4.953553e+00 1.074133e+00 -9.417184e+00 6.863177e+01 7.858218e-02 4.292223e-01 7.908830e-02 2.207779e-01 2.021753e-01 -3.312142e-02 9.609972e-02 -1.339644e-01 -2.640295e-01 2.166487e-01 -1.833849e-01 4.047919e-02 -6.500889e-01 -5.104896e-02 1.392501e-01 -3.989802e-02 7.875760e-02 1.975744e-01 -5.001128e-02 7.398663e-02 -8.361610e-02 1.573783e-02 3.229922e-02 -8.208595e-02 7.900113e-02 -1.871315e-01
<VARIANCE> 39
 2.770419e+01 7.442546e+01 8.924821e+01 5.501311e+01 7.615781e+01 1.169997e+02 5.729716e+01 1.044112e+02 7.763839e+01 5.691937e+01 6.613397e+01 4.054491e+01 8.952745e+01 1.255327e+00 2.492682e+00 2.561724e+00 2.121684e+00 3.672154e+00 3.282056e+00 3.147688e+00 3.711359e+00 3.309218e+00 2.551720e+00 3.113336e+00 2.227021e+00 3.194965e+00 2.335860e-01 3.502582e-01 3.596882e-01 3.538769e-01 6.092471e-01 5.341200e-01 5.789574e-01 6.496730e-01 5.673923e-01 4.664203e-01 5.432612e-01 4.319602e-01 4.202245e-01
<GCONST> 1.290828e+02
<TRANSP> 5
 0.000000e+00 1.000000e+00 0.000000e+00 0.000000e+00 0.000000e+00
