~o
<STREAMINFO> 1 39
<VECSIZE> 39<NULLD><MFCC_D_A_0><DIAGC>
~s "silst"
<MEAN> 39
 -1.037970e+01 2.071940e+00 -1.945013e+00 -3.634459e-01 -2.428598e+00 -1.952382e+00 -2.568684e+00 -2.095690e+00 -2.329218e+00 -1.795314e+00 -1.310374e+00 -1.451545e+00 3.545198e+01 -3.258489e-02 1.472675e-02 3.733745e-03 -7.675967e-03 1.950056e-02 3.858900e-02 2.352990e-02 -1.243773e-03 1.271976e-02 3.394978e-02 1.445261e-02 -1.449417e-03 -3.091590e-02 2.628594e-04 -2.577740e-02 -4.140332e-04 3.514642e-04 -1.135035e-02 -9.971539e-03 -1.148394e-02 3.930629e-03 -9.348753e-03 -4.058640e-03 -1.006524e-02 -1.302389e-04 2.942904e-02
<VARIANCE> 39
 8.954557e+00 7.111376e+00 9.083438e+00 1.090120e+01 1.212549e+01 1.445885e+01 1.512217e+01 1.779253e+01 1.674595e+01 1.652767e+01 1.541930e+01 1.468354e+01 2.164009e+01 1.518596e-01 3.199695e-01 4.869370e-01 6.836339e-01 8.817995e-01 1.073420e+00 1.208587e+00 1.394930e+00 1.397328e+00 1.409290e+00 1.336636e+00 1.236234e+00 7.728317e-02 3.123968e-02 6.730582e-02 1.010120e-01 1.427477e-01 1.829392e-01 2.213396e-01 2.491207e-01 2.875310e-01 2.891013e-01 2.918522e-01 2.755012e-01 2.567880e-01 1.683240e-02
<GCONST> 7.481844e+01
~h "@"
<BEGINHMM>
<NUMSTATES> 5
<STATE> 2
<MEAN> 39
 -1.133757e+01 9.891992e-01 -6.257051e-01 -1.940224e+00 -5.370688e+00 -5.593706e+00 -6.656003e+00 -3.993516e+00 -3.815011e+00 -2.111280e+00 -2.045669e+00 -2.732514e+00 5.525376e+01 1.814711e-01 -6.370431e-01 -1.800384e-01 -5.596232e-01 -3.204526e-01 -4.344758e-02 -4.597989e-01 1.497300e-01 1.946341e-01 -9.175994e-02 2.480081e-01 -2.158249e-01 1.711822e+00 4.207829e-01 -2.877701e-01 -2.614862e-02 -2.084152e-01 -3.848217e-01 1.675265e-01 -2.707347e-01 5.726701e-02 2.529890e-02 6.620027e-03 1.312811e-01 -2.648613e-01 4.447419e-01
<VARIANCE> 39
 1.215165e+02 4.948540e+01 6.272115e+01 3.764057e+01 5.131268e+01 5.085635e+01 4.618919e+01 4.984032e+01 4.676216e+01 3.157911e+01 3.379031e+01 2.990429e+01 1.571876e+02 1.028075e+01 4.958805e+00 4.921366e+00 4.431658e+00 5.751945e+00 4.538601e+00 4.900712e+00 4.941879e+00 4.826298e+00 3.264256e+00 3.741124e+00 3.628047e+00 1.327616e+01 1.172742e+00 7.797791e-01 6.940011e-01 6.401191e-01 8.801871e-01 7.836618e-01 7.534624e-01 8.338922e-01 7.780415e-01 5.964150e-01 6.573442e-01 6.042460e-01 1.564195e+00
<GCONST> 1.414610e+02
<STATE> 3
<MEAN> 39
 -3.234368e+00 -4.827536e+00 -1.544720e+00 -7.078429e+00 -1.074211e+01 -4.900912e+00 -1.205008e+01 -4.316071e+00 -4.235567e+00 -2.246432e+00 -3.532646e-01 -6.597530e+00 6.619511e+01 2.107438e+00 -1.667006e+00 -1.481894e-01 -1.578173e+00 -2.060216e+00 1.028827e+00 -1.752698e+00 6.696239e-01 6.203965e-01 -5.348239e-02 1.142003e+00 -1.773078e+00 3.177969e+00 -2.768406e-01 1.711922e-01 1.299977e-02 2.932604e-01 1.749485e-01 3.370802e-01 2.942796e-01 1.169340e-01 3.556290e-02 -2.561297e-03 -7.751694e-02 -5.226098e-03 -9.427927e-01
<VARIANCE> 39
 4.151802e+01 4.251472e+01 9.105341e+01 5.985927e+01 6.606017e+01 8.606865e+01 5.265005e+01 7.020765e+01 7.052676e+01 4.432551e+01 5.009032e+01 4.075389e+01 9.521686e+01 5.910551e+00 4.723602e+00 6.411917e+00 5.004923e+00 6.193211e+00 6.633122e+00 5.693306e+00 8.258220e+00 8.204400e+00 4.683411e+00 5.259295e+00 4.702897e+00 8.798314e+00 9.800257e-01 5.961794e-01 8.559532e-01 7.685230e-01 9.966987e-01 9.548260e-01 8.386546e-01 9.395064e-01 9.343701e-01 6.942847e-01 8.581581e-01 7.232419e-01 9.812011e-01
<GCONST> 1.460651e+02
<STATE> 4
<MEAN> 39
 -5.382120e-01 -8.229612e+00 -1.806502e+00 -9.025910e+00 -1.397472e+01 -2.469299e-01 -1.420151e+01 -2.837977e+00 -3.048816e+00 -2.769413e+00 1.118532e+00 -1.036995e+01 7.002187e+01 2.850013e-01 -8.333188e-03 6.397197e-02 2.496752e-01 2.432124e-02 1.895887e-01 3.992838e-02 8.021576e-02 -1.988358e-02 5.053142e-02 -2.037781e-01 -1.391241e-01 -2.619211e-01 -2.056754e-01 4.034767e-01 1.086590e-01 3.626973e-01 3.218058e-01 -2.267196e-01 3.294929e-01 -1.900280e-01 -1.887082e-01 2.783296e-02 -2.707326e-01 2.953176e-01 -6.162154e-01
<VARIANCE> 39
 2.631415e+01 5.538364e+01 9.437035e+01 6.935981e+01 7.532375e+01 1.065725e+02 6.083530e+01 1.037116e+02 9.941768e+01 5.590976e+01 6.416575e+01 4.829487e+01 6.709363e+01 1.441857e+00 3.465262e+00 3.081870e+00 3.730611e+00 4.072103e+00 4.802907e+00 3.664860e+00 5.336070e+00 4.980056e+00 3.345619e+00 4.032555e+00 3.249248e+00 4.327333e+00 3.849817e-01 5.213249e-01 5.811290e-01 7.061759e-01 8.440955e-01 8.370939e-01 7.829611e-01 1.060228e+00 9.883203e-01 6.886401e-01 8.110264e-01 6.653106e-01 7.067395e-01
<GCONST> 1.388259e+02
<TRANSP> 5
 0.000000e+00 1.000000e+00 0.000000e+00 0.000000e+00 0.000000e+00
 0.000000e+00 6.582424e-01 3.417576e-01 0.000000e+00 0.000000e+00
 0.000000e+00 0.000000e+00 3.535111e-01 6.464889e-01 0.000000e+00
 0.000000e+00 0.000000e+00 0.000000e+00 7.455847e-01 2.544153e-01
 0.000000e+00 0.000000e+00 0.000000e+00 0.000000e+00 0.000000e+00
<ENDHMM>
~h "a"
<BEGINHMM>
<NUMSTATES> 5
<STATE> 2
<MEAN> 39
 -1.182680e+00 -1.153730e+01 -4.271926e+00 -1.001516e+01 -1.171628e+01 -2.851099e-01 -1.230356e+01 1.139964e+00 -1.236039e+00 -3.391613e+00 -1.276717e+00 -1.061824e+01 7.135055e+01 5.386516e-02 -1.515893e+00 -9.567317e-01 -3.684081e-01 5.972844e-01 1.158381e+00 1.268499e-01 9.779048e-01 6.591847e-01 -7.488929e-01 -7.101584e-01 -7.758504e-01 1.047266e+00 -2.086463e-01 4.407568e-01 2.338914e-01 4.186345e-01 3.102754e-01 -1.732878e-01 1.734640e-01 -4.286277e-01 -3.247801e-01 1.672112e-02 -1.433765e-01 3.682538e-01 -6.012939e-01
<VARIANCE> 39
 2.571972e+01 5.356783e+01 6.207746e+01 5.171867e+01 7.317776e+01 9.253874e+01 5.743889e+01 9.040804e+01 6.918855e+01 6.174223e+01 5.840712e+01 4.438543e+01 8.969657e+01 1.306976e+00 2.519307e+00 2.701573e+00 2.702052e+00 3.640811e+00 3.874694e+00 3.452688e+00 4.940032e+00 3.846912e+00 3.745357e+00 4.063226e+00 3.064110e+00 2.450805e+00 3.015561e-01 3.782903e-01 4.094021e-01 4.740672e-01 6.938975e-01 6.815523e-01 6.419049e-01 8.384214e-01 6.654614e-01 6.566164e-01 7.316292e-01 5.569917e-01 5.281450e-01
<GCONST> 1.322777e+02
<STATE> 3
<MEAN> 39
 -1.982782e+00 -1.480143e+01 -6.699495e+00 -1.052886e+01 -8.123644e+00 2.315958e+00 -1.143431e+01 1.178119e+00 -1.177182e+00 -5.836142e+00 -3.798298e+00 -1.133108e+01 7.342780e+01 5.305271e-02 1.782172e-01 2.860179e-02 1.232290e-01 1.425475e-01 -1.366922e-01 1.957943e-03 -2.308057e-03 -2.343034e-01 7.626217e-02 -1.876734e-01 2.577251e-02 -3.261628e-01 6.115825e-02 3.299851e-01 1.741065e-01 8.762782e-02 -1.382821e-01 -2.499546e-01 -3.396732e-02 -1.088082e-01 -7.895460e-02 1.980930e-01 8.482732e-02 9.278088e-02 -2.829162e-01
<VARIANCE> 39
 2.109040e+01 5.411155e+01 4.797587e+01 4.118963e+01 6.129069e+01 7.519336e+01 4.898425e+01 7.528629e+01 6.770738e+01 6.363349e+01 5.016529e+01 4.362729e+01 6.093902e+01 3.586432e-01 9.417322e-01 1.006967e+00 1.072837e+00 1.836118e+00 1.971456e+00 1.585152e+00 2.009756e+00 1.566327e+00 1.650727e+00 1.756947e+00 1.442905e+00 6.203488e-01 7.879013e-02 1.900393e-01 1.691848e-01 1.964972e-01 2.830923e-01 2.843881e-01 3.091349e-01 3.891169e-01 3.071958e-01 3.045145e-01 3.282846e-01 2.792262e-01 1.378758e-01
<GCONST> 1.069803e+02
<STATE> 4
<MEAN> 39
 -5.780333e-01 -8.111042e+00 -3.955734e+00 -6.371377e+00 -8.069159e+00 -1.550460e+00 -1.056995e+01 -5.988212e-01 -3.464371e+00 -2.584743e+00 -5.085919e+00 -9.182515e+00 6.299006e+01 3.472755e-02 1.314354e+00 6.225185e-01 8.320131e-01 7.061549e-02 -5.650674e-01 2.555146e-01 -7.353187e-01 -3.014183e-01 2.658707e-01 -9.493247e-02 5.443208e-01 -1.970124e+00 -1.110944e-01 7.098961e-02 4.984612e-02 6.711632e-02 7.448311e-02 3.792427e-02 8.348268e-02 -1.010673e-01 -9.518283e-03 -6.326134e-02 1.777371e-02 7.413571e-02 -1.099920e-01
<VARIANCE> 39
 2.824136e+01 5.523663e+01 5.430902e+01 5.517040e+01 6.762198e+01 6.647386e+01 5.582749e+01 7.681328e+01 6.456750e+01 6.229795e+01 6.224602e+01 4.574934e+01 1.304808e+02 1.359148e+00 2.441948e+00 2.130327e+00 2.579734e+00 3.020693e+00 2.988782e+00 3.125370e+00 3.938897e+00 3.338272e+00 3.140993e+00 3.146998e+00 2.438692e+00 3.234199e+00 2.184910e-01 4.147227e-01 3.510145e-01 4.769962e-01 4.961004e-01 5.194608e-01 5.542659e-01 7.214416e-01 5.642577e-01 5.758736e-01 5.698946e-01 4.391358e-01 5.436919e-01
<GCONST> 1.285308e+02
<TRANSP> 5
 0.000000e+00 1.000000e+00 0.000000e+00 0.000000e+00 0.000000e+00
 0.000000e+00 5.626251e-01 4.373749e-01 0.000000e+00 0.000000e+00
 0.000000e+00 0.000000e+00 7.732795e-01 2.267205e-01 0.000000e+00
 0.000000e+00 0.000000e+00 0.000000e+00 7.187529e-01 2.812471e-01
 0.000000e+00 0.000000e+00 0.000000e+00 0.000000e+00 0.000000e+00
<ENDHMM>
~h "b"
<BEGINHMM>
<NUMSTATES> 5
<STATE> 2
<MEAN> 39
 -3.848439e-01 2.209123e+00 3.116048e+00 -6.832577e-01 -9.040684e+00 -2.476232e+00 -8.082738e+00 -6.633353e+00 -7.027921e+00 -1.985851e+00 -2.237069e+00 -5.938541e+00 5.202121e+01 -1.354864e-02 9.768117e-01 2.541843e-01 4.562731e-01 5.140834e-01 3.737791e-02 5.533307e-01 6.601237e-03 3.863349e-02 -7.938033e-03 -2.557757e-01 1.311798e-01 -1.364608e+00 -1.843792e-01 -2.572601e-01 -1.319621e-01 -2.183417e-01 -6.637271e-03 -7.238337e-02 -1.538693e-01 9.866254e-02 1.142079e-01 -3.954178e-02 1.241532e-01 4.621903e-02 4.861749e-01
<VARIANCE> 39
 6.726208e+01 3.719001e+01 5.542267e+01 3.827889e+01 5.975614e+01 5.780986e+01 4.411332e+01 5.448753e+01 5.900967e+01 4.037178e+01 4.409851e+01 3.139838e+01 1.109542e+02 1.879278e+00 2.162982e+00 2.013785e+00 2.108884e+00 2.627633e+00 2.606010e+00 2.644911e+00 3.199093e+00 2.878964e+00 2.412777e+00 2.367787e+00 2.021443e+00 3.560863e+00 3.812789e-01 3.665232e-01 3.758114e-01 4.182529e-01 5.296232e-01 4.987066e-01 5.076479e-01 6.123630e-01 5.978906e-01 4.789178e-01 4.726667e-01 4.161690e-01 5.735623e-01
<GCONST> 1.247435e+02
<STATE> 3
<MEAN> 39
 -2.223554e+00 5.156019e+00 3.248210e+00 3.739545e-01 -5.572114e+00 -2.611447e+00 -6.041059e+00 -5.867983e+00 -6.360847e+00 -2.350324e+00 -2.521740e+00 -4.940011e+00 4.856973e+01 -7.887301e-01 -1.084751e+00 -6.949661e-01 -8.170456e-01 3.048332e-01 -4.202548e-01 -5.206200e-01 1.132902e-01 4.864014e-01 2.844266e-02 5.111123e-01 4.747145e-01 2.326609e+00 -8.224577e-02 -8.716139e-01 -3.249820e-01 -5.892286e-01 -5.293562e-01 -4.325672e-02 -4.537856e-01 1.230021e-01 1.373350e-01 8.415120e-02 2.679240e-01 -1.049414e-01 1.324391e+00
<VARIANCE> 39
 8.773918e+01 4.104232e+01 4.110306e+01 3.346940e+01 4.815670e+01 5.161074e+01 3.852670e+01 4.507588e+01 5.005085e+01 3.049561e+01 3.595256e+01 2.962290e+01 1.153627e+02 6.633061e+00 5.120850e+00 4.406427e+00 4.267447e+00 4.958564e+00 4.341864e+00 4.214094e+00 4.362182e+00 4.955046e+00 3.549623e+00 3.596719e+00 3.090411e+00 1.034603e+01 9.476026e-01 6.545001e-01 6.183330e-01 6.511163e-01 8.410510e-01 8.131500e-01 6.435257e-01 8.976051e-01 9.719915e-01 6.392229e-01 6.579878e-01 6.271870e-01 1.142723e+00
<GCONST> 1.379289e+02
<STATE> 4
<MEAN> 39
 -3.398591e+00 -3.537469e+00 -1.362487e+00 -5.682072e+00 -9.189565e+00 -3.761617e+00 -1.132059e+01 -5.064369e+00 -5.422894e+00 -9.246011e-01 4.645060e-01 -5.379148e+00 6.395714e+01 2.515610e-01 -1.294175e+00 -4.028908e-01 -9.191085e-01 -1.021772e+00 -6.341856e-03 -8.230656e-01 5.912673e-01 5.222995e-01 5.404744e-02 4.241367e-01 -5.354133e-01 2.407156e+00 1.836531e-01 1.619468e-01 1.627078e-01 1.153169e-01 -1.220108e-01 1.952615e-01 1.201035e-01 1.497784e-01 -5.797360e-02 -1.190040e-01 -1.327761e-01 -2.001473e-01 -4.189486e-01
<VARIANCE> 39
 6.167721e+01 4.990256e+01 8.466390e+01 6.945034e+01 7.461174e+01 7.748724e+01 6.117353e+01 7.694379e+01 7.498785e+01 4.915267e+01 5.409518e+01 4.206992e+01 9.451906e+01 5.393360e+00 6.114602e+00 5.873657e+00 6.510214e+00 7.152655e+00 6.504627e+00 5.849233e+00 7.150480e+00 7.770385e+00 4.863133e+00 5.550497e+00 4.671812e+00 1.266971e+01 8.854960e-01 7.980422e-01 8.682994e-01 9.876149e-01 1.279463e+00 1.041062e+00 1.038326e+00 1.098539e+00 1.063937e+00 8.908880e-01 1.034378e+00 8.097078e-01 1.317760e+00
<GCONST> 1.501012e+02
<TRANSP> 5
 0.000000e+00 1.000000e+00 0.000000e+00 0.000000e+00 0.000000e+00
 0.000000e+00 7.071359e-01 2.928641e-01 0.000000e+00 0.000000e+00
 0.000000e+00 0.000000e+00 5.833938e-01 4.166063e-01 0.000000e+00
 0.000000e+00 0.000000e+00 0.000000e+00 6.931716e-01 3.068285e-01
 0.000000e+00 0.000000e+00 0.000000e+00 0.000000e+00 0.000000e+00
<ENDHMM>
~h "c"
<BEGINHMM>
<NUMSTATES> 5
<STATE> 2
<MEAN> 39
 -8.497661e+00 2.418906e+00 8.448049e-01 -6.861928e-01 -5.901279e+00 -6.511950e+00 -6.975091e+00 -3.433938e+00 -3.811899e+00 -2.610366e+00 -3.098053e+00 -3.711764e+00 4.855088e+01 -9.724667e-01 1.481358e-01 -2.829378e-01 2.977975e-02 4.920376e-01 2.163984e-02 3.440671e-01 6.328205e-02 1.297619e-01 -5.259690e-02 1.114614e-01 3.221413e-01 -6.800224e-01 -1.493031e-01 -3.389106e-01 -1.007725e-01 -2.342433e-01 -1.282798e-01 5.821525e-02 -1.014570e-01 2.569468e-02 -4.450472e-03 1.846169e-02 1.159040e-01 5.268930e-03 6.589015e-01
<VARIANCE> 39
 8.955290e+01 4.118882e+01 4.796004e+01 3.072935e+01 4.242676e+01 4.126200e+01 3.924516e+01 3.805767e+01 3.716522e+01 2.719887e+01 2.949098e+01 2.882932e+01 1.441491e+02 4.171463e+00 3.292430e+00 2.365487e+00 2.234061e+00 3.076757e+00 2.797379e+00 2.867784e+00 2.726924e+00 2.656021e+00 2.166196e+00 2.244454e+00 2.090451e+00 5.914604e+00 6.606727e-01 5.763491e-01 4.070128e-01 4.645920e-01 5.635876e-01 5.322647e-01 5.316921e-01 5.676584e-01 5.288787e-01 4.272377e-01 4.450969e-01 4.167623e-01 1.162035e+00
<GCONST> 1.261094e+02
<STATE> 3
<MEAN> 39
 -1.678151e+01 -1.495376e-02 -1.968576e+00 -4.053872e+00 -4.765473e+00 -5.802801e+00 -5.757646e+00 -3.540748e+00 -3.282100e+00 -2.551779e+00 -1.640166e+00 -1.156977e+00 5.683161e+01 -4.887238e-03 -1.115101e+00 -4.036452e-02 -1.004200e+00 -9.990275e-01 -4.830838e-01 -8.684421e-01 5.633085e-02 1.223837e-01 -2.194469e-01 2.613375e-01 -1.088440e-01 3.915927e+00 1.195667e+00 -1.853871e-01 3.347792e-01 -3.902107e-02 -6.600679e-01 6.293807e-03 -5.503213e-01 6.533082e-02 -7.790197e-04 -1.124142e-01 4.920673e-02 -5.497854e-01 2.506376e-01
<VARIANCE> 39
 9.614822e+01 3.904293e+01 5.343196e+01 3.966811e+01 3.718900e+01 4.044338e+01 3.653484e+01 3.489355e+01 3.284394e+01 2.565561e+01 2.416422e+01 2.196857e+01 1.412134e+02 1.270372e+01 4.633708e+00 6.249960e+00 4.402730e+00 5.337500e+00 4.950514e+00 4.680728e+00 4.642072e+00 4.459482e+00 3.194869e+00 3.397857e+00 3.366686e+00 1.229086e+01 1.336324e+00 9.506851e-01 9.073690e-01 7.873076e-01 9.199569e-01 9.596195e-01 7.474937e-01 9.629318e-01 8.193244e-01 6.373014e-01 6.467143e-01 5.485533e-01 1.835191e+00
<GCONST> 1.397105e+02
<STATE> 4
<MEAN> 39
 -4.031144e+00 -3.160327e+00 3.350895e+00 -4.136076e+00 -1.433258e+01 -7.183680e+00 -1.277416e+01 -4.165027e+00 -5.190895e+00 -4.331211e+00 5.046567e-01 -5.234899e+00 6.647507e+01 1.754994e+00 -1.289917e+00 1.158315e-02 -5.584438e-01 -1.274908e+00 4.245736e-01 -1.057039e+00 4.749978e-01 4.011220e-01 -6.931521e-02 4.752211e-01 -1.050569e+00 1.634265e+00 -2.181739e-01 5.312862e-02 -2.898043e-01 3.848986e-02 3.853759e-01 3.590566e-01 3.283411e-01 7.614429e-02 5.418264e-02 1.017623e-01 -9.636540e-02 -4.554910e-02 -5.846177e-01
<VARIANCE> 39
 4.480536e+01 5.029686e+01 1.015958e+02 5.928226e+01 7.705176e+01 7.895889e+01 6.055163e+01 7.288902e+01 7.411132e+01 4.767499e+01 5.099939e+01 3.480393e+01 8.412550e+01 7.245265e+00 5.710361e+00 6.092339e+00 4.628734e+00 8.635189e+00 5.641065e+00 6.050547e+00 7.054883e+00 6.388260e+00 4.503853e+00 4.914590e+00 4.042522e+00 8.259988e+00 8.654014e-01 6.739519e-01 7.741246e-01 7.316754e-01 1.272238e+00 1.005482e+00 1.014533e+00 9.914331e-01 8.881996e-01 6.791335e-01 8.916385e-01 6.283699e-01 1.196693e+00
<GCONST> 1.466913e+02
<TRANSP> 5
 0.000000e+00 1.000000e+00 0.000000e+00 0.000000e+00 0.000000e+00
 0.000000e+00 8.191131e-01 1.808869e-01 0.000000e+00 0.000000e+00
 0.000000e+00 0.000000e+00 6.486882e-01 3.513118e-01 0.000000e+00
 0.000000e+00 0.000000e+00 0.000000e+00 6.042663e-01 3.957337e-01
 0.000000e+00 0.000000e+00 0.000000e+00 0.000000e+00 0.000000e+00
<ENDHMM>
~h "d"
<BEGINHMM>
<NUMSTATES> 5
<STATE> 2
<MEAN> 39
 -4.823537e+00 2.938142e+00 2.362774e+00 6.125798e-01 -6.833188e+00 -5.806332e+00 -7.335694e+00 -3.655419e+00 -3.753289e+00 -2.462277e+00 -3.623157e+00 -5.092917e+00 4.953027e+01 -5.071687e-01 3.288755e-01 1.286704e-01 1.037088e-01 4.993213e-01 -1.622467e-01 2.582715e-01 1.530271e-01 1.301514e-01 -9.640335e-02 8.639412e-03 3.154994e-01 -3.063433e-01 -1.913344e-01 -4.930279e-01 -1.005708e-01 -3.543617e-01 -2.075886e-01 -8.001663e-03 -1.491639e-01 8.360816e-03 -9.261964e-02 -2.499600e-04 2.263415e-01 6.373685e-02 8.613014e-01
<VARIANCE> 39
 1.131673e+02 3.859583e+01 5.370552e+01 3.627696e+01 4.733732e+01 4.535566e+01 4.408988e+01 4.636998e+01 4.424212e+01 3.344142e+01 3.327215e+01 3.503308e+01 1.332774e+02 5.188672e+00 3.582414e+00 2.793431e+00 2.771368e+00 3.522624e+00 3.113627e+00 3.126876e+00 3.628305e+00 3.156898e+00 2.651622e+00 2.810519e+00 2.470823e+00 6.648017e+00 8.542913e-01 6.250250e-01 4.918929e-01 5.612473e-01 6.904932e-01 6.233808e-01 5.904676e-01 7.860413e-01 6.909372e-01 5.307125e-01 5.938727e-01 4.702708e-01 1.156662e+00
<GCONST> 1.322732e+02
<STATE> 3
<MEAN> 39
 -8.399584e+00 -7.404895e-01 1.251330e+00 -2.237887e+00 -5.410126e+00 -6.099289e+00 -7.109069e+00 -3.643015e+00 -4.602467e+00 -2.359345e+00 -2.668401e+00 -2.825014e+00 5.676848e+01 -1.119107e-01 -1.681714e+00 -7.395462e-02 -1.251237e+00 -1.200135e+00 -3.814817e-01 -9.542987e-01 9.329798e-02 -3.258559e-01 -1.118684e-01 1.005147e+00 6.645602e-02 4.229523e+00 6.137484e-01 -1.372599e-01 8.312212e-02 -1.257927e-01 -8.045650e-01 2.021447e-01 -4.253897e-01 8.844450e-02 -1.091518e-03 -5.148875e-02 2.697886e-01 -4.622824e-01 3.224970e-01
<VARIANCE> 39
 8.460319e+01 5.025755e+01 8.107381e+01 4.303557e+01 4.991463e+01 5.411969e+01 4.436964e+01 4.391327e+01 4.619823e+01 3.331742e+01 3.226090e+01 2.885846e+01 1.411923e+02 1.009379e+01 5.444841e+00 6.954111e+00 5.089154e+00 7.241736e+00 5.880170e+00 5.306199e+00 7.260433e+00 6.569497e+00 3.917411e+00 4.942015e+00 4.331519e+00 1.169221e+01 1.098277e+00 9.015307e-01 9.724078e-01 8.643754e-01 1.062796e+00 1.007282e+00 8.784314e-01 1.084115e+00 1.008947e+00 7.061856e-01 7.551097e-01 6.481798e-01 1.825475e+00
<GCONST> 1.459217e+02
<STATE> 4
<MEAN> 39
 -1.796105e+00 -4.194480e+00 2.820696e+00 -4.801626e+00 -1.458954e+01 -4.339478e+00 -1.323155e+01 -3.532225e+00 -6.859666e+00 -2.436137e+00 1.534876e+00 -6.459345e+00 6.688183e+01 5.093869e-01 -7.498676e-01 -1.785981e-01 -5.483664e-01 -1.102997e+00 3.385012e-01 -6.106011e-01 4.504356e-01 1.981890e-01 -6.586356e-02 5.615163e-01 -5.681203e-01 1.237868e+00 -9.277154e-02 1.903254e-01 -1.293280e-01 1.398973e-01 3.275007e-01 1.569992e-01 2.772575e-01 2.327582e-02 1.221892e-01 -2.001009e-02 -2.947165e-01 -5.389400e-02 -5.664741e-01
<VARIANCE> 39
 3.472190e+01 4.893551e+01 1.066643e+02 5.824532e+01 7.645119e+01 9.977721e+01 6.089228e+01 9.556837e+01 8.675426e+01 5.315981e+01 5.954937e+01 3.952351e+01 8.286475e+01 3.814845e+00 4.301437e+00 5.257889e+00 4.525746e+00 7.521232e+00 5.626162e+00 5.630106e+00 7.948637e+00 6.535115e+00 4.230435e+00 5.556124e+00 3.904702e+00 7.687106e+00 6.405097e-01 5.799917e-01 7.019753e-01 6.976163e-01 1.088617e+00 1.006027e+00 9.218371e-01 1.137626e+00 9.645541e-01 7.393647e-01 9.270747e-01 6.590173e-01 1.065488e+00
<GCONST> 1.456920e+02
<TRANSP> 5
 0.000000e+00 1.000000e+00 0.000000e+00 0.000000e+00 0.000000e+00
 0.000000e+00 7.416418e-01 2.583583e-01 0.000000e+00 0.000000e+00
 0.000000e+00 0.000000e+00 5.664569e-01 4.335431e-01 0.000000e+00
 0.000000e+00 0.000000e+00 0.000000e+00 6.334522e-01 3.665478e-01
 0.000000e+00 0.000000e+00 0.000000e+00 0.000000e+00 0.000000e+00
<ENDHMM>
~h "e"
<BEGINHMM>
<NUMSTATES> 5
<STATE> 2
<MEAN> 39
 -1.263876e+00 -9.505321e+00 8.745346e-01 -7.790231e+00 -1.588125e+01 -2.883864e+00 -1.322432e+01 1.451871e+00 -3.772221e+00 -2.918036e+00 -1.868268e-01 -8.756330e+00 7.020590e+01 5.724362e-02 -9.021479e-01 4.627163e-02 -4.874562e-01 -6.358141e-01 5.125445e-01 1.471628e-01 1.015217e+00 3.613001e-02 -4.450226e-01 8.204831e-02 -4.071521e-01 8.815343e-01 -1.591861e-01 3.841491e-01 -2.891305e-03 2.384256e-01 3.761800e-01 -2.166452e-02 2.460739e-01 -3.442039e-01 -1.349488e-01 7.717811e-02 -1.484080e-01 1.681395e-01 -5.071999e-01
<VARIANCE> 39
 2.705796e+01 6.359388e+01 9.203603e+01 5.014178e+01 7.704352e+01 9.412826e+01 5.946333e+01 9.873436e+01 7.842503e+01 5.679380e+01 6.391561e+01 4.126616e+01 8.011865e+01 1.586394e+00 3.028003e+00 3.649893e+00 3.172201e+00 4.898421e+00 4.487920e+00 4.102406e+00 5.592768e+00 4.215259e+00 3.730035e+00 4.318019e+00 3.052732e+00 3.564737e+00 3.664040e-01 4.911358e-01 5.179985e-01 5.562356e-01 8.470921e-01 7.732857e-01 7.443172e-01 9.707423e-01 8.148762e-01 6.883076e-01 7.504376e-01 5.783424e-01 6.886394e-01
<GCONST> 1.371478e+02
<STATE> 3
<MEAN> 39
 -2.474489e+00 -1.059045e+01 1.772957e+00 -9.750628e+00 -1.706243e+01 -2.254129e+00 -1.170737e+01 1.333191e+00 -4.498308e+00 -4.709308e+00 8.929545e-01 -9.597881e+00 7.217541e+01 7.428490e-03 2.108660e-01 7.000426e-02 9.062804e-02 1.168848e-01 -7.692394e-02 5.842007e-02 -1.028180e-01 -1.765764e-01 7.217806e-02 -1.330566e-01 -1.843667e-02 -2.893185e-01 4.716399e-02 1.728520e-01 2.853822e-03 1.585986e-01 1.193485e-01 -1.367083e-01 -2.566269e-02 -1.321034e-01 -1.184373e-02 8.174888e-02 -6.076930e-02 6.911283e-02 -2.227496e-01
<VARIANCE> 39
 2.428774e+01 6.240519e+01 1.212625e+02 4.364637e+01 9.344492e+01 1.191931e+02 5.275070e+01 9.498873e+01 6.664985e+01 5.050666e+01 7.336703e+01 4.166842e+01 4.744270e+01 3.247738e-01 8.893174e-01 1.126983e+00 1.021086e+00 1.426879e+00 1.529182e+00 1.479471e+00 1.642132e+00 1.594649e+00 1.422655e+00 1.640440e+00 1.231058e+00 6.561879e-01 7.029887e-02 1.682017e-01 1.925007e-01 1.836737e-01 2.903749e-01 2.647459e-01 2.937742e-01 3.419113e-01 2.827915e-01 2.666933e-01 2.894464e-01 2.277391e-01 1.294527e-01
<GCONST> 1.070937e+02
<STATE> 4
<MEAN> 39
 -1.251924e+00 -3.904785e+00 4.373573e+00 -4.133150e+00 -1.451693e+01 -3.684308e+00 -1.064400e+01 -2.243531e+00 -7.421165e+00 -2.753294e+00 -1.616807e+00 -7.352886e+00 6.144919e+01 6.936167e-02 8.475369e-01 -3.728007e-02 7.677749e-01 6.669356e-01 -2.497269e-01 3.648104e-01 -5.909272e-01 2.799829e-02 7.061689e-02 -3.495714e-01 3.014981e-01 -1.577786e+00 -7.304742e-02 2.617203e-02 -4.576994e-02 -3.448386e-03 9.559774e-02 3.723189e-02 2.452362e-02 -7.825080e-03 6.845478e-02 1.015181e-03 -3.707114e-03 2.736252e-02 -7.964229e-02
<VARIANCE> 39
 3.240830e+01 6.720129e+01 9.303355e+01 4.996345e+01 8.997184e+01 8.510542e+01 5.704993e+01 8.307561e+01 6.848286e+01 5.030996e+01 7.513963e+01 3.771260e+01 1.112703e+02 1.022493e+00 1.974086e+00 1.961318e+00 2.064554e+00 2.733493e+00 2.599943e+00 2.806571e+00 3.318656e+00 2.822450e+00 2.429123e+00 2.580570e+00 2.022115e+00 2.282695e+00 1.693027e-01 3.181071e-01 2.952360e-01 3.623011e-01 4.669058e-01 4.535800e-01 4.836527e-01 5.957904e-01 5.007585e-01 4.580511e-01 4.835508e-01 3.659379e-01 3.697622e-01
<GCONST> 1.245645e+02
<TRANSP> 5
 0.000000e+00 1.000000e+00 0.000000e+00 0.000000e+00 0.000000e+00
 0.000000e+00 6.197658e-01 3.802343e-01 0.000000e+00 0.000000e+00
 0.000000e+00 0.000000e+00 7.927681e-01 2.072319e-01 0.000000e+00
 0.000000e+00 0.000000e+00 0.000000e+00 6.989110e-01 3.010891e-01
 0.000000e+00 0.000000e+00 0.000000e+00 0.000000e+00 0.000000e+00
<ENDHMM>
~h "f"
<BEGINHMM>
<NUMSTATES> 5
<STATE> 2
<MEAN> 39
 -5.268221e+00 1.214545e+00 4.929861e-01 -1.786229e+00 -6.056288e+00 -4.867777e+00 -7.821956e+00 -4.395276e+00 -5.198857e+00 -2.822558e+00 -4.407665e+00 -4.418813e+00 5.682009e+01 -2.384739e+00 9.769543e-01 -1.693591e-01 7.474078e-01 1.337010e+00 -3.854596e-01 8.396484e-01 3.292087e-01 5.930967e-01 -9.451814e-02 -4.936115e-02 8.036901e-01 -1.227638e+00 -3.548639e-01 -5.107496e-01 -1.249739e-01 -2.868378e-01 -3.338872e-01 8.541419e-02 -1.868630e-01 7.317845e-02 3.544055e-03 4.747462e-02 3.001873e-01 -1.023201e-01 3.756704e-01
<VARIANCE> 39
 6.265176e+01 4.916571e+01 5.984074e+01 4.212625e+01 5.553967e+01 5.799437e+01 4.717921e+01 5.533509e+01 4.584376e+01 3.823314e+01 4.365063e+01 3.205919e+01 1.282362e+02 5.632595e+00 4.538943e+00 3.415816e+00 3.497158e+00 4.520795e+00 4.163193e+00 3.583711e+00 4.879075e+00 4.317788e+00 3.306148e+00 3.972908e+00 2.632428e+00 4.743890e+00 7.001795e-01 6.269218e-01 4.877133e-01 5.313320e-01 7.465725e-01 6.641142e-01 5.983320e-01 6.962961e-01 7.079452e-01 5.862787e-01 5.961678e-01 4.406026e-01 6.254160e-01
<GCONST> 1.346981e+02
<STATE> 3
<MEAN> 39
 -1.832965e+01 -1.945696e+00 -3.299446e+00 -1.895615e+00 -3.024774e+00 -4.832088e+00 -5.739028e+00 -1.584562e+00 -2.578307e+00 -1.764237e+00 -1.665017e+00 -1.811770e+00 5.385973e+01 -3.157184e-01 -3.040030e-01 -1.721894e-01 -8.730686e-02 -1.214196e-01 -5.013113e-02 7.043347e-03 5.607100e-03 5.714100e-02 6.338117e-02 1.043276e-01 2.231174e-02 -2.643200e-02 5.700002e-01 -4.223403e-02 1.060924e-01 -1.064345e-01 -1.800718e-01 2.859779e-02 -1.546764e-01 -1.077344e-01 -1.124221e-01 -5.489849e-02 -3.348241e-02 -1.614920e-01 2.245210e-01
<VARIANCE> 39
 8.592393e+01 4.971182e+01 3.376373e+01 2.554987e+01 2.985935e+01 3.459869e+01 3.734642e+01 2.959547e+01 2.810538e+01 2.316273e+01 2.345654e+01 2.055141e+01 1.214008e+02 4.300893e+00 1.917308e+00 1.957364e+00 1.773915e+00 1.987468e+00 2.254512e+00 2.279364e+00 2.244166e+00 2.270217e+00 2.008010e+00 2.095956e+00 1.725413e+00 2.364810e+00 6.941567e-01 3.897462e-01 3.708283e-01 3.991072e-01 4.655484e-01 4.806333e-01 4.933324e-01 4.894529e-01 4.852405e-01 4.302538e-01 4.466293e-01 3.662390e-01 3.856470e-01
<GCONST> 1.178846e+02
<STATE> 4
<MEAN> 39
 -7.290112e+00 -6.737720e-01 3.572115e-01 -2.523322e+00 -8.309466e+00 -5.025056e+00 -9.351857e+00 -5.382398e+00 -5.080069e+00 -2.445256e+00 -1.520255e+00 -4.260549e+00 5.923850e+01 1.663404e+00 -6.389552e-01 1.848646e-01 -6.047567e-01 -1.014441e+00 2.169662e-01 -8.025538e-01 -1.766541e-01 -2.560620e-01 -1.883702e-01 3.220621e-01 -6.779523e-01 1.590089e+00 2.314031e-02 -1.413284e-01 -2.945142e-02 -1.133725e-01 -1.388755e-01 1.595865e-01 -2.489857e-02 1.429269e-01 2.570606e-02 -1.444634e-02 1.029326e-01 -1.075358e-01 1.283038e-01
<VARIANCE> 39
 9.390179e+01 5.683847e+01 8.769652e+01 5.102169e+01 6.901991e+01 7.035590e+01 5.544223e+01 5.868499e+01 5.335060e+01 3.948628e+01 4.226650e+01 3.806500e+01 1.396382e+02 1.045984e+01 5.796280e+00 5.832712e+00 5.129076e+00 6.981882e+00 6.118978e+00 5.575083e+00 5.956257e+00 5.120308e+00 4.180546e+00 4.597955e+00 4.144405e+00 1.089242e+01 1.387555e+00 8.694412e-01 7.871078e-01 7.953137e-01 1.187060e+00 9.623006e-01 9.737047e-01 9.489008e-01 8.542416e-01 6.790881e-01 8.080012e-01 6.734012e-01 1.562274e+00
<GCONST> 1.474423e+02
<TRANSP> 5
 0.000000e+00 1.000000e+00 0.000000e+00 0.000000e+00 0.000000e+00
 0.000000e+00 5.948130e-01 4.051870e-01 0.000000e+00 0.000000e+00
 0.000000e+00 0.000000e+00 8.113553e-01 1.886447e-01 0.000000e+00
 0.000000e+00 0.000000e+00 0.000000e+00 7.117481e-01 2.882519e-01
 0.000000e+00 0.000000e+00 0.000000e+00 0.000000e+00 0.000000e+00
<ENDHMM>
~h "g"
<BEGINHMM>
<NUMSTATES> 5
<STATE> 2
<MEAN> 39
 1.614989e+00 -1.095264e+00 3.041455e+00 -1.550813e+00 -1.085134e+01 -4.897526e+00 -1.067852e+01 -4.156208e+00 -6.509556e+00 -8.382208e-01 -1.638082e+00 -7.852498e+00 5.781340e+01 9.314373e-03 1.376616e+00 5.045080e-01 1.045081e+00 7.170088e-01 -3.364320e-01 7.078488e-01 -2.980500e-01 -5.595855e-02 2.581012e-02 -5.696021e-01 4.924327e-01 -2.138441e+00 -4.245603e-01 -2.620089e-01 -1.995722e-01 -3.098718e-01 1.031681e-01 3.063506e-02 6.732780e-03 1.220219e-01 1.739859e-01 -1.362445e-01 5.323536e-02 8.983405e-02 4.510933e-01
<VARIANCE> 39
 3.115689e+01 4.823559e+01 6.237102e+01 4.948926e+01 6.325415e+01 7.500848e+01 5.544609e+01 7.275137e+01 7.094817e+01 4.758935e+01 5.683435e+01 3.962477e+01 1.044917e+02 2.090013e+00 2.537337e+00 2.361689e+00 3.088473e+00 3.723689e+00 3.617014e+00 3.250998e+00 4.519750e+00 4.604160e+00 3.075369e+00 3.150628e+00 2.539766e+00 4.563838e+00 3.960023e-01 5.022439e-01 4.563914e-01 5.127242e-01 7.734296e-01 7.283984e-01 6.503983e-01 7.741191e-01 8.624148e-01 6.014259e-01 6.830533e-01 5.207437e-01 9.105798e-01
<GCONST> 1.333677e+02
<STATE> 3
<MEAN> 39
 -7.367730e+00 5.040307e-01 1.464549e+00 -1.270835e+00 -6.895267e+00 -6.494569e+00 -8.188725e+00 -3.857575e+00 -4.769196e+00 -1.916971e+00 -1.946055e+00 -3.519268e+00 5.734781e+01 -6.378039e-01 -6.937065e-01 -9.968585e-02 -4.920321e-01 -2.968393e-01 -3.775661e-01 -2.051278e-01 1.232249e-01 8.709015e-02 -2.345193e-01 4.792045e-01 2.162313e-01 1.665140e+00 2.705249e-01 -2.322203e-01 -1.324098e-02 -2.305546e-01 -4.308169e-01 1.673087e-01 -1.591236e-01 6.324334e-02 5.217072e-03 -3.221102e-02 1.828342e-01 -2.238457e-01 3.514869e-01
<VARIANCE> 39
 1.013896e+02 5.627665e+01 7.258402e+01 4.180343e+01 6.980881e+01 6.433648e+01 5.129536e+01 5.399656e+01 5.412567e+01 3.432909e+01 3.726472e+01 3.148740e+01 1.402877e+02 8.669175e+00 5.827391e+00 5.532914e+00 4.110553e+00 8.190277e+00 5.884614e+00 5.060257e+00 5.503424e+00 5.449493e+00 3.733315e+00 4.517742e+00 3.578931e+00 1.168618e+01 1.173953e+00 1.012477e+00 8.775484e-01 7.368927e-01 1.256140e+00 1.082080e+00 8.726090e-01 9.337315e-01 9.506912e-01 6.805069e-01 7.889787e-01 6.572872e-01 1.811941e+00
<GCONST> 1.460634e+02
<STATE> 4
<MEAN> 39
 -1.402351e+00 -1.967867e+00 4.822590e+00 -2.842965e+00 -1.444885e+01 -4.160780e+00 -1.131251e+01 -4.262938e+00 -8.176075e+00 -1.961024e+00 6.971751e-01 -5.782058e+00 6.335357e+01 9.469641e-02 -2.189700e-01 -2.020393e-01 -3.455936e-01 -2.087537e-01 2.371755e-01 -1.488121e-02 2.161991e-01 2.089355e-01 -6.776342e-02 1.227368e-01 -2.153416e-01 1.512197e-01 -6.381998e-02 -4.795829e-02 -1.762691e-01 -3.023384e-02 1.963277e-01 8.920009e-02 2.770090e-02 6.315975e-02 1.024235e-01 -6.082357e-03 -1.212208e-01 -4.819665e-02 -6.621414e-02
<VARIANCE> 39
 4.591131e+01 5.224027e+01 9.589860e+01 4.988139e+01 8.343211e+01 9.036456e+01 6.520633e+01 9.059537e+01 8.226148e+01 5.158246e+01 5.973964e+01 3.541908e+01 1.019011e+02 2.103385e+00 2.833161e+00 3.310917e+00 3.263226e+00 4.681100e+00 3.471981e+00 3.381059e+00 4.734330e+00 4.504784e+00 3.188018e+00 3.515435e+00 2.641011e+00 4.059065e+00 3.380061e-01 3.898994e-01 4.638717e-01 4.722812e-01 7.963571e-01 6.799858e-01 6.157352e-01 7.715151e-01 6.698207e-01 5.573300e-01 6.859928e-01 4.188753e-01 6.501476e-01
<GCONST> 1.346333e+02
<TRANSP> 5
 0.000000e+00 1.000000e+00 0.000000e+00 0.000000e+00 0.000000e+00
 0.000000e+00 6.202434e-01 3.797566e-01 0.000000e+00 0.000000e+00
 0.000000e+00 0.000000e+00 7.480682e-01 2.519318e-01 0.000000e+00
 0.000000e+00 0.000000e+00 0.000000e+00 6.686567e-01 3.313433e-01
 0.000000e+00 0.000000e+00 0.000000e+00 0.000000e+00 0.000000e+00
<ENDHMM>
~h "h"
<BEGINHMM>
<NUMSTATES> 5
<STATE> 2
<MEAN> 39
 -4.207727e+00 -6.535305e-01 6.862335e-01 -1.813124e+00 -5.376992e+00 -3.301450e+00 -6.845588e+00 -3.968019e+00 -5.672647e+00 -2.536761e+00 -4.282255e+00 -5.239552e+00 5.883982e+01 -1.515809e+00 6.767918e-01 6.463099e-03 6.600278e-01 1.241270e+00 -8.659948e-02 8.529388e-01 4.855084e-02 4.735783e-01 -1.772011e-01 1.343726e-02 8.185694e-01 -1.513448e+00 -1.836498e-01 -4.184012e-01 -2.384821e-01 -3.310210e-01 -2.940863e-01 8.004871e-02 -1.933122e-01 1.333575e-01 8.045081e-02 1.389366e-02 2.340858e-01 -9.181529e-02 2.071163e-01
<VARIANCE> 39
 5.668147e+01 5.907096e+01 6.629296e+01 4.828458e+01 8.400143e+01 6.747452e+01 5.758703e+01 6.599752e+01 6.258130e+01 4.910165e+01 5.086374e+01 4.000571e+01 1.172962e+02 4.204556e+00 4.089062e+00 2.842551e+00 2.929461e+00 4.007045e+00 3.764680e+00 3.535182e+00 4.465703e+00 3.564592e+00 3.096302e+00 3.384236e+00 2.621883e+00 3.398003e+00 4.268329e-01 5.338147e-01 3.624913e-01 4.750965e-01 6.587278e-01 6.007329e-01 5.987617e-01 6.544362e-01 6.229042e-01 5.490566e-01 5.464296e-01 4.476436e-01 3.267367e-01
<GCONST> 1.327061e+02
<STATE> 3
<MEAN> 39
 -1.186874e+01 -4.329345e+00 -3.361877e+00 -2.238989e+00 -2.955865e+00 -4.162669e+00 -5.007098e+00 -1.449834e+00 -2.947273e+00 -3.363474e+00 -2.454142e+00 -2.220066e+00 4.986279e+01 -2.498984e-01 -1.486288e-03 -1.299470e-01 -6.255464e-02 -6.045227e-02 -4.748488e-03 2.383808e-02 -3.893390e-02 5.774112e-02 4.446474e-02 1.042961e-01 7.857696e-02 -4.701846e-01 1.756110e-01 5.603952e-03 4.242598e-02 -3.281404e-02 -7.548482e-02 -6.612799e-03 -6.201477e-02 -2.767359e-02 -4.005040e-02 -2.716950e-03 -3.094538e-02 -9.467901e-02 1.392208e-01
<VARIANCE> 39
 7.200436e+01 6.693160e+01 3.836550e+01 3.053485e+01 4.083435e+01 3.819686e+01 3.664291e+01 3.564855e+01 3.366650e+01 2.980277e+01 2.650421e+01 2.505925e+01 1.330491e+02 1.453979e+00 1.823176e+00 1.510905e+00 1.458883e+00 1.760352e+00 1.851557e+00 1.946557e+00 2.142952e+00 2.091224e+00 1.965513e+00 1.807829e+00 1.708218e+00 1.604495e+00 3.069104e-01 3.094312e-01 2.702712e-01 2.964287e-01 3.512189e-01 3.585454e-01 3.904358e-01 4.215658e-01 4.185664e-01 3.861864e-01 3.591526e-01 3.493735e-01 2.439352e-01
<GCONST> 1.133765e+02
<STATE> 4
<MEAN> 39
 -7.401975e+00 -2.422067e+00 -1.777196e+00 -4.039147e+00 -6.587243e+00 -4.084535e+00 -7.815766e+00 -3.557659e+00 -4.088581e+00 -2.084398e+00 -1.810398e+00 -4.715682e+00 5.784243e+01 7.565461e-01 -3.210270e-01 7.436006e-02 -3.206952e-01 -4.810694e-01 1.516736e-02 -4.246884e-01 -7.638787e-03 -1.040869e-01 -2.883036e-02 1.040582e-01 -3.582684e-01 1.074525e+00 9.641331e-02 -7.929387e-02 -1.319022e-03 -4.639283e-02 -1.052197e-01 6.747334e-02 -5.312834e-02 6.019040e-02 -6.419880e-03 -1.172211e-02 4.839168e-02 -8.184499e-02 1.843089e-01
<VARIANCE> 39
 9.323256e+01 6.316611e+01 8.088596e+01 5.356661e+01 7.386806e+01 6.273376e+01 5.415832e+01 5.741578e+01 5.557368e+01 4.277271e+01 4.415711e+01 4.163838e+01 1.698062e+02 7.653555e+00 4.907389e+00 4.485558e+00 4.163949e+00 5.330380e+00 4.325366e+00 4.292995e+00 4.629933e+00 3.928576e+00 3.439425e+00 3.770383e+00 3.497910e+00 1.081845e+01 1.145798e+00 8.001127e-01 7.154657e-01 7.008430e-01 9.416317e-01 7.747651e-01 7.796484e-01 8.229488e-01 6.879379e-01 6.329905e-01 6.995158e-01 6.166995e-01 1.528623e+00
<GCONST> 1.431013e+02
<TRANSP> 5
 0.000000e+00 1.000000e+00 0.000000e+00 0.000000e+00 0.000000e+00
 0.000000e+00 5.886635e-01 4.113365e-01 0.000000e+00 0.000000e+00
 0.000000e+00 0.000000e+00 8.360694e-01 1.639306e-01 0.000000e+00
 0.000000e+00 0.000000e+00 0.000000e+00 7.792366e-01 2.207635e-01
 0.000000e+00 0.000000e+00 0.000000e+00 0.000000e+00 0.000000e+00
<ENDHMM>
~h "i"
<BEGINHMM>
<NUMSTATES> 5
<STATE> 2
<MEAN> 39
 -4.639046e+00 -2.012755e+00 6.768301e+00 -3.120889e+00 -1.512938e+01 -6.327353e+00 -1.223430e+01 -5.017588e+00 -8.848494e+00 -3.836331e+00 1.457622e+00 -5.752390e+00 6.397976e+01 2.772303e-02 1.076888e-02 1.403495e+00 -3.342901e-01 -1.547875e+00 2.354115e-01 -7.657328e-01 -2.958350e-01 -7.755865e-01 -3.486784e-01 1.006249e+00 -1.582636e-01 8.680331e-01 -4.863676e-02 4.989272e-02 -2.144063e-01 -5.287579e-02 1.616233e-01 1.986556e-01 9.900638e-02 3.688655e-02 1.841118e-01 8.561335e-02 -1.052403e-01 -4.549662e-02 -2.290437e-01
<VARIANCE> 39
 6.026381e+01 5.015678e+01 1.008277e+02 5.059719e+01 8.780006e+01 8.448193e+01 6.608553e+01 7.728933e+01 6.682603e+01 4.445287e+01 5.183371e+01 3.662012e+01 1.005583e+02 4.532645e+00 3.185205e+00 5.396027e+00 3.438728e+00 6.716716e+00 5.112277e+00 5.913915e+00 5.322855e+00 4.961941e+00 3.495419e+00 4.388296e+00 3.118285e+00 5.909866e+00 7.124304e-01 5.614139e-01 7.872657e-01 5.951413e-01 1.190671e+00 8.791310e-01 9.646985e-01 9.510117e-01 8.743581e-01 6.285435e-01 7.661906e-01 5.339914e-01 9.926558e-01
<GCONST> 1.424420e+02
<STATE> 3
<MEAN> 39
 -5.426256e+00 -1.176662e+00 1.348661e+01 -6.266444e+00 -2.222269e+01 -3.805659e+00 -1.556708e+01 -7.085001e+00 -1.131171e+01 -4.918894e+00 4.381310e+00 -7.616881e+00 6.738429e+01 5.125489e-02 1.747100e-01 -1.386373e-03 -1.812997e-02 -2.207988e-02 5.431372e-02 1.233897e-01 -5.592417e-02 -3.445034e-02 1.294946e-01 -9.714547e-02 -4.419055e-02 -3.030846e-01 5.508514e-02 1.544689e-02 -2.777268e-01 1.580689e-01 3.503383e-01 -1.816068e-01 2.442760e-01 1.139755e-01 1.254284e-01 7.254363e-02 -2.303834e-01 5.770823e-02 -2.135811e-01
<VARIANCE> 39
 2.798414e+01 4.171439e+01 9.610273e+01 4.626549e+01 5.928085e+01 9.357732e+01 5.561430e+01 7.753543e+01 4.785155e+01 4.430928e+01 5.044643e+01 3.603422e+01 5.313231e+01 4.584976e-01 1.189882e+00 1.224726e+00 1.264038e+00 1.452038e+00 1.682691e+00 1.843106e+00 1.957321e+00 1.633424e+00 1.536412e+00 1.627866e+00 1.239107e+00 1.024972e+00 1.350274e-01 1.946858e-01 2.672860e-01 2.306374e-01 4.048243e-01 3.383218e-01 4.204856e-01 4.040265e-01 3.517367e-01 3.100357e-01 3.649544e-01 2.643198e-01 1.901916e-01
<GCONST> 1.105212e+02
<STATE> 4
<MEAN> 39
 -3.509578e+00 4.875513e-01 8.594137e+00 -2.615577e+00 -1.582215e+01 -5.818276e+00 -1.046844e+01 -6.280249e+00 -1.008140e+01 -3.036443e+00 5.265185e-01 -5.894741e+00 5.750414e+01 1.535967e-01 3.209996e-01 -9.649911e-01 4.872576e-01 1.223956e+00 -2.379183e-01 7.440500e-01 2.160908e-01 5.934540e-01 1.283011e-01 -7.536911e-01 2.230101e-01 -1.566574e+00 -1.104143e-01 -2.074094e-02 -8.387575e-02 -5.351382e-02 1.282660e-01 8.243231e-02 -3.521321e-02 -1.271479e-03 9.634434e-02 -2.250909e-02 -4.596770e-02 1.255904e-04 2.302708e-03
<VARIANCE> 39
 3.509926e+01 4.929793e+01 7.560812e+01 4.662665e+01 7.678253e+01 8.469875e+01 5.407718e+01 7.200967e+01 5.479499e+01 4.209385e+01 5.507253e+01 3.447606e+01 1.355150e+02 1.978854e+00 2.696091e+00 2.513660e+00 2.335184e+00 3.482183e+00 3.303908e+00 3.665868e+00 3.942551e+00 3.293824e+00 2.704329e+00 3.147454e+00 2.312333e+00 3.714435e+00 2.815160e-01 4.222452e-01 3.813824e-01 3.945942e-01 6.422526e-01 5.647398e-01 6.181509e-01 6.801746e-01 5.864822e-01 4.916815e-01 5.652997e-01 4.100072e-01 5.508402e-01
<GCONST> 1.293855e+02
<TRANSP> 5
 0.000000e+00 1.000000e+00 0.000000e+00 0.000000e+00 0.000000e+00
 0.000000e+00 6.666505e-01 3.333495e-01 0.000000e+00 0.000000e+00
 0.000000e+00 0.000000e+00 7.740046e-01 2.259954e-01 0.000000e+00
 0.000000e+00 0.000000e+00 0.000000e+00 7.086967e-01 2.913033e-01
 0.000000e+00 0.000000e+00 0.000000e+00 0.000000e+00 0.000000e+00
<ENDHMM>
~h "j"
<BEGINHMM>
<NUMSTATES> 5
<STATE> 2
<MEAN> 39
 -6.554896e+00 3.515721e+00 2.801433e+00 -2.352683e-02 -7.441546e+00 -6.313138e+00 -6.678517e+00 -3.659209e+00 -4.346463e+00 -2.896852e+00 -3.043933e+00 -4.027472e+00 5.121645e+01 -6.444709e-01 4.979956e-01 -1.386525e-02 1.342530e-01 6.937714e-01 1.224987e-01 3.475797e-01 1.226232e-01 2.105778e-01 -6.260637e-02 -6.935276e-02 2.971756e-01 -7.834109e-01 -2.215384e-01 -3.739382e-01 -1.122138e-01 -2.688160e-01 -7.662054e-02 4.645361e-02 -1.699952e-01 -2.804756e-02 -5.819815e-02 9.130146e-03 1.572916e-01 -9.479113e-04 6.928052e-01
<VARIANCE> 39
 1.055486e+02 3.932533e+01 6.274176e+01 3.153522e+01 5.051471e+01 4.586270e+01 4.044519e+01 4.489641e+01 4.497188e+01 3.284532e+01 3.376044e+01 2.619586e+01 1.298638e+02 5.245533e+00 3.228961e+00 2.556673e+00 2.445522e+00 3.576622e+00 3.008317e+00 3.068323e+00 3.536429e+00 3.057232e+00 2.549008e+00 2.587499e+00 2.221879e+00 5.750614e+00 9.604112e-01 5.694885e-01 4.648971e-01 4.876031e-01 6.653855e-01 5.765790e-01 5.861099e-01 7.017919e-01 6.360794e-01 5.014439e-01 5.082176e-01 4.484396e-01 1.131770e+00
<GCONST> 1.303422e+02
<STATE> 3
<MEAN> 39
 -1.224113e+01 2.155794e+00 1.784108e+00 -2.205395e+00 -4.673638e+00 -5.516650e+00 -6.825226e+00 -4.625577e+00 -4.466530e+00 -3.081511e+00 -2.315278e+00 -2.367998e+00 5.784087e+01 -3.997539e-01 -1.316231e+00 1.939014e-01 -8.557928e-01 -1.166542e+00 -7.807820e-01 -1.021926e+00 -1.530940e-01 -2.923455e-01 -2.769937e-01 7.902714e-01 2.684945e-01 3.846400e+00 9.858587e-01 -3.762741e-01 1.778039e-01 -9.871472e-02 -9.312744e-01 -7.891327e-02 -4.105535e-01 2.304552e-01 6.781159e-02 -5.505287e-02 2.689740e-01 -3.720089e-01 3.015833e-01
<VARIANCE> 39
 8.970546e+01 5.622038e+01 6.828796e+01 3.445974e+01 4.800119e+01 5.090005e+01 3.773169e+01 3.926133e+01 3.824145e+01 2.886160e+01 2.579358e+01 2.315034e+01 1.298838e+02 1.250247e+01 5.214408e+00 6.717697e+00 4.585435e+00 8.153561e+00 5.797990e+00 4.206234e+00 5.138144e+00 4.710780e+00 3.581231e+00 3.782451e+00 3.489789e+00 9.161748e+00 1.367445e+00 1.061288e+00 9.786882e-01 8.490345e-01 1.146387e+00 1.123108e+00 7.118764e-01 1.045438e+00 9.416283e-01 6.846915e-01 6.135804e-01 6.199325e-01 1.711813e+00
<GCONST> 1.427651e+02
<STATE> 4
<MEAN> 39
 -4.103555e+00 -3.350739e+00 6.371747e+00 -3.800338e+00 -1.657866e+01 -8.123787e+00 -1.306529e+01 -3.616585e+00 -5.769413e+00 -4.743470e+00 2.704402e+00 -4.355830e+00 6.822945e+01 1.494477e+00 -1.843369e+00 -6.152207e-01 -1.024804e+00 -1.543880e+00 3.668776e-01 -8.563182e-01 1.142306e+00 7.920488e-01 1.577571e-02 7.153118e-01 -1.077817e+00 1.736838e+00 -1.205138e-01 8.475973e-02 -5.103014e-01 -4.978331e-02 6.346180e-01 5.681580e-01 3.720836e-01 1.307321e-01 1.633909e-01 1.135593e-01 -4.351013e-01 -2.831489e-01 -5.613718e-01
<VARIANCE> 39
 2.876413e+01 3.969010e+01 9.647276e+01 4.823642e+01 8.042061e+01 8.150713e+01 5.222571e+01 6.926044e+01 7.262524e+01 4.853648e+01 4.996018e+01 3.523481e+01 6.990960e+01 4.725497e+00 5.570462e+00 5.807345e+00 4.051059e+00 7.937759e+00 5.741382e+00 5.415375e+00 7.563816e+00 6.503817e+00 3.942737e+00 4.931563e+00 3.701797e+00 5.550837e+00 7.580411e-01 6.180663e-01 7.409252e-01 6.569006e-01 1.282846e+00 1.054250e+00 7.717485e-01 9.734295e-01 8.496605e-01 6.806923e-01 8.960010e-01 6.595364e-01 6.652603e-01
<GCONST> 1.429119e+02
<TRANSP> 5
 0.000000e+00 1.000000e+00 0.000000e+00 0.000000e+00 0.000000e+00
 0.000000e+00 7.828708e-01 2.171292e-01 0.000000e+00 0.000000e+00
 0.000000e+00 0.000000e+00 6.270971e-01 3.729029e-01 0.000000e+00
 0.000000e+00 0.000000e+00 0.000000e+00 5.770150e-01 4.229849e-01
 0.000000e+00 0.000000e+00 0.000000e+00 0.000000e+00 0.000000e+00
<ENDHMM>
~h "k"
<BEGINHMM>
<NUMSTATES> 5
<STATE> 2
<MEAN> 39
 -5.094557e+00 1.051887e+00 3.349937e-01 -1.979159e+00 -7.827596e+00 -5.036253e+00 -7.762611e+00 -4.531663e+00 -5.064444e+00 -2.168219e+00 -2.831171e+00 -4.826216e+00 4.878935e+01 -6.772487e-01 4.383844e-01 -1.217915e-01 2.808538e-01 5.153910e-01 -1.768545e-01 3.714232e-01 -4.629228e-02 1.742556e-01 -4.044974e-02 -1.574434e-01 4.455114e-01 -1.397606e+00 -1.636831e-01 -3.851737e-01 -1.500379e-01 -2.130205e-01 -2.778394e-03 1.267459e-02 -9.845349e-02 1.347418e-01 2.411308e-02 2.688039e-02 1.025396e-01 -6.641718e-03 6.575112e-01
<VARIANCE> 39
 6.912454e+01 4.212499e+01 5.581770e+01 4.164162e+01 5.584690e+01 5.264587e+01 4.509539e+01 5.155463e+01 5.035812e+01 3.659457e+01 3.928197e+01 3.321770e+01 1.287541e+02 2.479260e+00 2.464377e+00 2.126961e+00 2.281466e+00 3.160375e+00 2.836078e+00 2.883882e+00 3.058278e+00 2.811876e+00 2.595896e+00 2.683803e+00 2.191494e+00 4.694395e+00 4.589989e-01 5.015755e-01 4.367681e-01 4.676267e-01 6.082718e-01 5.484934e-01 5.706969e-01 6.200993e-01 5.809253e-01 5.209759e-01 5.124708e-01 4.336904e-01 8.986964e-01
<GCONST> 1.277593e+02
<STATE> 3
<MEAN> 39
 -1.012255e+01 1.911388e-01 -8.455021e-01 -1.608998e+00 -5.341359e+00 -5.367421e+00 -6.554551e+00 -3.819242e+00 -4.305206e+00 -1.787361e+00 -2.702026e+00 -2.626928e+00 5.028754e+01 -6.981630e-01 -1.476736e+00 -9.593026e-01 -6.679856e-01 4.487954e-01 -3.803791e-01 -2.887439e-01 5.475190e-01 9.249834e-02 2.243045e-01 8.084033e-03 2.561988e-01 2.788279e+00 4.958699e-01 -3.610412e-01 -8.576903e-02 -3.830014e-01 -4.549263e-01 7.702981e-02 -3.377762e-01 1.590898e-01 -4.209902e-02 -1.666468e-02 1.218152e-01 -4.044860e-01 1.052561e+00
<VARIANCE> 39
 9.111823e+01 5.197826e+01 5.538980e+01 3.850852e+01 5.412526e+01 4.756852e+01 4.392990e+01 4.394905e+01 4.251564e+01 3.171041e+01 3.483098e+01 2.809154e+01 1.656397e+02 7.519116e+00 5.313709e+00 5.595343e+00 4.239751e+00 6.360179e+00 5.064005e+00 4.775661e+00 4.768919e+00 4.522900e+00 3.699533e+00 3.846518e+00 3.339850e+00 1.314722e+01 9.543708e-01 8.412749e-01 7.509903e-01 6.653854e-01 9.857183e-01 9.102629e-01 7.514507e-01 8.774592e-01 7.551225e-01 6.659580e-01 6.752911e-01 6.069703e-01 1.725613e+00
<GCONST> 1.413537e+02
<STATE> 4
<MEAN> 39
 -4.710371e+00 -6.247323e+00 -3.863487e+00 -6.526350e+00 -8.358509e+00 -5.126823e+00 -1.074818e+01 -1.874199e+00 -5.466301e+00 -9.841647e-01 -2.241464e+00 -6.602944e+00 6.436852e+01 8.171468e-01 -6.905209e-01 -5.508041e-02 -7.180545e-01 -8.247570e-01 2.177524e-01 -4.902785e-01 4.479102e-01 1.216315e-01 -2.192091e-01 3.600180e-01 -8.517258e-01 2.008190e+00 9.573648e-02 1.805326e-01 1.957422e-01 9.059682e-02 -1.218178e-01 2.484887e-01 1.103982e-01 -7.725447e-02 7.451963e-02 -1.762548e-01 5.724409e-02 -1.137372e-01 -4.716004e-01
<VARIANCE> 39
 5.729821e+01 5.928863e+01 8.212330e+01 5.821917e+01 8.330172e+01 8.851434e+01 5.713979e+01 7.207196e+01 6.387730e+01 4.786841e+01 5.421405e+01 4.727917e+01 1.161360e+02 5.149429e+00 5.090664e+00 5.007577e+00 4.906103e+00 6.322443e+00 6.023744e+00 4.974403e+00 6.464114e+00 5.357312e+00 4.577730e+00 4.530425e+00 4.678748e+00 1.297033e+01 8.997074e-01 7.193134e-01 9.287385e-01 7.789308e-01 1.267025e+00 1.047074e+00 8.985085e-01 1.061249e+00 8.841401e-01 8.405128e-01 8.716542e-01 8.256289e-01 1.261409e+00
<GCONST> 1.476152e+02
<TRANSP> 5
 0.000000e+00 1.000000e+00 0.000000e+00 0.000000e+00 0.000000e+00
 0.000000e+00 7.083773e-01 2.916227e-01 0.000000e+00 0.000000e+00
 0.000000e+00 0.000000e+00 5.744719e-01 4.255281e-01 0.000000e+00
 0.000000e+00 0.000000e+00 0.000000e+00 6.714723e-01 3.285277e-01
 0.000000e+00 0.000000e+00 0.000000e+00 0.000000e+00 0.000000e+00
<ENDHMM>
~h "l"
<BEGINHMM>
<NUMSTATES> 5
<STATE> 2
<MEAN> 39
 -1.493382e+00 -5.274915e+00 -1.090243e+00 -5.668550e+00 -1.183162e+01 -2.566501e+00 -1.208070e+01 -4.004474e+00 -4.492512e+00 -1.820044e+00 -9.541378e-01 -7.275348e+00 6.530019e+01 1.785392e-01 -4.566205e-01 -2.151038e-01 -4.780593e-01 -1.266883e-01 3.851228e-01 -4.217333e-01 2.322072e-01 2.837101e-01 1.493785e-01 1.293778e-01 -3.025612e-01 6.319466e-01 -3.251513e-02 2.504561e-02 1.435613e-02 -5.945195e-02 1.577444e-02 1.067308e-01 6.335687e-03 2.656011e-02 -6.532876e-02 -1.893296e-02 -1.514040e-03 -2.662813e-02 -3.087086e-02
<VARIANCE> 39
 4.499089e+01 6.106529e+01 9.091934e+01 6.959806e+01 7.978152e+01 9.213736e+01 7.018112e+01 1.053999e+02 8.416628e+01 5.006450e+01 5.740774e+01 4.495878e+01 1.174857e+02 3.147601e+00 3.746561e+00 4.593121e+00 4.702116e+00 6.059994e+00 5.682251e+00 4.931498e+00 6.347939e+00 5.656879e+00 4.352162e+00 4.512903e+00 3.663857e+00 6.453784e+00 5.436954e-01 5.927097e-01 6.508522e-01 7.998165e-01 1.067252e+00 9.299419e-01 8.909678e-01 1.103702e+00 9.453746e-01 7.474018e-01 7.817125e-01 6.818506e-01 9.801459e-01
<GCONST> 1.447185e+02
<STATE> 3
<MEAN> 39
 2.863154e-01 -9.474188e+00 -3.040991e+00 -1.123720e+01 -1.377419e+01 3.298021e+00 -1.465986e+01 -4.249798e+00 -9.181191e-01 -2.542502e+00 7.709540e-01 -1.048544e+01 7.056054e+01 9.719521e-02 9.724113e-02 1.022186e-01 -8.776787e-02 1.042657e-01 1.153538e-01 -1.418745e-01 -9.120211e-02 -2.330693e-01 2.093676e-01 -4.471609e-02 -3.537470e-03 -2.715583e-01 -4.807752e-02 1.160369e-01 5.309129e-02 1.449707e-01 6.832813e-02 -1.925962e-01 1.096598e-01 -2.424831e-02 -9.917047e-02 -1.032351e-02 -8.050026e-02 1.169086e-01 -1.160391e-01
<VARIANCE> 39
 2.474575e+01 5.648821e+01 8.450830e+01 7.704131e+01 7.038842e+01 9.678732e+01 6.566323e+01 1.258157e+02 8.663530e+01 5.389063e+01 6.009699e+01 4.908537e+01 6.316339e+01 4.929062e-01 1.154077e+00 1.567936e+00 1.699610e+00 2.047601e+00 2.545737e+00 2.108205e+00 2.721473e+00 2.245142e+00 2.332752e+00 2.261422e+00 1.839184e+00 8.153111e-01 9.749171e-02 2.096129e-01 2.556683e-01 2.738934e-01 3.960318e-01 4.035788e-01 4.078239e-01 5.220546e-01 4.115281e-01 4.317345e-01 4.198210e-01 3.535513e-01 1.546892e-01
<GCONST> 1.173902e+02
<STATE> 4
<MEAN> 39
 1.623926e+00 -4.965026e+00 4.311668e-01 -6.436678e+00 -1.169662e+01 5.690867e-01 -1.354672e+01 -4.070147e+00 -7.342580e+00 5.967733e-01 -2.770363e+00 -7.791503e+00 6.479024e+01 -1.197090e-01 4.904387e-01 2.630424e-01 5.187704e-01 2.964032e-01 -3.993858e-01 3.753030e-01 -2.345664e-01 -1.852738e-01 -8.731252e-02 -2.954343e-01 3.118851e-01 -7.582225e-01 -1.095787e-01 -4.962280e-02 -8.199261e-02 -1.671013e-02 3.833644e-02 9.442491e-03 9.035026e-02 1.203566e-01 1.296077e-01 -1.506319e-01 1.855608e-02 -1.191020e-02 4.457650e-02
<VARIANCE> 39
 2.598079e+01 5.737617e+01 7.656465e+01 7.991479e+01 7.449577e+01 8.058318e+01 6.663188e+01 1.146497e+02 8.721486e+01 5.571949e+01 7.110090e+01 4.138825e+01 8.390298e+01 9.418721e-01 2.513160e+00 2.909303e+00 3.443228e+00 3.218278e+00 3.479406e+00 3.261446e+00 5.351521e+00 4.135911e+00 3.305639e+00 3.587883e+00 2.597239e+00 2.543509e+00 1.496309e-01 3.572232e-01 4.072262e-01 5.550083e-01 5.550343e-01 5.687637e-01 6.094721e-01 8.603143e-01 6.637906e-01 6.330674e-01 6.310294e-01 4.627269e-01 3.290995e-01
<GCONST> 1.310479e+02
<TRANSP> 5
 0.000000e+00 1.000000e+00 0.000000e+00 0.000000e+00 0.000000e+00
 0.000000e+00 6.728671e-01 3.271329e-01 0.000000e+00 0.000000e+00
 0.000000e+00 0.000000e+00 7.320976e-01 2.679025e-01 0.000000e+00
 0.000000e+00 0.000000e+00 0.000000e+00 7.139341e-01 2.860659e-01
 0.000000e+00 0.000000e+00 0.000000e+00 0.000000e+00 0.000000e+00
<ENDHMM>
~h "m"
<BEGINHMM>
<NUMSTATES> 5
<STATE> 2
<MEAN> 39
 7.177110e-01 -6.075926e+00 9.045833e-02 -6.261598e+00 -1.118102e+01 -1.091211e+00 -1.182666e+01 -5.665573e+00 -7.563842e+00 -2.278214e+00 -9.643082e-01 -8.779955e+00 6.494079e+01 9.489638e-02 7.371164e-01 8.187637e-01 8.278829e-01 7.694366e-02 -2.092626e-01 5.472537e-01 -1.205808e+00 -1.041484e+00 1.636701e-01 -3.306548e-01 2.067813e-01 -9.247780e-01 -1.206020e-01 -3.751388e-02 -2.800768e-02 -6.919646e-02 2.063109e-02 2.093033e-02 2.466787e-02 1.218102e-01 1.060966e-01 -4.612276e-02 -4.834543e-02 2.912417e-02 7.092316e-02
<VARIANCE> 39
 3.199282e+01 5.027303e+01 7.156540e+01 6.534681e+01 6.751006e+01 7.717439e+01 6.327821e+01 1.180519e+02 7.731168e+01 5.844377e+01 7.122403e+01 4.465014e+01 1.002814e+02 9.966265e-01 2.216120e+00 3.147122e+00 3.767197e+00 3.280935e+00 3.447323e+00 3.692762e+00 5.632409e+00 5.003595e+00 3.334261e+00 4.181609e+00 2.909657e+00 2.292470e+00 1.641593e-01 3.113554e-01 4.351909e-01 5.324021e-01 5.056582e-01 5.224652e-01 5.717013e-01 8.795289e-01 7.317228e-01 5.281407e-01 6.562455e-01 4.646803e-01 2.851712e-01
<GCONST> 1.310970e+02
<STATE> 3
<MEAN> 39
 -1.424102e+00 -2.875188e+00 2.996985e+00 -3.670998e+00 -1.061345e+01 -2.769459e+00 -8.443330e+00 -8.358040e+00 -9.075130e+00 -3.659251e+00 -2.457997e+00 -6.770182e+00 5.818698e+01 -6.636149e-02 2.771332e-01 5.126481e-02 1.590330e-01 1.274058e-01 -5.618065e-03 2.263974e-01 -7.961103e-02 -8.528737e-02 2.834138e-02 -9.670866e-02 1.304052e-01 -4.735241e-01 -1.349152e-02 -4.371317e-02 -1.178533e-01 -8.940455e-02 1.757713e-02 7.510298e-03 -7.627363e-02 1.692578e-01 1.394647e-01 7.796087e-03 6.784714e-02 -8.416529e-03 5.879990e-02
<VARIANCE> 39
 4.792266e+01 4.793944e+01 6.646536e+01 4.974529e+01 7.918552e+01 7.278969e+01 6.412502e+01 8.966249e+01 6.918687e+01 6.247022e+01 6.535887e+01 4.274553e+01 1.168055e+02 3.475119e-01 8.200961e-01 7.835217e-01 1.011175e+00 1.287316e+00 1.381878e+00 1.464009e+00 1.628450e+00 1.614885e+00 1.544610e+00 1.680318e+00 1.271736e+00 8.042413e-01 7.712362e-02 1.434294e-01 1.887908e-01 2.600980e-01 2.636990e-01 2.737140e-01 3.287775e-01 3.953999e-01 4.019789e-01 3.167228e-01 3.535704e-01 2.782181e-01 1.273770e-01
<GCONST> 1.086883e+02
<STATE> 4
<MEAN> 39
 -2.092957e+00 -8.627611e-01 1.626261e+00 -2.284333e+00 -8.750578e+00 -2.833085e+00 -7.736053e+00 -8.034389e+00 -9.094980e+00 -2.276942e+00 -2.754508e+00 -5.940982e+00 5.518655e+01 -2.396328e-01 -1.062583e-01 -3.833528e-01 -3.125939e-01 2.627704e-01 -6.837985e-02 -1.263622e-01 5.230572e-01 5.919393e-01 -5.121560e-02 1.226451e-01 9.970990e-02 -3.087601e-02 -7.581040e-02 -2.198461e-01 -1.482227e-01 -2.189811e-01 -2.598202e-02 5.076711e-02 -1.765472e-01 2.681026e-01 2.803141e-01 -8.219351e-02 6.228120e-02 -5.048488e-02 3.085111e-01
<VARIANCE> 39
 5.733554e+01 4.724776e+01 5.933628e+01 4.556549e+01 7.060294e+01 6.788583e+01 5.692619e+01 8.240298e+01 8.142377e+01 5.818808e+01 6.053836e+01 3.951267e+01 1.441545e+02 2.244063e+00 3.124172e+00 2.750107e+00 3.622948e+00 3.577701e+00 3.439327e+00 3.641660e+00 4.192264e+00 4.736800e+00 3.416843e+00 3.577010e+00 2.583158e+00 5.714738e+00 4.086525e-01 4.887120e-01 4.709256e-01 5.956734e-01 6.481324e-01 6.075524e-01 6.391682e-01 8.311233e-01 8.977396e-01 6.399851e-01 6.548002e-01 4.846686e-01 7.114236e-01
<GCONST> 1.353701e+02
<TRANSP> 5
 0.000000e+00 1.000000e+00 0.000000e+00 0.000000e+00 0.000000e+00
 0.000000e+00 6.444198e-01 3.555802e-01 0.000000e+00 0.000000e+00
 0.000000e+00 0.000000e+00 7.641444e-01 2.358556e-01 0.000000e+00
 0.000000e+00 0.000000e+00 0.000000e+00 6.386322e-01 3.613679e-01
 0.000000e+00 0.000000e+00 0.000000e+00 0.000000e+00 0.000000e+00
<ENDHMM>
~h "n"
<BEGINHMM>
<NUMSTATES> 5
<STATE> 2
<MEAN> 39
 -8.146051e-02 -9.700832e+00 -1.668038e+00 -6.474989e+00 -1.204891e+01 -3.092382e+00 -1.364556e+01 8.315896e-02 -3.844285e+00 -2.846350e+00 -3.068380e+00 -1.038080e+01 6.811758e+01 6.147479e-01 1.705009e+00 1.219800e+00 1.415076e+00 8.815871e-02 -1.361063e+00 4.431404e-01 -1.871490e+00 -7.650954e-01 1.011833e+00 -8.092688e-01 3.512855e-01 -1.998003e+00 -7.350147e-02 3.197509e-01 1.372000e-01 1.059402e-01 9.961005e-02 -1.629250e-02 3.393092e-01 -4.497788e-01 -1.197002e-01 4.741287e-02 -9.663506e-02 1.638438e-01 -2.890307e-01
<VARIANCE> 39
 2.486759e+01 5.536397e+01 6.503185e+01 4.347521e+01 6.170612e+01 7.578210e+01 5.695720e+01 1.040626e+02 6.931300e+01 5.953555e+01 6.098088e+01 4.551931e+01 9.035835e+01 1.149498e+00 2.976589e+00 3.100821e+00 2.837383e+00 3.736609e+00 4.825835e+00 4.102166e+00 6.395016e+00 4.053208e+00 4.429313e+00 4.304425e+00 3.303816e+00 2.794263e+00 1.724170e-01 3.710282e-01 3.613744e-01 4.432192e-01 5.473107e-01 6.598722e-01 7.140545e-01 9.649097e-01 5.964533e-01 6.520988e-01 6.172162e-01 4.542132e-01 3.622694e-01
<GCONST> 1.316777e+02
<STATE> 3
<MEAN> 39
 2.297080e+00 -2.017921e+00 4.154811e+00 -6.678662e-01 -1.224467e+01 -8.453980e+00 -8.832283e+00 -1.023974e+01 -7.467568e+00 -3.501979e-02 -7.263005e+00 -9.211361e+00 5.938727e+01 7.713910e-03 9.060995e-01 3.271081e-01 5.392255e-01 2.879559e-01 -9.217300e-02 4.740448e-01 -5.214631e-01 -3.205687e-01 1.680146e-01 -2.426256e-01 3.048084e-01 -1.207931e+00 -2.010842e-01 -2.511922e-01 -2.134842e-01 -2.535135e-01 1.039983e-01 2.507020e-01 -1.583713e-01 4.747547e-01 1.577124e-01 -2.554170e-01 2.435816e-01 1.296610e-02 2.097132e-01
<VARIANCE> 39
 1.972500e+01 2.724966e+01 3.499150e+01 3.761949e+01 5.286936e+01 9.396729e+01 5.673264e+01 6.991201e+01 6.521659e+01 4.850381e+01 6.715189e+01 5.402808e+01 5.609672e+01 6.985580e-01 1.612704e+00 1.569202e+00 1.614109e+00 2.134730e+00 2.492288e+00 2.597011e+00 3.816979e+00 2.581194e+00 2.628628e+00 2.602791e+00 1.941141e+00 1.866483e+00 1.436421e-01 2.781022e-01 2.784701e-01 3.304017e-01 3.868336e-01 4.745269e-01 4.565935e-01 6.179317e-01 4.651046e-01 5.236155e-01 4.807420e-01 3.845913e-01 2.532700e-01
<GCONST> 1.183581e+02
<STATE> 4
<MEAN> 39
 -2.246396e+00 -8.546962e-01 2.361221e+00 -2.556069e+00 -1.061877e+01 -4.205069e+00 -9.768582e+00 -5.506476e+00 -7.324669e+00 -1.786317e+00 -2.233849e+00 -6.175781e+00 5.752497e+01 -5.661539e-01 -4.533284e-02 -1.933237e-01 -2.411624e-01 2.825982e-01 6.377272e-02 2.453669e-03 4.386520e-01 2.736969e-01 -2.967436e-01 2.872828e-01 2.310316e-01 -1.919169e-01 -7.829814e-02 -1.531582e-01 -9.515715e-02 -1.141272e-01 -5.879506e-02 4.493381e-02 -3.814433e-02 1.039689e-01 8.103009e-02 -4.555111e-02 5.480021e-02 -4.086985e-02 2.233997e-01
<VARIANCE> 39
 5.012464e+01 4.820105e+01 8.650667e+01 5.500986e+01 8.412154e+01 7.750746e+01 6.164578e+01 7.530001e+01 7.411999e+01 4.857125e+01 6.278924e+01 4.230038e+01 1.402941e+02 3.199052e+00 3.786438e+00 3.975214e+00 3.720042e+00 5.230824e+00 4.547298e+00 4.469025e+00 5.343656e+00 4.842908e+00 3.865763e+00 4.323007e+00 3.260349e+00 7.418443e+00 5.579702e-01 6.284778e-01 6.347466e-01 6.696770e-01 9.286011e-01 8.081266e-01 8.015550e-01 9.598380e-01 8.796013e-01 7.346906e-01 7.940611e-01 6.067389e-01 1.003464e+00
<GCONST> 1.416710e+02
<TRANSP> 5
 0.000000e+00 1.000000e+00 0.000000e+00 0.000000e+00 0.000000e+00
 0.000000e+00 5.326263e-01 4.673737e-01 0.000000e+00 0.000000e+00
 0.000000e+00 0.000000e+00 7.458702e-01 2.541298e-01 0.000000e+00
 0.000000e+00 0.000000e+00 0.000000e+00 7.339889e-01 2.660111e-01
 0.000000e+00 0.000000e+00 0.000000e+00 0.000000e+00 0.000000e+00
<ENDHMM>
~h "o"
<BEGINHMM>
<NUMSTATES> 5
<STATE> 2
<MEAN> 39
 -4.493093e+00 -1.496480e+00 -2.306649e+00 -5.611300e+00 -8.562435e+00 -3.177453e+00 -9.901615e+00 -5.469541e+00 -5.228945e+00 -2.114475e+00 -1.111394e+00 -4.566698e+00 5.890967e+01 7.639278e-01 -7.948596e-01 -6.215301e-01 -1.211948e+00 -7.632565e-01 8.217443e-01 -6.730247e-01 1.589750e-01 4.089588e-01 -1.655879e-01 6.835290e-01 -6.117949e-01 2.189466e+00 1.216044e-01 -9.044757e-02 3.191009e-02 -8.984577e-02 -2.412106e-01 2.855804e-01 -1.185247e-02 4.829698e-02 8.951752e-02 -5.639935e-02 1.233094e-01 -2.039576e-01 2.354278e-02
<VARIANCE> 39
 7.138802e+01 5.169532e+01 9.189678e+01 8.141093e+01 7.680888e+01 7.718810e+01 5.835555e+01 6.691725e+01 6.816834e+01 4.630215e+01 4.730682e+01 3.797070e+01 1.573989e+02 7.220393e+00 4.814830e+00 6.365265e+00 6.893990e+00 8.396832e+00 7.092758e+00 5.498407e+00 6.768382e+00 6.232460e+00 4.883901e+00 5.271851e+00 4.624304e+00 1.232438e+01 9.973833e-01 7.768680e-01 1.011540e+00 9.786901e-01 1.342523e+00 1.049852e+00 9.745025e-01 1.022301e+00 9.801603e-01 8.133786e-01 8.242174e-01 7.144284e-01 1.869304e+00
<GCONST> 1.504763e+02
<STATE> 3
<MEAN> 39
 3.923486e-01 -7.374559e+00 -5.108678e+00 -1.192471e+01 -1.343069e+01 2.751392e+00 -1.369930e+01 -4.322104e+00 -1.616756e+00 -3.238744e+00 2.940337e+00 -9.743764e+00 6.936324e+01 5.310467e-01 -8.361416e-01 -5.629485e-01 -1.006235e+00 -4.704452e-01 1.665044e+00 -8.389752e-02 2.226438e-01 5.939493e-01 -3.189954e-01 5.813456e-01 -8.787704e-01 8.958844e-01 -4.742652e-01 3.840423e-01 2.129411e-01 5.696461e-01 6.068231e-01 -4.277636e-01 4.458654e-01 -1.053302e-01 -2.733566e-01 5.689086e-02 -4.751073e-01 4.261794e-01 -8.157879e-01
<VARIANCE> 39
 3.092490e+01 4.856945e+01 6.826512e+01 1.065421e+02 6.256709e+01 9.714646e+01 6.631345e+01 9.940586e+01 8.055818e+01 6.012936e+01 6.596069e+01 4.696310e+01 9.004642e+01 1.821453e+00 2.669978e+00 2.801232e+00 4.516822e+00 4.574725e+00 4.942169e+00 3.937810e+00 5.045256e+00 4.769660e+00 3.852545e+00 4.366585e+00 3.379413e+00 2.942191e+00 4.563225e-01 4.469818e-01 5.537073e-01 7.988478e-01 8.016135e-01 9.278566e-01 7.799056e-01 1.009732e+00 8.938292e-01 7.593758e-01 8.107662e-01 6.616125e-01 5.982439e-01
<GCONST> 1.388583e+02
<STATE> 4
<MEAN> 39
 1.191811e+00 -6.983699e+00 -6.485027e+00 -1.497117e+01 -1.201308e+01 5.697572e+00 -1.208992e+01 -6.015881e+00 -1.754764e+00 -4.484086e+00 1.494450e+00 -9.121415e+00 6.874736e+01 1.142687e-02 2.469430e-01 2.049393e-01 5.510594e-01 2.533416e-01 -4.204372e-01 1.167644e-01 -3.900674e-02 -1.750530e-01 1.273837e-01 -4.171404e-01 1.138174e-01 -6.359186e-01 -4.365478e-02 1.511015e-01 1.226373e-01 2.473081e-01 6.781699e-02 -2.576847e-01 1.934792e-02 -1.455294e-02 -7.080213e-02 5.988596e-02 -1.181124e-01 8.963164e-02 -2.352020e-01
<VARIANCE> 39
 2.310862e+01 5.588455e+01 5.155497e+01 1.169762e+02 6.427902e+01 8.042467e+01 5.741922e+01 1.029675e+02 7.438947e+01 6.231269e+01 6.680604e+01 5.107641e+01 7.739532e+01 6.416548e-01 1.823786e+00 1.626041e+00 3.233884e+00 2.482425e+00 3.247276e+00 2.474159e+00 2.961737e+00 2.790431e+00 2.577765e+00 2.751009e+00 2.338794e+00 1.977647e+00 1.264319e-01 2.730587e-01 2.638282e-01 4.335488e-01 4.471140e-01 5.062665e-01 4.519822e-01 5.422264e-01 4.904757e-01 4.729777e-01 4.951865e-01 4.372484e-01 2.492728e-01
<GCONST> 1.233120e+02
<TRANSP> 5
 0.000000e+00 1.000000e+00 0.000000e+00 0.000000e+00 0.000000e+00
 0.000000e+00 6.281699e-01 3.718300e-01 0.000000e+00 0.000000e+00
 0.000000e+00 0.000000e+00 4.702754e-01 5.297246e-01 0.000000e+00
 0.000000e+00 0.000000e+00 0.000000e+00 8.221952e-01 1.778048e-01
 0.000000e+00 0.000000e+00 0.000000e+00 0.000000e+00 0.000000e+00
<ENDHMM>
~h "p"
<BEGINHMM>
<NUMSTATES> 5
<STATE> 2
<MEAN> 39
 -1.008732e+01 3.781168e-01 -1.997451e+00 -2.138932e+00 -5.131629e+00 -4.372255e+00 -6.008625e+00 -3.373058e+00 -3.675740e+00 -2.589134e+00 -2.716449e+00 -3.312425e+00 4.718704e+01 -6.505523e-01 2.925711e-01 -4.083238e-02 1.729247e-01 2.398877e-01 -8.529307e-02 2.360398e-01 6.529392e-02 1.076720e-01 2.800100e-02 3.327870e-02 2.325528e-01 -7.596054e-01 5.428620e-02 -1.901281e-01 -2.069248e-02 -1.058822e-01 -7.338770e-02 2.818086e-02 -7.518996e-02 1.270377e-02 6.153812e-04 2.954515e-03 5.310913e-02 -3.395732e-02 3.780772e-01
<VARIANCE> 39
 9.833327e+01 4.372477e+01 4.170680e+01 3.157795e+01 3.823128e+01 3.862080e+01 3.747975e+01 3.963604e+01 3.704269e+01 2.907324e+01 3.080634e+01 3.024476e+01 1.482607e+02 2.721884e+00 2.116147e+00 1.772485e+00 1.809550e+00 2.271007e+00 2.281755e+00 2.316408e+00 2.442622e+00 2.360703e+00 2.195033e+00 2.270793e+00 1.917833e+00 2.932498e+00 4.337851e-01 4.038473e-01 3.401100e-01 3.731247e-01 4.387851e-01 4.398587e-01 4.445217e-01 4.684435e-01 4.684352e-01 4.242008e-01 4.446249e-01 3.774988e-01 5.790660e-01
<GCONST> 1.201651e+02
<STATE> 3
<MEAN> 39
 -8.583856e+00 1.897131e+00 -7.090874e-01 -1.406577e+00 -5.323564e+00 -3.931698e+00 -5.965180e+00 -4.295681e+00 -4.066536e+00 -2.447259e+00 -3.127739e+00 -3.604157e+00 4.666743e+01 -2.231838e-01 -1.097070e+00 -4.188487e-01 -6.993842e-01 -2.536252e-04 -2.307503e-01 -2.314396e-01 3.641103e-02 2.278994e-01 -4.146001e-02 3.199169e-01 1.397142e-01 2.792679e+00 4.694113e-01 -6.221579e-01 -1.952272e-01 -5.227507e-01 -4.622299e-01 1.268655e-01 -3.926452e-01 -6.555377e-03 1.738592e-02 -3.002192e-02 2.276555e-01 -3.257725e-01 1.447471e+00
<VARIANCE> 39
 8.956083e+01 4.205548e+01 4.743964e+01 3.526374e+01 4.116475e+01 4.230199e+01 3.811052e+01 3.962781e+01 3.921719e+01 2.810220e+01 3.023258e+01 2.999932e+01 1.527394e+02 7.375866e+00 4.649264e+00 4.303104e+00 4.122997e+00 4.381694e+00 4.263424e+00 3.756631e+00 3.986648e+00 3.986062e+00 3.108040e+00 3.422077e+00 3.173103e+00 1.379819e+01 1.007499e+00 7.255637e-01 6.759958e-01 7.035073e-01 8.147632e-01 8.768654e-01 6.728921e-01 8.123522e-01 7.318319e-01 6.154405e-01 6.702645e-01 6.293204e-01 1.583324e+00
<GCONST> 1.373326e+02
<STATE> 4
<MEAN> 39
 -3.275575e+00 -3.580880e+00 -2.750713e+00 -4.136869e+00 -1.105859e+01 -2.719939e+00 -8.252999e+00 -6.946853e+00 -2.402815e+00 -2.527443e+00 -1.070895e-01 -5.228934e+00 6.183387e+01 6.050696e-01 -5.679400e-01 -9.262370e-02 -4.320157e-01 -5.498406e-01 1.638122e-01 -4.170465e-01 3.717067e-02 8.729082e-02 -3.751852e-02 2.591392e-01 -3.983261e-01 1.507820e+00 2.056996e-02 5.017572e-02 4.103102e-02 3.483817e-02 -2.332949e-02 9.626368e-02 4.355771e-03 8.951485e-02 1.049784e-02 -2.328484e-02 -1.641781e-02 -7.507341e-02 -2.351226e-01
<VARIANCE> 39
 7.582003e+01 6.000378e+01 8.707588e+01 6.477915e+01 9.042432e+01 8.119941e+01 5.200339e+01 7.424403e+01 7.675160e+01 4.278912e+01 4.768311e+01 3.878814e+01 1.211392e+02 6.368576e+00 5.787794e+00 4.880279e+00 4.895463e+00 7.527096e+00 5.577705e+00 4.361439e+00 5.833344e+00 5.364319e+00 3.756894e+00 4.409690e+00 3.846076e+00 1.491099e+01 1.005573e+00 8.441105e-01 7.870181e-01 7.969521e-01 1.312331e+00 9.455715e-01 7.722378e-01 9.993011e-01 9.101641e-01 6.794531e-01 7.922539e-01 6.641535e-01 1.618472e+00
<GCONST> 1.472900e+02
<TRANSP> 5
 0.000000e+00 1.000000e+00 0.000000e+00 0.000000e+00 0.000000e+00
 0.000000e+00 7.914115e-01 2.085885e-01 0.000000e+00 0.000000e+00
 0.000000e+00 0.000000e+00 5.063294e-01 4.936706e-01 0.000000e+00
 0.000000e+00 0.000000e+00 0.000000e+00 7.847781e-01 2.152219e-01
 0.000000e+00 0.000000e+00 0.000000e+00 0.000000e+00 0.000000e+00
<ENDHMM>
~h "q"
<BEGINHMM>
<NUMSTATES> 5
<STATE> 2
<MEAN> 39
 -4.216641e+00 -1.177118e+01 -8.526510e+00 -6.207569e+00 -6.527997e+00 -2.609352e+00 -6.188296e+00 1.329397e+00 -5.184062e+00 2.478009e+00 -6.876076e+00 -8.789490e+00 6.656534e+01 5.410657e-03 4.394168e-02 -4.864984e-02 2.375044e-01 3.428098e-02 -2.693491e-01 1.090338e-01 1.118419e-01 9.138131e-02 -1.795274e-01 -7.668172e-02 1.497034e-01 -2.039447e-01 1.303766e-02 3.843916e-02 5.630152e-02 3.638320e-02 7.184594e-03 -5.299104e-02 -4.710909e-03 -1.068825e-01 2.898833e-02 5.756000e-03 2.963828e-02 1.152180e-02 -8.040851e-02
<VARIANCE> 39
 1.014524e+02 7.386752e+01 2.729152e+01 4.810816e+01 5.177316e+01 7.149980e+01 3.580397e+01 4.792750e+01 3.786361e+01 3.362224e+01 4.660673e+01 5.713931e+01 1.141013e+02 3.753627e+00 5.271070e+00 1.906949e+00 3.864524e+00 3.226610e+00 3.327813e+00 2.314916e+00 4.092467e+00 3.315244e+00 2.449491e+00 4.947857e+00 3.261817e+00 7.392994e+00 4.942441e-01 7.623423e-01 2.394881e-01 6.205992e-01 4.606190e-01 4.827875e-01 4.420961e-01 7.800184e-01 5.943792e-01 3.941130e-01 9.531004e-01 5.376237e-01 8.689169e-01
<GCONST> 1.319868e+02
<STATE> 3
<MEAN> 39
 3.623998e-01 -6.588890e+00 4.991399e-02 -8.373067e-01 -8.272192e+00 -4.734659e+00 -6.342008e+00 3.371595e+00 -9.977696e-01 3.081811e-01 -7.489906e+00 -6.685637e+00 6.187782e+01 -7.020463e-01 7.418829e-01 -4.633588e-02 4.303297e-01 1.540323e+00 -1.040142e-01 8.886917e-01 -1.165376e+00 9.041808e-01 -5.303023e-01 -2.541729e-01 4.074355e-01 -1.536412e+00 -1.390450e-01 8.286964e-03 -1.479271e-01 -8.742046e-02 4.400155e-02 8.107979e-02 -1.653300e-01 -4.883089e-01 -2.946986e-01 8.133888e-02 1.451397e-01 1.483562e-02 -1.483732e-01
<VARIANCE> 39
 2.606486e+01 4.046481e+01 1.538232e+01 5.591933e+01 5.448114e+01 7.276819e+01 4.353492e+01 7.726379e+01 2.318719e+01 5.630478e+01 4.187678e+01 1.781536e+01 1.057393e+02 1.856755e+00 1.861564e+00 3.146677e+00 1.820184e+00 2.839726e+00 6.536486e+00 3.210217e+00 5.834325e+00 3.112811e+00 1.346912e+00 2.252470e+00 1.691351e+00 2.541370e+00 3.830717e-01 4.371872e-01 2.539638e-01 2.689364e-01 5.100610e-01 1.006300e+00 5.694122e-01 9.618419e-01 3.904352e-01 2.589952e-01 4.819530e-01 3.314637e-01 4.859577e-01
<GCONST> 1.222048e+02
<STATE> 4
<MEAN> 39
 -7.152843e+00 -9.480235e+00 -7.534623e+00 -4.586951e+00 4.976346e-01 -4.942722e+00 -4.815833e+00 -2.216757e+00 -1.814419e+00 -1.831570e+00 -6.879030e+00 -6.406486e+00 5.263737e+01 -1.942294e-01 3.111253e-01 -6.751753e-02 -6.052195e-02 -1.869943e-01 -2.318634e-01 -1.983811e-01 -3.486911e-01 1.828101e-02 -1.075078e-01 1.636288e-01 5.031172e-02 -8.070422e-01 5.256320e-02 5.706323e-02 8.363191e-02 5.001575e-03 -1.338093e-01 5.677163e-02 -2.270027e-02 3.153006e-02 -3.542836e-02 1.132402e-02 4.458177e-02 -3.505458e-02 1.132076e-01
<VARIANCE> 39
 1.963539e+01 6.159923e+01 3.218447e+01 2.686471e+01 3.366908e+01 2.821623e+01 4.051055e+01 3.138202e+01 3.228165e+01 3.376181e+01 4.573205e+01 2.399669e+01 2.458041e+02 1.202204e+00 3.176977e+00 2.616390e+00 1.977804e+00 2.278150e+00 1.946154e+00 2.706516e+00 3.250471e+00 3.601884e+00 1.804692e+00 2.140599e+00 1.838540e+00 7.175056e+00 1.625859e-01 4.426633e-01 5.351983e-01 3.365647e-01 4.389090e-01 4.010685e-01 4.992641e-01 6.572412e-01 6.998469e-01 3.502534e-01 3.708909e-01 3.923202e-01 8.726250e-01
<GCONST> 1.202342e+02
<TRANSP> 5
 0.000000e+00 1.000000e+00 0.000000e+00 0.000000e+00 0.000000e+00
 0.000000e+00 9.050646e-01 9.493528e-02 0.000000e+00 0.000000e+00
 0.000000e+00 0.000000e+00 6.723674e-01 3.276326e-01 0.000000e+00
 0.000000e+00 0.000000e+00 0.000000e+00 9.100922e-01 8.990782e-02
 0.000000e+00 0.000000e+00 0.000000e+00 0.000000e+00 0.000000e+00
<ENDHMM>
~h "r"
<BEGINHMM>
<NUMSTATES> 5
<STATE> 2
<MEAN> 39
 -2.825738e+00 -5.094891e+00 -3.230136e+00 -4.642638e+00 -9.258872e+00 -3.595814e+00 -1.044626e+01 -3.421579e+00 -2.480798e+00 -1.655293e+00 -1.884585e+00 -7.137046e+00 6.153624e+01 1.286107e-01 -4.004968e-01 -1.503991e-01 -3.468990e-03 -1.128555e-01 8.922014e-02 -3.120018e-01 2.946371e-01 8.565383e-02 3.891777e-02 5.219223e-02 -1.686558e-01 4.520701e-01 9.419659e-03 -3.865289e-02 5.640167e-02 -8.365810e-02 -7.074431e-02 1.100728e-01 -2.704490e-02 3.009932e-02 -1.299630e-01 -5.954019e-03 5.211766e-02 -4.581045e-02 5.401520e-02
<VARIANCE> 39
 5.331569e+01 5.845108e+01 7.366053e+01 5.801744e+01 7.496803e+01 7.898614e+01 5.585719e+01 7.923810e+01 6.823828e+01 4.550605e+01 5.031400e+01 4.591013e+01 1.588513e+02 3.982193e+00 4.117305e+00 3.978971e+00 4.569283e+00 5.391356e+00 4.952438e+00 4.403706e+00 5.554075e+00 4.927713e+00 3.852733e+00 4.257530e+00 3.833666e+00 1.062778e+01 6.929176e-01 7.065868e-01 6.488005e-01 8.074660e-01 9.635381e-01 8.821646e-01 8.157349e-01 9.914290e-01 8.893674e-01 7.071330e-01 7.611963e-01 7.408125e-01 1.550083e+00
<GCONST> 1.439622e+02
<STATE> 3
<MEAN> 39
 -4.103168e-01 -1.107681e+01 -5.680634e+00 -6.790442e+00 -1.129647e+01 -1.066207e+00 -1.287356e+01 3.604966e-02 -9.472548e-01 -2.210217e+00 -2.164792e+00 -1.130088e+01 6.986153e+01 2.394161e-01 2.282733e-01 3.504987e-01 3.125765e-01 -7.124662e-02 -8.150572e-02 -1.229550e-01 -1.637701e-01 -4.430932e-01 2.413368e-01 -2.794930e-02 1.039218e-01 -5.827607e-01 -7.791754e-02 2.918704e-01 2.127807e-01 7.039152e-02 5.564210e-02 -9.522624e-02 1.230268e-01 -2.256608e-01 -1.933105e-01 1.744616e-02 8.650458e-03 2.166462e-01 -2.821688e-01
<VARIANCE> 39
 2.507378e+01 4.694493e+01 6.255950e+01 4.590090e+01 6.057984e+01 8.574170e+01 5.766714e+01 9.731033e+01 6.798102e+01 4.549897e+01 5.637297e+01 4.712257e+01 9.198804e+01 1.001800e+00 2.162582e+00 2.342226e+00 2.494176e+00 3.123492e+00 3.609408e+00 2.690576e+00 4.185425e+00 3.243331e+00 2.933362e+00 3.151420e+00 2.510314e+00 2.472374e+00 2.004211e-01 3.242623e-01 3.067640e-01 4.021382e-01 5.563905e-01 5.481371e-01 5.440793e-01 7.394356e-01 5.709820e-01 5.387092e-01 5.550690e-01 4.420040e-01 3.850451e-01
<GCONST> 1.264874e+02
<STATE> 4
<MEAN> 39
 1.040206e+00 -4.001477e+00 1.831453e+00 -4.623790e+00 -1.430257e+01 -8.811697e-01 -1.307137e+01 -4.515949e+00 -8.105415e+00 -5.366497e-01 -9.622422e-01 -7.654466e+00 6.488935e+01 -8.231511e-02 4.888072e-01 4.088238e-01 2.251660e-01 1.402211e-01 -1.353561e-01 2.968482e-01 -3.027337e-01 -3.392149e-01 -7.457751e-02 -1.182617e-01 2.748691e-01 -6.467372e-01 -1.290236e-01 -6.417094e-02 -1.190784e-01 -7.734817e-02 8.639202e-02 5.155019e-03 7.327536e-02 1.371674e-01 1.599233e-01 -1.313657e-01 1.845229e-03 -3.868648e-02 7.916436e-02
<VARIANCE> 39
 2.849261e+01 5.188835e+01 8.754685e+01 6.507016e+01 8.051676e+01 9.284550e+01 6.816508e+01 1.066849e+02 8.259676e+01 5.498039e+01 6.980897e+01 3.962336e+01 7.309100e+01 1.152039e+00 2.741199e+00 3.392271e+00 3.407330e+00 3.795999e+00 3.741961e+00 3.799431e+00 5.689836e+00 4.569048e+00 3.295726e+00 3.865708e+00 2.820821e+00 3.110411e+00 2.043561e-01 3.807885e-01 4.612856e-01 5.848088e-01 6.665435e-01 6.552662e-01 6.750570e-01 9.140720e-01 7.459160e-01 6.236670e-01 7.180064e-01 5.002658e-01 4.063729e-01
<GCONST> 1.337685e+02
<TRANSP> 5
 0.000000e+00 1.000000e+00 0.000000e+00 0.000000e+00 0.000000e+00
 0.000000e+00 6.129556e-01 3.870444e-01 0.000000e+00 0.000000e+00
 0.000000e+00 0.000000e+00 6.061868e-01 3.938133e-01 0.000000e+00
 0.000000e+00 0.000000e+00 0.000000e+00 7.218637e-01 2.781363e-01
 0.000000e+00 0.000000e+00 0.000000e+00 0.000000e+00 0.000000e+00
<ENDHMM>
~h "s"
<BEGINHMM>
<NUMSTATES> 5
<STATE> 2
<MEAN> 39
 -8.776106e+00 2.731584e+00 1.505970e-01 -1.819501e+00 -5.404360e+00 -6.317061e+00 -7.186196e+00 -3.742231e+00 -4.662682e+00 -3.058156e+00 -4.117857e+00 -4.436997e+00 5.919261e+01 -2.779537e+00 1.306840e+00 -5.976996e-01 5.893695e-01 1.246047e+00 -1.706057e-01 1.063662e+00 2.580681e-01 4.410206e-01 -2.033650e-01 2.051503e-01 9.924527e-01 -1.103548e+00 -1.753312e-01 -5.511141e-01 -2.222632e-01 -2.917098e-01 -3.612504e-01 1.898636e-01 -2.002866e-01 4.814837e-02 -1.541974e-03 5.492014e-02 2.794804e-01 -9.412535e-02 2.021350e-01
<VARIANCE> 39
 8.255186e+01 4.975061e+01 6.015990e+01 3.904794e+01 5.967774e+01 5.664135e+01 5.842683e+01 5.443036e+01 4.840368e+01 3.831137e+01 4.295235e+01 3.221684e+01 1.342670e+02 5.377583e+00 5.412315e+00 3.736649e+00 3.272355e+00 4.530746e+00 4.220449e+00 4.018369e+00 5.105112e+00 3.658716e+00 3.215663e+00 3.542269e+00 2.866806e+00 3.779925e+00 7.741168e-01 7.527891e-01 4.788228e-01 5.000702e-01 6.880867e-01 6.223878e-01 7.061730e-01 7.342893e-01 6.400385e-01 5.586360e-01 5.724552e-01 4.677668e-01 4.395005e-01
<GCONST> 1.349245e+02
<STATE> 3
<MEAN> 39
 -1.979332e+01 8.221547e-01 -5.416795e+00 -2.356787e+00 -3.769761e+00 -5.558022e+00 -4.404159e+00 -1.615516e+00 -2.682291e+00 -2.526383e+00 -1.164215e+00 -1.101261e+00 5.405098e+01 -3.870409e-01 -2.563460e-01 -2.205954e-01 -1.286173e-01 -1.134515e-01 3.635612e-02 6.091160e-02 2.465723e-02 1.014172e-01 1.149751e-01 1.322096e-01 1.294076e-01 -2.929262e-01 4.822353e-01 -7.422372e-02 1.979741e-01 -5.213659e-02 -1.088662e-01 -3.750265e-02 -1.543060e-01 -6.087318e-02 -5.291941e-02 -2.815238e-02 -1.068371e-01 -1.531156e-01 1.712503e-01
<VARIANCE> 39
 1.111238e+02 4.010626e+01 4.367102e+01 2.712295e+01 3.176265e+01 3.158328e+01 3.774364e+01 3.255308e+01 2.895432e+01 2.398131e+01 2.525838e+01 2.166781e+01 1.385969e+02 2.309409e+00 1.593600e+00 1.910197e+00 1.525752e+00 1.680818e+00 1.910601e+00 1.917718e+00 2.034850e+00 2.024354e+00 1.812781e+00 1.878948e+00 1.599129e+00 1.725129e+00 5.432402e-01 3.231353e-01 3.468164e-01 3.251714e-01 3.778025e-01 4.056480e-01 4.390025e-01 4.521522e-01 4.183720e-01 3.726285e-01 3.784715e-01 3.593295e-01 3.222815e-01
<GCONST> 1.144062e+02
<STATE> 4
<MEAN> 39
 -1.134938e+01 -3.337722e-01 -2.318545e+00 -3.485765e+00 -6.613641e+00 -5.719612e+00 -7.319001e+00 -3.764272e+00 -3.202839e+00 -2.098030e+00 -2.078586e+00 -3.347136e+00 5.674860e+01 1.998396e+00 -7.706832e-01 5.731980e-01 -4.848034e-01 -8.784744e-01 2.252086e-02 -1.052084e+00 -3.302158e-01 -1.839988e-01 -1.576356e-01 -3.804103e-02 -8.087455e-01 1.633553e+00 2.640447e-01 -1.724296e-01 5.014520e-02 -8.001933e-02 -1.997731e-01 1.787267e-01 -1.906765e-01 2.726756e-02 -4.310900e-02 -4.110754e-02 1.389749e-01 -1.848295e-01 3.255482e-01
<VARIANCE> 39
 1.139472e+02 4.640925e+01 6.688522e+01 4.434114e+01 5.308561e+01 5.687720e+01 5.314302e+01 5.169875e+01 4.803864e+01 3.314078e+01 3.505763e+01 3.305980e+01 1.633201e+02 1.063786e+01 5.076024e+00 5.474593e+00 4.382517e+00 5.207491e+00 4.899920e+00 5.153728e+00 5.847530e+00 4.603057e+00 3.349690e+00 3.822848e+00 3.916809e+00 1.094890e+01 1.451281e+00 7.687988e-01 7.401443e-01 7.090005e-01 8.972316e-01 8.037206e-01 9.201520e-01 9.319859e-01 7.614358e-01 5.968902e-01 6.819933e-01 6.679637e-01 1.590412e+00
<GCONST> 1.432205e+02
<TRANSP> 5
 0.000000e+00 1.000000e+00 0.000000e+00 0.000000e+00 0.000000e+00
 0.000000e+00 6.184806e-01 3.815194e-01 0.000000e+00 0.000000e+00
 0.000000e+00 0.000000e+00 8.045909e-01 1.954091e-01 0.000000e+00
 0.000000e+00 0.000000e+00 0.000000e+00 6.701892e-01 3.298108e-01
 0.000000e+00 0.000000e+00 0.000000e+00 0.000000e+00 0.000000e+00
<ENDHMM>
~h "t"
<BEGINHMM>
<NUMSTATES> 5
<STATE> 2
<MEAN> 39
 -5.394567e+00 1.838884e+00 -2.969575e-01 -1.903317e+00 -7.160086e+00 -5.407445e+00 -8.063846e+00 -4.964050e+00 -4.088590e+00 -2.233960e+00 -3.646216e+00 -5.374063e+00 4.802531e+01 -9.032573e-01 3.744908e-01 -1.010233e-01 1.711911e-01 4.931525e-01 -1.017207e-01 4.541801e-01 7.723939e-02 8.811463e-02 -6.308797e-02 2.751809e-02 5.204880e-01 -1.276611e+00 -1.758271e-01 -4.166319e-01 -1.304909e-01 -2.420636e-01 -8.631337e-02 4.002937e-02 -7.604687e-02 9.098376e-02 2.749591e-02 3.855540e-04 1.706689e-01 1.406551e-02 7.595828e-01
<VARIANCE> 39
 6.947572e+01 3.819576e+01 5.538697e+01 4.085464e+01 4.622645e+01 4.734667e+01 4.303705e+01 4.797284e+01 4.894370e+01 3.533632e+01 3.671481e+01 3.718572e+01 1.335794e+02 3.178719e+00 2.709838e+00 2.309850e+00 2.328788e+00 3.165901e+00 2.775991e+00 2.803139e+00 2.997237e+00 2.976007e+00 2.620826e+00 2.748855e+00 2.361645e+00 5.427878e+00 5.390163e-01 5.054243e-01 4.601847e-01 4.996172e-01 6.175577e-01 5.366217e-01 5.479748e-01 6.038772e-01 6.050358e-01 5.252619e-01 5.491214e-01 4.609582e-01 1.057685e+00
<GCONST> 1.284874e+02
<STATE> 3
<MEAN> 39
 -1.254732e+01 1.981116e-01 -1.844083e+00 -2.258835e+00 -4.861979e+00 -5.434842e+00 -5.779943e+00 -3.641583e+00 -3.299218e+00 -2.263592e+00 -2.255056e+00 -2.106568e+00 5.213474e+01 -4.206305e-01 -1.325981e+00 -5.907633e-01 -8.969343e-01 -1.901342e-01 -1.989040e-01 -3.110473e-01 2.268902e-01 1.631652e-01 -8.653829e-02 2.908162e-01 2.304430e-02 3.262869e+00 7.551317e-01 -2.750062e-01 6.929457e-02 -2.805313e-01 -5.741047e-01 1.289086e-01 -4.863221e-01 2.586797e-03 -2.227681e-02 -2.064373e-02 7.246597e-02 -4.902951e-01 8.517073e-01
<VARIANCE> 39
 1.001831e+02 4.640765e+01 5.062903e+01 3.466158e+01 4.226799e+01 4.309100e+01 3.961437e+01 3.916977e+01 3.770449e+01 2.762435e+01 2.916858e+01 2.700024e+01 1.733382e+02 8.636052e+00 4.464347e+00 5.382825e+00 4.046394e+00 5.324012e+00 4.630224e+00 4.316183e+00 4.454797e+00 4.657472e+00 3.505855e+00 3.836670e+00 3.559236e+00 1.505502e+01 9.245821e-01 7.662878e-01 7.790852e-01 6.661927e-01 8.461744e-01 9.114261e-01 6.975098e-01 8.700485e-01 7.749596e-01 6.160570e-01 6.629094e-01 5.958974e-01 1.914845e+00
<GCONST> 1.394538e+02
<STATE> 4
<MEAN> 39
 -3.834834e+00 -4.144041e+00 -1.667382e+00 -5.828329e+00 -1.084488e+01 -3.117344e+00 -1.127400e+01 -4.411841e+00 -5.002295e+00 -2.193488e+00 -7.284240e-01 -6.174945e+00 6.385452e+01 8.589901e-01 -7.315537e-01 4.998755e-02 -5.507466e-01 -9.017203e-01 3.340455e-01 -7.377123e-01 2.511450e-01 8.992951e-02 -6.306824e-02 3.526404e-01 -7.028939e-01 1.786756e+00 -3.096832e-03 1.589480e-01 1.073014e-01 1.400922e-01 3.395642e-02 1.275345e-01 1.105955e-01 3.274571e-02 1.842672e-03 -4.844960e-02 -3.178905e-02 -2.529131e-02 -5.302689e-01
<VARIANCE> 39
 5.389137e+01 5.336879e+01 1.010567e+02 5.894747e+01 8.341946e+01 9.206198e+01 6.141541e+01 7.306548e+01 7.509913e+01 4.915445e+01 5.528463e+01 4.437379e+01 1.255294e+02 5.319654e+00 5.078912e+00 5.684829e+00 5.163339e+00 7.325809e+00 6.360519e+00 5.473581e+00 6.553795e+00 6.133927e+00 4.264293e+00 5.174838e+00 4.506251e+00 1.359577e+01 8.940551e-01 7.008963e-01 8.990176e-01 7.964517e-01 1.254735e+00 1.044119e+00 9.586829e-01 1.016518e+00 9.615461e-01 7.584425e-01 9.042598e-01 7.785825e-01 1.389179e+00
<GCONST> 1.487661e+02
<TRANSP> 5
 0.000000e+00 1.000000e+00 0.000000e+00 0.000000e+00 0.000000e+00
 0.000000e+00 7.272705e-01 2.727295e-01 0.000000e+00 0.000000e+00
 0.000000e+00 0.000000e+00 5.691571e-01 4.308429e-01 0.000000e+00
 0.000000e+00 0.000000e+00 0.000000e+00 6.135287e-01 3.864713e-01
 0.000000e+00 0.000000e+00 0.000000e+00 0.000000e+00 0.000000e+00
<ENDHMM>
~h "u"
<BEGINHMM>
<NUMSTATES> 5
<STATE> 2
<MEAN> 39
 -5.915108e+00 -4.045056e-01 -1.269094e-01 -3.369833e+00 -8.021164e+00 -5.022514e+00 -9.495548e+00 -4.686078e+00 -5.272214e+00 -2.163449e+00 -1.736578e+00 -4.055061e+00 5.839662e+01 5.539050e-01 -3.291906e-01 -1.193384e-01 -6.997218e-01 -6.831015e-01 3.908590e-01 -6.216176e-01 -9.920436e-02 -1.160972e-01 -1.089596e-01 5.916284e-01 -2.816935e-01 1.442035e+00 1.790283e-01 -8.672014e-02 1.435426e-02 -1.458027e-01 -2.771129e-01 2.776631e-01 -1.024359e-01 1.550600e-02 -1.145470e-02 -5.401322e-03 1.540474e-01 -1.632892e-01 8.891906e-02
<VARIANCE> 39
 8.681590e+01 5.117297e+01 8.794446e+01 6.151726e+01 6.822065e+01 6.514547e+01 5.946404e+01 6.259263e+01 6.026104e+01 4.007675e+01 4.169329e+01 3.435243e+01 1.473183e+02 8.224383e+00 5.123620e+00 6.059113e+00 5.575746e+00 7.718696e+00 5.596110e+00 5.798989e+00 6.991378e+00 5.473091e+00 4.169995e+00 4.693806e+00 4.006422e+00 1.241738e+01 1.091540e+00 8.232598e-01 8.800724e-01 8.614335e-01 1.161947e+00 9.549119e-01 9.339753e-01 1.035022e+00 8.955352e-01 7.261926e-01 7.460079e-01 6.385856e-01 1.799480e+00
<GCONST> 1.477547e+02
<STATE> 3
<MEAN> 39
 3.775834e-01 -4.170867e+00 -1.647193e+00 -9.075498e+00 -1.475821e+01 -9.059076e-02 -1.521074e+01 -6.863672e+00 -5.670738e+00 -2.970359e+00 3.313559e+00 -7.816985e+00 6.738280e+01 8.382775e-01 -3.979954e-01 -1.923981e-01 -9.538728e-01 -1.024347e+00 1.456071e+00 -5.496928e-01 -8.528598e-02 -8.471879e-02 -2.370961e-02 8.511751e-01 -6.767714e-01 6.864788e-01 -4.555031e-01 2.562530e-01 3.180351e-02 4.032053e-01 6.167119e-01 -2.458328e-01 5.336567e-01 1.536992e-01 9.223986e-03 -1.137642e-03 -5.367392e-01 2.465189e-01 -7.619815e-01
<VARIANCE> 39
 3.122034e+01 4.929243e+01 8.539825e+01 9.137590e+01 6.749178e+01 9.069053e+01 7.348736e+01 1.307358e+02 7.643204e+01 5.702643e+01 5.564444e+01 4.353864e+01 8.086754e+01 2.500271e+00 3.598638e+00 3.681103e+00 5.555310e+00 5.639240e+00 5.900607e+00 4.998868e+00 7.297557e+00 5.473798e+00 4.348088e+00 4.854381e+00 3.799473e+00 3.993648e+00 5.417793e-01 5.721582e-01 7.128240e-01 9.500596e-01 9.211918e-01 1.017854e+00 9.238389e-01 1.331033e+00 1.015252e+00 8.630391e-01 8.461416e-01 7.355188e-01 6.845950e-01
<GCONST> 1.438151e+02
<STATE> 4
<MEAN> 39
 1.545166e+00 -3.419385e+00 -1.740018e+00 -1.065631e+01 -1.474989e+01 2.890597e+00 -1.407932e+01 -6.218006e+00 -7.121248e+00 -2.486967e+00 7.990609e-01 -8.182917e+00 6.701804e+01 -1.437688e-02 1.719813e-01 1.170109e-01 4.061303e-01 3.184561e-01 -2.564658e-01 2.734400e-01 -3.068601e-02 -1.123048e-03 1.249053e-01 -4.181935e-01 3.591198e-02 -5.300433e-01 -9.764460e-02 6.608147e-02 3.898044e-02 1.986292e-01 1.625122e-01 -1.945923e-01 9.011190e-02 8.051649e-03 5.304461e-02 1.657726e-02 -1.137051e-01 5.671219e-02 -1.672811e-01
<VARIANCE> 39
 2.463398e+01 6.208358e+01 8.354348e+01 9.257478e+01 6.863842e+01 8.401012e+01 6.350519e+01 1.197098e+02 7.707145e+01 6.162183e+01 6.592116e+01 4.538297e+01 6.604979e+01 7.731864e-01 2.209787e+00 2.273048e+00 3.532727e+00 2.902963e+00 3.372484e+00 2.901474e+00 4.078823e+00 3.420626e+00 3.118879e+00 3.489498e+00 2.585994e+00 2.223543e+00 1.581310e-01 3.211949e-01 3.504790e-01 5.209274e-01 5.180116e-01 5.539945e-01 5.337217e-01 7.407964e-01 6.016478e-01 5.766159e-01 6.301292e-01 4.848534e-01 2.924043e-01
<GCONST> 1.286255e+02
<TRANSP> 5
 0.000000e+00 1.000000e+00 0.000000e+00 0.000000e+00 0.000000e+00
 0.000000e+00 6.583847e-01 3.416153e-01 0.000000e+00 0.000000e+00
 0.000000e+00 0.000000e+00 4.876261e-01 5.123739e-01 0.000000e+00
 0.000000e+00 0.000000e+00 0.000000e+00 8.368622e-01 1.631377e-01
 0.000000e+00 0.000000e+00 0.000000e+00 0.000000e+00 0.000000e+00
<ENDHMM>
~h "v"
<BEGINHMM>
<NUMSTATES> 5
<STATE> 2
<MEAN> 39
 -5.720369e+00 -3.212366e+00 -9.603557e-01 -4.140341e+00 -8.282138e+00 -2.741488e+00 -8.362382e+00 -2.900852e+00 -4.227129e+00 -2.588475e+00 -1.643602e+00 -5.417910e+00 5.514945e+01 4.041251e-04 8.054070e-04 2.982348e-04 -7.923298e-04 1.777842e-04 5.770657e-04 1.920456e-06 -1.539215e-03 -3.851559e-04 2.390032e-04 -1.168943e-03 -1.209440e-03 7.453487e-05 5.293762e-05 1.484293e-04 1.038093e-04 6.097702e-05 2.683362e-05 9.535497e-05 -3.359811e-05 -1.456941e-05 1.142907e-04 1.394317e-04 6.521364e-05 -2.366633e-05 -8.404750e-05
<VARIANCE> 39
 6.548970e+01 6.558094e+01 6.975499e+01 5.597869e+01 7.619009e+01 6.664177e+01 6.092598e+01 6.794641e+01 5.794476e+01 4.215612e+01 4.686914e+01 4.500091e+01 2.513958e+02 2.532669e+00 2.732701e+00 2.556041e+00 2.640352e+00 3.358491e+00 3.125732e+00 3.024375e+00 3.669678e+00 3.178414e+00 2.664217e+00 2.899224e+00 2.436845e+00 5.033377e+00 3.927859e-01 4.190547e-01 3.991563e-01 4.514541e-01 5.906611e-01 5.447152e-01 5.501792e-01 6.469660e-01 5.645853e-01 4.966201e-01 5.287678e-01 4.459183e-01 6.618989e-01
<GCONST> 1.316507e+02
<STATE> 3
<MEAN> 39
 -5.720369e+00 -3.212366e+00 -9.603557e-01 -4.140341e+00 -8.282138e+00 -2.741488e+00 -8.362382e+00 -2.900852e+00 -4.227129e+00 -2.588475e+00 -1.643602e+00 -5.417910e+00 5.514945e+01 4.041251e-04 8.054070e-04 2.982348e-04 -7.923298e-04 1.777842e-04 5.770657e-04 1.920456e-06 -1.539215e-03 -3.851559e-04 2.390032e-04 -1.168943e-03 -1.209440e-03 7.453487e-05 5.293762e-05 1.484293e-04 1.038093e-04 6.097702e-05 2.683362e-05 9.535497e-05 -3.359811e-05 -1.456941e-05 1.142907e-04 1.394317e-04 6.521364e-05 -2.366633e-05 -8.404750e-05
<VARIANCE> 39
 6.548970e+01 6.558094e+01 6.975499e+01 5.597869e+01 7.619009e+01 6.664177e+01 6.092598e+01 6.794641e+01 5.794476e+01 4.215612e+01 4.686914e+01 4.500091e+01 2.513958e+02 2.532669e+00 2.732701e+00 2.556041e+00 2.640352e+00 3.358491e+00 3.125732e+00 3.024375e+00 3.669678e+00 3.178414e+00 2.664217e+00 2.899224e+00 2.436845e+00 5.033377e+00 3.927859e-01 4.190547e-01 3.991563e-01 4.514541e-01 5.906611e-01 5.447152e-01 5.501792e-01 6.469660e-01 5.645853e-01 4.966201e-01 5.287678e-01 4.459183e-01 6.618989e-01
<GCONST> 1.316507e+02
<STATE> 4
<MEAN> 39
 -5.720369e+00 -3.212366e+00 -9.603557e-01 -4.140341e+00 -8.282138e+00 -2.741488e+00 -8.362382e+00 -2.900852e+00 -4.227129e+00 -2.588475e+00 -1.643602e+00 -5.417910e+00 5.514945e+01 4.041251e-04 8.054070e-04 2.982348e-04 -7.923298e-04 1.777842e-04 5.770657e-04 1.920456e-06 -1.539215e-03 -3.851559e-04 2.390032e-04 -1.168943e-03 -1.209440e-03 7.453487e-05 5.293762e-05 1.484293e-04 1.038093e-04 6.097702e-05 2.683362e-05 9.535497e-05 -3.359811e-05 -1.456941e-05 1.142907e-04 1.394317e-04 6.521364e-05 -2.366633e-05 -8.404750e-05
<VARIANCE> 39
 6.548970e+01 6.558094e+01 6.975499e+01 5.597869e+01 7.619009e+01 6.664177e+01 6.092598e+01 6.794641e+01 5.794476e+01 4.215612e+01 4.686914e+01 4.500091e+01 2.513958e+02 2.532669e+00 2.732701e+00 2.556041e+00 2.640352e+00 3.358491e+00 3.125732e+00 3.024375e+00 3.669678e+00 3.178414e+00 2.664217e+00 2.899224e+00 2.436845e+00 5.033377e+00 3.927859e-01 4.190547e-01 3.991563e-01 4.514541e-01 5.906611e-01 5.447152e-01 5.501792e-01 6.469660e-01 5.645853e-01 4.966201e-01 5.287678e-01 4.459183e-01 6.618989e-01
<GCONST> 1.316507e+02
<TRANSP> 5
 0.000000e+00 1.000000e+00 0.000000e+00 0.000000e+00 0.000000e+00
 0.000000e+00 6.000000e-01 4.000000e-01 0.000000e+00 0.000000e+00
 0.000000e+00 0.000000e+00 6.000000e-01 4.000000e-01 0.000000e+00
 0.000000e+00 0.000000e+00 0.000000e+00 7.000000e-01 3.000000e-01
 0.000000e+00 0.000000e+00 0.000000e+00 0.000000e+00 0.000000e+00
<ENDHMM>
~h "w"
<BEGINHMM>
<NUMSTATES> 5
<STATE> 2
<MEAN> 39
 -5.934692e+00 -1.280708e+00 -1.353567e+00 -4.789187e+00 -8.084579e+00 -4.018256e+00 -8.968266e+00 -4.432076e+00 -5.124870e+00 -1.782854e+00 -1.640520e+00 -5.317882e+00 5.797192e+01 3.080418e-01 -1.478220e-01 -9.640434e-02 -4.067613e-01 -3.453122e-01 2.340679e-01 -2.150068e-01 -4.094684e-02 -6.660621e-02 -6.937969e-02 2.471685e-01 -2.261991e-03 8.399858e-01 9.649184e-02 -1.656183e-01 -2.857322e-02 -1.426420e-01 -1.818140e-01 1.530851e-01 -6.952634e-02 1.021516e-01 2.233094e-02 -3.382188e-02 6.860715e-02 -1.120597e-01 2.225573e-01
<VARIANCE> 39
 9.520240e+01 6.359909e+01 8.223303e+01 7.358092e+01 6.734379e+01 6.814108e+01 5.786809e+01 5.847832e+01 6.220501e+01 3.989018e+01 4.433901e+01 4.027126e+01 1.689254e+02 7.021312e+00 4.649935e+00 4.518118e+00 4.908045e+00 5.947499e+00 5.000931e+00 4.953476e+00 4.803239e+00 4.190827e+00 3.519457e+00 4.023504e+00 3.613154e+00 1.229316e+01 9.973698e-01 7.671372e-01 7.146151e-01 7.682345e-01 9.796821e-01 8.239851e-01 8.911677e-01 8.527718e-01 7.536114e-01 6.627221e-01 7.015200e-01 6.302581e-01 1.632371e+00
<GCONST> 1.447328e+02
<STATE> 3
<MEAN> 39
 3.348361e+00 -2.163821e+00 -2.580365e+00 -1.572815e+01 -1.579138e+01 5.238360e+00 -1.166039e+01 -7.762207e+00 -4.531973e+00 -5.978429e+00 3.218204e+00 -5.471303e+00 6.461928e+01 1.278506e-01 -6.302865e-01 -2.660058e-01 -5.236893e-01 -1.531171e-01 6.925702e-01 -3.836580e-02 1.105341e-01 2.578143e-01 6.049237e-02 4.062442e-01 -2.439152e-01 5.860934e-01 -2.613488e-01 -2.492030e-01 -8.769146e-02 3.083503e-01 3.862967e-01 -1.793361e-01 2.223642e-02 1.088782e-01 1.714200e-01 1.624370e-01 -2.006176e-01 -2.015142e-01 6.657852e-03
<VARIANCE> 39
 2.778818e+01 4.886287e+01 5.137117e+01 1.283534e+02 5.586885e+01 8.377561e+01 5.723695e+01 7.222880e+01 7.654323e+01 6.222643e+01 5.660438e+01 3.273063e+01 6.406452e+01 1.234151e+00 3.309786e+00 2.134565e+00 3.216979e+00 3.540164e+00 3.281686e+00 2.809592e+00 3.403749e+00 3.045462e+00 3.147824e+00 3.062678e+00 2.928411e+00 2.887084e+00 2.309457e-01 3.166698e-01 3.296626e-01 5.245480e-01 4.947682e-01 5.764524e-01 4.658060e-01 5.869240e-01 5.080031e-01 5.304666e-01 6.138563e-01 4.969814e-01 3.667223e-01
<GCONST> 1.277512e+02
<STATE> 4
<MEAN> 39
 9.208840e-01 -7.631768e+00 -2.771691e+00 -8.932325e+00 -1.266959e+01 2.433947e+00 -1.424431e+01 -3.848298e+00 -5.272373e+00 1.947518e-01 4.110733e-01 -8.909027e+00 6.815967e+01 -2.422897e-01 -7.776191e-01 2.345372e-02 5.448654e-01 4.065246e-01 -4.876252e-01 -1.231304e-01 5.729341e-01 4.701789e-01 9.671579e-02 -5.705878e-01 -5.318939e-01 3.178991e-01 -1.203243e-01 1.529281e-01 1.034030e-01 6.218862e-02 1.872250e-02 -1.674906e-01 1.593440e-01 1.014084e-01 -3.647081e-02 -2.563308e-01 -1.634790e-01 1.464849e-01 -1.375151e-01
<VARIANCE> 39
 2.865678e+01 5.244973e+01 8.405366e+01 9.482225e+01 8.083921e+01 1.080832e+02 6.846622e+01 1.081232e+02 8.603413e+01 5.241003e+01 6.880685e+01 4.049541e+01 8.351291e+01 1.171146e+00 3.165838e+00 3.659453e+00 4.359475e+00 4.538045e+00 4.932033e+00 3.515424e+00 5.670406e+00 4.883686e+00 3.799796e+00 3.924341e+00 3.534718e+00 2.860218e+00 2.111539e-01 3.745315e-01 5.375597e-01 6.679813e-01 8.170601e-01 7.638450e-01 6.787692e-01 8.967280e-01 7.670583e-01 6.805790e-01 7.022781e-01 5.454743e-01 4.372780e-01
<GCONST> 1.365485e+02
<TRANSP> 5
 0.000000e+00 1.000000e+00 0.000000e+00 0.000000e+00 0.000000e+00
 0.000000e+00 8.043247e-01 1.956752e-01 0.000000e+00 0.000000e+00
 0.000000e+00 0.000000e+00 6.817413e-01 3.182586e-01 0.000000e+00
 0.000000e+00 0.000000e+00 0.000000e+00 6.260128e-01 3.739872e-01
 0.000000e+00 0.000000e+00 0.000000e+00 0.000000e+00 0.000000e+00
<ENDHMM>
~h "y"
<BEGINHMM>
<NUMSTATES> 5
<STATE> 2
<MEAN> 39
 -4.254984e+00 -5.021566e+00 8.455331e+00 -7.773331e+00 -1.876850e+01 -6.435931e+00 -1.306307e+01 -1.875107e+00 -7.462595e+00 -5.231713e+00 3.489766e+00 -7.489111e+00 6.731462e+01 -1.042238e-01 1.504119e-01 1.908033e-01 -5.318282e-03 -9.644610e-02 -7.758866e-02 4.315150e-02 -1.031597e-01 -8.624484e-02 5.702859e-02 9.226768e-02 1.627150e-01 -2.476876e-01 3.093094e-02 -1.292854e-01 -2.692206e-01 1.498503e-02 2.012316e-01 8.220974e-02 1.211782e-01 6.731488e-02 1.352402e-01 1.005452e-02 -1.966619e-01 -4.776366e-02 1.763795e-02
<VARIANCE> 39
 2.876373e+01 6.225047e+01 1.061492e+02 5.576273e+01 7.569614e+01 9.097302e+01 5.968937e+01 9.010686e+01 6.186517e+01 5.396237e+01 5.971358e+01 3.700388e+01 9.543487e+01 4.880986e-01 1.896945e+00 2.691167e+00 1.348578e+00 2.346012e+00 2.078543e+00 2.837361e+00 2.813341e+00 2.445638e+00 1.842196e+00 2.817250e+00 1.663747e+00 1.470190e+00 9.257627e-02 2.408331e-01 2.827558e-01 2.270491e-01 3.884438e-01 3.951335e-01 4.664495e-01 4.640197e-01 3.893157e-01 3.433154e-01 4.087950e-01 2.958357e-01 1.448721e-01
<GCONST> 1.179518e+02
<STATE> 3
<MEAN> 39
 -7.466521e+00 -4.940591e+00 -1.484934e+00 -2.489233e+00 -6.774706e+00 -5.115885e+00 -6.875550e+00 -2.007384e+00 -4.728140e+00 -3.382787e+00 -2.724221e+00 -3.251457e+00 5.018389e+01 -8.823174e-02 -3.057610e-02 -1.695739e-01 3.442448e-02 1.346233e-01 7.429622e-02 1.563206e-01 5.538464e-02 9.142746e-02 5.753113e-02 -5.042871e-02 3.352948e-02 -2.685121e-01 2.296590e-02 -5.775261e-03 -2.493067e-02 -2.915720e-02 1.133533e-02 3.697472e-02 -2.808477e-02 3.701844e-02 2.324652e-02 -5.376026e-03 -1.982763e-02 -5.188893e-02 3.821374e-02
<VARIANCE> 39
 5.216825e+01 5.377219e+01 5.201617e+01 3.660279e+01 5.490751e+01 4.587294e+01 3.776187e+01 5.066423e+01 4.096152e+01 3.548753e+01 3.577134e+01 2.939015e+01 1.544319e+02 4.987510e-01 1.242369e+00 1.166421e+00 1.028512e+00 1.459346e+00 1.527247e+00 1.708883e+00 1.958179e+00 1.892516e+00 1.701549e+00 1.853769e+00 1.485965e+00 8.463593e-01 8.128519e-02 1.787067e-01 1.785120e-01 1.959049e-01 2.844981e-01 2.915689e-01 3.259287e-01 3.637308e-01 3.491035e-01 3.339754e-01 3.434021e-01 2.973091e-01 9.098562e-02
<GCONST> 1.065293e+02
<STATE> 4
<MEAN> 39
 -2.203449e+00 -4.377675e+00 4.258220e-01 -6.197680e+00 -1.217128e+01 -2.171507e+00 -1.002939e+01 -3.762228e+00 -6.548520e+00 -1.562762e+00 -1.214339e+00 -6.886802e+00 6.205928e+01 1.547627e-01 -4.661680e-01 -5.416501e-01 -2.277911e-01 1.531484e-01 1.080309e-01 -4.345264e-02 3.160806e-01 3.586150e-01 -4.751416e-03 -1.382580e-01 -2.301577e-01 3.256432e-01 1.690038e-03 -1.497118e-01 -1.254226e-01 -9.187321e-02 7.420053e-02 5.343140e-02 -6.292447e-02 1.553683e-01 8.730657e-02 -5.771278e-02 -1.124974e-02 -1.198522e-01 1.575445e-01
<VARIANCE> 39
 4.889324e+01 6.824974e+01 1.064164e+02 7.348792e+01 9.323423e+01 8.086745e+01 6.257154e+01 8.352590e+01 7.369427e+01 7.018198e+01 5.689516e+01 3.670552e+01 1.627366e+02 1.450075e+00 2.747533e+00 3.165142e+00 2.587644e+00 3.532157e+00 2.772469e+00 2.999989e+00 4.020179e+00 3.528573e+00 3.062634e+00 3.233742e+00 2.280315e+00 3.281808e+00 2.148028e-01 3.841226e-01 4.333259e-01 4.228910e-01 5.604358e-01 4.938773e-01 5.115161e-01 7.568933e-01 5.817598e-01 5.753205e-01 5.590986e-01 4.313705e-01 4.643131e-01
<GCONST> 1.316454e+02
<TRANSP> 5
 0.000000e+00 1.000000e+00 0.000000e+00 0.000000e+00 0.000000e+00
 0.000000e+00 6.829479e-01 3.170521e-01 0.000000e+00 0.000000e+00
 0.000000e+00 0.000000e+00 7.643554e-01 2.356445e-01 0.000000e+00
 0.000000e+00 0.000000e+00 0.000000e+00 5.404328e-01 4.595673e-01
 0.000000e+00 0.000000e+00 0.000000e+00 0.000000e+00 0.000000e+00
<ENDHMM>
~h "z"
<BEGINHMM>
<NUMSTATES> 5
<STATE> 2
<MEAN> 39
 -7.664730e+00 1.468110e+00 -1.741816e+00 -1.566923e+00 -4.970167e+00 -4.926543e+00 -7.918983e+00 -2.053734e+00 -2.935019e+00 -2.693824e+00 -3.171153e+00 -3.218128e+00 5.612003e+01 -1.280255e+00 6.945382e-01 -2.744843e-01 5.007609e-01 5.280617e-01 -9.642091e-02 5.287021e-01 1.159346e-01 3.031478e-02 -7.640047e-02 1.211723e-01 4.197220e-01 -9.314843e-01 5.529356e-02 -2.172966e-01 2.372598e-02 -1.153282e-01 -1.618846e-01 3.067170e-02 -1.190197e-01 1.912102e-02 -2.551401e-02 1.728163e-02 9.621680e-02 -1.078607e-01 9.675378e-02
<VARIANCE> 39
 8.389926e+01 4.785843e+01 3.891266e+01 4.968557e+01 4.658366e+01 5.525954e+01 5.150794e+01 5.003490e+01 3.709092e+01 3.527774e+01 3.902771e+01 3.225476e+01 1.401166e+02 3.378114e+00 3.172067e+00 2.504392e+00 2.601892e+00 2.853173e+00 2.807861e+00 2.958000e+00 2.750785e+00 2.660486e+00 2.239156e+00 2.339570e+00 2.128950e+00 1.780154e+00 4.143187e-01 4.546840e-01 3.732749e-01 4.079099e-01 4.500218e-01 4.386303e-01 5.268729e-01 4.657484e-01 4.490834e-01 4.217816e-01 4.494250e-01 3.964511e-01 2.244356e-01
<GCONST> 1.234352e+02
<STATE> 3
<MEAN> 39
 -1.227618e+01 -1.941012e+00 -3.935119e+00 -1.524848e+00 -5.096590e+00 -6.199194e+00 -5.645919e+00 -2.074657e+00 -3.766743e+00 -3.597057e+00 -1.900181e+00 -1.527105e+00 4.504869e+01 -1.757428e-01 7.872510e-02 5.571228e-03 8.062646e-02 8.157354e-02 6.997860e-02 8.686286e-02 3.107661e-02 3.490542e-02 7.081430e-02 1.407928e-02 3.054295e-02 -2.583737e-01 7.560284e-02 -3.512041e-02 4.959687e-02 -3.511827e-02 -1.927914e-02 5.673985e-03 -3.838455e-02 -6.688618e-03 -3.049971e-03 -3.860356e-03 -1.612522e-02 -3.466819e-02 9.769969e-02
<VARIANCE> 39
 6.281750e+01 6.375276e+01 3.069676e+01 2.689094e+01 2.801918e+01 3.024406e+01 2.852260e+01 2.847168e+01 2.983139e+01 2.498092e+01 2.374554e+01 1.813360e+01 1.341133e+02 4.582503e-01 9.458885e-01 8.556046e-01 9.413416e-01 1.142520e+00 1.387044e+00 1.527838e+00 1.477862e+00 1.675681e+00 1.529361e+00 1.609145e+00 1.326557e+00 6.186423e-01 1.170106e-01 1.639786e-01 1.690166e-01 1.931649e-01 2.290087e-01 2.781715e-01 3.012574e-01 2.967410e-01 3.411836e-01 3.244401e-01 3.139400e-01 2.693130e-01 1.032413e-01
<GCONST> 9.966354e+01
<STATE> 4
<MEAN> 39
 -1.097265e+01 2.977286e+00 -6.222647e-01 9.517634e-02 -5.182474e+00 -6.417582e+00 -6.709445e+00 -3.224402e+00 -3.248826e+00 -2.543020e+00 -2.518074e+00 -2.742528e+00 5.337115e+01 1.130769e+00 -6.996522e-01 3.401874e-01 -4.934169e-01 -7.142189e-01 -1.761188e-01 -6.058297e-01 -2.600570e-01 3.574254e-02 -6.643138e-02 2.300476e-02 -3.526290e-01 1.694011e+00 3.347246e-01 -3.145398e-01 -6.768204e-02 -2.651688e-01 -2.980252e-01 1.108682e-01 -1.788823e-01 1.232889e-02 6.843290e-02 -2.763101e-02 7.775928e-02 -1.572738e-01 4.476165e-01
<VARIANCE> 39
 8.639104e+01 5.428976e+01 4.175159e+01 3.968498e+01 3.935907e+01 4.886076e+01 3.864183e+01 3.857644e+01 3.992805e+01 2.638537e+01 2.506679e+01 2.613417e+01 1.831212e+02 7.339502e+00 4.883705e+00 3.297078e+00 3.955103e+00 4.156580e+00 4.014592e+00 3.253686e+00 4.063861e+00 3.458794e+00 2.911662e+00 2.531655e+00 2.949051e+00 8.075016e+00 1.014317e+00 6.576611e-01 4.999596e-01 5.706193e-01 6.837670e-01 7.063611e-01 5.830426e-01 7.281017e-01 6.218898e-01 5.292400e-01 4.462567e-01 5.743151e-01 1.163925e+00
<GCONST> 1.334546e+02
<TRANSP> 5
 0.000000e+00 1.000000e+00 0.000000e+00 0.000000e+00 0.000000e+00
 0.000000e+00 7.148373e-01 2.851627e-01 0.000000e+00 0.000000e+00
 0.000000e+00 0.000000e+00 8.446965e-01 1.553035e-01 0.000000e+00
 0.000000e+00 0.000000e+00 0.000000e+00 7.530900e-01 2.469100e-01
 0.000000e+00 0.000000e+00 0.000000e+00 0.000000e+00 0.000000e+00
<ENDHMM>
~h "ai"
<BEGINHMM>
<NUMSTATES> 5
<STATE> 2
<MEAN> 39
 -7.950412e+00 1.540604e-02 -1.491139e-01 -2.732480e+00 -7.105987e+00 -4.918395e+00 -7.173496e+00 -4.702514e+00 -4.409407e+00 -2.299518e+00 -2.393070e+00 -3.347890e+00 5.617960e+01 -2.092962e-01 -6.286539e-01 3.549277e-02 -4.431854e-01 -4.478692e-01 -2.349280e-01 -2.531799e-01 1.935447e-01 3.330034e-02 -2.370020e-02 4.332236e-01 -9.460862e-02 1.266941e+00 2.403114e-01 -2.545378e-01 5.090261e-02 -1.417260e-01 -4.445033e-01 1.835211e-01 -2.171065e-01 1.482725e-01 6.175726e-02 -7.421838e-02 1.928268e-01 -2.198429e-01 3.619486e-01
<VARIANCE> 39
 1.106120e+02 5.836245e+01 7.379332e+01 4.811425e+01 6.627885e+01 6.772071e+01 4.630019e+01 5.364473e+01 6.124935e+01 3.576857e+01 3.781728e+01 3.478143e+01 1.584581e+02 8.237301e+00 5.403112e+00 4.951874e+00 4.186885e+00 8.052117e+00 5.184531e+00 5.171213e+00 5.244119e+00 5.346370e+00 3.896758e+00 4.584444e+00 3.639669e+00 1.300895e+01 1.184114e+00 8.094221e-01 7.196068e-01 7.039549e-01 1.170647e+00 9.326188e-01 8.629937e-01 9.364811e-01 8.806087e-01 7.121553e-01 7.750649e-01 6.450077e-01 1.581168e+00
<GCONST> 1.455174e+02
<STATE> 3
<MEAN> 39
 -1.903394e+00 -8.183912e+00 1.087060e+00 -7.240557e+00 -1.593534e+01 -3.282721e+00 -1.325708e+01 -1.429410e+00 -3.446278e+00 -3.418272e+00 1.930356e+00 -8.605323e+00 6.928008e+01 6.440081e-01 -1.454254e+00 -1.623243e-02 -8.130583e-01 -1.502406e+00 8.437524e-01 -5.262368e-01 1.412791e+00 5.061467e-01 -6.139854e-01 6.197178e-01 -1.024979e+00 1.551633e+00 -2.142810e-01 4.090757e-01 -6.218881e-02 3.238241e-01 5.985875e-01 4.936566e-02 4.595650e-01 -1.348056e-01 -1.221378e-01 -1.021123e-02 -4.389115e-01 2.101364e-01 -8.160976e-01
<VARIANCE> 39
 2.982237e+01 5.732455e+01 9.670429e+01 5.460046e+01 8.056968e+01 1.112387e+02 6.647567e+01 8.469600e+01 8.144817e+01 5.399879e+01 6.131971e+01 4.159547e+01 1.026182e+02 3.141707e+00 3.789414e+00 4.323969e+00 3.994718e+00 6.656429e+00 6.075457e+00 5.755409e+00 6.523101e+00 5.975671e+00 4.577652e+00 5.753375e+00 3.770998e+00 5.104807e+00 5.905409e-01 4.911305e-01 7.066057e-01 6.672658e-01 9.438232e-01 1.093962e+00 8.918822e-01 1.088336e+00 1.070425e+00 7.991819e-01 9.414876e-01 6.760221e-01 7.522191e-01
<GCONST> 1.440812e+02
<STATE> 4
<MEAN> 39
 -2.477209e+00 -1.055194e+01 3.568417e+00 -8.799390e+00 -1.841938e+01 -4.804736e+00 -1.042598e+01 1.529174e+00 -5.269512e+00 -6.105302e+00 1.195310e+00 -1.008361e+01 6.981551e+01 8.333771e-02 4.613937e-01 1.576232e-01 2.947391e-01 1.550113e-01 -2.198305e-01 8.673219e-02 -1.507418e-01 -3.526749e-01 2.207219e-01 -1.693631e-01 9.172362e-02 -7.155233e-01 -1.404925e-02 1.883356e-01 -2.550999e-02 1.135501e-01 2.003691e-01 -4.994696e-02 1.702394e-02 -1.660544e-01 -1.666733e-02 8.965728e-02 -7.150616e-02 7.569634e-02 -2.253954e-01
<VARIANCE> 39
 2.215857e+01 7.093654e+01 8.744802e+01 5.088512e+01 7.512052e+01 1.159244e+02 5.420848e+01 8.320926e+01 7.187668e+01 5.704286e+01 6.438393e+01 3.196336e+01 9.217957e+01 6.789771e-01 1.629411e+00 1.950893e+00 1.547037e+00 2.737703e+00 2.501607e+00 2.526807e+00 2.926175e+00 2.503324e+00 2.032773e+00 2.512605e+00 1.702442e+00 1.579248e+00 1.434301e-01 2.492390e-01 2.683806e-01 2.559455e-01 4.208887e-01 4.364306e-01 4.560519e-01 5.360463e-01 4.278422e-01 3.786592e-01 4.277317e-01 3.257923e-01 2.198365e-01
<GCONST> 1.196454e+02
<TRANSP> 5
 0.000000e+00 1.000000e+00 0.000000e+00 0.000000e+00 0.000000e+00
 0.000000e+00 7.063284e-01 2.936716e-01 0.000000e+00 0.000000e+00
