~o
<STREAMINFO> 1 39
<VECSIZE> 39<NULLD><MFCC_D_A_0><DIAGC>
~h "@"
<BEGINHMM>
<NUMSTATES> 5
<STATE> 2
<MEAN> 39
 -8.671118e+00 -5.661252e-01 -1.032510e+00 -3.067254e+00 -6.987870e+00 -5.460301e+00 -7.687766e+00 -4.257746e+00 -3.941817e+00 -2.346761e+00 -2.136567e+00 -4.179707e+00 5.631543e+01 3.094813e-01 -7.219957e-01 -1.807091e-01 -5.352973e-01 -3.029447e-01 -6.543623e-02 -5.324259e-01 1.543671e-01 2.646070e-01 -4.591753e-02 2.423176e-01 -2.614753e-01 1.650563e+00 2.873522e-01 -2.153434e-01 -1.084015e-02 -1.409390e-01 -2.508065e-01 1.524145e-01 -1.870944e-01 5.527722e-02 4.151013e-03 9.667068e-03 9.321198e-02 -1.949729e-01 4.016558e-01
<VARIANCE> 39
 1.122104e+02 5.625757e+01 6.478362e+01 4.621743e+01 5.789469e+01 6.012624e+01 4.927410e+01 5.843027e+01 5.638304e+01 3.572556e+01 3.916904e+01 3.695208e+01 1.773526e+02 8.777351e+00 4.851992e+00 4.354050e+00 4.389068e+00 5.314326e+00 4.592368e+00 4.795751e+00 4.888339e+00 4.960270e+00 3.380774e+00 3.752135e+00 3.840159e+00 1.323707e+01 1.190844e+00 7.656887e-01 6.733035e-01 6.930516e-01 8.914380e-01 7.961666e-01 7.816761e-01 8.629786e-01 8.225011e-01 6.236388e-01 6.770435e-01 6.441430e-01 1.799647e+00
<GCONST> 1.432366e+02
<STATE> 3
<MEAN> 39
 -4.681527e+00 -4.123699e+00 -1.609257e+00 -5.512609e+00 -9.074167e+00 -5.260481e+00 -1.039366e+01 -4.122026e+00 -3.518310e+00 -2.335222e+00 -1.339507e+00 -6.036981e+00 6.295164e+01 1.340191e+00 -1.235584e+00 -1.618374e-01 -9.538214e-01 -1.149383e+00 4.816268e-01 -1.131546e+00 3.418379e-01 3.111144e-01 5.914790e-03 6.275606e-01 -1.005993e+00 2.696783e+00 2.149297e-02 1.032781e-01 8.846097e-02 1.097116e-01 -1.017821e-01 2.611898e-01 6.090843e-02 4.677935e-02 -7.650641e-02 -8.635169e-03 4.509607e-02 -1.007726e-01 -4.179558e-01
<VARIANCE> 39
 6.244556e+01 5.654950e+01 7.811050e+01 6.166363e+01 6.545064e+01 8.083083e+01 5.484856e+01 6.831216e+01 7.054373e+01 4.330416e+01 4.749561e+01 4.552782e+01 1.356247e+02 7.054817e+00 5.313573e+00 5.716694e+00 5.353582e+00 6.571413e+00 6.241029e+00 5.582101e+00 6.851490e+00 6.980134e+00 4.207416e+00 5.011773e+00 4.907604e+00 1.271852e+01 1.130110e+00 8.000765e-01 8.379605e-01 8.876018e-01 1.103547e+00 9.975652e-01 9.333439e-01 1.016242e+00 1.036057e+00 7.341686e-01 8.715006e-01 8.695029e-01 1.712523e+00
<GCONST> 1.489041e+02
<STATE> 4
<MEAN> 39
 -7.651625e-01 -6.015631e+00 -1.541423e+00 -6.667607e+00 -1.301580e+01 -1.899004e+00 -1.272289e+01 -4.202100e+00 -3.557153e+00 -2.308436e+00 3.856603e-01 -8.656891e+00 6.693978e+01 3.427224e-01 -1.477865e-01 6.953695e-02 -9.856008e-03 -2.622290e-01 2.990294e-01 -9.927014e-02 1.225355e-01 -2.275177e-02 -4.985202e-02 4.260527e-02 -2.560398e-01 2.126768e-01 -1.932603e-01 2.325699e-01 4.730654e-02 1.968197e-01 2.084803e-01 -7.356649e-02 2.406223e-01 -7.612032e-02 -9.307352e-02 -1.436017e-02 -1.636584e-01 1.657872e-01 -4.371264e-01
<VARIANCE> 39
 3.656569e+01 6.197951e+01 8.763553e+01 7.111081e+01 7.555726e+01 1.026911e+02 6.291020e+01 1.035205e+02 1.002680e+02 5.144577e+01 6.303598e+01 5.148748e+01 9.871528e+01 3.263510e+00 4.778831e+00 4.437225e+00 4.687595e+00 6.367821e+00 5.808651e+00 4.903765e+00 6.716617e+00 6.605902e+00 3.899579e+00 5.061906e+00 4.218226e+00 8.439680e+00 5.943316e-01 7.370980e-01 7.395999e-01 8.326738e-01 1.152588e+00 9.855008e-01 9.311242e-01 1.180316e+00 1.173716e+00 7.479334e-01 9.430271e-01 7.763662e-01 1.254578e+00
<GCONST> 1.471309e+02
<TRANSP> 5
 0.000000e+00 1.000000e+00 0.000000e+00 0.000000e+00 0.000000e+00
 0.000000e+00 5.048421e-01 4.951579e-01 0.000000e+00 0.000000e+00
 0.000000e+00 0.000000e+00 3.574139e-01 6.425861e-01 0.000000e+00
 0.000000e+00 0.000000e+00 0.000000e+00 7.510284e-01 2.489716e-01
 0.000000e+00 0.000000e+00 0.000000e+00 0.000000e+00 0.000000e+00
<ENDHMM>
~h "a"
<BEGINHMM>
<NUMSTATES> 5
<STATE> 2
<MEAN> 39
 -2.331332e+00 -1.101765e+01 -4.681742e+00 -8.986182e+00 -9.571006e+00 -3.226876e-01 -1.057601e+01 -1.410290e-01 -1.120157e+00 -4.708504e+00 -2.224660e+00 -9.864395e+00 6.933846e+01 4.937319e-03 -7.641054e-01 -4.936587e-01 -6.010973e-02 5.807470e-01 6.332843e-01 1.652767e-01 2.267624e-01 2.659212e-01 -4.945266e-01 -4.698951e-01 -3.138342e-01 3.538660e-01 -9.598013e-02 3.429505e-01 1.775562e-01 2.128909e-01 5.067280e-02 -1.979541e-01 1.770159e-02 -2.264695e-01 -2.200847e-01 1.398206e-01 3.008648e-02 2.197234e-01 -3.727303e-01
<VARIANCE> 39
 3.686288e+01 7.848173e+01 6.065305e+01 5.537055e+01 6.787523e+01 8.553062e+01 5.333887e+01 8.092400e+01 7.133580e+01 6.054073e+01 5.026105e+01 4.813081e+01 1.331518e+02 1.366022e+00 2.519078e+00 1.999751e+00 2.073499e+00 2.839724e+00 3.180651e+00 2.530579e+00 3.457339e+00 2.745497e+00 2.727889e+00 2.952137e+00 2.450436e+00 3.135569e+00 2.934765e-01 3.836210e-01 3.211469e-01 3.968354e-01 5.242136e-01 5.198708e-01 5.008613e-01 6.550461e-01 5.426337e-01 5.118843e-01 5.320826e-01 4.876402e-01 4.890843e-01
<GCONST> 1.280155e+02
<STATE> 3
<MEAN> 39
 -3.046401e+00 -1.248904e+01 -6.035564e+00 -8.831616e+00 -7.088785e+00 6.834234e-01 -1.006002e+01 -6.320275e-01 -8.604100e-01 -6.052834e+00 -3.391716e+00 -1.006644e+01 6.864872e+01 3.288231e-02 2.376341e-01 4.872543e-02 1.787985e-01 1.467141e-01 -1.074705e-01 1.318729e-02 -2.505542e-02 -2.071704e-01 9.859362e-02 -1.468590e-01 3.973618e-02 -4.974020e-01 3.472321e-02 2.583135e-01 1.405906e-01 7.489555e-02 -1.070140e-01 -1.776442e-01 -3.375155e-02 -6.454193e-02 -8.981046e-02 1.593878e-01 5.770513e-02 7.623412e-02 -2.200074e-01
<VARIANCE> 39
 3.645942e+01 8.177275e+01 5.078777e+01 4.980179e+01 5.757884e+01 7.165453e+01 4.918250e+01 6.598906e+01 6.313175e+01 5.948433e+01 4.288986e+01 4.980365e+01 1.542569e+02 7.015032e-01 1.413497e+00 1.181380e+00 1.323692e+00 1.872107e+00 2.051752e+00 1.782326e+00 2.250266e+00 1.853209e+00 1.856986e+00 1.893296e+00 1.629280e+00 1.540169e+00 1.395774e-01 2.637683e-01 2.077169e-01 2.473147e-01 3.180540e-01 3.363954e-01 3.408799e-01 4.236225e-01 3.541751e-01 3.560427e-01 3.560606e-01 3.215730e-01 2.573687e-01
<GCONST> 1.147913e+02
<STATE> 4
<MEAN> 39
 -2.013171e+00 -8.113344e+00 -4.155342e+00 -6.059650e+00 -6.637883e+00 -1.330698e+00 -9.722615e+00 -1.392606e-01 -3.412115e+00 -2.881021e+00 -5.485145e+00 -8.522350e+00 6.185997e+01 -2.805240e-02 8.514291e-01 4.103225e-01 4.970544e-01 -5.652944e-02 -4.189635e-01 1.345233e-01 -3.708381e-01 -2.201481e-01 2.368926e-01 -1.547722e-02 3.317517e-01 -1.247579e+00 -4.484197e-02 5.963292e-02 6.188257e-02 3.854842e-02 -6.643610e-03 -2.293177e-02 2.118209e-02 -9.246084e-02 -1.570525e-02 -1.217247e-03 4.525231e-02 4.946542e-02 -2.504300e-02
<VARIANCE> 39
 3.956866e+01 7.077499e+01 5.191179e+01 5.457785e+01 6.033618e+01 6.408027e+01 5.423621e+01 6.917190e+01 5.417309e+01 5.528472e+01 5.370748e+01 4.540233e+01 1.751621e+02 1.468324e+00 2.530098e+00 1.908568e+00 2.266196e+00 2.584616e+00 2.728211e+00 2.700289e+00 3.387423e+00 2.697712e+00 2.653633e+00 2.590056e+00 2.193325e+00 3.629953e+00 2.429097e-01 3.990373e-01 3.161552e-01 4.035141e-01 4.335796e-01 4.651219e-01 4.908829e-01 6.069068e-01 4.680973e-01 4.927308e-01 4.736718e-01 3.910776e-01 5.245424e-01
<GCONST> 1.259585e+02
<TRANSP> 5
 0.000000e+00 1.000000e+00 0.000000e+00 0.000000e+00 0.000000e+00
 0.000000e+00 5.133274e-01 4.866726e-01 0.000000e+00 0.000000e+00
 0.000000e+00 0.000000e+00 6.700370e-01 3.299630e-01 0.000000e+00
 0.000000e+00 0.000000e+00 0.000000e+00 7.354869e-01 2.645130e-01
 0.000000e+00 0.000000e+00 0.000000e+00 0.000000e+00 0.000000e+00
<ENDHMM>
~h "b"
<BEGINHMM>
<NUMSTATES> 5
<STATE> 2
<MEAN> 39
 -4.466165e-01 5.114591e-01 1.864827e+00 -1.509131e+00 -9.076653e+00 -2.095418e+00 -8.188632e+00 -6.606446e+00 -6.610773e+00 -2.054059e+00 -2.163466e+00 -6.359087e+00 5.432227e+01 2.679278e-01 9.096041e-01 3.799491e-01 4.785940e-01 3.506232e-01 9.393141e-02 3.809035e-01 -1.352814e-01 -1.815729e-01 1.077078e-01 -1.529631e-01 1.013629e-01 -1.026132e+00 -1.130955e-01 -2.048358e-01 -1.204169e-01 -2.213681e-01 -3.105026e-02 -5.657644e-02 -1.192198e-01 9.304905e-02 1.102384e-01 -1.494935e-02 9.854004e-02 1.053517e-02 4.087857e-01
<VARIANCE> 39
 6.541497e+01 5.383256e+01 5.600433e+01 4.714276e+01 6.533660e+01 6.311990e+01 4.936563e+01 6.559430e+01 6.625461e+01 4.450429e+01 4.996046e+01 3.487525e+01 1.464628e+02 2.641755e+00 2.996170e+00 2.464894e+00 2.726763e+00 3.136819e+00 3.025672e+00 3.012065e+00 4.068453e+00 3.741977e+00 2.721963e+00 2.911859e+00 2.391836e+00 5.256475e+00 4.426661e-01 5.007804e-01 4.156148e-01 5.198660e-01 6.050624e-01 5.516983e-01 5.836954e-01 7.305367e-01 6.986674e-01 5.393572e-01 5.608115e-01 4.546501e-01 8.130271e-01
<GCONST> 1.316824e+02
<STATE> 3
<MEAN> 39
 -6.365649e-01 3.100511e+00 2.688001e+00 -6.251407e-01 -7.607970e+00 -2.213595e+00 -7.217460e+00 -6.163365e+00 -6.784275e+00 -1.667379e+00 -2.280498e+00 -5.734092e+00 5.159407e+01 -1.990936e-01 -3.311796e-01 -2.214345e-01 -4.260069e-01 1.937847e-01 -1.986370e-01 -2.894311e-01 6.173334e-02 1.951527e-01 4.021544e-02 3.352036e-01 2.576317e-01 1.060655e+00 -2.134378e-01 -6.382248e-01 -2.627591e-01 -4.433989e-01 -2.494408e-01 -7.125904e-02 -3.237042e-01 1.147884e-01 1.690654e-01 -6.853789e-05 2.044246e-01 -1.830341e-02 9.650407e-01
<VARIANCE> 39
 7.103407e+01 5.727657e+01 5.131704e+01 4.390289e+01 5.997049e+01 6.089212e+01 4.648963e+01 5.841607e+01 6.352692e+01 3.781281e+01 4.496570e+01 3.303493e+01 1.392019e+02 5.312034e+00 4.633152e+00 3.666400e+00 3.951483e+00 4.449426e+00 3.888096e+00 3.973965e+00 4.383659e+00 4.779961e+00 3.347614e+00 3.570932e+00 2.969897e+00 1.054485e+01 7.486991e-01 7.652740e-01 5.829201e-01 7.281389e-01 8.182265e-01 7.599418e-01 7.079484e-01 8.655770e-01 9.525397e-01 6.306992e-01 6.616332e-01 5.859328e-01 1.325984e+00
<GCONST> 1.393623e+02
<STATE> 4
<MEAN> 39
 -9.686412e-01 -2.726427e+00 1.079787e-01 -4.917893e+00 -1.066544e+01 -2.387321e+00 -1.151135e+01 -4.751096e+00 -6.017352e+00 -1.027104e+00 3.088091e-01 -6.629559e+00 6.300557e+01 -1.112186e-01 -8.831154e-01 -2.807454e-01 -5.857573e-01 -4.588404e-01 -4.796190e-02 -4.239658e-01 4.530435e-01 3.781081e-01 -7.396574e-02 1.914545e-01 -2.576902e-01 1.499968e+00 1.026158e-02 4.838590e-02 4.666531e-02 5.942679e-02 -3.521699e-02 8.273203e-02 9.824122e-02 4.773697e-02 -2.540416e-02 -8.431139e-02 -8.206492e-02 -5.489757e-02 -1.747710e-01
<VARIANCE> 39
 4.558402e+01 6.365237e+01 8.331712e+01 7.344463e+01 7.885353e+01 7.941798e+01 6.515539e+01 9.308391e+01 8.850437e+01 5.095456e+01 6.161083e+01 4.595915e+01 1.143245e+02 4.227011e+00 5.998828e+00 5.436164e+00 6.116166e+00 7.347897e+00 6.075707e+00 5.911347e+00 7.361013e+00 7.456783e+00 4.702188e+00 5.975585e+00 4.569679e+00 1.239032e+01 7.006080e-01 8.916239e-01 7.962218e-01 1.010453e+00 1.321476e+00 1.013286e+00 1.048569e+00 1.222827e+00 1.157712e+00 8.638169e-01 1.068260e+00 8.185201e-01 1.626625e+00
<GCONST> 1.508185e+02
<TRANSP> 5
 0.000000e+00 1.000000e+00 0.000000e+00 0.000000e+00 0.000000e+00
 0.000000e+00 6.040922e-01 3.959078e-01 0.000000e+00 0.000000e+00
 0.000000e+00 0.000000e+00 4.982948e-01 5.017052e-01 0.000000e+00
 0.000000e+00 0.000000e+00 0.000000e+00 8.345982e-01 1.654018e-01
 0.000000e+00 0.000000e+00 0.000000e+00 0.000000e+00 0.000000e+00
<ENDHMM>
~h "c"
<BEGINHMM>
<NUMSTATES> 5
<STATE> 2
<MEAN> 39
 -8.122009e+00 1.966896e+00 1.098668e+00 -1.020534e+00 -6.682524e+00 -6.776170e+00 -7.330737e+00 -3.987922e+00 -3.533164e+00 -2.321602e+00 -2.741570e+00 -3.841993e+00 5.232312e+01 -9.551981e-01 2.957587e-01 -1.813724e-01 1.080966e-01 5.298205e-01 -5.345322e-02 3.733119e-01 1.514143e-02 9.750894e-02 -7.281042e-02 7.448164e-02 4.126241e-01 -6.955228e-01 -1.159706e-01 -3.248751e-01 -1.272939e-01 -2.285908e-01 -1.264070e-01 7.031305e-02 -1.153601e-01 2.174322e-02 2.309011e-02 -2.819672e-04 1.178740e-01 -4.597800e-02 5.829171e-01
<VARIANCE> 39
 1.054963e+02 4.873295e+01 5.752612e+01 3.154721e+01 5.595300e+01 4.604589e+01 4.861951e+01 4.840069e+01 4.735009e+01 3.215996e+01 3.425595e+01 3.188648e+01 1.679271e+02 6.041440e+00 4.207090e+00 3.101237e+00 2.813761e+00 4.062455e+00 3.392110e+00 3.453231e+00 3.840700e+00 3.220504e+00 2.642415e+00 2.808811e+00 2.479111e+00 8.661456e+00 9.943678e-01 7.068251e-01 5.185351e-01 5.451294e-01 7.347917e-01 6.475684e-01 6.610047e-01 7.129337e-01 6.311371e-01 5.236148e-01 5.510732e-01 4.907995e-01 1.421711e+00
<GCONST> 1.344681e+02
<STATE> 3
<MEAN> 39
 -1.330722e+01 6.905755e-01 -5.363274e-01 -2.631913e+00 -6.274088e+00 -6.450225e+00 -6.808747e+00 -4.502374e+00 -3.354306e+00 -2.730682e+00 -1.704492e+00 -2.185765e+00 5.726531e+01 -8.415175e-02 -7.875459e-01 -8.128300e-02 -6.692830e-01 -5.384454e-01 -2.651590e-01 -5.830280e-01 3.737516e-02 9.560610e-02 -1.742685e-01 1.708122e-01 -1.393016e-01 2.676353e+00 6.980644e-01 -1.882182e-01 1.577942e-01 -1.034297e-01 -4.383205e-01 3.990693e-02 -3.350466e-01 6.747454e-02 -8.511763e-03 -5.459291e-02 5.576406e-02 -3.264886e-01 3.233669e-01
<VARIANCE> 39
 1.207672e+02 4.533054e+01 6.408954e+01 4.052939e+01 5.375360e+01 4.572896e+01 4.481632e+01 4.524338e+01 4.313105e+01 3.123507e+01 2.950188e+01 2.747536e+01 1.404446e+02 1.352811e+01 5.261877e+00 5.943809e+00 4.093275e+00 6.610288e+00 4.962119e+00 4.931783e+00 5.193975e+00 4.545135e+00 3.125781e+00 3.336228e+00 3.443430e+00 1.523820e+01 2.068064e+00 9.811640e-01 9.148620e-01 7.392406e-01 1.124293e+00 9.617386e-01 8.789330e-01 9.922482e-01 8.089864e-01 6.098506e-01 6.546583e-01 6.632153e-01 2.091955e+00
<GCONST> 1.438820e+02
<STATE> 4
<MEAN> 39
 -4.205394e+00 -1.984886e+00 3.009961e+00 -3.535662e+00 -1.318247e+01 -6.255480e+00 -1.256229e+01 -4.089696e+00 -5.495741e+00 -3.178985e+00 4.905901e-01 -5.732059e+00 6.489009e+01 8.977453e-01 -7.628057e-01 -1.351634e-01 -4.542051e-01 -6.249638e-01 3.877666e-01 -5.728293e-01 3.481207e-01 1.951612e-01 -8.569440e-02 2.806540e-01 -6.437051e-01 1.015743e+00 -1.009168e-01 5.477224e-02 -1.401385e-01 3.288445e-02 2.036417e-01 2.145638e-01 2.077413e-01 4.987121e-04 -1.272602e-03 2.683799e-02 -5.410560e-02 -1.755968e-03 -3.880221e-01
<VARIANCE> 39
 5.579514e+01 5.534196e+01 1.091545e+02 5.431812e+01 8.207425e+01 7.398215e+01 5.904071e+01 8.349252e+01 7.984494e+01 4.787169e+01 5.034258e+01 3.621992e+01 1.035431e+02 6.737866e+00 5.772212e+00 6.259465e+00 4.427687e+00 8.498446e+00 5.784003e+00 6.290998e+00 7.011667e+00 6.104012e+00 4.062121e+00 4.961207e+00 4.085254e+00 9.927697e+00 9.917070e-01 7.925878e-01 8.969895e-01 7.448343e-01 1.462890e+00 1.068697e+00 1.120552e+00 1.144163e+00 9.822989e-01 7.087840e-01 9.044788e-01 6.672148e-01 1.423204e+00
<GCONST> 1.487281e+02
<TRANSP> 5
 0.000000e+00 1.000000e+00 0.000000e+00 0.000000e+00 0.000000e+00
 0.000000e+00 7.793589e-01 2.206412e-01 0.000000e+00 0.000000e+00
 0.000000e+00 0.000000e+00 7.470055e-01 2.529944e-01 0.000000e+00
 0.000000e+00 0.000000e+00 0.000000e+00 7.993253e-01 2.006747e-01
 0.000000e+00 0.000000e+00 0.000000e+00 0.000000e+00 0.000000e+00
<ENDHMM>
~h "d"
<BEGINHMM>
<NUMSTATES> 5
<STATE> 2
<MEAN> 39
 -3.860254e+00 1.170328e+00 2.052136e+00 -8.155990e-02 -7.986511e+00 -5.855831e+00 -7.986043e+00 -3.984794e+00 -4.130746e+00 -2.211696e+00 -3.539255e+00 -5.368177e+00 5.168771e+01 -1.369365e-01 3.165355e-01 2.859957e-01 2.149735e-01 3.348609e-01 -2.666947e-01 1.231799e-01 1.219894e-01 9.183963e-02 -1.085417e-01 -3.739774e-02 2.370578e-01 -1.426126e-01 -1.069354e-01 -4.126371e-01 -8.980745e-02 -3.304972e-01 -2.109735e-01 1.111585e-02 -1.675947e-01 3.633799e-02 -7.726387e-02 -2.860324e-02 2.162904e-01 6.390899e-03 8.265263e-01
<VARIANCE> 39
 9.292812e+01 5.240108e+01 6.231385e+01 4.198679e+01 5.810673e+01 5.191701e+01 4.769981e+01 6.000970e+01 5.290704e+01 3.925594e+01 3.960788e+01 3.752482e+01 1.524503e+02 5.602211e+00 4.699231e+00 3.656500e+00 3.468427e+00 4.452790e+00 3.664340e+00 3.835797e+00 4.805068e+00 3.962609e+00 3.149448e+00 3.515972e+00 2.868900e+00 1.098655e+01 9.161263e-01 7.699925e-01 5.821921e-01 6.349545e-01 8.546148e-01 7.079253e-01 6.970562e-01 9.235229e-01 7.775177e-01 6.186762e-01 6.875027e-01 5.588375e-01 1.508915e+00
<GCONST> 1.391633e+02
<STATE> 3
<MEAN> 39
 -4.588734e+00 -7.016442e-01 2.367026e+00 -1.321847e+00 -8.177693e+00 -6.718830e+00 -8.661182e+00 -4.037956e+00 -4.788297e+00 -2.583057e+00 -2.458947e+00 -4.378209e+00 5.768400e+01 -1.956764e-01 -1.166729e+00 2.710112e-02 -8.879549e-01 -7.812630e-01 -2.492252e-01 -6.705971e-01 1.968898e-01 -2.178914e-01 -1.269800e-01 7.961816e-01 6.522413e-02 2.964251e+00 1.555235e-01 -1.986467e-01 -1.839411e-02 -1.945575e-01 -4.724115e-01 1.894498e-01 -2.114618e-01 5.011232e-02 -1.755201e-02 -4.129390e-02 2.411476e-01 -2.270028e-01 2.959892e-01
<VARIANCE> 39
 7.891529e+01 5.745279e+01 8.012405e+01 4.820021e+01 6.512604e+01 6.094871e+01 4.836789e+01 6.034588e+01 5.740807e+01 4.147355e+01 4.027243e+01 3.695391e+01 1.321747e+02 8.774185e+00 6.228619e+00 6.508887e+00 5.168471e+00 7.975895e+00 5.727890e+00 5.561146e+00 7.465602e+00 6.411265e+00 4.182476e+00 5.015069e+00 4.497827e+00 1.557884e+01 1.314490e+00 1.004524e+00 9.193439e-01 8.571798e-01 1.304438e+00 1.006731e+00 9.255408e-01 1.208863e+00 1.044047e+00 7.737123e-01 8.511133e-01 7.631600e-01 2.190066e+00
<GCONST> 1.493645e+02
<STATE> 4
<MEAN> 39
 -2.297744e+00 -3.802747e+00 4.328857e+00 -3.237382e+00 -1.451437e+01 -5.597282e+00 -1.248502e+01 -2.200925e+00 -6.870003e+00 -2.648996e+00 1.088572e+00 -6.473379e+00 6.646770e+01 1.077700e-01 -5.108058e-01 -2.378823e-01 -4.377574e-01 -5.580064e-01 3.268883e-01 -2.523983e-01 2.806250e-01 1.640009e-01 -1.204159e-01 2.998329e-01 -3.382914e-01 8.374994e-01 -2.476081e-02 1.370283e-01 -1.033052e-01 9.296403e-02 2.308346e-01 1.257994e-01 1.839110e-01 -6.780148e-02 6.840605e-02 -1.421847e-02 -2.017584e-01 -2.735622e-02 -3.823510e-01
<VARIANCE> 39
 4.120663e+01 5.556899e+01 9.308659e+01 5.375045e+01 8.333711e+01 8.328488e+01 6.339102e+01 9.857196e+01 8.107636e+01 4.808644e+01 5.905013e+01 3.902494e+01 7.930924e+01 3.869500e+00 4.397116e+00 4.857423e+00 4.152439e+00 7.693509e+00 5.272057e+00 5.620445e+00 7.766976e+00 5.815604e+00 3.901857e+00 5.528168e+00 3.736143e+00 7.515729e+00 6.376258e-01 6.452224e-01 6.684344e-01 6.941670e-01 1.303352e+00 9.259292e-01 1.000891e+00 1.260274e+00 9.337106e-01 6.872326e-01 9.435410e-01 6.500058e-01 1.113130e+00
<GCONST> 1.453240e+02
<TRANSP> 5
 0.000000e+00 1.000000e+00 0.000000e+00 0.000000e+00 0.000000e+00
 0.000000e+00 6.438326e-01 3.561675e-01 0.000000e+00 0.000000e+00
 0.000000e+00 0.000000e+00 6.214032e-01 3.785968e-01 0.000000e+00
 0.000000e+00 0.000000e+00 0.000000e+00 7.713192e-01 2.286808e-01
 0.000000e+00 0.000000e+00 0.000000e+00 0.000000e+00 0.000000e+00
<ENDHMM>
~h "e"
<BEGINHMM>
<NUMSTATES> 5
<STATE> 2
<MEAN> 39
 -2.164954e+00 -9.177392e+00 1.652573e+00 -7.089100e+00 -1.586207e+01 -3.845523e+00 -1.161508e+01 5.364623e-01 -4.275908e+00 -4.072527e+00 -1.041124e-01 -8.258849e+00 6.970757e+01 8.670269e-03 -2.277939e-01 3.317876e-01 -1.147942e-01 -5.400576e-01 1.777293e-01 2.006278e-01 2.398550e-01 -1.705322e-01 -2.169198e-01 1.198095e-01 -9.179163e-02 2.018026e-01 -8.649090e-02 2.859386e-01 -7.295528e-02 1.461467e-01 3.223889e-01 -3.841733e-02 8.524483e-02 -2.303070e-01 -3.023890e-02 1.275375e-01 -1.215989e-01 9.390259e-02 -3.819753e-01
<VARIANCE> 39
 3.232286e+01 7.310700e+01 9.683238e+01 4.918697e+01 8.461124e+01 9.306204e+01 5.396952e+01 1.049937e+02 7.254683e+01 5.385518e+01 6.425430e+01 4.191819e+01 9.001035e+01 1.373679e+00 2.461872e+00 2.571562e+00 2.138808e+00 3.734969e+00 3.052732e+00 3.009651e+00 3.866916e+00 3.145818e+00 2.585393e+00 3.235813e+00 2.278329e+00 3.064683e+00 3.058430e-01 4.018617e-01 4.065776e-01 3.861913e-01 7.003173e-01 5.650010e-01 5.872775e-01 7.748131e-01 6.107182e-01 5.122265e-01 5.995771e-01 4.373498e-01 4.682320e-01
<GCONST> 1.302993e+02
<STATE> 3
<MEAN> 39
 -2.583033e+00 -9.226372e+00 1.677592e+00 -7.657756e+00 -1.616265e+01 -4.652725e+00 -1.042513e+01 -4.348743e-01 -4.192337e+00 -4.863840e+00 5.592319e-01 -8.581012e+00 6.970583e+01 7.413615e-03 3.144537e-01 1.210202e-01 1.680451e-01 1.107063e-01 -2.340295e-02 8.413205e-02 -2.096947e-01 -2.047654e-01 9.086056e-02 -1.576168e-01 9.056566e-03 -4.958218e-01 1.609127e-02 1.432216e-01 -4.970179e-02 1.074957e-01 1.797145e-01 -7.705119e-02 -2.773157e-02 -9.063229e-02 7.272560e-03 7.926752e-02 -7.484882e-02 4.195105e-02 -1.960388e-01
<VARIANCE> 39
 3.243597e+01 6.895993e+01 1.020349e+02 5.037040e+01 8.696609e+01 1.052770e+02 4.974471e+01 1.043459e+02 6.892548e+01 5.405112e+01 6.944836e+01 4.107528e+01 8.478291e+01 6.909832e-01 1.399730e+00 1.432797e+00 1.453907e+00 1.871261e+00 1.783492e+00 1.813932e+00 2.267754e+00 1.967136e+00 1.723382e+00 1.966639e+00 1.464154e+00 1.535189e+00 1.373832e-01 2.431768e-01 2.462782e-01 2.481079e-01 3.855856e-01 3.364418e-01 3.643457e-01 4.641582e-01 3.768355e-01 3.309445e-01 3.663518e-01 2.803687e-01 2.335775e-01
<GCONST> 1.164322e+02
<STATE> 4
<MEAN> 39
 -2.447270e+00 -4.144207e+00 5.753530e+00 -4.244517e+00 -1.618812e+01 -3.950048e+00 -1.090757e+01 -1.577444e+00 -7.367020e+00 -2.726890e+00 -9.352269e-01 -7.272906e+00 6.274940e+01 -1.799894e-02 4.292454e-01 -1.200044e-01 3.145602e-01 4.478725e-01 -6.181121e-02 1.862626e-01 -2.776315e-01 2.530243e-02 7.777930e-02 -2.211598e-01 1.219941e-01 -8.344607e-01 -3.123329e-02 8.075204e-03 -4.618277e-02 3.232982e-03 7.166682e-02 -7.418095e-03 5.186806e-03 -4.237890e-03 3.773686e-02 6.081934e-03 1.877470e-03 1.852746e-02 -2.235968e-02
<VARIANCE> 39
 3.542698e+01 6.620625e+01 9.016409e+01 4.986648e+01 1.005934e+02 7.408209e+01 5.836496e+01 9.217747e+01 5.749876e+01 4.438669e+01 7.672639e+01 3.602845e+01 1.330766e+02 9.885829e-01 1.840170e+00 1.681286e+00 1.670672e+00 2.463105e+00 2.061299e+00 2.256977e+00 2.841300e+00 2.212899e+00 1.893573e+00 2.229787e+00 1.583424e+00 2.226477e+00 1.622751e-01 2.696082e-01 2.523905e-01 2.780465e-01 4.143814e-01 3.595095e-01 3.966627e-01 4.893252e-01 3.890951e-01 3.373350e-01 3.835748e-01 2.847440e-01 2.939866e-01
<GCONST> 1.198256e+02
<TRANSP> 5
 0.000000e+00 1.000000e+00 0.000000e+00 0.000000e+00 0.000000e+00
 0.000000e+00 5.234026e-01 4.765974e-01 0.000000e+00 0.000000e+00
 0.000000e+00 0.000000e+00 6.088099e-01 3.911901e-01 0.000000e+00
 0.000000e+00 0.000000e+00 0.000000e+00 8.268259e-01 1.731741e-01
 0.000000e+00 0.000000e+00 0.000000e+00 0.000000e+00 0.000000e+00
<ENDHMM>
~h "f"
<BEGINHMM>
<NUMSTATES> 5
<STATE> 2
<MEAN> 39
 -1.045275e+01 9.186435e-02 -7.332850e-01 -1.786310e+00 -5.216490e+00 -4.986912e+00 -6.902208e+00 -3.336581e+00 -4.235639e+00 -2.170454e+00 -3.010027e+00 -3.461657e+00 5.664945e+01 -1.973228e+00 4.195412e-01 -2.376129e-01 3.576368e-01 7.487741e-01 -1.527246e-01 4.583617e-01 2.711143e-01 3.943726e-01 2.644375e-03 7.559366e-02 5.878494e-01 -4.977897e-01 3.155464e-02 -3.019615e-01 -3.406785e-02 -1.992476e-01 -2.467261e-01 7.442701e-02 -1.648414e-01 -5.989932e-03 -6.779388e-02 6.086254e-03 1.243812e-01 -1.322469e-01 2.366944e-01
<VARIANCE> 39
 1.005598e+02 4.833068e+01 5.150420e+01 3.451941e+01 5.564229e+01 4.965387e+01 4.220111e+01 4.533930e+01 3.983250e+01 3.025109e+01 3.554413e+01 2.862491e+01 1.305947e+02 5.486302e+00 3.767173e+00 2.889539e+00 2.843667e+00 3.936053e+00 3.248745e+00 3.254858e+00 3.762341e+00 3.319484e+00 2.727650e+00 3.058366e+00 2.253539e+00 3.664907e+00 8.149327e-01 5.816047e-01 4.502348e-01 4.796961e-01 6.477088e-01 5.511616e-01 5.787568e-01 6.251901e-01 6.022966e-01 4.829187e-01 5.418945e-01 4.037151e-01 5.031589e-01
<GCONST> 1.298748e+02
<STATE> 3
<MEAN> 39
 -1.861332e+01 -7.481601e-01 -2.586182e+00 -1.718841e+00 -4.108343e+00 -5.258167e+00 -5.851776e+00 -2.268986e+00 -2.892166e+00 -1.779470e+00 -1.444319e+00 -1.968785e+00 5.738849e+01 1.174592e-01 -3.505945e-01 -1.101625e-02 -1.627927e-01 -2.733081e-01 -2.936181e-02 -1.140334e-01 -5.246564e-02 -2.953151e-02 -2.434889e-02 4.771417e-02 -8.507338e-02 2.567787e-01 6.723413e-01 -7.082862e-02 1.316712e-01 -1.197801e-01 -2.628316e-01 2.893939e-02 -2.013521e-01 -9.579030e-02 -1.087652e-01 -5.358895e-02 1.989895e-03 -2.008981e-01 2.378570e-01
<VARIANCE> 39
 1.198405e+02 5.034189e+01 4.782647e+01 2.904069e+01 4.338790e+01 3.970610e+01 4.089775e+01 3.570063e+01 3.449615e+01 2.578706e+01 2.752151e+01 2.399022e+01 1.030195e+02 6.584084e+00 2.455723e+00 2.791519e+00 2.217786e+00 2.845426e+00 2.693959e+00 2.778825e+00 2.764650e+00 2.816780e+00 2.213692e+00 2.457109e+00 2.038852e+00 3.710579e+00 9.487441e-01 4.826359e-01 4.659511e-01 4.791768e-01 5.961285e-01 5.528478e-01 5.657262e-01 5.664248e-01 5.543948e-01 4.679256e-01 4.968648e-01 4.181178e-01 4.819343e-01
<GCONST> 1.255301e+02
<STATE> 4
<MEAN> 39
 -6.776074e+00 -1.652352e+00 2.588903e+00 -2.543575e+00 -1.052498e+01 -5.503041e+00 -1.029805e+01 -4.296500e+00 -5.577183e+00 -2.589501e+00 -6.613302e-01 -4.432273e+00 6.244388e+01 1.675653e+00 -5.270859e-01 2.597361e-01 -5.422021e-01 -1.019944e+00 2.815348e-01 -8.043031e-01 -1.414462e-01 -2.184101e-01 -1.697558e-01 3.430943e-01 -6.652951e-01 9.896493e-01 -7.852535e-02 -6.182873e-02 -8.811525e-02 -6.535120e-02 -2.710795e-03 1.506813e-01 4.372926e-02 7.881593e-02 6.942372e-02 1.315291e-02 4.878352e-02 -4.949835e-02 -4.385765e-02
<VARIANCE> 39
 9.389409e+01 5.519126e+01 9.551174e+01 4.638436e+01 8.493069e+01 6.161172e+01 5.622683e+01 6.727914e+01 6.158732e+01 3.734447e+01 4.442823e+01 3.391738e+01 9.750092e+01 9.970911e+00 4.784521e+00 5.304484e+00 4.130388e+00 7.123116e+00 5.083610e+00 5.334598e+00 5.503894e+00 5.068603e+00 3.591335e+00 4.189537e+00 3.452405e+00 6.274618e+00 1.396261e+00 6.982441e-01 6.609604e-01 6.732618e-01 1.131968e+00 8.186482e-01 9.147602e-01 8.362990e-01 8.144157e-01 5.892754e-01 6.928222e-01 5.608128e-01 7.994308e-01
<GCONST> 1.433139e+02
<TRANSP> 5
 0.000000e+00 1.000000e+00 0.000000e+00 0.000000e+00 0.000000e+00
 0.000000e+00 6.651217e-01 3.348784e-01 0.000000e+00 0.000000e+00
 0.000000e+00 0.000000e+00 7.195542e-01 2.804458e-01 0.000000e+00
 0.000000e+00 0.000000e+00 0.000000e+00 7.044732e-01 2.955268e-01
 0.000000e+00 0.000000e+00 0.000000e+00 0.000000e+00 0.000000e+00
<ENDHMM>
~h "g"
<BEGINHMM>
<NUMSTATES> 5
<STATE> 2
<MEAN> 39
 -3.871313e-01 -3.230188e+00 1.702914e+00 -3.720285e+00 -1.103498e+01 -4.444777e+00 -1.088210e+01 -3.011501e+00 -5.432750e+00 -1.346990e+00 -1.270256e+00 -7.282492e+00 6.133083e+01 5.612824e-02 7.579387e-01 5.666556e-01 7.416400e-01 1.301707e-01 -4.138843e-01 3.432276e-01 -3.577405e-01 -3.156700e-01 1.054918e-01 -1.218533e-01 3.944114e-01 -9.049298e-01 -1.601769e-01 -1.064175e-01 -1.172245e-01 -1.355532e-01 4.003726e-02 1.184272e-01 3.095796e-02 4.707052e-04 6.121912e-02 -8.206719e-02 -2.273116e-02 5.207657e-03 1.616377e-01
<VARIANCE> 39
 4.443607e+01 6.163753e+01 7.368540e+01 5.629636e+01 7.613092e+01 8.262666e+01 5.692250e+01 8.072324e+01 7.221579e+01 4.601487e+01 5.561824e+01 4.006303e+01 1.322203e+02 2.868430e+00 3.976924e+00 3.484965e+00 3.871225e+00 4.719693e+00 4.546238e+00 3.785785e+00 5.330378e+00 5.072239e+00 3.517318e+00 3.847352e+00 2.889290e+00 7.081269e+00 4.777896e-01 6.101018e-01 5.432400e-01 6.071444e-01 9.351120e-01 8.628482e-01 6.842790e-01 8.710843e-01 8.451740e-01 6.344866e-01 7.322966e-01 5.197672e-01 1.027853e+00
<GCONST> 1.395233e+02
<STATE> 3
<MEAN> 39
 -1.720276e+00 -2.040435e+00 2.921842e+00 -2.343322e+00 -1.079933e+01 -5.957193e+00 -9.971839e+00 -3.846580e+00 -5.813629e+00 -1.607729e+00 -1.082430e+00 -5.854309e+00 6.060443e+01 -3.417533e-01 -1.615130e-01 1.109253e-01 -2.059998e-01 -2.744395e-01 -1.597529e-01 1.322136e-01 -3.888110e-02 5.196229e-02 -1.568898e-01 1.941159e-01 1.562882e-01 5.050792e-01 -2.247560e-02 -1.988648e-01 -1.525371e-01 -2.377617e-01 -9.501567e-02 2.035521e-01 -5.174265e-02 1.137007e-01 1.129720e-01 -1.039947e-01 3.475197e-02 -1.342895e-01 2.227863e-01
<VARIANCE> 39
 5.604871e+01 5.754520e+01 7.433848e+01 5.029472e+01 8.302235e+01 8.568265e+01 5.400224e+01 7.515882e+01 6.966142e+01 4.356719e+01 5.293826e+01 3.563593e+01 1.275108e+02 4.026012e+00 4.802587e+00 4.075999e+00 4.253936e+00 6.980189e+00 5.188381e+00 4.071181e+00 5.214983e+00 5.446997e+00 3.637853e+00 4.459840e+00 3.088606e+00 9.766895e+00 6.859270e-01 6.834528e-01 6.527944e-01 6.483644e-01 1.248779e+00 1.016498e+00 7.052665e-01 9.226258e-01 9.422019e-01 6.881871e-01 8.536930e-01 5.428420e-01 1.141163e+00
<GCONST> 1.430388e+02
<STATE> 4
<MEAN> 39
 -1.138807e+00 -2.003567e+00 4.455196e+00 -2.154716e+00 -1.313789e+01 -4.444487e+00 -1.039084e+01 -1.894308e+00 -7.187305e+00 -8.375430e-01 -1.404103e+00 -6.006072e+00 6.260447e+01 -2.216727e-01 -1.333693e-02 -2.029328e-01 -1.135488e-01 1.877037e-01 1.087329e-01 1.808450e-01 6.564052e-02 1.958873e-01 -1.910428e-01 -5.571939e-02 2.316678e-02 -1.400212e-01 -5.180243e-02 -6.967572e-02 -1.039698e-01 -6.042754e-02 8.478191e-02 4.165757e-02 -2.609336e-02 1.773314e-02 2.268380e-02 -3.481287e-02 -5.050539e-03 -2.213177e-02 7.673763e-02
<VARIANCE> 39
 4.628717e+01 5.775982e+01 6.868241e+01 5.149275e+01 8.619254e+01 6.962846e+01 5.685076e+01 1.042251e+02 7.088262e+01 4.432894e+01 5.856728e+01 3.269260e+01 1.087528e+02 2.132618e+00 2.926308e+00 2.750831e+00 2.842121e+00 4.190322e+00 3.273143e+00 3.135450e+00 4.821980e+00 3.721763e+00 2.799727e+00 3.208954e+00 2.238062e+00 3.798325e+00 3.297482e-01 4.267057e-01 3.920454e-01 4.983931e-01 7.765409e-01 5.804342e-01 5.812390e-01 8.121011e-01 6.379293e-01 5.105309e-01 5.987327e-01 3.911045e-01 5.592211e-01
<GCONST> 1.320008e+02
<TRANSP> 5
 0.000000e+00 1.000000e+00 0.000000e+00 0.000000e+00 0.000000e+00
 0.000000e+00 4.443024e-01 5.556976e-01 0.000000e+00 0.000000e+00
 0.000000e+00 0.000000e+00 4.874552e-01 5.125448e-01 0.000000e+00
 0.000000e+00 0.000000e+00 0.000000e+00 7.365818e-01 2.634182e-01
 0.000000e+00 0.000000e+00 0.000000e+00 0.000000e+00 0.000000e+00
<ENDHMM>
~h "h"
<BEGINHMM>
<NUMSTATES> 5
<STATE> 2
<MEAN> 39
 -5.186199e+00 -3.458722e+00 -1.626332e+00 -2.568868e+00 -5.019790e+00 -2.835711e+00 -6.811775e+00 -2.489915e+00 -4.115400e+00 -2.865304e+00 -3.499765e+00 -5.384116e+00 5.730892e+01 -8.161693e-01 3.149864e-01 9.377908e-03 3.484864e-01 6.086625e-01 -2.940611e-02 5.029514e-01 -2.408161e-02 1.546373e-01 1.646922e-02 3.032463e-02 5.764953e-01 -9.881736e-01 -3.308815e-02 -1.434590e-01 -5.931546e-02 -1.628579e-01 -1.647547e-01 2.171594e-02 -1.280974e-01 -4.610023e-03 -1.687028e-02 4.201147e-03 7.632429e-02 -6.788389e-02 1.344807e-01
<VARIANCE> 39
 6.120765e+01 6.509243e+01 5.862599e+01 4.430806e+01 7.929624e+01 5.723037e+01 4.944429e+01 6.285036e+01 5.403922e+01 4.421243e+01 4.264759e+01 3.662934e+01 1.617699e+02 2.815999e+00 3.198463e+00 2.411963e+00 2.379186e+00 3.053555e+00 2.867305e+00 2.711441e+00 3.490313e+00 3.021993e+00 2.631906e+00 2.733052e+00 2.400685e+00 3.186501e+00 3.467577e-01 5.044197e-01 3.677269e-01 4.211169e-01 5.245368e-01 4.908557e-01 5.045024e-01 6.095775e-01 5.356850e-01 4.818979e-01 4.782354e-01 4.243458e-01 4.074354e-01
<GCONST> 1.279946e+02
<STATE> 3
<MEAN> 39
 -1.008948e+01 -2.613383e+00 -2.834262e+00 -2.388764e+00 -3.627799e+00 -3.052122e+00 -5.472466e+00 -2.366721e+00 -3.158839e+00 -2.645023e+00 -2.501376e+00 -3.212577e+00 5.177831e+01 -4.152584e-01 4.686327e-02 -7.630324e-02 -6.266746e-02 6.250164e-03 -3.559106e-02 7.000545e-02 -4.935683e-02 9.119710e-03 3.148453e-02 8.397549e-02 1.536071e-01 -4.137418e-01 1.662840e-01 -5.831822e-02 1.208239e-02 -9.217498e-02 -1.452580e-01 5.371509e-03 -1.237025e-01 -1.424045e-02 -3.452091e-02 -1.289805e-02 9.278837e-03 -1.241130e-01 1.947661e-01
<VARIANCE> 39
 9.031111e+01 6.242090e+01 4.935091e+01 3.579731e+01 5.738053e+01 4.488156e+01 4.188768e+01 4.450452e+01 4.127622e+01 3.345916e+01 3.183490e+01 3.156230e+01 1.908244e+02 2.554514e+00 2.457390e+00 2.043414e+00 1.990123e+00 2.341570e+00 2.269478e+00 2.285838e+00 2.747989e+00 2.527913e+00 2.196299e+00 2.273718e+00 2.056556e+00 3.212427e+00 3.990985e-01 4.053261e-01 3.343950e-01 3.696078e-01 4.526341e-01 4.328676e-01 4.495549e-01 5.205247e-01 4.625950e-01 4.244074e-01 4.315310e-01 4.020114e-01 4.163488e-01
<GCONST> 1.224907e+02
<STATE> 4
<MEAN> 39
 -8.810246e+00 -2.939119e+00 -2.199357e+00 -3.940610e+00 -5.314067e+00 -3.335779e+00 -6.580815e+00 -2.738762e+00 -4.095885e+00 -2.115582e+00 -2.477351e+00 -4.245680e+00 5.771455e+01 5.263798e-01 -1.016073e-01 7.938520e-02 -2.262077e-01 -4.168604e-01 4.741846e-03 -2.910126e-01 -5.602551e-02 -7.575411e-02 -7.077973e-02 5.270484e-02 -2.809623e-01 4.034674e-01 1.555011e-01 -6.017771e-02 1.819554e-02 -2.855352e-02 -1.052419e-01 3.494799e-02 -7.636244e-02 1.928853e-02 3.528889e-03 -3.452253e-02 2.497844e-02 -8.500533e-02 1.591089e-01
<VARIANCE> 39
 1.074420e+02 6.711647e+01 7.073046e+01 4.843260e+01 6.630710e+01 5.974383e+01 5.283228e+01 5.263057e+01 5.454583e+01 3.901684e+01 3.977129e+01 3.723839e+01 1.693576e+02 6.069632e+00 3.750995e+00 3.293134e+00 3.253301e+00 3.645391e+00 3.292926e+00 3.366882e+00 3.834773e+00 3.373058e+00 2.809069e+00 2.952372e+00 2.734161e+00 6.462708e+00 8.796776e-01 5.817269e-01 5.223767e-01 5.491590e-01 6.313736e-01 5.702717e-01 5.991054e-01 6.572111e-01 5.820728e-01 5.099818e-01 5.562419e-01 4.774774e-01 7.734711e-01
<GCONST> 1.350838e+02
<TRANSP> 5
 0.000000e+00 1.000000e+00 0.000000e+00 0.000000e+00 0.000000e+00
 0.000000e+00 5.275592e-01 4.724409e-01 0.000000e+00 0.000000e+00
 0.000000e+00 0.000000e+00 6.241074e-01 3.758926e-01 0.000000e+00
 0.000000e+00 0.000000e+00 0.000000e+00 6.656370e-01 3.343630e-01
 0.000000e+00 0.000000e+00 0.000000e+00 0.000000e+00 0.000000e+00
<ENDHMM>
~h "i"
<BEGINHMM>
<NUMSTATES> 5
<STATE> 2
<MEAN> 39
 -5.158515e+00 -2.254379e+00 7.424512e+00 -3.378289e+00 -1.592719e+01 -6.635880e+00 -1.177781e+01 -5.292312e+00 -8.985223e+00 -4.074446e+00 1.745803e+00 -5.900290e+00 6.469872e+01 -5.949970e-03 2.866311e-01 1.274906e+00 -1.310440e-01 -1.139403e+00 1.659503e-01 -5.571094e-01 -5.383070e-01 -7.037497e-01 -2.304175e-01 7.097390e-01 -1.518787e-02 2.863473e-01 -2.890805e-02 1.268697e-02 -2.923376e-01 -2.227180e-02 2.592697e-01 1.299426e-01 1.006598e-01 1.026343e-01 2.222596e-01 8.029273e-02 -1.724842e-01 -2.734147e-02 -2.007678e-01
<VARIANCE> 39
 6.330019e+01 4.792586e+01 1.061423e+02 4.517167e+01 9.242259e+01 8.055054e+01 6.332436e+01 7.642512e+01 6.429945e+01 4.232558e+01 5.555607e+01 3.568259e+01 9.878429e+01 3.660930e+00 2.612529e+00 4.290960e+00 2.592973e+00 5.556111e+00 3.664031e+00 4.812110e+00 4.187446e+00 3.886175e+00 2.741486e+00 3.620940e+00 2.491034e+00 4.530919e+00 5.818061e-01 4.295636e-01 6.576800e-01 4.427967e-01 9.450041e-01 6.786750e-01 7.842957e-01 7.796273e-01 6.933093e-01 5.093753e-01 6.219142e-01 4.399708e-01 6.457818e-01
<GCONST> 1.360936e+02
<STATE> 3
<MEAN> 39
 -5.522625e+00 -1.573006e+00 1.044110e+01 -4.178102e+00 -1.862714e+01 -6.295135e+00 -1.282860e+01 -7.352197e+00 -1.002155e+01 -4.817572e+00 3.193218e+00 -6.107292e+00 6.514330e+01 8.663009e-03 2.692772e-01 6.527612e-02 1.464750e-02 -1.765098e-04 1.143722e-01 4.646969e-02 -6.708439e-02 -2.846243e-02 8.635002e-02 -5.440802e-02 -2.867249e-02 -4.423886e-01 2.728286e-02 -2.533575e-02 -3.214498e-01 7.653955e-02 3.176933e-01 -9.188731e-02 1.954875e-01 1.783524e-01 1.811304e-01 7.781327e-02 -2.078976e-01 9.988612e-04 -1.595505e-01
<VARIANCE> 39
 4.598461e+01 3.901204e+01 1.084476e+02 4.338678e+01 9.250016e+01 8.236723e+01 5.857889e+01 7.353736e+01 5.892655e+01 4.414748e+01 5.774025e+01 3.572744e+01 9.008905e+01 1.255554e+00 1.688353e+00 1.775749e+00 1.663928e+00 2.372407e+00 2.105713e+00 2.370977e+00 2.528569e+00 2.205786e+00 1.868785e+00 2.070344e+00 1.565708e+00 2.202307e+00 2.558725e-01 2.764349e-01 3.566983e-01 2.992692e-01 5.237193e-01 4.208638e-01 5.057325e-01 5.018269e-01 4.547662e-01 3.705845e-01 4.282584e-01 3.157830e-01 3.298891e-01
<GCONST> 1.208850e+02
<STATE> 4
<MEAN> 39
 -4.675088e+00 6.874961e-01 1.025896e+01 -3.338550e+00 -1.680760e+01 -4.765960e+00 -1.162894e+01 -6.118424e+00 -1.017372e+01 -3.197075e+00 1.006160e+00 -6.239314e+00 5.889293e+01 3.922341e-02 7.188615e-02 -6.643646e-01 1.798499e-01 6.356699e-01 -8.139449e-02 4.775925e-01 1.916081e-01 3.721899e-01 9.770209e-02 -4.137491e-01 9.385747e-02 -7.973934e-01 -3.430451e-02 -5.586724e-02 -9.988786e-02 -1.503448e-02 1.014650e-01 1.412955e-02 8.219423e-03 2.710221e-02 6.539908e-02 -1.105976e-02 -4.378819e-02 1.007836e-03 3.240074e-02
<VARIANCE> 39
 3.906911e+01 4.463944e+01 8.405141e+01 4.734568e+01 9.146862e+01 7.644460e+01 6.725632e+01 6.742914e+01 4.965903e+01 3.838964e+01 5.353024e+01 3.453414e+01 1.485582e+02 1.632100e+00 2.159428e+00 2.376511e+00 1.976108e+00 3.245119e+00 2.609439e+00 3.067207e+00 3.221417e+00 2.665581e+00 2.221037e+00 2.628689e+00 1.907737e+00 3.320798e+00 2.510632e-01 3.218088e-01 3.471077e-01 3.409570e-01 5.584818e-01 4.665913e-01 5.373337e-01 5.422201e-01 4.726145e-01 4.053820e-01 4.600224e-01 3.397368e-01 4.370418e-01
<GCONST> 1.250385e+02
<TRANSP> 5
 0.000000e+00 1.000000e+00 0.000000e+00 0.000000e+00 0.000000e+00
 0.000000e+00 5.933259e-01 4.066741e-01 0.000000e+00 0.000000e+00
 0.000000e+00 0.000000e+00 5.723857e-01 4.276143e-01 0.000000e+00
 0.000000e+00 0.000000e+00 0.000000e+00 8.315508e-01 1.684492e-01
 0.000000e+00 0.000000e+00 0.000000e+00 0.000000e+00 0.000000e+00
<ENDHMM>
~h "j"
<BEGINHMM>
<NUMSTATES> 5
<STATE> 2
<MEAN> 39
 -5.836043e+00 2.307897e+00 2.337549e+00 -6.403505e-01 -8.131480e+00 -6.469169e+00 -7.503811e+00 -3.704226e+00 -4.205541e+00 -2.957405e+00 -2.710661e+00 -4.405096e+00 5.351805e+01 -5.746209e-01 7.093657e-01 2.476682e-01 2.881788e-01 5.874501e-01 -7.018936e-02 3.713045e-01 1.590437e-01 1.696396e-01 -8.633320e-02 -5.872686e-02 3.504906e-01 -7.533860e-01 -1.402784e-01 -3.187845e-01 -1.132108e-01 -2.639230e-01 -1.015320e-01 7.351476e-02 -1.624728e-01 -2.288615e-02 -1.952710e-02 -8.621387e-03 1.411722e-01 -4.170324e-02 5.997099e-01
<VARIANCE> 39
 1.002823e+02 4.661491e+01 6.200573e+01 3.693671e+01 6.391762e+01 5.435812e+01 4.503011e+01 5.102249e+01 5.110570e+01 3.807879e+01 3.741154e+01 2.897527e+01 1.461246e+02 5.857368e+00 4.293761e+00 3.048976e+00 3.056915e+00 4.335506e+00 3.531546e+00 3.511028e+00 4.195258e+00 3.778125e+00 3.002024e+00 3.099997e+00 2.530701e+00 8.758439e+00 1.044983e+00 6.988795e-01 5.291072e-01 5.629671e-01 8.536195e-01 6.882600e-01 6.387389e-01 7.949200e-01 7.539843e-01 5.891293e-01 6.047008e-01 4.755183e-01 1.398429e+00
<GCONST> 1.363792e+02
<STATE> 3
<MEAN> 39
 -9.604708e+00 2.289321e+00 2.395652e+00 -1.448936e+00 -6.656078e+00 -6.367977e+00 -7.543124e+00 -4.408546e+00 -3.937338e+00 -3.289943e+00 -1.878069e+00 -3.077814e+00 5.732647e+01 -4.496496e-01 -8.325111e-01 1.012159e-01 -6.403721e-01 -6.180248e-01 -4.163865e-01 -6.040896e-01 -1.077978e-01 -1.439057e-01 -1.721578e-01 5.411453e-01 1.827149e-01 2.458208e+00 4.863847e-01 -3.542985e-01 2.693798e-02 -1.440099e-01 -5.552922e-01 -1.002144e-03 -2.478295e-01 1.022879e-01 1.606198e-02 -2.641303e-02 1.787504e-01 -1.901965e-01 3.791081e-01
<VARIANCE> 39
 1.088893e+02 5.880880e+01 7.009133e+01 3.885627e+01 6.406081e+01 5.738870e+01 4.298511e+01 4.487334e+01 4.675129e+01 3.230558e+01 3.177710e+01 2.749372e+01 1.303279e+02 1.234457e+01 5.853522e+00 5.499926e+00 4.303961e+00 8.452250e+00 5.367838e+00 4.412419e+00 5.203618e+00 4.743676e+00 3.397310e+00 3.903579e+00 3.290557e+00 1.329865e+01 1.995419e+00 1.079587e+00 8.913490e-01 7.992008e-01 1.414550e+00 1.062408e+00 7.537237e-01 1.027552e+00 9.412617e-01 6.725531e-01 6.759113e-01 6.249105e-01 1.977893e+00
<GCONST> 1.453453e+02
<STATE> 4
<MEAN> 39
 -4.015947e+00 -2.818589e+00 5.597940e+00 -3.641291e+00 -1.595062e+01 -6.480324e+00 -1.207178e+01 -3.420464e+00 -5.651840e+00 -4.125113e+00 1.834925e+00 -5.268504e+00 6.669841e+01 7.703192e-01 -1.121835e+00 -5.313258e-01 -6.100871e-01 -6.815840e-01 3.431496e-01 -3.355031e-01 6.529011e-01 4.564322e-01 -5.206248e-02 1.946847e-01 -5.896698e-01 1.021142e+00 -3.147225e-02 7.470781e-02 -2.453395e-01 4.546601e-02 3.662263e-01 2.681256e-01 1.882651e-01 -6.719052e-03 6.067681e-02 3.585333e-02 -2.387390e-01 -1.062478e-01 -3.821321e-01
<VARIANCE> 39
 4.505537e+01 5.891217e+01 1.001879e+02 5.023478e+01 9.560931e+01 7.721216e+01 5.658560e+01 8.247446e+01 7.276441e+01 4.264532e+01 5.238343e+01 3.731188e+01 8.551836e+01 5.125963e+00 6.152255e+00 5.553354e+00 3.807632e+00 8.775615e+00 5.699905e+00 5.444726e+00 6.939300e+00 5.486852e+00 3.633047e+00 5.433670e+00 3.711284e+00 8.188979e+00 9.042115e-01 7.722726e-01 8.369318e-01 6.555893e-01 1.545784e+00 1.049336e+00 9.432061e-01 1.158729e+00 8.879091e-01 6.506587e-01 9.585672e-01 6.670844e-01 1.061344e+00
<GCONST> 1.463297e+02
<TRANSP> 5
 0.000000e+00 1.000000e+00 0.000000e+00 0.000000e+00 0.000000e+00
 0.000000e+00 6.952249e-01 3.047751e-01 0.000000e+00 0.000000e+00
 0.000000e+00 0.000000e+00 7.042485e-01 2.957515e-01 0.000000e+00
 0.000000e+00 0.000000e+00 0.000000e+00 7.626250e-01 2.373750e-01
 0.000000e+00 0.000000e+00 0.000000e+00 0.000000e+00 0.000000e+00
<ENDHMM>
~h "k"
<BEGINHMM>
<NUMSTATES> 5
<STATE> 2
<MEAN> 39
 -5.314418e+00 -8.952751e-01 -8.404309e-01 -2.968346e+00 -7.786834e+00 -4.547694e+00 -7.928670e+00 -3.502976e+00 -4.693115e+00 -2.155394e+00 -2.801873e+00 -5.359827e+00 5.124722e+01 -6.209643e-01 1.988465e-01 -1.777229e-01 2.356592e-01 4.328919e-01 -2.186766e-01 2.600593e-01 9.500325e-02 1.578329e-01 4.660831e-02 -1.825765e-01 3.959004e-01 -9.168819e-01 -5.272698e-02 -2.841527e-01 -1.029969e-01 -1.896153e-01 -4.005962e-02 4.307476e-02 -8.371454e-02 5.772372e-02 2.875207e-03 -3.856267e-03 7.211636e-02 -4.693208e-02 5.401148e-01
<VARIANCE> 39
 6.590828e+01 5.795214e+01 5.714583e+01 4.563840e+01 6.361701e+01 5.994800e+01 5.043003e+01 5.841972e+01 4.900513e+01 3.992109e+01 4.381131e+01 4.169962e+01 1.931428e+02 2.968200e+00 3.377159e+00 2.751941e+00 2.635539e+00 3.602058e+00 3.311555e+00 3.188790e+00 3.556656e+00 3.161388e+00 2.938296e+00 3.037388e+00 2.628067e+00 6.625724e+00 4.747753e-01 5.957536e-01 4.631396e-01 5.062995e-01 6.771810e-01 6.236807e-01 6.309034e-01 6.672395e-01 5.864871e-01 5.717157e-01 5.623587e-01 4.937863e-01 1.141926e+00
<GCONST> 1.330879e+02
<STATE> 3
<MEAN> 39
 -7.139174e+00 -1.940424e+00 -1.603983e+00 -3.081204e+00 -6.894451e+00 -5.040693e+00 -8.040381e+00 -2.980332e+00 -4.403676e+00 -1.733555e+00 -2.888366e+00 -4.539272e+00 5.303222e+01 -3.319044e-01 -8.258766e-01 -5.161415e-01 -4.100680e-01 1.908565e-01 -1.955262e-01 -1.634056e-01 3.776096e-01 9.396309e-02 6.810869e-02 -2.753195e-02 2.672202e-02 1.586066e+00 2.423825e-01 -2.287154e-01 -4.468547e-02 -2.432959e-01 -2.214559e-01 1.224890e-01 -1.556194e-01 5.596997e-02 -1.689426e-02 -7.331243e-02 1.061011e-01 -2.456041e-01 6.955668e-01
<VARIANCE> 39
 7.684866e+01 6.121069e+01 5.942177e+01 4.536921e+01 6.193795e+01 5.946707e+01 4.962034e+01 5.437932e+01 4.711251e+01 3.839922e+01 4.102361e+01 3.865386e+01 1.947483e+02 4.996884e+00 5.100867e+00 4.191022e+00 3.680979e+00 4.981179e+00 4.528696e+00 4.199916e+00 4.467336e+00 3.828924e+00 3.633811e+00 3.488558e+00 3.580512e+00 1.438328e+01 7.758344e-01 7.384353e-01 6.568527e-01 6.364090e-01 9.043990e-01 8.511898e-01 7.482894e-01 7.812030e-01 6.854118e-01 7.092378e-01 6.395288e-01 6.615736e-01 1.768596e+00
<GCONST> 1.408931e+02
<STATE> 4
<MEAN> 39
 -4.672799e+00 -6.021475e+00 -3.076214e+00 -5.918336e+00 -8.412819e+00 -5.063189e+00 -9.738200e+00 -9.053298e-01 -4.726023e+00 -1.585619e+00 -2.842145e+00 -7.112077e+00 6.277435e+01 3.394918e-01 -5.497069e-01 -1.708273e-01 -4.936330e-01 -3.511670e-01 2.106512e-01 -1.649556e-01 2.369148e-01 1.415283e-01 -2.599255e-01 1.470397e-01 -4.662563e-01 1.326580e+00 5.527739e-02 8.228946e-02 7.264314e-02 4.433483e-02 -3.648672e-02 1.450903e-01 3.484745e-02 -1.083387e-01 3.758464e-03 -8.254964e-02 3.785398e-02 -2.172569e-02 -1.822048e-01
<VARIANCE> 39
 6.212390e+01 7.016202e+01 7.363612e+01 5.457981e+01 7.264410e+01 7.602994e+01 5.468462e+01 7.121790e+01 5.423554e+01 4.593225e+01 5.043810e+01 4.416967e+01 1.641688e+02 4.469182e+00 4.735797e+00 4.278876e+00 4.125563e+00 5.380494e+00 4.975806e+00 4.413546e+00 5.340531e+00 4.195087e+00 4.104614e+00 3.757861e+00 4.123251e+00 1.206508e+01 7.440758e-01 6.364231e-01 6.734952e-01 6.773728e-01 1.005583e+00 8.286798e-01 7.997191e-01 8.964545e-01 6.951335e-01 7.047598e-01 7.107216e-01 6.980429e-01 1.437150e+00
<GCONST> 1.432183e+02
<TRANSP> 5
 0.000000e+00 1.000000e+00 0.000000e+00 0.000000e+00 0.000000e+00
 0.000000e+00 5.234722e-01 4.765278e-01 0.000000e+00 0.000000e+00
 0.000000e+00 0.000000e+00 4.458065e-01 5.541935e-01 0.000000e+00
 0.000000e+00 0.000000e+00 0.000000e+00 6.444644e-01 3.555357e-01
 0.000000e+00 0.000000e+00 0.000000e+00 0.000000e+00 0.000000e+00
<ENDHMM>
~h "l"
<BEGINHMM>
<NUMSTATES> 5
<STATE> 2
<MEAN> 39
 -1.195429e+00 -7.770987e+00 -2.584640e+00 -7.950065e+00 -1.211846e+01 -7.930047e-01 -1.256131e+01 -4.289847e+00 -1.736487e+00 -3.064907e+00 5.714118e-03 -8.859634e+00 6.826070e+01 3.801863e-01 -2.737538e-01 -1.853297e-01 -4.601052e-01 -1.415506e-01 7.002248e-01 -5.104249e-01 -1.361977e-01 2.573215e-01 2.521222e-01 7.615191e-02 -3.778601e-01 1.782537e-01 -8.839926e-02 1.342187e-01 8.005518e-02 6.366283e-02 9.288855e-02 -6.111424e-02 7.535601e-02 -4.517600e-02 -1.323982e-01 2.748151e-02 -5.170544e-02 9.274431e-02 -2.043325e-01
<VARIANCE> 39
 4.028733e+01 6.357705e+01 8.135906e+01 7.281070e+01 7.016310e+01 1.029002e+02 6.479304e+01 1.034611e+02 9.382299e+01 5.572019e+01 5.727625e+01 5.016542e+01 9.736375e+01 2.008384e+00 2.513490e+00 3.195931e+00 3.410222e+00 4.174084e+00 4.317726e+00 3.820159e+00 4.718577e+00 4.227500e+00 3.646590e+00 3.578706e+00 2.848254e+00 3.153463e+00 3.273467e-01 3.752546e-01 4.249135e-01 5.483238e-01 6.702048e-01 7.207643e-01 6.545574e-01 8.134545e-01 6.996619e-01 6.251307e-01 5.960976e-01 5.213251e-01 4.123291e-01
<GCONST> 1.352142e+02
<STATE> 3
<MEAN> 39
 -1.842208e-01 -8.785892e+00 -3.036085e+00 -1.000145e+01 -1.255260e+01 1.324595e+00 -1.355681e+01 -6.054478e+00 -2.934885e-01 -3.018361e+00 9.454689e-01 -9.927908e+00 6.871409e+01 1.142076e-01 6.102815e-02 4.451253e-02 -1.315237e-01 7.861367e-02 1.972646e-01 -1.446240e-01 -4.240661e-02 -1.729632e-01 2.116443e-01 -1.034772e-01 -2.760657e-02 -2.705871e-01 -9.273981e-02 1.043308e-01 4.917186e-02 1.306122e-01 8.851368e-02 -1.869212e-01 1.564829e-01 4.772945e-02 -1.194257e-01 -6.477392e-02 -9.409632e-02 1.176514e-01 -1.092819e-01
<VARIANCE> 39
 3.243235e+01 6.230130e+01 7.959712e+01 8.260612e+01 6.381296e+01 9.626845e+01 6.989474e+01 1.164347e+02 1.028082e+02 5.786227e+01 6.082263e+01 5.246149e+01 8.717401e+01 9.513726e-01 1.865620e+00 2.228280e+00 2.475379e+00 2.729306e+00 3.368393e+00 2.900849e+00 3.800342e+00 3.372656e+00 3.287264e+00 2.768813e+00 2.249933e+00 1.663930e+00 1.652534e-01 2.778449e-01 3.286356e-01 3.961013e-01 4.998925e-01 5.342004e-01 5.449103e-01 6.569466e-01 5.981992e-01 5.857630e-01 4.961418e-01 4.272396e-01 2.384580e-01
<GCONST> 1.271769e+02
<STATE> 4
<MEAN> 39
 8.614521e-01 -6.922412e+00 -2.083549e+00 -9.915420e+00 -1.205469e+01 3.007466e+00 -1.462514e+01 -3.040963e+00 -5.024931e+00 -8.746701e-01 -2.053829e+00 -9.453659e+00 6.800388e+01 -1.157236e-01 2.374395e-01 1.299417e-01 2.998018e-01 2.087163e-01 -2.851698e-01 2.987832e-01 8.331627e-03 -1.340549e-01 -1.217926e-01 -2.465584e-01 1.768669e-01 -4.149201e-01 -5.029975e-02 3.184064e-02 8.608019e-03 5.995216e-02 2.995590e-02 -5.570329e-02 7.729241e-02 -1.052181e-02 1.474041e-02 -5.618870e-02 4.451845e-03 3.616545e-02 -4.666224e-02
<VARIANCE> 39
 2.579114e+01 6.619801e+01 7.857098e+01 8.709599e+01 7.440681e+01 9.346055e+01 6.710125e+01 1.053676e+02 8.823710e+01 5.814405e+01 6.790912e+01 4.642554e+01 7.503010e+01 1.013081e+00 2.467233e+00 2.678560e+00 3.057229e+00 3.143885e+00 3.425540e+00 3.317424e+00 4.377241e+00 3.705736e+00 3.312113e+00 3.172944e+00 2.438667e+00 2.381279e+00 1.606402e-01 3.292667e-01 3.709286e-01 4.662170e-01 5.194672e-01 5.392795e-01 5.705752e-01 7.089494e-01 5.973801e-01 5.639036e-01 5.439215e-01 4.246294e-01 2.876503e-01
<GCONST> 1.293995e+02
<TRANSP> 5
 0.000000e+00 1.000000e+00 0.000000e+00 0.000000e+00 0.000000e+00
 0.000000e+00 4.349733e-01 5.650267e-01 0.000000e+00 0.000000e+00
 0.000000e+00 0.000000e+00 5.130141e-01 4.869858e-01 0.000000e+00
 0.000000e+00 0.000000e+00 0.000000e+00 8.487390e-01 1.512611e-01
 0.000000e+00 0.000000e+00 0.000000e+00 0.000000e+00 0.000000e+00
<ENDHMM>
~h "m"
<BEGINHMM>
<NUMSTATES> 5
<STATE> 2
<MEAN> 39
 -1.953525e+00 -5.039698e+00 -8.029913e-01 -5.394095e+00 -1.028180e+01 -2.611861e+00 -9.609798e+00 -5.838533e+00 -6.233911e+00 -3.573727e+00 -1.431126e+00 -8.049592e+00 6.201611e+01 -2.514992e-02 3.866289e-01 3.449112e-01 4.631784e-01 1.887450e-01 -2.812501e-02 4.367887e-01 -7.163060e-01 -6.133043e-01 -2.539656e-02 -1.949949e-01 1.401810e-01 -6.747198e-01 -5.326119e-02 -2.589285e-02 -2.061409e-02 -4.805250e-02 1.515046e-02 -1.333685e-02 -3.856098e-02 9.987998e-02 7.185349e-02 2.922734e-03 -1.463286e-02 3.737388e-02 3.926093e-02
<VARIANCE> 39
 5.586474e+01 5.550437e+01 7.358901e+01 5.557848e+01 6.861469e+01 7.337668e+01 5.504540e+01 1.033079e+02 7.320660e+01 5.486683e+01 6.456652e+01 5.002895e+01 1.593821e+02 1.140893e+00 1.712722e+00 2.150256e+00 2.460080e+00 2.265492e+00 2.416893e+00 2.476466e+00 3.645661e+00 3.539154e+00 2.544397e+00 2.899477e+00 2.120608e+00 2.030149e+00 1.892164e-01 2.788032e-01 3.218133e-01 3.905412e-01 4.035924e-01 4.033298e-01 4.430829e-01 6.168721e-01 5.505667e-01 4.445475e-01 5.169404e-01 3.901928e-01 2.723932e-01
<GCONST> 1.251736e+02
<STATE> 3
<MEAN> 39
 -2.945934e+00 -3.275206e+00 6.152562e-01 -3.898417e+00 -9.229115e+00 -3.261076e+00 -7.556317e+00 -8.025373e+00 -8.033076e+00 -4.316598e+00 -1.884276e+00 -6.859865e+00 5.694291e+01 -6.865370e-02 2.115044e-01 8.194581e-02 1.468194e-01 1.227207e-01 1.703573e-02 1.926580e-01 -1.121377e-01 -1.183866e-01 5.633601e-02 -9.866571e-02 1.285534e-01 -4.439327e-01 -3.863687e-03 -3.296533e-02 -7.917742e-02 -8.792701e-02 -1.117731e-02 9.215800e-03 -8.637584e-02 1.630014e-01 1.544144e-01 2.362925e-02 3.454681e-02 -8.720736e-03 5.630850e-02
<VARIANCE> 39
 6.116415e+01 4.737903e+01 6.284877e+01 4.476779e+01 6.446964e+01 6.297233e+01 5.586159e+01 9.601727e+01 7.273237e+01 5.965676e+01 5.954183e+01 4.537455e+01 1.778051e+02 6.801128e-01 1.126320e+00 1.277395e+00 1.509389e+00 1.576503e+00 1.707357e+00 1.769895e+00 2.193051e+00 2.300047e+00 1.920725e+00 2.114920e+00 1.534403e+00 1.450220e+00 1.223401e-01 1.908671e-01 2.380297e-01 3.014653e-01 2.891127e-01 3.054505e-01 3.403269e-01 4.678743e-01 4.808737e-01 3.768345e-01 3.944766e-01 2.991439e-01 1.945453e-01
<GCONST> 1.155779e+02
<STATE> 4
<MEAN> 39
 -2.354295e+00 -2.845554e+00 -2.127872e-01 -4.619381e+00 -8.132285e+00 -1.466974e+00 -7.867478e+00 -6.450505e+00 -7.169177e+00 -2.812727e+00 -2.747591e+00 -6.446023e+00 5.629191e+01 -1.413654e-01 8.257379e-02 -1.346524e-01 -7.056352e-02 1.011732e-01 -1.990820e-02 -4.319934e-02 2.605153e-01 3.690523e-01 5.376919e-02 1.129419e-02 6.193646e-02 -2.925600e-01 -2.579140e-02 -5.293284e-02 -4.033619e-02 -4.632878e-02 1.002940e-02 -6.040913e-03 -7.165456e-02 9.246472e-02 1.120868e-01 -3.156673e-02 2.225809e-02 -8.221862e-03 9.571940e-02
<VARIANCE> 39
 5.600727e+01 5.580072e+01 5.886975e+01 6.425043e+01 6.749993e+01 6.376050e+01 5.545431e+01 8.312229e+01 7.544922e+01 5.304023e+01 5.863271e+01 3.828805e+01 1.864357e+02 1.081954e+00 1.924422e+00 2.027190e+00 2.523693e+00 2.243926e+00 2.360334e+00 2.571692e+00 3.098886e+00 3.569786e+00 2.441493e+00 2.671597e+00 1.880301e+00 2.645292e+00 2.016861e-01 2.917566e-01 3.242962e-01 4.252919e-01 3.992669e-01 4.033461e-01 4.511160e-01 5.590071e-01 6.173214e-01 4.405077e-01 4.765623e-01 3.386214e-01 3.462592e-01
<GCONST> 1.246607e+02
<TRANSP> 5
 0.000000e+00 1.000000e+00 0.000000e+00 0.000000e+00 0.000000e+00
 0.000000e+00 5.486610e-01 4.513390e-01 0.000000e+00 0.000000e+00
 0.000000e+00 0.000000e+00 6.818083e-01 3.181917e-01 0.000000e+00
 0.000000e+00 0.000000e+00 0.000000e+00 7.214955e-01 2.785045e-01
 0.000000e+00 0.000000e+00 0.000000e+00 0.000000e+00 0.000000e+00
<ENDHMM>
~h "n"
<BEGINHMM>
<NUMSTATES> 5
<STATE> 2
<MEAN> 39
 -9.782410e-01 -7.274092e+00 -6.702240e-01 -5.131324e+00 -1.181752e+01 -4.512779e+00 -1.158535e+01 -3.120913e+00 -3.789035e+00 -3.031297e+00 -2.994099e+00 -9.459324e+00 6.501970e+01 4.745162e-01 1.015645e+00 7.904202e-01 8.626974e-01 -1.275882e-01 -1.068552e+00 2.627470e-01 -1.212063e+00 -5.014779e-01 8.929312e-01 -6.135461e-01 -9.394430e-03 -1.019259e+00 -8.208278e-02 1.268369e-01 4.035834e-02 1.124559e-03 8.383004e-02 3.235947e-02 1.515111e-01 -1.554448e-01 -5.818289e-02 1.063122e-02 -1.134887e-02 1.130145e-01 -9.099415e-02
<VARIANCE> 39
 3.824763e+01 6.777515e+01 6.983925e+01 4.812336e+01 6.322824e+01 8.878858e+01 6.043182e+01 1.040345e+02 6.808611e+01 5.934087e+01 6.162627e+01 5.201890e+01 1.224724e+02 1.924332e+00 3.924014e+00 3.452013e+00 3.146703e+00 3.773101e+00 5.024109e+00 4.228535e+00 6.779112e+00 3.842470e+00 4.455795e+00 3.938539e+00 3.132648e+00 5.578344e+00 3.117880e-01 5.255013e-01 4.414030e-01 5.065327e-01 6.057865e-01 7.728215e-01 7.630424e-01 1.125779e+00 6.134707e-01 7.024757e-01 6.464698e-01 5.104671e-01 6.658229e-01
<GCONST> 1.374232e+02
<STATE> 3
<MEAN> 39
 4.226400e-01 -3.824989e+00 2.229632e+00 -2.510418e+00 -1.232411e+01 -8.416454e+00 -9.464708e+00 -8.324981e+00 -5.372604e+00 -5.687519e-01 -5.144030e+00 -9.741769e+00 6.151273e+01 9.108816e-02 7.075192e-01 3.942699e-01 3.982210e-01 9.284409e-02 -2.274726e-01 2.636665e-01 -4.754955e-01 -4.327189e-01 3.193208e-01 -2.410955e-01 2.263659e-01 -7.928286e-01 -1.788689e-01 -1.538794e-01 -1.660347e-01 -1.917877e-01 1.096278e-01 3.184956e-01 -9.621441e-02 3.679197e-01 7.618657e-02 -2.786972e-01 2.108325e-01 7.909229e-02 1.225111e-01
<VARIANCE> 39
 3.244968e+01 4.200182e+01 5.857449e+01 4.223182e+01 5.635886e+01 1.028636e+02 6.189347e+01 1.028418e+02 6.363398e+01 5.039112e+01 6.837651e+01 5.976451e+01 9.120756e+01 1.607768e+00 2.968261e+00 2.785137e+00 2.685490e+00 3.222962e+00 3.832211e+00 3.602806e+00 5.556908e+00 3.367265e+00 3.615767e+00 3.392440e+00 2.651573e+00 4.626952e+00 2.782574e-01 4.556867e-01 4.211857e-01 4.553190e-01 5.588322e-01 6.814390e-01 6.370635e-01 9.392873e-01 5.833989e-01 6.836657e-01 6.101937e-01 4.964406e-01 5.572321e-01
<GCONST> 1.324531e+02
<STATE> 4
<MEAN> 39
 -4.067217e-01 -3.854763e+00 2.049534e+00 -4.510247e+00 -1.269108e+01 -3.858390e+00 -1.208344e+01 -3.915471e+00 -7.717605e+00 -8.803046e-01 -3.399039e+00 -8.912024e+00 6.372829e+01 -2.643955e-01 2.044614e-01 -6.727601e-02 2.105264e-02 2.805960e-01 1.505654e-01 1.160141e-01 2.426942e-01 9.010027e-02 -3.004721e-01 1.115228e-01 2.320587e-01 -3.919397e-01 -1.102498e-01 -2.881776e-02 -7.762989e-02 -3.270832e-02 6.714898e-02 3.648410e-02 3.811782e-02 5.132284e-02 9.337877e-02 -8.900948e-02 4.924637e-02 3.129595e-02 -2.131106e-03
<VARIANCE> 39
 3.143406e+01 5.615329e+01 8.190247e+01 5.862576e+01 7.716187e+01 9.238995e+01 6.800776e+01 1.046793e+02 7.119942e+01 5.716361e+01 7.843359e+01 4.757468e+01 1.059951e+02 1.994401e+00 3.543201e+00 3.567229e+00 3.469522e+00 4.362796e+00 4.514833e+00 4.151405e+00 5.900323e+00 4.297095e+00 4.099262e+00 4.240424e+00 3.199738e+00 5.369351e+00 3.372374e-01 4.915555e-01 5.354550e-01 5.797008e-01 7.578735e-01 7.357082e-01 7.535401e-01 1.023377e+00 7.507398e-01 7.448542e-01 7.651897e-01 5.625590e-01 6.545194e-01
<GCONST> 1.387199e+02
<TRANSP> 5
 0.000000e+00 1.000000e+00 0.000000e+00 0.000000e+00 0.000000e+00
 0.000000e+00 4.560604e-01 5.439397e-01 0.000000e+00 0.000000e+00
 0.000000e+00 0.000000e+00 5.037887e-01 4.962113e-01 0.000000e+00
 0.000000e+00 0.000000e+00 0.000000e+00 7.691535e-01 2.308465e-01
 0.000000e+00 0.000000e+00 0.000000e+00 0.000000e+00 0.000000e+00
<ENDHMM>
~h "o"
<BEGINHMM>
<NUMSTATES> 5
<STATE> 2
<MEAN> 39
 -3.382106e+00 -2.561313e+00 -4.145842e+00 -7.783277e+00 -8.812012e+00 -1.502382e+00 -1.051245e+01 -5.679101e+00 -4.674101e+00 -2.396610e+00 -2.319314e-01 -5.810793e+00 6.160186e+01 9.422995e-01 -6.239389e-01 -6.772198e-01 -1.585097e+00 -8.085351e-01 1.287841e+00 -5.682398e-01 -1.762695e-01 2.657990e-01 -2.495259e-01 9.377739e-01 -6.003315e-01 2.089072e+00 3.196061e-02 1.053999e-02 1.399602e-01 -2.813384e-03 -1.574741e-01 1.657461e-01 3.357532e-02 4.286718e-02 2.634290e-02 -5.426399e-02 3.815172e-02 -8.504585e-02 -1.597887e-01
<VARIANCE> 39
 6.621525e+01 5.298495e+01 8.542001e+01 9.283768e+01 7.289885e+01 7.708289e+01 5.917750e+01 6.472140e+01 7.292717e+01 4.990931e+01 5.252008e+01 4.332407e+01 1.409522e+02 6.351214e+00 4.382243e+00 5.877617e+00 7.284952e+00 7.286127e+00 6.804190e+00 5.102976e+00 5.892900e+00 6.041431e+00 4.861225e+00 4.953402e+00 4.551372e+00 1.147765e+01 9.917899e-01 6.763576e-01 9.588198e-01 1.099242e+00 1.250781e+00 1.001268e+00 9.372817e-01 9.603230e-01 9.883048e-01 8.344901e-01 8.209215e-01 7.612523e-01 1.667822e+00
<GCONST> 1.495290e+02
<STATE> 3
<MEAN> 39
 -6.384671e-02 -5.787006e+00 -5.208986e+00 -1.345161e+01 -1.193061e+01 3.190166e+00 -1.136410e+01 -7.041966e+00 -1.867922e+00 -4.367660e+00 3.265320e+00 -8.059907e+00 6.803229e+01 3.928463e-01 -3.714627e-01 -1.546715e-01 -7.328990e-01 -4.665376e-01 1.141240e+00 -1.156808e-01 -2.405373e-02 1.811725e-01 -2.340389e-01 4.782105e-01 -3.633392e-01 4.851873e-01 -2.892623e-01 1.713321e-01 1.702904e-01 5.141425e-01 3.151344e-01 -4.020182e-01 1.494340e-01 1.038859e-01 -1.411780e-01 1.151923e-01 -3.857011e-01 1.694328e-01 -5.357473e-01
<VARIANCE> 39
 3.577539e+01 5.141117e+01 7.218974e+01 1.330185e+02 6.310009e+01 8.675072e+01 5.864017e+01 8.587270e+01 8.787257e+01 6.285025e+01 6.412413e+01 4.898118e+01 9.023404e+01 1.994624e+00 2.789529e+00 2.730825e+00 4.358912e+00 4.250270e+00 4.258434e+00 3.691505e+00 4.318297e+00 4.460018e+00 3.426962e+00 3.554724e+00 3.213780e+00 3.851088e+00 4.532172e-01 4.187401e-01 5.128493e-01 7.916104e-01 7.813092e-01 7.468853e-01 6.867642e-01 7.735903e-01 7.651970e-01 6.459522e-01 6.986904e-01 6.186646e-01 6.225790e-01
<GCONST> 1.372846e+02
<STATE> 4
<MEAN> 39
 1.812342e+00 -4.699189e+00 -4.881430e+00 -1.326708e+01 -1.385840e+01 6.192594e+00 -1.256150e+01 -7.399458e+00 -4.124698e+00 -3.712849e+00 1.750348e+00 -8.616149e+00 6.713777e+01 -5.661244e-02 9.341897e-02 2.007353e-01 5.336568e-01 2.333059e-01 -4.263479e-01 6.145368e-02 9.502871e-02 -8.730912e-02 1.426207e-01 -3.975243e-01 1.942649e-02 -4.684613e-01 -7.342277e-02 6.475377e-02 5.569041e-02 1.404889e-01 9.688197e-02 -1.857179e-01 5.710275e-02 2.281856e-02 -1.611019e-02 1.512217e-02 -9.577130e-02 5.944590e-02 -1.268556e-01
<VARIANCE> 39
 2.335613e+01 5.766444e+01 7.191897e+01 1.186653e+02 7.501011e+01 8.482536e+01 6.294807e+01 8.631123e+01 8.385627e+01 6.228695e+01 6.444757e+01 5.221962e+01 7.698241e+01 1.126365e+00 2.451145e+00 2.758790e+00 4.425923e+00 3.690564e+00 4.339196e+00 3.287745e+00 3.965775e+00 3.933801e+00 3.359530e+00 3.809930e+00 3.015871e+00 3.310994e+00 1.981927e-01 3.633913e-01 4.307952e-01 6.517270e-01 6.723080e-01 7.267372e-01 6.032082e-01 6.894204e-01 6.726287e-01 6.011841e-01 6.796445e-01 5.499141e-01 4.347189e-01
<GCONST> 1.331809e+02
<TRANSP> 5
 0.000000e+00 1.000000e+00 0.000000e+00 0.000000e+00 0.000000e+00
 0.000000e+00 6.120790e-01 3.879209e-01 0.000000e+00 0.000000e+00
 0.000000e+00 0.000000e+00 4.116910e-01 5.883090e-01 0.000000e+00
 0.000000e+00 0.000000e+00 0.000000e+00 8.631079e-01 1.368921e-01
 0.000000e+00 0.000000e+00 0.000000e+00 0.000000e+00 0.000000e+00
<ENDHMM>
~h "p"
<BEGINHMM>
<NUMSTATES> 5
<STATE> 2
<MEAN> 39
 -7.847812e+00 7.830606e-01 -1.979108e+00 -2.653691e+00 -6.071991e+00 -3.918125e+00 -6.626712e+00 -4.442989e+00 -4.017409e+00 -2.557972e+00 -2.907425e+00 -4.279396e+00 4.644184e+01 -6.521783e-01 3.238818e-01 -7.824665e-02 2.003818e-01 3.280597e-01 -1.196055e-01 2.610298e-01 9.748059e-02 1.446564e-01 2.704613e-02 -2.309404e-02 2.645752e-01 -9.558299e-01 -7.096739e-03 -2.436749e-01 -5.659848e-02 -1.391544e-01 -7.964699e-02 1.659053e-02 -7.914123e-02 2.538790e-02 1.497454e-02 -4.851387e-04 7.322989e-02 -2.916881e-02 4.493386e-01
<VARIANCE> 39
 8.979179e+01 4.209713e+01 4.540887e+01 3.466734e+01 4.330569e+01 4.407781e+01 3.907767e+01 4.224175e+01 4.219529e+01 3.078866e+01 3.407198e+01 3.444691e+01 1.717301e+02 2.879424e+00 2.592340e+00 2.092977e+00 2.168945e+00 2.647471e+00 2.489449e+00 2.398992e+00 2.754291e+00 2.690920e+00 2.302597e+00 2.632681e+00 2.102998e+00 4.800163e+00 4.696280e-01 4.834416e-01 3.974388e-01 4.460297e-01 5.143878e-01 4.847902e-01 4.743401e-01 5.274072e-01 5.181305e-01 4.523792e-01 5.066481e-01 4.091806e-01 8.408212e-01
<GCONST> 1.248386e+02
<STATE> 3
<MEAN> 39
 -8.671408e+00 6.757765e-01 -1.955933e+00 -2.292432e+00 -5.841708e+00 -4.037491e+00 -6.611051e+00 -4.163085e+00 -3.659614e+00 -2.175363e+00 -3.016549e+00 -4.047084e+00 4.822229e+01 -3.900458e-01 -6.884927e-01 -3.284903e-01 -3.844242e-01 1.234141e-01 -1.381508e-01 -8.765491e-02 7.966693e-02 1.878808e-01 -9.157495e-03 1.876024e-01 1.430785e-01 1.618865e+00 3.350752e-01 -4.414216e-01 -9.414286e-02 -3.538099e-01 -2.870584e-01 9.386589e-02 -2.572540e-01 3.209156e-03 -1.836457e-02 -2.770342e-02 1.421834e-01 -2.169595e-01 1.190910e+00
<VARIANCE> 39
 9.563129e+01 4.735413e+01 5.128265e+01 3.835929e+01 4.693958e+01 4.802968e+01 4.056965e+01 4.222665e+01 4.011390e+01 3.005484e+01 3.307207e+01 3.284012e+01 1.811686e+02 5.540174e+00 4.167784e+00 3.643447e+00 3.428052e+00 3.728345e+00 3.693996e+00 3.168499e+00 3.678560e+00 3.369240e+00 2.799334e+00 3.080366e+00 2.896196e+00 1.322745e+01 8.851303e-01 7.677191e-01 6.351287e-01 7.051795e-01 7.559561e-01 7.579946e-01 6.081774e-01 7.198075e-01 6.387058e-01 5.632492e-01 6.173220e-01 5.942237e-01 1.912070e+00
<GCONST> 1.359391e+02
<STATE> 4
<MEAN> 39
 -5.076696e+00 -3.719791e+00 -3.542104e+00 -4.687016e+00 -9.166286e+00 -3.336596e+00 -8.294503e+00 -5.358378e+00 -2.058150e+00 -2.545523e+00 -8.750931e-01 -5.750354e+00 6.065825e+01 5.581737e-01 -8.084586e-01 -1.865568e-01 -5.918406e-01 -5.347747e-01 2.300897e-01 -4.192491e-01 1.242223e-01 1.167396e-01 -1.035078e-01 3.164296e-01 -4.640360e-01 2.029409e+00 9.997529e-02 3.202429e-02 6.767986e-02 1.980192e-02 -1.030629e-01 1.016255e-01 -2.986994e-02 3.307161e-02 -2.265699e-02 -3.429541e-02 7.797607e-03 -7.675552e-02 -1.597655e-01
<VARIANCE> 39
 8.086154e+01 6.616927e+01 7.947232e+01 5.884220e+01 7.956844e+01 7.915266e+01 4.642511e+01 6.432172e+01 6.178353e+01 3.791577e+01 4.388496e+01 4.395491e+01 1.596865e+02 6.967867e+00 6.301614e+00 5.243410e+00 4.953243e+00 6.991055e+00 5.656546e+00 4.036974e+00 5.555255e+00 4.928327e+00 3.614186e+00 4.286115e+00 4.251372e+00 1.761511e+01 1.124833e+00 9.466990e-01 8.035626e-01 8.618292e-01 1.250980e+00 9.683532e-01 7.218290e-01 9.265721e-01 8.030170e-01 6.424766e-01 7.808682e-01 7.524107e-01 2.228140e+00
<GCONST> 1.474297e+02
<TRANSP> 5
 0.000000e+00 1.000000e+00 0.000000e+00 0.000000e+00 0.000000e+00
 0.000000e+00 7.341499e-01 2.658501e-01 0.000000e+00 0.000000e+00
 0.000000e+00 0.000000e+00 4.715341e-01 5.284659e-01 0.000000e+00
 0.000000e+00 0.000000e+00 0.000000e+00 7.959291e-01 2.040709e-01
 0.000000e+00 0.000000e+00 0.000000e+00 0.000000e+00 0.000000e+00
<ENDHMM>
~h "q"
<BEGINHMM>
<NUMSTATES> 5
<STATE> 2
<MEAN> 39
 -7.143755e+00 -1.197066e+01 -8.786782e+00 -6.093170e+00 -6.648531e+00 -5.981347e+00 -5.680402e+00 1.779942e+00 -7.086449e+00 2.198564e+00 -5.192063e+00 -7.913247e+00 6.794791e+01 2.107085e-02 -8.868705e-02 -1.032669e-01 1.572681e-01 1.358833e-01 -1.872016e-01 -5.395869e-02 2.225087e-01 4.475040e-02 -3.920763e-02 -1.043808e-01 -1.441103e-02 1.149524e-01 1.161194e-02 4.982829e-02 3.008207e-02 3.379902e-03 -1.984686e-03 2.725449e-02 4.765929e-02 -4.745097e-02 1.299359e-03 -1.284530e-02 4.113586e-02 -3.748283e-03 -2.640809e-02
<VARIANCE> 39
 8.491135e+01 8.871320e+01 3.259393e+01 4.166526e+01 5.655432e+01 4.016682e+01 3.458065e+01 5.598954e+01 3.915976e+01 3.144015e+01 3.353323e+01 6.616389e+01 1.473844e+02 4.968318e+00 6.114248e+00 1.929394e+00 3.896373e+00 3.438346e+00 2.399139e+00 2.742223e+00 4.101604e+00 3.694340e+00 2.694886e+00 3.852142e+00 3.557074e+00 8.784967e+00 6.790516e-01 8.038931e-01 2.394760e-01 6.321433e-01 5.152637e-01 3.948308e-01 5.104211e-01 7.878171e-01 6.699177e-01 4.893675e-01 6.908761e-01 6.298769e-01 1.213398e+00
<GCONST> 1.332276e+02
<STATE> 3
<MEAN> 39
 -7.478194e-01 -5.851505e+00 -5.991082e-01 -4.033835e+00 -1.172984e+01 -3.834803e+00 -1.089942e+01 5.700678e+00 -1.337502e+00 -2.473964e-02 -5.792983e+00 -7.400399e+00 6.554407e+01 -3.758998e-01 5.712312e-01 -1.136400e-01 1.911027e-01 9.256541e-01 7.023018e-01 1.698397e-01 -7.869763e-01 3.495790e-01 -3.215950e-02 1.413507e-02 -1.216740e-01 -8.250749e-01 -2.248082e-01 -2.620709e-02 -1.299709e-01 -1.167698e-01 8.416572e-02 1.363000e-01 1.561748e-01 -3.207272e-01 -1.552916e-01 5.573791e-02 2.719043e-01 1.143094e-01 -3.925657e-02
<VARIANCE> 39
 3.268548e+01 5.195376e+01 2.769404e+01 3.821097e+01 4.298140e+01 6.599638e+01 3.895483e+01 7.567340e+01 1.908126e+01 3.082126e+01 2.675007e+01 3.739328e+01 1.135159e+02 4.436957e+00 2.214572e+00 2.574184e+00 2.540511e+00 5.003201e+00 6.481963e+00 4.083043e+00 7.821404e+00 2.946125e+00 1.315398e+00 2.780103e+00 3.534147e+00 4.309984e+00 6.660889e-01 4.563927e-01 2.995928e-01 4.761678e-01 6.440963e-01 1.239825e+00 8.006276e-01 1.634845e+00 5.216379e-01 2.557709e-01 4.298800e-01 8.476058e-01 9.245708e-01
<GCONST> 1.300450e+02
<STATE> 4
<MEAN> 39
 -4.087127e+00 -9.132675e+00 -7.530905e+00 -8.761059e+00 -4.569440e+00 -3.978458e+00 -7.488510e+00 -1.477426e+00 -4.743463e+00 7.294028e-01 -4.536415e+00 -8.383314e+00 6.020510e+01 -7.601862e-02 1.126502e-01 -4.009727e-02 6.451040e-02 5.494725e-02 -1.204772e-02 -1.496382e-02 -1.599714e-01 3.215110e-02 -5.449118e-02 -8.622236e-03 2.323370e-02 -3.584219e-01 1.452539e-03 1.859982e-02 2.920159e-02 -1.568794e-02 -4.233376e-02 -1.065738e-03 -1.253110e-02 4.218448e-03 -2.903814e-02 -2.774099e-02 1.630429e-02 1.661875e-02 4.098720e-02
<VARIANCE> 39
 3.426689e+01 7.200409e+01 4.297063e+01 7.724593e+01 4.747676e+01 6.748685e+01 4.664759e+01 5.630991e+01 4.843494e+01 3.714827e+01 4.819757e+01 3.549125e+01 2.381945e+02 1.541985e+00 2.903533e+00 3.678493e+00 2.910335e+00 3.051387e+00 2.113049e+00 3.165543e+00 4.421284e+00 3.223433e+00 2.680206e+00 2.956795e+00 2.557034e+00 8.298990e+00 2.377072e-01 4.520724e-01 6.988906e-01 4.565225e-01 5.285909e-01 3.307446e-01 5.363851e-01 7.784874e-01 5.841874e-01 5.068004e-01 5.788788e-01 4.303355e-01 1.011103e+00
<GCONST> 1.300355e+02
<TRANSP> 5
 0.000000e+00 1.000000e+00 0.000000e+00 0.000000e+00 0.000000e+00
 0.000000e+00 9.002065e-01 9.979349e-02 0.000000e+00 0.000000e+00
 0.000000e+00 0.000000e+00 6.349866e-01 3.650133e-01 0.000000e+00
 0.000000e+00 0.000000e+00 0.000000e+00 9.696895e-01 3.031047e-02
 0.000000e+00 0.000000e+00 0.000000e+00 0.000000e+00 0.000000e+00
<ENDHMM>
~h "r"
<BEGINHMM>
<NUMSTATES> 5
<STATE> 2
<MEAN> 39
 -1.646990e+00 -7.665799e+00 -4.031760e+00 -6.106690e+00 -1.087362e+01 -2.499403e+00 -1.146059e+01 -2.742577e+00 -1.305594e+00 -2.817419e+00 -1.335047e+00 -9.052100e+00 6.644916e+01 3.255967e-01 -3.285721e-01 -8.523403e-02 7.770588e-02 -1.591483e-01 1.818271e-01 -3.866710e-01 2.440367e-01 -2.503539e-02 9.699517e-02 1.482864e-02 -2.826510e-01 2.491483e-01 -7.365048e-02 1.247707e-01 1.274078e-01 2.425393e-02 5.677952e-02 -1.152493e-02 4.693523e-02 -6.855656e-02 -1.834546e-01 1.887230e-02 8.331240e-03 9.727664e-02 -1.695608e-01
<VARIANCE> 39
 3.918725e+01 6.081430e+01 7.733781e+01 5.729855e+01 6.788726e+01 8.651139e+01 5.453035e+01 8.568801e+01 7.961466e+01 5.066868e+01 5.408458e+01 4.917981e+01 1.289833e+02 2.542713e+00 3.221176e+00 3.141626e+00 3.617783e+00 4.085531e+00 4.232902e+00 3.387195e+00 4.698659e+00 4.222483e+00 3.337573e+00 3.818023e+00 3.152736e+00 6.647383e+00 4.567195e-01 5.169422e-01 4.618075e-01 6.275820e-01 7.236673e-01 7.295578e-01 6.228061e-01 8.513026e-01 7.667770e-01 6.190031e-01 6.676973e-01 6.050602e-01 9.420725e-01
<GCONST> 1.375383e+02
<STATE> 3
<MEAN> 39
 -6.304121e-01 -8.364024e+00 -3.649282e+00 -5.823078e+00 -1.150160e+01 -2.144273e+00 -1.255044e+01 -2.083855e+00 -2.078241e+00 -2.490054e+00 -1.233259e+00 -9.745801e+00 6.701122e+01 1.903884e-01 7.094918e-02 3.038064e-01 1.553720e-01 -1.003879e-01 4.808022e-02 -2.253952e-01 6.630696e-02 -5.008120e-01 1.667925e-01 2.860231e-02 1.219571e-02 -3.215845e-01 -1.190231e-01 1.590236e-01 1.207998e-01 1.547151e-03 7.649322e-02 -4.876548e-02 1.421574e-01 -1.072295e-01 -1.138411e-01 -3.510297e-02 -8.732314e-03 1.446095e-01 -1.572475e-01
<VARIANCE> 39
 3.251881e+01 6.119490e+01 7.863167e+01 5.392757e+01 6.575756e+01 8.682893e+01 5.790940e+01 9.061519e+01 7.817580e+01 5.136681e+01 5.918262e+01 4.891852e+01 1.099231e+02 1.763286e+00 2.970495e+00 2.888508e+00 3.092072e+00 3.770555e+00 4.042449e+00 3.335060e+00 4.823369e+00 4.181288e+00 3.414641e+00 3.727770e+00 2.868553e+00 4.455575e+00 3.087535e-01 4.469947e-01 4.121229e-01 5.228075e-01 6.558770e-01 6.555702e-01 5.977804e-01 8.207785e-01 7.153139e-01 6.236022e-01 6.734872e-01 5.181072e-01 6.202862e-01
<GCONST> 1.342703e+02
<STATE> 4
<MEAN> 39
 2.874955e-01 -6.871596e+00 -9.450580e-01 -6.457804e+00 -1.372359e+01 1.705611e-02 -1.420622e+01 -1.534080e+00 -6.295511e+00 -1.317076e+00 -1.339586e+00 -9.770364e+00 6.772421e+01 -8.810493e-02 3.395397e-01 2.938558e-01 1.669531e-01 1.447863e-01 -1.955305e-01 2.374448e-01 -1.715880e-01 -2.099597e-01 -4.950251e-02 -1.022458e-01 2.273223e-01 -4.721298e-01 -8.409002e-02 6.551155e-02 -8.045542e-03 1.326808e-02 6.942314e-02 -2.578915e-02 1.048162e-01 -5.170989e-02 5.457200e-02 -5.737049e-02 -1.863063e-02 4.826508e-02 -6.807588e-02
<VARIANCE> 39
 2.727503e+01 6.483714e+01 9.179633e+01 5.769078e+01 8.041727e+01 9.858321e+01 5.958210e+01 1.063023e+02 8.085265e+01 5.344769e+01 7.429532e+01 4.895117e+01 8.119572e+01 1.575686e+00 3.203153e+00 3.561350e+00 3.187855e+00 4.339291e+00 4.204270e+00 3.628959e+00 5.544602e+00 4.567930e+00 3.369915e+00 4.141171e+00 3.051351e+00 4.147419e+00 2.603405e-01 4.469226e-01 4.894316e-01 5.150827e-01 7.350929e-01 6.756042e-01 6.534007e-01 9.012670e-01 7.519872e-01 6.030241e-01 7.321547e-01 5.381380e-01 5.341516e-01
<GCONST> 1.359677e+02
<TRANSP> 5
 0.000000e+00 1.000000e+00 0.000000e+00 0.000000e+00 0.000000e+00
 0.000000e+00 4.286318e-01 5.713682e-01 0.000000e+00 0.000000e+00
 0.000000e+00 0.000000e+00 3.875729e-01 6.124272e-01 0.000000e+00
 0.000000e+00 0.000000e+00 0.000000e+00 7.923772e-01 2.076228e-01
 0.000000e+00 0.000000e+00 0.000000e+00 0.000000e+00 0.000000e+00
<ENDHMM>
~h "s"
<BEGINHMM>
<NUMSTATES> 5
<STATE> 2
<MEAN> 39
 -1.161079e+01 2.681290e+00 -1.369327e+00 -1.757816e+00 -4.524753e+00 -6.257289e+00 -6.161983e+00 -3.061252e+00 -3.760526e+00 -3.046762e+00 -3.449401e+00 -3.428663e+00 5.761837e+01 -2.499054e+00 7.455602e-01 -6.065629e-01 2.771727e-01 8.163306e-01 -1.613597e-02 7.510215e-01 2.018443e-01 3.387685e-01 -6.358182e-02 3.871702e-01 7.729735e-01 -5.580907e-01 5.983551e-02 -4.616786e-01 -9.878391e-02 -2.176463e-01 -3.218065e-01 1.240237e-01 -2.034113e-01 2.151048e-03 -5.029322e-02 5.148873e-02 1.357882e-01 -1.257314e-01 2.201406e-01
<VARIANCE> 39
 9.721772e+01 5.003225e+01 5.433329e+01 3.473988e+01 4.916260e+01 4.837993e+01 4.925549e+01 4.630066e+01 4.078625e+01 3.433183e+01 3.623357e+01 3.012037e+01 1.514072e+02 5.650145e+00 4.939811e+00 3.328837e+00 2.796202e+00 3.843783e+00 3.425503e+00 3.417462e+00 3.984871e+00 3.133433e+00 2.825920e+00 2.917867e+00 2.581068e+00 3.710234e+00 8.040596e-01 7.350728e-01 4.845976e-01 4.606575e-01 6.266158e-01 5.665627e-01 6.046015e-01 6.336753e-01 5.677752e-01 5.110186e-01 5.267528e-01 4.319470e-01 5.147749e-01
<GCONST> 1.313336e+02
<STATE> 3
<MEAN> 39
 -2.053405e+01 1.460980e+00 -5.251165e+00 -2.265396e+00 -3.555811e+00 -5.381898e+00 -4.107682e+00 -1.709159e+00 -2.406872e+00 -2.250248e+00 -9.884700e-01 -1.002051e+00 5.510448e+01 -2.506644e-01 -3.298374e-01 -1.759862e-01 -1.714275e-01 -1.685269e-01 2.390362e-02 1.010246e-02 2.480735e-02 8.272992e-02 9.309070e-02 9.831960e-02 8.252954e-02 -2.449768e-02 5.610235e-01 -7.929602e-02 2.032529e-01 -5.144829e-02 -1.475041e-01 -3.163712e-02 -1.782345e-01 -5.090845e-02 -5.412541e-02 -2.487290e-02 -9.930097e-02 -1.742393e-01 1.552614e-01
<VARIANCE> 39
 1.129519e+02 3.501810e+01 4.556102e+01 2.776671e+01 3.322356e+01 3.345328e+01 3.902692e+01 3.273044e+01 2.905411e+01 2.400643e+01 2.559730e+01 2.342616e+01 1.459957e+02 3.549542e+00 1.870682e+00 2.126506e+00 1.765248e+00 1.912625e+00 2.093922e+00 2.115234e+00 2.254547e+00 2.134442e+00 1.927143e+00 1.945186e+00 1.738979e+00 3.010211e+00 6.899647e-01 3.647998e-01 3.903095e-01 3.546089e-01 4.265960e-01 4.382670e-01 4.744802e-01 4.749189e-01 4.368974e-01 3.892589e-01 3.944596e-01 3.884092e-01 3.978708e-01
<GCONST> 1.180035e+02
<STATE> 4
<MEAN> 39
 -1.267556e+01 -4.380088e-01 -2.539579e+00 -3.392868e+00 -6.269458e+00 -5.445445e+00 -7.045459e+00 -3.078349e+00 -2.814943e+00 -2.106061e+00 -1.867397e+00 -3.232240e+00 5.725483e+01 2.063263e+00 -5.412316e-01 6.089305e-01 -2.954548e-01 -7.946677e-01 1.598917e-02 -9.287716e-01 -3.600456e-01 -2.003024e-01 -1.333349e-01 -9.145577e-02 -7.604188e-01 8.134466e-01 1.986449e-01 -1.112370e-01 4.900421e-02 -3.645091e-02 -1.253185e-01 1.236514e-01 -1.501899e-01 -2.247607e-02 -5.342553e-02 -3.972301e-02 1.012781e-01 -1.256482e-01 1.718268e-01
<VARIANCE> 39
 1.190112e+02 4.604795e+01 6.402074e+01 3.728406e+01 5.189147e+01 5.101531e+01 5.373315e+01 4.889123e+01 4.347578e+01 2.973678e+01 3.193073e+01 3.386662e+01 1.788266e+02 9.987731e+00 4.022295e+00 4.385785e+00 3.280396e+00 4.280751e+00 4.131084e+00 4.737322e+00 4.875014e+00 3.880729e+00 2.874774e+00 3.144745e+00 3.401865e+00 7.003916e+00 1.360645e+00 5.868066e-01 5.662829e-01 5.130946e-01 6.807257e-01 6.669866e-01 8.124850e-01 7.719472e-01 6.401638e-01 5.003968e-01 5.668257e-01 5.654901e-01 8.530085e-01
<GCONST> 1.371038e+02
<TRANSP> 5
 0.000000e+00 1.000000e+00 0.000000e+00 0.000000e+00 0.000000e+00
 0.000000e+00 6.836321e-01 3.163679e-01 0.000000e+00 0.000000e+00
 0.000000e+00 0.000000e+00 7.683314e-01 2.316686e-01 0.000000e+00
 0.000000e+00 0.000000e+00 0.000000e+00 7.150848e-01 2.849152e-01
 0.000000e+00 0.000000e+00 0.000000e+00 0.000000e+00 0.000000e+00
<ENDHMM>
~h "t"
<BEGINHMM>
<NUMSTATES> 5
<STATE> 2
<MEAN> 39
 -5.901434e+00 1.197040e+00 -8.465115e-01 -2.341716e+00 -7.275417e+00 -5.251200e+00 -8.053843e+00 -5.036431e+00 -3.721570e+00 -2.077164e+00 -3.149725e+00 -5.273291e+00 4.884642e+01 -8.281342e-01 1.915770e-01 -1.972239e-01 1.135139e-01 4.581431e-01 -1.322253e-01 3.499460e-01 1.048186e-01 1.225319e-01 -6.310830e-02 1.254291e-02 4.791517e-01 -9.563573e-01 -8.624238e-02 -4.225509e-01 -1.322560e-01 -2.603978e-01 -1.305659e-01 5.663467e-02 -1.047936e-01 7.274403e-02 1.900486e-02 -3.648683e-03 1.270320e-01 -4.364450e-02 8.422042e-01
<VARIANCE> 39
 7.562881e+01 4.474508e+01 5.965175e+01 4.272411e+01 5.089157e+01 5.111667e+01 4.493523e+01 4.824906e+01 5.074483e+01 3.504752e+01 3.873944e+01 4.010980e+01 1.626948e+02 4.008990e+00 3.763573e+00 3.029875e+00 2.895543e+00 3.631144e+00 3.171183e+00 3.118133e+00 3.450390e+00 3.395992e+00 2.847493e+00 3.113559e+00 2.633952e+00 9.370931e+00 6.807543e-01 6.460497e-01 5.452254e-01 5.718110e-01 7.107635e-01 6.278491e-01 6.116585e-01 6.659020e-01 6.679935e-01 5.630730e-01 6.161061e-01 5.256419e-01 1.545599e+00
<GCONST> 1.340706e+02
<STATE> 3
<MEAN> 39
 -8.852543e+00 -7.121780e-01 -2.003872e+00 -2.832485e+00 -6.265080e+00 -5.316228e+00 -7.340881e+00 -4.302994e+00 -3.392368e+00 -2.176691e+00 -2.626999e+00 -3.659578e+00 5.231364e+01 -3.111160e-01 -1.179825e+00 -5.309107e-01 -8.279769e-01 -9.910823e-02 -4.375896e-02 -2.861142e-01 2.638867e-01 1.630870e-01 -6.591074e-02 2.711545e-01 -4.771600e-02 3.026700e+00 4.695204e-01 -2.385692e-01 3.865550e-02 -2.458607e-01 -4.056220e-01 1.555225e-01 -3.149139e-01 3.876755e-02 -1.287404e-02 -2.282535e-02 1.067684e-01 -3.649298e-01 7.957970e-01
<VARIANCE> 39
 8.555573e+01 5.034744e+01 6.126209e+01 4.253035e+01 5.131705e+01 5.219241e+01 4.428183e+01 4.390489e+01 4.589546e+01 3.249995e+01 3.539172e+01 3.499792e+01 1.782799e+02 7.587931e+00 5.295482e+00 5.405444e+00 4.459493e+00 5.597942e+00 4.987920e+00 4.464686e+00 4.611668e+00 4.904854e+00 3.645292e+00 4.027791e+00 4.065277e+00 1.894327e+01 1.144345e+00 8.396536e-01 8.287409e-01 7.448468e-01 9.906605e-01 9.482788e-01 7.917101e-01 8.634722e-01 8.120631e-01 6.598801e-01 7.211687e-01 7.364799e-01 2.374901e+00
<GCONST> 1.434830e+02
<STATE> 4
<MEAN> 39
 -4.432100e+00 -4.751150e+00 -2.734169e+00 -6.043121e+00 -9.723969e+00 -3.204772e+00 -1.049728e+01 -3.358399e+00 -3.978706e+00 -2.165198e+00 -1.310745e+00 -6.829919e+00 6.400448e+01 6.691664e-01 -6.920309e-01 3.908235e-02 -5.296919e-01 -7.441546e-01 3.881294e-01 -5.878633e-01 2.335429e-01 8.021432e-02 -1.274048e-01 3.288236e-01 -6.638070e-01 1.801954e+00 5.304896e-02 1.548447e-01 1.199848e-01 1.367863e-01 -2.201747e-02 1.058866e-01 4.884260e-02 -4.346320e-02 -4.399330e-02 -3.673752e-02 -3.194310e-03 -8.403498e-03 -5.039687e-01
<VARIANCE> 39
 6.209582e+01 6.235212e+01 9.350473e+01 5.888912e+01 7.601970e+01 8.771292e+01 5.996109e+01 6.898846e+01 6.938385e+01 4.379487e+01 5.172965e+01 4.950916e+01 1.402956e+02 5.763846e+00 5.343487e+00 5.619555e+00 4.940410e+00 6.997922e+00 6.391203e+00 5.308879e+00 6.055637e+00 5.601123e+00 3.913813e+00 5.022455e+00 4.827627e+00 1.516552e+01 9.958749e-01 7.604177e-01 8.580601e-01 8.097681e-01 1.215915e+00 1.060322e+00 9.488367e-01 9.746189e-01 9.039724e-01 6.897802e-01 8.920047e-01 8.470215e-01 1.849225e+00
<GCONST> 1.489089e+02
<TRANSP> 5
 0.000000e+00 1.000000e+00 0.000000e+00 0.000000e+00 0.000000e+00
 0.000000e+00 6.528687e-01 3.471313e-01 0.000000e+00 0.000000e+00
 0.000000e+00 0.000000e+00 5.392689e-01 4.607312e-01 0.000000e+00
 0.000000e+00 0.000000e+00 0.000000e+00 6.888406e-01 3.111594e-01
 0.000000e+00 0.000000e+00 0.000000e+00 0.000000e+00 0.000000e+00
<ENDHMM>
~h "u"
<BEGINHMM>
<NUMSTATES> 5
<STATE> 2
<MEAN> 39
 -3.639046e+00 -1.377869e+00 -1.225434e+00 -5.089091e+00 -9.508171e+00 -3.478064e+00 -1.080807e+01 -6.162460e+00 -5.538413e+00 -2.428855e+00 -6.148469e-01 -5.442184e+00 6.088539e+01 7.814569e-01 -3.355896e-02 -1.226127e-01 -8.061405e-01 -6.780578e-01 5.767817e-01 -5.958587e-01 -5.811113e-01 -3.386009e-01 -4.363878e-02 6.990073e-01 -1.370609e-01 1.069935e+00 6.744236e-03 -1.975048e-02 3.591048e-02 -5.264836e-02 -9.142724e-02 1.569608e-01 4.762199e-02 8.449516e-02 7.700094e-03 -1.452668e-02 3.075620e-02 -5.094584e-02 -8.588897e-02
<VARIANCE> 39
 7.889032e+01 5.100521e+01 8.121269e+01 7.635788e+01 6.982758e+01 7.328890e+01 6.717014e+01 8.299021e+01 6.449749e+01 4.649453e+01 5.063498e+01 3.938933e+01 1.287529e+02 6.819874e+00 4.217096e+00 5.341139e+00 5.977557e+00 6.803192e+00 5.843438e+00 5.392407e+00 7.163112e+00 5.418872e+00 4.321472e+00 4.658589e+00 3.936851e+00 1.030448e+01 1.008104e+00 6.744734e-01 8.299845e-01 9.447884e-01 1.123626e+00 9.373497e-01 9.665674e-01 1.123647e+00 9.185804e-01 7.666903e-01 7.967971e-01 6.838386e-01 1.472517e+00
<GCONST> 1.478270e+02
<STATE> 3
<MEAN> 39
 -6.257892e-02 -2.218726e+00 -1.662935e+00 -8.157385e+00 -1.251253e+01 -8.483183e-01 -1.263082e+01 -8.526039e+00 -6.511975e+00 -2.969026e+00 1.857901e+00 -6.127223e+00 6.455273e+01 4.577467e-01 -1.359508e-01 -3.511467e-02 -5.928478e-01 -5.594462e-01 6.913221e-01 -2.993686e-01 -1.993088e-02 -1.260736e-01 2.405125e-02 4.232778e-01 -2.639323e-01 4.155734e-01 -2.812781e-01 -2.215676e-03 3.082835e-02 2.765539e-01 2.691101e-01 -1.606756e-01 2.133980e-01 2.913597e-01 1.271017e-01 1.329920e-02 -3.063614e-01 -1.455309e-02 -3.312261e-01
<VARIANCE> 39
 4.443214e+01 4.729674e+01 7.645396e+01 9.718527e+01 6.887875e+01 8.581142e+01 6.947221e+01 1.181986e+02 7.457915e+01 5.945717e+01 6.156262e+01 4.288543e+01 8.991795e+01 3.322219e+00 3.782452e+00 3.794982e+00 5.714297e+00 5.762756e+00 5.479312e+00 4.900524e+00 6.641771e+00 5.341192e+00 4.396255e+00 4.809582e+00 3.730988e+00 5.781679e+00 5.921185e-01 5.356627e-01 6.572359e-01 9.615934e-01 1.005478e+00 9.150919e-01 8.950446e-01 1.170631e+00 9.208432e-01 8.319488e-01 8.854231e-01 7.096211e-01 8.008385e-01
<GCONST> 1.444572e+02
<STATE> 4
<MEAN> 39
 1.103354e+00 -2.454837e+00 -1.723928e+00 -9.750854e+00 -1.339004e+01 1.698579e+00 -1.432256e+01 -6.727125e+00 -7.508338e+00 -1.616579e+00 4.232267e-01 -7.782232e+00 6.564378e+01 -1.492368e-01 4.372180e-03 1.012925e-01 4.091365e-01 3.057573e-01 -3.005335e-01 2.479810e-01 2.248930e-01 1.632362e-01 4.643679e-02 -4.151609e-01 -5.052566e-02 -3.735927e-01 -1.246523e-01 3.580426e-02 1.688751e-02 1.282185e-01 1.275287e-01 -1.307516e-01 1.185297e-01 3.846344e-02 5.147650e-02 -4.293617e-02 -9.894110e-02 5.807054e-02 -1.235288e-01
<VARIANCE> 39
 3.285973e+01 5.385453e+01 7.818856e+01 1.002524e+02 7.090829e+01 9.015337e+01 7.107555e+01 1.095442e+02 7.463773e+01 6.093146e+01 6.846851e+01 4.390843e+01 7.544244e+01 1.761881e+00 2.962522e+00 3.107868e+00 4.798116e+00 4.287194e+00 4.570212e+00 4.050130e+00 5.462705e+00 4.319738e+00 3.733978e+00 4.414110e+00 3.251174e+00 3.616539e+00 2.898985e-01 4.206505e-01 4.806665e-01 7.721823e-01 7.728996e-01 7.767726e-01 7.469972e-01 9.511150e-01 7.547961e-01 6.960657e-01 8.155055e-01 5.858772e-01 4.809392e-01
<GCONST> 1.376947e+02
<TRANSP> 5
 0.000000e+00 1.000000e+00 0.000000e+00 0.000000e+00 0.000000e+00
 0.000000e+00 5.366620e-01 4.633380e-01 0.000000e+00 0.000000e+00
 0.000000e+00 0.000000e+00 4.255756e-01 5.744243e-01 0.000000e+00
 0.000000e+00 0.000000e+00 0.000000e+00 8.098243e-01 1.901758e-01
 0.000000e+00 0.000000e+00 0.000000e+00 0.000000e+00 0.000000e+00
<ENDHMM>
~h "v"
<BEGINHMM>
<NUMSTATES> 5
<STATE> 2
<MEAN> 39
 -5.720369e+00 -3.212366e+00 -9.603557e-01 -4.140341e+00 -8.282138e+00 -2.741488e+00 -8.362382e+00 -2.900852e+00 -4.227129e+00 -2.588475e+00 -1.643602e+00 -5.417910e+00 5.514945e+01 4.041251e-04 8.054070e-04 2.982348e-04 -7.923298e-04 1.777842e-04 5.770657e-04 1.920456e-06 -1.539215e-03 -3.851559e-04 2.390032e-04 -1.168943e-03 -1.209440e-03 7.453487e-05 5.293762e-05 1.484293e-04 1.038093e-04 6.097702e-05 2.683362e-05 9.535497e-05 -3.359811e-05 -1.456941e-05 1.142907e-04 1.394317e-04 6.521364e-05 -2.366633e-05 -8.404750e-05
<VARIANCE> 39
 6.548970e+01 6.558094e+01 6.975499e+01 5.597869e+01 7.619009e+01 6.664177e+01 6.092598e+01 6.794641e+01 5.794476e+01 4.215612e+01 4.686914e+01 4.500091e+01 2.513958e+02 2.532669e+00 2.732701e+00 2.556041e+00 2.640352e+00 3.358491e+00 3.125732e+00 3.024375e+00 3.669678e+00 3.178414e+00 2.664217e+00 2.899224e+00 2.436845e+00 5.033377e+00 3.927859e-01 4.190547e-01 3.991563e-01 4.514541e-01 5.906611e-01 5.447152e-01 5.501792e-01 6.469660e-01 5.645853e-01 4.966201e-01 5.287678e-01 4.459183e-01 6.618989e-01
<GCONST> 1.316507e+02
<STATE> 3
<MEAN> 39
 -5.720369e+00 -3.212366e+00 -9.603557e-01 -4.140341e+00 -8.282138e+00 -2.741488e+00 -8.362382e+00 -2.900852e+00 -4.227129e+00 -2.588475e+00 -1.643602e+00 -5.417910e+00 5.514945e+01 4.041251e-04 8.054070e-04 2.982348e-04 -7.923298e-04 1.777842e-04 5.770657e-04 1.920456e-06 -1.539215e-03 -3.851559e-04 2.390032e-04 -1.168943e-03 -1.209440e-03 7.453487e-05 5.293762e-05 1.484293e-04 1.038093e-04 6.097702e-05 2.683362e-05 9.535497e-05 -3.359811e-05 -1.456941e-05 1.142907e-04 1.394317e-04 6.521364e-05 -2.366633e-05 -8.404750e-05
<VARIANCE> 39
 6.548970e+01 6.558094e+01 6.975499e+01 5.597869e+01 7.619009e+01 6.664177e+01 6.092598e+01 6.794641e+01 5.794476e+01 4.215612e+01 4.686914e+01 4.500091e+01 2.513958e+02 2.532669e+00 2.732701e+00 2.556041e+00 2.640352e+00 3.358491e+00 3.125732e+00 3.024375e+00 3.669678e+00 3.178414e+00 2.664217e+00 2.899224e+00 2.436845e+00 5.033377e+00 3.927859e-01 4.190547e-01 3.991563e-01 4.514541e-01 5.906611e-01 5.447152e-01 5.501792e-01 6.469660e-01 5.645853e-01 4.966201e-01 5.287678e-01 4.459183e-01 6.618989e-01
<GCONST> 1.316507e+02
<STATE> 4
<MEAN> 39
 -5.720369e+00 -3.212366e+00 -9.603557e-01 -4.140341e+00 -8.282138e+00 -2.741488e+00 -8.362382e+00 -2.900852e+00 -4.227129e+00 -2.588475e+00 -1.643602e+00 -5.417910e+00 5.514945e+01 4.041251e-04 8.054070e-04 2.982348e-04 -7.923298e-04 1.777842e-04 5.770657e-04 1.920456e-06 -1.539215e-03 -3.851559e-04 2.390032e-04 -1.168943e-03 -1.209440e-03 7.453487e-05 5.293762e-05 1.484293e-04 1.038093e-04 6.097702e-05 2.683362e-05 9.535497e-05 -3.359811e-05 -1.456941e-05 1.142907e-04 1.394317e-04 6.521364e-05 -2.366633e-05 -8.404750e-05
<VARIANCE> 39
 6.548970e+01 6.558094e+01 6.975499e+01 5.597869e+01 7.619009e+01 6.664177e+01 6.092598e+01 6.794641e+01 5.794476e+01 4.215612e+01 4.686914e+01 4.500091e+01 2.513958e+02 2.532669e+00 2.732701e+00 2.556041e+00 2.640352e+00 3.358491e+00 3.125732e+00 3.024375e+00 3.669678e+00 3.178414e+00 2.664217e+00 2.899224e+00 2.436845e+00 5.033377e+00 3.927859e-01 4.190547e-01 3.991563e-01 4.514541e-01 5.906611e-01 5.447152e-01 5.501792e-01 6.469660e-01 5.645853e-01 4.966201e-01 5.287678e-01 4.459183e-01 6.618989e-01
<GCONST> 1.316507e+02
<TRANSP> 5
 0.000000e+00 1.000000e+00 0.000000e+00 0.000000e+00 0.000000e+00
 0.000000e+00 6.000000e-01 4.000000e-01 0.000000e+00 0.000000e+00
 0.000000e+00 0.000000e+00 6.000000e-01 4.000000e-01 0.000000e+00
 0.000000e+00 0.000000e+00 0.000000e+00 7.000000e-01 3.000000e-01
 0.000000e+00 0.000000e+00 0.000000e+00 0.000000e+00 0.000000e+00
<ENDHMM>
~h "w"
<BEGINHMM>
<NUMSTATES> 5
<STATE> 2
<MEAN> 39
 -2.619572e+00 -2.797579e+00 -2.125724e+00 -7.528767e+00 -9.861835e+00 -9.209188e-01 -1.052289e+01 -5.385914e+00 -4.773276e+00 -2.311149e+00 -4.099022e-01 -6.035052e+00 6.056945e+01 5.510188e-01 -5.790701e-02 -7.234556e-02 -9.095418e-01 -5.200109e-01 6.323490e-01 -3.461046e-01 -1.483648e-01 -1.918241e-01 -7.961449e-02 4.659534e-01 7.487588e-02 8.046465e-01 -2.886042e-02 -1.219484e-01 -1.829702e-02 -5.012741e-02 -4.705997e-02 3.526168e-02 2.583405e-02 1.179473e-01 3.273916e-02 -4.449827e-02 -1.389171e-02 -5.259262e-02 8.263151e-02
<VARIANCE> 39
 7.605330e+01 5.992692e+01 7.361708e+01 9.079134e+01 7.135680e+01 8.186967e+01 6.132929e+01 7.554695e+01 6.503320e+01 4.942001e+01 5.725667e+01 3.968996e+01 1.548940e+02 4.863048e+00 3.674636e+00 4.241344e+00 4.295456e+00 5.174283e+00 4.586255e+00 4.070772e+00 4.718464e+00 3.728017e+00 3.617585e+00 3.936304e+00 3.285450e+00 8.836217e+00 7.375234e-01 5.120006e-01 6.000358e-01 6.738882e-01 8.180636e-01 7.187396e-01 7.264588e-01 7.822308e-01 6.470403e-01 6.614688e-01 6.828587e-01 5.711724e-01 1.037044e+00
<GCONST> 1.413882e+02
<STATE> 3
<MEAN> 39
 9.468200e-01 -3.662840e+00 -2.257571e+00 -1.338558e+01 -1.339503e+01 2.469095e+00 -1.120919e+01 -6.698158e+00 -3.858076e+00 -4.508162e+00 2.275683e+00 -5.903100e+00 6.427599e+01 9.056330e-02 -4.293258e-01 -1.662189e-01 -3.813340e-01 -7.123744e-02 3.110467e-01 -8.876938e-02 1.508998e-01 1.363877e-01 2.908317e-02 1.189312e-01 -1.692110e-01 3.825579e-01 -1.740053e-01 -1.503553e-01 -5.162378e-02 2.454103e-01 2.308422e-01 -1.211882e-01 7.333074e-02 1.045843e-01 1.123711e-01 4.289798e-02 -1.646722e-01 -1.645478e-01 -1.729785e-02
<VARIANCE> 39
 4.611393e+01 5.463065e+01 7.347905e+01 1.352587e+02 6.568575e+01 8.914888e+01 5.642688e+01 7.842162e+01 7.446084e+01 6.928222e+01 6.715261e+01 3.455931e+01 9.884209e+01 1.908491e+00 3.278374e+00 2.782406e+00 2.889385e+00 3.499423e+00 3.281038e+00 3.056681e+00 3.484817e+00 3.331444e+00 3.081290e+00 3.228218e+00 2.856445e+00 4.443727e+00 3.167158e-01 3.626189e-01 4.264708e-01 4.992060e-01 5.691001e-01 5.747917e-01 5.351239e-01 5.859397e-01 5.130883e-01 5.865983e-01 6.166402e-01 4.886424e-01 4.491640e-01
<GCONST> 1.322522e+02
<STATE> 4
<MEAN> 39
 1.280866e-01 -6.201907e+00 -3.405871e+00 -1.222371e+01 -1.231684e+01 3.425097e+00 -1.290440e+01 -4.198236e+00 -5.430469e+00 -2.063092e+00 -6.940849e-01 -8.733438e+00 6.657145e+01 -2.128882e-01 -4.159031e-01 -5.119301e-02 3.734126e-01 3.307952e-01 -2.117777e-01 1.182621e-01 2.438621e-01 2.207608e-01 -6.242358e-02 -3.300023e-01 -2.935020e-01 8.869295e-02 -6.584456e-02 3.766668e-02 4.031514e-02 1.030447e-01 3.123740e-02 -9.600392e-02 7.183210e-02 2.629381e-02 8.762649e-03 -9.111915e-02 -6.450604e-02 4.072369e-02 -7.145703e-02
<VARIANCE> 39
 3.847676e+01 7.241611e+01 9.041556e+01 1.033088e+02 8.154766e+01 1.089060e+02 6.088934e+01 7.622559e+01 7.756225e+01 6.047471e+01 6.604053e+01 4.169651e+01 1.061737e+02 1.839841e+00 3.308663e+00 2.993209e+00 3.086019e+00 4.027266e+00 3.955567e+00 2.926729e+00 3.803149e+00 3.544022e+00 3.180918e+00 3.393915e+00 2.750666e+00 4.157175e+00 2.881980e-01 3.823285e-01 4.341609e-01 4.575614e-01 6.547192e-01 6.445028e-01 5.398747e-01 6.040579e-01 5.800807e-01 5.800159e-01 5.900045e-01 4.562606e-01 4.715050e-01
<GCONST> 1.336552e+02
<TRANSP> 5
 0.000000e+00 1.000000e+00 0.000000e+00 0.000000e+00 0.000000e+00
 0.000000e+00 5.172331e-01 4.827669e-01 0.000000e+00 0.000000e+00
 0.000000e+00 0.000000e+00 5.055439e-01 4.944561e-01 0.000000e+00
 0.000000e+00 0.000000e+00 0.000000e+00 7.300349e-01 2.699650e-01
 0.000000e+00 0.000000e+00 0.000000e+00 0.000000e+00 0.000000e+00
<ENDHMM>
~h "y"
<BEGINHMM>
<NUMSTATES> 5
<STATE> 2
<MEAN> 39
 -3.534422e+00 -8.152488e+00 -3.355193e-02 -7.400851e+00 -1.196180e+01 -4.892754e+00 -9.739139e+00 -3.171684e-01 -3.236300e+00 -5.020315e+00 -5.564328e-01 -7.498909e+00 6.533250e+01 -1.149697e-01 -1.293217e-01 -8.201590e-02 8.959955e-03 1.812499e-01 2.474882e-02 1.191455e-01 1.401360e-01 -6.238502e-02 -3.967110e-02 -1.690330e-01 1.127441e-02 -2.789085e-01 -4.129727e-03 7.868233e-02 1.270088e-03 3.400885e-02 5.884043e-02 4.029196e-03 -1.256547e-02 -8.915716e-02 -3.821093e-02 3.125120e-02 -2.605377e-02 1.018598e-02 -5.657528e-02
<VARIANCE> 39
 3.745499e+01 6.765810e+01 8.944850e+01 4.983662e+01 7.807552e+01 9.934253e+01 4.794532e+01 8.575873e+01 5.711213e+01 5.956909e+01 6.453355e+01 4.056196e+01 1.742272e+02 7.145957e-01 1.933407e+00 2.504072e+00 1.318830e+00 2.531347e+00 2.373197e+00 2.047620e+00 3.038459e+00 2.286928e+00 1.997237e+00 2.734183e+00 1.857266e+00 1.470151e+00 1.308502e-01 2.715823e-01 2.789557e-01 2.351682e-01 3.955913e-01 3.627805e-01 3.771570e-01 5.495888e-01 3.841138e-01 3.589343e-01 4.166933e-01 3.314376e-01 1.973826e-01
<GCONST> 1.198657e+02
<STATE> 3
<MEAN> 39
 -6.100219e+00 -5.251598e+00 -1.726337e+00 -4.368078e+00 -7.464980e+00 -4.198944e+00 -7.140114e+00 -1.164119e+00 -4.135436e+00 -4.364278e+00 -2.689372e+00 -5.079753e+00 5.351002e+01 -1.106828e-01 1.211835e-01 -3.294790e-02 6.522135e-02 1.572793e-01 6.853098e-02 1.008820e-01 -3.260767e-02 -3.294412e-02 6.626311e-02 -7.074329e-02 3.837160e-02 -4.293960e-01 1.893336e-02 2.435219e-02 1.481933e-03 7.590046e-03 4.161028e-03 -4.591647e-03 -1.192510e-02 -1.055339e-02 5.378131e-03 2.015819e-02 -4.662303e-04 -1.352653e-02 5.076702e-03
<VARIANCE> 39
 4.332084e+01 6.567616e+01 5.833003e+01 4.508551e+01 6.208394e+01 5.626326e+01 4.197573e+01 5.970222e+01 3.767929e+01 4.298150e+01 4.235262e+01 3.597932e+01 2.406613e+02 5.579439e-01 1.305116e+00 1.396747e+00 1.093393e+00 1.678452e+00 1.585386e+00 1.652510e+00 2.056245e+00 1.725021e+00 1.683398e+00 1.846895e+00 1.469171e+00 1.049352e+00 8.861413e-02 1.968437e-01 2.094070e-01 1.948476e-01 2.778338e-01 2.758965e-01 3.107970e-01 3.802239e-01 3.171996e-01 3.172896e-01 3.251031e-01 2.762595e-01 1.214482e-01
<GCONST> 1.093467e+02
<STATE> 4
<MEAN> 39
 -1.796317e+00 -1.133645e+01 -2.534284e+00 -9.083585e+00 -9.709160e+00 -1.778977e+00 -1.027665e+01 3.426942e+00 -6.525643e+00 -1.693626e+00 -4.410439e+00 -9.030056e+00 6.835841e+01 8.039465e-02 1.757043e-01 -4.453488e-02 1.970915e-01 1.904717e-01 1.773955e-02 5.522819e-02 -1.989407e-01 -1.593705e-02 -3.022318e-03 -1.933670e-01 -9.329738e-03 -3.564140e-01 -3.887699e-04 7.182356e-02 2.375050e-02 4.721351e-02 8.350024e-03 -1.629850e-02 -5.857825e-03 -8.102071e-02 3.912735e-02 -2.714628e-02 3.455576e-02 2.536429e-02 -6.200388e-02
<VARIANCE> 39
 3.254520e+01 6.983401e+01 7.377654e+01 6.029193e+01 8.395597e+01 7.061370e+01 5.476218e+01 8.647408e+01 4.970283e+01 7.134384e+01 5.217691e+01 4.132703e+01 1.239255e+02 9.521559e-01 2.437083e+00 2.312858e+00 1.869515e+00 3.033826e+00 2.386321e+00 2.736837e+00 3.654952e+00 2.470854e+00 2.544906e+00 2.622808e+00 1.928175e+00 2.539299e+00 1.489319e-01 3.303292e-01 3.047984e-01 3.021604e-01 4.340003e-01 3.649274e-01 4.720858e-01 5.847992e-01 4.178905e-01 4.449756e-01 4.273596e-01 3.278207e-01 3.012620e-01
<GCONST> 1.232316e+02
<TRANSP> 5
 0.000000e+00 1.000000e+00 0.000000e+00 0.000000e+00 0.000000e+00
 0.000000e+00 6.357856e-01 3.642144e-01 0.000000e+00 0.000000e+00
 0.000000e+00 0.000000e+00 8.065250e-01 1.934750e-01 0.000000e+00
 0.000000e+00 0.000000e+00 0.000000e+00 7.800282e-01 2.199718e-01
 0.000000e+00 0.000000e+00 0.000000e+00 0.000000e+00 0.000000e+00
<ENDHMM>
~h "z"
<BEGINHMM>
<NUMSTATES> 5
<STATE> 2
<MEAN> 39
 -4.993532e+00 -1.739910e+00 -2.076332e+00 -2.083663e+00 -5.816426e+00 -3.627681e+00 -8.214763e+00 -1.793055e+00 -3.000317e+00 -3.314287e+00 -4.682099e+00 -3.977014e+00 5.489449e+01 -7.605073e-01 5.284352e-01 -1.182055e-01 3.713005e-01 4.636373e-01 -8.120777e-02 4.606062e-01 6.444319e-02 4.670504e-02 2.712106e-02 1.260261e-01 4.182028e-01 -9.840543e-01 2.469623e-02 -9.388897e-02 4.447943e-02 -5.782147e-02 -7.149297e-02 3.322142e-02 -8.871922e-02 2.464153e-02 -1.237725e-02 2.106245e-02 5.522098e-02 -8.487751e-02 8.526072e-02
<VARIANCE> 39
 7.210976e+01 6.604386e+01 4.294945e+01 4.478100e+01 4.203099e+01 5.220618e+01 4.185480e+01 5.732180e+01 4.267434e+01 3.559756e+01 4.180052e+01 3.295385e+01 1.640004e+02 1.953044e+00 2.390690e+00 1.745601e+00 1.955602e+00 2.310564e+00 2.337877e+00 2.102992e+00 2.341532e+00 2.141537e+00 2.126736e+00 2.248408e+00 1.713288e+00 1.727558e+00 2.388363e-01 3.432972e-01 2.571937e-01 3.055343e-01 4.144285e-01 3.876877e-01 3.745781e-01 4.288952e-01 3.879485e-01 3.782177e-01 4.055177e-01 3.258134e-01 2.122093e-01
<GCONST> 1.181039e+02
<STATE> 3
<MEAN> 39
 -1.130638e+01 -7.586975e-01 -2.724273e+00 -9.913656e-01 -3.806970e+00 -4.444849e+00 -4.876358e+00 -1.947359e+00 -3.224506e+00 -2.786726e+00 -1.653445e+00 -1.468398e+00 4.275549e+01 -1.679918e-01 8.046941e-02 2.050308e-02 6.984934e-02 4.653487e-02 5.622318e-02 1.084055e-01 1.592199e-02 4.576990e-02 5.408380e-02 2.761312e-02 2.324373e-02 -2.331417e-01 5.660316e-02 -3.669086e-02 2.552355e-02 -2.681808e-02 -3.049058e-02 -8.492876e-03 -3.980597e-02 -1.982672e-02 -1.421202e-02 -3.593809e-03 -1.350561e-02 -2.277962e-02 7.482208e-02
<VARIANCE> 39
 5.498331e+01 4.991645e+01 2.876258e+01 2.373635e+01 2.527926e+01 3.132557e+01 2.822735e+01 2.845338e+01 2.636640e+01 2.352122e+01 2.105182e+01 1.882252e+01 1.223628e+02 6.713422e-01 1.006206e+00 9.351631e-01 1.064909e+00 1.249302e+00 1.432089e+00 1.558087e+00 1.517369e+00 1.636110e+00 1.556952e+00 1.479745e+00 1.380528e+00 7.461627e-01 1.397812e-01 1.776597e-01 1.648829e-01 2.111401e-01 2.501011e-01 2.840234e-01 3.102169e-01 2.998095e-01 3.172243e-01 3.133343e-01 2.924089e-01 2.707831e-01 1.259133e-01
<GCONST> 1.001152e+02
<STATE> 4
<MEAN> 39
 -9.006098e+00 2.161343e+00 -7.117355e-01 -7.644211e-01 -5.202236e+00 -5.212567e+00 -7.039964e+00 -3.320977e+00 -3.245390e+00 -2.082556e+00 -2.058339e+00 -3.155398e+00 5.386544e+01 4.857705e-01 -3.872090e-01 2.179224e-01 -2.929088e-01 -4.921623e-01 -2.252853e-01 -4.511287e-01 -3.012968e-01 -4.822501e-02 -3.706290e-02 4.887529e-02 -6.756619e-02 9.013721e-01 2.438865e-01 -2.299301e-01 -6.180680e-02 -1.836279e-01 -2.119320e-01 3.815220e-02 -1.315264e-01 -2.196280e-02 2.409299e-02 -2.809555e-02 6.365507e-02 -1.116127e-01 3.441005e-01
<VARIANCE> 39
 8.612198e+01 6.512737e+01 4.212126e+01 4.353256e+01 4.441044e+01 5.224881e+01 4.359734e+01 5.633039e+01 3.643674e+01 2.756234e+01 3.292976e+01 2.807883e+01 1.883727e+02 4.319997e+00 4.021369e+00 2.100416e+00 2.848009e+00 3.427839e+00 3.255180e+00 3.061226e+00 3.579403e+00 2.354910e+00 2.301563e+00 2.096606e+00 1.981058e+00 5.204521e+00 6.652203e-01 5.302240e-01 3.866642e-01 4.739157e-01 5.907624e-01 6.333508e-01 5.390151e-01 6.847053e-01 4.462849e-01 4.468429e-01 4.083137e-01 4.364546e-01 7.797661e-01
<GCONST> 1.282676e+02
<TRANSP> 5
 0.000000e+00 1.000000e+00 0.000000e+00 0.000000e+00 0.000000e+00
 0.000000e+00 7.339438e-01 2.660562e-01 0.000000e+00 0.000000e+00
 0.000000e+00 0.000000e+00 9.132404e-01 8.675963e-02 0.000000e+00
 0.000000e+00 0.000000e+00 0.000000e+00 6.597577e-01 3.402423e-01
 0.000000e+00 0.000000e+00 0.000000e+00 0.000000e+00 0.000000e+00
<ENDHMM>
~h "ai"
<BEGINHMM>
<NUMSTATES> 5
<STATE> 2
<MEAN> 39
 -5.603689e+00 -1.096500e+00 2.396067e-01 -2.981009e+00 -8.631498e+00 -5.365739e+00 -8.219750e+00 -3.946667e+00 -3.935168e+00 -3.025745e+00 -1.700387e+00 -4.408205e+00 5.755950e+01 -2.417540e-01 -9.811362e-01 -8.825941e-02 -4.581228e-01 -5.141683e-01 -2.878933e-01 -2.660578e-01 2.828034e-01 1.154948e-01 -1.144242e-01 3.779837e-01 5.182900e-02 1.943579e+00 1.903328e-01 -2.176318e-01 5.420395e-02 -1.318823e-01 -3.863929e-01 1.195257e-01 -1.441679e-01 9.780495e-02 -3.083317e-02 -3.526177e-02 1.363051e-01 -1.849903e-01 3.932418e-01
<VARIANCE> 39
 8.633907e+01 7.909055e+01 7.174741e+01 5.584793e+01 7.483285e+01 7.568394e+01 4.485036e+01 6.655598e+01 6.319648e+01 4.259948e+01 4.890423e+01 3.831944e+01 1.523797e+02 8.391635e+00 6.896910e+00 5.575109e+00 4.999496e+00 8.571235e+00 6.173590e+00 5.163841e+00 6.039965e+00 6.371893e+00 4.627741e+00 5.162382e+00 4.194529e+00 1.540708e+01 1.356543e+00 1.126478e+00 8.043084e-01 8.391607e-01 1.462621e+00 1.101101e+00 8.843296e-01 9.670712e-01 1.039557e+00 8.299069e-01 9.869819e-01 7.175060e-01 2.280107e+00
<GCONST> 1.505766e+02
<STATE> 3
<MEAN> 39
 -3.581076e+00 -7.994666e+00 1.471780e+00 -6.564045e+00 -1.395811e+01 -7.190974e+00 -1.078824e+01 -1.937154e+00 -3.318810e+00 -5.659571e+00 1.553200e+00 -6.869395e+00 6.836015e+01 6.187675e-01 -9.260433e-01 3.369510e-01 -4.384826e-01 -1.468871e+00 4.546237e-01 -6.286129e-01 6.520309e-01 -2.815479e-02 -3.090339e-01 5.504615e-01 -6.520581e-01 1.340852e+00 -2.513403e-02 3.456506e-01 -4.949550e-02 2.028305e-01 2.814450e-01 2.120876e-01 1.847941e-01 -5.349309e-02 -1.100408e-01 1.214345e-01 -2.044357e-01 -1.408699e-02 -6.851533e-01
<VARIANCE> 39
 3.987110e+01 7.615221e+01 8.975862e+01 5.946083e+01 8.234950e+01 1.298678e+02 5.588829e+01 7.224733e+01 7.320415e+01 6.658996e+01 6.283226e+01 3.997014e+01 9.243108e+01 4.446645e+00 4.992716e+00 4.899051e+00 4.295523e+00 8.169464e+00 5.645044e+00 5.211215e+00 5.740403e+00 5.932277e+00 4.300366e+00 4.961432e+00 3.933833e+00 7.808250e+00 7.143888e-01 6.663028e-01 7.902631e-01 6.909490e-01 1.299928e+00 1.022156e+00 8.951414e-01 9.296423e-01 1.028650e+00 7.391591e-01 8.392500e-01 6.352899e-01 9.705251e-01
<GCONST> 1.461680e+02
<STATE> 4
<MEAN> 39
 -1.404882e+00 -7.048647e+00 2.500202e+00 -5.716272e+00 -1.825946e+01 -2.363265e+00 -1.153913e+01 -1.770944e+00 -4.946949e+00 -3.749681e+00 9.399811e-01 -8.872019e+00 6.776666e+01 4.940972e-02 2.787300e-01 -2.469431e-02 1.236214e-01 2.226434e-01 -7.187183e-03 1.350664e-01 -5.361320e-02 -1.047204e-01 1.634538e-01 -1.919808e-01 -3.271972e-02 -4.861210e-01 -6.890874e-02 1.150060e-01 -5.206505e-02 5.167656e-02 1.937121e-01 -4.813118e-02 9.382209e-02 -7.005690e-02 2.034269e-02 1.171108e-02 -8.180667e-02 7.092711e-02 -1.785009e-01
<VARIANCE> 39
 3.735215e+01 7.733860e+01 9.964238e+01 5.989389e+01 8.756654e+01 1.008374e+02 6.282095e+01 1.089023e+02 7.204450e+01 5.031826e+01 6.120320e+01 4.451799e+01 9.207855e+01 2.117459e+00 3.334565e+00 3.352257e+00 2.733985e+00 5.297058e+00 3.907263e+00 3.680606e+00 4.514434e+00 3.590313e+00 2.764104e+00 3.668562e+00 2.704750e+00 4.917088e+00 3.694877e-01 4.777305e-01 5.124709e-01 4.767154e-01 9.472636e-01 6.338768e-01 6.972679e-01 7.723581e-01 6.371224e-01 5.072638e-01 6.655186e-01 4.994655e-01 6.804464e-01
<GCONST> 1.361892e+02
<TRANSP> 5
 0.000000e+00 1.000000e+00 0.000000e+00 0.000000e+00 0.000000e+00
 0.000000e+00 6.887789e-01 3.112211e-01 0.000000e+00 0.000000e+00
 0.000000e+00 0.000000e+00 5.105453e-01 4.894547e-01 0.000000e+00
 0.000000e+00 0.000000e+00 0.000000e+00 8.480510e-01 1.519491e-01
 0.000000e+00 0.000000e+00 0.000000e+00 0.000000e+00 0.000000e+00
<ENDHMM>
~h "au"
<BEGINHMM>
<NUMSTATES> 5
<STATE> 2
<MEAN> 39
 -8.745646e+00 -1.691718e+00 -2.054762e+00 -1.178882e+00 -3.747403e+00 -4.197623e+00 -5.588986e+00 -1.209670e+00 -3.312141e+00 -3.218971e+00 -2.926373e+00 -2.386111e+00 4.382203e+01 -1.729411e-01 2.101924e-02 -1.483751e-02 5.549363e-02 1.389181e-01 1.136639e-03 1.229865e-01 1.138787e-02 1.302625e-02 -4.046635e-02 9.867784e-02 1.332572e-01 -3.512536e-01 1.095335e-02 1.662038e-03 3.616561e-03 -1.996496e-02 -2.102761e-02 5.703956e-03 -1.400924e-02 -1.017694e-03 -3.456879e-03 1.207812e-02 6.424308e-03 -3.585535e-03 3.113214e-02
<VARIANCE> 39
