~o
<STREAMINFO> 1 39
<VECSIZE> 39<NULLD><MFCC_D_A_0><DIAGC>
~s "silst"
<MEAN> 39
 -1.032518e+01 2.094743e+00 -1.899813e+00 -2.989005e-01 -2.379600e+00 -1.910536e+00 -2.532614e+00 -2.056268e+00 -2.306135e+00 -1.791711e+00 -1.304382e+00 -1.444359e+00 3.555175e+01 -3.175927e-02 1.621014e-02 2.942106e-03 -8.700235e-03 2.109036e-02 4.017306e-02 2.345850e-02 -2.252585e-03 1.358938e-02 3.463334e-02 1.471426e-02 -1.841131e-03 -3.162438e-02 -3.370772e-04 -2.562242e-02 -7.730582e-04 -1.101970e-04 -1.226154e-02 -1.069676e-02 -1.190809e-02 3.628598e-03 -9.892676e-03 -4.065494e-03 -9.892767e-03 3.004833e-04 2.868570e-02
<VARIANCE> 39
 8.865281e+00 7.079462e+00 9.165390e+00 1.099119e+01 1.210071e+01 1.438909e+01 1.505721e+01 1.785450e+01 1.674758e+01 1.652952e+01 1.542279e+01 1.469398e+01 2.210819e+01 1.499094e-01 3.190707e-01 4.838970e-01 6.833405e-01 8.812297e-01 1.072299e+00 1.204365e+00 1.394323e+00 1.396467e+00 1.408978e+00 1.335341e+00 1.235716e+00 7.592287e-02 3.080753e-02 6.693363e-02 1.003652e-01 1.424114e-01 1.827444e-01 2.208557e-01 2.481451e-01 2.871165e-01 2.888888e-01 2.914279e-01 2.750389e-01 2.564948e-01 1.633369e-02
<GCONST> 7.471595e+01
~h "@"
<BEGINHMM>
<NUMSTATES> 5
<STATE> 2
<MEAN> 39
 -1.163512e+01 8.270336e-01 -7.534519e-01 -2.035361e+00 -5.327745e+00 -5.729214e+00 -6.563472e+00 -3.842163e+00 -3.767299e+00 -2.145815e+00 -1.926662e+00 -2.500918e+00 5.564699e+01 2.657852e-01 -6.938587e-01 -1.961757e-01 -6.332424e-01 -3.935699e-01 -2.892908e-03 -5.032462e-01 1.905004e-01 2.256457e-01 -9.260416e-02 2.728510e-01 -2.827261e-01 1.818526e+00 4.492655e-01 -2.778215e-01 -1.706515e-02 -1.973436e-01 -3.887067e-01 1.813196e-01 -2.756990e-01 6.136131e-02 2.451650e-02 8.303652e-03 1.223256e-01 -2.812424e-01 3.952781e-01
<VARIANCE> 39
 1.183466e+02 4.915306e+01 6.240947e+01 3.781053e+01 5.088013e+01 5.080091e+01 4.621014e+01 4.919576e+01 4.583255e+01 3.108803e+01 3.304610e+01 2.926637e+01 1.588642e+02 1.034275e+01 4.913134e+00 4.967248e+00 4.484643e+00 5.814445e+00 4.546919e+00 4.990431e+00 5.002454e+00 4.840616e+00 3.225731e+00 3.796154e+00 3.706995e+00 1.311315e+01 1.143128e+00 7.697193e-01 6.756546e-01 6.293809e-01 8.704568e-01 7.803492e-01 7.446591e-01 8.334124e-01 7.634290e-01 5.771497e-01 6.498188e-01 5.905964e-01 1.531362e+00
<GCONST> 1.411947e+02
<STATE> 3
<MEAN> 39
 -2.718110e+00 -5.116927e+00 -1.354557e+00 -7.461421e+00 -1.142628e+01 -4.469604e+00 -1.241788e+01 -4.186215e+00 -4.159916e+00 -2.337680e+00 1.266973e-01 -7.070017e+00 6.664990e+01 2.023511e+00 -1.710984e+00 -2.121244e-01 -1.573069e+00 -1.988560e+00 1.107235e+00 -1.712057e+00 7.632959e-01 6.986127e-01 -5.913303e-02 1.099403e+00 -1.781286e+00 2.993781e+00 -3.580257e-01 1.942847e-01 -1.605276e-02 3.442650e-01 2.842167e-01 2.797227e-01 3.549679e-01 9.826578e-02 1.707224e-02 1.050207e-02 -1.505474e-01 6.987790e-02 -9.840183e-01
<VARIANCE> 39
 3.881348e+01 4.313708e+01 9.249525e+01 6.110354e+01 6.611958e+01 9.044417e+01 5.399689e+01 7.313501e+01 7.413765e+01 4.532152e+01 5.182258e+01 4.201310e+01 9.635706e+01 5.526893e+00 4.577484e+00 5.937878e+00 4.771339e+00 6.016043e+00 6.441822e+00 5.592017e+00 8.155565e+00 8.054530e+00 4.539358e+00 5.187711e+00 4.574388e+00 8.116089e+00 9.067019e-01 5.836876e-01 8.340009e-01 7.771614e-01 9.479273e-01 9.768000e-01 8.314719e-01 9.450745e-01 9.535969e-01 6.824219e-01 8.749154e-01 7.332600e-01 9.611982e-01
<GCONST> 1.457017e+02
<STATE> 4
<MEAN> 39
 -5.638208e-01 -8.713656e+00 -2.229181e+00 -9.300412e+00 -1.375494e+01 -1.615435e-01 -1.414211e+01 -2.355530e+00 -2.733049e+00 -2.740858e+00 8.808399e-01 -1.054697e+01 7.046876e+01 2.541451e-01 5.568193e-02 7.270385e-02 3.050819e-01 9.026405e-02 1.365508e-01 6.727140e-02 2.935031e-02 -5.828770e-02 5.976604e-02 -2.437650e-01 -7.303108e-02 -3.456881e-01 -1.758555e-01 4.139595e-01 1.285538e-01 3.583727e-01 2.909373e-01 -2.349906e-01 3.076096e-01 -2.213073e-01 -2.028656e-01 3.289516e-02 -2.416054e-01 2.933298e-01 -5.987688e-01
<VARIANCE> 39
 2.525756e+01 5.425943e+01 9.326296e+01 6.716565e+01 7.393989e+01 1.052765e+02 6.056001e+01 1.051155e+02 9.700424e+01 5.542652e+01 6.434743e+01 4.779198e+01 6.413161e+01 1.249693e+00 3.201995e+00 2.861998e+00 3.467603e+00 3.720799e+00 4.549121e+00 3.394147e+00 5.068851e+00 4.546262e+00 3.178931e+00 3.747798e+00 3.032882e+00 3.847087e+00 3.488454e-01 4.863339e-01 5.279645e-01 6.505921e-01 7.919771e-01 7.899477e-01 7.449050e-01 1.021091e+00 9.253165e-01 6.566495e-01 7.656761e-01 6.317970e-01 6.334839e-01
<GCONST> 1.366815e+02
<TRANSP> 5
 0.000000e+00 1.000000e+00 0.000000e+00 0.000000e+00 0.000000e+00
 0.000000e+00 6.481982e-01 3.518018e-01 0.000000e+00 0.000000e+00
 0.000000e+00 0.000000e+00 3.666347e-01 6.333653e-01 0.000000e+00
 0.000000e+00 0.000000e+00 0.000000e+00 7.525839e-01 2.474161e-01
 0.000000e+00 0.000000e+00 0.000000e+00 0.000000e+00 0.000000e+00
<ENDHMM>
~h "a"
<BEGINHMM>
<NUMSTATES> 5
<STATE> 2
<MEAN> 39
 -1.122639e+00 -1.139670e+01 -4.128260e+00 -1.010241e+01 -1.189483e+01 -4.048468e-01 -1.245661e+01 1.093442e+00 -1.343983e+00 -3.269454e+00 -1.025731e+00 -1.060955e+01 7.137112e+01 8.587886e-02 -1.596069e+00 -9.895408e-01 -4.266190e-01 5.418859e-01 1.181704e+00 1.014066e-01 1.089916e+00 7.276081e-01 -7.470999e-01 -7.002150e-01 -8.486060e-01 1.145233e+00 -2.193701e-01 4.351235e-01 2.244518e-01 4.383794e-01 3.390759e-01 -1.522677e-01 1.965552e-01 -4.259070e-01 -3.249444e-01 -4.000207e-03 -1.793827e-01 3.691376e-01 -6.265646e-01
<VARIANCE> 39
 2.532269e+01 5.252950e+01 6.354843e+01 5.202538e+01 7.399169e+01 9.389183e+01 5.777794e+01 9.033206e+01 6.938374e+01 6.179532e+01 5.928956e+01 4.404636e+01 8.805507e+01 1.394962e+00 2.523984e+00 2.783284e+00 2.817214e+00 3.774562e+00 3.963655e+00 3.586903e+00 5.030642e+00 4.017415e+00 3.870931e+00 4.196959e+00 3.147224e+00 2.448980e+00 3.115940e-01 3.831919e-01 4.253687e-01 4.831980e-01 7.106884e-01 7.106046e-01 6.559184e-01 8.495419e-01 6.766595e-01 6.682527e-01 7.555875e-01 5.643229e-01 5.432572e-01
<GCONST> 1.329946e+02
<STATE> 3
<MEAN> 39
 -1.996228e+00 -1.496089e+01 -6.725766e+00 -1.056820e+01 -8.150594e+00 2.296867e+00 -1.144608e+01 1.324055e+00 -1.114082e+00 -5.904011e+00 -3.793191e+00 -1.141011e+01 7.370073e+01 4.977052e-02 1.531165e-01 1.769451e-02 1.226061e-01 1.580180e-01 -1.192700e-01 -1.053774e-03 4.830126e-03 -2.299855e-01 6.281779e-02 -1.983436e-01 1.718204e-02 -3.014833e-01 6.213589e-02 3.419633e-01 1.796396e-01 8.952532e-02 -1.411862e-01 -2.580783e-01 -3.603280e-02 -1.195933e-01 -8.534235e-02 2.054940e-01 9.013113e-02 9.752683e-02 -2.935311e-01
<VARIANCE> 39
 2.029417e+01 5.271371e+01 4.772187e+01 4.009181e+01 6.073516e+01 7.502244e+01 4.897186e+01 7.537175e+01 6.776743e+01 6.364151e+01 5.002085e+01 4.316589e+01 5.780678e+01 3.577437e-01 9.406622e-01 1.033426e+00 1.082230e+00 1.890425e+00 2.024863e+00 1.606072e+00 2.028605e+00 1.578965e+00 1.674004e+00 1.790356e+00 1.457024e+00 5.894791e-01 7.961755e-02 1.911654e-01 1.715958e-01 1.984260e-01 2.870927e-01 2.881421e-01 3.141227e-01 3.982464e-01 3.127711e-01 3.076939e-01 3.354350e-01 2.832460e-01 1.381328e-01
<GCONST> 1.070892e+02
<STATE> 4
<MEAN> 39
 -4.495119e-01 -8.324841e+00 -3.926514e+00 -6.571645e+00 -8.264358e+00 -1.459884e+00 -1.080387e+01 -5.068138e-01 -3.506008e+00 -2.589467e+00 -4.944477e+00 -9.324391e+00 6.355368e+01 6.167322e-02 1.347060e+00 6.430651e-01 8.563653e-01 8.480906e-02 -5.790653e-01 2.547371e-01 -7.640879e-01 -3.213498e-01 2.778508e-01 -1.077156e-01 5.514486e-01 -1.994243e+00 -1.126681e-01 8.246800e-02 5.180870e-02 7.452824e-02 8.281137e-02 3.695926e-02 9.400339e-02 -1.106870e-01 -1.165993e-02 -6.715734e-02 9.971429e-03 8.100351e-02 -1.318676e-01
<VARIANCE> 39
 2.709351e+01 5.472234e+01 5.529347e+01 5.510917e+01 6.846824e+01 6.794051e+01 5.630521e+01 7.840086e+01 6.608249e+01 6.391290e+01 6.345019e+01 4.583096e+01 1.252132e+02 1.339013e+00 2.413394e+00 2.150251e+00 2.603601e+00 3.071580e+00 3.026675e+00 3.173960e+00 4.004613e+00 3.411006e+00 3.192941e+00 3.207061e+00 2.462670e+00 3.193521e+00 2.155462e-01 4.135486e-01 3.535285e-01 4.795556e-01 5.043043e-01 5.280928e-01 5.602085e-01 7.346196e-01 5.756319e-01 5.840739e-01 5.781997e-01 4.438626e-01 5.366266e-01
<GCONST> 1.287995e+02
<TRANSP> 5
 0.000000e+00 1.000000e+00 0.000000e+00 0.000000e+00 0.000000e+00
 0.000000e+00 5.667623e-01 4.332377e-01 0.000000e+00 0.000000e+00
 0.000000e+00 0.000000e+00 7.721407e-01 2.278593e-01 0.000000e+00
 0.000000e+00 0.000000e+00 0.000000e+00 7.157128e-01 2.842872e-01
 0.000000e+00 0.000000e+00 0.000000e+00 0.000000e+00 0.000000e+00
<ENDHMM>
~h "b"
<BEGINHMM>
<NUMSTATES> 5
<STATE> 2
<MEAN> 39
 -3.612380e-01 2.390534e+00 3.014251e+00 -7.941505e-01 -8.734174e+00 -2.270648e+00 -7.982664e+00 -6.404412e+00 -6.848750e+00 -1.951012e+00 -2.426274e+00 -5.955031e+00 5.152294e+01 -6.101459e-02 9.427805e-01 2.296018e-01 4.341666e-01 5.132187e-01 1.408430e-02 5.474030e-01 1.788473e-02 6.754917e-02 -1.341353e-02 -2.339113e-01 1.463898e-01 -1.349314e+00 -1.926914e-01 -2.775140e-01 -1.386034e-01 -2.222461e-01 -1.019720e-02 -7.924391e-02 -1.655331e-01 8.703883e-02 1.017756e-01 -3.701865e-02 1.312941e-01 5.041281e-02 5.211468e-01
<VARIANCE> 39
 6.717506e+01 3.637874e+01 5.403339e+01 3.804140e+01 5.819683e+01 5.640854e+01 4.344889e+01 5.259173e+01 5.757079e+01 4.013651e+01 4.356646e+01 3.136712e+01 1.085565e+02 1.795976e+00 2.099844e+00 1.950179e+00 2.044961e+00 2.547834e+00 2.555439e+00 2.568184e+00 3.036656e+00 2.798578e+00 2.393924e+00 2.345373e+00 1.974060e+00 3.415230e+00 3.703504e-01 3.585576e-01 3.684257e-01 4.170251e-01 5.173672e-01 4.896863e-01 4.937406e-01 5.923578e-01 5.912677e-01 4.769737e-01 4.682323e-01 4.115053e-01 5.622619e-01
<GCONST> 1.239082e+02
<STATE> 3
<MEAN> 39
 -2.185761e+00 5.145145e+00 3.159509e+00 3.057441e-01 -5.550425e+00 -2.537067e+00 -6.043790e+00 -5.814533e+00 -6.205032e+00 -2.353806e+00 -2.555187e+00 -4.942663e+00 4.839455e+01 -8.475416e-01 -1.108153e+00 -7.280638e-01 -8.077164e-01 3.177025e-01 -4.354618e-01 -5.269830e-01 9.851247e-02 4.725368e-01 4.640854e-02 5.321295e-01 5.114641e-01 2.394109e+00 -8.334358e-02 -8.747945e-01 -3.253350e-01 -5.954006e-01 -5.382906e-01 -3.900460e-02 -4.544122e-01 1.193032e-01 1.317497e-01 8.304907e-02 2.649139e-01 -1.064665e-01 1.339682e+00
<VARIANCE> 39
 8.626774e+01 4.106424e+01 4.053424e+01 3.355232e+01 4.809003e+01 5.140661e+01 3.826406e+01 4.502511e+01 4.969239e+01 3.032660e+01 3.639236e+01 3.004394e+01 1.160542e+02 6.529809e+00 5.082345e+00 4.436582e+00 4.317423e+00 4.964556e+00 4.364848e+00 4.151093e+00 4.341795e+00 4.908106e+00 3.588224e+00 3.633123e+00 3.083476e+00 1.020990e+01 9.294632e-01 6.484862e-01 6.210262e-01 6.540599e-01 8.413676e-01 8.241326e-01 6.361756e-01 8.867021e-01 9.667451e-01 6.451584e-01 6.699368e-01 6.282391e-01 1.127261e+00
<GCONST> 1.378654e+02
<STATE> 4
<MEAN> 39
 -3.883265e+00 -3.454266e+00 -1.481522e+00 -5.439985e+00 -8.805031e+00 -3.756468e+00 -1.110438e+01 -5.137092e+00 -5.302001e+00 -9.858505e-01 4.019170e-01 -4.998280e+00 6.360972e+01 2.731972e-01 -1.362886e+00 -3.993694e-01 -9.740727e-01 -1.099596e+00 -3.030742e-02 -8.961589e-01 5.469449e-01 5.215427e-01 6.920554e-02 4.741144e-01 -5.357177e-01 2.576948e+00 2.300435e-01 1.589610e-01 1.797540e-01 9.844606e-02 -1.654514e-01 2.128574e-01 1.007016e-01 1.703723e-01 -4.845594e-02 -1.155091e-01 -1.200645e-01 -2.383358e-01 -4.151684e-01
<VARIANCE> 39
 6.635041e+01 4.719261e+01 8.256696e+01 6.691751e+01 7.263575e+01 7.566423e+01 5.980584e+01 7.542281e+01 7.393199e+01 4.822683e+01 5.312988e+01 4.133057e+01 9.590794e+01 5.696594e+00 6.062967e+00 5.966744e+00 6.524943e+00 7.095018e+00 6.512212e+00 5.716059e+00 7.091823e+00 7.828382e+00 4.834967e+00 5.526942e+00 4.689438e+00 1.271414e+01 9.150288e-01 7.869770e-01 8.788083e-01 9.767169e-01 1.263990e+00 1.042891e+00 1.010224e+00 1.095885e+00 1.045355e+00 8.780146e-01 1.032709e+00 8.100612e-01 1.283939e+00
<GCONST> 1.498593e+02
<TRANSP> 5
 0.000000e+00 1.000000e+00 0.000000e+00 0.000000e+00 0.000000e+00
 0.000000e+00 7.035915e-01 2.964084e-01 0.000000e+00 0.000000e+00
 0.000000e+00 0.000000e+00 5.691657e-01 4.308343e-01 0.000000e+00
 0.000000e+00 0.000000e+00 0.000000e+00 6.665816e-01 3.334185e-01
 0.000000e+00 0.000000e+00 0.000000e+00 0.000000e+00 0.000000e+00
<ENDHMM>
~h "c"
<BEGINHMM>
<NUMSTATES> 5
<STATE> 2
<MEAN> 39
 -8.760732e+00 2.244575e+00 5.152485e-01 -7.704770e-01 -5.637404e+00 -6.294287e+00 -6.720322e+00 -3.223682e+00 -3.618925e+00 -2.625335e+00 -3.153685e+00 -3.624322e+00 4.826684e+01 -9.804471e-01 1.358632e-01 -2.734737e-01 1.151679e-02 4.745679e-01 3.173533e-02 3.279948e-01 5.387932e-02 1.220343e-01 -5.490914e-02 1.353789e-01 3.048041e-01 -6.468410e-01 -1.434865e-01 -3.257357e-01 -8.894349e-02 -2.265549e-01 -1.352924e-01 5.040648e-02 -9.547660e-02 1.790927e-02 -4.387789e-03 2.014997e-02 1.064223e-01 3.725833e-03 6.523669e-01
<VARIANCE> 39
 8.936802e+01 4.115293e+01 4.517014e+01 3.029325e+01 4.009728e+01 4.104319e+01 3.901020e+01 3.848166e+01 3.519539e+01 2.672827e+01 2.938227e+01 2.836683e+01 1.430034e+02 4.111505e+00 3.187603e+00 2.301320e+00 2.211036e+00 2.984294e+00 2.758237e+00 2.742526e+00 2.725249e+00 2.596370e+00 2.176672e+00 2.213126e+00 2.031673e+00 5.719560e+00 6.444610e-01 5.689709e-01 3.989944e-01 4.621092e-01 5.378525e-01 5.243238e-01 5.181393e-01 5.572590e-01 5.180037e-01 4.255393e-01 4.389607e-01 4.057854e-01 1.146471e+00
<GCONST> 1.253593e+02
<STATE> 3
<MEAN> 39
 -1.705647e+01 1.843113e-02 -1.843383e+00 -4.064161e+00 -4.722514e+00 -5.762971e+00 -5.729626e+00 -3.481040e+00 -3.240389e+00 -2.529596e+00 -1.609737e+00 -1.157157e+00 5.674208e+01 -3.562738e-02 -1.055236e+00 -1.265195e-02 -9.832876e-01 -9.949251e-01 -4.873658e-01 -8.151190e-01 1.004257e-02 1.182811e-01 -2.491833e-01 2.369574e-01 -1.088972e-01 3.853642e+00 1.217014e+00 -1.833830e-01 3.348277e-01 -3.759043e-02 -6.597384e-01 -4.855921e-03 -5.508200e-01 4.842693e-02 -1.164363e-02 -1.230997e-01 5.162855e-02 -5.406874e-01 2.577325e-01
<VARIANCE> 39
 9.627295e+01 3.838364e+01 5.167638e+01 3.964050e+01 3.635701e+01 4.055784e+01 3.682191e+01 3.550777e+01 3.168316e+01 2.590738e+01 2.396516e+01 2.224911e+01 1.401079e+02 1.253112e+01 4.555573e+00 6.186968e+00 4.392095e+00 5.280496e+00 4.933573e+00 4.621174e+00 4.603455e+00 4.413355e+00 3.164543e+00 3.250149e+00 3.307267e+00 1.233932e+01 1.311891e+00 9.616832e-01 9.063097e-01 8.060008e-01 9.132580e-01 9.579195e-01 7.369704e-01 9.662247e-01 8.300730e-01 6.419624e-01 6.461722e-01 5.451905e-01 1.821063e+00
<GCONST> 1.394808e+02
<STATE> 4
<MEAN> 39
 -4.493087e+00 -3.089491e+00 3.440205e+00 -3.993803e+00 -1.408565e+01 -7.377042e+00 -1.227962e+01 -4.188485e+00 -4.744078e+00 -4.409922e+00 2.102718e-01 -4.951887e+00 6.636900e+01 1.946198e+00 -1.402122e+00 3.568177e-02 -6.280439e-01 -1.403056e+00 4.009573e-01 -1.187344e+00 4.796804e-01 4.265333e-01 -8.474107e-02 5.340825e-01 -1.117460e+00 1.803969e+00 -2.110629e-01 1.222934e-02 -3.409548e-01 1.657394e-02 3.931707e-01 3.973353e-01 3.081823e-01 1.127780e-01 6.540454e-02 1.398530e-01 -7.214088e-02 -6.164377e-02 -5.806170e-01
<VARIANCE> 39
 4.396535e+01 4.976052e+01 1.037454e+02 5.887660e+01 7.747336e+01 7.474230e+01 5.800721e+01 7.242918e+01 7.051191e+01 4.452673e+01 4.864886e+01 3.220684e+01 8.477241e+01 7.491249e+00 5.687748e+00 6.346392e+00 4.565614e+00 8.465014e+00 5.653735e+00 5.848836e+00 7.111806e+00 6.363803e+00 4.422985e+00 4.959705e+00 3.984738e+00 8.098951e+00 9.051800e-01 6.727957e-01 7.658065e-01 7.124820e-01 1.280295e+00 9.670776e-01 9.781350e-01 9.905584e-01 8.713882e-01 6.397256e-01 8.802056e-01 6.052357e-01 1.165824e+00
<GCONST> 1.460883e+02
<TRANSP> 5
 0.000000e+00 1.000000e+00 0.000000e+00 0.000000e+00 0.000000e+00
 0.000000e+00 8.187874e-01 1.812126e-01 0.000000e+00 0.000000e+00
 0.000000e+00 0.000000e+00 6.439236e-01 3.560763e-01 0.000000e+00
 0.000000e+00 0.000000e+00 0.000000e+00 5.679489e-01 4.320511e-01
 0.000000e+00 0.000000e+00 0.000000e+00 0.000000e+00 0.000000e+00
<ENDHMM>
~h "d"
<BEGINHMM>
<NUMSTATES> 5
<STATE> 2
<MEAN> 39
 -4.962312e+00 2.944048e+00 2.309544e+00 5.817414e-01 -6.738597e+00 -5.791956e+00 -7.279555e+00 -3.488100e+00 -3.676092e+00 -2.488981e+00 -3.640883e+00 -5.121810e+00 4.943535e+01 -5.256369e-01 3.292270e-01 1.198915e-01 9.407545e-02 4.817911e-01 -1.525294e-01 2.598234e-01 1.584773e-01 1.394136e-01 -9.017216e-02 2.452994e-02 3.139167e-01 -3.132340e-01 -1.918890e-01 -4.930626e-01 -9.848521e-02 -3.514634e-01 -2.073985e-01 -1.126791e-02 -1.469064e-01 7.345727e-03 -9.615330e-02 4.887836e-03 2.271478e-01 6.766936e-02 8.570355e-01
<VARIANCE> 39
 1.137050e+02 3.806582e+01 5.442254e+01 3.613646e+01 4.702351e+01 4.470032e+01 4.426398e+01 4.546671e+01 4.379599e+01 3.292986e+01 3.341243e+01 3.484506e+01 1.326995e+02 5.147971e+00 3.527250e+00 2.772522e+00 2.696953e+00 3.430873e+00 3.059164e+00 3.043256e+00 3.576654e+00 3.100700e+00 2.615932e+00 2.766105e+00 2.466413e+00 6.390543e+00 8.469567e-01 6.187989e-01 4.899000e-01 5.542265e-01 6.726498e-01 6.132287e-01 5.731884e-01 7.826689e-01 6.820332e-01 5.236149e-01 5.865986e-01 4.671402e-01 1.125873e+00
<GCONST> 1.317888e+02
<STATE> 3
<MEAN> 39
 -8.724901e+00 -6.501417e-01 1.086735e+00 -2.209194e+00 -5.239044e+00 -6.053260e+00 -6.909079e+00 -3.506213e+00 -4.512050e+00 -2.351608e+00 -2.663580e+00 -2.755764e+00 5.653902e+01 -1.291272e-01 -1.677833e+00 -8.480334e-02 -1.240291e+00 -1.150954e+00 -4.107138e-01 -9.359717e-01 6.537607e-02 -3.501262e-01 -9.897829e-02 9.829464e-01 9.824610e-02 4.210465e+00 6.360278e-01 -1.458969e-01 9.884730e-02 -1.325780e-01 -8.193172e-01 1.838531e-01 -4.481319e-01 8.187310e-02 -8.203303e-03 -5.070054e-02 2.736901e-01 -4.627438e-01 3.619163e-01
<VARIANCE> 39
 8.704887e+01 5.004906e+01 8.182931e+01 4.234871e+01 4.870561e+01 5.260557e+01 4.375602e+01 4.343186e+01 4.475864e+01 3.271400e+01 3.218491e+01 2.843239e+01 1.418925e+02 1.022048e+01 5.349674e+00 6.902834e+00 4.964615e+00 7.005363e+00 5.787681e+00 5.181553e+00 7.141330e+00 6.401432e+00 3.874613e+00 4.883737e+00 4.253303e+00 1.152422e+01 1.087196e+00 9.023249e-01 9.661995e-01 8.354449e-01 1.032341e+00 9.934742e-01 8.599874e-01 1.081046e+00 9.924303e-01 7.028121e-01 7.494854e-01 6.368778e-01 1.785413e+00
<GCONST> 1.454059e+02
<STATE> 4
<MEAN> 39
 -1.920834e+00 -4.127948e+00 2.840414e+00 -4.780825e+00 -1.435780e+01 -4.463390e+00 -1.323161e+01 -3.761126e+00 -6.972491e+00 -2.347777e+00 1.721146e+00 -6.256656e+00 6.660333e+01 5.586476e-01 -8.158387e-01 -1.368073e-01 -5.976689e-01 -1.248499e+00 3.461572e-01 -7.150077e-01 4.390527e-01 1.766271e-01 -7.375114e-02 6.588679e-01 -5.844415e-01 1.409843e+00 -9.183919e-02 1.916040e-01 -1.395922e-01 1.395378e-01 3.165646e-01 1.773561e-01 2.767531e-01 4.355183e-02 1.469432e-01 -2.420238e-02 -2.953839e-01 -7.475287e-02 -5.951104e-01
<VARIANCE> 39
 3.557964e+01 4.771444e+01 1.086026e+02 5.802798e+01 7.727999e+01 9.918250e+01 6.097293e+01 9.122825e+01 8.501965e+01 5.327476e+01 5.736702e+01 3.924199e+01 8.512247e+01 4.086273e+00 4.410181e+00 5.445778e+00 4.671570e+00 7.694662e+00 5.703742e+00 5.722907e+00 8.042826e+00 6.736000e+00 4.301578e+00 5.589651e+00 3.911203e+00 8.107790e+00 6.743497e-01 5.881962e-01 7.211024e-01 7.140892e-01 1.083015e+00 1.025842e+00 9.238801e-01 1.135836e+00 9.907730e-01 7.523900e-01 9.171460e-01 6.663702e-01 1.051944e+00
<GCONST> 1.461250e+02
<TRANSP> 5
 0.000000e+00 1.000000e+00 0.000000e+00 0.000000e+00 0.000000e+00
 0.000000e+00 7.437829e-01 2.562172e-01 0.000000e+00 0.000000e+00
 0.000000e+00 0.000000e+00 5.576667e-01 4.423333e-01 0.000000e+00
 0.000000e+00 0.000000e+00 0.000000e+00 6.063253e-01 3.936747e-01
 0.000000e+00 0.000000e+00 0.000000e+00 0.000000e+00 0.000000e+00
<ENDHMM>
~h "e"
<BEGINHMM>
<NUMSTATES> 5
<STATE> 2
<MEAN> 39
 -1.207602e+00 -9.498336e+00 6.064385e-01 -7.954092e+00 -1.584907e+01 -2.921015e+00 -1.336220e+01 1.153555e+00 -3.585325e+00 -2.832442e+00 -1.620216e-01 -8.893480e+00 7.039742e+01 7.039894e-02 -9.933193e-01 2.304708e-02 -5.543310e-01 -6.895061e-01 5.768254e-01 1.001937e-01 1.134001e+00 9.616352e-02 -4.824305e-01 9.183933e-02 -4.743353e-01 1.005154e+00 -1.755711e-01 3.943345e-01 -2.450050e-03 2.559307e-01 3.903515e-01 -2.000951e-02 2.744464e-01 -3.401042e-01 -1.540549e-01 6.549716e-02 -1.598158e-01 1.848295e-01 -5.381581e-01
<VARIANCE> 39
 2.656515e+01 6.145013e+01 9.125359e+01 5.029044e+01 7.561587e+01 9.498184e+01 5.992899e+01 9.914085e+01 7.895190e+01 5.705835e+01 6.386176e+01 4.200603e+01 7.688063e+01 1.649383e+00 2.991609e+00 3.692927e+00 3.183734e+00 4.896687e+00 4.585844e+00 4.187488e+00 5.567681e+00 4.295619e+00 3.802470e+00 4.386274e+00 3.177170e+00 3.403154e+00 3.757523e-01 4.814309e-01 5.273018e-01 5.594903e-01 8.421577e-01 7.914017e-01 7.471656e-01 9.567195e-01 8.206215e-01 7.018515e-01 7.556949e-01 5.889063e-01 6.934744e-01
<GCONST> 1.372996e+02
<STATE> 3
<MEAN> 39
 -2.541856e+00 -1.031050e+01 2.043710e+00 -9.697251e+00 -1.720206e+01 -2.183834e+00 -1.185499e+01 1.160054e+00 -4.587687e+00 -4.739123e+00 9.726484e-01 -9.457093e+00 7.210316e+01 5.293708e-03 1.846033e-01 4.921374e-02 7.077479e-02 1.179019e-01 -6.270353e-02 6.810026e-02 -8.657436e-02 -1.703700e-01 7.279454e-02 -1.413086e-01 -2.877533e-02 -2.634488e-01 4.888736e-02 1.691241e-01 -3.762445e-04 1.582422e-01 1.199826e-01 -1.467119e-01 -2.202995e-02 -1.301177e-01 -1.291503e-02 8.762467e-02 -6.328626e-02 6.635091e-02 -2.213061e-01
<VARIANCE> 39
 2.445566e+01 6.576478e+01 1.239060e+02 4.409040e+01 9.361434e+01 1.190710e+02 5.323934e+01 9.557652e+01 6.781844e+01 5.042712e+01 7.379272e+01 4.125706e+01 4.726391e+01 3.119217e-01 8.376318e-01 1.100024e+00 9.728856e-01 1.401117e+00 1.500031e+00 1.456786e+00 1.588540e+00 1.527554e+00 1.395064e+00 1.596124e+00 1.198608e+00 5.857974e-01 6.820533e-02 1.663122e-01 1.916454e-01 1.755413e-01 2.895593e-01 2.606590e-01 2.939896e-01 3.339934e-01 2.773853e-01 2.600291e-01 2.833380e-01 2.234354e-01 1.227551e-01
<GCONST> 1.064492e+02
<STATE> 4
<MEAN> 39
 -1.083949e+00 -4.705726e+00 3.607895e+00 -4.522002e+00 -1.450738e+01 -4.006984e+00 -1.058459e+01 -1.694721e+00 -7.007136e+00 -2.723958e+00 -1.736288e+00 -7.514380e+00 6.218442e+01 9.229076e-02 9.024794e-01 -2.703255e-02 8.288454e-01 7.067740e-01 -2.988323e-01 3.626369e-01 -6.147207e-01 9.653166e-03 1.065166e-01 -3.855630e-01 3.077730e-01 -1.682093e+00 -7.877225e-02 5.125987e-02 -3.038028e-02 1.098083e-02 1.006334e-01 4.468139e-02 3.114863e-02 -2.814775e-02 6.528197e-02 -7.886937e-03 -6.625904e-03 3.782462e-02 -1.124111e-01
<VARIANCE> 39
 3.084612e+01 6.841270e+01 9.128899e+01 5.097134e+01 8.876721e+01 8.429221e+01 5.531858e+01 8.548665e+01 7.069912e+01 5.065067e+01 7.562218e+01 3.866886e+01 1.117432e+02 1.108340e+00 2.085935e+00 2.077469e+00 2.142348e+00 2.925338e+00 2.755853e+00 2.925443e+00 3.514174e+00 2.998772e+00 2.550852e+00 2.690827e+00 2.094739e+00 2.415872e+00 1.822327e-01 3.417206e-01 3.101525e-01 3.811181e-01 4.973813e-01 4.717571e-01 5.046098e-01 6.350974e-01 5.290244e-01 4.866140e-01 5.017211e-01 3.790170e-01 3.999452e-01
<GCONST> 1.260012e+02
<TRANSP> 5
 0.000000e+00 1.000000e+00 0.000000e+00 0.000000e+00 0.000000e+00
 0.000000e+00 6.247748e-01 3.752252e-01 0.000000e+00 0.000000e+00
 0.000000e+00 0.000000e+00 7.916034e-01 2.083966e-01 0.000000e+00
 0.000000e+00 0.000000e+00 0.000000e+00 7.065042e-01 2.934958e-01
 0.000000e+00 0.000000e+00 0.000000e+00 0.000000e+00 0.000000e+00
<ENDHMM>
~h "f"
<BEGINHMM>
<NUMSTATES> 5
<STATE> 2
<MEAN> 39
 -4.970122e+00 1.233719e+00 4.728518e-01 -1.816859e+00 -6.104444e+00 -4.597723e+00 -7.821268e+00 -4.534095e+00 -5.222163e+00 -2.796300e+00 -4.334752e+00 -4.279665e+00 5.701867e+01 -2.376106e+00 1.046122e+00 -1.796069e-01 7.339132e-01 1.371207e+00 -3.938390e-01 8.758916e-01 3.203015e-01 5.868784e-01 -1.095759e-01 -2.391910e-02 7.954985e-01 -1.337245e+00 -3.712742e-01 -4.995461e-01 -1.255051e-01 -2.870420e-01 -3.371448e-01 6.733164e-02 -1.828503e-01 8.822478e-02 2.118618e-02 4.983918e-02 2.938176e-01 -1.209444e-01 3.287962e-01
<VARIANCE> 39
 6.246968e+01 4.959843e+01 5.959624e+01 4.461617e+01 5.839939e+01 5.895023e+01 4.933789e+01 5.716856e+01 4.651410e+01 4.064013e+01 4.534492e+01 3.359365e+01 1.252696e+02 5.745264e+00 4.685013e+00 3.438238e+00 3.591006e+00 4.461066e+00 4.073102e+00 3.639287e+00 5.074343e+00 4.300222e+00 3.391906e+00 3.983639e+00 2.639416e+00 4.520973e+00 6.893824e-01 6.444277e-01 4.857241e-01 5.396043e-01 7.479079e-01 6.527022e-01 6.232086e-01 7.221475e-01 7.035524e-01 5.944568e-01 5.959096e-01 4.489084e-01 5.467615e-01
<GCONST> 1.350973e+02
<STATE> 3
<MEAN> 39
 -1.781199e+01 -1.986065e+00 -3.308553e+00 -1.967549e+00 -3.092456e+00 -4.877544e+00 -5.725996e+00 -1.646756e+00 -2.641430e+00 -1.853015e+00 -1.703805e+00 -1.807242e+00 5.296439e+01 -3.792980e-01 -2.786982e-01 -1.759599e-01 -7.478995e-02 -1.066663e-01 -4.377166e-02 3.140376e-02 2.638080e-02 7.489453e-02 6.357501e-02 1.089393e-01 2.665556e-02 -1.013039e-01 5.157166e-01 -4.329686e-02 9.342098e-02 -9.492440e-02 -1.567187e-01 2.991933e-02 -1.410483e-01 -1.022413e-01 -1.036462e-01 -4.626966e-02 -3.581740e-02 -1.429154e-01 2.155883e-01
<VARIANCE> 39
 8.523804e+01 4.886441e+01 3.375169e+01 2.567810e+01 3.000985e+01 3.479250e+01 3.749288e+01 2.965652e+01 2.858664e+01 2.340280e+01 2.406412e+01 2.050790e+01 1.267232e+02 3.728168e+00 1.841118e+00 1.827447e+00 1.694815e+00 1.917932e+00 2.200712e+00 2.239494e+00 2.209420e+00 2.253091e+00 1.980716e+00 2.077094e+00 1.666426e+00 2.142653e+00 6.571723e-01 3.798886e-01 3.515520e-01 3.768034e-01 4.421636e-01 4.695960e-01 4.800945e-01 4.760457e-01 4.777638e-01 4.172581e-01 4.361164e-01 3.553399e-01 3.599481e-01
<GCONST> 1.169296e+02
<STATE> 4
<MEAN> 39
 -8.036368e+00 -6.462304e-01 -3.206213e-01 -2.603156e+00 -7.758827e+00 -4.986690e+00 -8.802586e+00 -5.053936e+00 -4.441541e+00 -2.175208e+00 -1.730620e+00 -4.052767e+00 5.833039e+01 1.628550e+00 -5.926212e-01 2.026666e-01 -5.961926e-01 -9.544315e-01 2.084717e-01 -8.193148e-01 -2.264750e-01 -2.722653e-01 -1.684526e-01 3.163325e-01 -6.445143e-01 1.639010e+00 9.534606e-02 -1.554634e-01 -1.513385e-02 -1.170788e-01 -1.796911e-01 1.559629e-01 -6.227171e-02 1.271949e-01 1.273386e-02 -1.267762e-02 1.259173e-01 -1.261883e-01 1.981740e-01
<VARIANCE> 39
 9.940426e+01 5.504745e+01 8.269450e+01 4.831550e+01 6.585158e+01 6.787281e+01 5.491774e+01 5.537349e+01 5.217454e+01 3.775439e+01 3.910651e+01 3.647476e+01 1.443018e+02 1.114275e+01 5.735857e+00 5.639281e+00 4.992729e+00 6.692718e+00 6.077342e+00 5.567079e+00 5.672704e+00 5.188406e+00 4.059777e+00 4.426257e+00 4.040536e+00 1.098985e+01 1.472104e+00 8.858422e-01 7.924211e-01 7.933592e-01 1.146691e+00 9.522812e-01 9.776716e-01 9.331094e-01 8.776899e-01 6.718397e-01 7.724948e-01 6.605071e-01 1.646075e+00
<GCONST> 1.468997e+02
<TRANSP> 5
 0.000000e+00 1.000000e+00 0.000000e+00 0.000000e+00 0.000000e+00
 0.000000e+00 5.858518e-01 4.141482e-01 0.000000e+00 0.000000e+00
 0.000000e+00 0.000000e+00 8.179046e-01 1.820954e-01 0.000000e+00
 0.000000e+00 0.000000e+00 0.000000e+00 7.155955e-01 2.844044e-01
 0.000000e+00 0.000000e+00 0.000000e+00 0.000000e+00 0.000000e+00
<ENDHMM>
~h "g"
<BEGINHMM>
<NUMSTATES> 5
<STATE> 2
<MEAN> 39
 1.861583e+00 -2.607607e-01 3.504593e+00 -8.212777e-01 -1.089855e+01 -4.799397e+00 -1.026540e+01 -4.397628e+00 -6.720981e+00 -8.197448e-01 -1.960222e+00 -7.592673e+00 5.682299e+01 -8.333945e-02 1.315256e+00 4.029850e-01 8.969971e-01 7.574123e-01 -2.907614e-01 7.067820e-01 -2.484927e-01 5.808691e-02 3.342398e-03 -5.519115e-01 4.541126e-01 -2.042825e+00 -4.488778e-01 -3.167894e-01 -2.099694e-01 -3.403554e-01 9.689850e-02 3.485249e-03 -3.472093e-02 1.318624e-01 1.632511e-01 -1.244512e-01 9.956434e-02 9.384761e-02 5.310780e-01
<VARIANCE> 39
 3.133997e+01 4.550553e+01 6.173029e+01 4.704277e+01 6.153366e+01 7.043853e+01 5.358897e+01 7.051582e+01 6.768263e+01 4.525306e+01 5.616109e+01 3.825574e+01 9.849223e+01 2.089609e+00 2.463096e+00 2.210289e+00 2.891303e+00 3.645824e+00 3.467256e+00 3.061585e+00 4.362615e+00 4.346601e+00 2.944102e+00 3.048546e+00 2.413295e+00 4.432545e+00 3.972539e-01 4.944812e-01 4.541546e-01 4.843292e-01 7.496702e-01 6.833435e-01 6.207626e-01 7.698959e-01 8.536013e-01 5.871651e-01 6.486640e-01 5.081980e-01 8.676065e-01
<GCONST> 1.319795e+02
<STATE> 3
<MEAN> 39
 -8.130909e+00 7.405065e-01 1.097964e+00 -1.199057e+00 -6.304946e+00 -6.533041e+00 -7.763812e+00 -3.787914e+00 -4.598792e+00 -1.940091e+00 -2.304790e+00 -3.247835e+00 5.690972e+01 -6.877446e-01 -7.202004e-01 -1.555836e-01 -4.891947e-01 -2.193676e-01 -3.779757e-01 -2.174368e-01 8.580200e-02 1.751449e-02 -2.095081e-01 4.630674e-01 2.616695e-01 1.717129e+00 3.252452e-01 -2.308543e-01 1.805997e-02 -2.343832e-01 -4.822883e-01 1.458759e-01 -1.881510e-01 4.318862e-02 -1.891903e-02 -2.852768e-02 2.106101e-01 -2.309106e-01 3.867759e-01
<VARIANCE> 39
 1.058570e+02 5.515230e+01 6.989983e+01 4.060144e+01 6.504881e+01 6.007465e+01 4.925770e+01 5.126987e+01 5.043283e+01 3.323378e+01 3.488293e+01 3.000259e+01 1.399972e+02 9.018922e+00 5.712701e+00 5.577134e+00 3.968561e+00 7.797885e+00 5.756287e+00 4.852253e+00 5.274902e+00 5.112966e+00 3.709567e+00 4.293076e+00 3.406459e+00 1.148760e+01 1.177768e+00 9.962929e-01 8.799009e-01 7.263725e-01 1.204236e+00 1.050655e+00 8.431137e-01 9.079635e-01 9.180807e-01 6.733871e-01 7.532824e-01 6.318188e-01 1.758628e+00
<GCONST> 1.448980e+02
<STATE> 4
<MEAN> 39
 -1.582718e+00 -1.736942e+00 4.756164e+00 -3.078529e+00 -1.471636e+01 -4.424160e+00 -1.168169e+01 -4.507486e+00 -8.355207e+00 -2.121914e+00 1.226283e+00 -5.548535e+00 6.382475e+01 1.823547e-01 -3.374117e-01 -1.651982e-01 -4.409910e-01 -3.909472e-01 2.146890e-01 -1.076802e-01 2.272206e-01 2.200976e-01 -8.062222e-02 2.697060e-01 -2.792981e-01 3.966067e-01 -5.931532e-02 -5.045196e-02 -1.868859e-01 -2.700576e-02 1.898666e-01 1.158039e-01 5.658351e-02 9.347173e-02 1.424884e-01 -5.934196e-03 -1.515610e-01 -7.435752e-02 -1.069705e-01
<VARIANCE> 39
 4.244460e+01 5.007346e+01 1.010211e+02 5.045498e+01 8.356969e+01 9.332481e+01 6.503845e+01 8.736142e+01 8.277912e+01 5.194222e+01 5.775351e+01 3.535598e+01 1.001240e+02 2.490554e+00 3.081302e+00 3.831714e+00 3.638011e+00 5.607234e+00 3.964415e+00 3.827972e+00 5.082167e+00 5.254685e+00 3.497620e+00 4.047376e+00 2.832169e+00 4.588729e+00 3.849978e-01 4.080157e-01 5.163907e-01 4.984670e-01 8.782855e-01 7.646648e-01 6.622100e-01 7.983257e-01 7.453902e-01 6.081756e-01 7.209188e-01 4.595589e-01 6.999674e-01
<GCONST> 1.371964e+02
<TRANSP> 5
 0.000000e+00 1.000000e+00 0.000000e+00 0.000000e+00 0.000000e+00
 0.000000e+00 6.387176e-01 3.612824e-01 0.000000e+00 0.000000e+00
 0.000000e+00 0.000000e+00 7.429598e-01 2.570402e-01 0.000000e+00
 0.000000e+00 0.000000e+00 0.000000e+00 6.436332e-01 3.563668e-01
 0.000000e+00 0.000000e+00 0.000000e+00 0.000000e+00 0.000000e+00
<ENDHMM>
~h "h"
<BEGINHMM>
<NUMSTATES> 5
<STATE> 2
<MEAN> 39
 -4.536420e+00 -5.730157e-01 5.836512e-01 -1.716980e+00 -5.157707e+00 -3.268894e+00 -6.750594e+00 -3.927048e+00 -5.570771e+00 -2.560147e+00 -4.243309e+00 -5.071783e+00 5.864931e+01 -1.526144e+00 6.347870e-01 -2.163014e-02 6.357874e-01 1.201883e+00 -9.644561e-02 8.502296e-01 5.575875e-02 4.737460e-01 -1.729086e-01 2.258750e-02 8.124626e-01 -1.514186e+00 -1.610543e-01 -4.217584e-01 -2.359869e-01 -3.430912e-01 -3.138542e-01 7.361953e-02 -1.997821e-01 1.262454e-01 7.746027e-02 9.644262e-03 2.310035e-01 -9.541935e-02 2.092190e-01
<VARIANCE> 39
 5.992174e+01 5.876191e+01 6.621655e+01 4.828060e+01 8.175674e+01 6.633958e+01 5.784858e+01 6.499558e+01 6.175648e+01 4.876010e+01 5.002773e+01 3.964856e+01 1.188340e+02 4.165967e+00 4.118690e+00 2.890358e+00 2.998364e+00 3.981568e+00 3.796829e+00 3.520416e+00 4.401179e+00 3.559853e+00 3.052609e+00 3.339146e+00 2.589009e+00 3.494554e+00 4.472790e-01 5.281224e-01 3.656204e-01 4.772470e-01 6.557362e-01 6.088685e-01 6.064308e-01 6.550370e-01 6.295957e-01 5.462604e-01 5.448400e-01 4.408305e-01 3.270971e-01
<GCONST> 1.327355e+02
<STATE> 3
<MEAN> 39
 -1.154876e+01 -4.460011e+00 -3.317371e+00 -2.189309e+00 -3.077027e+00 -4.196221e+00 -5.066782e+00 -1.484589e+00 -3.039435e+00 -3.506964e+00 -2.466352e+00 -2.220107e+00 4.924640e+01 -2.230191e-01 2.001684e-02 -1.146436e-01 -5.655836e-02 -5.588294e-02 -7.997598e-03 2.722222e-02 -4.746397e-02 5.697199e-02 5.374087e-02 9.393597e-02 7.134645e-02 -4.710864e-01 1.571360e-01 1.430785e-02 4.417907e-02 -2.874519e-02 -6.774094e-02 -4.475922e-03 -5.575998e-02 -2.592829e-02 -3.751284e-02 -3.636028e-04 -2.637032e-02 -8.883062e-02 1.331199e-01
<VARIANCE> 39
 6.816601e+01 6.534164e+01 3.744553e+01 3.002870e+01 4.015474e+01 3.762834e+01 3.667764e+01 3.559161e+01 3.326051e+01 2.989924e+01 2.678533e+01 2.457536e+01 1.321736e+02 1.305218e+00 1.750243e+00 1.451553e+00 1.428446e+00 1.710192e+00 1.824142e+00 1.928322e+00 2.123019e+00 2.063607e+00 1.969765e+00 1.797010e+00 1.682495e+00 1.546643e+00 2.864233e-01 2.917774e-01 2.632609e-01 2.902196e-01 3.393064e-01 3.506144e-01 3.866648e-01 4.191977e-01 4.114345e-01 3.876550e-01 3.589593e-01 3.415183e-01 2.231352e-01
<GCONST> 1.124850e+02
<STATE> 4
<MEAN> 39
 -7.271868e+00 -2.344775e+00 -1.756697e+00 -3.920110e+00 -6.512025e+00 -4.043812e+00 -7.754932e+00 -3.655269e+00 -4.202035e+00 -2.005391e+00 -1.908242e+00 -4.628661e+00 5.752425e+01 7.122259e-01 -2.748101e-01 1.019729e-01 -3.149330e-01 -4.606376e-01 -6.743240e-03 -4.143073e-01 -1.437462e-02 -1.181323e-01 -2.812188e-02 1.052546e-01 -3.304416e-01 1.051503e+00 9.236176e-02 -7.952473e-02 -7.177503e-03 -4.945164e-02 -1.028158e-01 6.104608e-02 -5.892865e-02 6.329916e-02 8.523604e-04 -1.583770e-02 4.737211e-02 -8.472464e-02 1.936393e-01
<VARIANCE> 39
 9.208315e+01 6.365102e+01 8.016870e+01 5.279256e+01 7.452510e+01 6.310532e+01 5.423854e+01 5.841212e+01 5.714268e+01 4.308132e+01 4.395162e+01 4.117973e+01 1.715892e+02 7.409781e+00 4.926140e+00 4.503985e+00 4.130092e+00 5.346124e+00 4.372464e+00 4.290481e+00 4.604502e+00 4.019951e+00 3.430712e+00 3.741690e+00 3.492657e+00 1.096879e+01 1.118632e+00 8.107086e-01 7.179026e-01 7.028812e-01 9.469716e-01 7.901918e-01 7.756940e-01 8.247632e-01 7.077286e-01 6.400478e-01 6.967355e-01 6.213879e-01 1.545389e+00
<GCONST> 1.432084e+02
<TRANSP> 5
 0.000000e+00 1.000000e+00 0.000000e+00 0.000000e+00 0.000000e+00
 0.000000e+00 5.867017e-01 4.132983e-01 0.000000e+00 0.000000e+00
 0.000000e+00 0.000000e+00 8.392180e-01 1.607820e-01 0.000000e+00
 0.000000e+00 0.000000e+00 0.000000e+00 7.833287e-01 2.166714e-01
 0.000000e+00 0.000000e+00 0.000000e+00 0.000000e+00 0.000000e+00
<ENDHMM>
~h "i"
<BEGINHMM>
<NUMSTATES> 5
<STATE> 2
<MEAN> 39
 -4.532618e+00 -2.133323e+00 7.039012e+00 -3.172726e+00 -1.539291e+01 -6.263257e+00 -1.240349e+01 -5.105072e+00 -9.046893e+00 -3.848241e+00 1.636179e+00 -5.774502e+00 6.404147e+01 4.022164e-02 -7.282912e-03 1.455789e+00 -3.616853e-01 -1.640328e+00 2.723908e-01 -8.054612e-01 -2.890437e-01 -7.954600e-01 -3.684551e-01 1.046736e+00 -1.852032e-01 9.105124e-01 -5.260302e-02 6.229603e-02 -2.319535e-01 -4.527726e-02 1.868003e-01 2.020256e-01 1.173873e-01 4.212603e-02 2.002625e-01 9.122977e-02 -1.213803e-01 -3.966786e-02 -2.600136e-01
<VARIANCE> 39
 5.623763e+01 4.934820e+01 1.011651e+02 5.127324e+01 8.749686e+01 8.552048e+01 6.531356e+01 7.846614e+01 6.689057e+01 4.530141e+01 5.146169e+01 3.647903e+01 1.010237e+02 4.371795e+00 3.118326e+00 5.359063e+00 3.445379e+00 6.642024e+00 5.163990e+00 5.935539e+00 5.358787e+00 4.948925e+00 3.506139e+00 4.393763e+00 3.108204e+00 5.698892e+00 6.985152e-01 5.507832e-01 7.864812e-01 5.970175e-01 1.191049e+00 8.862810e-01 9.667227e-01 9.598602e-01 8.742041e-01 6.331665e-01 7.646878e-01 5.347586e-01 9.706377e-01
<GCONST> 1.422751e+02
<STATE> 3
<MEAN> 39
 -5.397437e+00 -1.133365e+00 1.349479e+01 -6.282927e+00 -2.218498e+01 -3.729922e+00 -1.553711e+01 -7.100763e+00 -1.130049e+01 -4.866322e+00 4.328695e+00 -7.585091e+00 6.728416e+01 5.041666e-02 1.731074e-01 -2.990465e-03 -1.539416e-02 -2.006839e-02 5.246031e-02 1.243223e-01 -5.986385e-02 -2.953830e-02 1.294823e-01 -9.716623e-02 -4.238142e-02 -3.027991e-01 5.488890e-02 1.435425e-02 -2.747098e-01 1.594659e-01 3.490109e-01 -1.842673e-01 2.422934e-01 1.140662e-01 1.220738e-01 7.187334e-02 -2.268689e-01 5.886305e-02 -2.119076e-01
<VARIANCE> 39
 2.827083e+01 4.153051e+01 9.596106e+01 4.668056e+01 5.973335e+01 9.337753e+01 5.580573e+01 7.836190e+01 4.779359e+01 4.440423e+01 5.004118e+01 3.613191e+01 5.409500e+01 4.501045e-01 1.173432e+00 1.209347e+00 1.260789e+00 1.442691e+00 1.664206e+00 1.824306e+00 1.942119e+00 1.630108e+00 1.524752e+00 1.612999e+00 1.237521e+00 1.010929e+00 1.342474e-01 1.936073e-01 2.678013e-01 2.317824e-01 4.036739e-01 3.362474e-01 4.189731e-01 4.028859e-01 3.499627e-01 3.093852e-01 3.610507e-01 2.640162e-01 1.880802e-01
<GCONST> 1.104003e+02
<STATE> 4
<MEAN> 39
 -3.531345e+00 3.312601e-01 8.624629e+00 -2.681158e+00 -1.595673e+01 -5.894981e+00 -1.056268e+01 -6.195893e+00 -1.003100e+01 -3.060463e+00 6.720787e-01 -5.901823e+00 5.778107e+01 1.742010e-01 3.372107e-01 -9.738965e-01 5.128866e-01 1.249225e+00 -2.462624e-01 7.447665e-01 2.260424e-01 5.943548e-01 1.319421e-01 -7.760125e-01 2.186351e-01 -1.591455e+00 -1.107974e-01 -1.338623e-02 -8.722455e-02 -5.065586e-02 1.342345e-01 8.649901e-02 -3.223438e-02 -8.111306e-03 9.648766e-02 -1.817946e-02 -5.362171e-02 1.545716e-03 -9.348973e-03
<VARIANCE> 39
 3.458015e+01 4.926558e+01 7.636304e+01 4.677927e+01 7.752314e+01 8.518501e+01 5.430668e+01 7.256816e+01 5.651136e+01 4.294185e+01 5.483129e+01 3.433574e+01 1.364760e+02 2.048283e+00 2.748733e+00 2.580597e+00 2.391277e+00 3.553487e+00 3.359776e+00 3.770003e+00 4.045662e+00 3.404149e+00 2.765674e+00 3.170654e+00 2.358782e+00 3.852537e+00 2.921952e-01 4.328060e-01 3.924618e-01 4.015908e-01 6.595765e-01 5.731275e-01 6.335137e-01 6.998861e-01 6.082825e-01 5.028547e-01 5.735076e-01 4.162243e-01 5.741910e-01
<GCONST> 1.301063e+02
<TRANSP> 5
 0.000000e+00 1.000000e+00 0.000000e+00 0.000000e+00 0.000000e+00
 0.000000e+00 6.498898e-01 3.501102e-01 0.000000e+00 0.000000e+00
 0.000000e+00 0.000000e+00 7.720182e-01 2.279818e-01 0.000000e+00
 0.000000e+00 0.000000e+00 0.000000e+00 7.029985e-01 2.970015e-01
 0.000000e+00 0.000000e+00 0.000000e+00 0.000000e+00 0.000000e+00
<ENDHMM>
~h "j"
<BEGINHMM>
<NUMSTATES> 5
<STATE> 2
<MEAN> 39
 -6.689831e+00 3.481942e+00 2.682281e+00 -4.023302e-02 -7.285631e+00 -6.220996e+00 -6.633205e+00 -3.574178e+00 -4.286928e+00 -2.934914e+00 -3.108725e+00 -3.984518e+00 5.098776e+01 -6.457530e-01 4.552554e-01 -1.480522e-02 1.292676e-01 6.811007e-01 1.285076e-01 3.267687e-01 1.306428e-01 2.110738e-01 -7.100268e-02 -4.616624e-02 2.894983e-01 -7.141282e-01 -2.086845e-01 -3.682939e-01 -1.112706e-01 -2.632342e-01 -7.833166e-02 4.381173e-02 -1.699212e-01 -3.807623e-02 -6.443452e-02 1.198647e-02 1.545758e-01 3.277442e-03 6.870224e-01
<VARIANCE> 39
 1.048135e+02 4.030277e+01 6.227307e+01 3.076927e+01 4.970918e+01 4.577453e+01 4.015309e+01 4.416626e+01 4.462701e+01 3.234647e+01 3.298074e+01 2.581917e+01 1.300123e+02 5.251011e+00 3.162160e+00 2.541130e+00 2.394058e+00 3.535216e+00 2.985616e+00 3.013641e+00 3.509623e+00 3.057883e+00 2.496973e+00 2.526760e+00 2.203655e+00 5.655677e+00 9.495913e-01 5.623068e-01 4.611035e-01 4.822714e-01 6.611028e-01 5.737265e-01 5.838952e-01 6.914980e-01 6.275554e-01 4.937027e-01 4.997781e-01 4.464568e-01 1.115453e+00
<GCONST> 1.299273e+02
<STATE> 3
<MEAN> 39
 -1.230727e+01 2.030246e+00 1.782251e+00 -2.310145e+00 -4.637753e+00 -5.430248e+00 -6.833161e+00 -4.631948e+00 -4.518748e+00 -3.079013e+00 -2.253355e+00 -2.386610e+00 5.788390e+01 -3.810464e-01 -1.307327e+00 2.055429e-01 -8.744904e-01 -1.210699e+00 -7.814875e-01 -1.024093e+00 -1.864365e-01 -3.280427e-01 -2.822448e-01 8.000444e-01 2.831739e-01 3.898707e+00 1.001779e+00 -3.664695e-01 1.948364e-01 -8.848450e-02 -9.592287e-01 -8.163425e-02 -4.159571e-01 2.272736e-01 6.804591e-02 -6.461585e-02 2.628057e-01 -3.728240e-01 2.861245e-01
<VARIANCE> 39
 8.739328e+01 5.670277e+01 6.835247e+01 3.398315e+01 4.735541e+01 5.158919e+01 3.816473e+01 3.982991e+01 3.791120e+01 2.913985e+01 2.550911e+01 2.296536e+01 1.302856e+02 1.218869e+01 5.143109e+00 6.721737e+00 4.534793e+00 8.011436e+00 5.760228e+00 4.232631e+00 5.126801e+00 4.721250e+00 3.580546e+00 3.692981e+00 3.473256e+00 9.046466e+00 1.318160e+00 1.054414e+00 9.699242e-01 8.504092e-01 1.118478e+00 1.113629e+00 7.167853e-01 1.056583e+00 9.471892e-01 6.797940e-01 5.974329e-01 6.114885e-01 1.709284e+00
<GCONST> 1.425267e+02
<STATE> 4
<MEAN> 39
 -4.338395e+00 -3.155309e+00 6.474350e+00 -3.736599e+00 -1.644032e+01 -8.193230e+00 -1.299827e+01 -4.013187e+00 -6.008264e+00 -4.929329e+00 2.706419e+00 -4.026876e+00 6.815248e+01 1.571957e+00 -1.927457e+00 -5.803242e-01 -1.047673e+00 -1.700795e+00 3.423350e-01 -9.730692e-01 1.140608e+00 8.362378e-01 -4.232699e-03 8.118792e-01 -1.082563e+00 1.844817e+00 -1.059595e-01 5.964604e-02 -5.423738e-01 -7.872349e-02 6.496975e-01 5.857937e-01 3.661449e-01 1.807941e-01 1.954013e-01 1.413946e-01 -4.305364e-01 -3.233248e-01 -5.558311e-01
<VARIANCE> 39
 2.908190e+01 3.833973e+01 9.342969e+01 4.769442e+01 7.908998e+01 8.218256e+01 5.275626e+01 6.754043e+01 7.357933e+01 4.694830e+01 4.698137e+01 3.428506e+01 7.154655e+01 4.778053e+00 5.397940e+00 5.790035e+00 4.078361e+00 7.789801e+00 5.786391e+00 5.364927e+00 7.770407e+00 6.595768e+00 3.929482e+00 4.615112e+00 3.571662e+00 5.240000e+00 7.648083e-01 6.134551e-01 7.229041e-01 6.464882e-01 1.247889e+00 1.058295e+00 7.765502e-01 9.479241e-01 8.381374e-01 6.827098e-01 8.869462e-01 6.375763e-01 6.339797e-01
<GCONST> 1.423903e+02
<TRANSP> 5
 0.000000e+00 1.000000e+00 0.000000e+00 0.000000e+00 0.000000e+00
 0.000000e+00 7.879823e-01 2.120177e-01 0.000000e+00 0.000000e+00
 0.000000e+00 0.000000e+00 6.155221e-01 3.844779e-01 0.000000e+00
 0.000000e+00 0.000000e+00 0.000000e+00 5.526240e-01 4.473760e-01
 0.000000e+00 0.000000e+00 0.000000e+00 0.000000e+00 0.000000e+00
<ENDHMM>
~h "k"
<BEGINHMM>
<NUMSTATES> 5
<STATE> 2
<MEAN> 39
 -5.058197e+00 9.838051e-01 3.329775e-01 -1.994429e+00 -7.861856e+00 -5.039202e+00 -7.824531e+00 -4.508628e+00 -5.076255e+00 -2.113634e+00 -2.841979e+00 -4.886624e+00 4.855482e+01 -6.572776e-01 4.262776e-01 -1.243828e-01 2.708549e-01 4.950155e-01 -1.699630e-01 3.729578e-01 -5.337039e-02 1.699842e-01 -3.372709e-02 -1.622768e-01 4.423664e-01 -1.382237e+00 -1.623417e-01 -3.743709e-01 -1.454651e-01 -2.074250e-01 7.130411e-03 8.877349e-03 -9.723356e-02 1.365642e-01 2.615956e-02 2.393865e-02 1.006604e-01 -5.971106e-03 6.480855e-01
<VARIANCE> 39
 6.787438e+01 4.215962e+01 5.539394e+01 4.166305e+01 5.459857e+01 5.201540e+01 4.413782e+01 5.143003e+01 4.932787e+01 3.609608e+01 3.879752e+01 3.282804e+01 1.263872e+02 2.355835e+00 2.376867e+00 2.073136e+00 2.244965e+00 3.070182e+00 2.823839e+00 2.813465e+00 3.001060e+00 2.742569e+00 2.571304e+00 2.642967e+00 2.156888e+00 4.543262e+00 4.459335e-01 4.898071e-01 4.344536e-01 4.646237e-01 5.973958e-01 5.435060e-01 5.595490e-01 6.169453e-01 5.706375e-01 5.131718e-01 5.079710e-01 4.280673e-01 8.705493e-01
<GCONST> 1.270917e+02
<STATE> 3
<MEAN> 39
 -1.007609e+01 3.616824e-01 -7.965109e-01 -1.584726e+00 -5.339647e+00 -5.290448e+00 -6.545650e+00 -3.838486e+00 -4.315096e+00 -1.819163e+00 -2.719567e+00 -2.683891e+00 5.012542e+01 -7.490957e-01 -1.474094e+00 -9.732022e-01 -6.494235e-01 5.060343e-01 -3.853007e-01 -2.649988e-01 5.472997e-01 9.053908e-02 2.248970e-01 3.304860e-03 2.912605e-01 2.730348e+00 4.797280e-01 -3.777983e-01 -9.161207e-02 -3.895197e-01 -4.545040e-01 6.252128e-02 -3.445645e-01 1.605634e-01 -4.814833e-02 -1.193579e-02 1.241584e-01 -3.973965e-01 1.082856e+00
<VARIANCE> 39
 9.321616e+01 5.202020e+01 5.490070e+01 3.845040e+01 5.303457e+01 4.685078e+01 4.381900e+01 4.379074e+01 4.224637e+01 3.179221e+01 3.459262e+01 2.800402e+01 1.641303e+02 7.518050e+00 5.284663e+00 5.674128e+00 4.227334e+00 6.255610e+00 5.020495e+00 4.730973e+00 4.714662e+00 4.504559e+00 3.694195e+00 3.839092e+00 3.299587e+00 1.277274e+01 9.457586e-01 8.257743e-01 7.379758e-01 6.516913e-01 9.582279e-01 8.875186e-01 7.389647e-01 8.670839e-01 7.442626e-01 6.512098e-01 6.670716e-01 5.888178e-01 1.675727e+00
<GCONST> 1.409562e+02
<STATE> 4
<MEAN> 39
 -5.046635e+00 -6.115994e+00 -3.777202e+00 -6.382806e+00 -8.005116e+00 -5.354200e+00 -1.075829e+01 -1.997521e+00 -5.604973e+00 -8.860751e-01 -2.228815e+00 -6.197042e+00 6.394606e+01 8.688361e-01 -7.196888e-01 -5.051925e-02 -7.879291e-01 -8.898369e-01 1.967664e-01 -5.427526e-01 4.520633e-01 9.362780e-02 -2.319169e-01 4.193134e-01 -8.922600e-01 2.220952e+00 1.384278e-01 1.855091e-01 2.245671e-01 7.855560e-02 -1.762482e-01 2.712521e-01 1.089002e-01 -6.936788e-02 9.842898e-02 -1.971324e-01 8.111730e-02 -1.603023e-01 -4.822329e-01
<VARIANCE> 39
 5.838332e+01 5.795357e+01 8.519370e+01 5.882705e+01 8.157990e+01 8.730433e+01 5.725252e+01 7.103503e+01 6.322602e+01 4.720008e+01 5.312016e+01 4.645632e+01 1.125673e+02 5.222046e+00 5.152297e+00 5.239855e+00 4.973388e+00 6.454749e+00 6.202161e+00 5.107169e+00 6.586605e+00 5.470201e+00 4.668685e+00 4.572573e+00 4.642465e+00 1.319969e+01 9.340112e-01 7.370492e-01 1.001740e+00 8.044077e-01 1.318817e+00 1.080287e+00 9.397432e-01 1.090705e+00 9.116892e-01 8.759543e-01 8.856652e-01 8.516079e-01 1.235800e+00
<GCONST> 1.481687e+02
<TRANSP> 5
 0.000000e+00 1.000000e+00 0.000000e+00 0.000000e+00 0.000000e+00
 0.000000e+00 7.145894e-01 2.854106e-01 0.000000e+00 0.000000e+00
 0.000000e+00 0.000000e+00 5.645173e-01 4.354827e-01 0.000000e+00
 0.000000e+00 0.000000e+00 0.000000e+00 6.464154e-01 3.535845e-01
 0.000000e+00 0.000000e+00 0.000000e+00 0.000000e+00 0.000000e+00
<ENDHMM>
~h "l"
<BEGINHMM>
<NUMSTATES> 5
<STATE> 2
<MEAN> 39
 -1.640143e+00 -4.673725e+00 -8.473083e-01 -5.379819e+00 -1.166853e+01 -2.674244e+00 -1.189917e+01 -4.297377e+00 -4.821033e+00 -1.766118e+00 -9.214240e-01 -7.031585e+00 6.459833e+01 1.439815e-01 -4.027733e-01 -1.372195e-01 -4.011412e-01 -1.359944e-01 2.992109e-01 -3.593720e-01 1.830142e-01 1.806310e-01 1.390509e-01 1.287432e-01 -2.251178e-01 5.801727e-01 -2.839052e-02 -3.948333e-03 2.492726e-03 -7.863163e-02 2.738782e-03 1.014426e-01 -5.943763e-03 5.156928e-02 -4.937338e-02 -2.263466e-02 5.333282e-03 -4.127558e-02 5.810631e-03
<VARIANCE> 39
 4.804385e+01 6.213196e+01 9.096722e+01 6.965828e+01 8.153875e+01 9.101004e+01 6.885323e+01 1.046935e+02 8.414463e+01 4.961411e+01 5.834845e+01 4.502124e+01 1.200043e+02 3.472871e+00 3.909517e+00 4.682391e+00 4.849005e+00 6.189700e+00 5.749635e+00 4.998988e+00 6.332993e+00 5.604402e+00 4.382308e+00 4.533815e+00 3.789262e+00 7.074956e+00 5.993664e-01 6.187392e-01 6.725118e-01 8.121290e-01 1.095658e+00 9.361902e-01 9.012769e-01 1.097058e+00 9.513865e-01 7.609848e-01 8.066797e-01 7.041835e-01 1.082052e+00
<GCONST> 1.455927e+02
<STATE> 3
<MEAN> 39
 3.159513e-01 -9.056364e+00 -2.656074e+00 -1.098712e+01 -1.402520e+01 3.321692e+00 -1.472620e+01 -3.639020e+00 -1.927671e+00 -2.261324e+00 2.879431e-01 -1.029593e+01 7.050005e+01 9.186205e-02 1.220154e-01 1.165906e-01 -6.033804e-02 8.287214e-02 8.997607e-02 -1.201644e-01 -9.696337e-02 -2.149675e-01 1.698309e-01 -4.954997e-02 1.122064e-02 -2.792798e-01 -4.197157e-02 1.053027e-01 4.014637e-02 1.375051e-01 6.750195e-02 -1.717189e-01 1.001250e-01 -3.403151e-02 -6.964388e-02 -1.152598e-02 -6.528395e-02 9.699760e-02 -1.086886e-01
<VARIANCE> 39
 2.496688e+01 5.976994e+01 9.008797e+01 7.604568e+01 7.396770e+01 9.483746e+01 6.372693e+01 1.234644e+02 9.053847e+01 5.297124e+01 6.263255e+01 4.766505e+01 6.091914e+01 4.675826e-01 1.143099e+00 1.600045e+00 1.664536e+00 2.022035e+00 2.449696e+00 2.067043e+00 2.649010e+00 2.176351e+00 2.223952e+00 2.281055e+00 1.822956e+00 7.894197e-01 9.256709e-02 2.049671e-01 2.579409e-01 2.684537e-01 3.849258e-01 3.951787e-01 3.949851e-01 5.066181e-01 3.994051e-01 4.151972e-01 4.170926e-01 3.437802e-01 1.493077e-01
<GCONST> 1.168818e+02
<STATE> 4
<MEAN> 39
 1.626204e+00 -4.586941e+00 4.773065e-01 -5.813058e+00 -1.149407e+01 -2.065957e-03 -1.302346e+01 -4.825870e+00 -7.046833e+00 3.262550e-01 -2.529104e+00 -7.709476e+00 6.396658e+01 -1.340909e-01 5.102964e-01 2.411719e-01 5.290662e-01 3.445944e-01 -4.137476e-01 3.730941e-01 -2.564751e-01 -1.680443e-01 -7.064255e-02 -2.919157e-01 3.037426e-01 -8.049123e-01 -1.218759e-01 -6.708595e-02 -9.941845e-02 -5.175845e-02 3.459484e-02 2.469712e-02 8.501315e-02 1.554416e-01 1.356544e-01 -1.504224e-01 2.397785e-02 -1.434025e-02 7.243863e-02
<VARIANCE> 39
 2.700340e+01 5.629622e+01 7.499228e+01 7.981712e+01 7.204520e+01 8.040005e+01 6.836966e+01 1.121468e+02 8.938411e+01 5.546420e+01 7.074384e+01 4.106326e+01 8.526444e+01 1.036627e+00 2.634864e+00 3.020552e+00 3.654809e+00 3.368645e+00 3.529027e+00 3.370457e+00 5.507553e+00 4.401192e+00 3.370332e+00 3.670528e+00 2.661293e+00 2.837422e+00 1.634197e-01 3.782483e-01 4.290796e-01 5.906821e-01 5.934723e-01 5.877609e-01 6.370168e-01 9.012371e-01 7.171601e-01 6.546077e-01 6.562231e-01 4.827794e-01 3.710141e-01
<GCONST> 1.323990e+02
<TRANSP> 5
 0.000000e+00 1.000000e+00 0.000000e+00 0.000000e+00 0.000000e+00
 0.000000e+00 7.031729e-01 2.968271e-01 0.000000e+00 0.000000e+00
 0.000000e+00 0.000000e+00 7.520632e-01 2.479368e-01 0.000000e+00
 0.000000e+00 0.000000e+00 0.000000e+00 7.055457e-01 2.944543e-01
 0.000000e+00 0.000000e+00 0.000000e+00 0.000000e+00 0.000000e+00
<ENDHMM>
~h "m"
<BEGINHMM>
<NUMSTATES> 5
<STATE> 2
<MEAN> 39
 9.202374e-01 -5.666345e+00 3.102390e-01 -6.080408e+00 -1.126027e+01 -1.001073e+00 -1.202239e+01 -5.934358e+00 -7.829862e+00 -2.132074e+00 -9.658722e-01 -8.529693e+00 6.467498e+01 9.521559e-02 7.429253e-01 8.568705e-01 8.554159e-01 6.939972e-02 -2.316355e-01 5.686280e-01 -1.205041e+00 -1.058626e+00 1.582116e-01 -3.390953e-01 2.145283e-01 -9.388787e-01 -1.279491e-01 -5.158632e-02 -3.359143e-02 -8.260880e-02 2.206670e-02 2.999552e-02 3.076870e-02 1.362479e-01 1.171882e-01 -4.778983e-02 -4.972216e-02 1.849749e-02 8.458631e-02
<VARIANCE> 39
 3.146950e+01 4.846060e+01 7.135224e+01 6.613895e+01 6.839407e+01 7.733298e+01 6.526540e+01 1.160386e+02 7.493462e+01 5.827025e+01 7.186026e+01 4.424202e+01 9.765738e+01 1.006393e+00 2.316399e+00 3.260202e+00 3.961806e+00 3.400643e+00 3.621059e+00 3.831912e+00 5.773045e+00 5.134934e+00 3.453988e+00 4.366343e+00 3.026161e+00 2.373563e+00 1.643866e-01 3.161927e-01 4.511641e-01 5.584026e-01 5.255009e-01 5.491332e-01 5.996729e-01 8.970192e-01 7.465270e-01 5.460021e-01 6.797718e-01 4.803667e-01 2.873735e-01
<GCONST> 1.318711e+02
<STATE> 3
<MEAN> 39
 -1.325463e+00 -2.731178e+00 2.967146e+00 -3.759542e+00 -1.065130e+01 -2.558638e+00 -8.565984e+00 -8.468022e+00 -9.092197e+00 -3.655332e+00 -2.370484e+00 -6.773609e+00 5.816800e+01 -6.908630e-02 2.836307e-01 5.221025e-02 1.571342e-01 1.196155e-01 -8.350192e-03 2.290450e-01 -7.594409e-02 -8.167349e-02 3.197569e-02 -9.587380e-02 1.289537e-01 -4.760036e-01 -1.543147e-02 -4.653819e-02 -1.213141e-01 -8.956707e-02 1.917070e-02 5.418427e-03 -7.413474e-02 1.726240e-01 1.410313e-01 9.413051e-03 6.750208e-02 -1.077349e-02 6.375191e-02
<VARIANCE> 39
 4.786681e+01 4.795899e+01 6.576871e+01 5.074386e+01 8.076852e+01 7.302176e+01 6.480503e+01 8.908514e+01 6.930289e+01 6.314976e+01 6.587943e+01 4.231187e+01 1.164488e+02 3.493920e-01 8.357314e-01 7.991080e-01 1.024611e+00 1.302534e+00 1.402068e+00 1.491660e+00 1.639174e+00 1.622287e+00 1.563164e+00 1.683729e+00 1.280508e+00 8.135108e-01 7.916764e-02 1.465673e-01 1.929500e-01 2.664123e-01 2.695767e-01 2.807019e-01 3.371112e-01 4.006562e-01 4.091068e-01 3.221522e-01 3.554200e-01 2.829798e-01 1.313939e-01
<GCONST> 1.091436e+02
<STATE> 4
<MEAN> 39
 -2.061383e+00 -4.611198e-01 1.869330e+00 -2.263429e+00 -9.086228e+00 -3.064884e+00 -7.881670e+00 -8.125194e+00 -9.198685e+00 -2.267384e+00 -2.516369e+00 -5.876432e+00 5.541576e+01 -2.541097e-01 -1.155083e-01 -3.545040e-01 -3.070012e-01 2.776963e-01 -8.784267e-02 -1.098265e-01 5.147415e-01 5.505722e-01 -5.429729e-02 1.122096e-01 9.693939e-02 4.272200e-02 -7.933652e-02 -2.287433e-01 -1.470214e-01 -2.219427e-01 -3.424669e-02 6.125242e-02 -1.683874e-01 2.607161e-01 2.678326e-01 -7.926697e-02 6.922035e-02 -5.074726e-02 3.162892e-01
<VARIANCE> 39
 5.840762e+01 4.741634e+01 6.193862e+01 4.653493e+01 7.255704e+01 6.841136e+01 5.780436e+01 7.965810e+01 8.001192e+01 5.838626e+01 6.129100e+01 3.962149e+01 1.417980e+02 2.709029e+00 3.389915e+00 2.997246e+00 3.723699e+00 3.982096e+00 3.648407e+00 3.841138e+00 4.422279e+00 4.913864e+00 3.591244e+00 3.807372e+00 2.769207e+00 6.684784e+00 4.678488e-01 5.246503e-01 4.953420e-01 6.040902e-01 7.006398e-01 6.387012e-01 6.742722e-01 8.508772e-01 9.151369e-01 6.699344e-01 6.825507e-01 5.153146e-01 8.215094e-01
<GCONST> 1.372760e+02
<TRANSP> 5
 0.000000e+00 1.000000e+00 0.000000e+00 0.000000e+00 0.000000e+00
 0.000000e+00 6.475590e-01 3.524410e-01 0.000000e+00 0.000000e+00
 0.000000e+00 0.000000e+00 7.640195e-01 2.359805e-01 0.000000e+00
 0.000000e+00 0.000000e+00 0.000000e+00 6.699594e-01 3.300406e-01
 0.000000e+00 0.000000e+00 0.000000e+00 0.000000e+00 0.000000e+00
<ENDHMM>
~h "n"
<BEGINHMM>
<NUMSTATES> 5
<STATE> 2
<MEAN> 39
 3.400535e-02 -9.515205e+00 -1.411098e+00 -6.331628e+00 -1.212536e+01 -3.319356e+00 -1.372542e+01 -2.324184e-01 -3.990366e+00 -2.751909e+00 -3.048620e+00 -1.036095e+01 6.788862e+01 6.162359e-01 1.785591e+00 1.263340e+00 1.446573e+00 1.036033e-01 -1.395883e+00 4.982600e-01 -1.956460e+00 -8.004377e-01 1.042076e+00 -8.430315e-01 3.751533e-01 -2.066613e+00 -8.638254e-02 3.042590e-01 1.221305e-01 9.310429e-02 1.012653e-01 7.897863e-03 3.497297e-01 -4.223493e-01 -1.077300e-01 2.532125e-02 -9.484105e-02 1.604704e-01 -2.718752e-01
<VARIANCE> 39
 2.446339e+01 5.451255e+01 6.490733e+01 4.377216e+01 6.092292e+01 7.685968e+01 5.718373e+01 1.046836e+02 6.973655e+01 5.901464e+01 6.171080e+01 4.552151e+01 8.956631e+01 1.119782e+00 2.908414e+00 3.068092e+00 2.811929e+00 3.764601e+00 4.852757e+00 4.129711e+00 6.360187e+00 4.134606e+00 4.479523e+00 4.307105e+00 3.308887e+00 2.685127e+00 1.676205e-01 3.755710e-01 3.660675e-01 4.465311e-01 5.475566e-01 6.677732e-01 7.025153e-01 9.812982e-01 6.008303e-01 6.546626e-01 6.208591e-01 4.544388e-01 3.631469e-01
<GCONST> 1.316384e+02
<STATE> 3
<MEAN> 39
 2.248420e+00 -1.893887e+00 4.282463e+00 -7.066686e-01 -1.229551e+01 -8.154954e+00 -8.815856e+00 -1.008848e+01 -7.635146e+00 -1.358243e-01 -7.112695e+00 -9.134554e+00 5.932180e+01 1.015546e-03 8.925650e-01 3.068492e-01 5.340509e-01 3.010838e-01 -7.844213e-02 4.697433e-01 -4.886436e-01 -2.921649e-01 1.438212e-01 -2.294504e-01 3.022132e-01 -1.209946e+00 -1.939685e-01 -2.414382e-01 -2.084051e-01 -2.366825e-01 1.059340e-01 2.290972e-01 -1.526648e-01 4.543859e-01 1.607763e-01 -2.398342e-01 2.316908e-01 1.188525e-02 1.932009e-01
<VARIANCE> 39
 1.971921e+01 2.720718e+01 3.615555e+01 3.772810e+01 5.478555e+01 9.618283e+01 5.666944e+01 7.035501e+01 6.608062e+01 4.866848e+01 6.728696e+01 5.325500e+01 5.621574e+01 6.671630e-01 1.553665e+00 1.495950e+00 1.571751e+00 2.089882e+00 2.397111e+00 2.513971e+00 3.616332e+00 2.531037e+00 2.541132e+00 2.529310e+00 1.897775e+00 1.808579e+00 1.392991e-01 2.706026e-01 2.710873e-01 3.231971e-01 3.795808e-01 4.665613e-01 4.450715e-01 6.052858e-01 4.587713e-01 5.121695e-01 4.725049e-01 3.756746e-01 2.408026e-01
<GCONST> 1.177056e+02
<STATE> 4
<MEAN> 39
 -2.707545e+00 -5.518790e-01 2.177835e+00 -2.165277e+00 -9.997159e+00 -4.633462e+00 -9.337468e+00 -5.684235e+00 -6.940487e+00 -1.821031e+00 -2.501638e+00 -5.899915e+00 5.645117e+01 -6.296870e-01 -4.503934e-02 -2.160679e-01 -2.332167e-01 3.113834e-01 5.430863e-02 1.121089e-02 4.127551e-01 2.873353e-01 -2.888769e-01 2.834890e-01 2.610407e-01 -2.261069e-01 -7.815645e-02 -1.758738e-01 -9.772119e-02 -1.362069e-01 -8.182602e-02 6.040098e-02 -6.033861e-02 1.138524e-01 7.024049e-02 -4.647830e-02 7.446816e-02 -4.586370e-02 2.623332e-01
<VARIANCE> 39
 5.484828e+01 4.698747e+01 8.278571e+01 5.326994e+01 8.241968e+01 7.526685e+01 5.974554e+01 7.176675e+01 7.184943e+01 4.759840e+01 6.068441e+01 4.243251e+01 1.419485e+02 3.514024e+00 3.873994e+00 3.937530e+00 3.671707e+00 5.244663e+00 4.492949e+00 4.385343e+00 5.218324e+00 4.725415e+00 3.842327e+00 4.188251e+00 3.215367e+00 7.794079e+00 6.143151e-01 6.567449e-01 6.434113e-01 6.692080e-01 9.396321e-01 8.152944e-01 7.952904e-01 9.545252e-01 8.668668e-01 7.397981e-01 7.789030e-01 6.033150e-01 1.052798e+00
<GCONST> 1.416508e+02
<TRANSP> 5
 0.000000e+00 1.000000e+00 0.000000e+00 0.000000e+00 0.000000e+00
 0.000000e+00 5.274678e-01 4.725322e-01 0.000000e+00 0.000000e+00
 0.000000e+00 0.000000e+00 7.498011e-01 2.501989e-01 0.000000e+00
 0.000000e+00 0.000000e+00 0.000000e+00 7.315671e-01 2.684328e-01
 0.000000e+00 0.000000e+00 0.000000e+00 0.000000e+00 0.000000e+00
<ENDHMM>
~h "o"
<BEGINHMM>
<NUMSTATES> 5
<STATE> 2
<MEAN> 39
 -4.582075e+00 -1.452325e+00 -2.097019e+00 -5.435131e+00 -8.448886e+00 -3.301843e+00 -9.875995e+00 -5.516701e+00 -5.316532e+00 -2.126288e+00 -1.217379e+00 -4.502038e+00 5.885569e+01 7.765985e-01 -8.261703e-01 -6.550482e-01 -1.226498e+00 -7.571858e-01 8.200522e-01 -6.905167e-01 1.773367e-01 4.601090e-01 -1.432302e-01 6.854652e-01 -6.152011e-01 2.231210e+00 1.266292e-01 -1.095354e-01 2.142673e-02 -1.076131e-01 -2.483848e-01 3.023859e-01 -2.493479e-02 7.458409e-02 9.151708e-02 -4.964854e-02 1.216813e-01 -2.229008e-01 4.599047e-02
<VARIANCE> 39
 7.088605e+01 5.022675e+01 9.121469e+01 8.053043e+01 7.670289e+01 7.735470e+01 5.933443e+01 6.679840e+01 6.816071e+01 4.513988e+01 4.722627e+01 3.778066e+01 1.550808e+02 7.338460e+00 4.831026e+00 6.429455e+00 6.889588e+00 8.558129e+00 6.959330e+00 5.625853e+00 6.877321e+00 6.275597e+00 4.868297e+00 5.242506e+00 4.635297e+00 1.241822e+01 9.912704e-01 7.713103e-01 9.859315e-01 9.651805e-01 1.343447e+00 1.048580e+00 9.696860e-01 1.050111e+00 9.664582e-01 8.064797e-01 8.138819e-01 7.128130e-01 1.859776e+00
<GCONST> 1.503925e+02
<STATE> 3
<MEAN> 39
 4.130407e-01 -7.401336e+00 -4.963725e+00 -1.173038e+01 -1.354605e+01 2.529472e+00 -1.398704e+01 -4.160880e+00 -1.599682e+00 -2.904657e+00 2.781852e+00 -9.752048e+00 6.944673e+01 5.495801e-01 -8.895816e-01 -5.997355e-01 -1.020478e+00 -4.720262e-01 1.639169e+00 -1.144634e-01 3.079072e-01 6.282794e-01 -2.968755e-01 5.275151e-01 -9.351189e-01 9.491821e-01 -4.673525e-01 3.787096e-01 2.095664e-01 5.569538e-01 6.072264e-01 -3.952192e-01 4.646483e-01 -1.158427e-01 -2.757708e-01 2.128845e-02 -4.532678e-01 4.204674e-01 -8.158542e-01
<VARIANCE> 39
 3.048051e+01 4.731646e+01 6.819468e+01 1.038705e+02 6.202674e+01 9.652496e+01 6.672628e+01 9.952083e+01 7.985059e+01 6.163405e+01 6.582749e+01 4.598871e+01 8.785497e+01 1.962643e+00 2.740643e+00 2.913106e+00 4.771609e+00 4.729757e+00 5.242540e+00 4.023710e+00 5.325512e+00 4.888048e+00 4.065955e+00 4.517545e+00 3.492746e+00 3.043393e+00 4.625926e-01 4.469969e-01 5.606243e-01 8.085606e-01 8.091530e-01 9.488192e-01 7.917013e-01 1.028553e+00 8.980910e-01 7.758666e-01 8.180906e-01 6.680287e-01 6.171942e-01
<GCONST> 1.394733e+02
<STATE> 4
<MEAN> 39
 9.500341e-01 -7.304783e+00 -6.637949e+00 -1.530020e+01 -1.169339e+01 5.772405e+00 -1.203472e+01 -5.805242e+00 -1.491617e+00 -4.602079e+00 1.556019e+00 -9.245607e+00 6.898889e+01 1.531060e-02 2.490857e-01 1.960310e-01 5.154350e-01 2.543584e-01 -3.879941e-01 1.185278e-01 -3.377062e-02 -1.860017e-01 1.142380e-01 -3.995108e-01 1.219420e-01 -6.323848e-01 -3.829911e-02 1.638787e-01 1.303372e-01 2.635419e-01 5.828111e-02 -2.668144e-01 1.631765e-02 -2.465112e-02 -8.149861e-02 7.099794e-02 -1.189691e-01 9.749074e-02 -2.498975e-01
<VARIANCE> 39
 2.342630e+01 5.592838e+01 5.007022e+01 1.149704e+02 6.316830e+01 8.124181e+01 5.660061e+01 1.011694e+02 7.247943e+01 6.329951e+01 6.828831e+01 5.113469e+01 7.820733e+01 6.183004e-01 1.769034e+00 1.528825e+00 3.045870e+00 2.409162e+00 3.178173e+00 2.396750e+00 2.791253e+00 2.659426e+00 2.494042e+00 2.618381e+00 2.275229e+00 1.922028e+00 1.251883e-01 2.639868e-01 2.499529e-01 4.072656e-01 4.329454e-01 4.876088e-01 4.386668e-01 5.145851e-01 4.736081e-01 4.577644e-01 4.734514e-01 4.254744e-01 2.415083e-01
<GCONST> 1.222620e+02
<TRANSP> 5
 0.000000e+00 1.000000e+00 0.000000e+00 0.000000e+00 0.000000e+00
 0.000000e+00 6.070561e-01 3.929438e-01 0.000000e+00 0.000000e+00
 0.000000e+00 0.000000e+00 4.926557e-01 5.073443e-01 0.000000e+00
 0.000000e+00 0.000000e+00 0.000000e+00 8.161861e-01 1.838139e-01
 0.000000e+00 0.000000e+00 0.000000e+00 0.000000e+00 0.000000e+00
<ENDHMM>
~h "p"
<BEGINHMM>
<NUMSTATES> 5
<STATE> 2
<MEAN> 39
 -1.036063e+01 -1.483662e-01 -2.234884e+00 -2.198564e+00 -5.008870e+00 -4.489497e+00 -6.001059e+00 -3.117951e+00 -3.595684e+00 -2.665637e+00 -2.737585e+00 -3.159266e+00 4.675357e+01 -5.810992e-01 2.463854e-01 -4.598840e-02 1.653094e-01 2.075731e-01 -7.482173e-02 2.148691e-01 5.044111e-02 1.018597e-01 3.635094e-02 3.839708e-02 2.103521e-01 -6.898558e-01 6.769884e-02 -1.608319e-01 -1.166228e-02 -9.544428e-02 -6.896202e-02 2.860427e-02 -6.897973e-02 6.476069e-03 -7.826795e-03 4.270689e-03 4.500074e-02 -3.690943e-02 3.500747e-01
<VARIANCE> 39
 9.305788e+01 4.594660e+01 4.054987e+01 3.076366e+01 3.716873e+01 3.760271e+01 3.592902e+01 3.914017e+01 3.617060e+01 2.854259e+01 2.992506e+01 2.918060e+01 1.456247e+02 2.546303e+00 2.005382e+00 1.707923e+00 1.744696e+00 2.155858e+00 2.230166e+00 2.262422e+00 2.413661e+00 2.323391e+00 2.142918e+00 2.204693e+00 1.889806e+00 2.690549e+00 4.075248e-01 3.837398e-01 3.261347e-01 3.617887e-01 4.190441e-01 4.300298e-01 4.377003e-01 4.618922e-01 4.592463e-01 4.153719e-01 4.335920e-01 3.746687e-01 5.494891e-01
<GCONST> 1.189853e+02
<STATE> 3
<MEAN> 39
 -8.366002e+00 1.803440e+00 -7.149374e-01 -1.444706e+00 -5.385852e+00 -3.903003e+00 -6.006775e+00 -4.351084e+00 -4.143487e+00 -2.501865e+00 -3.209298e+00 -3.684293e+00 4.670199e+01 -1.326798e-01 -1.081532e+00 -3.969335e-01 -7.186850e-01 -2.828827e-02 -2.334604e-01 -2.653545e-01 1.685606e-02 2.023110e-01 -3.210057e-02 3.131972e-01 1.046899e-01 2.875021e+00 4.581555e-01 -6.216717e-01 -1.953278e-01 -5.326613e-01 -4.624853e-01 1.378170e-01 -3.916254e-01 -2.094627e-03 1.961271e-02 -2.439818e-02 2.450408e-01 -3.248464e-01 1.448099e+00
<VARIANCE> 39
 8.754462e+01 4.256092e+01 4.713654e+01 3.555080e+01 4.103719e+01 4.258173e+01 3.749614e+01 4.000874e+01 3.879158e+01 2.835502e+01 3.043425e+01 3.013523e+01 1.520634e+02 7.446968e+00 4.746687e+00 4.347966e+00 4.272522e+00 4.495259e+00 4.374980e+00 3.759122e+00 4.051815e+00 4.100183e+00 3.155739e+00 3.531010e+00 3.287604e+00 1.396124e+01 9.926881e-01 7.266221e-01 6.724581e-01 7.041858e-01 8.348160e-01 8.870772e-01 6.662134e-01 8.178213e-01 7.377238e-01 6.171419e-01 6.739784e-01 6.454092e-01 1.569438e+00
<GCONST> 1.376394e+02
<STATE> 4
<MEAN> 39
 -2.956047e+00 -3.469647e+00 -2.594117e+00 -4.111302e+00 -1.131765e+01 -2.550891e+00 -8.295431e+00 -7.165999e+00 -2.419854e+00 -2.600618e+00 -6.000109e-02 -5.192851e+00 6.180278e+01 5.859090e-01 -5.221429e-01 -7.490379e-02 -4.195807e-01 -5.431328e-01 1.553488e-01 -4.114267e-01 1.041465e-02 6.948352e-02 -3.607563e-02 2.765506e-01 -3.741308e-01 1.460614e+00 1.013825e-02 4.880183e-02 4.016937e-02 3.460249e-02 -1.983067e-02 9.456953e-02 3.356674e-03 9.356184e-02 1.505828e-02 -2.583005e-02 -1.179261e-02 -7.355015e-02 -2.345956e-01
<VARIANCE> 39
 7.306499e+01 6.023153e+01 8.789664e+01 6.637946e+01 9.283695e+01 8.149119e+01 5.193362e+01 7.410345e+01 7.746983e+01 4.329464e+01 4.799788e+01 3.859153e+01 1.183453e+02 6.216460e+00 5.775447e+00 4.817791e+00 4.948096e+00 7.594730e+00 5.549449e+00 4.359640e+00 5.844590e+00 5.249160e+00 3.797704e+00 4.461255e+00 3.804482e+00 1.482214e+01 9.853743e-01 8.509491e-01 7.818492e-01 8.078232e-01 1.329109e+00 9.375667e-01 7.702399e-01 1.010292e+00 8.993412e-01 6.861764e-01 7.975170e-01 6.578118e-01 1.590847e+00
<GCONST> 1.472622e+02
<TRANSP> 5
 0.000000e+00 1.000000e+00 0.000000e+00 0.000000e+00 0.000000e+00
 0.000000e+00 8.061355e-01 1.938645e-01 0.000000e+00 0.000000e+00
 0.000000e+00 0.000000e+00 5.129250e-01 4.870750e-01 0.000000e+00
 0.000000e+00 0.000000e+00 0.000000e+00 7.813125e-01 2.186875e-01
 0.000000e+00 0.000000e+00 0.000000e+00 0.000000e+00 0.000000e+00
<ENDHMM>
~h "q"
<BEGINHMM>
<NUMSTATES> 5
<STATE> 2
<MEAN> 39
 -4.193716e+00 -1.213051e+01 -8.410038e+00 -6.854841e+00 -6.292886e+00 -2.161584e+00 -6.434902e+00 1.665578e+00 -4.985288e+00 1.855595e+00 -7.285569e+00 -9.160352e+00 6.731315e+01 -3.408889e-02 9.683010e-02 -1.630192e-01 2.376758e-01 1.285807e-01 -2.206734e-01 1.788110e-01 6.706449e-02 7.624745e-02 -1.515980e-01 -1.892619e-01 1.777400e-01 -2.583952e-01 4.563565e-03 5.426221e-02 6.991263e-02 5.188758e-02 -9.496082e-04 -6.002147e-02 -2.605594e-03 -9.907917e-02 2.211764e-02 -2.491053e-03 6.187104e-02 2.280848e-02 -9.269466e-02
<VARIANCE> 39
 9.269137e+01 7.306439e+01 2.671840e+01 4.993700e+01 4.679333e+01 6.384643e+01 3.401431e+01 4.903997e+01 3.712354e+01 3.953487e+01 4.582665e+01 5.523135e+01 1.172410e+02 3.484936e+00 5.088865e+00 1.949690e+00 3.756016e+00 3.285199e+00 3.301162e+00 2.277321e+00 4.040664e+00 3.270957e+00 2.377448e+00 4.883514e+00 3.331222e+00 7.066803e+00 4.607750e-01 7.111946e-01 2.495126e-01 6.173063e-01 4.680118e-01 4.700510e-01 4.163541e-01 7.764790e-01 5.614138e-01 3.912157e-01 9.469491e-01 5.235288e-01 8.412446e-01
<GCONST> 1.312530e+02
<STATE> 3
<MEAN> 39
 6.477832e-01 -5.691932e+00 -5.027434e-01 4.411467e-01 -6.947773e+00 -4.943560e+00 -6.471157e+00 2.871462e+00 -1.251521e+00 1.717714e+00 -8.493798e+00 -7.049135e+00 6.035841e+01 -7.599384e-01 8.118058e-01 -1.531666e-02 5.780740e-01 1.299407e+00 -2.465192e-01 7.797173e-01 -1.108436e+00 8.117232e-01 -6.111005e-01 -2.087697e-01 5.792069e-01 -1.696694e+00 -1.118490e-01 -1.041923e-01 -1.496501e-01 -1.481305e-01 5.770309e-02 1.040436e-01 -1.525795e-01 -4.497600e-01 -2.530385e-01 2.043628e-02 1.195853e-01 5.240780e-02 -1.353652e-01
<VARIANCE> 39
 2.576700e+01 3.061633e+01 1.987272e+01 4.401267e+01 5.821234e+01 6.965517e+01 4.611355e+01 7.023517e+01 2.369036e+01 5.759299e+01 5.491068e+01 1.419124e+01 8.613814e+01 1.984873e+00 2.104852e+00 3.264784e+00 2.006791e+00 2.683527e+00 6.427708e+00 3.167912e+00 5.890139e+00 3.356598e+00 1.871526e+00 2.079247e+00 1.399514e+00 2.308834e+00 3.542169e-01 5.039487e-01 2.752853e-01 2.672533e-01 4.741846e-01 1.013901e+00 5.870969e-01 1.093439e+00 4.570947e-01 3.548946e-01 5.034974e-01 3.024675e-01 5.170093e-01
<GCONST> 1.228025e+02
<STATE> 4
<MEAN> 39
 -7.509482e+00 -8.921072e+00 -7.679860e+00 -4.073103e+00 8.123385e-01 -5.499470e+00 -4.606412e+00 -2.767664e+00 -1.415569e+00 -1.719125e+00 -6.600730e+00 -5.949978e+00 5.076917e+01 -1.596348e-01 2.507577e-01 4.417278e-03 -1.612521e-01 -3.302854e-01 -2.355460e-01 -2.445739e-01 -2.875563e-01 1.024871e-01 -1.542332e-01 2.788795e-01 -3.490882e-02 -8.043787e-01 6.347828e-02 5.474043e-02 9.138419e-02 -1.118436e-02 -1.303014e-01 6.756081e-02 -2.458623e-02 4.243490e-02 -5.059499e-02 2.698618e-02 3.611536e-02 -6.286260e-02 1.409227e-01
<VARIANCE> 39
 1.879639e+01 5.918323e+01 3.320211e+01 2.275978e+01 3.221780e+01 2.513795e+01 4.342655e+01 2.709931e+01 3.284529e+01 3.154141e+01 4.287922e+01 2.013228e+01 2.160496e+02 1.246950e+00 3.126623e+00 2.681767e+00 1.933705e+00 2.175180e+00 1.985614e+00 2.835811e+00 3.303469e+00 3.773693e+00 1.843080e+00 2.043059e+00 1.637266e+00 7.644934e+00 1.722609e-01 4.360189e-01 5.655705e-01 3.569156e-01 4.488002e-01 4.137140e-01 5.305629e-01 6.536188e-01 7.512975e-01 3.545725e-01 3.519572e-01 3.824594e-01 9.179393e-01
<GCONST> 1.197082e+02
<TRANSP> 5
 0.000000e+00 1.000000e+00 0.000000e+00 0.000000e+00 0.000000e+00
 0.000000e+00 9.131200e-01 8.688004e-02 0.000000e+00 0.000000e+00
 0.000000e+00 0.000000e+00 6.990761e-01 3.009240e-01 0.000000e+00
 0.000000e+00 0.000000e+00 0.000000e+00 9.026216e-01 9.737831e-02
 0.000000e+00 0.000000e+00 0.000000e+00 0.000000e+00 0.000000e+00
<ENDHMM>
~h "r"
<BEGINHMM>
<NUMSTATES> 5
<STATE> 2
<MEAN> 39
 -3.059203e+00 -4.502206e+00 -2.914226e+00 -4.406272e+00 -9.187791e+00 -3.769591e+00 -1.030139e+01 -3.542482e+00 -2.896206e+00 -1.626356e+00 -1.996260e+00 -6.734028e+00 6.107475e+01 1.060047e-01 -3.614827e-01 -1.466597e-01 -7.582367e-03 -9.784549e-02 5.743841e-02 -2.659197e-01 2.692873e-01 5.578394e-02 1.377609e-02 5.738574e-02 -1.334175e-01 4.336467e-01 1.896298e-02 -6.284195e-02 3.304783e-02 -9.408335e-02 -8.619287e-02 1.133704e-01 -3.749470e-02 3.995927e-02 -1.007062e-01 -7.609135e-03 6.164255e-02 -6.700951e-02 8.840085e-02
<VARIANCE> 39
 5.733478e+01 5.915536e+01 7.455430e+01 5.816532e+01 7.486073e+01 7.872581e+01 5.668005e+01 7.767385e+01 6.776559e+01 4.488460e+01 5.006975e+01 4.500731e+01 1.570918e+02 4.361718e+00 4.259261e+00 4.081431e+00 4.631939e+00 5.703588e+00 5.052690e+00 4.566285e+00 5.585610e+00 4.987172e+00 3.836959e+00 4.341639e+00 3.899769e+00 1.082015e+01 7.430068e-01 7.257136e-01 6.654601e-01 8.137141e-01 1.025396e+00 8.914104e-01 8.359804e-01 9.980931e-01 8.931632e-01 7.056051e-01 7.859414e-01 7.396164e-01 1.564873e+00
<GCONST> 1.446149e+02
<STATE> 3
<MEAN> 39
 -2.605612e-01 -1.118781e+01 -5.667719e+00 -7.088789e+00 -1.136968e+01 -6.248115e-01 -1.307376e+01 6.084431e-01 -1.380351e+00 -1.922061e+00 -2.331855e+00 -1.129342e+01 7.034984e+01 2.316250e-01 2.224534e-01 3.296137e-01 3.126228e-01 -6.851000e-02 -9.732318e-02 -9.182703e-02 -2.015970e-01 -3.861178e-01 2.080160e-01 -2.484132e-02 9.495752e-02 -5.516033e-01 -7.163834e-02 2.836564e-01 2.084186e-01 8.605897e-02 4.968981e-02 -8.897852e-02 1.144371e-01 -2.300491e-01 -1.657912e-01 1.160748e-02 4.311967e-03 1.997373e-01 -2.789613e-01
<VARIANCE> 39
 2.429572e+01 4.509561e+01 6.084829e+01 4.522342e+01 6.102023e+01 8.675580e+01 5.736696e+01 9.796466e+01 6.811578e+01 4.665638e+01 5.821530e+01 4.759719e+01 8.390913e+01 9.520280e-01 2.159383e+00 2.357546e+00 2.444625e+00 3.105658e+00 3.558758e+00 2.654757e+00 4.265779e+00 3.211506e+00 2.935897e+00 3.182414e+00 2.503352e+00 2.325757e+00 1.906943e-01 3.109028e-01 3.027607e-01 3.809114e-01 5.374470e-01 5.332661e-01 5.356639e-01 7.390132e-01 5.623541e-01 5.316987e-01 5.517002e-01 4.360432e-01 3.541293e-01
<GCONST> 1.258583e+02
<STATE> 4
<MEAN> 39
 1.113759e+00 -3.225036e+00 2.243335e+00 -3.735024e+00 -1.431808e+01 -1.145072e+00 -1.259671e+01 -5.643094e+00 -8.256998e+00 -8.876625e-01 -7.560810e-01 -7.273181e+00 6.390507e+01 -9.495340e-02 5.165694e-01 4.197636e-01 2.255238e-01 1.466228e-01 -1.040115e-01 2.941498e-01 -3.164927e-01 -3.471230e-01 -7.592535e-02 -1.059158e-01 2.854632e-01 -6.929579e-01 -1.439281e-01 -9.864686e-02 -1.358242e-01 -1.141436e-01 8.924180e-02 9.551438e-03 5.405820e-02 1.917408e-01 1.795863e-01 -1.280520e-01 8.406254e-04 -5.297203e-02 1.142556e-01
<VARIANCE> 39
 2.921722e+01 4.851038e+01 8.674258e+01 6.258698e+01 8.047837e+01 9.289657e+01 6.854937e+01 1.002757e+02 8.527421e+01 5.403176e+01 6.849753e+01 3.940748e+01 7.341620e+01 1.179780e+00 2.729463e+00 3.363119e+00 3.436724e+00 3.798224e+00 3.727297e+00 3.773736e+00 5.552854e+00 4.705603e+00 3.274774e+00 3.884451e+00 2.807165e+00 3.241241e+00 2.132614e-01 3.844766e-01 4.622478e-01 5.979029e-01 6.794981e-01 6.638789e-01 6.765766e-01 8.841004e-01 7.665249e-01 6.234530e-01 7.275479e-01 5.036011e-01 4.242138e-01
<GCONST> 1.338331e+02
<TRANSP> 5
 0.000000e+00 1.000000e+00 0.000000e+00 0.000000e+00 0.000000e+00
 0.000000e+00 6.572163e-01 3.427837e-01 0.000000e+00 0.000000e+00
 0.000000e+00 0.000000e+00 6.527759e-01 3.472241e-01 0.000000e+00
 0.000000e+00 0.000000e+00 0.000000e+00 7.123118e-01 2.876883e-01
 0.000000e+00 0.000000e+00 0.000000e+00 0.000000e+00 0.000000e+00
<ENDHMM>
~h "s"
<BEGINHMM>
<NUMSTATES> 5
<STATE> 2
<MEAN> 39
 -8.583079e+00 2.657984e+00 1.273118e-01 -1.923054e+00 -5.490272e+00 -6.226400e+00 -7.255879e+00 -3.730227e+00 -4.680455e+00 -3.023271e+00 -4.120121e+00 -4.501542e+00 5.935324e+01 -2.757607e+00 1.336562e+00 -5.852049e-01 6.059839e-01 1.255453e+00 -1.691158e-01 1.082146e+00 2.515015e-01 4.337178e-01 -2.012717e-01 1.720139e-01 1.000159e+00 -1.148620e+00 -1.896074e-01 -5.455692e-01 -2.210631e-01 -2.895328e-01 -3.609984e-01 1.927429e-01 -1.987997e-01 4.592483e-02 1.430265e-03 4.998003e-02 2.865779e-01 -9.083685e-02 1.917786e-01
<VARIANCE> 39
 8.196115e+01 5.008603e+01 6.110723e+01 3.968139e+01 6.054679e+01 5.725632e+01 5.900723e+01 5.486851e+01 4.915926e+01 3.907072e+01 4.337383e+01 3.257977e+01 1.328461e+02 5.413291e+00 5.366732e+00 3.764932e+00 3.258607e+00 4.556979e+00 4.256214e+00 4.012421e+00 5.150133e+00 3.692196e+00 3.242454e+00 3.558412e+00 2.887415e+00 3.653868e+00 7.621353e-01 7.478594e-01 4.777445e-01 5.007757e-01 6.904286e-01 6.230317e-01 7.094228e-01 7.331232e-01 6.443806e-01 5.638963e-01 5.707242e-01 4.717647e-01 4.135396e-01
<GCONST> 1.350078e+02
<STATE> 3
<MEAN> 39
 -1.945424e+01 6.839858e-01 -5.307411e+00 -2.344603e+00 -3.814754e+00 -5.539177e+00 -4.473729e+00 -1.630129e+00 -2.732444e+00 -2.540483e+00 -1.217530e+00 -1.182989e+00 5.383789e+01 -3.931549e-01 -2.431920e-01 -2.168817e-01 -1.186124e-01 -1.044964e-01 3.807042e-02 6.591309e-02 2.048847e-02 9.747181e-02 1.179903e-01 1.354060e-01 1.282658e-01 -3.081827e-01 4.596830e-01 -7.385205e-02 1.898656e-01 -5.023425e-02 -1.031894e-01 -3.494334e-02 -1.460033e-01 -5.573032e-02 -4.885301e-02 -2.538419e-02 -9.965625e-02 -1.452346e-01 1.684951e-01
<VARIANCE> 39
 1.113226e+02 4.124862e+01 4.372778e+01 2.751618e+01 3.200887e+01 3.204706e+01 3.792475e+01 3.286484e+01 2.918853e+01 2.438700e+01 2.547225e+01 2.192237e+01 1.392949e+02 2.238328e+00 1.587015e+00 1.868979e+00 1.520457e+00 1.666816e+00 1.895984e+00 1.901118e+00 2.030899e+00 2.007816e+00 1.806619e+00 1.868592e+00 1.598060e+00 1.643455e+00 5.277581e-01 3.191193e-01 3.420440e-01 3.214593e-01 3.700077e-01 4.028657e-01 4.353716e-01 4.494676e-01 4.129415e-01 3.722450e-01 3.767845e-01 3.566349e-01 3.096243e-01
<GCONST> 1.142098e+02
<STATE> 4
<MEAN> 39
 -1.138827e+01 -2.766621e-01 -2.311622e+00 -3.424197e+00 -6.581380e+00 -5.589149e+00 -7.240440e+00 -3.787180e+00 -3.276759e+00 -2.044778e+00 -2.113917e+00 -3.280728e+00 5.646072e+01 1.945326e+00 -7.352318e-01 5.719427e-01 -4.582712e-01 -8.443614e-01 1.401694e-02 -1.024350e+00 -3.379320e-01 -1.860892e-01 -1.544595e-01 -4.221850e-02 -7.782337e-01 1.618113e+00 2.767240e-01 -1.697112e-01 5.447271e-02 -8.445417e-02 -2.057170e-01 1.688725e-01 -1.995526e-01 2.314133e-02 -4.027058e-02 -4.545437e-02 1.359954e-01 -1.885540e-01 3.415241e-01
<VARIANCE> 39
 1.146970e+02 4.604968e+01 6.811459e+01 4.426210e+01 5.359572e+01 5.639870e+01 5.338268e+01 5.178397e+01 4.870456e+01 3.305433e+01 3.448579e+01 3.312683e+01 1.644753e+02 1.056466e+01 5.034229e+00 5.537133e+00 4.358519e+00 5.286677e+00 4.899393e+00 5.206104e+00 5.775892e+00 4.634218e+00 3.328541e+00 3.758551e+00 3.894556e+00 1.126215e+01 1.437502e+00 7.771545e-01 7.606830e-01 7.094790e-01 9.176462e-01 8.127012e-01 9.256437e-01 9.398245e-01 7.731669e-01 5.970149e-01 6.772094e-01 6.662748e-01 1.632236e+00
<GCONST> 1.433652e+02
<TRANSP> 5
 0.000000e+00 1.000000e+00 0.000000e+00 0.000000e+00 0.000000e+00
 0.000000e+00 6.137873e-01 3.862127e-01 0.000000e+00 0.000000e+00
 0.000000e+00 0.000000e+00 8.098084e-01 1.901917e-01 0.000000e+00
 0.000000e+00 0.000000e+00 0.000000e+00 6.738429e-01 3.261571e-01
 0.000000e+00 0.000000e+00 0.000000e+00 0.000000e+00 0.000000e+00
<ENDHMM>
~h "t"
<BEGINHMM>
<NUMSTATES> 5
<STATE> 2
<MEAN> 39
 -4.992360e+00 1.582924e+00 -4.033681e-01 -1.985719e+00 -7.221930e+00 -5.336392e+00 -8.165333e+00 -4.922030e+00 -4.023970e+00 -2.193872e+00 -3.782597e+00 -5.516469e+00 4.755593e+01 -8.653882e-01 3.766459e-01 -8.485019e-02 1.778968e-01 4.748020e-01 -1.035397e-01 4.527929e-01 7.465638e-02 7.784992e-02 -5.899104e-02 1.912310e-02 5.217577e-01 -1.311952e+00 -1.863341e-01 -3.982732e-01 -1.203482e-01 -2.328613e-01 -7.834183e-02 3.831354e-02 -6.618831e-02 8.834060e-02 2.503866e-02 -3.239093e-03 1.761856e-01 2.165557e-02 7.507369e-01
<VARIANCE> 39
 5.988044e+01 3.841090e+01 5.454886e+01 4.112119e+01 4.549357e+01 4.772700e+01 4.259110e+01 4.800243e+01 4.926363e+01 3.570971e+01 3.679845e+01 3.751981e+01 1.295354e+02 2.908865e+00 2.595573e+00 2.247797e+00 2.296689e+00 3.107326e+00 2.719339e+00 2.758686e+00 2.950916e+00 2.928125e+00 2.628137e+00 2.712630e+00 2.323243e+00 5.196004e+00 4.998049e-01 4.915559e-01 4.480829e-01 4.918993e-01 6.019202e-01 5.264654e-01 5.365238e-01 5.916800e-01 5.933742e-01 5.242013e-01 5.460011e-01 4.514107e-01 1.015230e+00
<GCONST> 1.276640e+02
<STATE> 3
<MEAN> 39
 -1.295950e+01 3.966263e-01 -1.865869e+00 -2.236890e+00 -4.778094e+00 -5.424733e+00 -5.654246e+00 -3.491949e+00 -3.286415e+00 -2.281749e+00 -2.220974e+00 -2.063120e+00 5.218480e+01 -4.926453e-01 -1.228940e+00 -5.382282e-01 -8.135138e-01 -1.600152e-01 -1.889433e-01 -2.530341e-01 1.958453e-01 1.386720e-01 -9.864137e-02 2.960691e-01 7.384150e-02 3.048462e+00 7.377022e-01 -2.778538e-01 6.484583e-02 -2.720831e-01 -5.584804e-01 1.104583e-01 -4.760434e-01 -1.186414e-02 -2.742872e-02 -2.110291e-02 6.845845e-02 -4.649469e-01 8.494515e-01
<VARIANCE> 39
 1.038153e+02 4.634280e+01 4.991304e+01 3.417739e+01 4.197733e+01 4.265495e+01 3.943785e+01 3.861311e+01 3.696885e+01 2.763832e+01 2.876352e+01 2.677714e+01 1.740474e+02 8.544678e+00 4.414187e+00 5.175639e+00 3.926044e+00 5.100472e+00 4.492435e+00 4.193289e+00 4.322158e+00 4.474208e+00 3.394889e+00 3.683954e+00 3.410365e+00 1.483478e+01 9.081824e-01 7.545741e-01 7.534975e-01 6.596336e-01 8.251514e-01 8.771087e-01 6.836875e-01 8.399534e-01 7.564117e-01 6.048014e-01 6.455372e-01 5.813823e-01 1.872405e+00
<GCONST> 1.386809e+02
<STATE> 4
<MEAN> 39
 -3.987097e+00 -3.829983e+00 -1.218928e+00 -5.547671e+00 -1.086085e+01 -3.234826e+00 -1.118215e+01 -4.683597e+00 -5.346451e+00 -2.276704e+00 -7.688478e-01 -5.926472e+00 6.341128e+01 8.557834e-01 -7.242589e-01 8.372071e-02 -5.509217e-01 -9.270372e-01 2.900868e-01 -7.515443e-01 2.194686e-01 6.363349e-02 -5.940184e-02 3.793394e-01 -6.748236e-01 1.856807e+00 1.353646e-02 1.409679e-01 9.208947e-02 1.188699e-01 1.691234e-02 1.321169e-01 9.325965e-02 5.558955e-02 2.259830e-02 -4.734362e-02 -2.674414e-02 -5.205505e-02 -5.039108e-01
<VARIANCE> 39
 5.487213e+01 5.322529e+01 1.037492e+02 5.898003e+01 8.305878e+01 9.119895e+01 6.195513e+01 7.209235e+01 7.441419e+01 4.861185e+01 5.587001e+01 4.392520e+01 1.248019e+02 5.465675e+00 5.050942e+00 5.813756e+00 5.222545e+00 7.294430e+00 6.280795e+00 5.583673e+00 6.475154e+00 6.126502e+00 4.249640e+00 5.167405e+00 4.395624e+00 1.382829e+01 9.241924e-01 7.109050e-01 9.177287e-01 8.023278e-01 1.247390e+00 1.042309e+00 9.729406e-01 1.023101e+00 9.546569e-01 7.574524e-01 8.964696e-01 7.617998e-01 1.372104e+00
<GCONST> 1.488340e+02
<TRANSP> 5
 0.000000e+00 1.000000e+00 0.000000e+00 0.000000e+00 0.000000e+00
 0.000000e+00 7.269797e-01 2.730203e-01 0.000000e+00 0.000000e+00
 0.000000e+00 0.000000e+00 5.825204e-01 4.174796e-01 0.000000e+00
 0.000000e+00 0.000000e+00 0.000000e+00 6.046250e-01 3.953750e-01
 0.000000e+00 0.000000e+00 0.000000e+00 0.000000e+00 0.000000e+00
<ENDHMM>
~h "u"
<BEGINHMM>
<NUMSTATES> 5
<STATE> 2
<MEAN> 39
 -6.136065e+00 -3.936939e-01 -2.454751e-01 -3.388453e+00 -7.932427e+00 -5.109512e+00 -9.485988e+00 -4.617442e+00 -5.158832e+00 -2.212947e+00 -1.792031e+00 -4.019991e+00 5.846110e+01 5.551426e-01 -3.570617e-01 -1.418991e-01 -7.174718e-01 -7.123617e-01 3.820005e-01 -6.565074e-01 -8.096340e-02 -8.316626e-02 -1.085656e-01 5.920295e-01 -3.019075e-01 1.497091e+00 1.929704e-01 -9.280790e-02 8.078339e-03 -1.515074e-01 -2.851523e-01 2.881958e-01 -1.131544e-01 1.598640e-02 -1.093126e-02 2.474948e-04 1.598059e-01 -1.752191e-01 9.027986e-02
<VARIANCE> 39
 8.922523e+01 5.140701e+01 8.510339e+01 6.115990e+01 6.763377e+01 6.496120e+01 5.946664e+01 6.135625e+01 5.928638e+01 3.965576e+01 4.086576e+01 3.414564e+01 1.472678e+02 8.433268e+00 5.127933e+00 5.990798e+00 5.567374e+00 7.582602e+00 5.554507e+00 5.828063e+00 6.932064e+00 5.405666e+00 4.153981e+00 4.669456e+00 4.018916e+00 1.215387e+01 1.098487e+00 8.202264e-01 8.606979e-01 8.550897e-01 1.131879e+00 9.543265e-01 9.270875e-01 1.014776e+00 8.829186e-01 7.239640e-01 7.427566e-01 6.365062e-01 1.762091e+00
<GCONST> 1.474810e+02
<STATE> 3
<MEAN> 39
 3.412975e-01 -4.322626e+00 -1.717449e+00 -9.103403e+00 -1.469913e+01 -1.576428e-01 -1.547842e+01 -6.609606e+00 -5.473395e+00 -2.817885e+00 3.281459e+00 -7.999508e+00 6.762653e+01 8.180572e-01 -4.133309e-01 -2.115299e-01 -9.347308e-01 -9.928409e-01 1.420349e+00 -5.429219e-01 -3.819276e-02 -5.666994e-02 7.584803e-04 8.079333e-01 -6.979599e-01 6.877122e-01 -4.423448e-01 2.745093e-01 4.855523e-02 4.026244e-01 6.016560e-01 -2.341106e-01 5.516877e-01 1.273730e-01 -2.003092e-02 -1.549166e-02 -5.274237e-01 2.621375e-01 -7.701581e-01
<VARIANCE> 39
 3.062457e+01 4.918735e+01 8.417622e+01 8.937878e+01 6.689310e+01 8.986721e+01 7.281157e+01 1.299130e+02 7.627182e+01 5.615592e+01 5.502932e+01 4.316256e+01 7.977467e+01 2.529170e+00 3.537042e+00 3.741341e+00 5.535703e+00 5.642720e+00 5.947291e+00 5.000989e+00 7.401077e+00 5.452426e+00 4.362527e+00 4.997252e+00 3.872241e+00 3.902707e+00 5.384276e-01 5.647796e-01 7.087702e-01 9.292033e-01 9.060936e-01 1.015970e+00 9.038186e-01 1.334447e+00 1.010923e+00 8.549564e-01 8.426166e-01 7.358440e-01 6.712710e-01
<GCONST> 1.436051e+02
<STATE> 4
<MEAN> 39
 1.469200e+00 -3.545374e+00 -1.793766e+00 -1.078071e+01 -1.473342e+01 3.011377e+00 -1.403882e+01 -5.936564e+00 -7.090372e+00 -2.558395e+00 7.782661e-01 -8.215721e+00 6.711238e+01 -3.992115e-03 1.900619e-01 1.093293e-01 3.883370e-01 3.087273e-01 -2.413011e-01 2.770521e-01 -4.707559e-02 -2.321790e-02 1.182825e-01 -4.046501e-01 4.799021e-02 -5.430954e-01 -9.117538e-02 6.449282e-02 4.059677e-02 2.062783e-01 1.597422e-01 -1.988854e-01 8.335581e-02 -1.823491e-03 5.391140e-02 2.793458e-02 -1.104619e-01 5.436015e-02 -1.684663e-01
<VARIANCE> 39
 2.528348e+01 6.383634e+01 8.343822e+01 9.206743e+01 6.929024e+01 8.353325e+01 6.194025e+01 1.191221e+02 7.545759e+01 6.104289e+01 6.562740e+01 4.543482e+01 6.731941e+01 7.198129e-01 2.125920e+00 2.119848e+00 3.360189e+00 2.752873e+00 3.197361e+00 2.772469e+00 3.882913e+00 3.245157e+00 2.967511e+00 3.333557e+00 2.471063e+00 2.105086e+00 1.484318e-01 3.078115e-01 3.296601e-01 4.941538e-01 4.906947e-01 5.263757e-01 5.064181e-01 7.047579e-01 5.699986e-01 5.458834e-01 5.970936e-01 4.671701e-01 2.725239e-01
<GCONST> 1.272544e+02
<TRANSP> 5
 0.000000e+00 1.000000e+00 0.000000e+00 0.000000e+00 0.000000e+00
 0.000000e+00 6.474868e-01 3.525132e-01 0.000000e+00 0.000000e+00
 0.000000e+00 0.000000e+00 5.129626e-01 4.870374e-01 0.000000e+00
 0.000000e+00 0.000000e+00 0.000000e+00 8.326956e-01 1.673044e-01
 0.000000e+00 0.000000e+00 0.000000e+00 0.000000e+00 0.000000e+00
<ENDHMM>
~h "v"
<BEGINHMM>
<NUMSTATES> 5
<STATE> 2
<MEAN> 39
 -5.720369e+00 -3.212366e+00 -9.603557e-01 -4.140341e+00 -8.282138e+00 -2.741488e+00 -8.362382e+00 -2.900852e+00 -4.227129e+00 -2.588475e+00 -1.643602e+00 -5.417910e+00 5.514945e+01 4.041251e-04 8.054070e-04 2.982348e-04 -7.923298e-04 1.777842e-04 5.770657e-04 1.920456e-06 -1.539215e-03 -3.851559e-04 2.390032e-04 -1.168943e-03 -1.209440e-03 7.453487e-05 5.293762e-05 1.484293e-04 1.038093e-04 6.097702e-05 2.683362e-05 9.535497e-05 -3.359811e-05 -1.456941e-05 1.142907e-04 1.394317e-04 6.521364e-05 -2.366633e-05 -8.404750e-05
<VARIANCE> 39
 6.548970e+01 6.558094e+01 6.975499e+01 5.597869e+01 7.619009e+01 6.664177e+01 6.092598e+01 6.794641e+01 5.794476e+01 4.215612e+01 4.686914e+01 4.500091e+01 2.513958e+02 2.532669e+00 2.732701e+00 2.556041e+00 2.640352e+00 3.358491e+00 3.125732e+00 3.024375e+00 3.669678e+00 3.178414e+00 2.664217e+00 2.899224e+00 2.436845e+00 5.033377e+00 3.927859e-01 4.190547e-01 3.991563e-01 4.514541e-01 5.906611e-01 5.447152e-01 5.501792e-01 6.469660e-01 5.645853e-01 4.966201e-01 5.287678e-01 4.459183e-01 6.618989e-01
<GCONST> 1.316507e+02
<STATE> 3
<MEAN> 39
 -5.720369e+00 -3.212366e+00 -9.603557e-01 -4.140341e+00 -8.282138e+00 -2.741488e+00 -8.362382e+00 -2.900852e+00 -4.227129e+00 -2.588475e+00 -1.643602e+00 -5.417910e+00 5.514945e+01 4.041251e-04 8.054070e-04 2.982348e-04 -7.923298e-04 1.777842e-04 5.770657e-04 1.920456e-06 -1.539215e-03 -3.851559e-04 2.390032e-04 -1.168943e-03 -1.209440e-03 7.453487e-05 5.293762e-05 1.484293e-04 1.038093e-04 6.097702e-05 2.683362e-05 9.535497e-05 -3.359811e-05 -1.456941e-05 1.142907e-04 1.394317e-04 6.521364e-05 -2.366633e-05 -8.404750e-05
<VARIANCE> 39
 6.548970e+01 6.558094e+01 6.975499e+01 5.597869e+01 7.619009e+01 6.664177e+01 6.092598e+01 6.794641e+01 5.794476e+01 4.215612e+01 4.686914e+01 4.500091e+01 2.513958e+02 2.532669e+00 2.732701e+00 2.556041e+00 2.640352e+00 3.358491e+00 3.125732e+00 3.024375e+00 3.669678e+00 3.178414e+00 2.664217e+00 2.899224e+00 2.436845e+00 5.033377e+00 3.927859e-01 4.190547e-01 3.991563e-01 4.514541e-01 5.906611e-01 5.447152e-01 5.501792e-01 6.469660e-01 5.645853e-01 4.966201e-01 5.287678e-01 4.459183e-01 6.618989e-01
<GCONST> 1.316507e+02
<STATE> 4
<MEAN> 39
 -5.720369e+00 -3.212366e+00 -9.603557e-01 -4.140341e+00 -8.282138e+00 -2.741488e+00 -8.362382e+00 -2.900852e+00 -4.227129e+00 -2.588475e+00 -1.643602e+00 -5.417910e+00 5.514945e+01 4.041251e-04 8.054070e-04 2.982348e-04 -7.923298e-04 1.777842e-04 5.770657e-04 1.920456e-06 -1.539215e-03 -3.851559e-04 2.390032e-04 -1.168943e-03 -1.209440e-03 7.453487e-05 5.293762e-05 1.484293e-04 1.038093e-04 6.097702e-05 2.683362e-05 9.535497e-05 -3.359811e-05 -1.456941e-05 1.142907e-04 1.394317e-04 6.521364e-05 -2.366633e-05 -8.404750e-05
<VARIANCE> 39
 6.548970e+01 6.558094e+01 6.975499e+01 5.597869e+01 7.619009e+01 6.664177e+01 6.092598e+01 6.794641e+01 5.794476e+01 4.215612e+01 4.686914e+01 4.500091e+01 2.513958e+02 2.532669e+00 2.732701e+00 2.556041e+00 2.640352e+00 3.358491e+00 3.125732e+00 3.024375e+00 3.669678e+00 3.178414e+00 2.664217e+00 2.899224e+00 2.436845e+00 5.033377e+00 3.927859e-01 4.190547e-01 3.991563e-01 4.514541e-01 5.906611e-01 5.447152e-01 5.501792e-01 6.469660e-01 5.645853e-01 4.966201e-01 5.287678e-01 4.459183e-01 6.618989e-01
<GCONST> 1.316507e+02
<TRANSP> 5
 0.000000e+00 1.000000e+00 0.000000e+00 0.000000e+00 0.000000e+00
 0.000000e+00 6.000000e-01 4.000000e-01 0.000000e+00 0.000000e+00
 0.000000e+00 0.000000e+00 6.000000e-01 4.000000e-01 0.000000e+00
 0.000000e+00 0.000000e+00 0.000000e+00 7.000000e-01 3.000000e-01
 0.000000e+00 0.000000e+00 0.000000e+00 0.000000e+00 0.000000e+00
<ENDHMM>
~h "w"
<BEGINHMM>
<NUMSTATES> 5
<STATE> 2
<MEAN> 39
 -6.153750e+00 -1.010995e+00 -1.041949e+00 -4.646348e+00 -7.997561e+00 -3.873532e+00 -8.870613e+00 -4.269804e+00 -4.952465e+00 -1.912345e+00 -1.581015e+00 -5.196186e+00 5.776019e+01 3.009824e-01 -1.056765e-01 -6.300439e-02 -4.107395e-01 -3.433622e-01 2.430694e-01 -2.157970e-01 -9.313408e-02 -1.076198e-01 -7.140761e-02 2.634570e-01 -1.515842e-03 8.137882e-01 1.050813e-01 -1.713009e-01 -2.959103e-02 -1.499737e-01 -1.885833e-01 1.497830e-01 -8.767886e-02 9.623305e-02 1.346542e-02 -2.633672e-02 7.712902e-02 -1.095774e-01 2.353101e-01
<VARIANCE> 39
 9.815318e+01 5.968263e+01 8.273341e+01 7.130272e+01 6.672083e+01 6.655468e+01 5.849942e+01 5.607781e+01 6.117343e+01 4.045080e+01 4.321186e+01 3.936464e+01 1.661237e+02 7.119920e+00 4.755114e+00 4.561521e+00 4.769027e+00 5.866908e+00 4.911602e+00 5.088737e+00 4.731548e+00 4.194004e+00 3.460021e+00 3.923672e+00 3.563727e+00 1.214795e+01 9.981820e-01 7.868702e-01 7.122567e-01 7.479535e-01 9.694850e-01 8.114777e-01 9.105439e-01 8.404574e-01 7.493008e-01 6.547301e-01 6.791779e-01 6.196924e-01 1.611367e+00
<GCONST> 1.443701e+02
<STATE> 3
<MEAN> 39
 3.403270e+00 -2.203259e+00 -2.552864e+00 -1.535323e+01 -1.595882e+01 5.231514e+00 -1.149850e+01 -8.025766e+00 -4.558943e+00 -5.911848e+00 3.230847e+00 -5.527637e+00 6.465451e+01 1.338221e-01 -6.445334e-01 -2.638866e-01 -5.308449e-01 -1.733844e-01 6.943838e-01 -7.632607e-02 6.242809e-02 2.243410e-01 7.349547e-02 4.429072e-01 -2.538573e-01 6.379289e-01 -2.696127e-01 -2.575026e-01 -8.596838e-02 3.170647e-01 3.978446e-01 -1.930039e-01 2.873966e-02 1.122593e-01 1.791025e-01 1.655367e-01 -2.114400e-01 -2.058656e-01 7.909080e-03
<VARIANCE> 39
 2.748296e+01 4.662804e+01 5.179518e+01 1.290360e+02 5.609784e+01 7.980943e+01 5.704615e+01 7.340284e+01 7.519252e+01 6.303662e+01 5.507644e+01 3.343370e+01 6.236160e+01 1.301339e+00 3.298646e+00 2.211788e+00 3.337848e+00 3.822544e+00 3.339053e+00 2.889983e+00 3.486429e+00 3.017128e+00 3.185627e+00 3.139715e+00 2.901323e+00 2.868258e+00 2.380964e-01 3.212915e-01 3.383549e-01 5.385322e-01 5.083449e-01 5.947236e-01 4.713257e-01 6.058050e-01 5.069317e-01 5.378938e-01 6.109158e-01 4.875572e-01 3.672296e-01
<GCONST> 1.281056e+02
<STATE> 4
<MEAN> 39
 8.842375e-01 -7.457226e+00 -2.423086e+00 -8.371247e+00 -1.277217e+01 1.785368e+00 -1.429895e+01 -4.519547e+00 -5.941991e+00 4.411631e-01 3.943277e-01 -8.971778e+00 6.816647e+01 -2.565864e-01 -7.924710e-01 4.458561e-02 5.087048e-01 3.465112e-01 -5.381956e-01 -1.215967e-01 6.369023e-01 4.714024e-01 7.528652e-02 -5.311214e-01 -5.226135e-01 3.868394e-01 -1.194844e-01 1.411709e-01 8.599406e-02 2.977750e-02 1.301613e-02 -1.356074e-01 1.702875e-01 1.351526e-01 -1.085574e-02 -2.671395e-01 -1.572229e-01 1.255669e-01 -1.264047e-01
<VARIANCE> 39
 2.838437e+01 5.057526e+01 8.337424e+01 9.390919e+01 7.989098e+01 1.072094e+02 6.879424e+01 1.122902e+02 9.316786e+01 5.572903e+01 7.194691e+01 4.024476e+01 7.969430e+01 1.248591e+00 3.122997e+00 3.919688e+00 4.730395e+00 4.896878e+00 5.108391e+00 3.674063e+00 5.979952e+00 5.147772e+00 4.089640e+00 4.205117e+00 3.628310e+00 2.979707e+00 2.216877e-01 3.765504e-01 5.803233e-01 7.340029e-01 8.727638e-01 8.062937e-01 7.237537e-01 9.481562e-01 8.508000e-01 7.270285e-01 7.827379e-01 5.774620e-01 4.830188e-01
<GCONST> 1.382111e+02
<TRANSP> 5
 0.000000e+00 1.000000e+00 0.000000e+00 0.000000e+00 0.000000e+00
 0.000000e+00 8.025229e-01 1.974771e-01 0.000000e+00 0.000000e+00
 0.000000e+00 0.000000e+00 6.729581e-01 3.270420e-01 0.000000e+00
 0.000000e+00 0.000000e+00 0.000000e+00 6.332035e-01 3.667965e-01
 0.000000e+00 0.000000e+00 0.000000e+00 0.000000e+00 0.000000e+00
<ENDHMM>
~h "y"
<BEGINHMM>
<NUMSTATES> 5
<STATE> 2
<MEAN> 39
 -4.370430e+00 -4.140398e+00 9.041744e+00 -7.385107e+00 -1.869863e+01 -5.994691e+00 -1.343047e+01 -2.413861e+00 -8.073838e+00 -4.824251e+00 3.321567e+00 -7.250484e+00 6.665736e+01 -1.229647e-01 2.265256e-01 2.638075e-01 2.031317e-02 -6.584215e-02 -5.987103e-02 2.023501e-02 -1.860286e-01 -1.257326e-01 5.574888e-02 1.109239e-01 1.934215e-01 -3.156617e-01 3.370623e-02 -1.508995e-01 -2.752069e-01 1.360698e-02 1.844041e-01 6.470154e-02 1.443144e-01 9.143690e-02 1.514737e-01 7.733664e-03 -1.846824e-01 -5.327295e-02 3.159645e-02
<VARIANCE> 39
 3.090254e+01 6.287862e+01 1.033213e+02 5.842838e+01 7.602710e+01 8.901743e+01 5.999805e+01 8.577338e+01 5.915149e+01 5.622530e+01 6.014308e+01 3.673518e+01 9.831751e+01 5.030257e-01 1.741319e+00 2.467129e+00 1.368117e+00 2.310272e+00 1.999640e+00 2.787051e+00 2.541631e+00 2.325320e+00 1.798312e+00 2.623154e+00 1.573333e+00 1.408203e+00 9.441746e-02 2.344699e-01 2.786496e-01 2.295441e-01 3.784977e-01 3.895519e-01 4.609486e-01 4.309720e-01 3.803685e-01 3.440110e-01 3.957265e-01 2.874159e-01 1.384061e-01
<GCONST> 1.172062e+02
<STATE> 3
<MEAN> 39
 -7.999138e+00 -4.826337e+00 -1.610748e+00 -2.424688e+00 -6.445580e+00 -5.208078e+00 -6.791558e+00 -1.935875e+00 -4.459493e+00 -3.482481e+00 -2.878335e+00 -3.201075e+00 4.959118e+01 -9.779943e-02 -6.001817e-03 -1.511136e-01 4.275928e-02 1.203202e-01 5.873515e-02 1.656727e-01 5.908836e-02 8.815121e-02 6.465213e-02 -2.561298e-02 2.386168e-02 -2.852016e-01 2.598762e-02 -1.016955e-02 -2.396886e-02 -3.222439e-02 3.847815e-04 3.530684e-02 -2.373440e-02 3.900321e-02 1.649360e-02 -9.392774e-03 -1.579034e-02 -4.966869e-02 4.946332e-02
<VARIANCE> 39
 5.127431e+01 5.218251e+01 5.204464e+01 3.425024e+01 5.316766e+01 4.401785e+01 3.781500e+01 4.876706e+01 3.885730e+01 3.512216e+01 3.617196e+01 2.878180e+01 1.488273e+02 5.338469e-01 1.260968e+00 1.167280e+00 1.039116e+00 1.476500e+00 1.537182e+00 1.780714e+00 1.975689e+00 1.859352e+00 1.688156e+00 1.862750e+00 1.506262e+00 8.692670e-01 8.919024e-02 1.856361e-01 1.878461e-01 2.066224e-01 2.907005e-01 2.942407e-01 3.444670e-01 3.561359e-01 3.540807e-01 3.379701e-01 3.553708e-01 3.014683e-01 9.834421e-02
<GCONST> 1.068296e+02
<STATE> 4
<MEAN> 39
 -3.117381e+00 -2.929806e+00 1.535642e+00 -5.705865e+00 -1.146161e+01 -3.287182e+00 -9.923248e+00 -4.420356e+00 -7.114368e+00 -2.130884e+00 -7.786553e-01 -6.511222e+00 6.038308e+01 1.870969e-01 -5.698693e-01 -4.127108e-01 -3.408736e-01 -3.069845e-02 1.616389e-03 -1.036583e-01 3.398360e-01 3.517575e-01 -9.785378e-03 4.235135e-02 -1.833928e-01 7.565961e-01 3.229510e-02 -2.200825e-01 -1.663366e-01 -1.365945e-01 3.840951e-02 8.434859e-02 -5.826535e-02 2.200974e-01 1.108423e-01 -3.653332e-02 -5.023460e-02 -1.452902e-01 2.372325e-01
<VARIANCE> 39
 5.217142e+01 6.669667e+01 1.129390e+02 6.858928e+01 8.897274e+01 7.893848e+01 6.135173e+01 7.852637e+01 7.279302e+01 6.086454e+01 5.970113e+01 3.617192e+01 1.649830e+02 2.222221e+00 3.391968e+00 4.117388e+00 3.094623e+00 4.171025e+00 3.345015e+00 3.700588e+00 4.638203e+00 4.084303e+00 3.369349e+00 3.683159e+00 2.645813e+00 5.889816e+00 3.417988e-01 4.441666e-01 5.643457e-01 5.044115e-01 6.953903e-01 5.973317e-01 6.041058e-01 8.342497e-01 6.549166e-01 6.257719e-01 6.313073e-01 5.172529e-01 7.232263e-01
<GCONST> 1.369782e+02
<TRANSP> 5
 0.000000e+00 1.000000e+00 0.000000e+00 0.000000e+00 0.000000e+00
 0.000000e+00 6.753218e-01 3.246783e-01 0.000000e+00 0.000000e+00
 0.000000e+00 0.000000e+00 7.766520e-01 2.233480e-01 0.000000e+00
 0.000000e+00 0.000000e+00 0.000000e+00 6.488475e-01 3.511525e-01
 0.000000e+00 0.000000e+00 0.000000e+00 0.000000e+00 0.000000e+00
<ENDHMM>
~h "z"
<BEGINHMM>
<NUMSTATES> 5
<STATE> 2
<MEAN> 39
 -8.434861e+00 1.749999e+00 -1.651207e+00 -1.485688e+00 -4.911699e+00 -5.078317e+00 -7.344924e+00 -2.325096e+00 -3.107457e+00 -2.617468e+00 -2.703018e+00 -2.827986e+00 5.549187e+01 -1.321321e+00 6.627918e-01 -2.701814e-01 4.762544e-01 5.340000e-01 -1.445524e-01 5.227134e-01 1.805496e-01 1.781544e-02 -3.984993e-02 1.064069e-01 3.895709e-01 -8.887174e-01 5.930584e-02 -2.200922e-01 1.425812e-02 -1.146539e-01 -1.720556e-01 4.361734e-02 -1.258905e-01 1.647748e-02 -2.117482e-02 2.323154e-02 8.324486e-02 -1.076680e-01 9.619623e-02
<VARIANCE> 39
 8.593980e+01 4.795118e+01 4.004615e+01 4.853621e+01 4.745243e+01 5.386726e+01 5.365659e+01 5.017214e+01 3.660954e+01 3.276977e+01 4.034126e+01 3.381338e+01 1.459306e+02 3.609868e+00 3.345474e+00 2.672662e+00 2.543197e+00 2.977547e+00 2.798356e+00 3.052011e+00 2.795028e+00 2.616226e+00 2.290267e+00 2.357334e+00 2.124587e+00 1.878016e+00 4.487703e-01 4.812870e-01 3.917391e-01 3.931157e-01 4.638418e-01 4.472992e-01 5.438985e-01 4.603401e-01 4.490451e-01 4.366355e-01 4.466840e-01 4.015954e-01 2.358592e-01
<GCONST> 1.241593e+02
<STATE> 3
<MEAN> 39
 -1.221073e+01 -2.010882e+00 -3.643463e+00 -1.451102e+00 -4.973744e+00 -6.025551e+00 -5.621125e+00 -1.983551e+00 -3.595424e+00 -3.369730e+00 -1.833519e+00 -1.541499e+00 4.500807e+01 -1.690199e-01 8.703736e-02 2.428618e-02 7.750308e-02 6.689401e-02 4.077765e-02 7.941273e-02 1.447105e-02 2.816777e-02 8.752417e-02 3.651717e-03 3.552680e-02 -2.554775e-01 7.531611e-02 -3.060889e-02 4.810009e-02 -3.119134e-02 -1.664320e-02 4.772040e-03 -3.226839e-02 -7.990812e-03 -3.340647e-03 -8.482289e-03 -1.637360e-02 -3.271418e-02 9.589583e-02
<VARIANCE> 39
 6.357948e+01 6.316380e+01 2.946832e+01 2.706700e+01 2.771550e+01 3.099499e+01 2.992619e+01 2.866343e+01 3.088495e+01 2.480281e+01 2.413408e+01 1.855066e+01 1.340842e+02 4.578434e-01 9.616757e-01 8.554568e-01 9.579869e-01 1.160141e+00 1.392653e+00 1.523481e+00 1.482259e+00 1.736352e+00 1.565195e+00 1.604146e+00 1.315282e+00 6.038063e-01 1.209583e-01 1.736167e-01 1.703881e-01 1.963697e-01 2.327679e-01 2.768043e-01 2.958284e-01 2.997881e-01 3.523744e-01 3.312602e-01 3.131161e-01 2.646872e-01 1.069558e-01
<GCONST> 1.000287e+02
<STATE> 4
<MEAN> 39
 -1.102470e+01 3.080917e+00 -4.748582e-01 1.495512e-01 -5.238754e+00 -6.549096e+00 -6.581081e+00 -3.440289e+00 -3.549124e+00 -2.479935e+00 -2.502634e+00 -2.770207e+00 5.319826e+01 1.175422e+00 -7.219845e-01 3.323739e-01 -4.952635e-01 -7.418009e-01 -1.954959e-01 -5.989594e-01 -3.176530e-01 2.184446e-02 -6.537048e-02 3.950341e-03 -3.388690e-01 1.715455e+00 3.339432e-01 -3.191970e-01 -8.552782e-02 -2.666638e-01 -2.975012e-01 1.120987e-01 -1.811042e-01 2.142572e-02 7.775327e-02 -3.567252e-02 7.732201e-02 -1.460206e-01 4.367507e-01
<VARIANCE> 39
 8.513280e+01 5.275549e+01 4.448512e+01 3.964375e+01 3.886058e+01 4.877758e+01 3.928641e+01 3.828640e+01 4.246127e+01 2.597715e+01 2.590633e+01 2.584299e+01 1.830091e+02 7.201486e+00 4.860149e+00 3.252044e+00 3.787533e+00 4.043943e+00 3.945506e+00 3.254776e+00 3.875083e+00 3.562560e+00 3.007158e+00 2.519420e+00 2.787966e+00 8.409160e+00 1.006111e+00 6.488992e-01 4.881400e-01 5.499245e-01 6.634148e-01 6.864309e-01 5.904353e-01 7.042138e-01 6.262463e-01 5.556042e-01 4.513909e-01 5.508438e-01 1.207016e+00
<GCONST> 1.333033e+02
<TRANSP> 5
 0.000000e+00 1.000000e+00 0.000000e+00 0.000000e+00 0.000000e+00
 0.000000e+00 7.227958e-01 2.772042e-01 0.000000e+00 0.000000e+00
 0.000000e+00 0.000000e+00 8.501480e-01 1.498521e-01 0.000000e+00
 0.000000e+00 0.000000e+00 0.000000e+00 7.471845e-01 2.528155e-01
 0.000000e+00 0.000000e+00 0.000000e+00 0.000000e+00 0.000000e+00
<ENDHMM>
~h "ai"
<BEGINHMM>
<NUMSTATES> 5
<STATE> 2
<MEAN> 39
 -8.180392e+00 -1.369606e-01 -5.498333e-01 -2.747274e+00 -7.022090e+00 -4.687851e+00 -6.929292e+00 -4.920908e+00 -4.172391e+00 -2.102235e+00 -2.267386e+00 -3.388042e+00 5.663157e+01 -1.326069e-01 -6.049887e-01 6.233068e-02 -4.191419e-01 -5.144436e-01 -1.653416e-01 -3.025140e-01 2.509930e-01 6.654254e-02 -5.826418e-02 4.453132e-01 -1.686748e-01 1.188352e+00 2.420420e-01 -2.336758e-01 4.843700e-02 -1.260207e-01 -4.108970e-01 1.810804e-01 -2.155530e-01 1.524400e-01 4.707230e-02 -8.222512e-02 1.691867e-01 -2.138606e-01 3.116931e-01
<VARIANCE> 39
 1.110626e+02 6.015931e+01 7.635618e+01 4.620939e+01 6.574300e+01 6.505801e+01 4.627936e+01 5.358627e+01 6.415452e+01 3.562980e+01 3.541146e+01 3.513234e+01 1.605111e+02 7.960080e+00 5.190315e+00 4.785596e+00 4.005358e+00 7.988616e+00 4.994240e+00 4.846074e+00 5.317465e+00 5.357320e+00 3.720985e+00 4.496919e+00 3.456085e+00 1.271992e+01 1.119071e+00 7.481396e-01 6.851065e-01 6.712580e-01 1.122257e+00 8.677644e-01 7.962718e-01 9.474354e-01 8.851008e-01 6.743909e-01 7.249945e-01 6.143429e-01 1.548306e+00
<GCONST> 1.445076e+02
<STATE> 3
<MEAN> 39
 -1.897105e+00 -8.261160e+00 1.169771e+00 -7.273700e+00 -1.621257e+01 -2.783120e+00 -1.339309e+01 -1.432643e+00 -3.501883e+00 -3.466457e+00 2.088102e+00 -8.856134e+00 6.941245e+01 5.465069e-01 -1.386395e+00 -5.711699e-02 -7.757244e-01 -1.338153e+00 8.043844e-01 -4.444949e-01 1.412105e+00 4.634273e-01 -6.282158e-01 4.557919e-01 -9.641716e-01 1.400814e+00 -2.026527e-01 4.039499e-01 -6.576816e-02 3.170981e-01 6.084838e-01 7.072281e-03 4.736266e-01 -1.620483e-01 -1.378503e-01 5.282003e-03 -4.525286e-01 2.353027e-01 -7.950813e-01
<VARIANCE> 39
 2.952439e+01 5.775993e+01 9.874527e+01 5.521200e+01 8.169434e+01 1.080449e+02 6.393753e+01 9.226364e+01 8.033345e+01 5.370463e+01 6.084852e+01 4.332888e+01 1.029326e+02 2.899440e+00 3.623614e+00 4.244700e+00 3.954654e+00 6.532856e+00 5.918263e+00 5.626601e+00 6.587562e+00 5.748828e+00 4.483518e+00 5.610239e+00 3.693316e+00 4.755548e+00 5.547386e-01 4.815699e-01 7.027705e-01 6.332695e-01 9.301056e-01 1.068613e+00 8.534396e-01 1.090950e+00 1.037004e+00 7.652984e-01 8.964467e-01 6.515414e-01 7.285635e-01
<GCONST> 1.433588e+02
<STATE> 4
<MEAN> 39
 -2.727237e+00 -1.076091e+01 3.518716e+00 -8.974915e+00 -1.829795e+01 -5.040856e+00 -1.006571e+01 1.921217e+00 -5.279002e+00 -6.340810e+00 1.019084e+00 -1.024376e+01 6.989838e+01 8.689754e-02 4.286162e-01 1.560093e-01 2.780277e-01 1.318777e-01 -2.439238e-01 8.820195e-02 -1.381583e-01 -3.608059e-01 2.208656e-01 -1.566307e-01 7.670850e-02 -6.914464e-01 2.042941e-03 1.822893e-01 -2.082710e-02 1.155052e-01 1.817844e-01 -4.276904e-02 -5.640870e-03 -1.722432e-01 -1.581555e-02 1.007031e-01 -5.832696e-02 7.344385e-02 -2.148213e-01
<VARIANCE> 39
 2.176800e+01 7.101226e+01 8.677782e+01 4.856543e+01 7.839792e+01 1.099808e+02 5.058181e+01 8.061168e+01 6.859364e+01 5.628681e+01 6.698940e+01 3.174327e+01 9.426220e+01 6.310011e-01 1.493499e+00 1.883707e+00 1.441558e+00 2.620871e+00 2.351233e+00 2.423204e+00 2.751644e+00 2.349884e+00 1.910771e+00 2.414469e+00 1.620824e+00 1.393590e+00 1.306138e-01 2.286578e-01 2.551995e-01 2.402477e-01 3.928199e-01 4.165676e-01 4.343023e-01 5.023702e-01 4.024617e-01 3.516682e-01 4.012034e-01 3.103740e-01 1.965289e-01
<GCONST> 1.177618e+02
<TRANSP> 5
 0.000000e+00 1.000000e+00 0.000000e+00 0.000000e+00 0.000000e+00
 0.000000e+00 7.013255e-01 2.986744e-01 0.000000e+00 0.000000e+00
