~o
<STREAMINFO> 1 39
<VECSIZE> 39<NULLD><MFCC_D_A_0><DIAGC>
~s "silst"
<MEAN> 39
 -1.050031e+01 2.014735e+00 -2.036201e+00 -4.956842e-01 -2.547548e+00 -2.050231e+00 -2.628035e+00 -2.145030e+00 -2.383253e+00 -1.811738e+00 -1.305211e+00 -1.428613e+00 3.519079e+01 -3.374344e-02 1.220203e-02 4.762747e-03 -4.801109e-03 1.820964e-02 3.752176e-02 2.340397e-02 -1.262266e-03 1.106470e-02 3.229182e-02 1.263419e-02 -8.151480e-04 -3.021846e-02 1.553459e-03 -2.492910e-02 1.710164e-04 6.575219e-04 -9.540945e-03 -8.223963e-03 -1.060763e-02 4.051531e-03 -8.936905e-03 -3.646517e-03 -1.026594e-02 -1.263764e-03 3.025411e-02
<VARIANCE> 39
 9.080451e+00 7.300943e+00 8.903994e+00 1.078423e+01 1.212328e+01 1.463742e+01 1.525004e+01 1.791129e+01 1.689058e+01 1.665690e+01 1.547459e+01 1.476912e+01 2.056195e+01 1.561004e-01 3.250524e-01 4.939272e-01 6.891014e-01 8.859788e-01 1.077803e+00 1.212117e+00 1.400494e+00 1.403413e+00 1.412458e+00 1.338006e+00 1.240243e+00 8.160087e-02 3.204639e-02 6.809573e-02 1.023664e-01 1.437946e-01 1.836721e-01 2.222089e-01 2.498998e-01 2.886684e-01 2.903666e-01 2.925749e-01 2.760777e-01 2.575945e-01 1.790858e-02
<GCONST> 7.512305e+01
~h "@"
<BEGINHMM>
<NUMSTATES> 5
<STATE> 2
<MEAN> 39
 -1.082769e+01 9.692644e-01 -5.167443e-01 -1.890839e+00 -5.541834e+00 -5.453924e+00 -6.685831e+00 -4.088904e+00 -3.951056e+00 -2.152937e+00 -2.140575e+00 -2.903169e+00 5.480291e+01 1.202083e-01 -6.040509e-01 -1.765444e-01 -5.091513e-01 -2.404075e-01 -7.192202e-02 -4.088231e-01 1.222852e-01 1.649363e-01 -8.705983e-02 2.225447e-01 -1.581003e-01 1.603884e+00 3.871707e-01 -2.925444e-01 -3.126166e-02 -2.128273e-01 -3.625369e-01 1.559468e-01 -2.706214e-01 6.075544e-02 2.701760e-02 9.206978e-03 1.336888e-01 -2.470287e-01 4.743789e-01
<VARIANCE> 39
 1.206502e+02 5.030972e+01 6.297071e+01 3.870847e+01 5.219218e+01 5.136341e+01 4.672874e+01 5.026123e+01 4.863960e+01 3.240254e+01 3.462616e+01 3.034577e+01 1.594168e+02 9.862360e+00 5.005434e+00 4.811259e+00 4.411023e+00 5.681845e+00 4.505764e+00 4.870194e+00 4.887066e+00 4.732955e+00 3.351942e+00 3.726151e+00 3.562991e+00 1.333365e+01 1.177525e+00 7.859976e-01 6.920747e-01 6.486046e-01 9.002869e-01 7.836099e-01 7.698581e-01 8.383775e-01 7.881601e-01 6.191278e-01 6.611366e-01 6.041341e-01 1.572483e+00
<GCONST> 1.416933e+02
<STATE> 3
<MEAN> 39
 -3.866730e+00 -4.664924e+00 -1.691280e+00 -6.601300e+00 -9.924380e+00 -5.289132e+00 -1.146270e+01 -4.239400e+00 -4.299849e+00 -2.148403e+00 -8.705570e-01 -6.102197e+00 6.520433e+01 2.045644e+00 -1.564700e+00 -9.465891e-02 -1.539832e+00 -2.007362e+00 9.081868e-01 -1.713723e+00 5.945590e-01 5.311292e-01 -4.871710e-02 1.128514e+00 -1.682462e+00 3.235622e+00 -1.672465e-01 1.593450e-01 5.645219e-02 2.350144e-01 4.890835e-02 3.780370e-01 2.243980e-01 1.168029e-01 3.759243e-02 -1.900002e-02 -1.854517e-03 -7.014623e-02 -8.624155e-01
<VARIANCE> 39
 4.539020e+01 4.307704e+01 8.842108e+01 5.841292e+01 6.521919e+01 8.217830e+01 5.206559e+01 6.673146e+01 6.687811e+01 4.421426e+01 4.844306e+01 4.021264e+01 1.057984e+02 6.222377e+00 4.998203e+00 6.554438e+00 5.154523e+00 6.406051e+00 6.778315e+00 5.849916e+00 8.236698e+00 8.069528e+00 4.803136e+00 5.307585e+00 4.769544e+00 9.499180e+00 1.023731e+00 6.271894e-01 8.670192e-01 7.603675e-01 1.034353e+00 9.306479e-01 8.633829e-01 9.493266e-01 9.229363e-01 7.076566e-01 8.519695e-01 7.269363e-01 1.022605e+00
<GCONST> 1.465368e+02
<STATE> 4
<MEAN> 39
 -6.049916e-01 -7.724067e+00 -1.436849e+00 -8.584750e+00 -1.390981e+01 -5.698593e-01 -1.384844e+01 -3.283344e+00 -3.396269e+00 -2.809357e+00 1.247534e+00 -9.943929e+00 6.916344e+01 2.990716e-01 -6.664152e-02 6.121469e-02 1.636312e-01 -4.959665e-02 2.354283e-01 9.943292e-03 1.155190e-01 4.027694e-03 2.198580e-02 -1.412188e-01 -1.840733e-01 -1.356799e-01 -2.234218e-01 3.649143e-01 8.458971e-02 3.410174e-01 3.289763e-01 -2.001501e-01 3.288352e-01 -1.502709e-01 -1.564413e-01 2.020350e-02 -2.733058e-01 2.724627e-01 -5.915266e-01
<VARIANCE> 39
 2.913948e+01 5.738585e+01 9.613503e+01 7.174802e+01 7.537395e+01 1.071663e+02 6.234822e+01 1.037153e+02 1.030378e+02 5.558750e+01 6.446476e+01 4.910723e+01 7.882910e+01 1.763973e+00 3.697601e+00 3.323335e+00 3.995315e+00 4.583830e+00 5.090652e+00 4.074661e+00 5.697197e+00 5.427120e+00 3.490686e+00 4.387322e+00 3.479232e+00 5.044724e+00 4.243582e-01 5.595989e-01 6.237093e-01 7.517564e-01 9.049592e-01 8.855946e-01 8.400596e-01 1.108976e+00 1.036905e+00 7.120178e-01 8.602157e-01 7.011300e-01 8.163338e-01
<GCONST> 1.413318e+02
<TRANSP> 5
 0.000000e+00 1.000000e+00 0.000000e+00 0.000000e+00 0.000000e+00
 0.000000e+00 6.528623e-01 3.471377e-01 0.000000e+00 0.000000e+00
 0.000000e+00 0.000000e+00 3.256672e-01 6.743328e-01 0.000000e+00
 0.000000e+00 0.000000e+00 0.000000e+00 7.383464e-01 2.616536e-01
 0.000000e+00 0.000000e+00 0.000000e+00 0.000000e+00 0.000000e+00
<ENDHMM>
~h "a"
<BEGINHMM>
<NUMSTATES> 5
<STATE> 2
<MEAN> 39
 -1.348292e+00 -1.149806e+01 -4.413070e+00 -9.761787e+00 -1.144323e+01 -1.371187e-01 -1.201261e+01 1.081560e+00 -1.258973e+00 -3.500359e+00 -1.563871e+00 -1.048531e+01 7.088145e+01 2.809061e-02 -1.370245e+00 -8.822743e-01 -2.945762e-01 6.393330e-01 1.091594e+00 1.433436e-01 7.978338e-01 5.665079e-01 -7.288612e-01 -6.944492e-01 -6.662256e-01 9.029284e-01 -1.908412e-01 4.350963e-01 2.373908e-01 3.820485e-01 2.648660e-01 -1.977767e-01 1.390800e-01 -4.125166e-01 -3.115126e-01 4.559205e-02 -9.392463e-02 3.535886e-01 -5.587150e-01
<VARIANCE> 39
 2.791192e+01 5.632593e+01 6.110162e+01 5.261798e+01 7.309181e+01 8.968354e+01 5.745180e+01 9.079535e+01 6.948598e+01 6.085378e+01 5.689619e+01 4.513086e+01 1.038180e+02 1.225910e+00 2.524578e+00 2.572528e+00 2.523331e+00 3.470921e+00 3.717359e+00 3.243033e+00 4.699539e+00 3.589980e+00 3.544054e+00 3.855074e+00 2.916131e+00 2.541712e+00 2.915944e-01 3.758464e-01 3.875313e-01 4.609474e-01 6.616917e-01 6.398840e-01 6.172600e-01 8.174265e-01 6.475025e-01 6.235781e-01 6.920249e-01 5.453481e-01 5.136896e-01
<GCONST> 1.314568e+02
<STATE> 3
<MEAN> 39
 -2.052029e+00 -1.444138e+01 -6.660920e+00 -1.035717e+01 -8.036350e+00 2.309373e+00 -1.135697e+01 9.075118e-01 -1.290801e+00 -5.793968e+00 -3.742144e+00 -1.114826e+01 7.279589e+01 5.697512e-02 2.085473e-01 4.524118e-02 1.282593e-01 1.239476e-01 -1.570673e-01 6.139370e-03 -3.487109e-03 -2.358639e-01 8.995502e-02 -1.745708e-01 3.644419e-02 -3.606949e-01 5.894071e-02 3.137204e-01 1.664453e-01 8.566111e-02 -1.312901e-01 -2.370478e-01 -3.026205e-02 -9.490573e-02 -7.341848e-02 1.895696e-01 7.611476e-02 8.718479e-02 -2.700074e-01
<VARIANCE> 39
 2.281187e+01 5.783902e+01 4.849852e+01 4.314058e+01 6.193948e+01 7.550829e+01 4.900362e+01 7.468168e+01 6.694637e+01 6.268259e+01 4.993206e+01 4.444338e+01 7.338664e+01 3.712649e-01 9.612857e-01 9.798418e-01 1.072636e+00 1.782956e+00 1.904778e+00 1.580187e+00 1.988359e+00 1.564493e+00 1.631461e+00 1.726510e+00 1.427579e+00 6.870381e-01 8.041292e-02 1.907061e-01 1.688701e-01 1.966778e-01 2.783607e-01 2.822917e-01 3.036255e-01 3.792560e-01 3.048127e-01 3.018040e-01 3.209422e-01 2.764122e-01 1.418279e-01
<GCONST> 1.073078e+02
<STATE> 4
<MEAN> 39
 -8.357651e-01 -7.746094e+00 -3.881036e+00 -6.058578e+00 -7.733035e+00 -1.707544e+00 -1.029489e+01 -6.584324e-01 -3.543265e+00 -2.550632e+00 -5.251036e+00 -8.906161e+00 6.210838e+01 1.842696e-03 1.252636e+00 5.951717e-01 7.871779e-01 5.133052e-02 -5.528451e-01 2.489996e-01 -6.931304e-01 -2.651228e-01 2.486304e-01 -7.410853e-02 5.244882e-01 -1.895237e+00 -1.048430e-01 5.706613e-02 4.929401e-02 5.787837e-02 6.165956e-02 3.701382e-02 7.041437e-02 -9.385101e-02 -9.092120e-03 -5.651258e-02 2.808127e-02 6.633094e-02 -8.040440e-02
<VARIANCE> 39
 3.086418e+01 5.654430e+01 5.340281e+01 5.546574e+01 6.632953e+01 6.514365e+01 5.553472e+01 7.548422e+01 6.268238e+01 6.006721e+01 6.079413e+01 4.568912e+01 1.411649e+02 1.372361e+00 2.466857e+00 2.092032e+00 2.534215e+00 2.925353e+00 2.927669e+00 3.057670e+00 3.863866e+00 3.243021e+00 3.074717e+00 3.043222e+00 2.390953e+00 3.261337e+00 2.221417e-01 4.110810e-01 3.464611e-01 4.675228e-01 4.828488e-01 5.069839e-01 5.470571e-01 7.081690e-01 5.474719e-01 5.627738e-01 5.538881e-01 4.281425e-01 5.414598e-01
<GCONST> 1.281322e+02
<TRANSP> 5
 0.000000e+00 1.000000e+00 0.000000e+00 0.000000e+00 0.000000e+00
 0.000000e+00 5.480160e-01 4.519840e-01 0.000000e+00 0.000000e+00
 0.000000e+00 0.000000e+00 7.686412e-01 2.313587e-01 0.000000e+00
 0.000000e+00 0.000000e+00 0.000000e+00 7.116457e-01 2.883543e-01
 0.000000e+00 0.000000e+00 0.000000e+00 0.000000e+00 0.000000e+00
<ENDHMM>
~h "b"
<BEGINHMM>
<NUMSTATES> 5
<STATE> 2
<MEAN> 39
 -4.053370e-01 1.745936e+00 3.008885e+00 -7.552914e-01 -9.230482e+00 -2.538917e+00 -8.070358e+00 -6.716485e+00 -7.065321e+00 -1.986789e+00 -2.167067e+00 -5.956679e+00 5.263110e+01 4.090495e-02 1.008479e+00 3.035976e-01 4.853244e-01 5.040953e-01 5.585543e-02 5.518004e-01 -4.040005e-02 -1.509155e-02 2.205270e-02 -2.569452e-01 1.112736e-01 -1.363979e+00 -1.632906e-01 -2.245686e-01 -1.239272e-01 -2.078706e-01 -9.287892e-03 -6.369573e-02 -1.419797e-01 1.071969e-01 1.212558e-01 -4.059297e-02 1.157847e-01 3.259964e-02 4.425811e-01
<VARIANCE> 39
 6.822475e+01 3.970040e+01 5.625296e+01 3.984298e+01 6.257033e+01 5.950820e+01 4.591452e+01 5.680652e+01 6.158283e+01 4.120501e+01 4.580322e+01 3.222948e+01 1.174518e+02 2.004452e+00 2.294530e+00 2.089270e+00 2.236515e+00 2.784847e+00 2.727968e+00 2.746776e+00 3.438447e+00 3.007978e+00 2.501087e+00 2.438046e+00 2.094395e+00 3.875823e+00 3.958656e-01 3.894803e-01 3.819259e-01 4.359370e-01 5.599852e-01 5.158741e-01 5.208577e-01 6.385956e-01 6.158842e-01 4.983389e-01 4.854948e-01 4.218383e-01 6.082209e-01
<GCONST> 1.263622e+02
<STATE> 3
<MEAN> 39
 -2.281263e+00 4.950836e+00 3.283626e+00 3.440877e-01 -5.741343e+00 -2.611517e+00 -6.044240e+00 -5.784949e+00 -6.481087e+00 -2.258265e+00 -2.523711e+00 -4.965766e+00 4.870709e+01 -6.769524e-01 -9.961665e-01 -6.359578e-01 -7.688894e-01 2.792623e-01 -3.753013e-01 -5.056916e-01 1.000860e-01 4.648947e-01 1.781778e-02 4.925375e-01 4.376392e-01 2.198582e+00 -9.211613e-02 -8.475597e-01 -3.280071e-01 -5.811555e-01 -4.942911e-01 -4.817360e-02 -4.433893e-01 1.248551e-01 1.452660e-01 6.444852e-02 2.640932e-01 -8.779432e-02 1.294100e+00
<VARIANCE> 39
 8.968967e+01 4.294552e+01 4.213703e+01 3.442688e+01 4.922497e+01 5.162978e+01 3.976021e+01 4.595287e+01 5.122589e+01 3.175535e+01 3.620238e+01 3.000271e+01 1.196382e+02 6.767032e+00 5.038126e+00 4.246822e+00 4.171388e+00 4.922040e+00 4.283026e+00 4.090036e+00 4.182355e+00 4.901226e+00 3.482497e+00 3.515415e+00 3.068358e+00 1.051717e+01 9.529427e-01 6.505015e-01 6.125458e-01 6.533620e-01 8.429094e-01 8.130453e-01 6.439521e-01 8.866646e-01 9.682366e-01 6.406583e-01 6.504884e-01 6.217620e-01 1.158281e+00
<GCONST> 1.380253e+02
<STATE> 4
<MEAN> 39
 -2.916821e+00 -3.700516e+00 -1.231462e+00 -5.752435e+00 -9.558136e+00 -3.599443e+00 -1.155324e+01 -4.859500e+00 -5.496690e+00 -9.920712e-01 5.368829e-01 -5.772055e+00 6.401781e+01 1.890942e-01 -1.177551e+00 -3.866464e-01 -8.460132e-01 -8.977932e-01 2.021662e-02 -7.233071e-01 5.749301e-01 5.277380e-01 1.682347e-02 3.486871e-01 -4.884531e-01 2.153268e+00 1.270826e-01 1.481207e-01 1.345897e-01 1.179665e-01 -8.087160e-02 1.711968e-01 1.332801e-01 1.216420e-01 -5.549396e-02 -1.174702e-01 -1.403480e-01 -1.586489e-01 -3.883321e-01
<VARIANCE> 39
 5.693758e+01 5.306482e+01 8.478236e+01 7.089352e+01 7.792645e+01 7.672263e+01 6.264979e+01 8.173311e+01 7.775629e+01 5.093975e+01 5.604625e+01 4.455798e+01 1.025449e+02 4.970745e+00 6.033256e+00 5.698552e+00 6.397288e+00 7.202991e+00 6.386865e+00 5.778890e+00 7.292574e+00 7.594084e+00 4.895927e+00 5.667496e+00 4.698987e+00 1.270159e+01 8.202514e-01 7.872295e-01 8.309938e-01 9.850178e-01 1.280165e+00 1.030763e+00 1.032067e+00 1.123716e+00 1.065805e+00 8.955677e-01 1.039249e+00 8.166684e-01 1.354482e+00
<GCONST> 1.502535e+02
<TRANSP> 5
 0.000000e+00 1.000000e+00 0.000000e+00 0.000000e+00 0.000000e+00
 0.000000e+00 6.960089e-01 3.039911e-01 0.000000e+00 0.000000e+00
 0.000000e+00 0.000000e+00 5.831357e-01 4.168643e-01 0.000000e+00
 0.000000e+00 0.000000e+00 0.000000e+00 7.215531e-01 2.784469e-01
 0.000000e+00 0.000000e+00 0.000000e+00 0.000000e+00 0.000000e+00
<ENDHMM>
~h "c"
<BEGINHMM>
<NUMSTATES> 5
<STATE> 2
<MEAN> 39
 -8.263260e+00 2.710762e+00 1.256005e+00 -4.814538e-01 -6.400704e+00 -6.904956e+00 -7.290602e+00 -3.561407e+00 -3.943714e+00 -2.675989e+00 -3.070153e+00 -3.745055e+00 4.975661e+01 -9.550934e-01 1.786295e-01 -2.648044e-01 3.271171e-02 5.146978e-01 3.710991e-02 3.690292e-01 4.110497e-02 1.316643e-01 -5.240759e-02 8.657537e-02 3.367990e-01 -6.876019e-01 -1.563014e-01 -3.463490e-01 -1.240906e-01 -2.360498e-01 -1.176389e-01 6.510202e-02 -9.493195e-02 2.977517e-02 -5.824055e-03 1.076024e-02 1.186735e-01 2.749467e-03 6.426743e-01
<VARIANCE> 39
 9.359061e+01 3.952492e+01 5.027673e+01 2.933543e+01 4.773505e+01 4.341142e+01 4.044660e+01 3.954076e+01 3.988978e+01 2.794171e+01 3.012967e+01 2.915940e+01 1.532440e+02 4.599381e+00 3.394374e+00 2.454542e+00 2.213621e+00 3.360289e+00 2.867197e+00 2.969402e+00 2.817213e+00 2.876953e+00 2.226281e+00 2.321046e+00 2.124225e+00 6.079380e+00 7.171152e-01 5.783148e-01 4.255192e-01 4.594406e-01 6.109159e-01 5.450358e-01 5.482846e-01 5.851482e-01 5.706993e-01 4.382299e-01 4.611346e-01 4.366326e-01 1.186061e+00
<GCONST> 1.275503e+02
<STATE> 3
<MEAN> 39
 -1.623807e+01 -3.034154e-01 -2.100135e+00 -3.862653e+00 -4.854955e+00 -5.878232e+00 -5.792482e+00 -3.668228e+00 -3.209363e+00 -2.557392e+00 -1.767895e+00 -1.183123e+00 5.679588e+01 7.009156e-02 -1.085195e+00 -4.526125e-02 -9.449355e-01 -9.311827e-01 -4.537953e-01 -8.490503e-01 6.439506e-02 7.293453e-02 -2.116700e-01 2.584788e-01 -1.392503e-01 3.720015e+00 1.124865e+00 -1.575582e-01 3.115250e-01 -4.351552e-02 -6.258857e-01 2.730473e-02 -5.180776e-01 6.983542e-02 -1.752334e-02 -1.007989e-01 5.930647e-02 -5.392071e-01 2.397728e-01
<VARIANCE> 39
 1.006629e+02 3.974139e+01 5.699315e+01 4.020743e+01 4.022859e+01 4.135683e+01 3.600932e+01 3.496778e+01 3.603030e+01 2.568321e+01 2.400458e+01 2.295597e+01 1.409778e+02 1.300005e+01 4.611752e+00 6.490429e+00 4.409457e+00 5.475398e+00 5.023232e+00 4.615460e+00 4.641813e+00 4.653772e+00 3.158056e+00 3.369319e+00 3.460413e+00 1.314318e+01 1.452011e+00 9.304106e-01 9.397055e-01 7.690724e-01 9.513389e-01 9.652365e-01 7.576294e-01 9.576301e-01 8.397664e-01 6.107238e-01 6.376756e-01 5.608792e-01 1.848727e+00
<GCONST> 1.403887e+02
<STATE> 4
<MEAN> 39
 -3.918225e+00 -3.141703e+00 3.390179e+00 -3.996942e+00 -1.422971e+01 -6.858277e+00 -1.276313e+01 -3.744468e+00 -5.788957e+00 -3.677063e+00 9.633349e-01 -5.640816e+00 6.605881e+01 1.505519e+00 -1.112349e+00 -7.120164e-02 -5.399293e-01 -1.055939e+00 4.520212e-01 -9.138792e-01 5.050656e-01 3.381675e-01 -2.352060e-02 4.125336e-01 -9.844428e-01 1.385125e+00 -2.013672e-01 6.517260e-02 -2.431357e-01 3.689462e-02 3.416711e-01 3.225875e-01 2.980987e-01 3.058903e-02 4.746154e-02 7.391454e-02 -1.005395e-01 -1.893262e-02 -5.430594e-01
<VARIANCE> 39
 4.365184e+01 5.081851e+01 1.009433e+02 5.848659e+01 7.567163e+01 8.543594e+01 5.921383e+01 7.468377e+01 7.835140e+01 5.131189e+01 5.224169e+01 3.495161e+01 9.564925e+01 6.796980e+00 5.624732e+00 5.935589e+00 4.488398e+00 8.060450e+00 5.453805e+00 6.247199e+00 7.195449e+00 6.462348e+00 4.443783e+00 4.829712e+00 4.099014e+00 8.711696e+00 8.256249e-01 6.731881e-01 7.713251e-01 7.374863e-01 1.209162e+00 1.002122e+00 1.056912e+00 1.021183e+00 9.292911e-01 6.881695e-01 8.655193e-01 6.364487e-01 1.239706e+00
<GCONST> 1.469144e+02
<TRANSP> 5
 0.000000e+00 1.000000e+00 0.000000e+00 0.000000e+00 0.000000e+00
 0.000000e+00 8.116196e-01 1.883805e-01 0.000000e+00 0.000000e+00
 0.000000e+00 0.000000e+00 6.528959e-01 3.471042e-01 0.000000e+00
 0.000000e+00 0.000000e+00 0.000000e+00 6.412202e-01 3.587799e-01
 0.000000e+00 0.000000e+00 0.000000e+00 0.000000e+00 0.000000e+00
<ENDHMM>
~h "d"
<BEGINHMM>
<NUMSTATES> 5
<STATE> 2
<MEAN> 39
 -4.807054e+00 2.781322e+00 2.307117e+00 5.441175e-01 -6.978004e+00 -5.899440e+00 -7.430134e+00 -3.752180e+00 -3.903637e+00 -2.425283e+00 -3.574116e+00 -5.083246e+00 5.005473e+01 -4.702815e-01 3.439338e-01 1.461782e-01 1.379355e-01 4.947467e-01 -1.676669e-01 2.614384e-01 1.405594e-01 1.363499e-01 -9.441341e-02 -2.392284e-02 2.972354e-01 -3.143451e-01 -1.840794e-01 -4.806119e-01 -9.885347e-02 -3.488185e-01 -2.024689e-01 -9.067851e-03 -1.470110e-01 1.596208e-02 -9.062630e-02 -2.793422e-03 2.237340e-01 5.855834e-02 8.485478e-01
<VARIANCE> 39
 1.141667e+02 4.047607e+01 5.521169e+01 3.724372e+01 4.859904e+01 4.670882e+01 4.422390e+01 4.741061e+01 4.546681e+01 3.429277e+01 3.397846e+01 3.562068e+01 1.342721e+02 5.383495e+00 3.662591e+00 2.848518e+00 2.848692e+00 3.656153e+00 3.195126e+00 3.254399e+00 3.821879e+00 3.252381e+00 2.697710e+00 2.927525e+00 2.555709e+00 7.112356e+00 8.769128e-01 6.384974e-01 4.953542e-01 5.723935e-01 7.094142e-01 6.342230e-01 6.069450e-01 8.015488e-01 6.974193e-01 5.378888e-01 6.108118e-01 4.861328e-01 1.226752e+00
<GCONST> 1.333205e+02
<STATE> 3
<MEAN> 39
 -7.998799e+00 -7.531534e-01 1.284952e+00 -2.164875e+00 -5.700180e+00 -6.183824e+00 -7.323625e+00 -3.768043e+00 -4.733039e+00 -2.381615e+00 -2.650509e+00 -2.930672e+00 5.706647e+01 -1.163304e-01 -1.639751e+00 -5.872214e-02 -1.232340e+00 -1.189062e+00 -3.651738e-01 -9.417452e-01 1.199977e-01 -3.053005e-01 -1.328117e-01 1.003423e+00 4.752925e-02 4.144072e+00 5.667543e-01 -1.389437e-01 6.526563e-02 -1.335179e-01 -7.623051e-01 2.097474e-01 -3.958286e-01 1.018402e-01 1.443959e-02 -5.231489e-02 2.717729e-01 -4.415272e-01 2.796069e-01
<VARIANCE> 39
 8.483395e+01 5.082846e+01 8.069362e+01 4.518907e+01 5.224306e+01 5.558537e+01 4.547786e+01 4.573127e+01 4.876655e+01 3.475877e+01 3.301332e+01 3.001954e+01 1.398327e+02 9.979636e+00 5.486551e+00 6.957496e+00 5.219994e+00 7.494754e+00 5.984949e+00 5.444183e+00 7.360285e+00 6.616635e+00 4.035920e+00 4.980041e+00 4.377246e+00 1.202869e+01 1.145059e+00 8.962170e-01 9.681257e-01 8.762787e-01 1.111533e+00 1.028228e+00 9.015482e-01 1.113793e+00 1.026528e+00 7.169392e-01 7.748157e-01 6.713586e-01 1.850820e+00
<GCONST> 1.467342e+02
<STATE> 4
<MEAN> 39
 -1.763895e+00 -4.255903e+00 2.845621e+00 -4.602306e+00 -1.466731e+01 -4.328663e+00 -1.320056e+01 -3.185322e+00 -6.698038e+00 -2.478181e+00 1.381633e+00 -6.619899e+00 6.702109e+01 4.406892e-01 -6.759661e-01 -2.246858e-01 -4.991502e-01 -9.227419e-01 3.445418e-01 -4.831893e-01 4.561534e-01 2.167905e-01 -7.088190e-02 4.595088e-01 -5.217381e-01 1.052098e+00 -8.474164e-02 1.792797e-01 -1.230043e-01 1.340799e-01 3.267113e-01 1.448488e-01 2.686212e-01 -8.346319e-03 9.617394e-02 -2.121322e-02 -2.838240e-01 -3.631096e-02 -5.220399e-01
<VARIANCE> 39
 3.503638e+01 5.076252e+01 1.058857e+02 5.625413e+01 7.785550e+01 9.735708e+01 6.154588e+01 9.883146e+01 8.672877e+01 5.365622e+01 6.058267e+01 4.004258e+01 8.290868e+01 3.556111e+00 4.185192e+00 5.118439e+00 4.279080e+00 7.407946e+00 5.487028e+00 5.519788e+00 7.738491e+00 6.323413e+00 4.182445e+00 5.404372e+00 3.869965e+00 7.058443e+00 6.002293e-01 5.818802e-01 6.901271e-01 6.775486e-01 1.121455e+00 9.882184e-01 9.221953e-01 1.146027e+00 9.534268e-01 7.430816e-01 8.992306e-01 6.437320e-01 1.035415e+00
<GCONST> 1.451621e+02
<TRANSP> 5
 0.000000e+00 1.000000e+00 0.000000e+00 0.000000e+00 0.000000e+00
 0.000000e+00 7.374130e-01 2.625870e-01 0.000000e+00 0.000000e+00
 0.000000e+00 0.000000e+00 5.737912e-01 4.262088e-01 0.000000e+00
 0.000000e+00 0.000000e+00 0.000000e+00 6.694449e-01 3.305551e-01
 0.000000e+00 0.000000e+00 0.000000e+00 0.000000e+00 0.000000e+00
<ENDHMM>
~h "e"
<BEGINHMM>
<NUMSTATES> 5
<STATE> 2
<MEAN> 39
 -1.365886e+00 -9.463997e+00 9.175797e-01 -7.421420e+00 -1.578717e+01 -2.987829e+00 -1.284427e+01 1.678442e+00 -3.918031e+00 -2.823655e+00 -3.977812e-01 -8.593884e+00 6.984071e+01 4.754100e-02 -6.982152e-01 1.044845e-01 -3.607104e-01 -5.789056e-01 4.254473e-01 1.535182e-01 7.502757e-01 -3.918202e-02 -3.663728e-01 9.840313e-02 -3.164719e-01 6.622212e-01 -1.415943e-01 3.587528e-01 -1.313776e-02 2.042572e-01 3.600428e-01 -3.964474e-02 2.048689e-01 -3.196954e-01 -1.025871e-01 8.229735e-02 -1.333288e-01 1.535224e-01 -4.741977e-01
<VARIANCE> 39
 2.860776e+01 6.479140e+01 9.393433e+01 5.051947e+01 7.931532e+01 9.028130e+01 5.890670e+01 1.020083e+02 7.524509e+01 5.569146e+01 6.392274e+01 4.186580e+01 8.762944e+01 1.519061e+00 3.045689e+00 3.396120e+00 2.962799e+00 4.794047e+00 4.167610e+00 3.735278e+00 5.288127e+00 3.828260e+00 3.427566e+00 4.088105e+00 2.846315e+00 3.687424e+00 3.572780e-01 4.919584e-01 5.008085e-01 5.312191e-01 8.591077e-01 7.345325e-01 6.979632e-01 9.532591e-01 7.726108e-01 6.602162e-01 7.341674e-01 5.551553e-01 6.598485e-01
<GCONST> 1.361851e+02
<STATE> 3
<MEAN> 39
 -2.391713e+00 -1.078988e+01 1.103215e+00 -9.686359e+00 -1.671849e+01 -2.265286e+00 -1.147404e+01 1.262053e+00 -4.288944e+00 -4.460293e+00 6.767197e-01 -9.645045e+00 7.198431e+01 1.935843e-02 2.260673e-01 8.511797e-02 1.037644e-01 1.139919e-01 -7.655468e-02 4.747970e-02 -1.376660e-01 -1.760473e-01 7.909398e-02 -1.368402e-01 -4.154005e-03 -3.245099e-01 4.113741e-02 1.749703e-01 6.779077e-03 1.513183e-01 1.247992e-01 -1.306482e-01 -2.716428e-02 -1.245623e-01 -6.336388e-03 8.038390e-02 -6.082635e-02 6.641664e-02 -2.243982e-01
<VARIANCE> 39
 2.572000e+01 6.024609e+01 1.167795e+02 4.675127e+01 9.060686e+01 1.159026e+02 5.142913e+01 1.001110e+02 6.821984e+01 5.239605e+01 7.210183e+01 4.132520e+01 5.398958e+01 3.664133e-01 9.699557e-01 1.156249e+00 1.141925e+00 1.509390e+00 1.581312e+00 1.530729e+00 1.780530e+00 1.668450e+00 1.486310e+00 1.705705e+00 1.279015e+00 8.053330e-01 7.832453e-02 1.747792e-01 1.989319e-01 1.990489e-01 3.071074e-01 2.764850e-01 3.027941e-01 3.628568e-01 2.975776e-01 2.804927e-01 3.059940e-01 2.410877e-01 1.485854e-01
<GCONST> 1.090001e+02
<STATE> 4
<MEAN> 39
 -1.505975e+00 -3.040366e+00 5.245020e+00 -3.801138e+00 -1.467982e+01 -3.374511e+00 -1.094876e+01 -2.823529e+00 -7.637501e+00 -2.643964e+00 -1.395548e+00 -7.206057e+00 6.104410e+01 3.151629e-02 7.379039e-01 -3.609003e-02 6.397647e-01 6.096920e-01 -2.150479e-01 3.406215e-01 -5.054417e-01 4.133125e-02 7.220273e-02 -2.963260e-01 2.576492e-01 -1.376933e+00 -6.532540e-02 1.227138e-03 -6.223311e-02 -1.418180e-02 8.865476e-02 1.300709e-02 2.282004e-02 1.711464e-02 6.257999e-02 5.796323e-03 1.704779e-03 2.404009e-02 -4.542013e-02
<VARIANCE> 39
 3.372582e+01 6.595767e+01 9.635270e+01 4.900928e+01 8.879975e+01 8.172594e+01 5.855708e+01 8.113728e+01 6.707751e+01 4.863865e+01 7.204767e+01 3.597932e+01 1.087675e+02 9.150274e-01 1.876960e+00 1.840561e+00 1.945221e+00 2.504528e+00 2.422626e+00 2.633593e+00 3.072896e+00 2.565997e+00 2.263977e+00 2.371480e+00 1.874831e+00 2.181686e+00 1.566264e-01 2.951562e-01 2.739126e-01 3.343035e-01 4.364330e-01 4.239811e-01 4.611242e-01 5.512137e-01 4.636956e-01 4.207207e-01 4.427384e-01 3.414422e-01 3.306292e-01
<GCONST> 1.224299e+02
<TRANSP> 5
 0.000000e+00 1.000000e+00 0.000000e+00 0.000000e+00 0.000000e+00
 0.000000e+00 6.069136e-01 3.930864e-01 0.000000e+00 0.000000e+00
 0.000000e+00 0.000000e+00 7.713572e-01 2.286428e-01 0.000000e+00
 0.000000e+00 0.000000e+00 0.000000e+00 6.868092e-01 3.131908e-01
 0.000000e+00 0.000000e+00 0.000000e+00 0.000000e+00 0.000000e+00
<ENDHMM>
~h "f"
<BEGINHMM>
<NUMSTATES> 5
<STATE> 2
<MEAN> 39
 -5.813038e+00 1.148326e+00 1.018301e-01 -1.700498e+00 -6.166959e+00 -5.126982e+00 -7.686003e+00 -4.398905e+00 -4.961478e+00 -2.889843e+00 -4.408620e+00 -4.362594e+00 5.645627e+01 -2.336836e+00 8.575202e-01 -1.930817e-01 6.499558e-01 1.228812e+00 -3.272216e-01 7.271755e-01 2.574264e-01 6.090916e-01 -9.231266e-02 -2.796543e-02 7.766061e-01 -1.081534e+00 -3.033627e-01 -4.845256e-01 -1.109001e-01 -2.862300e-01 -3.091676e-01 9.739878e-02 -1.906609e-01 6.927619e-02 -1.009396e-02 5.431411e-02 2.897829e-01 -1.016316e-01 3.951355e-01
<VARIANCE> 39
 6.621266e+01 4.765688e+01 5.412597e+01 4.058795e+01 5.433504e+01 5.765166e+01 4.495848e+01 5.346394e+01 4.655995e+01 3.609957e+01 4.118198e+01 3.104081e+01 1.313757e+02 5.722901e+00 4.377141e+00 3.179291e+00 3.430916e+00 4.280130e+00 4.186942e+00 3.552073e+00 4.678114e+00 4.222844e+00 3.210610e+00 3.749265e+00 2.523154e+00 4.797389e+00 7.422034e-01 6.014273e-01 4.759866e-01 5.249904e-01 7.210872e-01 6.649311e-01 5.886692e-01 6.825143e-01 7.101593e-01 5.637745e-01 5.872967e-01 4.355217e-01 6.598750e-01
<GCONST> 1.339157e+02
<STATE> 3
<MEAN> 39
 -1.901747e+01 -1.835077e+00 -3.366941e+00 -1.938300e+00 -3.094656e+00 -4.862054e+00 -5.841012e+00 -1.690428e+00 -2.483246e+00 -1.763589e+00 -1.510691e+00 -1.778098e+00 5.516859e+01 -2.068461e-01 -3.487232e-01 -1.548419e-01 -1.271070e-01 -1.809820e-01 -6.421617e-02 -3.512508e-02 -2.455963e-02 2.997419e-02 7.408186e-02 1.046672e-01 -2.152298e-03 1.018719e-01 6.454731e-01 -4.315883e-02 1.325741e-01 -1.109459e-01 -2.171955e-01 2.301309e-02 -1.723561e-01 -1.134153e-01 -1.274830e-01 -6.227276e-02 -2.864676e-02 -1.868732e-01 2.419875e-01
<VARIANCE> 39
 8.832537e+01 5.071359e+01 3.422714e+01 2.604000e+01 3.137343e+01 3.504177e+01 3.676338e+01 3.006272e+01 2.897578e+01 2.321907e+01 2.336426e+01 2.064909e+01 1.082967e+02 4.944774e+00 1.966669e+00 2.136819e+00 1.869850e+00 2.075669e+00 2.340954e+00 2.361579e+00 2.348586e+00 2.378787e+00 2.085982e+00 2.155128e+00 1.779617e+00 2.787258e+00 7.357639e-01 4.059153e-01 3.863402e-01 4.170978e-01 4.784189e-01 4.939421e-01 5.072668e-01 5.076637e-01 5.056722e-01 4.433992e-01 4.577765e-01 3.769666e-01 4.186166e-01
<GCONST> 1.192314e+02
<STATE> 4
<MEAN> 39
 -6.627744e+00 -9.913773e-01 9.119593e-01 -2.460294e+00 -9.282373e+00 -5.034832e+00 -9.960332e+00 -5.629436e+00 -5.610754e+00 -2.428151e+00 -1.149065e+00 -4.570643e+00 6.030986e+01 1.576233e+00 -5.947374e-01 1.875149e-01 -5.814554e-01 -9.650923e-01 2.181786e-01 -7.765743e-01 -1.203285e-01 -2.543733e-01 -1.722041e-01 3.367513e-01 -6.859511e-01 1.446523e+00 -3.858128e-02 -1.078406e-01 -3.504238e-02 -8.781262e-02 -8.330087e-02 1.526227e-01 7.216722e-03 1.451504e-01 4.554641e-02 -2.135953e-02 8.246829e-02 -7.960673e-02 4.761878e-02
<VARIANCE> 39
 8.953436e+01 5.630426e+01 8.935890e+01 5.318095e+01 7.660362e+01 7.020903e+01 5.572465e+01 6.158439e+01 5.891183e+01 4.112591e+01 4.496663e+01 3.883566e+01 1.294875e+02 1.012084e+01 5.625650e+00 5.888885e+00 5.042853e+00 6.985598e+00 5.891258e+00 5.521093e+00 6.127854e+00 5.356969e+00 4.277079e+00 4.730822e+00 4.178020e+00 1.062493e+01 1.313479e+00 8.300278e-01 7.857407e-01 7.647721e-01 1.161957e+00 9.393478e-01 9.298379e-01 9.369323e-01 8.741857e-01 7.173205e-01 8.176229e-01 6.825552e-01 1.476124e+00
<GCONST> 1.475382e+02
<TRANSP> 5
 0.000000e+00 1.000000e+00 0.000000e+00 0.000000e+00 0.000000e+00
 0.000000e+00 6.129597e-01 3.870403e-01 0.000000e+00 0.000000e+00
 0.000000e+00 0.000000e+00 7.883990e-01 2.116010e-01 0.000000e+00
 0.000000e+00 0.000000e+00 0.000000e+00 7.155311e-01 2.844689e-01
 0.000000e+00 0.000000e+00 0.000000e+00 0.000000e+00 0.000000e+00
<ENDHMM>
~h "g"
<BEGINHMM>
<NUMSTATES> 5
<STATE> 2
<MEAN> 39
 1.274833e+00 -1.907312e+00 2.396022e+00 -2.508530e+00 -1.088847e+01 -4.754529e+00 -1.112481e+01 -3.861034e+00 -6.116522e+00 -8.841367e-01 -1.246648e+00 -7.953191e+00 5.880761e+01 9.423606e-02 1.373279e+00 5.968273e-01 1.128253e+00 6.083716e-01 -4.085932e-01 6.513001e-01 -3.817299e-01 -1.786719e-01 6.417801e-02 -5.134261e-01 5.050645e-01 -2.109830e+00 -3.647166e-01 -2.003239e-01 -1.679968e-01 -2.473812e-01 1.059446e-01 5.995466e-02 5.796869e-02 7.632858e-02 1.499611e-01 -1.278036e-01 8.596409e-03 8.037885e-02 3.458894e-01
<VARIANCE> 39
 3.321841e+01 5.104427e+01 6.352442e+01 5.366831e+01 6.564487e+01 7.819824e+01 5.797479e+01 7.460944e+01 7.182774e+01 4.703004e+01 5.568485e+01 4.041868e+01 1.143004e+02 2.134822e+00 2.736994e+00 2.557858e+00 3.302363e+00 3.919500e+00 3.952838e+00 3.505537e+00 4.624447e+00 4.786309e+00 3.275782e+00 3.375978e+00 2.713780e+00 4.889644e+00 4.049825e-01 5.171380e-01 4.579430e-01 5.562351e-01 7.984965e-01 7.975808e-01 6.774094e-01 7.618024e-01 8.598082e-01 6.264287e-01 7.027978e-01 5.221999e-01 9.576582e-01
<GCONST> 1.350175e+02
<STATE> 3
<MEAN> 39
 -6.260141e+00 4.134035e-02 1.995040e+00 -1.350928e+00 -7.786510e+00 -6.463690e+00 -8.563965e+00 -3.941912e+00 -4.952414e+00 -1.891113e+00 -1.653493e+00 -3.841383e+00 5.763566e+01 -5.899273e-01 -6.864456e-01 -2.061946e-02 -4.972554e-01 -3.953499e-01 -3.673392e-01 -1.639727e-01 1.572630e-01 1.212547e-01 -2.278897e-01 4.712222e-01 1.641778e-01 1.631967e+00 2.211558e-01 -2.368979e-01 -4.873325e-02 -2.474326e-01 -3.652780e-01 1.989292e-01 -1.462679e-01 9.553480e-02 2.058192e-02 -4.575144e-02 1.556444e-01 -2.199475e-01 3.444574e-01
<VARIANCE> 39
 9.428252e+01 5.530249e+01 7.464907e+01 4.424926e+01 7.457008e+01 6.850365e+01 5.143009e+01 5.680281e+01 5.807721e+01 3.637125e+01 4.005878e+01 3.208113e+01 1.413242e+02 8.194522e+00 5.664048e+00 5.441031e+00 4.335005e+00 8.480309e+00 5.846443e+00 5.087593e+00 5.783336e+00 5.696535e+00 3.801760e+00 4.734736e+00 3.603203e+00 1.176460e+01 1.173573e+00 9.795909e-01 8.729517e-01 7.632000e-01 1.323840e+00 1.094747e+00 8.750986e-01 9.885004e-01 9.808823e-01 7.104052e-01 8.432131e-01 6.458266e-01 1.846597e+00
<GCONST> 1.468872e+02
<STATE> 4
<MEAN> 39
 -1.206761e+00 -2.152739e+00 4.855000e+00 -2.715073e+00 -1.398891e+01 -4.376322e+00 -1.051949e+01 -3.643795e+00 -7.823712e+00 -1.840342e+00 -2.810094e-01 -5.854213e+00 6.301163e+01 9.860039e-03 -1.174660e-01 -2.017209e-01 -2.445051e-01 -7.882684e-03 2.253317e-01 4.451809e-02 1.888703e-01 2.217313e-01 -9.418889e-02 -7.410087e-04 -1.566920e-01 -2.998161e-02 -6.762682e-02 -4.466619e-02 -1.474976e-01 -3.371159e-02 1.730903e-01 7.425292e-02 -7.987369e-03 4.308036e-02 7.097004e-02 -1.506098e-02 -6.968082e-02 -3.159369e-02 -2.348582e-02
<VARIANCE> 39
 4.588787e+01 5.619999e+01 8.735197e+01 5.107368e+01 8.576788e+01 8.285072e+01 6.384353e+01 9.585073e+01 7.986059e+01 4.930130e+01 6.436704e+01 3.586137e+01 1.061059e+02 1.910177e+00 2.656208e+00 2.861483e+00 2.901472e+00 4.050840e+00 3.204928e+00 3.085817e+00 4.607934e+00 3.970001e+00 2.987258e+00 3.291762e+00 2.474393e+00 3.665028e+00 3.142373e-01 3.784594e-01 4.129275e-01 4.566936e-01 7.441984e-01 5.858850e-01 5.850723e-01 7.750044e-01 6.297802e-01 5.332683e-01 6.604443e-01 3.973994e-01 6.007924e-01
<GCONST> 1.326819e+02
<TRANSP> 5
 0.000000e+00 1.000000e+00 0.000000e+00 0.000000e+00 0.000000e+00
 0.000000e+00 5.913841e-01 4.086159e-01 0.000000e+00 0.000000e+00
 0.000000e+00 0.000000e+00 7.345340e-01 2.654660e-01 0.000000e+00
 0.000000e+00 0.000000e+00 0.000000e+00 6.995943e-01 3.004057e-01
 0.000000e+00 0.000000e+00 0.000000e+00 0.000000e+00 0.000000e+00
<ENDHMM>
~h "h"
<BEGINHMM>
<NUMSTATES> 5
<STATE> 2
<MEAN> 39
 -3.949661e+00 -1.095526e+00 6.728879e-01 -1.870848e+00 -5.535585e+00 -3.208465e+00 -6.987828e+00 -3.766869e+00 -5.448359e+00 -2.691267e+00 -4.214056e+00 -5.381328e+00 5.874639e+01 -1.402976e+00 6.923431e-01 4.800424e-02 6.461319e-01 1.205078e+00 -7.672537e-02 8.349242e-01 2.858349e-02 4.320269e-01 -1.256518e-01 9.232145e-03 8.249972e-01 -1.485747e+00 -1.882456e-01 -3.825609e-01 -2.164990e-01 -3.095192e-01 -2.675413e-01 7.403477e-02 -1.740602e-01 1.212614e-01 7.397830e-02 2.669704e-02 2.233271e-01 -8.800144e-02 1.908200e-01
<VARIANCE> 39
 5.327140e+01 6.043665e+01 6.841373e+01 4.671482e+01 8.616403e+01 6.611557e+01 5.554073e+01 6.614462e+01 6.158802e+01 4.840258e+01 5.074608e+01 3.987074e+01 1.231008e+02 4.034736e+00 3.897613e+00 2.709708e+00 2.817873e+00 3.813481e+00 3.601447e+00 3.364175e+00 4.301521e+00 3.406716e+00 3.027105e+00 3.342778e+00 2.622369e+00 3.276744e+00 3.825363e-01 5.233967e-01 3.654156e-01 4.641604e-01 6.339878e-01 5.830362e-01 5.720602e-01 6.532426e-01 5.915552e-01 5.320270e-01 5.411267e-01 4.451313e-01 3.272440e-01
<GCONST> 1.318185e+02
<STATE> 3
<MEAN> 39
 -1.215586e+01 -3.987277e+00 -3.403621e+00 -2.438584e+00 -2.963621e+00 -4.109076e+00 -5.174455e+00 -1.616536e+00 -2.917717e+00 -3.197323e+00 -2.392081e+00 -2.251991e+00 5.047049e+01 -3.136049e-01 -9.201795e-03 -1.545564e-01 -7.057302e-02 -6.558128e-02 -2.683706e-02 2.242358e-02 -2.782959e-02 5.450704e-02 5.543933e-02 1.125594e-01 8.364920e-02 -5.090966e-01 1.942031e-01 -1.153185e-02 4.307364e-02 -3.873163e-02 -8.683547e-02 -6.648424e-03 -7.159200e-02 -2.893417e-02 -4.764992e-02 -8.742665e-03 -3.602524e-02 -1.071934e-01 1.612998e-01
<VARIANCE> 39
 7.829148e+01 6.886852e+01 4.163431e+01 3.108621e+01 4.277369e+01 3.973836e+01 3.809380e+01 3.616224e+01 3.375862e+01 2.987472e+01 2.696555e+01 2.615583e+01 1.382778e+02 1.664919e+00 1.915148e+00 1.629633e+00 1.536024e+00 1.863848e+00 1.912721e+00 1.995856e+00 2.200201e+00 2.139735e+00 1.998507e+00 1.894746e+00 1.742876e+00 1.787444e+00 3.268647e-01 3.381243e-01 2.835026e-01 3.118344e-01 3.764859e-01 3.710627e-01 4.028054e-01 4.287240e-01 4.232121e-01 3.927293e-01 3.723365e-01 3.553237e-01 2.920585e-01
<GCONST> 1.151615e+02
<STATE> 4
<MEAN> 39
 -7.756035e+00 -2.506883e+00 -1.945588e+00 -4.137403e+00 -6.425611e+00 -4.055329e+00 -7.784256e+00 -3.487711e+00 -3.931180e+00 -2.165675e+00 -1.742529e+00 -4.822835e+00 5.793255e+01 7.390100e-01 -3.541820e-01 8.391983e-02 -3.222596e-01 -4.839085e-01 2.446540e-02 -4.281236e-01 2.843756e-03 -1.008295e-01 -3.294235e-02 1.027798e-01 -3.687325e-01 1.065404e+00 1.084724e-01 -7.630005e-02 7.674782e-03 -4.013548e-02 -1.102774e-01 7.054286e-02 -6.040168e-02 4.828609e-02 -4.771189e-03 -1.551312e-02 4.805643e-02 -8.146539e-02 1.797244e-01
<VARIANCE> 39
 9.598618e+01 6.440987e+01 8.127685e+01 5.320403e+01 7.026828e+01 6.349046e+01 5.428970e+01 5.693388e+01 5.474289e+01 4.275600e+01 4.400863e+01 4.108714e+01 1.687019e+02 7.849999e+00 4.808494e+00 4.308472e+00 4.072035e+00 5.078052e+00 4.218899e+00 4.233526e+00 4.609760e+00 3.854674e+00 3.346811e+00 3.683178e+00 3.434237e+00 1.041990e+01 1.166787e+00 7.699855e-01 6.775201e-01 6.780829e-01 8.828544e-01 7.458032e-01 7.614181e-01 7.991031e-01 6.702852e-01 6.123969e-01 6.768625e-01 5.989788e-01 1.464278e+00
<GCONST> 1.423629e+02
<TRANSP> 5
 0.000000e+00 1.000000e+00 0.000000e+00 0.000000e+00 0.000000e+00
 0.000000e+00 5.707604e-01 4.292396e-01 0.000000e+00 0.000000e+00
 0.000000e+00 0.000000e+00 8.084896e-01 1.915104e-01 0.000000e+00
 0.000000e+00 0.000000e+00 0.000000e+00 7.654116e-01 2.345884e-01
 0.000000e+00 0.000000e+00 0.000000e+00 0.000000e+00 0.000000e+00
<ENDHMM>
~h "i"
<BEGINHMM>
<NUMSTATES> 5
<STATE> 2
<MEAN> 39
 -4.833871e+00 -2.107557e+00 6.424111e+00 -3.093400e+00 -1.490515e+01 -6.354433e+00 -1.195374e+01 -4.892726e+00 -8.675118e+00 -3.710941e+00 1.270782e+00 -5.691276e+00 6.395115e+01 2.620782e-02 2.994407e-02 1.337395e+00 -2.883375e-01 -1.437481e+00 2.077044e-01 -7.175578e-01 -3.272756e-01 -7.707040e-01 -3.199181e-01 9.507512e-01 -1.205337e-01 7.838650e-01 -4.338064e-02 3.911050e-02 -2.032109e-01 -5.275131e-02 1.409666e-01 1.897113e-01 8.100042e-02 3.811608e-02 1.725500e-01 7.694373e-02 -1.011778e-01 -4.594341e-02 -2.024175e-01
<VARIANCE> 39
 6.358326e+01 5.118443e+01 1.022331e+02 5.009060e+01 9.021703e+01 8.271458e+01 6.612761e+01 7.672791e+01 6.618931e+01 4.332743e+01 5.222754e+01 3.648047e+01 1.057377e+02 4.637836e+00 3.179848e+00 5.284880e+00 3.378974e+00 6.671152e+00 4.884861e+00 5.737406e+00 5.153936e+00 4.813694e+00 3.407803e+00 4.292815e+00 3.073660e+00 5.993483e+00 7.129579e-01 5.520863e-01 7.676238e-01 5.763830e-01 1.157319e+00 8.415265e-01 9.374304e-01 9.212593e-01 8.404055e-01 6.098176e-01 7.446007e-01 5.208609e-01 9.618278e-01
<GCONST> 1.419670e+02
<STATE> 3
<MEAN> 39
 -5.503862e+00 -1.353143e+00 1.336531e+01 -6.168042e+00 -2.209799e+01 -3.962566e+00 -1.548583e+01 -7.079843e+00 -1.119683e+01 -4.975145e+00 4.386026e+00 -7.601855e+00 6.738960e+01 5.251537e-02 1.779846e-01 6.105602e-03 -1.064663e-02 -2.271573e-02 5.544721e-02 1.148590e-01 -5.334137e-02 -4.455911e-02 1.319025e-01 -9.363494e-02 -4.980808e-02 -3.055478e-01 5.412581e-02 1.700574e-02 -2.812704e-01 1.528172e-01 3.416520e-01 -1.758782e-01 2.440339e-01 1.181808e-01 1.308486e-01 7.313804e-02 -2.308725e-01 5.098417e-02 -2.128311e-01
<VARIANCE> 39
 2.819913e+01 4.153858e+01 9.727349e+01 4.504864e+01 6.203640e+01 9.286482e+01 5.612864e+01 7.655653e+01 4.872366e+01 4.435643e+01 5.057208e+01 3.676731e+01 5.578617e+01 4.874578e-01 1.224287e+00 1.251421e+00 1.293348e+00 1.494658e+00 1.687484e+00 1.875568e+00 1.998047e+00 1.641030e+00 1.554317e+00 1.635337e+00 1.262888e+00 1.079431e+00 1.398931e-01 1.977624e-01 2.699557e-01 2.327748e-01 4.085478e-01 3.397946e-01 4.220937e-01 4.062291e-01 3.559097e-01 3.138834e-01 3.684741e-01 2.688169e-01 1.982088e-01
<GCONST> 1.111154e+02
<STATE> 4
<MEAN> 39
 -3.532485e+00 6.204399e-01 8.515781e+00 -2.621710e+00 -1.572196e+01 -5.591513e+00 -1.043754e+01 -6.232938e+00 -9.964472e+00 -2.900788e+00 2.057988e-01 -5.928482e+00 5.725583e+01 1.239629e-01 2.798299e-01 -9.287377e-01 4.446669e-01 1.145785e+00 -2.226769e-01 7.291629e-01 2.099721e-01 5.686806e-01 1.163610e-01 -7.088302e-01 2.151132e-01 -1.480171e+00 -1.039343e-01 -3.412376e-02 -8.016631e-02 -5.418134e-02 1.198157e-01 7.566036e-02 -3.683528e-02 4.529680e-03 9.316146e-02 -2.944941e-02 -3.454646e-02 -1.002512e-03 1.754088e-02
<VARIANCE> 39
 3.617720e+01 4.919714e+01 7.522335e+01 4.604414e+01 7.802341e+01 8.314017e+01 5.501169e+01 7.089323e+01 5.298237e+01 4.107523e+01 5.546163e+01 3.487423e+01 1.371735e+02 1.872787e+00 2.583164e+00 2.478792e+00 2.254647e+00 3.431452e+00 3.177103e+00 3.561831e+00 3.810174e+00 3.091830e+00 2.629963e+00 3.070950e+00 2.250492e+00 3.582737e+00 2.647459e-01 3.975748e-01 3.641342e-01 3.823230e-01 6.155846e-01 5.433106e-01 5.966522e-01 6.455208e-01 5.515540e-01 4.797081e-01 5.427950e-01 3.974143e-01 5.122476e-01
<GCONST> 1.283262e+02
<TRANSP> 5
 0.000000e+00 1.000000e+00 0.000000e+00 0.000000e+00 0.000000e+00
 0.000000e+00 6.664732e-01 3.335268e-01 0.000000e+00 0.000000e+00
 0.000000e+00 0.000000e+00 7.650806e-01 2.349194e-01 0.000000e+00
 0.000000e+00 0.000000e+00 0.000000e+00 7.114217e-01 2.885783e-01
 0.000000e+00 0.000000e+00 0.000000e+00 0.000000e+00 0.000000e+00
<ENDHMM>
~h "j"
<BEGINHMM>
<NUMSTATES> 5
<STATE> 2
<MEAN> 39
 -6.694850e+00 3.357643e+00 2.646076e+00 -9.910867e-02 -7.481361e+00 -6.348684e+00 -6.832452e+00 -3.650244e+00 -4.296168e+00 -2.828054e+00 -2.892892e+00 -3.944759e+00 5.133423e+01 -6.348675e-01 5.588127e-01 -1.665654e-02 1.713165e-01 7.064177e-01 9.513583e-02 3.692774e-01 1.283458e-01 2.244244e-01 -5.507465e-02 -9.987178e-02 2.941923e-01 -8.643783e-01 -2.148647e-01 -3.722191e-01 -1.110698e-01 -2.660785e-01 -7.472275e-02 5.659528e-02 -1.615326e-01 -1.594595e-02 -5.345666e-02 1.910884e-03 1.548334e-01 -8.570492e-03 6.764246e-01
<VARIANCE> 39
 1.054061e+02 4.022196e+01 6.275101e+01 3.283938e+01 5.163860e+01 4.665474e+01 4.146509e+01 4.503360e+01 4.509117e+01 3.334805e+01 3.442805e+01 2.601471e+01 1.344299e+02 5.151395e+00 3.291886e+00 2.601012e+00 2.530199e+00 3.666200e+00 2.989943e+00 3.100091e+00 3.577332e+00 3.079723e+00 2.597072e+00 2.682945e+00 2.247007e+00 5.920970e+00 9.570560e-01 5.752559e-01 4.751282e-01 5.013568e-01 6.786105e-01 5.775594e-01 5.963873e-01 7.164633e-01 6.429716e-01 5.142079e-01 5.303840e-01 4.535355e-01 1.160266e+00
<GCONST> 1.309621e+02
<STATE> 3
<MEAN> 39
 -1.219142e+01 2.161621e+00 1.578875e+00 -2.092810e+00 -4.762033e+00 -5.534278e+00 -6.831034e+00 -4.448272e+00 -4.304569e+00 -3.090515e+00 -2.244223e+00 -2.293219e+00 5.749343e+01 -3.819706e-01 -1.288602e+00 1.527136e-01 -8.147284e-01 -1.073460e+00 -7.315225e-01 -9.370005e-01 -1.093872e-01 -2.556270e-01 -2.617829e-01 7.049093e-01 2.554235e-01 3.716697e+00 9.327913e-01 -3.717947e-01 1.758523e-01 -1.128601e-01 -8.863633e-01 -6.282416e-02 -3.945935e-01 2.207633e-01 4.929258e-02 -4.848101e-02 2.520482e-01 -3.564323e-01 3.210282e-01
<VARIANCE> 39
 9.118325e+01 5.694787e+01 7.015971e+01 3.691582e+01 4.875749e+01 5.217208e+01 3.900188e+01 3.909569e+01 3.890844e+01 2.867615e+01 2.674678e+01 2.339375e+01 1.337436e+02 1.247957e+01 5.218828e+00 6.731246e+00 4.642623e+00 8.212633e+00 5.745824e+00 4.406105e+00 5.241425e+00 4.574677e+00 3.658048e+00 3.833178e+00 3.497644e+00 9.662142e+00 1.407734e+00 1.052036e+00 9.930944e-01 8.543869e-01 1.155158e+00 1.122545e+00 7.384087e-01 1.032837e+00 9.129800e-01 7.076920e-01 6.316737e-01 6.217237e-01 1.745913e+00
<GCONST> 1.433115e+02
<STATE> 4
<MEAN> 39
 -4.106078e+00 -3.487008e+00 6.259387e+00 -3.946936e+00 -1.656164e+01 -7.999917e+00 -1.288884e+01 -3.357118e+00 -5.902391e+00 -4.693559e+00 2.664128e+00 -4.698931e+00 6.800211e+01 1.325931e+00 -1.644225e+00 -5.705274e-01 -9.230334e-01 -1.307450e+00 4.219445e-01 -6.961960e-01 1.102373e+00 6.793083e-01 3.290691e-02 5.233723e-01 -1.013198e+00 1.503020e+00 -1.247177e-01 9.858597e-02 -4.347617e-01 -2.057197e-02 5.890880e-01 5.015883e-01 3.300314e-01 7.725763e-02 1.170513e-01 9.826982e-02 -3.999765e-01 -2.124156e-01 -5.353757e-01
<VARIANCE> 39
 3.148246e+01 4.128921e+01 1.003661e+02 4.930745e+01 8.375311e+01 7.805719e+01 5.475050e+01 7.312743e+01 7.455117e+01 4.991527e+01 5.262646e+01 3.621155e+01 7.614676e+01 4.606602e+00 5.550621e+00 5.701877e+00 3.932656e+00 7.859770e+00 5.468762e+00 5.417142e+00 7.199279e+00 6.228867e+00 3.956330e+00 5.181657e+00 3.775295e+00 6.193913e+00 7.612671e-01 6.165838e-01 7.680790e-01 6.394242e-01 1.280509e+00 9.779010e-01 7.965312e-01 1.019232e+00 8.504958e-01 6.876863e-01 8.995872e-01 6.883437e-01 7.599695e-01
<GCONST> 1.435780e+02
<TRANSP> 5
 0.000000e+00 1.000000e+00 0.000000e+00 0.000000e+00 0.000000e+00
 0.000000e+00 7.776420e-01 2.223580e-01 0.000000e+00 0.000000e+00
 0.000000e+00 0.000000e+00 6.429350e-01 3.570649e-01 0.000000e+00
 0.000000e+00 0.000000e+00 0.000000e+00 6.262825e-01 3.737175e-01
 0.000000e+00 0.000000e+00 0.000000e+00 0.000000e+00 0.000000e+00
<ENDHMM>
~h "k"
<BEGINHMM>
<NUMSTATES> 5
<STATE> 2
<MEAN> 39
 -5.256702e+00 1.049037e+00 2.512542e-01 -2.031250e+00 -7.777732e+00 -5.017533e+00 -7.744687e+00 -4.496609e+00 -5.014135e+00 -2.160153e+00 -2.789077e+00 -4.794741e+00 4.920696e+01 -6.947516e-01 4.424218e-01 -1.260151e-01 2.886403e-01 5.158894e-01 -1.915969e-01 3.672369e-01 -4.101650e-02 1.795771e-01 -3.804054e-02 -1.563026e-01 4.487976e-01 -1.369383e+00 -1.612086e-01 -3.771661e-01 -1.447221e-01 -2.107951e-01 -1.047437e-02 1.498480e-02 -9.939957e-02 1.288677e-01 2.086972e-02 2.513567e-02 1.011367e-01 -1.260824e-02 6.352031e-01
<VARIANCE> 39
 7.217089e+01 4.369338e+01 5.659592e+01 4.155725e+01 5.644025e+01 5.383305e+01 4.624248e+01 5.268995e+01 5.105212e+01 3.765657e+01 4.006382e+01 3.421494e+01 1.358134e+02 2.634887e+00 2.628731e+00 2.210906e+00 2.346358e+00 3.220761e+00 2.876585e+00 2.966714e+00 3.140049e+00 2.870416e+00 2.664686e+00 2.738726e+00 2.240558e+00 4.854893e+00 4.697396e-01 5.220425e-01 4.407992e-01 4.757355e-01 6.093565e-01 5.504429e-01 5.909852e-01 6.228237e-01 5.878963e-01 5.310663e-01 5.198616e-01 4.366893e-01 9.196921e-01
<GCONST> 1.286879e+02
<STATE> 3
<MEAN> 39
 -1.010531e+01 7.758138e-02 -9.063654e-01 -1.648122e+00 -5.428081e+00 -5.523224e+00 -6.645690e+00 -3.842391e+00 -4.284565e+00 -1.796298e+00 -2.603758e+00 -2.613541e+00 5.044727e+01 -6.413879e-01 -1.424891e+00 -9.012682e-01 -6.645107e-01 4.006488e-01 -3.754102e-01 -3.035135e-01 5.371449e-01 9.685521e-02 2.075992e-01 1.354901e-02 1.970910e-01 2.699064e+00 4.818256e-01 -3.444393e-01 -8.242857e-02 -3.713385e-01 -4.382442e-01 9.508315e-02 -3.101504e-01 1.560870e-01 -3.480443e-02 -1.962799e-02 1.150755e-01 -3.973086e-01 1.005153e+00
<VARIANCE> 39
 9.124921e+01 5.287190e+01 5.452740e+01 3.893126e+01 5.529249e+01 4.852716e+01 4.465635e+01 4.513903e+01 4.307819e+01 3.225223e+01 3.504528e+01 2.859002e+01 1.669196e+02 7.326225e+00 5.375978e+00 5.491242e+00 4.193911e+00 6.257491e+00 5.013315e+00 4.807686e+00 4.791701e+00 4.485663e+00 3.656065e+00 3.789135e+00 3.377841e+00 1.335189e+01 9.550472e-01 8.444365e-01 7.533222e-01 6.779695e-01 1.002109e+00 9.207092e-01 7.637346e-01 8.623253e-01 7.672434e-01 6.768307e-01 6.718516e-01 6.244184e-01 1.745076e+00
<GCONST> 1.415657e+02
<STATE> 4
<MEAN> 39
 -4.544687e+00 -6.333401e+00 -3.825786e+00 -6.648982e+00 -8.484859e+00 -5.120259e+00 -1.055347e+01 -1.577346e+00 -5.143992e+00 -1.042886e+00 -2.339311e+00 -6.825422e+00 6.454054e+01 7.190682e-01 -6.590720e-01 -8.682094e-02 -6.457314e-01 -7.214013e-01 2.276675e-01 -4.010289e-01 4.434468e-01 1.382481e-01 -1.913225e-01 2.804707e-01 -7.674199e-01 1.773746e+00 7.041781e-02 1.706667e-01 1.604067e-01 9.876053e-02 -7.839068e-02 2.181064e-01 1.050409e-01 -8.840501e-02 4.299207e-02 -1.482195e-01 3.314146e-02 -7.038164e-02 -4.354056e-01
<VARIANCE> 39
 5.680281e+01 6.112407e+01 7.926316e+01 5.794350e+01 8.140984e+01 8.678665e+01 5.807943e+01 7.318984e+01 6.362329e+01 4.723996e+01 5.270375e+01 4.644242e+01 1.226061e+02 5.171853e+00 5.058296e+00 4.833810e+00 4.795516e+00 6.117792e+00 5.800203e+00 4.845987e+00 6.287131e+00 5.232852e+00 4.448892e+00 4.314875e+00 4.589153e+00 1.261621e+01 8.719893e-01 7.108051e-01 8.568672e-01 7.511287e-01 1.194231e+00 9.928130e-01 8.643597e-01 1.012741e+00 8.483514e-01 7.942030e-01 8.282084e-01 7.850383e-01 1.288693e+00
<GCONST> 1.467080e+02
<TRANSP> 5
 0.000000e+00 1.000000e+00 0.000000e+00 0.000000e+00 0.000000e+00
 0.000000e+00 7.008842e-01 2.991159e-01 0.000000e+00 0.000000e+00
 0.000000e+00 0.000000e+00 5.713771e-01 4.286229e-01 0.000000e+00
 0.000000e+00 0.000000e+00 0.000000e+00 6.875260e-01 3.124740e-01
 0.000000e+00 0.000000e+00 0.000000e+00 0.000000e+00 0.000000e+00
<ENDHMM>
~h "l"
<BEGINHMM>
<NUMSTATES> 5
<STATE> 2
<MEAN> 39
 -1.538538e+00 -6.044971e+00 -1.305745e+00 -6.228224e+00 -1.180939e+01 -2.249909e+00 -1.241663e+01 -3.483777e+00 -3.873209e+00 -1.949443e+00 -7.801800e-01 -7.590067e+00 6.590361e+01 2.547831e-01 -5.014321e-01 -3.054863e-01 -5.406107e-01 -1.196294e-01 5.261259e-01 -4.868904e-01 2.418719e-01 3.701757e-01 1.758238e-01 1.171532e-01 -4.070765e-01 6.361063e-01 -4.180869e-02 8.006688e-02 4.211417e-02 -1.271693e-02 4.837698e-02 9.300989e-02 3.372768e-02 -2.880286e-02 -9.829375e-02 -1.263264e-02 -1.918311e-02 1.072676e-02 -1.217374e-01
<VARIANCE> 39
 4.210481e+01 6.129140e+01 9.036469e+01 6.878995e+01 7.561163e+01 9.170087e+01 7.049886e+01 1.030195e+02 8.398548e+01 5.123519e+01 5.654744e+01 4.563526e+01 1.233593e+02 2.824420e+00 3.424508e+00 4.485337e+00 4.376281e+00 5.519479e+00 5.243582e+00 4.796198e+00 6.024211e+00 5.530372e+00 4.270346e+00 4.430260e+00 3.444053e+00 5.491642e+00 5.001813e-01 5.304506e-01 6.204354e-01 7.460233e-01 9.505808e-01 8.753470e-01 8.676410e-01 1.065370e+00 9.085324e-01 7.329502e-01 7.406437e-01 6.427351e-01 7.910640e-01
<GCONST> 1.428631e+02
<STATE> 3
<MEAN> 39
 1.266525e-01 -9.766515e+00 -3.248141e+00 -1.118175e+01 -1.365156e+01 2.765419e+00 -1.449612e+01 -5.130813e+00 1.922129e-01 -3.000547e+00 1.349067e+00 -1.063230e+01 7.026118e+01 1.056656e-01 9.167992e-02 1.003113e-01 -1.044280e-01 1.094336e-01 1.349075e-01 -1.465975e-01 -1.053133e-01 -2.466028e-01 2.234215e-01 -2.945775e-02 2.868658e-03 -2.856192e-01 -5.820190e-02 1.241542e-01 5.562709e-02 1.467758e-01 7.495800e-02 -1.987495e-01 1.211411e-01 -2.198964e-04 -1.263787e-01 -2.137509e-02 -1.032087e-01 1.320058e-01 -1.177919e-01
<VARIANCE> 39
 2.525088e+01 5.424417e+01 8.005801e+01 7.809844e+01 6.749947e+01 9.838229e+01 6.876828e+01 1.245887e+02 8.443203e+01 5.480694e+01 5.774892e+01 5.045424e+01 7.370493e+01 5.346184e-01 1.217444e+00 1.596141e+00 1.847755e+00 2.125019e+00 2.672874e+00 2.214292e+00 2.862487e+00 2.426727e+00 2.498984e+00 2.257089e+00 1.866476e+00 9.007415e-01 1.052355e-01 2.157509e-01 2.603037e-01 2.932078e-01 4.139405e-01 4.263240e-01 4.362313e-01 5.386980e-01 4.401145e-01 4.645281e-01 4.275042e-01 3.630607e-01 1.624816e-01
<GCONST> 1.187774e+02
<STATE> 4
<MEAN> 39
 1.542207e+00 -5.484866e+00 -7.372868e-02 -7.520826e+00 -1.202361e+01 1.337844e+00 -1.399470e+01 -3.146702e+00 -7.280741e+00 6.683020e-01 -2.921889e+00 -8.047064e+00 6.570929e+01 -1.098053e-01 4.182279e-01 2.251011e-01 4.763367e-01 2.678323e-01 -3.745639e-01 3.890131e-01 -1.615618e-01 -1.719042e-01 -1.038548e-01 -3.076580e-01 2.903140e-01 -6.520225e-01 -9.243295e-02 -2.264044e-02 -5.702211e-02 2.483585e-02 4.499499e-02 -1.172401e-02 9.213899e-02 6.257448e-02 1.096290e-01 -1.329779e-01 1.580414e-02 -1.584886e-03 1.135208e-02
<VARIANCE> 39
 2.532413e+01 6.000374e+01 7.659164e+01 8.286588e+01 7.525919e+01 8.153506e+01 6.470798e+01 1.131274e+02 8.459635e+01 5.732389e+01 7.067354e+01 4.203112e+01 8.462754e+01 8.674381e-01 2.436961e+00 2.831121e+00 3.223987e+00 3.105682e+00 3.315008e+00 3.196941e+00 5.136562e+00 3.886350e+00 3.260514e+00 3.480086e+00 2.546210e+00 2.307365e+00 1.366212e-01 3.361962e-01 3.854500e-01 5.106820e-01 5.173027e-01 5.313722e-01 5.826864e-01 7.975307e-01 6.158125e-01 6.022024e-01 5.995282e-01 4.432651e-01 2.895515e-01
<GCONST> 1.296277e+02
<TRANSP> 5
 0.000000e+00 1.000000e+00 0.000000e+00 0.000000e+00 0.000000e+00
 0.000000e+00 5.898601e-01 4.101399e-01 0.000000e+00 0.000000e+00
 0.000000e+00 0.000000e+00 6.909680e-01 3.090321e-01 0.000000e+00
 0.000000e+00 0.000000e+00 0.000000e+00 7.250667e-01 2.749333e-01
 0.000000e+00 0.000000e+00 0.000000e+00 0.000000e+00 0.000000e+00
<ENDHMM>
~h "m"
<BEGINHMM>
<NUMSTATES> 5
<STATE> 2
<MEAN> 39
 1.933506e-01 -6.329060e+00 -4.011989e-03 -6.284105e+00 -1.120328e+01 -1.499099e+00 -1.151067e+01 -5.171616e+00 -7.272296e+00 -2.350364e+00 -9.762344e-01 -8.800617e+00 6.492928e+01 7.231707e-02 6.973536e-01 7.381744e-01 7.760540e-01 1.068123e-01 -1.888958e-01 5.150595e-01 -1.139311e+00 -9.682535e-01 1.288013e-01 -3.124509e-01 1.881402e-01 -8.861430e-01 -1.059188e-01 -3.084353e-02 -2.608659e-02 -6.043885e-02 2.244715e-02 1.531874e-02 1.330698e-02 1.141996e-01 9.419622e-02 -3.739566e-02 -4.258534e-02 3.801472e-02 5.919145e-02
<VARIANCE> 39
 3.593953e+01 5.271735e+01 7.530143e+01 6.359377e+01 7.115910e+01 7.681873e+01 6.166044e+01 1.200939e+02 7.764622e+01 5.782660e+01 6.959553e+01 4.591359e+01 1.134726e+02 9.981999e-01 2.115282e+00 2.930864e+00 3.481455e+00 3.071996e+00 3.200122e+00 3.394037e+00 5.367557e+00 4.689665e+00 3.167844e+00 3.855837e+00 2.686322e+00 2.192615e+00 1.685544e-01 3.096339e-01 4.043872e-01 4.949605e-01 4.801089e-01 4.884964e-01 5.319208e-01 8.427659e-01 6.893466e-01 5.191960e-01 6.192999e-01 4.405487e-01 2.843242e-01
<GCONST> 1.301062e+02
<STATE> 3
<MEAN> 39
 -1.621559e+00 -2.946829e+00 2.819380e+00 -3.545506e+00 -1.043287e+01 -3.051542e+00 -8.326689e+00 -8.209472e+00 -9.158292e+00 -3.627470e+00 -2.447290e+00 -6.704722e+00 5.791653e+01 -6.948800e-02 2.564621e-01 4.275174e-02 1.587238e-01 1.333895e-01 4.046089e-03 2.236352e-01 -6.681837e-02 -8.131615e-02 1.381927e-02 -8.267999e-02 1.323804e-01 -4.724404e-01 -9.941495e-03 -4.138743e-02 -1.143713e-01 -9.131595e-02 1.117029e-02 1.343972e-02 -7.685618e-02 1.678296e-01 1.441960e-01 1.031399e-02 6.409128e-02 -7.573288e-03 5.694880e-02
<VARIANCE> 39
 5.013853e+01 4.730275e+01 6.763844e+01 4.837719e+01 7.799323e+01 6.939316e+01 6.157745e+01 8.996487e+01 6.776782e+01 6.254923e+01 6.451786e+01 4.299535e+01 1.235919e+02 3.631605e-01 8.194492e-01 8.085703e-01 1.009904e+00 1.294641e+00 1.386855e+00 1.450869e+00 1.640021e+00 1.617036e+00 1.555488e+00 1.701956e+00 1.271515e+00 8.201185e-01 7.860540e-02 1.444722e-01 1.904982e-01 2.563815e-01 2.588170e-01 2.689435e-01 3.251437e-01 3.936396e-01 4.001115e-01 3.189684e-01 3.499205e-01 2.740345e-01 1.274936e-01
<GCONST> 1.087077e+02
<STATE> 4
<MEAN> 39
 -2.123447e+00 -1.447708e+00 1.299441e+00 -2.623564e+00 -8.465986e+00 -2.438294e+00 -7.600698e+00 -7.508176e+00 -8.886867e+00 -2.242428e+00 -2.694986e+00 -5.958534e+00 5.499229e+01 -2.156089e-01 -6.903774e-02 -3.691475e-01 -3.015215e-01 1.983780e-01 -3.007022e-02 -1.124364e-01 5.045792e-01 5.902444e-01 -1.721586e-02 1.105631e-01 9.644412e-02 -1.147673e-01 -6.944805e-02 -1.861505e-01 -1.320183e-01 -1.860071e-01 -5.124193e-03 3.903343e-02 -1.625137e-01 2.364778e-01 2.603462e-01 -7.150051e-02 4.844826e-02 -4.522837e-02 2.750167e-01
<VARIANCE> 39
 5.593693e+01 4.863944e+01 5.860811e+01 4.919056e+01 6.983099e+01 6.591372e+01 5.683865e+01 8.435271e+01 7.897540e+01 5.618155e+01 5.881654e+01 3.811604e+01 1.525342e+02 1.707076e+00 2.810886e+00 2.514393e+00 3.388434e+00 3.081435e+00 3.132692e+00 3.313095e+00 3.898824e+00 4.400143e+00 3.169611e+00 3.247391e+00 2.320829e+00 4.562977e+00 3.351258e-01 4.527039e-01 4.381244e-01 5.757453e-01 5.774163e-01 5.597523e-01 5.953013e-01 7.837055e-01 8.510055e-01 5.878368e-01 6.058294e-01 4.366002e-01 6.096432e-01
<GCONST> 1.326394e+02
<TRANSP> 5
 0.000000e+00 1.000000e+00 0.000000e+00 0.000000e+00 0.000000e+00
 0.000000e+00 6.241381e-01 3.758619e-01 0.000000e+00 0.000000e+00
 0.000000e+00 0.000000e+00 7.561180e-01 2.438820e-01 0.000000e+00
 0.000000e+00 0.000000e+00 0.000000e+00 5.968509e-01 4.031492e-01
 0.000000e+00 0.000000e+00 0.000000e+00 0.000000e+00 0.000000e+00
<ENDHMM>
~h "n"
<BEGINHMM>
<NUMSTATES> 5
<STATE> 2
<MEAN> 39
 -3.502026e-01 -9.590409e+00 -1.759091e+00 -6.396182e+00 -1.199085e+01 -2.997729e+00 -1.329960e+01 8.861119e-02 -3.631390e+00 -2.910887e+00 -2.923836e+00 -1.013539e+01 6.770011e+01 5.919831e-01 1.580391e+00 1.146761e+00 1.349625e+00 7.045661e-02 -1.310222e+00 3.943971e-01 -1.724745e+00 -7.235357e-01 9.706450e-01 -7.660165e-01 3.166813e-01 -1.872257e+00 -6.806060e-02 3.179669e-01 1.374810e-01 1.079016e-01 1.019481e-01 -2.550624e-02 3.144736e-01 -4.430023e-01 -1.315171e-01 5.722675e-02 -9.158012e-02 1.534565e-01 -2.877769e-01
<VARIANCE> 39
 2.774885e+01 5.875428e+01 6.608598e+01 4.341993e+01 6.282771e+01 7.564842e+01 5.830385e+01 1.033789e+02 6.822419e+01 5.855504e+01 5.882193e+01 4.622088e+01 1.064879e+02 1.231225e+00 3.151127e+00 3.175035e+00 2.858891e+00 3.778270e+00 4.828811e+00 4.104787e+00 6.546391e+00 4.016619e+00 4.366719e+00 4.229013e+00 3.283159e+00 3.123514e+00 1.871670e-01 3.848901e-01 3.638809e-01 4.360879e-01 5.555404e-01 6.608297e-01 7.285792e-01 9.755005e-01 5.921645e-01 6.501052e-01 6.206684e-01 4.633193e-01 3.817464e-01
<GCONST> 1.324868e+02
<STATE> 3
<MEAN> 39
 2.176107e+00 -2.204773e+00 3.924640e+00 -6.863910e-01 -1.215145e+01 -8.828507e+00 -8.734384e+00 -1.029621e+01 -7.063052e+00 8.861859e-02 -7.164440e+00 -9.274052e+00 5.944248e+01 2.606980e-02 9.134898e-01 3.482507e-01 5.387009e-01 2.558680e-01 -1.092084e-01 4.644595e-01 -5.552187e-01 -3.666629e-01 1.960042e-01 -2.580063e-01 3.078802e-01 -1.191376e+00 -2.110260e-01 -2.643894e-01 -2.241849e-01 -2.708111e-01 1.005492e-01 2.847016e-01 -1.692040e-01 4.980860e-01 1.553506e-01 -2.816409e-01 2.586617e-01 2.193087e-02 2.290948e-01
<VARIANCE> 39
 2.202118e+01 2.799793e+01 3.620803e+01 3.745220e+01 5.094730e+01 9.030534e+01 5.767231e+01 7.237189e+01 6.262958e+01 4.753664e+01 6.646724e+01 5.584460e+01 6.081133e+01 7.777342e-01 1.746501e+00 1.705127e+00 1.701863e+00 2.239680e+00 2.642438e+00 2.747720e+00 4.051471e+00 2.654688e+00 2.715874e+00 2.684665e+00 2.026836e+00 2.067566e+00 1.576683e-01 3.010265e-01 2.946561e-01 3.443134e-01 4.052088e-01 4.952097e-01 4.821194e-01 6.467948e-01 4.730696e-01 5.419474e-01 4.986077e-01 4.029739e-01 2.832087e-01
<GCONST> 1.200305e+02
<STATE> 4
<MEAN> 39
 -1.707518e+00 -1.303461e+00 2.555380e+00 -3.136800e+00 -1.149212e+01 -3.658798e+00 -1.052767e+01 -5.106635e+00 -7.744241e+00 -1.556932e+00 -1.941845e+00 -6.571648e+00 5.910155e+01 -4.963270e-01 -3.243840e-02 -1.990573e-01 -2.278282e-01 2.771370e-01 1.003644e-01 5.984787e-03 4.491908e-01 2.577670e-01 -3.099415e-01 2.670648e-01 2.043169e-01 -1.919139e-01 -8.487643e-02 -1.203897e-01 -9.210676e-02 -8.590904e-02 -2.175624e-02 2.585690e-02 -4.538249e-03 8.759373e-02 9.635220e-02 -4.883716e-02 3.193497e-02 -3.591265e-02 1.661561e-01
<VARIANCE> 39
 4.485101e+01 4.985808e+01 9.063580e+01 5.714855e+01 8.466529e+01 8.158144e+01 6.462624e+01 8.112997e+01 7.687083e+01 5.001493e+01 6.483121e+01 4.292868e+01 1.385111e+02 2.777841e+00 3.695880e+00 3.968877e+00 3.730220e+00 5.027504e+00 4.536806e+00 4.449688e+00 5.503345e+00 4.892194e+00 3.845656e+00 4.382559e+00 3.272547e+00 6.653020e+00 4.821473e-01 5.805702e-01 6.154262e-01 6.542211e-01 8.905073e-01 7.793871e-01 7.891970e-01 9.561331e-01 8.755599e-01 7.104677e-01 7.873117e-01 5.950689e-01 8.805862e-01
<GCONST> 1.411160e+02
<TRANSP> 5
 0.000000e+00 1.000000e+00 0.000000e+00 0.000000e+00 0.000000e+00
 0.000000e+00 5.173550e-01 4.826450e-01 0.000000e+00 0.000000e+00
 0.000000e+00 0.000000e+00 7.201666e-01 2.798334e-01 0.000000e+00
 0.000000e+00 0.000000e+00 0.000000e+00 7.250038e-01 2.749963e-01
 0.000000e+00 0.000000e+00 0.000000e+00 0.000000e+00 0.000000e+00
<ENDHMM>
~h "o"
<BEGINHMM>
<NUMSTATES> 5
<STATE> 2
<MEAN> 39
 -4.328867e+00 -1.676908e+00 -2.660073e+00 -5.881983e+00 -8.542958e+00 -2.965464e+00 -1.009108e+01 -5.187210e+00 -5.156215e+00 -2.080443e+00 -1.033666e+00 -4.821409e+00 5.933152e+01 7.754930e-01 -7.575520e-01 -5.798029e-01 -1.211976e+00 -7.774965e-01 8.438518e-01 -6.514817e-01 1.185480e-01 3.618876e-01 -1.675424e-01 7.266429e-01 -6.097007e-01 2.128219e+00 1.090398e-01 -7.395376e-02 5.262435e-02 -7.023597e-02 -2.361457e-01 2.703488e-01 3.377799e-03 2.988691e-02 8.173610e-02 -6.206568e-02 1.127098e-01 -1.839804e-01 -1.549295e-02
<VARIANCE> 39
 7.077876e+01 5.374854e+01 9.082442e+01 8.042335e+01 7.684357e+01 7.662666e+01 5.953846e+01 6.803858e+01 6.842899e+01 4.772632e+01 4.783163e+01 3.925744e+01 1.592066e+02 7.114752e+00 4.854977e+00 6.202257e+00 6.879502e+00 8.322972e+00 7.018828e+00 5.463389e+00 6.586421e+00 6.123887e+00 4.987941e+00 5.224756e+00 4.621042e+00 1.238141e+01 9.835938e-01 7.824144e-01 1.006035e+00 9.776001e-01 1.343779e+00 1.026530e+00 9.923146e-01 9.896898e-01 9.769995e-01 8.328726e-01 8.157729e-01 7.162411e-01 1.880167e+00
<GCONST> 1.504827e+02
<STATE> 3
<MEAN> 39
 2.387836e-01 -7.222325e+00 -5.124593e+00 -1.213398e+01 -1.317910e+01 2.840935e+00 -1.322289e+01 -4.498218e+00 -1.493813e+00 -3.590619e+00 3.082819e+00 -9.635181e+00 6.905621e+01 4.940904e-01 -7.632165e-01 -4.805240e-01 -9.297080e-01 -4.685678e-01 1.633658e+00 -4.970329e-02 1.236250e-01 4.978994e-01 -3.257853e-01 6.071763e-01 -7.771042e-01 7.886117e-01 -4.556360e-01 3.665084e-01 2.064203e-01 5.893983e-01 5.837366e-01 -4.431300e-01 4.012614e-01 -7.583287e-02 -2.820694e-01 8.844073e-02 -4.987453e-01 4.097022e-01 -7.950575e-01
<VARIANCE> 39
 3.208190e+01 4.894365e+01 6.948453e+01 1.094856e+02 6.252036e+01 9.680014e+01 6.571339e+01 9.658304e+01 7.960374e+01 5.986158e+01 6.630209e+01 4.881337e+01 1.008928e+02 1.651203e+00 2.609964e+00 2.591612e+00 4.243111e+00 4.341278e+00 4.597281e+00 3.760660e+00 4.663088e+00 4.631503e+00 3.574706e+00 4.010788e+00 3.210361e+00 2.867709e+00 4.474732e-01 4.383008e-01 5.409043e-01 7.707613e-01 8.028538e-01 8.872053e-01 7.658976e-01 9.505850e-01 8.471676e-01 7.426859e-01 7.944809e-01 6.519722e-01 5.780542e-01
<GCONST> 1.379045e+02
<STATE> 4
<MEAN> 39
 1.444823e+00 -6.459514e+00 -5.969969e+00 -1.432802e+01 -1.254441e+01 5.713545e+00 -1.219621e+01 -6.410901e+00 -2.360167e+00 -4.192491e+00 1.367741e+00 -9.014189e+00 6.830039e+01 6.300289e-03 2.313796e-01 2.076171e-01 5.753673e-01 2.661037e-01 -4.314232e-01 1.055869e-01 -2.447514e-02 -1.658851e-01 1.442112e-01 -4.459732e-01 9.722885e-02 -6.381282e-01 -5.157337e-02 1.348574e-01 1.062503e-01 2.171898e-01 7.925709e-02 -2.381291e-01 3.001853e-02 -2.882088e-03 -5.074082e-02 3.881560e-02 -1.118698e-01 8.066653e-02 -2.110096e-01
<VARIANCE> 39
 2.286466e+01 5.768683e+01 5.703992e+01 1.182437e+02 6.722185e+01 7.956613e+01 6.021922e+01 1.026128e+02 7.723887e+01 6.322956e+01 6.726642e+01 5.183706e+01 7.949391e+01 6.865599e-01 1.942006e+00 1.869124e+00 3.489681e+00 2.616540e+00 3.451657e+00 2.614051e+00 3.182207e+00 3.009947e+00 2.735481e+00 2.972852e+00 2.495306e+00 2.135714e+00 1.316249e-01 2.862044e-01 2.952132e-01 4.713809e-01 4.750115e-01 5.534530e-01 4.800226e-01 5.747522e-01 5.291504e-01 5.017636e-01 5.292673e-01 4.634531e-01 2.707274e-01
<GCONST> 1.254583e+02
<TRANSP> 5
 0.000000e+00 1.000000e+00 0.000000e+00 0.000000e+00 0.000000e+00
 0.000000e+00 6.350775e-01 3.649224e-01 0.000000e+00 0.000000e+00
 0.000000e+00 0.000000e+00 4.437666e-01 5.562334e-01 0.000000e+00
 0.000000e+00 0.000000e+00 0.000000e+00 8.246856e-01 1.753144e-01
 0.000000e+00 0.000000e+00 0.000000e+00 0.000000e+00 0.000000e+00
<ENDHMM>
~h "p"
<BEGINHMM>
<NUMSTATES> 5
<STATE> 2
<MEAN> 39
 -9.554183e+00 7.386963e-01 -1.825223e+00 -2.224712e+00 -5.405668e+00 -4.237474e+00 -6.091244e+00 -3.720150e+00 -3.856140e+00 -2.492592e+00 -2.722456e+00 -3.537161e+00 4.753430e+01 -6.872653e-01 3.319672e-01 -3.744962e-02 2.037113e-01 2.670188e-01 -1.089512e-01 2.504539e-01 6.976375e-02 1.171846e-01 1.249750e-02 9.719030e-03 2.464466e-01 -8.592366e-01 2.919740e-02 -2.127138e-01 -3.168466e-02 -1.142706e-01 -7.496927e-02 2.517921e-02 -7.596133e-02 2.204533e-02 7.261259e-03 2.122846e-03 6.622959e-02 -2.636763e-02 4.000644e-01
<VARIANCE> 39
 1.016666e+02 4.220804e+01 4.464682e+01 3.273534e+01 3.948739e+01 3.882402e+01 3.801146e+01 4.041953e+01 3.852351e+01 3.000954e+01 3.180758e+01 3.115440e+01 1.502594e+02 2.830038e+00 2.278169e+00 1.865014e+00 1.897934e+00 2.411043e+00 2.339524e+00 2.390553e+00 2.542048e+00 2.426982e+00 2.242032e+00 2.365058e+00 1.946476e+00 3.233466e+00 4.522681e-01 4.238525e-01 3.620549e-01 3.901168e-01 4.586749e-01 4.573207e-01 4.552462e-01 4.879749e-01 4.751229e-01 4.346623e-01 4.539618e-01 3.835717e-01 6.115540e-01
<GCONST> 1.215290e+02
<STATE> 3
<MEAN> 39
 -8.944380e+00 1.948195e+00 -7.555261e-01 -1.388918e+00 -5.300569e+00 -3.938339e+00 -5.901653e+00 -4.187248e+00 -3.971614e+00 -2.374667e+00 -3.056026e+00 -3.504224e+00 4.681789e+01 -3.330854e-01 -1.053100e+00 -4.322998e-01 -6.391242e-01 4.948781e-02 -2.362422e-01 -1.756641e-01 7.878947e-02 2.290661e-01 -6.031115e-02 3.110286e-01 1.750572e-01 2.597457e+00 4.649571e-01 -6.070985e-01 -1.878289e-01 -5.166315e-01 -4.486740e-01 1.149798e-01 -3.912640e-01 -9.454737e-03 4.525873e-03 -2.790792e-02 2.190620e-01 -3.122443e-01 1.423418e+00
<VARIANCE> 39
 9.365050e+01 4.242467e+01 4.735815e+01 3.529720e+01 4.092963e+01 4.109042e+01 3.834991e+01 3.916900e+01 3.902497e+01 2.871940e+01 2.995944e+01 2.972482e+01 1.566844e+02 7.013672e+00 4.479773e+00 4.187109e+00 3.920798e+00 4.176397e+00 4.128353e+00 3.654497e+00 3.962360e+00 3.785602e+00 2.978589e+00 3.271187e+00 3.009090e+00 1.336702e+01 9.928148e-01 7.311288e-01 6.685427e-01 7.013609e-01 7.972732e-01 8.627544e-01 6.600181e-01 8.137625e-01 7.107534e-01 6.056377e-01 6.505771e-01 6.100490e-01 1.612235e+00
<GCONST> 1.367013e+02
<STATE> 4
<MEAN> 39
 -3.679835e+00 -3.590000e+00 -2.862273e+00 -4.191882e+00 -1.094032e+01 -2.917399e+00 -8.256419e+00 -6.624088e+00 -2.278071e+00 -2.545769e+00 -1.154410e-01 -5.244122e+00 6.170250e+01 5.876955e-01 -5.757047e-01 -1.080972e-01 -4.316042e-01 -5.109697e-01 1.765793e-01 -3.985400e-01 5.787820e-02 8.174014e-02 -3.727533e-02 2.493102e-01 -4.004884e-01 1.496270e+00 3.544369e-02 5.298753e-02 4.542632e-02 3.235880e-02 -3.260640e-02 9.970532e-02 1.996560e-03 7.364614e-02 -1.091482e-04 -1.886901e-02 -1.854340e-02 -7.318267e-02 -2.205001e-01
<VARIANCE> 39
 7.917513e+01 6.082360e+01 8.694015e+01 6.286039e+01 8.915860e+01 8.167883e+01 5.151283e+01 7.472195e+01 7.307524e+01 4.182119e+01 4.700813e+01 3.997733e+01 1.278810e+02 6.498420e+00 5.856285e+00 4.922567e+00 4.812874e+00 7.453469e+00 5.610148e+00 4.336674e+00 5.798066e+00 5.251975e+00 3.717440e+00 4.359951e+00 3.922557e+00 1.498617e+01 1.015813e+00 8.519147e-01 7.825829e-01 7.891232e-01 1.307827e+00 9.497961e-01 7.617082e-01 9.821774e-01 8.811334e-01 6.681195e-01 7.842454e-01 6.754448e-01 1.655637e+00
<GCONST> 1.472455e+02
<TRANSP> 5
 0.000000e+00 1.000000e+00 0.000000e+00 0.000000e+00 0.000000e+00
 0.000000e+00 7.777568e-01 2.222432e-01 0.000000e+00 0.000000e+00
 0.000000e+00 0.000000e+00 4.922352e-01 5.077648e-01 0.000000e+00
 0.000000e+00 0.000000e+00 0.000000e+00 7.961739e-01 2.038262e-01
 0.000000e+00 0.000000e+00 0.000000e+00 0.000000e+00 0.000000e+00
<ENDHMM>
~h "q"
<BEGINHMM>
<NUMSTATES> 5
<STATE> 2
<MEAN> 39
 -7.600726e+00 -1.188901e+01 -9.018977e+00 -6.045731e+00 -6.444138e+00 -5.673789e+00 -5.270749e+00 1.634717e+00 -7.095628e+00 2.375566e+00 -5.356221e+00 -7.732291e+00 6.764137e+01 8.385025e-03 -1.120786e-01 -6.578984e-02 1.662146e-01 1.071231e-01 -2.582310e-01 1.809794e-02 3.197180e-01 5.155374e-02 -1.074530e-01 -1.143148e-01 1.935815e-01 1.217902e-01 2.249856e-02 3.968432e-02 2.219616e-02 7.801324e-03 1.317511e-02 -2.531999e-02 4.049818e-02 -6.988136e-02 3.783875e-03 -2.749938e-02 3.852043e-02 9.968250e-03 -4.845672e-02
<VARIANCE> 39
 8.469695e+01 8.732708e+01 2.878714e+01 4.107513e+01 5.954990e+01 4.393485e+01 3.513554e+01 5.280825e+01 4.189550e+01 3.115246e+01 3.852825e+01 6.593907e+01 1.507505e+02 4.817509e+00 5.889915e+00 1.976455e+00 3.838358e+00 3.401667e+00 2.394336e+00 2.729657e+00 4.051332e+00 3.632626e+00 2.749013e+00 3.884907e+00 3.588948e+00 8.739126e+00 6.793637e-01 8.158260e-01 2.504186e-01 6.162342e-01 4.956492e-01 3.438289e-01 5.293583e-01 7.840182e-01 6.583042e-01 4.702610e-01 7.271298e-01 6.019742e-01 1.196083e+00
<GCONST> 1.331354e+02
<STATE> 3
<MEAN> 39
 -1.633145e+00 -6.008698e+00 -5.929228e-02 -3.330456e+00 -1.096092e+01 -4.125741e+00 -7.687440e+00 6.462450e+00 -3.252822e-02 -4.571582e-01 -6.561056e+00 -5.860795e+00 6.476897e+01 -3.943643e-01 5.847914e-01 -1.661639e-01 3.261704e-01 1.274049e+00 5.929406e-02 8.061311e-01 -1.082670e+00 3.232299e-01 -3.033846e-01 -1.805703e-01 3.056395e-01 -1.216061e+00 -1.161478e-01 2.357404e-02 -1.505729e-01 -1.653903e-01 1.314084e-01 7.643072e-02 -9.324325e-02 -4.155824e-01 -2.822388e-01 1.042839e-01 2.470774e-01 -2.304974e-03 -1.132343e-01
<VARIANCE> 39
 4.305787e+01 3.053128e+01 1.228438e+01 3.530200e+01 7.114007e+01 6.136991e+01 4.500052e+01 5.689805e+01 2.432965e+01 3.421032e+01 2.927054e+01 2.816109e+01 1.087140e+02 1.996363e+00 1.451724e+00 3.328256e+00 2.202968e+00 4.676257e+00 6.913724e+00 4.190734e+00 7.760553e+00 3.339815e+00 8.378955e-01 2.211496e+00 2.948503e+00 3.984306e+00 4.807467e-01 3.823645e-01 2.639426e-01 3.865910e-01 7.390198e-01 1.157843e+00 7.697117e-01 1.611491e+00 3.931392e-01 1.600889e-01 4.130932e-01 6.520479e-01 7.156534e-01
<GCONST> 1.252598e+02
<STATE> 4
<MEAN> 39
 -7.494024e+00 -9.834788e+00 -7.544970e+00 -5.064510e+00 1.992087e-01 -4.922017e+00 -4.571355e+00 -2.245783e+00 -1.799670e+00 -1.813270e+00 -6.858253e+00 -6.472043e+00 5.347530e+01 -1.258759e-01 2.275611e-01 -6.050815e-02 3.568767e-02 -7.270154e-02 -1.547721e-01 -1.902191e-01 -2.625403e-01 -5.241415e-02 -1.368815e-01 2.187909e-01 2.723607e-02 -7.228646e-01 3.013405e-02 3.175621e-02 6.440694e-02 -1.714237e-02 -9.908745e-02 4.082658e-02 -5.854821e-02 1.588190e-02 -3.467802e-02 3.505363e-03 3.856691e-02 -1.372334e-02 1.328408e-01
<VARIANCE> 39
 2.514767e+01 6.175915e+01 3.272114e+01 2.463294e+01 3.596385e+01 2.787968e+01 4.251593e+01 3.151777e+01 3.391145e+01 3.345348e+01 4.326285e+01 2.847752e+01 2.527003e+02 1.239462e+00 3.081905e+00 2.706913e+00 2.084952e+00 2.327905e+00 1.974663e+00 2.567750e+00 3.308707e+00 3.558470e+00 1.674083e+00 2.156471e+00 1.961456e+00 7.770779e+00 1.768350e-01 4.166467e-01 5.697929e-01 3.606685e-01 4.399314e-01 3.701184e-01 4.676313e-01 6.749651e-01 7.085465e-01 3.460539e-01 3.762460e-01 4.030299e-01 9.567456e-01
<GCONST> 1.210288e+02
<TRANSP> 5
 0.000000e+00 1.000000e+00 0.000000e+00 0.000000e+00 0.000000e+00
 0.000000e+00 8.982849e-01 1.017151e-01 0.000000e+00 0.000000e+00
 0.000000e+00 0.000000e+00 7.035123e-01 2.964878e-01 0.000000e+00
 0.000000e+00 0.000000e+00 0.000000e+00 9.118681e-01 8.813187e-02
 0.000000e+00 0.000000e+00 0.000000e+00 0.000000e+00 0.000000e+00
<ENDHMM>
~h "r"
<BEGINHMM>
<NUMSTATES> 5
<STATE> 2
<MEAN> 39
 -2.565579e+00 -5.823493e+00 -3.551614e+00 -5.058984e+00 -9.548220e+00 -3.386977e+00 -1.064815e+01 -3.178569e+00 -2.196735e+00 -1.898969e+00 -1.752621e+00 -7.585408e+00 6.248453e+01 1.959690e-01 -4.122933e-01 -1.306190e-01 -2.259351e-03 -1.359716e-01 1.223062e-01 -3.752753e-01 3.237946e-01 8.317623e-02 8.081105e-02 3.394137e-02 -2.166512e-01 4.244618e-01 -1.524147e-02 1.497521e-02 9.239430e-02 -4.257724e-02 -2.586255e-02 8.211277e-02 3.574938e-04 2.824552e-03 -1.701170e-01 9.047247e-03 2.929702e-02 1.364660e-03 -2.508237e-02
<VARIANCE> 39
 4.785208e+01 5.716475e+01 7.326833e+01 5.682149e+01 7.355758e+01 8.182992e+01 5.476538e+01 8.032313e+01 6.979558e+01 4.623295e+01 5.114021e+01 4.685506e+01 1.599427e+02 3.452839e+00 3.827877e+00 3.681990e+00 4.292357e+00 4.841944e+00 4.734310e+00 4.033573e+00 5.281338e+00 4.664262e+00 3.672404e+00 4.129555e+00 3.652960e+00 9.658323e+00 6.262794e-01 6.686457e-01 5.987780e-01 7.766685e-01 8.822052e-01 8.459888e-01 7.516485e-01 9.421211e-01 8.578285e-01 6.767889e-01 7.258223e-01 7.277983e-01 1.445333e+00
<GCONST> 1.422206e+02
<STATE> 3
<MEAN> 39
 -6.622432e-01 -1.039223e+01 -5.374903e+00 -6.566276e+00 -1.118922e+01 -1.654604e+00 -1.266842e+01 -7.868526e-01 -5.679143e-01 -2.643381e+00 -1.830802e+00 -1.099879e+01 6.886112e+01 2.374513e-01 2.108705e-01 3.670448e-01 3.274738e-01 -6.478282e-02 -5.800783e-02 -1.647591e-01 -8.813070e-02 -5.233838e-01 2.831650e-01 -4.419014e-02 1.040603e-01 -6.071244e-01 -9.651539e-02 2.776357e-01 2.026665e-01 4.750948e-02 6.627479e-02 -9.737051e-02 1.430384e-01 -2.054879e-01 -2.174048e-01 1.253169e-02 1.221293e-02 2.244942e-01 -2.654267e-01
<VARIANCE> 39
 2.699117e+01 5.091833e+01 6.522388e+01 4.891210e+01 6.111305e+01 8.386806e+01 5.826099e+01 9.437959e+01 7.030341e+01 4.530756e+01 5.401535e+01 4.840379e+01 1.117269e+02 1.109165e+00 2.226768e+00 2.421940e+00 2.628207e+00 3.146491e+00 3.662001e+00 2.762948e+00 4.248953e+00 3.450576e+00 2.997519e+00 3.208786e+00 2.514723e+00 2.796689e+00 2.179438e-01 3.499958e-01 3.237287e-01 4.410076e-01 5.792439e-01 5.702853e-01 5.520551e-01 7.476640e-01 5.897547e-01 5.571579e-01 5.793135e-01 4.452910e-01 4.402807e-01
<GCONST> 1.280907e+02
<STATE> 4
<MEAN> 39
 8.532395e-01 -5.034115e+00 1.087794e+00 -5.588552e+00 -1.412310e+01 -5.520111e-01 -1.364256e+01 -3.077332e+00 -7.720355e+00 -4.547320e-01 -1.272284e+00 -8.182705e+00 6.596078e+01 -7.986870e-02 4.411523e-01 3.800485e-01 2.340006e-01 1.509876e-01 -1.848370e-01 2.835053e-01 -2.783775e-01 -2.854704e-01 -6.333464e-02 -1.097104e-01 2.618705e-01 -5.977415e-01 -1.071362e-01 -2.151696e-02 -8.920665e-02 -4.154993e-02 7.771668e-02 3.110418e-03 8.245130e-02 6.342173e-02 1.320429e-01 -1.177888e-01 -7.171244e-04 -1.861465e-02 3.240939e-02
<VARIANCE> 39
 2.725704e+01 5.598318e+01 8.864418e+01 6.387788e+01 8.089220e+01 9.298277e+01 6.636149e+01 1.123910e+02 8.142113e+01 5.515143e+01 7.010883e+01 4.097688e+01 7.781278e+01 1.160765e+00 2.786793e+00 3.394916e+00 3.319395e+00 3.851174e+00 3.846637e+00 3.697993e+00 5.679904e+00 4.507415e+00 3.329622e+00 3.766320e+00 2.815933e+00 3.085509e+00 1.993031e-01 3.832935e-01 4.611981e-01 5.529779e-01 6.622239e-01 6.528010e-01 6.531824e-01 9.257604e-01 7.320678e-01 6.181801e-01 6.987043e-01 4.951920e-01 3.999533e-01
<GCONST> 1.337014e+02
<TRANSP> 5
 0.000000e+00 1.000000e+00 0.000000e+00 0.000000e+00 0.000000e+00
 0.000000e+00 5.290107e-01 4.709894e-01 0.000000e+00 0.000000e+00
 0.000000e+00 0.000000e+00 5.068065e-01 4.931935e-01 0.000000e+00
 0.000000e+00 0.000000e+00 0.000000e+00 7.349515e-01 2.650485e-01
 0.000000e+00 0.000000e+00 0.000000e+00 0.000000e+00 0.000000e+00
<ENDHMM>
~h "s"
<BEGINHMM>
<NUMSTATES> 5
<STATE> 2
<MEAN> 39
 -9.077675e+00 2.778021e+00 2.920589e-02 -1.707930e+00 -5.288313e+00 -6.295153e+00 -7.007983e+00 -3.649867e+00 -4.618595e+00 -3.078658e+00 -4.073910e+00 -4.253733e+00 5.878983e+01 -2.764601e+00 1.211380e+00 -6.120340e-01 5.312832e-01 1.181810e+00 -1.687810e-01 1.013694e+00 2.631463e-01 4.459935e-01 -2.005506e-01 2.457544e-01 9.614869e-01 -9.982946e-01 -1.509497e-01 -5.498108e-01 -2.124420e-01 -2.904872e-01 -3.623845e-01 1.838452e-01 -2.119360e-01 3.847164e-02 -7.776825e-03 6.141725e-02 2.636352e-01 -9.921997e-02 2.177848e-01
<VARIANCE> 39
 8.396594e+01 4.941299e+01 5.849215e+01 3.869543e+01 5.795863e+01 5.554427e+01 5.725742e+01 5.378844e+01 4.738360e+01 3.810302e+01 4.216578e+01 3.196708e+01 1.404095e+02 5.404654e+00 5.403582e+00 3.686208e+00 3.241375e+00 4.489420e+00 4.106288e+00 3.979361e+00 4.952504e+00 3.645131e+00 3.207453e+00 3.466905e+00 2.826765e+00 3.893180e+00 7.742660e-01 7.448873e-01 4.824181e-01 4.940970e-01 6.762526e-01 6.148525e-01 6.983315e-01 7.266611e-01 6.359043e-01 5.542352e-01 5.642162e-01 4.622715e-01 4.761403e-01
<GCONST> 1.346730e+02
<STATE> 3
<MEAN> 39
 -2.020152e+01 9.470025e-01 -5.530963e+00 -2.357983e+00 -3.700403e+00 -5.522230e+00 -4.267028e+00 -1.591716e+00 -2.610415e+00 -2.447513e+00 -1.022039e+00 -9.977609e-01 5.443595e+01 -3.650974e-01 -2.685073e-01 -2.168725e-01 -1.371231e-01 -1.276485e-01 3.003081e-02 4.918207e-02 1.935401e-02 9.872062e-02 1.142369e-01 1.200720e-01 1.189183e-01 -2.709877e-01 5.060006e-01 -7.378276e-02 2.050642e-01 -5.148543e-02 -1.142784e-01 -3.792720e-02 -1.620325e-01 -6.700731e-02 -5.629096e-02 -3.003974e-02 -1.135879e-01 -1.620501e-01 1.711807e-01
<VARIANCE> 39
 1.099401e+02 3.859917e+01 4.376443e+01 2.782931e+01 3.160205e+01 3.165591e+01 3.729362e+01 3.238110e+01 2.882853e+01 2.397331e+01 2.475637e+01 2.176257e+01 1.369356e+02 2.412185e+00 1.613261e+00 1.943387e+00 1.548251e+00 1.687864e+00 1.928896e+00 1.910156e+00 2.055843e+00 2.022222e+00 1.826445e+00 1.869177e+00 1.602619e+00 1.884819e+00 5.629118e-01 3.230037e-01 3.516926e-01 3.274754e-01 3.856538e-01 4.088770e-01 4.379394e-01 4.547625e-01 4.180612e-01 3.751617e-01 3.780515e-01 3.637548e-01 3.354206e-01
<GCONST> 1.146773e+02
<STATE> 4
<MEAN> 39
 -1.124096e+01 -4.710749e-01 -2.323669e+00 -3.425284e+00 -6.666350e+00 -5.815254e+00 -7.494688e+00 -3.698495e+00 -3.094742e+00 -2.149682e+00 -2.147290e+00 -3.473256e+00 5.693523e+01 2.047936e+00 -7.664039e-01 5.715510e-01 -4.715241e-01 -9.042090e-01 4.284605e-02 -1.072050e+00 -3.399486e-01 -1.745063e-01 -1.422579e-01 -3.966825e-02 -8.378148e-01 1.570412e+00 2.396034e-01 -1.644506e-01 4.428940e-02 -7.233155e-02 -1.842170e-01 1.818717e-01 -1.704085e-01 2.902603e-02 -4.373130e-02 -4.158780e-02 1.462415e-01 -1.702758e-01 2.979873e-01
<VARIANCE> 39
 1.126470e+02 4.681090e+01 6.522605e+01 4.255174e+01 5.216035e+01 5.531475e+01 5.278353e+01 5.215191e+01 4.726893e+01 3.314954e+01 3.443373e+01 3.289186e+01 1.659828e+02 1.048647e+01 4.915031e+00 5.370308e+00 4.222395e+00 4.995192e+00 4.867742e+00 5.025979e+00 5.861076e+00 4.554725e+00 3.397529e+00 3.754844e+00 3.857119e+00 1.047248e+01 1.435076e+00 7.380710e-01 7.107992e-01 6.784809e-01 8.619161e-01 7.962239e-01 9.032075e-01 9.220669e-01 7.508634e-01 5.975853e-01 6.674842e-01 6.559685e-01 1.505392e+00
<GCONST> 1.425142e+02
<TRANSP> 5
 0.000000e+00 1.000000e+00 0.000000e+00 0.000000e+00 0.000000e+00
 0.000000e+00 6.146030e-01 3.853970e-01 0.000000e+00 0.000000e+00
 0.000000e+00 0.000000e+00 7.910918e-01 2.089082e-01 0.000000e+00
 0.000000e+00 0.000000e+00 0.000000e+00 6.610092e-01 3.389908e-01
 0.000000e+00 0.000000e+00 0.000000e+00 0.000000e+00 0.000000e+00
<ENDHMM>
~h "t"
<BEGINHMM>
<NUMSTATES> 5
<STATE> 2
<MEAN> 39
 -5.747529e+00 2.026091e+00 -2.392342e-01 -1.790928e+00 -7.141683e+00 -5.445924e+00 -7.967577e+00 -4.998178e+00 -4.108973e+00 -2.241836e+00 -3.529392e+00 -5.190894e+00 4.842257e+01 -8.969850e-01 3.570614e-01 -1.159868e-01 1.609062e-01 5.009819e-01 -1.027516e-01 4.401251e-01 9.377363e-02 9.526713e-02 -7.194491e-02 2.573868e-02 5.056183e-01 -1.218832e+00 -1.628791e-01 -4.199014e-01 -1.360597e-01 -2.440342e-01 -9.298620e-02 3.863744e-02 -8.694088e-02 8.628570e-02 3.077347e-02 2.498104e-03 1.617014e-01 7.572655e-03 7.581005e-01
<VARIANCE> 39
 7.775523e+01 3.869174e+01 5.671837e+01 4.095950e+01 4.751038e+01 4.760080e+01 4.303184e+01 4.824374e+01 4.999546e+01 3.461197e+01 3.651811e+01 3.736324e+01 1.382424e+02 3.445796e+00 2.863656e+00 2.414000e+00 2.395391e+00 3.265641e+00 2.837552e+00 2.865492e+00 3.059031e+00 3.020486e+00 2.628597e+00 2.782305e+00 2.389251e+00 5.819715e+00 5.752534e-01 5.304264e-01 4.763917e-01 5.083286e-01 6.372949e-01 5.504982e-01 5.571447e-01 6.177669e-01 6.195305e-01 5.307540e-01 5.525414e-01 4.671106e-01 1.123621e+00
<GCONST> 1.295022e+02
<STATE> 3
<MEAN> 39
 -1.204456e+01 1.568655e-02 -1.769882e+00 -2.256857e+00 -4.875633e+00 -5.495162e+00 -5.937588e+00 -3.759762e+00 -3.414915e+00 -2.203537e+00 -2.281801e+00 -2.109510e+00 5.205927e+01 -3.657573e-01 -1.375710e+00 -6.299136e-01 -9.443014e-01 -1.990252e-01 -2.150490e-01 -3.594885e-01 2.616357e-01 2.082495e-01 -6.880056e-02 2.995267e-01 3.097418e-03 3.396921e+00 7.483771e-01 -2.732775e-01 6.105945e-02 -2.836168e-01 -5.748679e-01 1.519249e-01 -4.748250e-01 2.018629e-02 -9.891414e-03 -1.945342e-02 8.522853e-02 -5.007524e-01 8.385308e-01
<VARIANCE> 39
 9.674019e+01 4.652583e+01 5.226883e+01 3.504216e+01 4.391684e+01 4.397437e+01 4.045143e+01 3.975341e+01 3.935006e+01 2.822099e+01 2.991591e+01 2.747679e+01 1.726996e+02 8.673769e+00 4.624332e+00 5.536625e+00 4.173479e+00 5.487898e+00 4.772957e+00 4.389627e+00 4.549512e+00 4.767311e+00 3.582347e+00 3.864550e+00 3.629611e+00 1.518818e+01 9.717168e-01 7.898589e-01 8.013036e-01 6.793144e-01 8.794229e-01 9.376996e-01 7.174153e-01 8.976099e-01 7.945630e-01 6.286892e-01 6.744615e-01 6.176021e-01 1.930276e+00
<GCONST> 1.402997e+02
<STATE> 4
<MEAN> 39
 -3.757594e+00 -4.578132e+00 -2.109297e+00 -5.920294e+00 -1.090789e+01 -2.991976e+00 -1.134541e+01 -4.104558e+00 -4.634115e+00 -2.076616e+00 -8.862678e-01 -6.477538e+00 6.432207e+01 8.280118e-01 -7.250389e-01 1.982508e-02 -5.285547e-01 -8.590446e-01 3.627967e-01 -6.863487e-01 2.967685e-01 1.184101e-01 -6.557376e-02 3.262160e-01 -7.188948e-01 1.708000e+00 -8.056879e-03 1.688730e-01 1.142413e-01 1.516631e-01 4.213865e-02 1.269155e-01 1.180804e-01 3.437495e-03 -2.355081e-02 -5.414885e-02 -2.983573e-02 -1.066175e-02 -5.375779e-01
<VARIANCE> 39
 5.506004e+01 5.483004e+01 9.636111e+01 5.772823e+01 8.288271e+01 9.109461e+01 6.168822e+01 7.336160e+01 7.353498e+01 4.826488e+01 5.607260e+01 4.699000e+01 1.314141e+02 5.245846e+00 5.132927e+00 5.514245e+00 4.953660e+00 7.244471e+00 6.242379e+00 5.300097e+00 6.586249e+00 6.092759e+00 4.196811e+00 5.087208e+00 4.652342e+00 1.337279e+01 8.781509e-01 6.966079e-01 8.597405e-01 7.769885e-01 1.231840e+00 1.029183e+00 9.089684e-01 1.001826e+00 9.505858e-01 7.355486e-01 8.985677e-01 7.856183e-01 1.420476e+00
<GCONST> 1.484472e+02
<TRANSP> 5
 0.000000e+00 1.000000e+00 0.000000e+00 0.000000e+00 0.000000e+00
 0.000000e+00 7.278592e-01 2.721408e-01 0.000000e+00 0.000000e+00
 0.000000e+00 0.000000e+00 5.553654e-01 4.446346e-01 0.000000e+00
 0.000000e+00 0.000000e+00 0.000000e+00 6.353874e-01 3.646125e-01
 0.000000e+00 0.000000e+00 0.000000e+00 0.000000e+00 0.000000e+00
<ENDHMM>
~h "u"
<BEGINHMM>
<NUMSTATES> 5
<STATE> 2
<MEAN> 39
 -5.613091e+00 -6.266804e-01 -2.516452e-01 -3.529564e+00 -8.213878e+00 -4.844768e+00 -9.493849e+00 -4.678236e+00 -5.496492e+00 -2.162199e+00 -1.636495e+00 -4.266861e+00 5.842110e+01 5.878072e-01 -2.921824e-01 -7.201800e-02 -6.973743e-01 -6.920730e-01 4.239949e-01 -6.270323e-01 -1.583921e-01 -1.686226e-01 -1.059162e-01 6.225343e-01 -2.733627e-01 1.382955e+00 1.566589e-01 -7.713075e-02 2.419076e-02 -1.316559e-01 -2.541209e-01 2.600408e-01 -8.041304e-02 1.899711e-02 -1.243704e-02 -9.904795e-03 1.365549e-01 -1.438004e-01 7.020667e-02
<VARIANCE> 39
 8.448008e+01 5.246534e+01 8.962694e+01 6.239890e+01 6.990514e+01 6.735286e+01 6.105574e+01 6.501382e+01 6.183739e+01 4.069377e+01 4.276643e+01 3.526889e+01 1.497139e+02 7.989033e+00 5.093675e+00 6.139859e+00 5.620047e+00 7.767624e+00 5.724493e+00 5.696582e+00 7.027702e+00 5.547405e+00 4.222156e+00 4.711895e+00 4.006508e+00 1.246121e+01 1.072127e+00 8.234730e-01 9.089150e-01 8.740771e-01 1.177161e+00 9.573840e-01 9.448689e-01 1.043673e+00 9.139119e-01 7.283965e-01 7.468346e-01 6.464481e-01 1.817722e+00
<GCONST> 1.481640e+02
<STATE> 3
<MEAN> 39
 2.704164e-01 -3.805101e+00 -1.521735e+00 -8.847086e+00 -1.451644e+01 -1.105406e-01 -1.450631e+01 -7.305551e+00 -5.901715e+00 -3.090230e+00 3.352038e+00 -7.329875e+00 6.653462e+01 8.079271e-01 -3.393683e-01 -1.240393e-01 -9.397084e-01 -1.027870e+00 1.435221e+00 -5.184342e-01 -1.380345e-01 -1.445874e-01 -4.456349e-02 8.741418e-01 -5.970370e-01 6.330103e-01 -4.562578e-01 2.106435e-01 9.479652e-03 3.972712e-01 6.050369e-01 -2.525133e-01 4.875258e-01 2.012532e-01 5.456864e-02 1.418844e-02 -5.341316e-01 2.044748e-01 -7.102216e-01
<VARIANCE> 39
 3.436560e+01 4.913609e+01 8.601589e+01 9.238748e+01 6.980960e+01 9.122511e+01 7.410835e+01 1.301706e+02 7.656772e+01 5.719147e+01 5.711137e+01 4.443316e+01 9.203849e+01 2.449095e+00 3.669646e+00 3.540000e+00 5.525689e+00 5.578722e+00 5.870441e+00 4.940972e+00 7.083670e+00 5.495025e+00 4.264143e+00 4.665833e+00 3.780190e+00 4.123387e+00 5.370100e-01 5.693977e-01 7.067127e-01 9.618250e-01 9.341198e-01 1.002531e+00 9.289410e-01 1.311894e+00 1.005340e+00 8.617764e-01 8.451995e-01 7.406234e-01 7.010691e-01
<GCONST> 1.440172e+02
<STATE> 4
<MEAN> 39
 1.561966e+00 -3.396864e+00 -1.606380e+00 -1.027938e+01 -1.450396e+01 2.735216e+00 -1.408412e+01 -6.358090e+00 -7.173053e+00 -2.223086e+00 8.803764e-01 -8.137130e+00 6.674379e+01 -2.898007e-02 1.462447e-01 1.058057e-01 4.137970e-01 3.289357e-01 -2.770732e-01 2.703936e-01 -1.997642e-03 2.837592e-02 1.224953e-01 -4.328488e-01 2.106064e-02 -5.022465e-01 -1.067861e-01 6.676836e-02 3.133680e-02 1.822033e-01 1.643676e-01 -1.902494e-01 9.918430e-02 1.753189e-02 5.893582e-02 -2.181232e-04 -1.194333e-01 6.173415e-02 -1.626884e-01
<VARIANCE> 39
 2.475548e+01 5.945641e+01 8.291962e+01 9.429417e+01 6.788371e+01 8.673681e+01 6.531844e+01 1.174367e+02 7.793441e+01 6.169382e+01 6.672373e+01 4.504981e+01 6.815453e+01 8.733204e-01 2.346984e+00 2.433342e+00 3.824619e+00 3.137110e+00 3.639564e+00 3.107452e+00 4.362959e+00 3.670973e+00 3.224846e+00 3.718940e+00 2.737240e+00 2.423970e+00 1.740138e-01 3.396929e-01 3.763218e-01 5.765541e-01 5.666148e-01 5.996556e-01 5.780451e-01 7.872263e-01 6.462001e-01 6.017909e-01 6.746464e-01 5.092027e-01 3.232200e-01
<GCONST> 1.305719e+02
<TRANSP> 5
 0.000000e+00 1.000000e+00 0.000000e+00 0.000000e+00 0.000000e+00
 0.000000e+00 6.494855e-01 3.505145e-01 0.000000e+00 0.000000e+00
 0.000000e+00 0.000000e+00 4.384096e-01 5.615904e-01 0.000000e+00
 0.000000e+00 0.000000e+00 0.000000e+00 8.344842e-01 1.655158e-01
 0.000000e+00 0.000000e+00 0.000000e+00 0.000000e+00 0.000000e+00
<ENDHMM>
~h "v"
<BEGINHMM>
<NUMSTATES> 5
<STATE> 2
<MEAN> 39
 -5.720369e+00 -3.212366e+00 -9.603557e-01 -4.140341e+00 -8.282138e+00 -2.741488e+00 -8.362382e+00 -2.900852e+00 -4.227129e+00 -2.588475e+00 -1.643602e+00 -5.417910e+00 5.514945e+01 4.041251e-04 8.054070e-04 2.982348e-04 -7.923298e-04 1.777842e-04 5.770657e-04 1.920456e-06 -1.539215e-03 -3.851559e-04 2.390032e-04 -1.168943e-03 -1.209440e-03 7.453487e-05 5.293762e-05 1.484293e-04 1.038093e-04 6.097702e-05 2.683362e-05 9.535497e-05 -3.359811e-05 -1.456941e-05 1.142907e-04 1.394317e-04 6.521364e-05 -2.366633e-05 -8.404750e-05
<VARIANCE> 39
 6.548970e+01 6.558094e+01 6.975499e+01 5.597869e+01 7.619009e+01 6.664177e+01 6.092598e+01 6.794641e+01 5.794476e+01 4.215612e+01 4.686914e+01 4.500091e+01 2.513958e+02 2.532669e+00 2.732701e+00 2.556041e+00 2.640352e+00 3.358491e+00 3.125732e+00 3.024375e+00 3.669678e+00 3.178414e+00 2.664217e+00 2.899224e+00 2.436845e+00 5.033377e+00 3.927859e-01 4.190547e-01 3.991563e-01 4.514541e-01 5.906611e-01 5.447152e-01 5.501792e-01 6.469660e-01 5.645853e-01 4.966201e-01 5.287678e-01 4.459183e-01 6.618989e-01
<GCONST> 1.316507e+02
<STATE> 3
<MEAN> 39
 -5.720369e+00 -3.212366e+00 -9.603557e-01 -4.140341e+00 -8.282138e+00 -2.741488e+00 -8.362382e+00 -2.900852e+00 -4.227129e+00 -2.588475e+00 -1.643602e+00 -5.417910e+00 5.514945e+01 4.041251e-04 8.054070e-04 2.982348e-04 -7.923298e-04 1.777842e-04 5.770657e-04 1.920456e-06 -1.539215e-03 -3.851559e-04 2.390032e-04 -1.168943e-03 -1.209440e-03 7.453487e-05 5.293762e-05 1.484293e-04 1.038093e-04 6.097702e-05 2.683362e-05 9.535497e-05 -3.359811e-05 -1.456941e-05 1.142907e-04 1.394317e-04 6.521364e-05 -2.366633e-05 -8.404750e-05
<VARIANCE> 39
 6.548970e+01 6.558094e+01 6.975499e+01 5.597869e+01 7.619009e+01 6.664177e+01 6.092598e+01 6.794641e+01 5.794476e+01 4.215612e+01 4.686914e+01 4.500091e+01 2.513958e+02 2.532669e+00 2.732701e+00 2.556041e+00 2.640352e+00 3.358491e+00 3.125732e+00 3.024375e+00 3.669678e+00 3.178414e+00 2.664217e+00 2.899224e+00 2.436845e+00 5.033377e+00 3.927859e-01 4.190547e-01 3.991563e-01 4.514541e-01 5.906611e-01 5.447152e-01 5.501792e-01 6.469660e-01 5.645853e-01 4.966201e-01 5.287678e-01 4.459183e-01 6.618989e-01
<GCONST> 1.316507e+02
<STATE> 4
<MEAN> 39
 -5.720369e+00 -3.212366e+00 -9.603557e-01 -4.140341e+00 -8.282138e+00 -2.741488e+00 -8.362382e+00 -2.900852e+00 -4.227129e+00 -2.588475e+00 -1.643602e+00 -5.417910e+00 5.514945e+01 4.041251e-04 8.054070e-04 2.982348e-04 -7.923298e-04 1.777842e-04 5.770657e-04 1.920456e-06 -1.539215e-03 -3.851559e-04 2.390032e-04 -1.168943e-03 -1.209440e-03 7.453487e-05 5.293762e-05 1.484293e-04 1.038093e-04 6.097702e-05 2.683362e-05 9.535497e-05 -3.359811e-05 -1.456941e-05 1.142907e-04 1.394317e-04 6.521364e-05 -2.366633e-05 -8.404750e-05
<VARIANCE> 39
 6.548970e+01 6.558094e+01 6.975499e+01 5.597869e+01 7.619009e+01 6.664177e+01 6.092598e+01 6.794641e+01 5.794476e+01 4.215612e+01 4.686914e+01 4.500091e+01 2.513958e+02 2.532669e+00 2.732701e+00 2.556041e+00 2.640352e+00 3.358491e+00 3.125732e+00 3.024375e+00 3.669678e+00 3.178414e+00 2.664217e+00 2.899224e+00 2.436845e+00 5.033377e+00 3.927859e-01 4.190547e-01 3.991563e-01 4.514541e-01 5.906611e-01 5.447152e-01 5.501792e-01 6.469660e-01 5.645853e-01 4.966201e-01 5.287678e-01 4.459183e-01 6.618989e-01
<GCONST> 1.316507e+02
<TRANSP> 5
 0.000000e+00 1.000000e+00 0.000000e+00 0.000000e+00 0.000000e+00
 0.000000e+00 6.000000e-01 4.000000e-01 0.000000e+00 0.000000e+00
 0.000000e+00 0.000000e+00 6.000000e-01 4.000000e-01 0.000000e+00
 0.000000e+00 0.000000e+00 0.000000e+00 7.000000e-01 3.000000e-01
 0.000000e+00 0.000000e+00 0.000000e+00 0.000000e+00 0.000000e+00
<ENDHMM>
~h "w"
<BEGINHMM>
<NUMSTATES> 5
<STATE> 2
<MEAN> 39
 -5.570657e+00 -1.525342e+00 -1.515466e+00 -4.851640e+00 -8.214272e+00 -4.409872e+00 -9.058577e+00 -4.529999e+00 -5.167263e+00 -1.676760e+00 -1.659366e+00 -5.404631e+00 5.824162e+01 3.221288e-01 -1.691353e-01 -1.300713e-01 -4.416608e-01 -3.517386e-01 2.661486e-01 -2.511408e-01 -2.509787e-02 -6.169537e-02 -6.089947e-02 2.511522e-01 -2.740798e-02 8.775001e-01 9.217564e-02 -1.621954e-01 -3.390849e-02 -1.394319e-01 -1.651380e-01 1.498860e-01 -6.226585e-02 9.984244e-02 2.690946e-02 -3.380726e-02 5.912421e-02 -1.062786e-01 2.022315e-01
<VARIANCE> 39
 8.889369e+01 6.454051e+01 8.227874e+01 7.102028e+01 7.011835e+01 6.862641e+01 5.598139e+01 6.089134e+01 6.245906e+01 3.927963e+01 4.478911e+01 4.047331e+01 1.684178e+02 6.664778e+00 4.620423e+00 4.659885e+00 4.811001e+00 5.879980e+00 5.019264e+00 4.694800e+00 5.009181e+00 4.321504e+00 3.638889e+00 3.985472e+00 3.613327e+00 1.191619e+01 9.859800e-01 7.452248e-01 7.356952e-01 7.309722e-01 9.728879e-01 8.202536e-01 8.516884e-01 8.619786e-01 7.819119e-01 6.891709e-01 6.986177e-01 6.418385e-01 1.594654e+00
<GCONST> 1.446156e+02
<STATE> 3
<MEAN> 39
 2.872524e+00 -2.276964e+00 -2.314898e+00 -1.549982e+01 -1.545851e+01 4.587941e+00 -1.160016e+01 -7.885979e+00 -4.476612e+00 -5.980223e+00 3.272587e+00 -5.295998e+00 6.431523e+01 1.073895e-01 -6.199468e-01 -3.031986e-01 -5.442268e-01 -1.197701e-01 6.719905e-01 -3.317496e-02 1.851624e-01 2.779824e-01 4.978746e-02 3.624282e-01 -2.783992e-01 5.589505e-01 -2.498236e-01 -2.348381e-01 -9.048273e-02 2.932715e-01 3.699046e-01 -1.579583e-01 3.071696e-02 1.224601e-01 1.710779e-01 1.456366e-01 -2.011191e-01 -2.055089e-01 9.753917e-04
<VARIANCE> 39
 3.124289e+01 4.926469e+01 5.188247e+01 1.349511e+02 5.675814e+01 8.404375e+01 5.788054e+01 7.452012e+01 7.437423e+01 6.195939e+01 5.806495e+01 3.204231e+01 7.380474e+01 1.218526e+00 3.259159e+00 2.174926e+00 3.053086e+00 3.285771e+00 3.147349e+00 2.795339e+00 3.395560e+00 3.083877e+00 3.083133e+00 2.946759e+00 2.894943e+00 2.913270e+00 2.279151e-01 3.147501e-01 3.407046e-01 5.170652e-01 4.829985e-01 5.542081e-01 4.547717e-01 5.928469e-01 4.972480e-01 5.365847e-01 6.099311e-01 4.926175e-01 3.653868e-01
<GCONST> 1.277690e+02
<STATE> 4
<MEAN> 39
 5.934072e-01 -7.263503e+00 -3.060191e+00 -9.486791e+00 -1.248136e+01 2.762486e+00 -1.383834e+01 -4.063628e+00 -4.965196e+00 -7.111871e-02 2.169016e-01 -8.784794e+00 6.766148e+01 -2.390541e-01 -6.981211e-01 -6.062941e-02 4.848441e-01 4.040527e-01 -3.621112e-01 -4.706696e-02 5.129982e-01 4.047687e-01 8.914197e-02 -5.599724e-01 -4.777537e-01 2.528122e-01 -1.110774e-01 1.402918e-01 1.071605e-01 9.376393e-02 2.520031e-02 -1.777392e-01 1.462460e-01 5.237535e-02 -3.592533e-02 -2.274494e-01 -1.489193e-01 1.503227e-01 -1.452170e-01
<VARIANCE> 39
 3.025476e+01 5.275148e+01 8.294743e+01 9.097430e+01 7.932357e+01 1.090860e+02 6.879590e+01 9.252116e+01 7.973885e+01 5.652763e+01 6.360562e+01 4.290797e+01 1.000159e+02 1.149386e+00 3.075535e+00 3.432714e+00 3.881820e+00 4.100262e+00 4.755683e+00 3.297694e+00 5.324342e+00 4.505471e+00 3.579315e+00 3.653307e+00 3.412346e+00 2.931670e+00 1.955401e-01 3.502125e-01 5.037358e-01 5.746519e-01 7.377691e-01 7.394523e-01 6.209357e-01 8.221298e-01 6.775597e-01 6.660527e-01 6.339638e-01 5.031539e-01 4.054287e-01
<GCONST> 1.347631e+02
<TRANSP> 5
 0.000000e+00 1.000000e+00 0.000000e+00 0.000000e+00 0.000000e+00
 0.000000e+00 7.935708e-01 2.064293e-01 0.000000e+00 0.000000e+00
 0.000000e+00 0.000000e+00 6.592944e-01 3.407057e-01 0.000000e+00
 0.000000e+00 0.000000e+00 0.000000e+00 6.152381e-01 3.847619e-01
 0.000000e+00 0.000000e+00 0.000000e+00 0.000000e+00 0.000000e+00
<ENDHMM>
~h "y"
<BEGINHMM>
<NUMSTATES> 5
<STATE> 2
<MEAN> 39
 -4.110148e+00 -6.377594e+00 6.812223e+00 -8.273082e+00 -1.784145e+01 -6.948919e+00 -1.219095e+01 -1.047116e+00 -6.288444e+00 -5.590388e+00 3.281635e+00 -7.832814e+00 6.765197e+01 -8.307606e-02 8.796082e-02 1.195760e-01 -1.293783e-02 -6.088366e-02 -4.053669e-02 8.352090e-02 -5.969977e-02 -6.680249e-02 3.186947e-02 -2.707765e-03 9.524335e-02 -2.252575e-01 1.915029e-02 -7.314219e-02 -2.131038e-01 2.766085e-02 1.874622e-01 8.525927e-02 8.521919e-02 6.591115e-03 8.212945e-02 -4.227860e-04 -1.793312e-01 -2.325747e-02 -6.307390e-03
<VARIANCE> 39
 2.888479e+01 5.984707e+01 1.084574e+02 5.562499e+01 7.860087e+01 9.677488e+01 5.936671e+01 9.714612e+01 6.705452e+01 5.305537e+01 6.258933e+01 3.811036e+01 1.006965e+02 5.074458e-01 1.957310e+00 2.962527e+00 1.315933e+00 2.352851e+00 2.181959e+00 2.715658e+00 3.151398e+00 2.632539e+00 1.889990e+00 3.011015e+00 1.767808e+00 1.464485e+00 9.512434e-02 2.505458e-01 3.004909e-01 2.215385e-01 3.896646e-01 3.944287e-01 4.468200e-01 5.121812e-01 4.032258e-01 3.447373e-01 4.281707e-01 3.092309e-01 1.498529e-01
<GCONST> 1.191077e+02
<STATE> 3
<MEAN> 39
 -7.159513e+00 -5.218209e+00 -1.484435e+00 -2.601717e+00 -6.939736e+00 -5.000727e+00 -6.817265e+00 -1.913740e+00 -4.798518e+00 -3.415806e+00 -2.828093e+00 -3.459016e+00 5.071437e+01 -9.221315e-02 -7.178899e-03 -1.513309e-01 3.083367e-02 1.519605e-01 9.396476e-02 1.334145e-01 2.242593e-02 6.073591e-02 4.839427e-02 -6.403285e-02 4.702726e-02 -3.054394e-01 2.281564e-02 7.670963e-03 -1.696774e-02 -2.584646e-02 1.126397e-02 2.072702e-02 -2.752496e-02 2.110650e-02 2.146707e-02 4.268875e-04 -1.259527e-02 -4.154002e-02 2.664660e-02
<VARIANCE> 39
 5.513713e+01 5.480784e+01 5.126097e+01 4.047609e+01 5.479649e+01 4.866207e+01 3.965046e+01 5.407601e+01 4.195705e+01 3.596404e+01 3.530144e+01 3.021262e+01 1.553502e+02 4.742256e-01 1.231590e+00 1.140121e+00 1.022877e+00 1.439878e+00 1.522571e+00 1.635655e+00 1.921250e+00 1.818752e+00 1.705526e+00 1.869433e+00 1.427529e+00 8.114211e-01 7.638812e-02 1.821719e-01 1.760757e-01 1.965817e-01 2.718936e-01 2.889849e-01 3.149431e-01 3.668272e-01 3.430160e-01 3.315987e-01 3.371580e-01 2.831642e-01 9.152917e-02
<GCONST> 1.064211e+02
<STATE> 4
<MEAN> 39
 -1.754934e+00 -6.295064e+00 -2.809991e-01 -7.569444e+00 -1.174057e+01 -1.544392e+00 -1.040529e+01 -1.699727e+00 -6.726935e+00 -9.910452e-01 -2.539648e+00 -7.150083e+00 6.374466e+01 1.085844e-01 -2.733907e-01 -4.381538e-01 -4.942604e-02 2.062904e-01 1.335523e-01 1.109789e-02 2.031643e-01 2.325304e-01 -3.258464e-02 -2.477600e-01 -1.818821e-01 3.528903e-02 -5.231724e-03 -5.822504e-02 -6.284032e-02 -2.917830e-02 7.257356e-02 2.628210e-02 -3.919910e-02 6.723057e-02 6.695014e-02 -6.949015e-02 1.728540e-02 -5.857858e-02 6.588966e-02
<VARIANCE> 39
 4.366913e+01 6.835464e+01 9.331366e+01 7.999224e+01 8.835877e+01 8.022385e+01 6.533858e+01 9.057063e+01 6.884973e+01 7.140178e+01 5.248171e+01 3.816475e+01 1.594894e+02 1.046622e+00 2.428907e+00 2.756754e+00 2.429921e+00 3.088647e+00 2.507743e+00 2.826284e+00 3.862371e+00 2.921163e+00 2.942245e+00 2.930633e+00 2.095562e+00 2.115529e+00 1.558212e-01 3.421622e-01 3.613347e-01 3.944042e-01 4.734770e-01 4.281237e-01 4.932462e-01 7.140648e-01 4.883429e-01 5.487412e-01 4.927639e-01 3.759243e-01 3.032581e-01
<GCONST> 1.275953e+02
<TRANSP> 5
 0.000000e+00 1.000000e+00 0.000000e+00 0.000000e+00 0.000000e+00
 0.000000e+00 6.847420e-01 3.152581e-01 0.000000e+00 0.000000e+00
 0.000000e+00 0.000000e+00 7.533476e-01 2.466524e-01 0.000000e+00
 0.000000e+00 0.000000e+00 0.000000e+00 5.089511e-01 4.910488e-01
 0.000000e+00 0.000000e+00 0.000000e+00 0.000000e+00 0.000000e+00
<ENDHMM>
~h "z"
<BEGINHMM>
<NUMSTATES> 5
<STATE> 2
<MEAN> 39
 -6.338309e+00 7.790941e-01 -1.745651e+00 -1.567379e+00 -5.274528e+00 -4.184833e+00 -8.058395e+00 -1.879906e+00 -3.334279e+00 -2.891318e+00 -3.594345e+00 -3.465218e+00 5.623959e+01 -1.054142e+00 6.515097e-01 -2.135366e-01 5.036258e-01 5.009814e-01 -9.638759e-02 5.039660e-01 4.897120e-02 8.923225e-03 -5.325617e-02 1.311129e-01 4.157574e-01 -8.963392e-01 1.930334e-02 -1.812126e-01 2.932808e-02 -1.050509e-01 -1.239739e-01 2.078898e-02 -1.042647e-01 1.946522e-02 -1.798302e-02 3.619228e-02 7.930333e-02 -9.614656e-02 9.227829e-02
<VARIANCE> 39
 8.094895e+01 5.090392e+01 3.643336e+01 5.036090e+01 4.490362e+01 5.563483e+01 4.789586e+01 5.449808e+01 4.005527e+01 3.535294e+01 4.521994e+01 3.258014e+01 1.356974e+02 3.102495e+00 2.989163e+00 2.228714e+00 2.630550e+00 2.742181e+00 2.666432e+00 2.619486e+00 2.793591e+00 2.509466e+00 2.182854e+00 2.367117e+00 1.906953e+00 1.644601e+00 3.631415e-01 4.319800e-01 3.397432e-01 4.211108e-01 4.610727e-01 4.349920e-01 4.720635e-01 4.661452e-01 4.277933e-01 3.999090e-01 4.419006e-01 3.481581e-01 2.000128e-01
<GCONST> 1.221844e+02
<STATE> 3
<MEAN> 39
 -1.240234e+01 -2.120770e+00 -3.748861e+00 -1.811762e+00 -5.474283e+00 -6.168743e+00 -5.447518e+00 -2.148892e+00 -3.813883e+00 -3.527356e+00 -1.598272e+00 -1.537195e+00 4.478663e+01 -1.879174e-01 7.344514e-02 7.878523e-03 1.004503e-01 9.151472e-02 6.934739e-02 9.540696e-02 1.805038e-02 2.858953e-02 7.421715e-02 -2.839496e-03 1.784245e-02 -2.580791e-01 6.737536e-02 -2.996512e-02 4.735871e-02 -3.742528e-02 -1.848648e-02 -2.722364e-03 -5.050118e-02 -1.752597e-02 -9.861147e-03 -5.773157e-03 -1.279394e-02 -3.612568e-02 9.249350e-02
<VARIANCE> 39
 6.002949e+01 6.346574e+01 3.123003e+01 2.746719e+01 2.799027e+01 3.066889e+01 2.817651e+01 2.855199e+01 2.957242e+01 2.491562e+01 2.248009e+01 1.821732e+01 1.313852e+02 4.905220e-01 9.413570e-01 8.478067e-01 9.436687e-01 1.146539e+00 1.370431e+00 1.455905e+00 1.463016e+00 1.666290e+00 1.562468e+00 1.627098e+00 1.328826e+00 6.130286e-01 1.169168e-01 1.613752e-01 1.642037e-01 1.918037e-01 2.288440e-01 2.754409e-01 2.920044e-01 2.856522e-01 3.346905e-01 3.252680e-01 3.124388e-01 2.740751e-01 9.598590e-02
<GCONST> 9.937330e+01
<STATE> 4
<MEAN> 39
 -1.050187e+01 3.024921e+00 -3.868041e-01 -1.307245e-01 -5.161432e+00 -6.234934e+00 -6.988822e+00 -3.164309e+00 -3.536394e+00 -2.490985e+00 -2.472514e+00 -3.001268e+00 5.321457e+01 9.561048e-01 -6.875557e-01 2.910725e-01 -5.359029e-01 -6.320867e-01 -1.599646e-01 -5.898274e-01 -2.195769e-01 3.583200e-02 -9.695058e-02 5.846675e-02 -3.453716e-01 1.647335e+00 3.153696e-01 -2.930061e-01 -5.666451e-02 -2.493795e-01 -3.122798e-01 1.233417e-01 -1.669585e-01 2.896948e-03 7.137667e-02 -3.773756e-02 9.450534e-02 -1.323732e-01 4.384190e-01
<VARIANCE> 39
 8.529775e+01 5.414703e+01 4.361190e+01 4.115365e+01 4.300268e+01 5.087284e+01 4.025771e+01 4.102291e+01 3.895578e+01 2.729350e+01 2.672193e+01 2.682461e+01 1.816931e+02 6.956059e+00 4.866314e+00 3.388940e+00 3.951370e+00 4.382315e+00 4.059052e+00 3.256913e+00 4.069407e+00 3.452760e+00 2.829865e+00 2.656388e+00 2.684251e+00 7.877832e+00 9.422046e-01 6.467778e-01 4.952507e-01 5.912809e-01 6.922781e-01 6.894124e-01 5.712190e-01 7.086675e-01 6.166670e-01 5.309202e-01 4.676051e-01 5.258419e-01 1.121216e+00
<GCONST> 1.335686e+02
<TRANSP> 5
 0.000000e+00 1.000000e+00 0.000000e+00 0.000000e+00 0.000000e+00
 0.000000e+00 7.417079e-01 2.582922e-01 0.000000e+00 0.000000e+00
 0.000000e+00 0.000000e+00 8.366666e-01 1.633334e-01 0.000000e+00
 0.000000e+00 0.000000e+00 0.000000e+00 7.524621e-01 2.475379e-01
 0.000000e+00 0.000000e+00 0.000000e+00 0.000000e+00 0.000000e+00
<ENDHMM>
~h "ai"
<BEGINHMM>
<NUMSTATES> 5
<STATE> 2
<MEAN> 39
 -6.831259e+00 -3.228427e-01 3.026947e-01 -2.720420e+00 -7.491835e+00 -5.179792e+00 -7.694044e+00 -4.539198e+00 -4.423254e+00 -2.605714e+00 -2.538170e+00 -3.554562e+00 5.584383e+01 -3.454792e-01 -6.613442e-01 -3.693222e-02 -5.045626e-01 -3.705141e-01 -3.733724e-01 -1.882649e-01 2.564128e-01 -3.354473e-02 -8.619778e-02 3.413899e-01 -1.200014e-02 1.362938e+00 2.589409e-01 -2.478977e-01 4.560709e-02 -1.620722e-01 -4.903660e-01 1.809938e-01 -2.134200e-01 1.093350e-01 7.926731e-02 -7.270573e-02 2.060748e-01 -2.343076e-01 4.081086e-01
<VARIANCE> 39
 9.776859e+01 5.978617e+01 7.248574e+01 5.161716e+01 7.500368e+01 6.701731e+01 4.538318e+01 5.301842e+01 5.740605e+01 3.805423e+01 4.017137e+01 3.389177e+01 1.507650e+02 7.951552e+00 5.933226e+00 5.299728e+00 4.596303e+00 8.215569e+00 5.225340e+00 5.281690e+00 5.013959e+00 5.584015e+00 4.203187e+00 4.886057e+00 3.765956e+00 1.453390e+01 1.310179e+00 9.132079e-01 7.796323e-01 7.597190e-01 1.234327e+00 9.698449e-01 8.808104e-01 9.030335e-01 9.217312e-01 7.426959e-01 8.588279e-01 6.673748e-01 1.690153e+00
<GCONST> 1.468307e+02
<STATE> 3
<MEAN> 39
 -2.205899e+00 -8.085550e+00 6.926103e-01 -6.882247e+00 -1.566992e+01 -4.284484e+00 -1.254901e+01 -1.878182e+00 -3.059780e+00 -4.032145e+00 1.541463e+00 -7.978196e+00 6.883438e+01 6.995156e-01 -1.476148e+00 3.619049e-02 -8.411385e-01 -1.692725e+00 9.004793e-01 -6.023424e-01 1.247344e+00 6.102978e-01 -6.195351e-01 7.144431e-01 -1.118602e+00 1.633346e+00 -1.950278e-01 3.898303e-01 -4.892533e-02 3.183442e-01 5.436959e-01 1.568048e-01 3.802567e-01 -1.050057e-01 -1.401805e-01 3.426093e-02 -4.022645e-01 1.655515e-01 -8.189001e-01
<VARIANCE> 39
 3.222145e+01 5.983706e+01 9.215833e+01 5.539221e+01 7.792446e+01 1.153832e+02 6.521322e+01 8.434505e+01 8.467935e+01 5.714668e+01 6.069072e+01 4.205219e+01 1.101850e+02 3.349882e+00 4.244450e+00 4.465798e+00 4.090906e+00 6.912185e+00 6.025445e+00 5.596442e+00 6.274171e+00 5.902846e+00 4.858104e+00 5.924199e+00 3.816736e+00 5.275696e+00 5.898725e-01 5.568184e-01 7.543533e-01 7.070419e-01 9.946586e-01 1.079966e+00 9.031707e-01 9.838721e-01 1.100160e+00 8.307804e-01 9.396486e-01 6.997944e-01 8.450627e-01
<GCONST> 1.450467e+02
<STATE> 4
<MEAN> 39
 -2.462019e+00 -9.956663e+00 3.802444e+00 -8.318018e+00 -1.856838e+01 -4.733951e+00 -1.088276e+01 1.577646e-01 -5.328750e+00 -6.048035e+00 1.195637e+00 -9.781839e+00 6.943492e+01 6.701979e-02 4.893671e-01 1.577691e-01 2.742552e-01 1.531708e-01 -1.478087e-01 1.134263e-01 -1.513458e-01 -3.341120e-01 2.124235e-01 -1.729795e-01 9.260258e-02 -7.367626e-01 -2.879898e-02 1.640385e-01 -3.099192e-02 1.018883e-01 1.910875e-01 -5.275810e-02 5.456991e-02 -1.117421e-01 8.672681e-03 5.543683e-02 -7.208684e-02 8.325414e-02 -2.108588e-01
<VARIANCE> 39
 2.499297e+01 7.573064e+01 9.002632e+01 5.123230e+01 7.646306e+01 1.242030e+02 5.685955e+01 9.639052e+01 7.855692e+01 5.934089e+01 6.485545e+01 3.533214e+01 8.599444e+01 8.210949e-01 1.956687e+00 2.116064e+00 1.714073e+00 2.907860e+00 2.735150e+00 2.653340e+00 3.204971e+00 2.846627e+00 2.219867e+00 2.661778e+00 1.862667e+00 2.178267e+00 1.662178e-01 2.908650e-01 2.889193e-01 2.802029e-01 4.815829e-01 4.557014e-01 4.804907e-01 5.579584e-01 4.832986e-01 4.121918e-01 4.633397e-01 3.558400e-01 2.820914e-01
<GCONST> 1.232076e+02
<TRANSP> 5
 0.000000e+00 1.000000e+00 0.000000e+00 0.000000e+00 0.000000e+00
