~o
<STREAMINFO> 1 39
<VECSIZE> 39<NULLD><MFCC_D_A_0><DIAGC>
~h "@"
<BEGINHMM>
<NUMSTATES> 5
<STATE> 2
<MEAN> 39
 -5.613251e+00 -3.459026e+00 -9.786191e-01 -4.285274e+00 -8.650177e+00 -2.922528e+00 -8.642383e+00 -3.050922e+00 -4.088018e+00 -2.610000e+00 -1.538273e+00 -5.591097e+00 5.592260e+01 1.115493e-02 -4.483009e-03 2.483585e-03 -4.293880e-03 -4.992308e-03 1.567830e-03 -3.549245e-03 -4.830514e-03 -1.200273e-03 4.000203e-04 -6.304732e-04 -7.908049e-03 2.847873e-02 -4.861562e-06 4.880261e-06 -1.370448e-04 7.196920e-05 -1.388804e-06 8.853710e-05 -1.842734e-06 -1.331426e-04 -6.083636e-05 2.388508e-05 -1.747064e-04 1.143606e-04 -2.468269e-04
<VARIANCE> 39
 6.812354e+01 6.647969e+01 7.019396e+01 5.559327e+01 7.727578e+01 6.986317e+01 6.185362e+01 7.078036e+01 6.071791e+01 4.323203e+01 4.828073e+01 4.668359e+01 2.508360e+02 2.669682e+00 2.860995e+00 2.626949e+00 2.715354e+00 3.457391e+00 3.221637e+00 3.101101e+00 3.761913e+00 3.304436e+00 2.712760e+00 2.989759e+00 2.516843e+00 5.412114e+00 4.131922e-01 4.398680e-01 4.115304e-01 4.650439e-01 6.101103e-01 5.609776e-01 5.613059e-01 6.632965e-01 5.852065e-01 5.064958e-01 5.443408e-01 4.598000e-01 7.165873e-01
<GCONST> 1.328728e+02
<STATE> 3
<MEAN> 39
 -5.572609e+00 -3.475353e+00 -9.702346e-01 -4.301586e+00 -8.669310e+00 -2.916561e+00 -8.656523e+00 -3.068108e+00 -4.091769e+00 -2.608156e+00 -1.540494e+00 -5.617651e+00 5.602693e+01 1.114439e-02 -4.558260e-03 2.017526e-03 -4.080375e-03 -4.951558e-03 1.655468e-03 -3.580156e-03 -5.009899e-03 -1.323812e-03 3.474315e-04 -9.380197e-04 -7.408176e-03 2.759427e-02 3.933824e-05 4.798256e-05 -2.171534e-05 6.892203e-05 -2.888842e-05 6.392481e-05 -1.063196e-04 -6.472570e-05 -1.369160e-04 -1.332515e-05 -1.218033e-04 1.962982e-04 -3.242282e-04
<VARIANCE> 39
 6.812986e+01 6.665521e+01 7.042241e+01 5.577154e+01 7.734682e+01 7.006897e+01 6.196799e+01 7.099141e+01 6.098720e+01 4.337001e+01 4.842416e+01 4.669926e+01 2.497684e+02 2.676317e+00 2.870958e+00 2.637290e+00 2.726949e+00 3.470157e+00 3.232343e+00 3.109756e+00 3.773679e+00 3.316003e+00 2.719671e+00 2.998952e+00 2.521956e+00 5.435508e+00 4.142000e-01 4.412168e-01 4.131887e-01 4.669231e-01 6.122917e-01 5.624636e-01 5.625891e-01 6.653071e-01 5.869541e-01 5.075326e-01 5.460157e-01 4.606643e-01 7.191506e-01
<GCONST> 1.329785e+02
<STATE> 4
<MEAN> 39
 -5.427930e+00 -3.469947e+00 -8.630527e-01 -4.303508e+00 -8.723902e+00 -2.717131e+00 -8.757218e+00 -2.891984e+00 -4.208086e+00 -2.464094e+00 -1.600293e+00 -5.647092e+00 5.629504e+01 1.079249e-02 -4.332110e-03 1.799858e-03 -4.111280e-03 -5.018420e-03 1.634267e-03 -4.069350e-03 -4.737780e-03 -1.063302e-03 5.226188e-05 -8.904488e-04 -6.736685e-03 2.693807e-02 -1.960411e-05 9.272446e-05 4.864372e-05 7.135165e-05 2.318003e-05 5.343958e-05 -5.897769e-05 2.706859e-05 -7.153481e-05 -7.152032e-05 -6.355482e-05 1.251784e-04 -3.844489e-04
<VARIANCE> 39
 6.779523e+01 6.736510e+01 7.107387e+01 5.641522e+01 7.848230e+01 7.059058e+01 6.267482e+01 7.170934e+01 6.154478e+01 4.324797e+01 4.914265e+01 4.680171e+01 2.473826e+02 2.673414e+00 2.891794e+00 2.662166e+00 2.752325e+00 3.517765e+00 3.250666e+00 3.145689e+00 3.809331e+00 3.324898e+00 2.717627e+00 3.014416e+00 2.517136e+00 5.474381e+00 4.142000e-01 4.431797e-01 4.167129e-01 4.698723e-01 6.185234e-01 5.648965e-01 5.674719e-01 6.698772e-01 5.873083e-01 5.069564e-01 5.478455e-01 4.590481e-01 7.203608e-01
<GCONST> 1.331892e+02
<TRANSP> 5
 0.000000e+00 1.000000e+00 0.000000e+00 0.000000e+00 0.000000e+00
 0.000000e+00 7.050465e-01 2.949535e-01 0.000000e+00 0.000000e+00
 0.000000e+00 0.000000e+00 7.050493e-01 2.949507e-01 0.000000e+00
 0.000000e+00 0.000000e+00 0.000000e+00 8.463883e-01 1.536117e-01
 0.000000e+00 0.000000e+00 0.000000e+00 0.000000e+00 0.000000e+00
<ENDHMM>
~h "a"
<BEGINHMM>
<NUMSTATES> 5
<STATE> 2
<MEAN> 39
 -5.564231e+00 -3.538891e+00 -1.085108e+00 -4.268240e+00 -8.223421e+00 -2.785703e+00 -8.432309e+00 -2.858740e+00 -4.121946e+00 -2.717427e+00 -1.662320e+00 -5.598402e+00 5.576705e+01 1.605794e-03 9.395385e-04 1.081816e-03 -7.569483e-04 1.573442e-03 1.175150e-03 -1.009178e-03 -1.340306e-03 -5.767357e-04 3.558278e-04 -2.553633e-03 -2.660153e-03 1.672014e-04 -2.544006e-04 1.404850e-04 2.802569e-05 -4.582450e-05 -4.155847e-05 -3.283106e-05 5.337599e-05 -7.206271e-05 1.739960e-04 2.450940e-05 2.629350e-05 -1.691295e-05 -4.542927e-04
<VARIANCE> 39
 6.515572e+01 6.847143e+01 6.992540e+01 5.695427e+01 7.563307e+01 6.759753e+01 6.066412e+01 6.765369e+01 5.917426e+01 4.354313e+01 4.736097e+01 4.619567e+01 2.471700e+02 2.570720e+00 2.825164e+00 2.586790e+00 2.659851e+00 3.377870e+00 3.175627e+00 3.047783e+00 3.707319e+00 3.219415e+00 2.713987e+00 2.929131e+00 2.481384e+00 5.190963e+00 3.995583e-01 4.296230e-01 4.046124e-01 4.555948e-01 5.954984e-01 5.545512e-01 5.559056e-01 6.559461e-01 5.715774e-01 5.037545e-01 5.353450e-01 4.539228e-01 6.824892e-01
<GCONST> 1.321796e+02
<STATE> 3
<MEAN> 39
 -5.559001e+00 -3.535967e+00 -1.080135e+00 -4.271213e+00 -8.218053e+00 -2.781387e+00 -8.435959e+00 -2.863262e+00 -4.123451e+00 -2.715405e+00 -1.670969e+00 -5.607724e+00 5.576932e+01 7.145703e-04 1.486223e-03 1.195007e-03 -5.925853e-04 1.401383e-03 9.458697e-04 -8.022006e-04 -1.632731e-03 -3.791958e-04 3.794010e-04 -2.395522e-03 -2.503375e-03 -1.528335e-03 -2.359275e-04 1.065520e-04 8.785515e-06 -3.464160e-05 -9.581939e-05 -2.690931e-05 3.749914e-05 -3.929713e-05 1.150341e-04 2.908415e-05 1.039080e-05 2.435777e-05 -2.865939e-04
<VARIANCE> 39
 6.507259e+01 6.852508e+01 6.997080e+01 5.687756e+01 7.566108e+01 6.759594e+01 6.065996e+01 6.755270e+01 5.918281e+01 4.357865e+01 4.739766e+01 4.614170e+01 2.469681e+02 2.570575e+00 2.823186e+00 2.586056e+00 2.657347e+00 3.375986e+00 3.176041e+00 3.048335e+00 3.703949e+00 3.217814e+00 2.712927e+00 2.928838e+00 2.480062e+00 5.192316e+00 3.993339e-01 4.292505e-01 4.044205e-01 4.550313e-01 5.950850e-01 5.545623e-01 5.560249e-01 6.553203e-01 5.711915e-01 5.035279e-01 5.352169e-01 4.536320e-01 6.823649e-01
<GCONST> 1.321658e+02
<STATE> 4
<MEAN> 39
 -5.429605e+00 -3.516936e+00 -9.522318e-01 -4.268028e+00 -8.257500e+00 -2.625659e+00 -8.529628e+00 -2.646216e+00 -4.237919e+00 -2.550038e+00 -1.756162e+00 -5.647990e+00 5.608710e+01 8.017008e-05 1.705705e-03 1.552915e-03 -1.076214e-04 1.026906e-03 6.362957e-04 -4.295640e-04 -1.345686e-03 -5.226381e-04 5.950583e-04 -2.108656e-03 -1.952010e-03 -1.962518e-03 -1.765666e-04 8.730649e-05 -9.616946e-06 2.041923e-05 -7.560446e-05 -5.765225e-05 7.408937e-05 1.519992e-05 1.141390e-05 2.013159e-05 3.644176e-05 1.140347e-04 -2.312582e-04
<VARIANCE> 39
 6.500561e+01 6.934782e+01 7.107963e+01 5.728479e+01 7.688431e+01 6.772200e+01 6.150336e+01 6.817104e+01 5.926340e+01 4.343798e+01 4.792805e+01 4.572669e+01 2.431700e+02 2.589278e+00 2.844441e+00 2.606335e+00 2.675526e+00 3.417880e+00 3.183630e+00 3.086117e+00 3.733154e+00 3.221343e+00 2.705025e+00 2.936213e+00 2.471465e+00 5.225309e+00 4.013751e-01 4.320323e-01 4.064991e-01 4.570167e-01 5.999939e-01 5.550932e-01 5.611910e-01 6.582856e-01 5.711998e-01 5.023692e-01 5.357041e-01 4.519625e-01 6.845334e-01
<GCONST> 1.323350e+02
<TRANSP> 5
 0.000000e+00 1.000000e+00 0.000000e+00 0.000000e+00 0.000000e+00
 0.000000e+00 7.083347e-01 2.916653e-01 0.000000e+00 0.000000e+00
 0.000000e+00 0.000000e+00 7.083241e-01 2.916759e-01 0.000000e+00
 0.000000e+00 0.000000e+00 0.000000e+00 8.505208e-01 1.494792e-01
 0.000000e+00 0.000000e+00 0.000000e+00 0.000000e+00 0.000000e+00
<ENDHMM>
~h "b"
<BEGINHMM>
<NUMSTATES> 5
<STATE> 2
<MEAN> 39
 -5.223506e+00 -3.189974e+00 -8.176900e-01 -4.136039e+00 -8.597760e+00 -2.626638e+00 -8.586564e+00 -3.016853e+00 -4.265799e+00 -2.636879e+00 -1.590479e+00 -5.453941e+00 5.581251e+01 5.379416e-03 3.185178e-03 5.523885e-03 -5.830734e-03 -1.718914e-03 3.600013e-03 -1.585649e-03 -6.972296e-03 9.148003e-04 4.602650e-03 -1.646037e-03 -6.641475e-03 1.086627e-02 -2.165789e-04 4.029462e-04 -8.296230e-05 -5.249533e-04 2.564125e-04 4.542500e-04 2.530672e-04 -1.733905e-04 3.909425e-04 2.807379e-04 -4.946929e-04 -4.318960e-04 -2.581370e-04
<VARIANCE> 39
 6.717365e+01 6.726720e+01 6.946205e+01 5.819233e+01 7.739398e+01 6.824178e+01 6.304021e+01 7.096516e+01 6.053971e+01 4.267805e+01 4.854137e+01 4.604953e+01 2.454017e+02 2.597654e+00 2.883708e+00 2.611341e+00 2.752062e+00 3.459083e+00 3.221519e+00 3.117087e+00 3.792606e+00 3.339020e+00 2.711264e+00 3.006461e+00 2.522045e+00 5.286879e+00 4.021515e-01 4.397922e-01 4.079378e-01 4.693466e-01 6.119157e-01 5.596519e-01 5.693780e-01 6.703931e-01 5.903964e-01 5.056282e-01 5.504382e-01 4.619072e-01 6.996331e-01
<GCONST> 1.328528e+02
<STATE> 3
<MEAN> 39
 -5.203388e+00 -3.177681e+00 -7.989385e-01 -4.157552e+00 -8.605718e+00 -2.610899e+00 -8.593380e+00 -3.041685e+00 -4.261127e+00 -2.618656e+00 -1.598197e+00 -5.479907e+00 5.586082e+01 4.438154e-03 3.720087e-03 4.977787e-03 -6.051782e-03 -1.163464e-03 4.019664e-03 -9.991884e-04 -5.997665e-03 1.308593e-03 4.759277e-03 -2.506069e-03 -6.557161e-03 1.012945e-02 -1.151126e-04 2.582429e-04 -1.365275e-04 1.316124e-05 1.481969e-04 2.437059e-04 1.423091e-04 1.374680e-04 1.603113e-04 1.090269e-05 -3.502964e-04 5.245886e-05 -1.608020e-04
<VARIANCE> 39
 6.724238e+01 6.734975e+01 6.949768e+01 5.801667e+01 7.754841e+01 6.833922e+01 6.308685e+01 7.084586e+01 6.075872e+01 4.264064e+01 4.863158e+01 4.577179e+01 2.449839e+02 2.604068e+00 2.889339e+00 2.615099e+00 2.750004e+00 3.464796e+00 3.226866e+00 3.123710e+00 3.784811e+00 3.340350e+00 2.710736e+00 3.010915e+00 2.517866e+00 5.297220e+00 4.030015e-01 4.406218e-01 4.090917e-01 4.687076e-01 6.126187e-01 5.606086e-01 5.707306e-01 6.688781e-01 5.904874e-01 5.055054e-01 5.512518e-01 4.608495e-01 7.013570e-01
<GCONST> 1.328723e+02
<STATE> 4
<MEAN> 39
 -5.079360e+00 -3.219964e+00 -7.745383e-01 -4.249320e+00 -8.679118e+00 -2.475705e+00 -8.727420e+00 -2.848686e+00 -4.389247e+00 -2.455086e+00 -1.682971e+00 -5.589685e+00 5.623838e+01 3.454016e-03 2.462378e-03 4.009602e-03 -4.095917e-03 -1.382494e-03 2.808378e-03 -1.220737e-03 -2.500949e-03 7.798034e-04 3.422034e-03 -2.095158e-03 -4.317787e-03 1.226084e-02 -1.901891e-04 -6.254132e-05 -1.885055e-04 2.424579e-04 7.635239e-05 -7.216824e-05 2.560162e-05 3.656498e-04 -5.764555e-05 -1.791069e-04 -1.104308e-04 3.120877e-04 -4.756872e-05
<VARIANCE> 39
 6.732684e+01 6.817923e+01 7.033294e+01 5.841018e+01 7.858701e+01 6.832008e+01 6.360057e+01 7.141538e+01 6.084325e+01 4.268204e+01 4.933116e+01 4.568451e+01 2.423807e+02 2.641176e+00 2.935421e+00 2.654865e+00 2.777411e+00 3.532506e+00 3.240994e+00 3.177291e+00 3.841236e+00 3.336569e+00 2.723025e+00 3.040176e+00 2.522267e+00 5.410249e+00 4.086874e-01 4.481814e-01 4.157056e-01 4.725011e-01 6.216302e-01 5.626853e-01 5.800587e-01 6.766044e-01 5.901371e-01 5.076634e-01 5.556300e-01 4.605326e-01 7.160358e-01
<GCONST> 1.332169e+02
<TRANSP> 5
 0.000000e+00 1.000000e+00 0.000000e+00 0.000000e+00 0.000000e+00
 0.000000e+00 7.116130e-01 2.883870e-01 0.000000e+00 0.000000e+00
 0.000000e+00 0.000000e+00 7.116179e-01 2.883821e-01 0.000000e+00
 0.000000e+00 0.000000e+00 0.000000e+00 8.539687e-01 1.460312e-01
 0.000000e+00 0.000000e+00 0.000000e+00 0.000000e+00 0.000000e+00
<ENDHMM>
~h "c"
<BEGINHMM>
<NUMSTATES> 5
<STATE> 2
<MEAN> 39
 -5.587223e+00 -3.193920e+00 -7.716838e-01 -4.154754e+00 -8.618209e+00 -2.982388e+00 -8.446157e+00 -2.932104e+00 -4.295094e+00 -2.864962e+00 -1.646291e+00 -5.504352e+00 5.595327e+01 1.905452e-03 2.165422e-03 2.810867e-03 -4.609568e-03 4.745418e-03 6.722975e-03 -6.686802e-03 -6.928754e-03 1.602894e-03 -1.190073e-03 -5.009538e-03 -6.251372e-03 -2.708740e-03 -5.629626e-04 -3.499941e-04 -4.487572e-04 1.004244e-04 3.932645e-05 3.136181e-04 2.704893e-05 4.834223e-04 3.452623e-04 3.336596e-04 4.226420e-04 -3.920240e-04 -2.698887e-04
<VARIANCE> 39
 6.630502e+01 6.553324e+01 6.924184e+01 5.602834e+01 7.573879e+01 6.731742e+01 6.112444e+01 7.056301e+01 5.830295e+01 4.380529e+01 4.885830e+01 4.681930e+01 2.421270e+02 2.742057e+00 2.885120e+00 2.658617e+00 2.740657e+00 3.464618e+00 3.236534e+00 3.149916e+00 3.814761e+00 3.323121e+00 2.722228e+00 2.989309e+00 2.502054e+00 5.458047e+00 4.293798e-01 4.452090e-01 4.177230e-01 4.727623e-01 6.115062e-01 5.685880e-01 5.781033e-01 6.777170e-01 5.860304e-01 5.039299e-01 5.480128e-01 4.550014e-01 7.151562e-01
<GCONST> 1.329489e+02
<STATE> 3
<MEAN> 39
 -5.579653e+00 -3.188629e+00 -7.610825e-01 -4.167480e+00 -8.606183e+00 -2.958674e+00 -8.468563e+00 -2.952847e+00 -4.288779e+00 -2.864864e+00 -1.657396e+00 -5.527703e+00 5.595643e+01 5.763585e-04 1.586934e-03 2.580762e-03 -3.779033e-03 4.725063e-03 6.181362e-03 -6.675532e-03 -4.719763e-03 2.292959e-03 -6.512224e-04 -3.707609e-03 -6.281411e-03 -3.548883e-03 -3.116090e-04 -2.906458e-04 -2.214475e-04 1.828332e-04 1.933188e-05 1.249942e-04 1.126804e-04 7.715580e-04 2.898195e-04 2.717605e-04 6.521478e-04 -3.304834e-04 -2.914897e-04
<VARIANCE> 39
 6.608096e+01 6.571234e+01 6.949547e+01 5.596142e+01 7.588472e+01 6.740548e+01 6.119350e+01 7.031557e+01 5.820490e+01 4.382298e+01 4.901560e+01 4.671404e+01 2.424677e+02 2.736983e+00 2.885290e+00 2.659992e+00 2.738799e+00 3.464113e+00 3.239378e+00 3.148858e+00 3.804845e+00 3.321357e+00 2.726200e+00 2.987191e+00 2.494083e+00 5.472670e+00 4.291752e-01 4.456025e-01 4.178088e-01 4.724125e-01 6.121839e-01 5.694721e-01 5.779089e-01 6.750523e-01 5.863157e-01 5.049807e-01 5.480009e-01 4.538561e-01 7.158288e-01
<GCONST> 1.329474e+02
<STATE> 4
<MEAN> 39
 -5.340648e+00 -3.115418e+00 -5.746813e-01 -4.150146e+00 -8.727965e+00 -2.671377e+00 -8.694349e+00 -2.760455e+00 -4.441043e+00 -2.670087e+00 -1.729726e+00 -5.639140e+00 5.638773e+01 1.193026e-03 3.465114e-04 2.055624e-03 -1.929752e-03 3.534403e-03 3.554049e-03 -5.837017e-03 -2.004052e-03 2.877733e-03 -1.021786e-04 -1.945480e-03 -5.319697e-03 -6.764338e-04 7.173876e-07 -1.865871e-04 -1.035240e-04 1.336239e-04 1.325777e-04 -6.934952e-05 9.912217e-05 3.925894e-04 5.664764e-05 1.947724e-04 4.124392e-04 -1.059131e-04 -2.905177e-04
<VARIANCE> 39
 6.550690e+01 6.563340e+01 7.087777e+01 5.561176e+01 7.810727e+01 6.794913e+01 6.254543e+01 7.135838e+01 5.830019e+01 4.385118e+01 5.020330e+01 4.616631e+01 2.377140e+02 2.716714e+00 2.890079e+00 2.667520e+00 2.768864e+00 3.532101e+00 3.250403e+00 3.174144e+00 3.838403e+00 3.331640e+00 2.716755e+00 3.010200e+00 2.494256e+00 5.485584e+00 4.267509e-01 4.480751e-01 4.183654e-01 4.776951e-01 6.238149e-01 5.700395e-01 5.823311e-01 6.765469e-01 5.895810e-01 5.046704e-01 5.510377e-01 4.539172e-01 7.150151e-01
<GCONST> 1.331277e+02
<TRANSP> 5
 0.000000e+00 1.000000e+00 0.000000e+00 0.000000e+00 0.000000e+00
 0.000000e+00 7.118920e-01 2.881080e-01 0.000000e+00 0.000000e+00
 0.000000e+00 0.000000e+00 7.118942e-01 2.881058e-01 0.000000e+00
 0.000000e+00 0.000000e+00 0.000000e+00 8.546526e-01 1.453473e-01
 0.000000e+00 0.000000e+00 0.000000e+00 0.000000e+00 0.000000e+00
<ENDHMM>
~h "d"
<BEGINHMM>
<NUMSTATES> 5
<STATE> 2
<MEAN> 39
 -5.448099e+00 -3.437238e+00 -6.517409e-01 -4.037262e+00 -8.672965e+00 -3.079188e+00 -8.575949e+00 -2.974868e+00 -4.278020e+00 -2.707402e+00 -1.620143e+00 -5.596956e+00 5.610315e+01 1.048945e-02 1.790048e-03 5.999812e-03 -1.006762e-03 -7.575514e-03 -1.083956e-04 -3.953111e-03 -4.731944e-03 -2.215275e-03 2.428485e-05 9.462854e-05 -6.438389e-03 2.044122e-02 -1.077740e-04 4.948948e-04 -2.824641e-04 -2.195955e-04 2.501414e-04 4.278104e-04 1.566978e-04 -1.734890e-04 2.830815e-05 -6.951607e-05 3.569292e-04 -9.224754e-05 -4.175929e-04
<VARIANCE> 39
 6.672556e+01 6.666849e+01 7.323168e+01 5.623365e+01 7.775952e+01 6.938303e+01 6.135036e+01 7.093555e+01 5.976660e+01 4.315406e+01 4.803294e+01 4.620224e+01 2.427997e+02 2.657705e+00 2.875727e+00 2.649190e+00 2.696785e+00 3.494319e+00 3.234083e+00 3.126002e+00 3.885578e+00 3.289330e+00 2.735161e+00 2.999937e+00 2.511348e+00 5.472841e+00 4.143402e-01 4.404823e-01 4.124738e-01 4.602624e-01 6.155425e-01 5.640345e-01 5.688620e-01 6.847260e-01 5.840023e-01 5.085825e-01 5.466827e-01 4.602832e-01 7.261249e-01
<GCONST> 1.329857e+02
<STATE> 3
<MEAN> 39
 -5.414303e+00 -3.432072e+00 -6.305843e-01 -4.042883e+00 -8.698787e+00 -3.080042e+00 -8.591874e+00 -2.988270e+00 -4.284411e+00 -2.706588e+00 -1.618999e+00 -5.616970e+00 5.617599e+01 9.790249e-03 2.667193e-03 5.446637e-03 -1.113336e-03 -6.672423e-03 7.612555e-04 -3.354237e-03 -4.366479e-03 -2.138140e-03 -4.083586e-04 9.074048e-04 -6.051864e-03 1.878587e-02 -2.025258e-04 2.754377e-04 -1.617991e-04 -8.105638e-05 2.829323e-04 3.336785e-04 8.625505e-05 4.770021e-05 -1.217888e-04 -1.212899e-04 3.959844e-04 1.115159e-04 -2.268415e-04
<VARIANCE> 39
 6.667959e+01 6.674837e+01 7.351138e+01 5.622083e+01 7.793446e+01 6.962756e+01 6.134414e+01 7.100346e+01 5.998262e+01 4.324076e+01 4.810366e+01 4.611044e+01 2.418454e+02 2.663205e+00 2.877926e+00 2.656667e+00 2.698570e+00 3.500268e+00 3.237114e+00 3.127209e+00 3.894200e+00 3.292966e+00 2.739013e+00 3.004709e+00 2.511795e+00 5.472720e+00 4.149845e-01 4.404403e-01 4.132695e-01 4.602252e-01 6.162642e-01 5.645408e-01 5.685781e-01 6.861482e-01 5.843745e-01 5.088541e-01 5.473176e-01 4.601049e-01 7.255775e-01
<GCONST> 1.330215e+02
<STATE> 4
<MEAN> 39
 -5.311635e+00 -3.362267e+00 -4.796954e-01 -4.004367e+00 -8.731566e+00 -2.873365e+00 -8.670907e+00 -2.789899e+00 -4.384881e+00 -2.579240e+00 -1.684082e+00 -5.619661e+00 5.643259e+01 7.857945e-03 1.734869e-03 4.916276e-03 -1.032410e-03 -5.546451e-03 9.248721e-04 -3.158056e-03 -2.044252e-03 -2.197993e-03 3.371262e-04 1.556218e-03 -4.554919e-03 1.751911e-02 -2.372678e-04 6.193596e-05 -7.279254e-05 5.935843e-05 2.000988e-04 1.441308e-04 8.909406e-05 1.337341e-04 -1.738319e-04 3.941089e-05 2.792916e-04 2.228294e-04 -2.131949e-04
<VARIANCE> 39
 6.638814e+01 6.729314e+01 7.426396e+01 5.674587e+01 7.934964e+01 6.997600e+01 6.248122e+01 7.155669e+01 5.992211e+01 4.313417e+01 4.866597e+01 4.586351e+01 2.378519e+02 2.669785e+00 2.886818e+00 2.664516e+00 2.716666e+00 3.532052e+00 3.249327e+00 3.153937e+00 3.914686e+00 3.282484e+00 2.733209e+00 3.010031e+00 2.502510e+00 5.429537e+00 4.148513e-01 4.410395e-01 4.129952e-01 4.624727e-01 6.205081e-01 5.660982e-01 5.720664e-01 6.884751e-01 5.821424e-01 5.073441e-01 5.472413e-01 4.581307e-01 7.170800e-01
<GCONST> 1.331079e+02
<TRANSP> 5
 0.000000e+00 1.000000e+00 0.000000e+00 0.000000e+00 0.000000e+00
 0.000000e+00 7.048392e-01 2.951608e-01 0.000000e+00 0.000000e+00
 0.000000e+00 0.000000e+00 7.048326e-01 2.951674e-01 0.000000e+00
 0.000000e+00 0.000000e+00 0.000000e+00 8.452224e-01 1.547776e-01
 0.000000e+00 0.000000e+00 0.000000e+00 0.000000e+00 0.000000e+00
<ENDHMM>
~h "e"
<BEGINHMM>
<NUMSTATES> 5
<STATE> 2
<MEAN> 39
 -5.481457e+00 -3.390051e+00 -6.864724e-01 -4.162675e+00 -8.839247e+00 -2.969789e+00 -8.533630e+00 -2.870210e+00 -4.230076e+00 -2.709338e+00 -1.613485e+00 -5.556756e+00 5.600042e+01 -3.300752e-03 6.548920e-03 2.385842e-03 2.916112e-03 5.371939e-03 3.527949e-03 4.914070e-03 -2.862466e-03 -1.498517e-03 1.129704e-03 -2.691125e-03 7.361219e-04 -6.550006e-03 -8.852631e-05 6.739981e-06 -1.869644e-04 4.945523e-05 8.913742e-05 1.413050e-04 -4.553938e-06 -3.058247e-05 -3.119047e-05 -5.704330e-05 -1.013250e-04 1.932528e-04 -7.237771e-04
<VARIANCE> 39
 6.574244e+01 6.774787e+01 7.381667e+01 5.535995e+01 8.016372e+01 6.885250e+01 6.035677e+01 6.904792e+01 5.939613e+01 4.313168e+01 4.873804e+01 4.500996e+01 2.413539e+02 2.595026e+00 2.790286e+00 2.574475e+00 2.630693e+00 3.414777e+00 3.142589e+00 3.021393e+00 3.735245e+00 3.191114e+00 2.679193e+00 2.913955e+00 2.431732e+00 5.148655e+00 4.017802e-01 4.252541e-01 4.010173e-01 4.494537e-01 5.992129e-01 5.449497e-01 5.517293e-01 6.580272e-01 5.666311e-01 4.971498e-01 5.281422e-01 4.444570e-01 6.707110e-01
<GCONST> 1.320771e+02
<STATE> 3
<MEAN> 39
 -5.488535e+00 -3.372474e+00 -6.778102e-01 -4.153023e+00 -8.825453e+00 -2.956223e+00 -8.518147e+00 -2.875655e+00 -4.234201e+00 -2.705819e+00 -1.622455e+00 -5.556628e+00 5.599175e+01 -3.533508e-03 6.409094e-03 1.226408e-03 2.971188e-03 5.499820e-03 4.006975e-03 5.242188e-03 -2.748191e-03 -1.300182e-03 9.120259e-04 -2.714380e-03 1.360327e-03 -8.552200e-03 1.097248e-05 -2.763016e-06 -2.536831e-04 3.660742e-05 -1.125106e-04 1.425199e-04 8.842941e-06 -3.358393e-05 1.974629e-04 7.337074e-05 3.059693e-06 1.220297e-04 -7.642588e-04
<VARIANCE> 39
 6.577015e+01 6.768906e+01 7.387070e+01 5.529089e+01 8.024902e+01 6.880755e+01 6.030293e+01 6.900523e+01 5.934234e+01 4.308324e+01 4.870613e+01 4.494181e+01 2.412331e+02 2.596102e+00 2.788776e+00 2.574857e+00 2.631772e+00 3.416237e+00 3.140874e+00 3.021373e+00 3.736624e+00 3.191112e+00 2.674601e+00 2.914601e+00 2.431318e+00 5.144029e+00 4.016627e-01 4.251459e-01 4.007652e-01 4.499487e-01 5.990986e-01 5.449186e-01 5.516365e-01 6.581259e-01 5.669063e-01 4.959697e-01 5.281568e-01 4.443555e-01 6.697062e-01
<GCONST> 1.320645e+02
<STATE> 4
<MEAN> 39
 -5.418898e+00 -3.314704e+00 -5.623307e-01 -4.124781e+00 -8.845348e+00 -2.757382e+00 -8.602972e+00 -2.670274e+00 -4.302671e+00 -2.579954e+00 -1.703745e+00 -5.564147e+00 5.617982e+01 -1.853480e-03 4.673604e-03 -3.078418e-04 2.084509e-03 4.169322e-03 3.795345e-03 4.612943e-03 -1.618682e-03 -5.397472e-04 9.761181e-04 -2.303082e-03 8.752109e-04 -4.927172e-03 6.161578e-05 1.560609e-05 -2.785324e-04 2.412113e-05 -8.132531e-05 7.551193e-06 1.664104e-05 -5.138525e-05 2.099907e-04 2.599422e-05 3.595836e-06 7.782361e-05 -6.262090e-04
<VARIANCE> 39
 6.573712e+01 6.778967e+01 7.395842e+01 5.528017e+01 8.127380e+01 6.869825e+01 6.109601e+01 6.963444e+01 5.897229e+01 4.279899e+01 4.912431e+01 4.462136e+01 2.384861e+02 2.599233e+00 2.794208e+00 2.587034e+00 2.644509e+00 3.437222e+00 3.144816e+00 3.057245e+00 3.762802e+00 3.176193e+00 2.656463e+00 2.917065e+00 2.421659e+00 5.129231e+00 4.013899e-01 4.255069e-01 4.019096e-01 4.518661e-01 6.008741e-01 5.451780e-01 5.576636e-01 6.603838e-01 5.647284e-01 4.934868e-01 5.286135e-01 4.425212e-01 6.660732e-01
<GCONST> 1.321055e+02
<TRANSP> 5
 0.000000e+00 1.000000e+00 0.000000e+00 0.000000e+00 0.000000e+00
 0.000000e+00 7.065922e-01 2.934077e-01 0.000000e+00 0.000000e+00
 0.000000e+00 0.000000e+00 7.065900e-01 2.934100e-01 0.000000e+00
 0.000000e+00 0.000000e+00 0.000000e+00 8.478213e-01 1.521787e-01
 0.000000e+00 0.000000e+00 0.000000e+00 0.000000e+00 0.000000e+00
<ENDHMM>
~h "f"
<BEGINHMM>
<NUMSTATES> 5
<STATE> 2
<MEAN> 39
 -5.881760e+00 -3.313408e+00 -8.794417e-01 -4.113075e+00 -8.563753e+00 -2.782350e+00 -8.661736e+00 -2.842395e+00 -4.261933e+00 -2.681525e+00 -1.516441e+00 -5.306030e+00 5.586628e+01 -3.977531e-04 7.593506e-03 9.126909e-03 4.353050e-03 -1.228447e-03 8.426628e-04 2.249521e-03 -5.695814e-03 -5.305102e-03 -5.061669e-04 -3.054000e-03 -3.240566e-03 -5.835042e-04 -8.030882e-04 6.967773e-04 -3.012829e-04 3.183891e-04 5.828153e-04 -4.317442e-05 8.936052e-04 -3.131948e-04 -1.277015e-04 4.432003e-04 -8.056810e-05 8.647875e-04 -1.521951e-03
<VARIANCE> 39
 7.029522e+01 6.424925e+01 7.210695e+01 5.673040e+01 7.871417e+01 6.823275e+01 6.046655e+01 6.882772e+01 5.685869e+01 4.138810e+01 4.687152e+01 4.541071e+01 2.439414e+02 2.830879e+00 2.769580e+00 2.658014e+00 2.672730e+00 3.505102e+00 3.175085e+00 3.030322e+00 3.766743e+00 3.272298e+00 2.730940e+00 2.912153e+00 2.502318e+00 4.902688e+00 4.341478e-01 4.255966e-01 4.163628e-01 4.547890e-01 6.136118e-01 5.499122e-01 5.512396e-01 6.681874e-01 5.854467e-01 5.110878e-01 5.330418e-01 4.553634e-01 6.443569e-01
<GCONST> 1.323858e+02
<STATE> 3
<MEAN> 39
 -5.879999e+00 -3.284414e+00 -8.493745e-01 -4.098641e+00 -8.566271e+00 -2.778472e+00 -8.654852e+00 -2.866108e+00 -4.280177e+00 -2.678313e+00 -1.527607e+00 -5.315923e+00 5.586385e+01 -2.875858e-03 1.031226e-02 8.817804e-03 5.489897e-03 9.675526e-04 8.019764e-04 4.313561e-03 -6.153339e-03 -5.539956e-03 4.589705e-04 -2.939286e-03 -1.514209e-03 -5.508985e-03 -9.038777e-04 8.061503e-04 -3.356195e-04 1.623465e-04 7.427349e-04 4.715917e-05 7.666008e-04 -8.730259e-05 -1.888206e-06 4.311007e-04 5.004181e-05 7.800773e-04 -1.663616e-03
<VARIANCE> 39
 7.015269e+01 6.439731e+01 7.269013e+01 5.648477e+01 7.871292e+01 6.816120e+01 6.032231e+01 6.847166e+01 5.686685e+01 4.150770e+01 4.690825e+01 4.527711e+01 2.435348e+02 2.833247e+00 2.766189e+00 2.663751e+00 2.677857e+00 3.507739e+00 3.173223e+00 3.029476e+00 3.762005e+00 3.268691e+00 2.729392e+00 2.909683e+00 2.502448e+00 4.911763e+00 4.345345e-01 4.253502e-01 4.173504e-01 4.560605e-01 6.137058e-01 5.503120e-01 5.513626e-01 6.672057e-01 5.851788e-01 5.106342e-01 5.328373e-01 4.547904e-01 6.452025e-01
<GCONST> 1.323855e+02
<STATE> 4
<MEAN> 39
 -5.756113e+00 -3.235694e+00 -6.453727e-01 -4.116416e+00 -8.610089e+00 -2.587483e+00 -8.794213e+00 -2.634739e+00 -4.440497e+00 -2.487715e+00 -1.630951e+00 -5.420417e+00 5.617542e+01 -4.120027e-03 1.127312e-02 8.450062e-03 6.134496e-03 2.927864e-03 -4.979874e-04 4.986424e-03 -5.201572e-03 -5.655697e-03 8.933007e-04 -2.638011e-03 5.631816e-04 -7.598017e-03 -7.154846e-04 3.974846e-04 -2.613894e-04 2.332268e-06 4.635127e-04 -1.152362e-04 5.254117e-04 1.699019e-04 1.094085e-04 1.381477e-04 4.854044e-05 5.465032e-04 -1.076098e-03
<VARIANCE> 39
 7.017315e+01 6.562865e+01 7.365425e+01 5.688605e+01 8.046174e+01 6.833440e+01 6.127218e+01 6.820288e+01 5.735723e+01 4.196553e+01 4.791658e+01 4.519636e+01 2.413718e+02 2.831198e+00 2.772586e+00 2.683607e+00 2.696489e+00 3.544954e+00 3.193182e+00 3.062772e+00 3.758559e+00 3.262401e+00 2.723938e+00 2.910117e+00 2.495846e+00 4.947021e+00 4.331239e-01 4.243669e-01 4.189111e-01 4.578770e-01 6.154873e-01 5.527455e-01 5.557567e-01 6.647663e-01 5.834855e-01 5.090676e-01 5.316219e-01 4.531636e-01 6.451064e-01
<GCONST> 1.325365e+02
<TRANSP> 5
 0.000000e+00 1.000000e+00 0.000000e+00 0.000000e+00 0.000000e+00
 0.000000e+00 7.092604e-01 2.907396e-01 0.000000e+00 0.000000e+00
 0.000000e+00 0.000000e+00 7.092646e-01 2.907354e-01 0.000000e+00
 0.000000e+00 0.000000e+00 0.000000e+00 8.485389e-01 1.514611e-01
 0.000000e+00 0.000000e+00 0.000000e+00 0.000000e+00 0.000000e+00
<ENDHMM>
~h "g"
<BEGINHMM>
<NUMSTATES> 5
<STATE> 2
<MEAN> 39
 -5.237256e+00 -2.957116e+00 -7.045461e-01 -4.099598e+00 -8.607041e+00 -2.775526e+00 -8.574453e+00 -2.859932e+00 -4.236974e+00 -2.422962e+00 -1.538011e+00 -5.475981e+00 5.589749e+01 3.310698e-03 2.085709e-03 2.138754e-03 4.055139e-04 -4.545186e-04 8.300814e-04 1.947675e-03 2.889057e-04 1.928958e-03 7.499234e-04 1.905270e-03 -9.243741e-04 7.572906e-03 -6.909250e-04 -1.322787e-04 -2.516908e-04 5.410964e-04 9.626169e-04 2.674122e-04 -1.115645e-04 9.970908e-05 6.359808e-05 -4.713752e-05 -5.048374e-04 3.712261e-04 -9.161958e-04
<VARIANCE> 39
 6.584332e+01 6.640003e+01 7.177030e+01 5.567487e+01 7.668396e+01 6.983656e+01 6.163145e+01 7.221449e+01 5.959818e+01 4.305338e+01 4.744594e+01 4.469116e+01 2.409210e+02 2.562800e+00 2.807720e+00 2.635900e+00 2.739056e+00 3.453052e+00 3.279840e+00 3.078781e+00 3.784493e+00 3.263119e+00 2.721203e+00 2.973745e+00 2.453692e+00 5.225949e+00 4.023887e-01 4.292229e-01 4.149448e-01 4.678772e-01 6.147591e-01 5.715829e-01 5.584165e-01 6.650977e-01 5.826032e-01 5.063894e-01 5.434687e-01 4.505092e-01 6.859687e-01
<GCONST> 1.325549e+02
<STATE> 3
<MEAN> 39
 -5.224338e+00 -2.950176e+00 -6.918992e-01 -4.095996e+00 -8.608881e+00 -2.770926e+00 -8.566948e+00 -2.857809e+00 -4.234575e+00 -2.421491e+00 -1.531893e+00 -5.472831e+00 5.592552e+01 1.159172e-03 1.515165e-03 1.675962e-03 1.256355e-03 1.769479e-03 1.465080e-03 1.874443e-03 6.356081e-04 1.928389e-03 3.832401e-04 7.339345e-04 6.601260e-04 4.841437e-03 -6.878587e-04 -8.459276e-05 1.623419e-04 1.095942e-04 8.622825e-04 1.762803e-04 -1.405861e-04 1.138355e-04 -5.411475e-05 -1.777242e-04 -5.122002e-04 6.619985e-04 -7.268211e-04
<VARIANCE> 39
 6.582198e+01 6.647427e+01 7.175819e+01 5.563826e+01 7.685450e+01 6.989413e+01 6.171904e+01 7.234004e+01 5.973775e+01 4.310271e+01 4.759548e+01 4.461983e+01 2.406715e+02 2.561429e+00 2.808983e+00 2.635222e+00 2.742483e+00 3.457774e+00 3.279340e+00 3.082748e+00 3.787022e+00 3.272254e+00 2.719238e+00 2.979849e+00 2.448523e+00 5.226401e+00 4.021483e-01 4.293496e-01 4.145316e-01 4.679442e-01 6.149900e-01 5.711296e-01 5.591315e-01 6.651577e-01 5.840393e-01 5.058017e-01 5.444797e-01 4.496305e-01 6.847384e-01
<GCONST> 1.325705e+02
<STATE> 4
<MEAN> 39
 -5.113713e+00 -2.919526e+00 -5.757872e-01 -4.023294e+00 -8.599790e+00 -2.600029e+00 -8.611735e+00 -2.625211e+00 -4.285794e+00 -2.273527e+00 -1.615904e+00 -5.443498e+00 5.609233e+01 4.356271e-04 2.826689e-04 1.387578e-03 4.426459e-04 2.952653e-03 2.533951e-03 1.745388e-03 7.819554e-04 1.310208e-03 -2.134454e-04 -4.881510e-04 2.493453e-03 2.694934e-03 -3.675682e-04 -1.493511e-04 -6.525335e-05 -2.216627e-04 4.340986e-04 1.082043e-04 -1.331247e-04 1.094950e-04 -1.317530e-04 -1.335235e-04 -3.404517e-04 3.975980e-04 -5.421557e-04
<VARIANCE> 39
 6.590230e+01 6.643708e+01 7.146117e+01 5.549635e+01 7.829337e+01 6.918119e+01 6.259831e+01 7.300117e+01 5.927566e+01 4.285585e+01 4.773900e+01 4.420366e+01 2.363383e+02 2.551389e+00 2.814429e+00 2.619694e+00 2.726867e+00 3.473203e+00 3.250167e+00 3.087700e+00 3.787120e+00 3.256087e+00 2.700637e+00 2.969925e+00 2.431588e+00 5.160373e+00 3.987489e-01 4.293791e-01 4.104173e-01 4.636860e-01 6.143877e-01 5.657964e-01 5.587660e-01 6.628045e-01 5.813349e-01 5.029055e-01 5.424007e-01 4.456572e-01 6.727659e-01
<GCONST> 1.324239e+02
<TRANSP> 5
 0.000000e+00 1.000000e+00 0.000000e+00 0.000000e+00 0.000000e+00
 0.000000e+00 7.126695e-01 2.873305e-01 0.000000e+00 0.000000e+00
 0.000000e+00 0.000000e+00 7.126679e-01 2.873321e-01 0.000000e+00
 0.000000e+00 0.000000e+00 0.000000e+00 8.531688e-01 1.468311e-01
 0.000000e+00 0.000000e+00 0.000000e+00 0.000000e+00 0.000000e+00
<ENDHMM>
~h "h"
<BEGINHMM>
<NUMSTATES> 5
<STATE> 2
<MEAN> 39
 -5.739607e+00 -3.391425e+00 -1.017869e+00 -4.030355e+00 -8.033043e+00 -2.701738e+00 -8.288008e+00 -2.941689e+00 -4.245714e+00 -2.597383e+00 -1.532550e+00 -5.380653e+00 5.564437e+01 2.721901e-05 1.853633e-03 2.921360e-03 -3.141635e-03 3.071045e-03 7.239404e-04 2.306453e-04 -4.076249e-03 9.474511e-04 2.688614e-04 -2.201637e-03 -2.073531e-03 1.024379e-03 3.042924e-04 3.115892e-04 -1.806631e-04 -1.364653e-05 -3.831271e-04 -1.581058e-04 -2.301660e-04 -3.489189e-04 -5.045588e-05 -8.559960e-06 1.025826e-05 -3.200652e-05 -3.884639e-04
<VARIANCE> 39
 6.585374e+01 6.611269e+01 7.063373e+01 5.797127e+01 7.747268e+01 6.611131e+01 6.077559e+01 6.916775e+01 5.989492e+01 4.301780e+01 4.699795e+01 4.571229e+01 2.440651e+02 2.629046e+00 2.795996e+00 2.622606e+00 2.701817e+00 3.443532e+00 3.126773e+00 3.042095e+00 3.743576e+00 3.282071e+00 2.691930e+00 2.962859e+00 2.474351e+00 5.104704e+00 4.084195e-01 4.361322e-01 4.114814e-01 4.607183e-01 6.006213e-01 5.444122e-01 5.554076e-01 6.614910e-01 5.821227e-01 4.998659e-01 5.436972e-01 4.529419e-01 6.792985e-01
<GCONST> 1.323157e+02
<STATE> 3
<MEAN> 39
 -5.738091e+00 -3.385447e+00 -1.013612e+00 -4.040062e+00 -8.024677e+00 -2.699122e+00 -8.286827e+00 -2.956532e+00 -4.238939e+00 -2.596703e+00 -1.538588e+00 -5.389544e+00 5.564627e+01 3.950990e-04 2.307794e-03 2.727900e-03 -2.447039e-03 1.667736e-03 -5.339755e-04 -5.518930e-05 -3.662965e-03 7.576897e-04 -6.018771e-04 -1.721923e-03 -1.256312e-03 1.560923e-04 2.426056e-04 4.083011e-05 -1.808166e-04 8.401382e-05 -4.186661e-04 -2.696876e-04 -8.409173e-05 8.409278e-05 -4.085575e-05 -2.862606e-04 1.167556e-04 2.019798e-04 -1.614470e-04
<VARIANCE> 39
 6.577976e+01 6.608425e+01 7.072845e+01 5.780836e+01 7.754237e+01 6.612713e+01 6.072268e+01 6.885364e+01 5.987947e+01 4.304293e+01 4.702202e+01 4.550040e+01 2.439160e+02 2.634269e+00 2.795192e+00 2.622995e+00 2.699906e+00 3.441903e+00 3.126419e+00 3.039610e+00 3.737833e+00 3.276484e+00 2.694807e+00 2.959565e+00 2.469553e+00 5.097422e+00 4.092233e-01 4.360523e-01 4.112400e-01 4.597439e-01 6.004291e-01 5.442866e-01 5.551304e-01 6.605410e-01 5.809807e-01 5.004403e-01 5.430327e-01 4.517435e-01 6.780509e-01
<GCONST> 1.322871e+02
<STATE> 4
<MEAN> 39
 -5.588382e+00 -3.398411e+00 -8.990605e-01 -4.149904e+00 -8.087523e+00 -2.541059e+00 -8.424234e+00 -2.781636e+00 -4.393871e+00 -2.454296e+00 -1.589311e+00 -5.428182e+00 5.593475e+01 9.106632e-05 1.460837e-03 1.331001e-03 -1.036521e-03 -1.827695e-04 -2.365518e-03 7.261516e-04 -2.383675e-03 6.984255e-04 -1.867065e-03 -1.208794e-03 -1.057645e-05 -1.004464e-03 4.845742e-05 -6.916844e-05 -1.101350e-04 -7.691960e-06 -3.280854e-04 -1.449459e-04 4.507036e-05 1.685023e-04 -9.312782e-05 -3.434941e-04 2.866054e-05 1.888246e-04 -4.961109e-05
<VARIANCE> 39
 6.627712e+01 6.684310e+01 7.181468e+01 5.868390e+01 7.862066e+01 6.697363e+01 6.197964e+01 6.901845e+01 6.023376e+01 4.296445e+01 4.751462e+01 4.501380e+01 2.408782e+02 2.662951e+00 2.818178e+00 2.642748e+00 2.719963e+00 3.461113e+00 3.141546e+00 3.082068e+00 3.762550e+00 3.273781e+00 2.686211e+00 2.953823e+00 2.459759e+00 5.110888e+00 4.128746e-01 4.384834e-01 4.131824e-01 4.614833e-01 6.022513e-01 5.456311e-01 5.615284e-01 6.636284e-01 5.791674e-01 4.984883e-01 5.409805e-01 4.501139e-01 6.770682e-01
<GCONST> 1.324631e+02
<TRANSP> 5
 0.000000e+00 1.000000e+00 0.000000e+00 0.000000e+00 0.000000e+00
 0.000000e+00 7.094675e-01 2.905324e-01 0.000000e+00 0.000000e+00
 0.000000e+00 0.000000e+00 7.094658e-01 2.905341e-01 0.000000e+00
 0.000000e+00 0.000000e+00 0.000000e+00 8.525991e-01 1.474008e-01
 0.000000e+00 0.000000e+00 0.000000e+00 0.000000e+00 0.000000e+00
<ENDHMM>
~h "i"
<BEGINHMM>
<NUMSTATES> 5
<STATE> 2
<MEAN> 39
 -5.757555e+00 -3.044420e+00 -5.036193e-01 -4.100295e+00 -8.689157e+00 -3.061096e+00 -8.445081e+00 -3.137308e+00 -4.531435e+00 -2.644625e+00 -1.511624e+00 -5.441785e+00 5.557563e+01 -7.790099e-04 2.559724e-03 1.342388e-03 1.635197e-03 1.424544e-03 4.149318e-04 3.028767e-03 -1.052623e-03 -5.349616e-04 1.616523e-03 -3.266403e-03 1.016555e-03 -6.953747e-03 -5.495417e-05 -3.125867e-04 -3.798822e-04 3.994977e-05 -1.070687e-04 -4.605283e-05 -6.011084e-05 1.850685e-04 6.539141e-05 3.516220e-05 3.344352e-05 -5.398459e-05 -1.724759e-04
<VARIANCE> 39
 6.563277e+01 6.503363e+01 7.616996e+01 5.599791e+01 7.882368e+01 6.918859e+01 6.108593e+01 6.940700e+01 5.864930e+01 4.207407e+01 4.715998e+01 4.457408e+01 2.431125e+02 2.625682e+00 2.757822e+00 2.682225e+00 2.664461e+00 3.470785e+00 3.185676e+00 3.075587e+00 3.727930e+00 3.243374e+00 2.674516e+00 2.949098e+00 2.454742e+00 5.129360e+00 4.060450e-01 4.233199e-01 4.113998e-01 4.543526e-01 6.071960e-01 5.525303e-01 5.574575e-01 6.573007e-01 5.747856e-01 4.992167e-01 5.361217e-01 4.486360e-01 6.726119e-01
<GCONST> 1.322656e+02
<STATE> 3
<MEAN> 39
 -5.761073e+00 -3.037498e+00 -4.996891e-01 -4.092475e+00 -8.682513e+00 -3.059930e+00 -8.434402e+00 -3.139917e+00 -4.532996e+00 -2.638300e+00 -1.523271e+00 -5.438444e+00 5.555025e+01 -1.175044e-03 1.708974e-03 -1.267970e-04 1.752298e-03 1.505904e-03 2.229013e-04 2.944999e-03 -5.877864e-04 -3.550564e-04 1.444256e-03 -3.284831e-03 1.051617e-03 -8.004400e-03 -6.767603e-05 -3.023536e-04 -3.502234e-04 2.591675e-05 -1.290997e-04 -1.099078e-04 -1.899397e-05 1.684840e-04 -9.228606e-07 -7.517714e-05 2.092466e-05 -8.794974e-05 -2.184736e-05
<VARIANCE> 39
 6.556025e+01 6.500922e+01 7.607738e+01 5.586251e+01 7.889046e+01 6.916803e+01 6.110847e+01 6.932688e+01 5.860389e+01 4.210950e+01 4.711781e+01 4.452041e+01 2.431315e+02 2.621132e+00 2.752511e+00 2.676725e+00 2.657529e+00 3.468028e+00 3.180185e+00 3.074056e+00 3.723124e+00 3.240424e+00 2.671911e+00 2.944788e+00 2.452602e+00 5.115372e+00 4.053352e-01 4.224161e-01 4.104594e-01 4.529374e-01 6.066340e-01 5.513639e-01 5.569760e-01 6.564073e-01 5.743955e-01 4.987440e-01 5.352768e-01 4.482615e-01 6.705809e-01
<GCONST> 1.322171e+02
<STATE> 4
<MEAN> 39
 -5.649814e+00 -3.063049e+00 -4.684356e-01 -4.155788e+00 -8.663389e+00 -2.867603e+00 -8.517667e+00 -2.875479e+00 -4.649615e+00 -2.468444e+00 -1.621567e+00 -5.484591e+00 5.579328e+01 -1.698895e-03 5.091038e-04 -1.525811e-03 1.695766e-03 2.547244e-03 2.208561e-04 2.773174e-03 -1.515284e-04 1.408894e-04 1.145487e-03 -3.515824e-03 7.565324e-04 -8.110477e-03 -1.244013e-04 -1.896956e-04 -2.423619e-04 -4.083753e-05 4.457433e-05 -5.895925e-05 5.081498e-05 1.076415e-04 6.949161e-05 -9.050881e-05 3.564295e-06 -9.194310e-05 -1.424885e-05
<VARIANCE> 39
 6.508683e+01 6.595222e+01 7.638634e+01 5.679518e+01 7.983525e+01 6.936975e+01 6.208682e+01 6.981549e+01 5.841827e+01 4.215666e+01 4.759930e+01 4.441650e+01 2.415726e+02 2.611549e+00 2.763334e+00 2.687400e+00 2.680599e+00 3.494167e+00 3.180971e+00 3.108383e+00 3.740093e+00 3.237492e+00 2.665778e+00 2.943212e+00 2.446345e+00 5.152295e+00 4.037324e-01 4.224745e-01 4.111494e-01 4.554917e-01 6.084391e-01 5.507780e-01 5.614694e-01 6.577600e-01 5.738512e-01 4.974282e-01 5.344613e-01 4.470831e-01 6.727651e-01
<GCONST> 1.323301e+02
<TRANSP> 5
 0.000000e+00 1.000000e+00 0.000000e+00 0.000000e+00 0.000000e+00
 0.000000e+00 7.104501e-01 2.895499e-01 0.000000e+00 0.000000e+00
 0.000000e+00 0.000000e+00 7.104505e-01 2.895495e-01 0.000000e+00
 0.000000e+00 0.000000e+00 0.000000e+00 8.531064e-01 1.468937e-01
 0.000000e+00 0.000000e+00 0.000000e+00 0.000000e+00 0.000000e+00
<ENDHMM>
~h "j"
<BEGINHMM>
<NUMSTATES> 5
<STATE> 2
<MEAN> 39
 -5.452690e+00 -3.163059e+00 -6.546847e-01 -4.039043e+00 -8.827570e+00 -2.943027e+00 -8.752119e+00 -2.878506e+00 -4.259497e+00 -2.817117e+00 -1.654331e+00 -5.585563e+00 5.625611e+01 5.017800e-03 5.886326e-03 4.491597e-03 -3.021771e-03 2.932214e-03 5.877603e-03 -1.041215e-03 -2.608482e-03 2.518346e-03 3.444049e-03 -1.486254e-03 -4.661227e-03 3.390444e-03 3.143363e-06 1.039454e-03 3.789612e-04 -5.790654e-04 1.306666e-04 4.105280e-05 4.023770e-04 -1.233821e-03 6.213063e-04 1.018961e-03 -2.303345e-04 2.366565e-04 -1.704388e-03
<VARIANCE> 39
 6.530079e+01 6.538086e+01 7.175367e+01 5.519067e+01 7.858028e+01 6.993310e+01 6.009785e+01 6.715697e+01 5.943943e+01 4.331380e+01 4.767870e+01 4.467018e+01 2.410005e+02 2.741979e+00 2.935787e+00 2.622591e+00 2.717247e+00 3.561117e+00 3.256614e+00 3.086954e+00 3.740164e+00 3.263727e+00 2.715970e+00 2.999877e+00 2.489150e+00 5.312187e+00 4.340188e-01 4.474069e-01 4.111520e-01 4.660194e-01 6.348353e-01 5.699936e-01 5.608353e-01 6.645051e-01 5.833067e-01 5.086383e-01 5.505401e-01 4.530660e-01 7.005809e-01
<GCONST> 1.327919e+02
<STATE> 3
<MEAN> 39
 -5.436492e+00 -3.143925e+00 -6.375221e-01 -4.050843e+00 -8.818275e+00 -2.925738e+00 -8.751895e+00 -2.891716e+00 -4.248456e+00 -2.800480e+00 -1.661169e+00 -5.602198e+00 5.626326e+01 4.514037e-03 7.507170e-03 4.531606e-03 -3.715440e-03 3.181794e-03 5.097304e-03 -2.798123e-04 -5.003469e-03 3.121998e-03 4.708897e-03 -2.099014e-03 -3.596041e-03 -1.522575e-03 -3.146018e-04 5.784765e-04 2.254106e-04 -2.517040e-05 1.360405e-04 -3.714612e-04 4.639210e-04 -6.050764e-04 3.492311e-04 4.307084e-04 3.792197e-05 4.479024e-04 -1.448666e-03
<VARIANCE> 39
 6.503876e+01 6.549756e+01 7.175481e+01 5.504610e+01 7.879719e+01 6.998491e+01 5.999382e+01 6.682493e+01 5.967754e+01 4.325975e+01 4.767712e+01 4.444751e+01 2.405474e+02 2.742478e+00 2.937819e+00 2.622078e+00 2.712322e+00 3.558899e+00 3.255779e+00 3.087191e+00 3.732382e+00 3.262634e+00 2.704678e+00 2.999386e+00 2.483916e+00 5.327380e+00 4.349829e-01 4.471606e-01 4.112098e-01 4.648659e-01 6.341200e-01 5.701023e-01 5.608341e-01 6.631595e-01 5.823835e-01 5.066848e-01 5.504132e-01 4.523338e-01 7.014830e-01
<GCONST> 1.327622e+02
<STATE> 4
<MEAN> 39
 -5.288028e+00 -3.152302e+00 -4.851731e-01 -4.098091e+00 -8.892122e+00 -2.707083e+00 -8.831860e+00 -2.754756e+00 -4.377936e+00 -2.619353e+00 -1.722885e+00 -5.664391e+00 5.650195e+01 2.291095e-03 5.777350e-03 3.222382e-03 -2.773150e-03 2.765662e-03 2.536788e-03 1.574059e-03 -4.267629e-03 2.054739e-03 4.028459e-03 -1.780919e-03 -1.426121e-03 -4.343708e-03 -4.806164e-04 -9.017423e-05 -2.094433e-04 9.966870e-05 1.350402e-04 -3.436703e-04 3.846576e-04 -1.150492e-04 4.116635e-05 5.583704e-05 2.565098e-04 3.309867e-04 -8.581765e-04
<VARIANCE> 39
 6.469224e+01 6.648443e+01 7.277998e+01 5.536148e+01 8.038356e+01 7.043666e+01 6.090454e+01 6.737030e+01 6.013616e+01 4.311707e+01 4.821867e+01 4.422355e+01 2.373071e+02 2.734694e+00 2.941942e+00 2.641475e+00 2.729650e+00 3.581354e+00 3.264826e+00 3.117491e+00 3.753177e+00 3.260918e+00 2.703536e+00 3.003054e+00 2.479340e+00 5.335153e+00 4.335404e-01 4.463150e-01 4.122019e-01 4.655780e-01 6.360390e-01 5.702952e-01 5.644913e-01 6.643650e-01 5.792443e-01 5.061927e-01 5.497294e-01 4.516283e-01 7.012513e-01
<GCONST> 1.328757e+02
<TRANSP> 5
 0.000000e+00 1.000000e+00 0.000000e+00 0.000000e+00 0.000000e+00
 0.000000e+00 7.096155e-01 2.903844e-01 0.000000e+00 0.000000e+00
 0.000000e+00 0.000000e+00 7.096224e-01 2.903777e-01 0.000000e+00
 0.000000e+00 0.000000e+00 0.000000e+00 8.490370e-01 1.509630e-01
 0.000000e+00 0.000000e+00 0.000000e+00 0.000000e+00 0.000000e+00
<ENDHMM>
~h "k"
<BEGINHMM>
<NUMSTATES> 5
<STATE> 2
<MEAN> 39
 -5.670741e+00 -3.404314e+00 -9.284508e-01 -4.252782e+00 -8.429632e+00 -2.968014e+00 -8.443279e+00 -2.832839e+00 -4.278546e+00 -2.719687e+00 -1.559268e+00 -5.595359e+00 5.558535e+01 4.665038e-03 1.648777e-03 3.772280e-03 -6.430291e-03 -2.707712e-03 4.829779e-03 -5.732529e-03 -5.728790e-03 -1.771899e-03 4.045062e-03 -1.193831e-03 -9.288112e-03 1.296136e-02 -2.181766e-04 8.358961e-05 1.208681e-04 -1.365843e-07 1.520677e-04 2.330962e-04 -8.805424e-05 -3.519662e-04 1.772464e-04 -4.915459e-05 -1.923914e-04 -2.635608e-04 -2.220661e-04
<VARIANCE> 39
 6.508632e+01 6.722672e+01 6.981127e+01 5.789465e+01 7.708109e+01 6.716234e+01 6.128548e+01 6.846000e+01 5.791878e+01 4.305654e+01 4.782697e+01 4.660820e+01 2.453759e+02 2.582572e+00 2.832059e+00 2.604730e+00 2.700239e+00 3.423649e+00 3.182410e+00 3.066899e+00 3.714015e+00 3.225377e+00 2.749181e+00 2.953873e+00 2.510152e+00 5.339101e+00 4.039033e-01 4.334979e-01 4.106012e-01 4.630741e-01 6.071999e-01 5.578771e-01 5.624368e-01 6.572199e-01 5.757094e-01 5.134899e-01 5.386519e-01 4.605265e-01 6.993120e-01
<GCONST> 1.324648e+02
<STATE> 3
<MEAN> 39
 -5.655888e+00 -3.400133e+00 -9.131193e-01 -4.273027e+00 -8.441911e+00 -2.952517e+00 -8.463695e+00 -2.852178e+00 -4.285935e+00 -2.706061e+00 -1.564585e+00 -5.627646e+00 5.563366e+01 3.969430e-03 1.713486e-03 4.313731e-03 -5.547049e-03 -2.694339e-03 4.595197e-03 -5.376060e-03 -5.433231e-03 -2.033833e-03 2.892220e-03 -1.328746e-03 -8.460950e-03 1.196739e-02 -1.796960e-04 4.610333e-05 1.435121e-04 3.175870e-04 1.154094e-04 -9.541677e-05 5.062544e-05 1.547030e-04 6.671255e-05 -3.516472e-04 -8.909586e-05 1.854495e-04 -3.181033e-04
<VARIANCE> 39
 6.508646e+01 6.740406e+01 6.994140e+01 5.777820e+01 7.722565e+01 6.734937e+01 6.124039e+01 6.830656e+01 5.796030e+01 4.307198e+01 4.795784e+01 4.652148e+01 2.448951e+02 2.586970e+00 2.837388e+00 2.610347e+00 2.698837e+00 3.430192e+00 3.184896e+00 3.068427e+00 3.711548e+00 3.223594e+00 2.749273e+00 2.957510e+00 2.511719e+00 5.350550e+00 4.043722e-01 4.341429e-01 4.111921e-01 4.625228e-01 6.083508e-01 5.582129e-01 5.625032e-01 6.565036e-01 5.755265e-01 5.133049e-01 5.391484e-01 4.605587e-01 7.003021e-01
<GCONST> 1.324863e+02
<STATE> 4
<MEAN> 39
 -5.573978e+00 -3.416183e+00 -8.162928e-01 -4.307789e+00 -8.473785e+00 -2.808906e+00 -8.565087e+00 -2.670618e+00 -4.383032e+00 -2.568261e+00 -1.647545e+00 -5.679359e+00 5.589027e+01 3.415911e-03 8.452234e-04 4.325537e-03 -2.885244e-03 -2.984432e-03 2.927933e-03 -4.022067e-03 -3.357554e-03 -2.518923e-03 1.235675e-03 -1.028674e-03 -5.746339e-03 1.159246e-02 -7.012783e-05 4.129804e-06 -4.997027e-05 3.667400e-04 1.002543e-04 -1.249822e-04 1.483693e-04 2.900737e-04 5.612589e-05 -2.977377e-04 3.733785e-05 3.418266e-04 -3.286014e-04
<VARIANCE> 39
 6.488803e+01 6.843407e+01 7.074276e+01 5.781540e+01 7.823693e+01 6.755446e+01 6.203365e+01 6.863319e+01 5.789585e+01 4.286918e+01 4.834394e+01 4.629066e+01 2.422838e+02 2.595232e+00 2.854022e+00 2.618824e+00 2.703627e+00 3.452462e+00 3.181647e+00 3.093983e+00 3.739205e+00 3.211225e+00 2.734353e+00 2.955364e+00 2.498743e+00 5.366124e+00 4.047524e-01 4.354502e-01 4.111578e-01 4.622846e-01 6.096151e-01 5.563375e-01 5.646248e-01 6.593247e-01 5.731178e-01 5.106032e-01 5.380702e-01 4.574103e-01 6.990069e-01
<GCONST> 1.325434e+02
<TRANSP> 5
 0.000000e+00 1.000000e+00 0.000000e+00 0.000000e+00 0.000000e+00
 0.000000e+00 7.088487e-01 2.911514e-01 0.000000e+00 0.000000e+00
 0.000000e+00 0.000000e+00 7.088497e-01 2.911503e-01 0.000000e+00
 0.000000e+00 0.000000e+00 0.000000e+00 8.499853e-01 1.500147e-01
 0.000000e+00 0.000000e+00 0.000000e+00 0.000000e+00 0.000000e+00
<ENDHMM>
~h "l"
<BEGINHMM>
<NUMSTATES> 5
<STATE> 2
<MEAN> 39
 -5.437978e+00 -3.358642e+00 -9.849889e-01 -4.444663e+00 -8.512692e+00 -2.648864e+00 -8.645408e+00 -3.290272e+00 -4.046220e+00 -2.698806e+00 -1.471634e+00 -5.562792e+00 5.607021e+01 2.055316e-03 -6.380046e-04 -1.676963e-03 -2.071662e-03 -1.820436e-03 4.396402e-03 -1.825770e-03 -2.842150e-03 8.150883e-04 4.509241e-04 -2.927373e-03 -3.859618e-03 9.935140e-03 -2.040930e-04 -1.956206e-04 -6.897630e-04 2.910318e-04 4.833897e-04 9.362389e-06 2.145149e-04 3.927404e-05 1.584158e-04 1.229140e-04 -5.528490e-04 1.377121e-05 -7.077851e-04
<VARIANCE> 39
 6.646239e+01 6.713114e+01 7.155374e+01 5.968935e+01 7.664954e+01 6.939802e+01 6.268496e+01 7.168771e+01 6.144804e+01 4.343036e+01 4.801283e+01 4.596304e+01 2.443395e+02 2.622671e+00 2.772617e+00 2.615448e+00 2.746792e+00 3.421948e+00 3.239289e+00 3.090783e+00 3.721952e+00 3.277408e+00 2.732087e+00 2.951603e+00 2.478174e+00 5.075115e+00 4.052587e-01 4.238119e-01 4.058547e-01 4.669409e-01 6.033342e-01 5.614006e-01 5.588575e-01 6.565582e-01 5.769444e-01 5.051624e-01 5.376172e-01 4.522114e-01 6.647742e-01
<GCONST> 1.325617e+02
<STATE> 3
<MEAN> 39
 -5.432125e+00 -3.360260e+00 -9.910175e-01 -4.452088e+00 -8.517211e+00 -2.634875e+00 -8.650968e+00 -3.299736e+00 -4.043782e+00 -2.696868e+00 -1.483177e+00 -5.573796e+00 5.610229e+01 1.145304e-03 -7.769777e-04 -3.183966e-03 -1.222302e-03 -2.527469e-04 4.493424e-03 -1.091876e-03 -2.645725e-03 1.007128e-03 7.358657e-04 -4.104739e-03 -3.380376e-03 7.231380e-03 -2.055340e-04 -1.729393e-04 -4.923524e-04 3.097237e-04 5.774996e-04 -1.314911e-07 2.662166e-04 1.602672e-04 5.653728e-05 4.397894e-05 -3.196945e-04 1.835595e-04 -8.418103e-04
<VARIANCE> 39
 6.641127e+01 6.726649e+01 7.168079e+01 5.970380e+01 7.673041e+01 6.942164e+01 6.273815e+01 7.169494e+01 6.157191e+01 4.349736e+01 4.807208e+01 4.592027e+01 2.440375e+02 2.617736e+00 2.774308e+00 2.615185e+00 2.748257e+00 3.425442e+00 3.238731e+00 3.091078e+00 3.719587e+00 3.281040e+00 2.734497e+00 2.951574e+00 2.477969e+00 5.072645e+00 4.044189e-01 4.239263e-01 4.056182e-01 4.670719e-01 6.036535e-01 5.610525e-01 5.589764e-01 6.558421e-01 5.774602e-01 5.055483e-01 5.373703e-01 4.520479e-01 6.635641e-01
<GCONST> 1.325667e+02
<STATE> 4
<MEAN> 39
 -5.295456e+00 -3.331744e+00 -8.986749e-01 -4.461673e+00 -8.523621e+00 -2.431287e+00 -8.762483e+00 -3.037291e+00 -4.183197e+00 -2.493994e+00 -1.613215e+00 -5.619301e+00 5.644508e+01 3.069025e-04 -3.078188e-04 -2.583686e-03 -8.303193e-04 9.236847e-04 4.064793e-03 -2.652233e-04 -1.791347e-03 3.955462e-04 9.553516e-04 -3.848059e-03 -2.335269e-03 4.483474e-03 -1.827582e-04 2.078306e-05 -1.699727e-04 1.973558e-04 3.910933e-04 4.622795e-05 2.723821e-04 1.695677e-04 -6.273518e-05 -1.406412e-05 -3.869941e-05 1.251714e-04 -7.698776e-04
<VARIANCE> 39
 6.619256e+01 6.836613e+01 7.241583e+01 5.979205e+01 7.818439e+01 6.933270e+01 6.344564e+01 7.204498e+01 6.137620e+01 4.321556e+01 4.849773e+01 4.571271e+01 2.399171e+02 2.628122e+00 2.799484e+00 2.633821e+00 2.757046e+00 3.472456e+00 3.240334e+00 3.121620e+00 3.734686e+00 3.279040e+00 2.728996e+00 2.948641e+00 2.466184e+00 5.099536e+00 4.050121e-01 4.267229e-01 4.071662e-01 4.680757e-01 6.091158e-01 5.607464e-01 5.631141e-01 6.559842e-01 5.771715e-01 5.051123e-01 5.360931e-01 4.494317e-01 6.651607e-01
<GCONST> 1.326735e+02
<TRANSP> 5
 0.000000e+00 1.000000e+00 0.000000e+00 0.000000e+00 0.000000e+00
 0.000000e+00 7.105541e-01 2.894459e-01 0.000000e+00 0.000000e+00
 0.000000e+00 0.000000e+00 7.105582e-01 2.894417e-01 0.000000e+00
 0.000000e+00 0.000000e+00 0.000000e+00 8.531933e-01 1.468067e-01
 0.000000e+00 0.000000e+00 0.000000e+00 0.000000e+00 0.000000e+00
<ENDHMM>
~h "m"
<BEGINHMM>
<NUMSTATES> 5
<STATE> 2
<MEAN> 39
 -5.637997e+00 -3.417509e+00 -1.012217e+00 -4.339268e+00 -8.353707e+00 -2.768764e+00 -8.406003e+00 -3.281503e+00 -4.373790e+00 -2.794621e+00 -1.574146e+00 -5.469891e+00 5.557711e+01 1.024803e-02 -4.937000e-03 1.222859e-03 -5.264726e-03 -2.613185e-03 1.047128e-03 -7.180963e-03 -4.496518e-03 -3.268766e-03 -1.832251e-03 -8.645193e-04 -5.131149e-03 2.141881e-02 -4.517197e-04 1.147958e-04 -1.803971e-04 -1.105651e-05 2.819238e-04 1.139466e-06 2.818492e-04 1.795853e-04 -2.894002e-05 2.291119e-04 -1.139936e-04 -3.763622e-05 -5.698826e-04
<VARIANCE> 39
 6.653230e+01 6.537099e+01 6.939980e+01 5.658972e+01 7.649453e+01 6.693200e+01 6.128180e+01 7.042696e+01 5.941135e+01 4.352163e+01 4.755093e+01 4.506253e+01 2.445209e+02 2.537607e+00 2.730140e+00 2.571121e+00 2.683675e+00 3.382878e+00 3.137885e+00 3.052662e+00 3.684114e+00 3.257274e+00 2.669925e+00 2.945611e+00 2.450963e+00 4.995629e+00 3.899347e-01 4.188951e-01 4.016171e-01 4.570146e-01 5.943602e-01 5.467249e-01 5.541238e-01 6.465606e-01 5.733108e-01 4.982424e-01 5.332202e-01 4.478712e-01 6.559871e-01
<GCONST> 1.319019e+02
<STATE> 3
<MEAN> 39
 -5.602953e+00 -3.437109e+00 -1.008381e+00 -4.358561e+00 -8.363870e+00 -2.764850e+00 -8.428369e+00 -3.294937e+00 -4.382797e+00 -2.800531e+00 -1.577654e+00 -5.489806e+00 5.565884e+01 8.829381e-03 -4.624488e-03 5.735382e-04 -5.007436e-03 -1.756791e-03 1.100842e-03 -5.906287e-03 -3.498040e-03 -2.787838e-03 -1.254905e-03 -1.005476e-03 -5.351008e-03 1.932356e-02 -6.552139e-04 8.136272e-05 -1.083825e-04 5.553710e-05 2.500484e-04 1.009302e-04 6.132124e-04 3.264160e-04 2.572285e-04 1.976361e-04 -3.740251e-05 -7.956620e-05 -5.113605e-04
<VARIANCE> 39
 6.651130e+01 6.545860e+01 6.958968e+01 5.673695e+01 7.652342e+01 6.714832e+01 6.131953e+01 7.065685e+01 5.963283e+01 4.366835e+01 4.767755e+01 4.506370e+01 2.433788e+02 2.542389e+00 2.733482e+00 2.575089e+00 2.693465e+00 3.388989e+00 3.144078e+00 3.059691e+00 3.692104e+00 3.266989e+00 2.672604e+00 2.952122e+00 2.454156e+00 5.000961e+00 3.903488e-01 4.194237e-01 4.020870e-01 4.586904e-01 5.953823e-01 5.476287e-01 5.550774e-01 6.476300e-01 5.744241e-01 4.987194e-01 5.343500e-01 4.484384e-01 6.566463e-01
<GCONST> 1.319670e+02
<STATE> 4
<MEAN> 39
 -5.460679e+00 -3.405672e+00 -9.407300e-01 -4.367009e+00 -8.351189e+00 -2.583100e+00 -8.488977e+00 -3.052663e+00 -4.489711e+00 -2.636597e+00 -1.664965e+00 -5.523742e+00 5.596679e+01 7.314042e-03 -4.213366e-03 3.437926e-04 -4.128637e-03 -1.597610e-03 1.115704e-03 -4.253796e-03 -2.143228e-03 -1.101040e-03 -9.407831e-04 -1.288693e-03 -5.436961e-03 1.758452e-02 -4.792802e-04 4.988292e-05 -1.177799e-04 9.507433e-05 9.078556e-05 1.483670e-06 4.115561e-04 2.116951e-04 3.019331e-04 1.000579e-04 -6.400405e-06 2.067038e-06 -5.030761e-04
<VARIANCE> 39
 6.594100e+01 6.610043e+01 7.016599e+01 5.719496e+01 7.748377e+01 6.720351e+01 6.204294e+01 7.118324e+01 5.986746e+01 4.354493e+01 4.811448e+01 4.467148e+01 2.394198e+02 2.555088e+00 2.747068e+00 2.598216e+00 2.707763e+00 3.428515e+00 3.148008e+00 3.098883e+00 3.711598e+00 3.271185e+00 2.668230e+00 2.951977e+00 2.444970e+00 5.040391e+00 3.921880e-01 4.208660e-01 4.042181e-01 4.601661e-01 5.998213e-01 5.480152e-01 5.602943e-01 6.493029e-01 5.748684e-01 4.981901e-01 5.340419e-01 4.466662e-01 6.588556e-01
<GCONST> 1.320959e+02
<TRANSP> 5
 0.000000e+00 1.000000e+00 0.000000e+00 0.000000e+00 0.000000e+00
 0.000000e+00 7.076029e-01 2.923970e-01 0.000000e+00 0.000000e+00
 0.000000e+00 0.000000e+00 7.075967e-01 2.924033e-01 0.000000e+00
 0.000000e+00 0.000000e+00 0.000000e+00 8.509825e-01 1.490175e-01
 0.000000e+00 0.000000e+00 0.000000e+00 0.000000e+00 0.000000e+00
<ENDHMM>
~h "n"
<BEGINHMM>
<NUMSTATES> 5
<STATE> 2
<MEAN> 39
 -5.333836e+00 -3.587740e+00 -8.591117e-01 -4.323456e+00 -8.739724e+00 -3.026305e+00 -8.664520e+00 -3.234926e+00 -4.318301e+00 -2.716010e+00 -1.773152e+00 -5.841658e+00 5.624586e+01 -5.345357e-04 8.185175e-04 6.327372e-04 7.509878e-04 2.701757e-03 -1.136490e-03 5.985098e-04 -3.001187e-03 -9.901414e-05 9.280673e-04 -2.190825e-03 7.561212e-04 -4.301915e-03 -6.762695e-05 2.695343e-05 -1.872016e-04 -2.293204e-04 -1.585384e-05 -1.996967e-06 -1.034416e-04 1.872316e-04 3.239379e-04 -9.971084e-05 1.534033e-04 1.611479e-04 -2.873063e-04
<VARIANCE> 39
 6.641100e+01 6.749438e+01 7.208742e+01 5.638428e+01 7.718169e+01 7.068210e+01 6.068789e+01 7.082785e+01 5.951833e+01 4.415913e+01 4.870542e+01 4.636175e+01 2.393774e+02 2.611974e+00 2.865588e+00 2.659839e+00 2.722052e+00 3.462257e+00 3.295086e+00 3.128471e+00 3.835748e+00 3.248815e+00 2.782581e+00 2.991932e+00 2.508673e+00 5.255491e+00 4.055005e-01 4.375763e-01 4.137180e-01 4.631975e-01 6.084693e-01 5.702316e-01 5.694808e-01 6.743160e-01 5.753785e-01 5.150864e-01 5.426426e-01 4.583130e-01 6.934664e-01
<GCONST> 1.328577e+02
<STATE> 3
<MEAN> 39
 -5.333394e+00 -3.583423e+00 -8.579905e-01 -4.321403e+00 -8.731083e+00 -3.028848e+00 -8.662341e+00 -3.245943e+00 -4.318936e+00 -2.713820e+00 -1.782095e+00 -5.840493e+00 5.623146e+01 -1.022866e-03 1.064682e-03 -1.057672e-04 -5.206885e-05 2.716829e-03 -1.118607e-03 3.176536e-04 -2.473888e-03 5.136345e-04 4.105788e-04 -1.865523e-03 8.632389e-04 -5.364346e-03 -6.371167e-06 1.707443e-04 -9.468294e-05 -7.764726e-05 2.126769e-05 -2.361339e-06 -1.361326e-04 2.216191e-04 2.260157e-04 -2.314193e-04 4.083583e-05 -1.720860e-04 -1.515258e-04
<VARIANCE> 39
 6.636765e+01 6.745093e+01 7.203482e+01 5.634634e+01 7.716547e+01 7.067717e+01 6.067469e+01 7.075753e+01 5.944843e+01 4.418165e+01 4.873753e+01 4.631297e+01 2.392182e+02 2.610895e+00 2.861595e+00 2.658051e+00 2.721502e+00 3.457349e+00 3.293401e+00 3.127516e+00 3.832138e+00 3.247351e+00 2.783185e+00 2.988970e+00 2.507363e+00 5.255674e+00 4.053025e-01 4.371306e-01 4.133064e-01 4.629832e-01 6.077116e-01 5.698683e-01 5.691966e-01 6.736304e-01 5.749389e-01 5.151812e-01 5.421093e-01 4.580885e-01 6.935475e-01
<GCONST> 1.328360e+02
<STATE> 4
<MEAN> 39
 -5.206522e+00 -3.570750e+00 -7.627907e-01 -4.350368e+00 -8.745878e+00 -2.875066e+00 -8.743631e+00 -3.031418e+00 -4.452473e+00 -2.574554e+00 -1.842696e+00 -5.909692e+00 5.656679e+01 -1.177076e-03 2.051629e-03 -1.041391e-03 -2.820121e-04 2.903598e-03 -3.797734e-04 4.493418e-04 -2.216932e-03 9.392896e-04 1.601136e-05 -1.934063e-03 2.646110e-04 -6.132944e-03 -3.749494e-05 2.165251e-04 -3.372051e-05 6.819279e-05 7.963992e-05 1.343445e-04 -3.444188e-05 1.250017e-04 8.353094e-05 -1.684748e-04 8.717046e-05 -1.329110e-04 -4.011394e-05
<VARIANCE> 39
 6.604738e+01 6.816493e+01 7.296956e+01 5.705719e+01 7.826392e+01 7.100061e+01 6.156287e+01 7.127134e+01 5.969474e+01 4.423010e+01 4.949303e+01 4.588591e+01 2.351923e+02 2.622778e+00 2.877809e+00 2.682667e+00 2.745820e+00 3.496666e+00 3.297405e+00 3.170099e+00 3.855759e+00 3.255673e+00 2.778208e+00 2.995210e+00 2.507039e+00 5.289060e+00 4.068551e-01 4.386365e-01 4.154715e-01 4.653849e-01 6.124936e-01 5.701356e-01 5.746911e-01 6.758535e-01 5.758944e-01 5.141719e-01 5.427992e-01 4.582000e-01 6.959796e-01
<GCONST> 1.330150e+02
<TRANSP> 5
 0.000000e+00 1.000000e+00 0.000000e+00 0.000000e+00 0.000000e+00
 0.000000e+00 7.030191e-01 2.969810e-01 0.000000e+00 0.000000e+00
 0.000000e+00 0.000000e+00 7.030166e-01 2.969834e-01 0.000000e+00
 0.000000e+00 0.000000e+00 0.000000e+00 8.450144e-01 1.549856e-01
 0.000000e+00 0.000000e+00 0.000000e+00 0.000000e+00 0.000000e+00
<ENDHMM>
~h "o"
<BEGINHMM>
<NUMSTATES> 5
<STATE> 2
<MEAN> 39
 -5.308973e+00 -3.202045e+00 -1.239884e+00 -4.706041e+00 -8.768313e+00 -2.262828e+00 -8.693349e+00 -3.456262e+00 -4.077114e+00 -2.731209e+00 -1.475917e+00 -5.548670e+00 5.595537e+01 2.575469e-03 8.285715e-04 -1.259965e-03 -8.395708e-04 1.238626e-03 4.610966e-03 -1.363755e-04 -4.457254e-03 7.300657e-04 -2.984256e-04 3.265463e-03 -1.109040e-03 1.961994e-03 -5.406014e-04 -3.600163e-05 3.212033e-04 4.322038e-04 4.334038e-04 -3.560171e-04 -6.998805e-05 1.211931e-04 -2.845820e-04 3.015103e-05 -9.920112e-05 2.290662e-04 -9.600719e-04
<VARIANCE> 39
 6.986261e+01 6.464381e+01 7.300809e+01 6.405914e+01 7.762843e+01 7.071652e+01 6.037679e+01 7.170997e+01 5.936467e+01 4.331929e+01 4.962720e+01 4.493028e+01 2.442682e+02 2.672929e+00 2.784773e+00 2.666008e+00 2.903527e+00 3.516687e+00 3.304909e+00 3.088127e+00 3.736634e+00 3.258856e+00 2.742635e+00 3.005597e+00 2.499170e+00 5.264900e+00 4.118400e-01 4.303907e-01 4.169523e-01 4.871264e-01 6.184878e-01 5.685126e-01 5.645468e-01 6.570727e-01 5.791707e-01 5.106750e-01 5.434908e-01 4.560497e-01 6.904827e-01
<GCONST> 1.330629e+02
<STATE> 3
<MEAN> 39
 -5.297929e+00 -3.198643e+00 -1.240443e+00 -4.708621e+00 -8.764377e+00 -2.246675e+00 -8.691311e+00 -3.471271e+00 -4.077658e+00 -2.732898e+00 -1.462771e+00 -5.549958e+00 5.595808e+01 8.726347e-04 6.766568e-04 -3.083001e-04 4.591215e-04 2.269945e-03 3.520123e-03 4.112371e-05 -3.948906e-03 1.662358e-04 -1.812046e-04 2.690261e-03 -3.458944e-04 -1.054151e-03 -5.362895e-04 -4.628723e-05 3.299279e-04 2.122450e-04 4.170184e-04 -2.866666e-04 3.479996e-05 1.202789e-04 -1.332280e-04 1.202861e-04 -3.306891e-04 1.548181e-04 -8.493867e-04
<VARIANCE> 39
 6.962289e+01 6.462457e+01 7.321104e+01 6.422713e+01 7.769042e+01 7.075114e+01 6.039569e+01 7.175287e+01 5.939411e+01 4.324962e+01 4.960812e+01 4.497066e+01 2.437525e+02 2.663639e+00 2.781530e+00 2.663844e+00 2.904197e+00 3.515284e+00 3.301895e+00 3.085952e+00 3.736128e+00 3.257441e+00 2.741369e+00 3.003691e+00 2.498266e+00 5.258674e+00 4.102932e-01 4.298266e-01 4.160300e-01 4.869935e-01 6.180773e-01 5.678721e-01 5.642549e-01 6.567291e-01 5.786497e-01 5.104966e-01 5.433792e-01 4.560432e-01 6.891180e-01
<GCONST> 1.330397e+02
<STATE> 4
<MEAN> 39
 -5.157682e+00 -3.191306e+00 -1.090551e+00 -4.714019e+00 -8.862038e+00 -2.101739e+00 -8.845095e+00 -3.280695e+00 -4.215147e+00 -2.625716e+00 -1.543218e+00 -5.625489e+00 5.630413e+01 2.354329e-04 1.031290e-03 1.246717e-03 8.986933e-04 2.641994e-03 2.617682e-03 9.500138e-04 -3.027276e-03 -3.755794e-04 1.925459e-04 2.117911e-03 1.007453e-03 -2.971371e-03 -3.552710e-04 -1.608951e-05 2.179935e-04 5.665628e-05 2.205670e-04 -1.705925e-04 1.385147e-04 1.496282e-04 -3.317997e-06 1.144567e-04 -3.126301e-04 2.798331e-04 -5.057460e-04
<VARIANCE> 39
 6.857894e+01 6.539872e+01 7.422457e+01 6.463154e+01 7.934084e+01 7.128053e+01 6.126699e+01 7.248697e+01 5.988132e+01 4.313026e+01 5.004488e+01 4.483862e+01 2.394850e+02 2.646204e+00 2.794999e+00 2.685925e+00 2.909167e+00 3.565514e+00 3.309873e+00 3.124038e+00 3.754309e+00 3.269922e+00 2.735801e+00 3.006437e+00 2.501271e+00 5.260855e+00 4.083310e-01 4.305176e-01 4.176656e-01 4.866133e-01 6.238536e-01 5.682011e-01 5.691462e-01 6.570960e-01 5.797288e-01 5.098091e-01 5.430711e-01 4.559228e-01 6.867765e-01
<GCONST> 1.331647e+02
<TRANSP> 5
 0.000000e+00 1.000000e+00 0.000000e+00 0.000000e+00 0.000000e+00
 0.000000e+00 7.084760e-01 2.915240e-01 0.000000e+00 0.000000e+00
 0.000000e+00 0.000000e+00 7.084737e-01 2.915262e-01 0.000000e+00
 0.000000e+00 0.000000e+00 0.000000e+00 8.487296e-01 1.512704e-01
 0.000000e+00 0.000000e+00 0.000000e+00 0.000000e+00 0.000000e+00
<ENDHMM>
~h "p"
<BEGINHMM>
<NUMSTATES> 5
<STATE> 2
<MEAN> 39
 -5.675308e+00 -3.379032e+00 -1.227202e+00 -4.313751e+00 -8.636993e+00 -2.769928e+00 -8.524114e+00 -3.157582e+00 -4.038745e+00 -2.720902e+00 -1.611184e+00 -5.455476e+00 5.509508e+01 8.141140e-03 -2.130826e-03 4.829711e-04 -2.179545e-03 -3.450725e-03 5.920431e-03 -1.901260e-03 -5.823613e-03 1.265249e-04 -1.395163e-03 -1.534871e-03 -5.871546e-03 1.551263e-02 -2.581043e-04 2.507467e-04 -5.849547e-05 3.176727e-04 -2.096284e-04 -2.513218e-04 3.376421e-04 1.409205e-05 -5.951276e-04 2.670380e-04 -6.361904e-05 4.542803e-04 -1.081741e-03
<VARIANCE> 39
 6.771540e+01 6.600693e+01 7.017377e+01 5.531884e+01 7.603301e+01 6.715695e+01 5.914743e+01 6.906194e+01 5.896738e+01 4.272618e+01 4.721604e+01 4.535919e+01 2.572301e+02 2.626401e+00 2.843598e+00 2.611852e+00 2.722435e+00 3.461551e+00 3.192362e+00 3.014247e+00 3.730032e+00 3.201586e+00 2.673812e+00 2.967852e+00 2.472827e+00 5.420917e+00 4.116624e-01 4.382356e-01 4.125116e-01 4.676242e-01 6.118894e-01 5.602756e-01 5.522544e-01 6.614689e-01 5.696191e-01 4.994913e-01 5.437426e-01 4.539893e-01 7.185434e-01
<GCONST> 1.324537e+02
<STATE> 3
<MEAN> 39
 -5.644635e+00 -3.386369e+00 -1.227351e+00 -4.321816e+00 -8.650176e+00 -2.749603e+00 -8.531151e+00 -3.175408e+00 -4.040631e+00 -2.726122e+00 -1.619867e+00 -5.478103e+00 5.515338e+01 7.124732e-03 -1.705881e-03 2.918271e-04 -1.529493e-03 -3.634718e-03 5.208462e-03 -1.185760e-03 -5.658770e-03 -1.095336e-03 -1.163780e-03 -2.108130e-03 -4.849873e-03 1.359508e-02 -4.011710e-04 5.008087e-05 -1.034327e-04 7.812658e-05 -1.310091e-04 -4.675557e-04 2.547901e-05 -2.137388e-05 -4.325909e-04 2.261449e-04 -1.811278e-04 3.497413e-04 -6.130799e-04
<VARIANCE> 39
 6.760850e+01 6.616153e+01 7.036460e+01 5.535382e+01 7.613071e+01 6.729627e+01 5.915152e+01 6.913513e+01 5.910661e+01 4.281219e+01 4.732310e+01 4.535260e+01 2.564370e+02 2.628429e+00 2.850845e+00 2.615936e+00 2.729183e+00 3.467934e+00 3.197163e+00 3.018361e+00 3.731824e+00 3.206007e+00 2.675268e+00 2.972561e+00 2.474795e+00 5.444725e+00 4.117388e-01 4.388013e-01 4.125925e-01 4.688276e-01 6.125888e-01 5.609260e-01 5.525772e-01 6.614999e-01 5.697924e-01 4.994070e-01 5.443218e-01 4.540541e-01 7.207250e-01
<GCONST> 1.324985e+02
<STATE> 4
<MEAN> 39
 -5.521985e+00 -3.366904e+00 -1.095364e+00 -4.271333e+00 -8.749166e+00 -2.584019e+00 -8.624183e+00 -2.997881e+00 -4.085209e+00 -2.614166e+00 -1.721367e+00 -5.521896e+00 5.546894e+01 6.911792e-03 -1.590481e-03 1.061179e-04 -9.450919e-04 -3.634594e-03 4.418487e-03 -1.388554e-03 -4.547493e-03 -1.169094e-03 -1.181256e-03 -2.096833e-03 -4.454673e-03 1.564030e-02 -2.945850e-04 2.197738e-05 -5.527740e-05 1.042868e-04 7.020505e-05 -3.779193e-04 -4.711249e-05 1.066929e-04 -1.072195e-04 1.261982e-04 -5.608901e-05 1.533664e-04 -2.993299e-04
<VARIANCE> 39
 6.761445e+01 6.695596e+01 7.097906e+01 5.561431e+01 7.796563e+01 6.760519e+01 5.995811e+01 7.037236e+01 5.929927e+01 4.268643e+01 4.797878e+01 4.523721e+01 2.538168e+02 2.643043e+00 2.873920e+00 2.638018e+00 2.742115e+00 3.528834e+00 3.216860e+00 3.051285e+00 3.759894e+00 3.221160e+00 2.678313e+00 2.982575e+00 2.473667e+00 5.476583e+00 4.127417e-01 4.418027e-01 4.149092e-01 4.702332e-01 6.208556e-01 5.639077e-01 5.569394e-01 6.646823e-01 5.717273e-01 5.000072e-01 5.454599e-01 4.532980e-01 7.233464e-01
<GCONST> 1.327259e+02
<TRANSP> 5
 0.000000e+00 1.000000e+00 0.000000e+00 0.000000e+00 0.000000e+00
 0.000000e+00 7.047353e-01 2.952647e-01 0.000000e+00 0.000000e+00
 0.000000e+00 0.000000e+00 7.047328e-01 2.952672e-01 0.000000e+00
 0.000000e+00 0.000000e+00 0.000000e+00 8.461529e-01 1.538471e-01
 0.000000e+00 0.000000e+00 0.000000e+00 0.000000e+00 0.000000e+00
<ENDHMM>
~h "q"
<BEGINHMM>
<NUMSTATES> 5
<STATE> 2
<MEAN> 39
 -5.808434e+00 -5.563603e+00 -4.720579e+00 -5.181917e+00 -7.069316e+00 -4.008446e+00 -7.882473e+00 -1.268038e+00 -3.895720e+00 -6.107807e-01 -3.304561e+00 -5.717237e+00 6.018586e+01 1.657830e-02 5.664057e-02 -6.016912e-02 -4.846098e-03 1.294676e-02 2.491757e-03 -7.058346e-02 -5.622908e-02 3.851178e-02 -6.893186e-03 1.960383e-02 -1.820586e-02 -1.219418e-01 1.522992e-03 4.543127e-03 6.092116e-03 -2.282000e-03 -2.557457e-03 4.046597e-03 -4.690674e-03 2.070329e-03 -2.570879e-03 -2.380210e-03 3.863701e-03 -2.912700e-03 -1.153433e-02
<VARIANCE> 39
 8.196739e+01 6.926385e+01 7.120749e+01 4.974539e+01 8.136333e+01 6.203749e+01 6.530994e+01 7.650537e+01 4.988738e+01 3.353445e+01 5.326528e+01 4.697588e+01 2.016291e+02 3.449043e+00 3.266404e+00 2.726718e+00 3.096164e+00 4.028575e+00 3.391414e+00 3.539152e+00 4.165374e+00 3.194323e+00 2.322743e+00 2.911358e+00 2.963147e+00 6.253301e+00 5.151842e-01 5.085155e-01 3.962537e-01 5.389087e-01 7.082111e-01 5.989373e-01 6.304957e-01 7.512681e-01 5.582547e-01 4.394861e-01 5.239430e-01 5.292938e-01 7.258131e-01
<GCONST> 1.344469e+02
<STATE> 3
<MEAN> 39
 -5.831864e+00 -5.297964e+00 -4.938884e+00 -5.188317e+00 -6.961785e+00 -3.979947e+00 -8.093225e+00 -1.502319e+00 -3.752403e+00 -6.423022e-01 -3.265786e+00 -5.713998e+00 5.939715e+01 2.369290e-02 7.195675e-02 -3.874378e-02 -1.220850e-02 -1.145769e-03 2.137263e-02 -8.301495e-02 -5.061748e-02 2.572280e-02 -7.610324e-03 3.630766e-02 -2.891957e-02 -1.482570e-01 2.604162e-03 2.429095e-03 7.462907e-03 -2.175871e-03 -2.648648e-03 5.340244e-03 -2.018576e-03 3.194146e-03 -2.974016e-03 -2.464074e-03 1.746653e-03 -2.961183e-03 -6.976684e-03
<VARIANCE> 39
 8.033074e+01 6.808200e+01 6.977618e+01 4.803169e+01 8.066860e+01 6.251085e+01 6.441492e+01 7.446246e+01 4.962430e+01 3.361929e+01 5.304237e+01 4.606519e+01 2.102263e+02 3.403155e+00 3.233230e+00 2.649796e+00 3.085444e+00 3.912672e+00 3.402554e+00 3.494247e+00 4.071737e+00 3.123414e+00 2.327195e+00 2.895512e+00 2.960232e+00 6.256452e+00 5.110307e-01 5.017390e-01 3.920723e-01 5.366576e-01 6.916440e-01 5.988051e-01 6.250572e-01 7.406963e-01 5.450533e-01 4.386624e-01 5.266761e-01 5.311003e-01 7.368836e-01
<GCONST> 1.340989e+02
<STATE> 4
<MEAN> 39
 -5.734004e+00 -5.208151e+00 -5.246793e+00 -5.593448e+00 -6.826962e+00 -4.147141e+00 -8.208899e+00 -1.697226e+00 -3.962686e+00 -8.777159e-01 -3.655265e+00 -6.092461e+00 5.756078e+01 1.269768e-02 8.604050e-02 -7.502027e-03 -5.362225e-03 -1.054678e-02 4.124054e-02 -6.408647e-02 -5.186822e-02 9.594887e-03 -7.265872e-03 3.936186e-02 -2.003919e-02 -2.017020e-01 2.589482e-03 6.836705e-05 7.187284e-03 -9.609121e-04 -3.702839e-03 4.184867e-03 6.457384e-04 2.769758e-03 -3.244179e-03 -2.109093e-03 -7.536972e-05 -2.127756e-03 1.441203e-03
<VARIANCE> 39
 6.503663e+01 6.614498e+01 6.899418e+01 4.668342e+01 8.071391e+01 6.169087e+01 6.310994e+01 6.858905e+01 5.187499e+01 3.435833e+01 5.495177e+01 4.462571e+01 2.325088e+02 2.892788e+00 2.971848e+00 2.637134e+00 3.033592e+00 3.707892e+00 3.209366e+00 3.404810e+00 4.077509e+00 3.155772e+00 2.374055e+00 2.939833e+00 2.853623e+00 6.389362e+00 4.443494e-01 4.627903e-01 3.900517e-01 5.247055e-01 6.429049e-01 5.533622e-01 6.014072e-01 7.469119e-01 5.493714e-01 4.361027e-01 5.306521e-01 5.027939e-01 7.524062e-01
<GCONST> 1.330439e+02
<TRANSP> 5
 0.000000e+00 1.000000e+00 0.000000e+00 0.000000e+00 0.000000e+00
 0.000000e+00 7.254614e-01 2.745386e-01 0.000000e+00 0.000000e+00
 0.000000e+00 0.000000e+00 7.254619e-01 2.745381e-01 0.000000e+00
 0.000000e+00 0.000000e+00 0.000000e+00 8.765099e-01 1.234901e-01
 0.000000e+00 0.000000e+00 0.000000e+00 0.000000e+00 0.000000e+00
<ENDHMM>
~h "r"
<BEGINHMM>
<NUMSTATES> 5
<STATE> 2
<MEAN> 39
 -5.331872e+00 -3.616090e+00 -1.091851e+00 -4.390881e+00 -8.622956e+00 -2.724897e+00 -8.834154e+00 -3.060844e+00 -4.190121e+00 -2.699240e+00 -1.557569e+00 -5.742566e+00 5.630784e+01 6.937815e-04 3.777901e-03 1.533700e-03 9.079945e-04 2.355842e-03 7.153808e-04 2.112949e-03 -1.265189e-03 -1.552035e-03 4.667478e-04 -2.335042e-03 -8.164245e-04 -3.442055e-03 -2.521906e-04 2.306674e-04 -3.202968e-05 -1.187538e-04 -6.990802e-05 -3.263522e-04 2.033578e-04 2.185357e-05 5.211938e-05 -6.343472e-05 -4.295025e-05 4.913747e-05 -4.519478e-04
<VARIANCE> 39
 6.678897e+01 6.820601e+01 7.283591e+01 5.628220e+01 7.708350e+01 6.989457e+01 6.074966e+01 6.967606e+01 6.094416e+01 4.307092e+01 4.840582e+01 4.595414e+01 2.428677e+02 2.644651e+00 2.844073e+00 2.636192e+00 2.723556e+00 3.475396e+00 3.225587e+00 3.085965e+00 3.769336e+00 3.278212e+00 2.725524e+00 2.980043e+00 2.494731e+00 5.291552e+00 4.094852e-01 4.350673e-01 4.103618e-01 4.645014e-01 6.088520e-01 5.601993e-01 5.600475e-01 6.635752e-01 5.816803e-01 5.083591e-01 5.426486e-01 4.547617e-01 6.959699e-01
<GCONST> 1.327285e+02
<STATE> 3
<MEAN> 39
 -5.327981e+00 -3.604137e+00 -1.088682e+00 -4.388992e+00 -8.615232e+00 -2.720220e+00 -8.826610e+00 -3.065516e+00 -4.195952e+00 -2.697085e+00 -1.563725e+00 -5.747207e+00 5.629990e+01 -3.977095e-04 4.376652e-03 1.258295e-03 9.808746e-04 2.387899e-03 9.069580e-05 2.764520e-03 -1.151638e-03 -1.462317e-03 1.394130e-04 -2.302694e-03 -5.195326e-04 -4.971636e-03 -2.681476e-04 3.594444e-05 -4.485848e-05 -2.516041e-05 -1.065582e-04 -2.675567e-04 2.271448e-04 5.572738e-05 -2.622743e-05 -1.266241e-05 3.260229e-05 2.962305e-05 -2.930959e-04
<VARIANCE> 39
 6.667482e+01 6.821452e+01 7.289498e+01 5.621413e+01 7.727489e+01 6.990223e+01 6.076058e+01 6.960769e+01 6.091248e+01 4.301869e+01 4.843622e+01 4.588481e+01 2.427650e+02 2.642016e+00 2.842210e+00 2.637108e+00 2.721790e+00 3.478576e+00 3.224928e+00 3.085421e+00 3.768921e+00 3.276410e+00 2.722757e+00 2.978101e+00 2.493084e+00 5.297313e+00 4.091541e-01 4.346842e-01 4.105107e-01 4.644493e-01 6.094974e-01 5.601578e-01 5.598635e-01 6.637464e-01 5.812833e-01 5.079455e-01 5.421529e-01 4.543627e-01 6.967621e-01
<GCONST> 1.327193e+02
<STATE> 4
<MEAN> 39
 -5.192610e+00 -3.574682e+00 -9.385761e-01 -4.382821e+00 -8.693611e+00 -2.551673e+00 -8.940706e+00 -2.895591e+00 -4.320969e+00 -2.564492e+00 -1.633277e+00 -5.785373e+00 5.661789e+01 -1.200415e-03 4.402393e-03 8.302617e-04 1.344556e-03 2.340973e-03 5.593141e-04 3.218730e-03 -1.237039e-03 -1.699779e-03 1.109448e-04 -1.552493e-03 -5.284097e-04 -5.399676e-03 -2.559891e-04 3.122167e-05 3.929337e-05 4.861851e-05 -7.860397e-05 -9.723516e-05 1.245779e-04 4.663993e-06 -9.495452e-05 -1.239809e-06 8.697961e-05 5.829933e-05 -2.045334e-04
<VARIANCE> 39
 6.646535e+01 6.880547e+01 7.400654e+01 5.650693e+01 7.902584e+01 7.063740e+01 6.176476e+01 7.040208e+01 6.116729e+01 4.302235e+01 4.924087e+01 4.585104e+01 2.393640e+02 2.658382e+00 2.863683e+00 2.661581e+00 2.737767e+00 3.530118e+00 3.249239e+00 3.122963e+00 3.799784e+00 3.284823e+00 2.718714e+00 2.990430e+00 2.494372e+00 5.340928e+00 4.112581e-01 4.368804e-01 4.131824e-01 4.661263e-01 6.163402e-01 5.628303e-01 5.646209e-01 6.670512e-01 5.816836e-01 5.068259e-01 5.428844e-01 4.537686e-01 7.002364e-01
<GCONST> 1.329499e+02
<TRANSP> 5
 0.000000e+00 1.000000e+00 0.000000e+00 0.000000e+00 0.000000e+00
 0.000000e+00 7.045869e-01 2.954132e-01 0.000000e+00 0.000000e+00
 0.000000e+00 0.000000e+00 7.045838e-01 2.954161e-01 0.000000e+00
 0.000000e+00 0.000000e+00 0.000000e+00 8.443249e-01 1.556751e-01
 0.000000e+00 0.000000e+00 0.000000e+00 0.000000e+00 0.000000e+00
<ENDHMM>
~h "s"
<BEGINHMM>
<NUMSTATES> 5
<STATE> 2
<MEAN> 39
 -6.127089e+00 -3.168802e+00 -1.156932e+00 -4.222672e+00 -8.215682e+00 -2.734664e+00 -8.437939e+00 -2.877443e+00 -4.135559e+00 -2.518272e+00 -1.545463e+00 -5.278866e+00 5.545631e+01 2.207225e-03 4.853769e-04 -1.080133e-03 -2.635718e-03 1.199244e-03 1.778018e-03 -2.460730e-03 4.654641e-04 -7.811324e-04 -4.370933e-04 -1.159706e-03 -2.747111e-03 8.880146e-03 1.645309e-04 1.943080e-04 2.276481e-04 -7.357630e-05 -1.407177e-04 9.991939e-05 8.288017e-05 -3.707303e-05 -4.722753e-05 2.395817e-04 4.847317e-05 1.446527e-04 -7.996613e-04
<VARIANCE> 39
 7.241222e+01 6.606509e+01 7.190206e+01 5.482878e+01 7.646310e+01 6.772813e+01 6.154000e+01 6.831955e+01 5.838277e+01 4.230602e+01 4.658502e+01 4.602050e+01 2.537291e+02 2.800372e+00 2.814298e+00 2.663700e+00 2.672356e+00 3.414402e+00 3.146040e+00 3.079139e+00 3.743530e+00 3.220501e+00 2.674877e+00 2.920712e+00 2.491635e+00 5.084564e+00 4.235089e-01 4.320874e-01 4.125287e-01 4.591859e-01 5.986927e-01 5.468594e-01 5.592285e-01 6.584187e-01 5.720351e-01 5.006293e-01 5.340549e-01 4.530993e-01 6.727304e-01
<GCONST> 1.324114e+02
<STATE> 3
<MEAN> 39
 -6.119202e+00 -3.164327e+00 -1.156358e+00 -4.230205e+00 -8.213538e+00 -2.727288e+00 -8.445267e+00 -2.876265e+00 -4.137836e+00 -2.518476e+00 -1.549448e+00 -5.287521e+00 5.548273e+01 2.732564e-03 1.041999e-03 -6.802879e-04 -2.693523e-03 9.108550e-04 2.110847e-03 -1.966115e-03 1.917888e-04 -8.166382e-04 3.305205e-04 -8.472109e-04 -2.347501e-03 5.974942e-03 1.426935e-04 1.202420e-04 2.151974e-04 1.186449e-05 -2.058313e-04 9.975345e-05 1.975465e-04 -1.518574e-04 -3.521662e-05 1.762706e-04 1.487943e-04 1.479935e-04 -7.568718e-04
<VARIANCE> 39
 7.246622e+01 6.608946e+01 7.203323e+01 5.487839e+01 7.648194e+01 6.781814e+01 6.169637e+01 6.830459e+01 5.838002e+01 4.231825e+01 4.662249e+01 4.594327e+01 2.534440e+02 2.801920e+00 2.812104e+00 2.666466e+00 2.672691e+00 3.413065e+00 3.144228e+00 3.081762e+00 3.739719e+00 3.220011e+00 2.672281e+00 2.922475e+00 2.492236e+00 5.075639e+00 4.233007e-01 4.315559e-01 4.123288e-01 4.589824e-01 5.980945e-01 5.461656e-01 5.596105e-01 6.576146e-01 5.721741e-01 5.000832e-01 5.342831e-01 4.531785e-01 6.710150e-01
<GCONST> 1.324069e+02
<STATE> 4
<MEAN> 39
 -6.007246e+00 -3.110962e+00 -1.028090e+00 -4.218503e+00 -8.279092e+00 -2.534062e+00 -8.531890e+00 -2.665432e+00 -4.234792e+00 -2.369569e+00 -1.575204e+00 -5.280897e+00 5.558152e+01 3.168218e-03 1.540809e-03 4.962529e-04 -2.288074e-03 1.499085e-04 2.308178e-03 -1.673227e-03 -1.334390e-04 -1.140640e-03 7.965417e-04 -1.408659e-04 -2.136949e-03 3.448460e-03 7.427261e-05 1.603608e-05 1.695287e-04 6.821072e-05 -1.487022e-04 -1.427063e-05 1.620797e-04 -1.070833e-04 8.256698e-06 2.872584e-05 1.588655e-04 9.138307e-05 -5.933943e-04
<VARIANCE> 39
 7.209393e+01 6.666014e+01 7.271247e+01 5.519605e+01 7.758960e+01 6.824237e+01 6.278653e+01 6.873694e+01 5.865253e+01 4.206490e+01 4.706665e+01 4.579845e+01 2.532125e+02 2.774494e+00 2.809135e+00 2.663250e+00 2.675748e+00 3.428404e+00 3.140638e+00 3.103707e+00 3.740814e+00 3.217268e+00 2.651162e+00 2.921682e+00 2.473555e+00 5.079963e+00 4.196110e-01 4.299876e-01 4.110062e-01 4.583321e-01 5.982642e-01 5.445948e-01 5.624096e-01 6.561207e-01 5.715339e-01 4.959838e-01 5.337672e-01 4.493775e-01 6.689607e-01
<GCONST> 1.324193e+02
<TRANSP> 5
 0.000000e+00 1.000000e+00 0.000000e+00 0.000000e+00 0.000000e+00
 0.000000e+00 7.077680e-01 2.922321e-01 0.000000e+00 0.000000e+00
 0.000000e+00 0.000000e+00 7.077661e-01 2.922338e-01 0.000000e+00
 0.000000e+00 0.000000e+00 0.000000e+00 8.498117e-01 1.501883e-01
 0.000000e+00 0.000000e+00 0.000000e+00 0.000000e+00 0.000000e+00
<ENDHMM>
~h "t"
<BEGINHMM>
<NUMSTATES> 5
<STATE> 2
<MEAN> 39
 -5.604691e+00 -3.266727e+00 -1.167910e+00 -4.410853e+00 -8.577804e+00 -2.795696e+00 -8.642996e+00 -3.182587e+00 -4.189490e+00 -2.689487e+00 -1.571746e+00 -5.605809e+00 5.572047e+01 2.454581e-04 7.813213e-04 1.999767e-03 -2.971890e-04 6.648588e-04 8.369358e-04 8.441037e-04 7.435400e-04 7.021257e-04 -1.287844e-04 -2.495514e-03 -6.407838e-04 3.715222e-03 -4.938240e-05 2.816702e-04 2.222733e-04 1.514986e-04 -1.297043e-05 -1.589750e-04 -5.790658e-05 -1.468317e-04 -6.893619e-05 9.131443e-05 3.784968e-06 -9.503943e-06 -9.786657e-04
<VARIANCE> 39
 6.652963e+01 6.588448e+01 7.239619e+01 5.722409e+01 7.712683e+01 6.887050e+01 6.056945e+01 6.856934e+01 5.911464e+01 4.229074e+01 4.797626e+01 4.642847e+01 2.518342e+02 2.671813e+00 2.843245e+00 2.650037e+00 2.726563e+00 3.471178e+00 3.220269e+00 3.055484e+00 3.674122e+00 3.230422e+00 2.711960e+00 2.977371e+00 2.518052e+00 5.636065e+00 4.179832e-01 4.380761e-01 4.147082e-01 4.674808e-01 6.133142e-01 5.628928e-01 5.574304e-01 6.505527e-01 5.749266e-01 5.066718e-01 5.435085e-01 4.612350e-01 7.419214e-01
<GCONST> 1.327826e+02
<STATE> 3
<MEAN> 39
 -5.603797e+00 -3.262264e+00 -1.159207e+00 -4.412347e+00 -8.575153e+00 -2.793743e+00 -8.643424e+00 -3.180518e+00 -4.188119e+00 -2.688265e+00 -1.578668e+00 -5.608373e+00 5.573055e+01 -1.212663e-04 1.317007e-03 2.714558e-03 1.775116e-04 6.521617e-04 1.792846e-04 6.037385e-04 3.628278e-04 4.151462e-04 4.500960e-04 -2.394783e-03 -6.645581e-04 6.118183e-04 -4.283478e-05 2.296726e-04 1.852986e-04 7.895475e-05 -3.186841e-05 -1.678709e-04 -1.326937e-04 -1.232053e-04 -9.964845e-05 1.807545e-04 3.340830e-05 -5.470122e-05 -9.342308e-04
<VARIANCE> 39
 6.650459e+01 6.591656e+01 7.245215e+01 5.719391e+01 7.722487e+01 6.881871e+01 6.058930e+01 6.860040e+01 5.906337e+01 4.226383e+01 4.799355e+01 4.643838e+01 2.514460e+02 2.672975e+00 2.843115e+00 2.651063e+00 2.725125e+00 3.470687e+00 3.217819e+00 3.058337e+00 3.674993e+00 3.231138e+00 2.709459e+00 2.977960e+00 2.520885e+00 5.633313e+00 4.179535e-01 4.378168e-01 4.147358e-01 4.673378e-01 6.128432e-01 5.624952e-01 5.579970e-01 6.507295e-01 5.752085e-01 5.061156e-01 5.437903e-01 4.617234e-01 7.412161e-01
<GCONST> 1.327813e+02
<STATE> 4
<MEAN> 39
 -5.526505e+00 -3.249365e+00 -9.818440e-01 -4.401694e+00 -8.591908e+00 -2.622297e+00 -8.731914e+00 -2.945958e+00 -4.310453e+00 -2.542609e+00 -1.657274e+00 -5.626699e+00 5.592212e+01 -6.820402e-04 1.303850e-03 3.063583e-03 2.796527e-04 9.240599e-04 -1.461105e-04 5.538198e-04 1.659694e-04 -1.624842e-04 9.570894e-04 -1.778666e-03 -4.241770e-04 -2.176069e-03 -7.399596e-05 5.077707e-05 8.019522e-05 5.076867e-05 -3.783560e-05 -7.296580e-05 4.098361e-05 -7.175207e-05 -7.787584e-05 1.109011e-04 4.758268e-05 -1.408313e-05 -6.719505e-04
<VARIANCE> 39
 6.667412e+01 6.684966e+01 7.289522e+01 5.740258e+01 7.822963e+01 6.905968e+01 6.143028e+01 6.906120e+01 5.917752e+01 4.212221e+01 4.823553e+01 4.626984e+01 2.488560e+02 2.677189e+00 2.856708e+00 2.659121e+00 2.740279e+00 3.496120e+00 3.223296e+00 3.095393e+00 3.701071e+00 3.231391e+00 2.701631e+00 2.980997e+00 2.512050e+00 5.606988e+00 4.172556e-01 4.383506e-01 4.147539e-01 4.692653e-01 6.144435e-01 5.628887e-01 5.629866e-01 6.538648e-01 5.746593e-01 5.049334e-01 5.442072e-01 4.595244e-01 7.350855e-01
<GCONST> 1.328723e+02
<TRANSP> 5
 0.000000e+00 1.000000e+00 0.000000e+00 0.000000e+00 0.000000e+00
 0.000000e+00 7.065625e-01 2.934375e-01 0.000000e+00 0.000000e+00
 0.000000e+00 0.000000e+00 7.065620e-01 2.934380e-01 0.000000e+00
 0.000000e+00 0.000000e+00 0.000000e+00 8.476652e-01 1.523348e-01
 0.000000e+00 0.000000e+00 0.000000e+00 0.000000e+00 0.000000e+00
<ENDHMM>
~h "u"
<BEGINHMM>
<NUMSTATES> 5
<STATE> 2
<MEAN> 39
 -5.342816e+00 -3.149213e+00 -1.080083e+00 -4.496299e+00 -8.562159e+00 -2.735358e+00 -8.803180e+00 -3.378030e+00 -4.392080e+00 -2.625872e+00 -1.599055e+00 -5.533593e+00 5.602920e+01 1.300734e-03 -1.060673e-04 -4.959820e-04 -1.990307e-03 9.563603e-04 3.752016e-04 6.383935e-04 1.071754e-04 -2.653417e-04 1.566266e-03 -2.900566e-03 -1.889194e-03 2.776085e-03 -3.203860e-04 -5.715739e-05 -7.369425e-05 1.720634e-04 1.189010e-05 2.762066e-05 7.931694e-05 6.546627e-05 -2.193809e-05 -1.041167e-04 3.928140e-04 1.975823e-04 -4.087697e-04
<VARIANCE> 39
 6.814410e+01 6.477807e+01 7.120970e+01 5.884649e+01 7.671509e+01 6.797685e+01 6.252866e+01 7.286714e+01 5.925539e+01 4.302776e+01 4.817104e+01 4.526854e+01 2.374146e+02 2.692869e+00 2.793368e+00 2.661155e+00 2.812219e+00 3.487792e+00 3.220395e+00 3.141392e+00 3.842898e+00 3.281874e+00 2.748637e+00 3.016299e+00 2.509427e+00 5.220152e+00 4.179817e-01 4.307599e-01 4.170433e-01 4.788873e-01 6.161959e-01 5.621090e-01 5.699427e-01 6.765205e-01 5.825469e-01 5.139939e-01 5.498052e-01 4.595780e-01 6.900854e-01
<GCONST> 1.329201e+02
<STATE> 3
<MEAN> 39
 -5.338736e+00 -3.151262e+00 -1.082889e+00 -4.503989e+00 -8.560801e+00 -2.733000e+00 -8.801771e+00 -3.376045e+00 -4.393323e+00 -2.620494e+00 -1.606417e+00 -5.539716e+00 5.604445e+01 3.865607e-04 -5.196574e-04 -9.523265e-04 -1.641702e-03 9.518054e-04 3.330219e-04 8.857692e-04 6.571300e-04 -1.926759e-04 1.160481e-03 -2.388431e-03 -1.574431e-03 1.370306e-03 -2.522026e-04 -3.490446e-05 -1.358010e-04 1.055620e-04 -8.996064e-05 4.076588e-05 2.752175e-05 7.808451e-05 -5.888348e-05 -1.864146e-04 3.528729e-04 1.375518e-04 -2.251557e-04
<VARIANCE> 39
 6.808577e+01 6.477134e+01 7.128066e+01 5.886893e+01 7.673832e+01 6.797720e+01 6.256981e+01 7.297936e+01 5.923636e+01 4.305268e+01 4.824006e+01 4.523792e+01 2.372197e+02 2.695071e+00 2.793514e+00 2.659870e+00 2.813518e+00 3.487320e+00 3.219070e+00 3.139708e+00 3.844468e+00 3.280265e+00 2.749392e+00 3.018221e+00 2.509293e+00 5.218860e+00 4.181859e-01 4.303396e-01 4.165630e-01 4.790461e-01 6.156163e-01 5.619940e-01 5.697908e-01 6.766259e-01 5.818959e-01 5.140381e-01 5.500848e-01 4.593324e-01 6.893924e-01
<GCONST> 1.329188e+02
<STATE> 4
<MEAN> 39
 -5.243821e+00 -3.165193e+00 -9.778420e-01 -4.538779e+00 -8.588437e+00 -2.556346e+00 -8.886484e+00 -3.160168e+00 -4.506672e+00 -2.462708e+00 -1.667650e+00 -5.586598e+00 5.630565e+01 -2.265753e-04 -7.504656e-04 -1.201766e-03 -1.473647e-03 2.919291e-04 7.325126e-04 4.951025e-04 1.242825e-03 2.761980e-04 1.155393e-03 -2.013420e-03 -1.630876e-03 1.581838e-03 -1.546291e-04 5.081887e-05 -7.718211e-05 1.025198e-04 -5.600836e-05 5.525306e-05 -6.377387e-05 2.721727e-05 9.872290e-05 -9.655413e-05 1.389849e-04 2.279174e-05 -1.989544e-04
<VARIANCE> 39
 6.828588e+01 6.546566e+01 7.191763e+01 5.900439e+01 7.775914e+01 6.806593e+01 6.357632e+01 7.328982e+01 5.939731e+01 4.271505e+01 4.846687e+01 4.519737e+01 2.346086e+02 2.696604e+00 2.798310e+00 2.667408e+00 2.819741e+00 3.500969e+00 3.228437e+00 3.159189e+00 3.848968e+00 3.264882e+00 2.735670e+00 3.011336e+00 2.498030e+00 5.212216e+00 4.169261e-01 4.295149e-01 4.156670e-01 4.794426e-01 6.154246e-01 5.626392e-01 5.714762e-01 6.762763e-01 5.774550e-01 5.114356e-01 5.485756e-01 4.566225e-01 6.862556e-01
<GCONST> 1.329407e+02
<TRANSP> 5
 0.000000e+00 1.000000e+00 0.000000e+00 0.000000e+00 0.000000e+00
 0.000000e+00 7.092481e-01 2.907520e-01 0.000000e+00 0.000000e+00
 0.000000e+00 0.000000e+00 7.092368e-01 2.907632e-01 0.000000e+00
 0.000000e+00 0.000000e+00 0.000000e+00 8.512588e-01 1.487412e-01
 0.000000e+00 0.000000e+00 0.000000e+00 0.000000e+00 0.000000e+00
<ENDHMM>
~h "v"
<BEGINHMM>
<NUMSTATES> 5
<STATE> 2
<MEAN> 39
 -5.720369e+00 -3.212366e+00 -9.603557e-01 -4.140341e+00 -8.282138e+00 -2.741488e+00 -8.362382e+00 -2.900852e+00 -4.227129e+00 -2.588475e+00 -1.643602e+00 -5.417910e+00 5.514945e+01 4.041251e-04 8.054070e-04 2.982348e-04 -7.923298e-04 1.777842e-04 5.770657e-04 1.920456e-06 -1.539215e-03 -3.851559e-04 2.390032e-04 -1.168943e-03 -1.209440e-03 7.453487e-05 5.293762e-05 1.484293e-04 1.038093e-04 6.097702e-05 2.683362e-05 9.535497e-05 -3.359811e-05 -1.456941e-05 1.142907e-04 1.394317e-04 6.521364e-05 -2.366633e-05 -8.404750e-05
<VARIANCE> 39
 6.548970e+01 6.558094e+01 6.975499e+01 5.597869e+01 7.619009e+01 6.664177e+01 6.092598e+01 6.794641e+01 5.794476e+01 4.215612e+01 4.686914e+01 4.500091e+01 2.513958e+02 2.532669e+00 2.732701e+00 2.556041e+00 2.640352e+00 3.358491e+00 3.125732e+00 3.024375e+00 3.669678e+00 3.178414e+00 2.664217e+00 2.899224e+00 2.436845e+00 5.033377e+00 3.927859e-01 4.190547e-01 3.991563e-01 4.514541e-01 5.906611e-01 5.447152e-01 5.501792e-01 6.469660e-01 5.645853e-01 4.966201e-01 5.287678e-01 4.459183e-01 6.618989e-01
<GCONST> 1.316507e+02
<STATE> 3
<MEAN> 39
 -5.720369e+00 -3.212366e+00 -9.603557e-01 -4.140341e+00 -8.282138e+00 -2.741488e+00 -8.362382e+00 -2.900852e+00 -4.227129e+00 -2.588475e+00 -1.643602e+00 -5.417910e+00 5.514945e+01 4.041251e-04 8.054070e-04 2.982348e-04 -7.923298e-04 1.777842e-04 5.770657e-04 1.920456e-06 -1.539215e-03 -3.851559e-04 2.390032e-04 -1.168943e-03 -1.209440e-03 7.453487e-05 5.293762e-05 1.484293e-04 1.038093e-04 6.097702e-05 2.683362e-05 9.535497e-05 -3.359811e-05 -1.456941e-05 1.142907e-04 1.394317e-04 6.521364e-05 -2.366633e-05 -8.404750e-05
<VARIANCE> 39
 6.548970e+01 6.558094e+01 6.975499e+01 5.597869e+01 7.619009e+01 6.664177e+01 6.092598e+01 6.794641e+01 5.794476e+01 4.215612e+01 4.686914e+01 4.500091e+01 2.513958e+02 2.532669e+00 2.732701e+00 2.556041e+00 2.640352e+00 3.358491e+00 3.125732e+00 3.024375e+00 3.669678e+00 3.178414e+00 2.664217e+00 2.899224e+00 2.436845e+00 5.033377e+00 3.927859e-01 4.190547e-01 3.991563e-01 4.514541e-01 5.906611e-01 5.447152e-01 5.501792e-01 6.469660e-01 5.645853e-01 4.966201e-01 5.287678e-01 4.459183e-01 6.618989e-01
<GCONST> 1.316507e+02
<STATE> 4
<MEAN> 39
 -5.720369e+00 -3.212366e+00 -9.603557e-01 -4.140341e+00 -8.282138e+00 -2.741488e+00 -8.362382e+00 -2.900852e+00 -4.227129e+00 -2.588475e+00 -1.643602e+00 -5.417910e+00 5.514945e+01 4.041251e-04 8.054070e-04 2.982348e-04 -7.923298e-04 1.777842e-04 5.770657e-04 1.920456e-06 -1.539215e-03 -3.851559e-04 2.390032e-04 -1.168943e-03 -1.209440e-03 7.453487e-05 5.293762e-05 1.484293e-04 1.038093e-04 6.097702e-05 2.683362e-05 9.535497e-05 -3.359811e-05 -1.456941e-05 1.142907e-04 1.394317e-04 6.521364e-05 -2.366633e-05 -8.404750e-05
<VARIANCE> 39
 6.548970e+01 6.558094e+01 6.975499e+01 5.597869e+01 7.619009e+01 6.664177e+01 6.092598e+01 6.794641e+01 5.794476e+01 4.215612e+01 4.686914e+01 4.500091e+01 2.513958e+02 2.532669e+00 2.732701e+00 2.556041e+00 2.640352e+00 3.358491e+00 3.125732e+00 3.024375e+00 3.669678e+00 3.178414e+00 2.664217e+00 2.899224e+00 2.436845e+00 5.033377e+00 3.927859e-01 4.190547e-01 3.991563e-01 4.514541e-01 5.906611e-01 5.447152e-01 5.501792e-01 6.469660e-01 5.645853e-01 4.966201e-01 5.287678e-01 4.459183e-01 6.618989e-01
<GCONST> 1.316507e+02
<TRANSP> 5
 0.000000e+00 1.000000e+00 0.000000e+00 0.000000e+00 0.000000e+00
 0.000000e+00 6.000000e-01 4.000000e-01 0.000000e+00 0.000000e+00
 0.000000e+00 0.000000e+00 6.000000e-01 4.000000e-01 0.000000e+00
 0.000000e+00 0.000000e+00 0.000000e+00 7.000000e-01 3.000000e-01
 0.000000e+00 0.000000e+00 0.000000e+00 0.000000e+00 0.000000e+00
<ENDHMM>
~h "w"
<BEGINHMM>
<NUMSTATES> 5
<STATE> 2
<MEAN> 39
 -5.532056e+00 -3.510993e+00 -1.114052e+00 -4.679966e+00 -8.767447e+00 -2.736544e+00 -8.814797e+00 -3.294946e+00 -4.270572e+00 -2.542372e+00 -1.681593e+00 -5.549434e+00 5.624576e+01 1.105866e-03 5.351363e-03 1.993847e-03 -1.526282e-03 4.833732e-04 2.615032e-03 4.069189e-03 -5.735498e-04 4.243699e-05 5.568231e-04 3.268835e-03 -1.213208e-04 -3.874066e-03 -5.141341e-04 4.971520e-04 -6.162931e-05 9.974551e-04 3.156047e-04 6.834725e-05 -4.168110e-04 -3.217123e-04 -5.840315e-04 6.229864e-06 -4.119578e-04 2.966145e-04 -1.063682e-03
<VARIANCE> 39
 6.979812e+01 6.557264e+01 7.412267e+01 6.081236e+01 7.825224e+01 7.029697e+01 6.041334e+01 6.886855e+01 6.152251e+01 4.349809e+01 4.902258e+01 4.285109e+01 2.424345e+02 2.704093e+00 2.771772e+00 2.728396e+00 2.676277e+00 3.476574e+00 3.279314e+00 3.111570e+00 3.695645e+00 3.145278e+00 2.725390e+00 2.989066e+00 2.484752e+00 5.176271e+00 4.108681e-01 4.235644e-01 4.227127e-01 4.556819e-01 6.071202e-01 5.671296e-01 5.670701e-01 6.500067e-01 5.579689e-01 5.073964e-01 5.435414e-01 4.550819e-01 6.736032e-01
<GCONST> 1.326608e+02
<STATE> 3
<MEAN> 39
 -5.528697e+00 -3.500904e+00 -1.106466e+00 -4.684128e+00 -8.763144e+00 -2.727970e+00 -8.803406e+00 -3.288280e+00 -4.277485e+00 -2.541216e+00 -1.672130e+00 -5.552701e+00 5.624121e+01 -4.445374e-04 6.772622e-03 2.099426e-03 9.474793e-04 1.108220e-03 2.067900e-03 3.673826e-03 -2.299874e-04 -9.831052e-04 7.796675e-05 2.411898e-03 6.808678e-04 -7.507268e-03 -5.414800e-04 2.506415e-04 4.487591e-05 4.739804e-04 2.597131e-04 2.526060e-04 -4.937818e-04 7.476108e-05 -3.841587e-04 -1.089125e-04 -3.118494e-04 2.853131e-04 -5.861033e-04
<VARIANCE> 39
 6.972839e+01 6.564658e+01 7.422898e+01 6.085315e+01 7.811091e+01 7.030474e+01 6.027509e+01 6.897602e+01 6.145044e+01 4.345089e+01 4.899446e+01 4.283942e+01 2.427008e+02 2.693912e+00 2.768678e+00 2.722546e+00 2.670096e+00 3.469333e+00 3.283346e+00 3.102588e+00 3.689100e+00 3.137280e+00 2.728887e+00 2.989226e+00 2.482665e+00 5.182120e+00 4.089412e-01 4.225160e-01 4.216616e-01 4.541815e-01 6.057647e-01 5.676061e-01 5.646502e-01 6.485541e-01 5.567654e-01 5.082925e-01 5.432728e-01 4.544887e-01 6.736153e-01
<GCONST> 1.326197e+02
<STATE> 4
<MEAN> 39
 -5.426972e+00 -3.517066e+00 -1.051214e+00 -4.698792e+00 -8.817965e+00 -2.664797e+00 -8.928821e+00 -3.085330e+00 -4.420196e+00 -2.427158e+00 -1.767520e+00 -5.604285e+00 5.651454e+01 -7.215247e-04 6.860609e-03 2.996715e-03 1.676490e-03 2.254293e-03 2.824663e-03 4.235386e-03 2.125456e-03 -2.204631e-03 -7.003809e-04 1.447198e-03 -3.720645e-05 -8.178666e-03 -3.049948e-04 3.580457e-04 9.565211e-05 1.280486e-04 3.358660e-04 3.258366e-04 -1.353272e-04 5.706492e-05 -1.524623e-04 -4.290135e-05 -1.766463e-04 2.615345e-04 -6.373873e-04
<VARIANCE> 39
 7.009440e+01 6.679695e+01 7.425127e+01 6.027642e+01 7.834218e+01 7.018876e+01 6.061910e+01 6.996596e+01 6.106629e+01 4.326150e+01 4.905169e+01 4.260325e+01 2.405856e+02 2.724654e+00 2.805438e+00 2.736421e+00 2.659088e+00 3.483043e+00 3.278295e+00 3.113493e+00 3.715653e+00 3.137632e+00 2.711753e+00 2.986220e+00 2.477469e+00 5.237382e+00 4.116519e-01 4.272768e-01 4.248479e-01 4.516994e-01 6.059548e-01 5.647363e-01 5.648870e-01 6.502456e-01 5.561122e-01 5.047492e-01 5.415004e-01 4.523905e-01 6.825296e-01
<GCONST> 1.326857e+02
<TRANSP> 5
 0.000000e+00 1.000000e+00 0.000000e+00 0.000000e+00 0.000000e+00
 0.000000e+00 7.127632e-01 2.872368e-01 0.000000e+00 0.000000e+00
 0.000000e+00 0.000000e+00 7.127639e-01 2.872361e-01 0.000000e+00
 0.000000e+00 0.000000e+00 0.000000e+00 8.553350e-01 1.446650e-01
 0.000000e+00 0.000000e+00 0.000000e+00 0.000000e+00 0.000000e+00
<ENDHMM>
~h "y"
<BEGINHMM>
<NUMSTATES> 5
<STATE> 2
<MEAN> 39
 -5.535379e+00 -3.669192e+00 -1.131984e+00 -4.402500e+00 -8.276068e+00 -2.949613e+00 -8.428288e+00 -2.670967e+00 -4.284762e+00 -2.564406e+00 -1.657596e+00 -5.567595e+00 5.549762e+01 -2.385032e-04 1.979233e-03 4.807254e-03 1.550511e-03 -2.157344e-03 -9.707887e-04 -7.360298e-04 5.046782e-03 -2.682212e-03 4.099070e-03 -6.324384e-03 -3.298241e-03 7.420149e-03 -6.021480e-04 1.761776e-04 -3.823309e-04 1.049629e-04 1.444471e-04 -2.328699e-04 1.281803e-04 1.696919e-04 2.853542e-04 -1.300851e-04 -3.348015e-04 -3.610665e-04 -2.644588e-04
<VARIANCE> 39
 6.496168e+01 6.840795e+01 7.064233e+01 5.543296e+01 7.501546e+01 6.613792e+01 5.889211e+01 6.712173e+01 5.793422e+01 4.397213e+01 4.686948e+01 4.380962e+01 2.477062e+02 2.502991e+00 2.753904e+00 2.598319e+00 2.642302e+00 3.338801e+00 3.121939e+00 3.058270e+00 3.685256e+00 3.126909e+00 2.687736e+00 2.901799e+00 2.400719e+00 4.817571e+00 3.888667e-01 4.189757e-01 4.021549e-01 4.515777e-01 5.830040e-01 5.432613e-01 5.544615e-01 6.480886e-01 5.567780e-01 4.996645e-01 5.281986e-01 4.419726e-01 6.412792e-01
<GCONST> 1.315165e+02
<STATE> 3
<MEAN> 39
 -5.531994e+00 -3.662139e+00 -1.109284e+00 -4.395789e+00 -8.294403e+00 -2.954500e+00 -8.433210e+00 -2.653183e+00 -4.296399e+00 -2.555266e+00 -1.678177e+00 -5.575891e+00 5.553619e+01 -1.562586e-03 2.555570e-03 3.862481e-03 1.466776e-03 -2.509140e-03 -1.065368e-03 -7.796041e-04 5.239470e-03 -2.238259e-03 4.435724e-03 -6.869165e-03 -3.452210e-03 6.623819e-03 -4.506009e-04 1.868495e-04 -3.145870e-04 -9.904162e-05 -2.169045e-04 5.373253e-05 1.758377e-04 1.268609e-06 2.406622e-04 -1.080721e-04 -1.051747e-05 -1.048803e-04 1.438093e-07
<VARIANCE> 39
 6.507215e+01 6.859535e+01 7.089365e+01 5.530479e+01 7.510487e+01 6.621169e+01 5.909402e+01 6.728864e+01 5.773450e+01 4.404478e+01 4.695049e+01 4.375662e+01 2.474957e+02 2.514457e+00 2.766158e+00 2.603579e+00 2.636416e+00 3.352013e+00 3.129081e+00 3.064153e+00 3.694556e+00 3.125997e+00 2.692499e+00 2.900381e+00 2.399015e+00 4.832755e+00 3.902752e-01 4.204131e-01 4.025508e-01 4.506733e-01 5.850863e-01 5.444090e-01 5.550192e-01 6.497136e-01 5.564962e-01 5.005052e-01 5.278510e-01 4.414726e-01 6.427608e-01
<GCONST> 1.315681e+02
<STATE> 4
<MEAN> 39
 -5.404158e+00 -3.800575e+00 -1.204839e+00 -4.572562e+00 -8.369947e+00 -2.890019e+00 -8.598769e+00 -2.418008e+00 -4.521741e+00 -2.405536e+00 -1.869015e+00 -5.772724e+00 5.612081e+01 -2.462309e-04 2.945709e-03 4.193038e-03 9.463198e-04 -4.553230e-03 -2.680706e-04 -1.357525e-03 2.792867e-03 -2.627706e-03 4.419792e-03 -5.526042e-03 -1.647888e-03 8.882007e-03 -1.969441e-04 2.327531e-04 -1.746753e-04 -9.362301e-05 -1.028214e-04 3.043222e-04 1.935533e-04 -4.281362e-04 4.735779e-05 -4.279065e-05 1.996123e-04 1.976933e-04 -2.404183e-04
<VARIANCE> 39
 6.574184e+01 6.967147e+01 7.304108e+01 5.673480e+01 7.561691e+01 6.693225e+01 5.973339e+01 6.834074e+01 5.767519e+01 4.388523e+01 4.767899e+01 4.372831e+01 2.454047e+02 2.558286e+00 2.808226e+00 2.655854e+00 2.672774e+00 3.413629e+00 3.142715e+00 3.116644e+00 3.741303e+00 3.144262e+00 2.700063e+00 2.921896e+00 2.408762e+00 5.013857e+00 3.955572e-01 4.238913e-01 4.100655e-01 4.557272e-01 5.947993e-01 5.466511e-01 5.629902e-01 6.539251e-01 5.567316e-01 5.017921e-01 5.310049e-01 4.428411e-01 6.632920e-01
<GCONST> 1.320058e+02
<TRANSP> 5
 0.000000e+00 1.000000e+00 0.000000e+00 0.000000e+00 0.000000e+00
 0.000000e+00 7.118182e-01 2.881818e-01 0.000000e+00 0.000000e+00
 0.000000e+00 0.000000e+00 7.118171e-01 2.881829e-01 0.000000e+00
 0.000000e+00 0.000000e+00 0.000000e+00 8.579963e-01 1.420037e-01
 0.000000e+00 0.000000e+00 0.000000e+00 0.000000e+00 0.000000e+00
<ENDHMM>
~h "z"
<BEGINHMM>
<NUMSTATES> 5
<STATE> 2
<MEAN> 39
 -5.641964e+00 -2.606394e+00 -1.070588e+00 -3.648515e+00 -7.922140e+00 -2.505131e+00 -8.264832e+00 -2.939373e+00 -3.504379e+00 -2.434475e+00 -1.596255e+00 -4.667447e+00 5.447129e+01 4.626512e-03 5.060385e-03 1.133006e-02 3.268394e-03 -7.213259e-03 7.123730e-03 7.454780e-03 -1.619444e-03 -9.432159e-03 -1.827920e-03 3.801342e-03 -4.960278e-03 -6.521539e-03 3.935027e-04 -4.180562e-06 5.853070e-04 -4.852337e-04 -1.196525e-04 3.417594e-04 1.159836e-04 -1.239047e-03 2.203843e-04 2.929720e-04 8.449900e-04 -3.314756e-04 4.020815e-04
<VARIANCE> 39
 6.690081e+01 6.420235e+01 6.567444e+01 5.461506e+01 7.334219e+01 6.575708e+01 5.925996e+01 6.611607e+01 5.580781e+01 4.052850e+01 4.727594e+01 3.976853e+01 2.469103e+02 2.568198e+00 2.755617e+00 2.442477e+00 2.590428e+00 3.347672e+00 3.109446e+00 2.984488e+00 3.550722e+00 2.925491e+00 2.559839e+00 2.864748e+00 2.331444e+00 4.694321e+00 3.984116e-01 4.250765e-01 3.766568e-01 4.419288e-01 5.925197e-01 5.360479e-01 5.426380e-01 6.365535e-01 5.165089e-01 4.788065e-01 5.255889e-01 4.310753e-01 6.292992e-01
<GCONST> 1.305939e+02
<STATE> 3
<MEAN> 39
 -5.625932e+00 -2.605522e+00 -1.035041e+00 -3.641536e+00 -7.950602e+00 -2.474103e+00 -8.239942e+00 -2.942195e+00 -3.530085e+00 -2.443159e+00 -1.579135e+00 -4.687230e+00 5.448330e+01 5.028244e-03 5.832701e-03 1.317921e-02 2.236790e-03 -6.002440e-03 8.690603e-03 9.199161e-03 -4.289186e-03 -7.646514e-03 -3.491889e-04 6.368187e-03 -5.209773e-03 -7.340900e-03 -3.684583e-05 -2.847021e-04 7.752294e-04 -1.893116e-04 5.719810e-04 6.536313e-04 3.876534e-04 -6.364375e-04 1.050608e-03 6.461556e-04 6.874194e-04 8.989822e-06 6.453432e-04
<VARIANCE> 39
 6.669195e+01 6.428731e+01 6.609734e+01 5.446591e+01 7.350728e+01 6.605740e+01 5.924385e+01 6.618841e+01 5.562077e+01 4.042957e+01 4.747133e+01 3.966475e+01 2.458040e+02 2.549740e+00 2.739607e+00 2.444963e+00 2.580079e+00 3.350643e+00 3.117489e+00 2.992232e+00 3.548386e+00 2.916944e+00 2.538097e+00 2.867211e+00 2.327282e+00 4.678588e+00 3.962755e-01 4.239440e-01 3.756088e-01 4.407285e-01 5.913790e-01 5.379541e-01 5.431295e-01 6.367379e-01 5.143358e-01 4.737537e-01 5.257111e-01 4.305518e-01 6.267108e-01
<GCONST> 1.305377e+02
<STATE> 4
<MEAN> 39
 -5.316480e+00 -2.755330e+00 -8.447217e-01 -3.802750e+00 -8.094270e+00 -2.288048e+00 -8.429598e+00 -2.630834e+00 -3.892481e+00 -2.338798e+00 -1.683900e+00 -4.984465e+00 5.537507e+01 3.175508e-03 1.763585e-03 1.309424e-02 2.149099e-03 -3.468921e-03 9.917989e-03 8.919952e-03 -1.970530e-03 -3.259053e-03 2.103438e-03 6.086625e-03 -4.931945e-03 6.220038e-04 -4.483061e-04 -5.296696e-04 4.544939e-04 3.163919e-04 7.145671e-04 1.574771e-04 1.206486e-04 6.343615e-05 8.642023e-04 5.871682e-04 7.217246e-05 2.773909e-04 -3.055907e-04
<VARIANCE> 39
 6.472916e+01 6.721004e+01 6.977360e+01 5.564140e+01 7.549525e+01 6.644778e+01 6.058080e+01 6.725239e+01 5.605266e+01 4.029688e+01 4.812617e+01 4.028693e+01 2.405558e+02 2.504546e+00 2.768915e+00 2.538249e+00 2.668071e+00 3.479749e+00 3.143740e+00 3.069190e+00 3.629507e+00 2.944626e+00 2.542872e+00 2.890044e+00 2.359873e+00 4.839236e+00 3.886810e-01 4.228996e-01 3.847530e-01 4.547028e-01 6.058081e-01 5.404139e-01 5.536999e-01 6.474591e-01 5.188053e-01 4.724822e-01 5.316769e-01 4.367589e-01 6.440431e-01
<GCONST> 1.310926e+02
<TRANSP> 5
 0.000000e+00 1.000000e+00 0.000000e+00 0.000000e+00 0.000000e+00
 0.000000e+00 7.169037e-01 2.830963e-01 0.000000e+00 0.000000e+00
 0.000000e+00 0.000000e+00 7.169029e-01 2.830971e-01 0.000000e+00
 0.000000e+00 0.000000e+00 0.000000e+00 8.647339e-01 1.352661e-01
 0.000000e+00 0.000000e+00 0.000000e+00 0.000000e+00 0.000000e+00
<ENDHMM>
~h "ai"
<BEGINHMM>
<NUMSTATES> 5
<STATE> 2
<MEAN> 39
 -5.198978e+00 -3.774617e+00 -6.672802e-01 -4.541949e+00 -9.093295e+00 -2.611549e+00 -8.693862e+00 -2.649385e+00 -3.996063e+00 -2.674706e+00 -1.396063e+00 -5.579272e+00 5.675319e+01 9.045636e-04 -7.139505e-03 1.030575e-02 2.800764e-03 -4.232363e-03 -7.816780e-04 -6.438263e-03 8.972868e-03 -3.151024e-03 -5.231148e-03 2.712622e-03 -6.079377e-04 2.454629e-02 -6.359017e-04 6.019945e-04 1.167038e-04 4.883049e-04 5.413016e-04 -6.647729e-04 1.458004e-04 -9.515335e-04 1.014787e-04 5.121627e-04 6.170508e-05 -1.862359e-04 -5.966318e-04
<VARIANCE> 39
 6.750738e+01 7.076719e+01 7.204684e+01 5.506731e+01 8.043984e+01 7.295889e+01 6.107650e+01 7.118813e+01 6.000389e+01 4.444532e+01 4.895667e+01 4.406311e+01 2.404406e+02 2.723742e+00 3.009334e+00 2.737436e+00 2.756369e+00 3.704620e+00 3.337205e+00 3.142856e+00 3.790209e+00 3.264876e+00 2.707744e+00 2.961375e+00 2.450181e+00 5.625319e+00 4.255784e-01 4.560533e-01 4.289001e-01 4.690153e-01 6.508627e-01 5.726921e-01 5.672880e-01 6.617293e-01 5.760411e-01 5.012115e-01 5.403898e-01 4.410303e-01 7.476258e-01
<GCONST> 1.333656e+02
<STATE> 3
<MEAN> 39
 -5.196757e+00 -3.804797e+00 -6.355509e-01 -4.530807e+00 -9.110501e+00 -2.618323e+00 -8.715490e+00 -2.618262e+00 -4.003321e+00 -2.694039e+00 -1.390907e+00 -5.581440e+00 5.684482e+01 -6.193157e-04 -5.506332e-03 1.012231e-02 3.772450e-03 -3.790504e-03 -2.388502e-03 -6.622206e-03 6.183485e-03 -3.474790e-03 -4.649782e-03 2.680183e-03 -1.056029e-03 2.264433e-02 -3.686768e-04 6.868409e-04 1.053493e-04 2.087990e-04 1.331124e-04 -7.476608e-04 -1.458455e-04 -1.113197e-03 -2.844940e-04 5.647573e-04 -1.920765e-05 -5.668814e-05 -3.558979e-04
<VARIANCE> 39
 6.761790e+01 7.115433e+01 7.200077e+01 5.512368e+01 8.071788e+01 7.317237e+01 6.097241e+01 7.111292e+01 6.014392e+01 4.462147e+01 4.908119e+01 4.399895e+01 2.398060e+02 2.730808e+00 3.017751e+00 2.739979e+00 2.747701e+00 3.715514e+00 3.340469e+00 3.152200e+00 3.787228e+00 3.269433e+00 2.704708e+00 2.962162e+00 2.448912e+00 5.631735e+00 4.264507e-01 4.573959e-01 4.288396e-01 4.671040e-01 6.517562e-01 5.730050e-01 5.689905e-01 6.608713e-01 5.766597e-01 5.005949e-01 5.404640e-01 4.407798e-01 7.482401e-01
<GCONST> 1.333965e+02
<STATE> 4
<MEAN> 39
 -5.075181e+00 -3.848771e+00 -4.333678e-01 -4.456105e+00 -9.189806e+00 -2.395351e+00 -8.938658e+00 -2.420424e+00 -4.057916e+00 -2.583138e+00 -1.496597e+00 -5.552437e+00 5.716819e+01 -6.876762e-04 -4.793597e-03 7.159052e-03 3.428152e-03 -6.901758e-03 -3.400697e-03 -6.899137e-03 3.528803e-03 -3.652307e-03 -4.898878e-03 1.114092e-03 -5.125924e-04 2.111686e-02 6.894938e-05 7.531041e-04 -8.635974e-05 8.422594e-06 -2.892133e-04 -2.783891e-05 -2.683098e-04 -1.067169e-03 -6.793255e-04 2.531834e-04 -2.343662e-04 3.092851e-04 -3.043708e-04
<VARIANCE> 39
 6.851163e+01 7.237704e+01 7.340802e+01 5.504581e+01 8.231769e+01 7.218483e+01 6.154127e+01 7.165240e+01 6.012991e+01 4.474007e+01 4.936197e+01 4.392081e+01 2.341014e+02 2.738241e+00 3.042304e+00 2.757294e+00 2.733775e+00 3.774441e+00 3.308608e+00 3.161005e+00 3.799412e+00 3.245367e+00 2.682012e+00 2.963569e+00 2.437195e+00 5.650570e+00 4.264002e-01 4.599340e-01 4.282038e-01 4.637293e-01 6.615324e-01 5.664364e-01 5.688564e-01 6.615525e-01 5.726531e-01 4.963030e-01 5.396175e-01 4.373430e-01 7.485922e-01
<GCONST> 1.334334e+02
<TRANSP> 5
 0.000000e+00 1.000000e+00 0.000000e+00 0.000000e+00 0.000000e+00
 0.000000e+00 7.158302e-01 2.841698e-01 0.000000e+00 0.000000e+00
 0.000000e+00 0.000000e+00 7.158271e-01 2.841730e-01 0.000000e+00
 0.000000e+00 0.000000e+00 0.000000e+00 8.564364e-01 1.435636e-01
 0.000000e+00 0.000000e+00 0.000000e+00 0.000000e+00 0.000000e+00
<ENDHMM>
~h "au"
<BEGINHMM>
<NUMSTATES> 5
<STATE> 2
<MEAN> 39
 -6.607684e+00 -2.617542e+00 -1.064969e+00 -3.446290e+00 -6.711138e+00 -2.198672e+00 -7.324045e+00 -2.362822e+00 -3.367569e+00 -2.895257e+00 -1.522825e+00 -4.450998e+00 5.252921e+01 1.085420e-02 -1.175978e-02 -1.483240e-03 -1.565884e-02 -5.883397e-03 1.357263e-02 -8.854895e-03 -9.067768e-03 -1.185288e-02 -8.978946e-03 1.905849e-03 -1.225358e-02 3.935755e-02 6.612600e-04 -2.605937e-05 -9.499396e-04 8.359479e-04 1.699375e-04 1.094266e-03 8.270538e-05 5.373561e-04 8.226683e-04 1.476330e-03 -1.174922e-03 -3.086658e-06 -3.366683e-05
<VARIANCE> 39
