~o
<STREAMINFO> 1 39
<VECSIZE> 39<NULLD><MFCC_D_A_0><DIAGC>
~h "proto"
<BEGINHMM>
<NUMSTATES> 5
<STATE> 2
<MEAN> 39
 -5.720369e+00 -3.212366e+00 -9.603557e-01 -4.140341e+00 -8.282138e+00 -2.741488e+00 -8.362382e+00 -2.900852e+00 -4.227129e+00 -2.588475e+00 -1.643602e+00 -5.417910e+00 5.514945e+01 4.041251e-04 8.054070e-04 2.982348e-04 -7.923298e-04 1.777842e-04 5.770657e-04 1.920456e-06 -1.539215e-03 -3.851559e-04 2.390032e-04 -1.168943e-03 -1.209440e-03 7.453487e-05 5.293762e-05 1.484293e-04 1.038093e-04 6.097702e-05 2.683362e-05 9.535497e-05 -3.359811e-05 -1.456941e-05 1.142907e-04 1.394317e-04 6.521364e-05 -2.366633e-05 -8.404750e-05
<VARIANCE> 39
 6.548970e+01 6.558094e+01 6.975499e+01 5.597870e+01 7.619009e+01 6.664177e+01 6.092598e+01 6.794641e+01 5.794476e+01 4.215612e+01 4.686914e+01 4.500091e+01 2.513958e+02 2.532669e+00 2.732701e+00 2.556041e+00 2.640352e+00 3.358491e+00 3.125732e+00 3.024375e+00 3.669678e+00 3.178414e+00 2.664217e+00 2.899224e+00 2.436845e+00 5.033377e+00 3.927859e-01 4.190547e-01 3.991563e-01 4.514541e-01 5.906611e-01 5.447152e-01 5.501792e-01 6.469660e-01 5.645853e-01 4.966201e-01 5.287678e-01 4.459183e-01 6.618989e-01
<GCONST> 1.316507e+02
<STATE> 3
<MEAN> 39
 -5.720369e+00 -3.212366e+00 -9.603557e-01 -4.140341e+00 -8.282138e+00 -2.741488e+00 -8.362382e+00 -2.900852e+00 -4.227129e+00 -2.588475e+00 -1.643602e+00 -5.417910e+00 5.514945e+01 4.041251e-04 8.054070e-04 2.982348e-04 -7.923298e-04 1.777842e-04 5.770657e-04 1.920456e-06 -1.539215e-03 -3.851559e-04 2.390032e-04 -1.168943e-03 -1.209440e-03 7.453487e-05 5.293762e-05 1.484293e-04 1.038093e-04 6.097702e-05 2.683362e-05 9.535497e-05 -3.359811e-05 -1.456941e-05 1.142907e-04 1.394317e-04 6.521364e-05 -2.366633e-05 -8.404750e-05
<VARIANCE> 39
 6.548970e+01 6.558094e+01 6.975499e+01 5.597870e+01 7.619009e+01 6.664177e+01 6.092598e+01 6.794641e+01 5.794476e+01 4.215612e+01 4.686914e+01 4.500091e+01 2.513958e+02 2.532669e+00 2.732701e+00 2.556041e+00 2.640352e+00 3.358491e+00 3.125732e+00 3.024375e+00 3.669678e+00 3.178414e+00 2.664217e+00 2.899224e+00 2.436845e+00 5.033377e+00 3.927859e-01 4.190547e-01 3.991563e-01 4.514541e-01 5.906611e-01 5.447152e-01 5.501792e-01 6.469660e-01 5.645853e-01 4.966201e-01 5.287678e-01 4.459183e-01 6.618989e-01
<GCONST> 1.316507e+02
<STATE> 4
<MEAN> 39
 -5.720369e+00 -3.212366e+00 -9.603557e-01 -4.140341e+00 -8.282138e+00 -2.741488e+00 -8.362382e+00 -2.900852e+00 -4.227129e+00 -2.588475e+00 -1.643602e+00 -5.417910e+00 5.514945e+01 4.041251e-04 8.054070e-04 2.982348e-04 -7.923298e-04 1.777842e-04 5.770657e-04 1.920456e-06 -1.539215e-03 -3.851559e-04 2.390032e-04 -1.168943e-03 -1.209440e-03 7.453487e-05 5.293762e-05 1.484293e-04 1.038093e-04 6.097702e-05 2.683362e-05 9.535497e-05 -3.359811e-05 -1.456941e-05 1.142907e-04 1.394317e-04 6.521364e-05 -2.366633e-05 -8.404750e-05
<VARIANCE> 39
 6.548970e+01 6.558094e+01 6.975499e+01 5.597870e+01 7.619009e+01 6.664177e+01 6.092598e+01 6.794641e+01 5.794476e+01 4.215612e+01 4.686914e+01 4.500091e+01 2.513958e+02 2.532669e+00 2.732701e+00 2.556041e+00 2.640352e+00 3.358491e+00 3.125732e+00 3.024375e+00 3.669678e+00 3.178414e+00 2.664217e+00 2.899224e+00 2.436845e+00 5.033377e+00 3.927859e-01 4.190547e-01 3.991563e-01 4.514541e-01 5.906611e-01 5.447152e-01 5.501792e-01 6.469660e-01 5.645853e-01 4.966201e-01 5.287678e-01 4.459183e-01 6.618989e-01
<GCONST> 1.316507e+02
<TRANSP> 5
 0.000000e+00 1.000000e+00 0.000000e+00 0.000000e+00 0.000000e+00
 0.000000e+00 6.000000e-01 4.000000e-01 0.000000e+00 0.000000e+00
 0.000000e+00 0.000000e+00 6.000000e-01 4.000000e-01 0.000000e+00
 0.000000e+00 0.000000e+00 0.000000e+00 7.000000e-01 3.000000e-01
 0.000000e+00 0.000000e+00 0.000000e+00 0.000000e+00 0.000000e+00
<ENDHMM>
