~o
<STREAMINFO> 1 39
<VECSIZE> 39<NULLD><MFCC_D_A_0><DIAGC>
~h "@"
<BEGINHMM>
<NUMSTATES> 5
<STATE> 2
<MEAN> 39
 -4.934511e+00 -3.569330e+00 -1.107138e+00 -4.731731e+00 -9.600624e+00 -3.976877e+00 -9.674740e+00 -3.882118e+00 -3.799034e+00 -2.665068e+00 -1.483466e+00 -6.440834e+00 6.004467e+01 2.799625e-01 -3.180619e-01 -2.269803e-02 -1.968715e-01 -1.711324e-01 -1.607220e-02 -2.511700e-01 3.197352e-02 1.445193e-01 5.053202e-03 1.132387e-01 -2.046271e-01 6.874722e-01 4.067561e-02 -3.067167e-02 1.842340e-03 -1.404530e-02 -3.287407e-02 4.965435e-02 -1.691598e-02 1.095670e-02 -1.763451e-02 2.087964e-03 9.014549e-03 -2.582340e-02 6.886382e-02
<VARIANCE> 39
 8.453551e+01 6.741656e+01 7.274992e+01 5.650391e+01 7.266676e+01 7.960658e+01 5.898689e+01 7.705651e+01 7.274091e+01 4.521003e+01 5.211048e+01 4.870092e+01 1.910066e+02 4.704807e+00 4.006195e+00 3.442276e+00 3.658164e+00 4.428874e+00 4.126216e+00 4.054299e+00 4.609028e+00 4.572355e+00 3.156528e+00 3.658324e+00 3.452141e+00 9.926803e+00 7.264388e-01 6.372888e-01 5.512396e-01 6.273616e-01 7.927605e-01 7.248883e-01 7.173398e-01 8.141070e-01 7.918173e-01 5.876846e-01 6.691851e-01 6.221887e-01 1.385176e+00
<GCONST> 1.414855e+02
<STATE> 3
<MEAN> 39
 -4.082660e+00 -4.381254e+00 -1.164049e+00 -5.230864e+00 -1.012053e+01 -3.848890e+00 -1.031743e+01 -3.872581e+00 -3.517374e+00 -2.664451e+00 -1.168703e+00 -7.035071e+00 6.189074e+01 3.608934e-01 -3.323730e-01 -7.973324e-03 -1.964243e-01 -2.399375e-01 1.144411e-01 -2.666852e-01 5.239631e-02 5.200144e-02 1.514258e-02 1.093597e-01 -2.401083e-01 7.624362e-01 9.197608e-03 2.541054e-02 1.285925e-02 2.116787e-02 -1.458518e-02 4.810338e-02 1.743477e-02 2.560380e-03 -4.524361e-02 5.451833e-04 -1.162941e-02 1.758846e-03 -4.277837e-02
<VARIANCE> 39
 7.554008e+01 6.761516e+01 7.443110e+01 5.957601e+01 7.289259e+01 8.549193e+01 6.031870e+01 8.121255e+01 7.874876e+01 4.735891e+01 5.497158e+01 5.111983e+01 1.731893e+02 4.618253e+00 4.279279e+00 3.692929e+00 3.959849e+00 4.751763e+00 4.521292e+00 4.226637e+00 5.058712e+00 4.996459e+00 3.331954e+00 3.975357e+00 3.657051e+00 1.047362e+01 7.289561e-01 6.661949e-01 5.821351e-01 6.770931e-01 8.478710e-01 7.806439e-01 7.554431e-01 8.733773e-01 8.586574e-01 6.166419e-01 7.215400e-01 6.663406e-01 1.429688e+00
<GCONST> 1.433080e+02
<STATE> 4
<MEAN> 39
 -2.484154e+00 -5.152320e+00 -1.108592e+00 -5.515059e+00 -1.152566e+01 -2.673128e+00 -1.134022e+01 -3.657744e+00 -3.734955e+00 -2.229806e+00 -8.544911e-01 -7.804012e+00 6.425825e+01 2.040208e-01 -1.430735e-01 4.545418e-03 -8.003173e-02 -1.576555e-01 1.381050e-01 -9.102272e-02 3.144141e-02 -2.795066e-02 -1.852198e-02 2.142503e-02 -1.384658e-01 3.704928e-01 -4.641118e-02 5.926615e-02 7.134479e-03 3.985529e-02 3.536879e-02 -1.116810e-03 5.958347e-02 -1.979660e-02 -1.884673e-02 -1.364641e-02 -2.754691e-02 3.419360e-02 -1.280224e-01
<VARIANCE> 39
 6.042917e+01 6.936923e+01 8.061449e+01 6.135708e+01 7.895832e+01 9.316507e+01 6.358509e+01 9.468571e+01 8.758721e+01 4.841989e+01 6.011916e+01 5.204997e+01 1.418211e+02 4.090525e+00 4.469944e+00 3.872984e+00 4.024638e+00 5.327379e+00 4.770324e+00 4.352581e+00 5.528654e+00 5.190859e+00 3.399308e+00 4.214323e+00 3.635191e+00 9.715410e+00 6.580014e-01 6.812272e-01 6.056947e-01 6.842846e-01 9.516858e-01 8.106561e-01 7.827601e-01 9.562684e-01 8.907286e-01 6.307910e-01 7.686616e-01 6.509253e-01 1.311450e+00
<GCONST> 1.441981e+02
<TRANSP> 5
 0.000000e+00 1.000000e+00 0.000000e+00 0.000000e+00 0.000000e+00
 0.000000e+00 5.462908e-01 4.537092e-01 0.000000e+00 0.000000e+00
 0.000000e+00 0.000000e+00 5.605817e-01 4.394183e-01 0.000000e+00
 0.000000e+00 0.000000e+00 0.000000e+00 7.740171e-01 2.259829e-01
 0.000000e+00 0.000000e+00 0.000000e+00 0.000000e+00 0.000000e+00
<ENDHMM>
~h "a"
<BEGINHMM>
<NUMSTATES> 5
<STATE> 2
<MEAN> 39
 -3.813997e+00 -7.627041e+00 -2.953563e+00 -6.483155e+00 -8.343296e+00 -2.038722e+00 -9.611120e+00 -1.726718e+00 -2.748552e+00 -4.013995e+00 -2.462223e+00 -7.879419e+00 6.378760e+01 -1.287966e-02 -1.520687e-01 -1.375597e-01 3.640053e-02 2.238960e-01 1.180544e-01 1.032978e-01 5.314070e-02 8.260418e-02 -1.361577e-01 -1.543435e-01 -7.366400e-02 -9.674715e-02 -1.799691e-02 1.091227e-01 5.882155e-02 5.165336e-02 -1.451207e-02 -4.628907e-02 -1.087703e-02 -5.252073e-02 -6.953235e-02 5.385948e-02 1.416206e-02 4.926744e-02 -1.241442e-01
<VARIANCE> 39
 5.690078e+01 9.191545e+01 6.880269e+01 5.938400e+01 6.914738e+01 7.699561e+01 5.433803e+01 7.023349e+01 6.893413e+01 5.717805e+01 5.025236e+01 5.066278e+01 1.896590e+02 2.255305e+00 3.113432e+00 2.379837e+00 2.444442e+00 3.098128e+00 3.224302e+00 2.817487e+00 3.605649e+00 3.113003e+00 2.807958e+00 2.897058e+00 2.591515e+00 4.822223e+00 3.624752e-01 4.601498e-01 3.686092e-01 4.307983e-01 5.445439e-01 5.430237e-01 5.224127e-01 6.390556e-01 5.527040e-01 5.090176e-01 5.255977e-01 4.715803e-01 6.537637e-01
<GCONST> 1.318007e+02
<STATE> 3
<MEAN> 39
 -3.861399e+00 -7.608911e+00 -3.085392e+00 -6.255550e+00 -7.887959e+00 -1.917647e+00 -9.444034e+00 -1.747768e+00 -2.809200e+00 -4.101533e+00 -2.760336e+00 -7.901353e+00 6.311802e+01 -6.716313e-03 1.068195e-01 1.807432e-02 1.152909e-01 1.117701e-01 -1.415973e-02 3.879675e-02 -2.849236e-02 -6.806192e-02 2.418598e-02 -9.430382e-02 1.685747e-02 -3.192305e-01 2.055559e-03 9.534750e-02 6.068327e-02 2.865877e-02 -4.614140e-02 -5.364639e-02 -2.336432e-02 -3.882998e-02 -5.162480e-02 5.577977e-02 2.580820e-02 3.503544e-02 -7.005233e-02
<VARIANCE> 39
 5.783285e+01 9.354192e+01 6.680721e+01 5.811861e+01 6.717571e+01 7.358724e+01 5.393742e+01 6.735664e+01 6.672308e+01 5.755834e+01 4.935439e+01 5.099820e+01 1.957559e+02 2.070541e+00 2.887766e+00 2.235774e+00 2.304307e+00 2.877485e+00 3.012050e+00 2.706781e+00 3.404343e+00 2.904817e+00 2.656101e+00 2.706779e+00 2.399119e+00 4.644118e+00 3.333340e-01 4.422422e-01 3.501828e-01 4.041640e-01 4.997043e-01 5.091158e-01 4.999906e-01 6.043296e-01 5.172593e-01 4.901340e-01 4.955722e-01 4.401097e-01 6.287048e-01
<GCONST> 1.300653e+02
<STATE> 4
<MEAN> 39
 -3.459173e+00 -7.291296e+00 -2.871571e+00 -5.925700e+00 -7.566686e+00 -1.801559e+00 -9.582709e+00 -1.300666e+00 -3.481541e+00 -3.397491e+00 -3.410723e+00 -7.870859e+00 6.234227e+01 -2.089744e-02 3.312352e-01 1.582958e-01 1.860514e-01 -2.039634e-02 -1.499637e-01 2.759372e-02 -1.381233e-01 -1.311165e-01 1.005920e-01 -2.473135e-02 1.054892e-01 -4.679295e-01 -1.166252e-02 5.041524e-02 3.448034e-02 1.419279e-02 -3.453213e-02 -3.234879e-02 -2.293363e-03 -4.477045e-02 -1.755289e-02 1.454229e-02 2.703935e-02 2.443420e-02 -1.727610e-02
<VARIANCE> 39
 5.591790e+01 8.865374e+01 6.678778e+01 5.851010e+01 6.888026e+01 7.169029e+01 5.664973e+01 6.877844e+01 6.260873e+01 5.592837e+01 5.288272e+01 4.899208e+01 1.853274e+02 2.317946e+00 3.148248e+00 2.386001e+00 2.547739e+00 3.069175e+00 3.127805e+00 2.982000e+00 3.662738e+00 3.025752e+00 2.753627e+00 2.807475e+00 2.450760e+00 5.258819e+00 3.565576e-01 4.670293e-01 3.722768e-01 4.358826e-01 5.233459e-01 5.277369e-01 5.383726e-01 6.407531e-01 5.267666e-01 5.033652e-01 5.089502e-01 4.375916e-01 6.739964e-01
<GCONST> 1.314396e+02
<TRANSP> 5
 0.000000e+00 1.000000e+00 0.000000e+00 0.000000e+00 0.000000e+00
 0.000000e+00 5.485777e-01 4.514223e-01 0.000000e+00 0.000000e+00
 0.000000e+00 0.000000e+00 5.498172e-01 4.501827e-01 0.000000e+00
 0.000000e+00 0.000000e+00 0.000000e+00 6.993691e-01 3.006310e-01
 0.000000e+00 0.000000e+00 0.000000e+00 0.000000e+00 0.000000e+00
<ENDHMM>
~h "b"
<BEGINHMM>
<NUMSTATES> 5
<STATE> 2
<MEAN> 39
 -1.819496e+00 -2.027237e+00 4.779854e-01 -3.527457e+00 -9.830823e+00 -1.968872e+00 -9.546251e+00 -4.764987e+00 -5.695033e+00 -2.295820e+00 -1.730672e+00 -6.635696e+00 5.838407e+01 1.967351e-01 2.668229e-01 1.201066e-01 1.239485e-01 6.844807e-02 2.897105e-02 2.707869e-02 -3.668645e-02 -6.548234e-02 9.267685e-02 2.375909e-02 3.536252e-02 -1.327202e-01 -3.367260e-02 -6.169633e-02 -3.231787e-02 -8.181209e-02 -1.821503e-02 -1.680578e-02 -4.002403e-02 3.693895e-02 4.456611e-02 -7.834543e-03 2.536123e-02 -1.981393e-03 1.572275e-01
<VARIANCE> 39
 6.629881e+01 6.728743e+01 6.863929e+01 5.985851e+01 7.554649e+01 7.134546e+01 6.124445e+01 8.233596e+01 7.243592e+01 4.448059e+01 5.655520e+01 4.246481e+01 1.797254e+02 3.073921e+00 3.800846e+00 3.137146e+00 3.546023e+00 3.955192e+00 3.695368e+00 3.680695e+00 4.592702e+00 4.478002e+00 3.092579e+00 3.591690e+00 2.872127e+00 6.913023e+00 4.855479e-01 5.982206e-01 4.815746e-01 6.076958e-01 7.161148e-01 6.436428e-01 6.809691e-01 8.089206e-01 7.789153e-01 5.782891e-01 6.564421e-01 5.321576e-01 9.449782e-01
<GCONST> 1.381028e+02
<STATE> 3
<MEAN> 39
 -1.406504e+00 -1.522192e+00 6.708083e-01 -3.498076e+00 -9.752897e+00 -1.892267e+00 -9.600554e+00 -4.793542e+00 -5.735960e+00 -2.081330e+00 -1.549738e+00 -6.557088e+00 5.853538e+01 8.355479e-02 2.470834e-03 -1.700101e-04 -1.115509e-01 -1.071313e-02 -2.677921e-02 -1.156147e-01 6.769653e-02 6.593447e-02 6.959920e-02 9.316709e-02 1.567044e-02 3.368250e-01 -5.634014e-02 -1.259710e-01 -4.706074e-02 -9.319855e-02 -4.576372e-02 -2.176598e-02 -5.596378e-02 3.859060e-02 4.811045e-02 -2.064421e-02 2.581075e-02 -1.319068e-02 1.979504e-01
<VARIANCE> 39
 6.573448e+01 7.055964e+01 6.777358e+01 6.087002e+01 7.516065e+01 7.142220e+01 6.162599e+01 8.057680e+01 7.378609e+01 4.362717e+01 5.685303e+01 4.152700e+01 1.701006e+02 3.470458e+00 4.462988e+00 3.434073e+00 4.008312e+00 4.396162e+00 4.005214e+00 4.069916e+00 4.783846e+00 5.026700e+00 3.245268e+00 3.921762e+00 3.089766e+00 8.536539e+00 5.344190e-01 6.898755e-01 5.237292e-01 6.751610e-01 7.889620e-01 6.974475e-01 7.327127e-01 8.387906e-01 8.525022e-01 6.122340e-01 7.104014e-01 5.697888e-01 1.118042e+00
<GCONST> 1.405886e+02
<STATE> 4
<MEAN> 39
 -9.704800e-01 -2.808951e+00 2.895724e-01 -4.834444e+00 -1.089691e+01 -1.452535e+00 -1.117188e+01 -3.879740e+00 -5.803185e+00 -1.365892e+00 -9.516553e-01 -7.007450e+00 6.217169e+01 -8.073111e-02 -3.230073e-01 -7.954851e-02 -2.216962e-01 -1.446089e-01 -6.537024e-02 -1.400746e-01 1.476110e-01 1.632676e-01 -4.604854e-02 5.667456e-02 -6.139251e-02 6.165468e-01 -3.694445e-02 -1.209849e-02 -8.979532e-04 6.884582e-03 -7.298312e-03 2.406279e-03 3.547633e-02 2.715566e-03 4.925055e-03 -3.628523e-02 -1.791750e-02 -2.262919e-03 -2.698060e-02
<VARIANCE> 39
 5.300090e+01 7.418279e+01 7.671499e+01 7.215915e+01 7.967306e+01 7.739194e+01 6.717487e+01 9.168716e+01 8.318842e+01 4.687603e+01 6.335536e+01 4.469708e+01 1.434028e+02 3.554817e+00 5.196071e+00 4.021067e+00 4.650561e+00 5.713590e+00 4.705464e+00 4.896602e+00 5.879786e+00 5.676112e+00 3.708023e+00 4.784673e+00 3.607686e+00 1.014395e+01 5.774513e-01 7.938861e-01 6.198465e-01 7.771779e-01 1.013873e+00 8.060108e-01 8.847778e-01 1.011654e+00 9.460135e-01 6.917468e-01 8.724348e-01 6.513050e-01 1.383794e+00
<GCONST> 1.454295e+02
<TRANSP> 5
 0.000000e+00 1.000000e+00 0.000000e+00 0.000000e+00 0.000000e+00
 0.000000e+00 5.630245e-01 4.369755e-01 0.000000e+00 0.000000e+00
 0.000000e+00 0.000000e+00 5.678312e-01 4.321688e-01 0.000000e+00
 0.000000e+00 0.000000e+00 0.000000e+00 8.425202e-01 1.574798e-01
 0.000000e+00 0.000000e+00 0.000000e+00 0.000000e+00 0.000000e+00
<ENDHMM>
~h "c"
<BEGINHMM>
<NUMSTATES> 5
<STATE> 2
<MEAN> 39
 -6.261154e+00 -8.937349e-01 5.225087e-01 -2.779629e+00 -8.682682e+00 -5.516246e+00 -8.666118e+00 -3.475078e+00 -4.484743e+00 -2.789570e+00 -2.436539e+00 -5.270379e+00 5.659876e+01 -3.253308e-01 9.158314e-02 1.077307e-03 9.642955e-03 1.337365e-01 -1.030396e-01 5.097724e-02 -1.622882e-02 1.008855e-02 -4.054947e-02 1.902465e-02 1.688092e-01 8.844133e-02 3.677259e-02 -1.275039e-01 -3.363781e-02 -1.098500e-01 -8.994453e-02 4.800202e-02 -8.314437e-02 -4.723878e-04 1.388736e-02 -1.097291e-02 5.659518e-02 -5.933609e-02 2.901047e-01
<VARIANCE> 39
 8.849228e+01 6.013855e+01 6.692793e+01 4.424455e+01 6.706580e+01 5.992237e+01 5.618692e+01 6.961167e+01 5.517295e+01 4.418019e+01 4.804539e+01 4.040820e+01 1.848912e+02 6.347159e+00 4.406779e+00 3.782923e+00 3.449486e+00 4.698071e+00 3.924065e+00 4.094597e+00 4.726964e+00 3.895746e+00 3.108286e+00 3.397928e+00 2.977539e+00 1.072800e+01 1.067008e+00 7.298357e-01 6.228830e-01 6.116699e-01 8.609062e-01 7.426932e-01 7.672317e-01 8.692921e-01 7.211010e-01 5.928389e-01 6.370511e-01 5.527108e-01 1.444506e+00
<GCONST> 1.407751e+02
<STATE> 3
<MEAN> 39
 -7.057048e+00 -1.192619e+00 3.020746e-01 -3.276540e+00 -8.744540e+00 -5.527484e+00 -8.893014e+00 -3.539328e+00 -4.369322e+00 -2.881788e+00 -2.161243e+00 -5.072796e+00 5.798917e+01 -2.626506e-02 -2.951921e-01 -3.784991e-02 -2.799581e-01 -2.073796e-01 1.252493e-02 -2.517855e-01 2.379403e-02 5.899945e-02 -6.552611e-02 1.516035e-01 -6.445789e-02 9.600283e-01 1.455085e-01 -1.149205e-01 -1.236657e-03 -7.968733e-02 -1.099177e-01 5.607221e-02 -9.933200e-02 2.029294e-02 1.171598e-02 -1.604919e-02 4.183952e-02 -9.642189e-02 2.019540e-01
<VARIANCE> 39
 9.430432e+01 5.979307e+01 6.969531e+01 4.642967e+01 6.740808e+01 6.078561e+01 5.526735e+01 6.761639e+01 5.533775e+01 4.439327e+01 4.790647e+01 3.921859e+01 1.815061e+02 7.948308e+00 4.870131e+00 4.448576e+00 3.721105e+00 5.357170e+00 4.407982e+00 4.609641e+00 5.042033e+00 4.430896e+00 3.316731e+00 3.597399e+00 3.297663e+00 1.249082e+01 1.354833e+00 7.838079e-01 7.173875e-01 6.536489e-01 9.639809e-01 8.304808e-01 8.417618e-01 9.141572e-01 7.979856e-01 6.189763e-01 6.717587e-01 6.021995e-01 1.675129e+00
<GCONST> 1.436674e+02
<STATE> 4
<MEAN> 39
 -4.674272e+00 -1.782762e+00 1.605906e+00 -3.961807e+00 -1.137547e+01 -4.280260e+00 -1.127928e+01 -2.903403e+00 -5.312618e+00 -2.785628e+00 -1.166425e+00 -5.954503e+00 6.279815e+01 2.257692e-01 -3.586615e-01 -9.408561e-02 -2.671503e-01 -2.110140e-01 1.406721e-01 -2.203871e-01 6.307234e-02 9.245264e-02 -7.381499e-02 1.238135e-01 -2.023900e-01 7.256685e-01 2.054051e-02 -3.880454e-03 -3.292132e-02 2.348397e-03 3.162533e-02 4.782953e-02 3.692077e-02 -8.717843e-03 6.384801e-03 -6.199240e-03 -8.089296e-03 -1.632234e-02 -9.541921e-02
<VARIANCE> 39
 7.534409e+01 6.542679e+01 8.808437e+01 5.386110e+01 7.858283e+01 7.734841e+01 6.372776e+01 8.451860e+01 6.780840e+01 4.767880e+01 5.648822e+01 4.013208e+01 1.398248e+02 6.328805e+00 4.903449e+00 4.607902e+00 3.991673e+00 6.218672e+00 5.002403e+00 5.161593e+00 5.748884e+00 5.041240e+00 3.454206e+00 4.322340e+00 3.402947e+00 1.053963e+01 1.095772e+00 7.518565e-01 7.288423e-01 7.038122e-01 1.132350e+00 9.112103e-01 9.666291e-01 1.021324e+00 8.873513e-01 6.420371e-01 8.190269e-01 6.109827e-01 1.450897e+00
<GCONST> 1.460468e+02
<TRANSP> 5
 0.000000e+00 1.000000e+00 0.000000e+00 0.000000e+00 0.000000e+00
 0.000000e+00 6.199573e-01 3.800426e-01 0.000000e+00 0.000000e+00
 0.000000e+00 0.000000e+00 6.179574e-01 3.820426e-01 0.000000e+00
 0.000000e+00 0.000000e+00 0.000000e+00 8.297383e-01 1.702617e-01
 0.000000e+00 0.000000e+00 0.000000e+00 0.000000e+00 0.000000e+00
<ENDHMM>
~h "d"
<BEGINHMM>
<NUMSTATES> 5
<STATE> 2
<MEAN> 39
 -3.570571e+00 -2.510975e+00 1.654462e+00 -2.541410e+00 -1.020461e+01 -5.069720e+00 -9.507425e+00 -3.390697e+00 -4.896997e+00 -2.731289e+00 -2.247749e+00 -6.345950e+00 5.828495e+01 1.028571e-01 1.332489e-02 2.031859e-01 9.956273e-02 -7.916160e-02 -1.926775e-01 -6.152184e-02 8.244719e-02 -3.724169e-03 -2.585769e-02 6.542432e-02 4.331787e-02 3.426065e-01 -1.523648e-03 -9.019466e-02 -3.487249e-02 -1.007473e-01 -6.561713e-02 3.850373e-02 -5.219563e-02 1.119417e-02 -1.100266e-02 -9.607333e-03 6.787246e-02 -2.166069e-02 2.387931e-01
<VARIANCE> 39
 7.205844e+01 6.706620e+01 8.206581e+01 5.043959e+01 7.769363e+01 7.102413e+01 5.869521e+01 7.960051e+01 6.381478e+01 4.466759e+01 5.247847e+01 4.463222e+01 1.804378e+02 4.266026e+00 4.494375e+00 3.746043e+00 3.572401e+00 4.952703e+00 3.982569e+00 4.071826e+00 5.494123e+00 4.291446e+00 3.301951e+00 3.842880e+00 3.126080e+00 1.062926e+01 6.907795e-01 6.924149e-01 5.587286e-01 6.022308e-01 8.851763e-01 7.226011e-01 7.319058e-01 9.736153e-01 7.644396e-01 6.212531e-01 7.009052e-01 5.796705e-01 1.444945e+00
<GCONST> 1.417115e+02
<STATE> 3
<MEAN> 39
 -3.244896e+00 -2.824472e+00 2.137782e+00 -2.657941e+00 -1.080473e+01 -5.451251e+00 -9.904873e+00 -3.190692e+00 -4.971533e+00 -2.829483e+00 -1.763022e+00 -6.358413e+00 6.018270e+01 6.835570e-02 -2.235369e-01 9.378882e-02 -1.652212e-01 -2.702817e-01 -5.491082e-02 -1.851894e-01 1.100422e-01 -3.245640e-02 -3.987191e-02 2.321102e-01 -2.110539e-02 8.315847e-01 -1.764447e-02 -6.145879e-02 -4.481188e-02 -7.726238e-02 -5.385909e-02 7.071640e-02 -2.562628e-02 -1.904682e-03 -5.240247e-03 -1.097787e-02 4.319732e-02 -3.021609e-02 8.932947e-02
<VARIANCE> 39
 6.738191e+01 6.572312e+01 8.750209e+01 5.151675e+01 8.055235e+01 7.425053e+01 5.866823e+01 8.171599e+01 6.790665e+01 4.553485e+01 5.383186e+01 4.424511e+01 1.611914e+02 4.673927e+00 4.824490e+00 4.133941e+00 3.858195e+00 5.707782e+00 4.447593e+00 4.459456e+00 6.176464e+00 4.762435e+00 3.455354e+00 4.216709e+00 3.458855e+00 1.152073e+01 7.472232e-01 7.244070e-01 6.005236e-01 6.319748e-01 1.002490e+00 7.909032e-01 7.833115e-01 1.056965e+00 8.238832e-01 6.420053e-01 7.583870e-01 6.248869e-01 1.529162e+00
<GCONST> 1.439504e+02
<STATE> 4
<MEAN> 39
 -2.821344e+00 -3.390694e+00 3.269168e+00 -3.170205e+00 -1.282402e+01 -4.935628e+00 -1.108548e+01 -2.361250e+00 -5.827963e+00 -2.684052e+00 -8.489370e-01 -6.734033e+00 6.368272e+01 -3.822877e-02 -2.383495e-01 -9.535807e-02 -2.282354e-01 -1.883730e-01 1.076112e-01 -9.235498e-02 3.541441e-02 2.860261e-02 -7.205100e-02 1.630619e-01 -5.996504e-02 5.492511e-01 -1.831905e-02 1.368651e-02 -4.969113e-02 -1.810408e-03 4.423415e-02 4.705647e-02 4.091673e-02 -3.393857e-02 1.876566e-02 -1.269034e-02 -3.222372e-02 -1.222527e-02 -9.658848e-02
<VARIANCE> 39
 5.602235e+01 6.778172e+01 9.537148e+01 5.419296e+01 8.899767e+01 7.828047e+01 6.343261e+01 9.548045e+01 7.469855e+01 4.688902e+01 5.949308e+01 4.318390e+01 1.307348e+02 3.997494e+00 4.357906e+00 3.970716e+00 3.645823e+00 6.099717e+00 4.479011e+00 4.608766e+00 6.412323e+00 4.685271e+00 3.336082e+00 4.407448e+00 3.303506e+00 8.945453e+00 6.479856e-01 6.623715e-01 5.754916e-01 6.095546e-01 1.080737e+00 7.890780e-01 8.262112e-01 1.102076e+00 8.032869e-01 6.104736e-01 7.839627e-01 5.884627e-01 1.233335e+00
<GCONST> 1.433330e+02
<TRANSP> 5
 0.000000e+00 1.000000e+00 0.000000e+00 0.000000e+00 0.000000e+00
 0.000000e+00 5.875674e-01 4.124326e-01 0.000000e+00 0.000000e+00
 0.000000e+00 0.000000e+00 5.951788e-01 4.048212e-01 0.000000e+00
 0.000000e+00 0.000000e+00 0.000000e+00 7.982014e-01 2.017986e-01
 0.000000e+00 0.000000e+00 0.000000e+00 0.000000e+00 0.000000e+00
<ENDHMM>
~h "e"
<BEGINHMM>
<NUMSTATES> 5
<STATE> 2
<MEAN> 39
 -3.338011e+00 -5.965768e+00 1.953485e+00 -5.385334e+00 -1.384280e+01 -4.525675e+00 -1.048841e+01 -1.851603e+00 -4.984235e+00 -3.565964e+00 -6.338334e-01 -7.099127e+00 6.501549e+01 -2.133806e-02 4.849234e-02 1.463581e-01 3.972310e-02 -1.487370e-01 1.255656e-02 1.288957e-01 1.821848e-02 -7.350842e-02 -7.784796e-02 -3.676987e-03 -2.075476e-03 -1.299439e-01 -2.449783e-02 7.677478e-02 -4.778717e-02 4.134422e-02 1.217047e-01 4.286384e-03 1.379713e-02 -4.897033e-02 -4.171848e-03 4.611984e-02 -4.386939e-02 2.310507e-02 -1.573246e-01
<VARIANCE> 39
 5.200679e+01 7.589114e+01 1.003824e+02 5.102050e+01 9.788611e+01 8.512012e+01 5.496732e+01 9.136640e+01 6.861447e+01 5.137069e+01 6.640679e+01 4.184108e+01 1.427696e+02 2.211712e+00 2.701833e+00 2.451111e+00 2.265208e+00 3.596940e+00 2.831503e+00 2.904023e+00 3.739120e+00 3.025695e+00 2.549615e+00 2.885210e+00 2.194961e+00 4.151634e+00 3.576408e-01 4.126354e-01 3.784199e-01 3.901289e-01 6.219093e-01 5.064142e-01 5.334575e-01 6.598923e-01 5.472152e-01 4.713827e-01 5.129679e-01 4.005052e-01 5.556266e-01
<GCONST> 1.310761e+02
<STATE> 3
<MEAN> 39
 -3.427019e+00 -5.525711e+00 2.150923e+00 -5.111573e+00 -1.376267e+01 -4.489291e+00 -1.016397e+01 -2.014323e+00 -5.196310e+00 -3.541159e+00 -8.011384e-01 -7.033103e+00 6.413017e+01 -3.468958e-02 1.819276e-01 3.479709e-02 1.187120e-01 9.131753e-02 1.040159e-02 1.036593e-01 -6.594491e-02 -7.091785e-02 2.724668e-02 -8.398455e-02 3.189247e-02 -3.835498e-01 -1.181802e-02 4.205411e-02 -4.301606e-02 2.047408e-02 8.743443e-02 -3.080092e-03 -1.002846e-02 -3.110856e-02 7.492317e-03 3.598615e-02 -2.218689e-02 1.488766e-02 -8.000159e-02
<VARIANCE> 39
 5.407231e+01 7.598275e+01 1.012170e+02 5.083051e+01 9.952586e+01 8.321565e+01 5.440954e+01 8.933076e+01 6.764252e+01 4.971030e+01 6.656163e+01 4.115311e+01 1.496631e+02 1.995243e+00 2.469515e+00 2.198541e+00 2.112378e+00 3.165585e+00 2.582346e+00 2.618415e+00 3.425059e+00 2.766330e+00 2.343597e+00 2.634512e+00 1.994520e+00 3.716927e+00 3.181120e-01 3.796545e-01 3.440433e-01 3.625337e-01 5.549942e-01 4.607539e-01 4.834869e-01 6.050406e-01 4.995647e-01 4.321782e-01 4.713087e-01 3.644560e-01 4.928361e-01
<GCONST> 1.285747e+02
<STATE> 4
<MEAN> 39
 -3.393128e+00 -4.689684e+00 3.336859e+00 -4.604564e+00 -1.426932e+01 -4.080864e+00 -1.024859e+01 -1.537763e+00 -5.913944e+00 -3.057246e+00 -1.095233e+00 -7.031542e+00 6.273394e+01 -6.381210e-02 2.423522e-01 -1.020572e-01 1.513117e-01 2.925698e-01 2.253173e-03 1.128147e-01 -1.425255e-01 -3.492741e-03 5.938576e-02 -1.193768e-01 6.793173e-02 -5.078607e-01 -2.116340e-02 5.367229e-03 -4.011662e-02 -5.568514e-03 5.024563e-02 -2.927722e-03 -3.664584e-03 -2.227111e-02 1.901096e-02 8.944812e-03 1.560395e-03 9.954412e-03 -8.037956e-03
<VARIANCE> 39
 5.150407e+01 7.559254e+01 9.960448e+01 5.020142e+01 1.055728e+02 7.741843e+01 5.773430e+01 8.915316e+01 6.344587e+01 4.597933e+01 6.981671e+01 3.924994e+01 1.527618e+02 2.023198e+00 2.567595e+00 2.257496e+00 2.132093e+00 3.295977e+00 2.640938e+00 2.735181e+00 3.573367e+00 2.758646e+00 2.286237e+00 2.671386e+00 1.975589e+00 3.814373e+00 3.060225e-01 3.832837e-01 3.358113e-01 3.575281e-01 5.534849e-01 4.566447e-01 4.889035e-01 6.094161e-01 4.855212e-01 4.126423e-01 4.640191e-01 3.529043e-01 4.972313e-01
<GCONST> 1.284810e+02
<TRANSP> 5
 0.000000e+00 1.000000e+00 0.000000e+00 0.000000e+00 0.000000e+00
 0.000000e+00 5.631146e-01 4.368854e-01 0.000000e+00 0.000000e+00
 0.000000e+00 0.000000e+00 5.613671e-01 4.386329e-01 0.000000e+00
 0.000000e+00 0.000000e+00 0.000000e+00 7.476304e-01 2.523696e-01
 0.000000e+00 0.000000e+00 0.000000e+00 0.000000e+00 0.000000e+00
<ENDHMM>
~h "f"
<BEGINHMM>
<NUMSTATES> 5
<STATE> 2
<MEAN> 39
 -9.174698e+00 -2.344093e+00 -5.890245e-01 -3.178352e+00 -8.092161e+00 -4.178170e+00 -8.535621e+00 -3.033280e+00 -4.532043e+00 -2.470488e+00 -1.920795e+00 -4.501896e+00 5.975708e+01 -7.669358e-01 1.195332e-01 -3.085051e-02 1.520476e-01 1.496280e-01 -6.226790e-02 7.521386e-02 8.082014e-02 9.200752e-02 -7.555082e-04 2.085911e-02 2.393015e-01 -9.295516e-02 1.272767e-01 -8.199628e-02 2.620033e-02 -6.113540e-02 -9.845410e-02 2.548385e-02 -6.354772e-02 -3.878802e-02 -3.326003e-02 -2.144078e-03 2.834399e-02 -7.021095e-02 8.025549e-02
<VARIANCE> 39
 1.189747e+02 5.551271e+01 7.649416e+01 4.427695e+01 8.022630e+01 6.044908e+01 5.296585e+01 6.167076e+01 5.070175e+01 3.594488e+01 4.326665e+01 3.572793e+01 1.291388e+02 6.170343e+00 3.309228e+00 3.263352e+00 2.860194e+00 4.273770e+00 3.326076e+00 3.218067e+00 3.991630e+00 3.494968e+00 2.739521e+00 3.045864e+00 2.529113e+00 4.311460e+00 8.826107e-01 5.349634e-01 4.983014e-01 5.076169e-01 7.304729e-01 5.760195e-01 5.895594e-01 6.944082e-01 6.324005e-01 5.080793e-01 5.466664e-01 4.501921e-01 5.505080e-01
<GCONST> 1.340921e+02
<STATE> 3
<MEAN> 39
 -1.048526e+01 -2.372052e+00 -5.055822e-01 -2.996042e+00 -8.177296e+00 -4.265579e+00 -8.602946e+00 -3.004503e+00 -4.483335e+00 -2.461474e+00 -1.723321e+00 -4.175072e+00 5.982998e+01 -1.527219e-02 -7.994039e-02 8.815664e-02 -2.366376e-02 -1.566420e-01 1.759170e-02 -1.079058e-01 -5.378952e-02 -4.611840e-02 -2.377669e-02 8.584604e-02 -1.933464e-02 1.478644e-01 2.527296e-01 -5.325149e-02 2.730634e-02 -5.941309e-02 -8.869708e-02 3.520072e-02 -6.024772e-02 -3.547080e-02 -3.769011e-02 -8.289074e-03 2.437553e-02 -8.985338e-02 7.442883e-02
<VARIANCE> 39
 1.303030e+02 5.558126e+01 7.932737e+01 4.331762e+01 7.974746e+01 5.828982e+01 5.215437e+01 5.847389e+01 5.001151e+01 3.502174e+01 4.130338e+01 3.482776e+01 1.243260e+02 7.200958e+00 3.062875e+00 3.437907e+00 2.810748e+00 4.285770e+00 3.352545e+00 3.290745e+00 3.871574e+00 3.487460e+00 2.726817e+00 2.950763e+00 2.585570e+00 4.183050e+00 9.994327e-01 5.062212e-01 5.130813e-01 5.021583e-01 7.432162e-01 5.940329e-01 6.006336e-01 6.910180e-01 6.332340e-01 5.170596e-01 5.411890e-01 4.600500e-01 5.348001e-01
<GCONST> 1.341565e+02
<STATE> 4
<MEAN> 39
 -8.287777e+00 -2.522010e+00 1.473055e+00 -3.483256e+00 -1.031968e+01 -3.932199e+00 -1.004626e+01 -2.962213e+00 -5.509736e+00 -2.411050e+00 -9.925405e-01 -4.910046e+00 6.182008e+01 6.070203e-01 -1.556330e-01 1.077898e-01 -1.867083e-01 -3.443462e-01 8.626772e-02 -1.963677e-01 -1.333640e-01 -7.747789e-02 -1.039114e-01 1.418499e-01 -2.214890e-01 2.825331e-01 6.452267e-02 -1.794618e-02 -2.979220e-02 -3.764164e-02 -6.147473e-03 3.007034e-02 8.219038e-03 -4.593883e-03 1.907775e-02 -1.706363e-02 3.843191e-03 -3.203521e-02 8.240448e-04
<VARIANCE> 39
 1.183243e+02 6.202798e+01 9.998328e+01 4.820814e+01 9.935632e+01 6.307141e+01 5.899121e+01 6.558308e+01 5.744084e+01 3.762790e+01 4.631634e+01 3.720959e+01 1.250678e+02 7.370859e+00 3.438763e+00 3.853949e+00 3.141156e+00 5.143835e+00 3.779658e+00 3.822495e+00 4.253108e+00 3.785850e+00 2.939658e+00 3.210886e+00 2.777412e+00 4.416665e+00 1.081806e+00 5.208275e-01 5.428181e-01 5.333602e-01 8.517673e-01 6.404994e-01 6.829974e-01 7.291613e-01 6.735370e-01 5.442886e-01 5.786462e-01 4.833835e-01 5.616668e-01
<GCONST> 1.376165e+02
<TRANSP> 5
 0.000000e+00 1.000000e+00 0.000000e+00 0.000000e+00 0.000000e+00
 0.000000e+00 6.048585e-01 3.951415e-01 0.000000e+00 0.000000e+00
 0.000000e+00 0.000000e+00 6.057172e-01 3.942828e-01 0.000000e+00
 0.000000e+00 0.000000e+00 0.000000e+00 7.609041e-01 2.390959e-01
 0.000000e+00 0.000000e+00 0.000000e+00 0.000000e+00 0.000000e+00
<ENDHMM>
~h "g"
<BEGINHMM>
<NUMSTATES> 5
<STATE> 2
<MEAN> 39
 -2.016059e+00 -3.131123e+00 1.081445e+00 -4.037872e+00 -1.088716e+01 -3.603017e+00 -1.045635e+01 -3.215760e+00 -5.384802e+00 -1.780365e+00 -1.311938e+00 -6.640666e+00 6.132183e+01 -3.865135e-02 2.185102e-01 1.704896e-01 2.143230e-01 1.087685e-02 -1.731815e-01 1.180211e-01 -6.992353e-02 -6.419324e-02 3.877994e-02 1.199592e-02 1.575069e-01 -2.370817e-01 -4.168563e-02 -3.905918e-02 -3.652666e-02 -4.749559e-02 1.197531e-02 3.235516e-02 -5.003554e-03 2.364475e-03 2.858499e-02 -2.842652e-02 -3.342289e-03 -9.703912e-03 4.499258e-02
<VARIANCE> 39
 5.793198e+01 6.555282e+01 8.180006e+01 5.669884e+01 7.988599e+01 8.407876e+01 6.072799e+01 8.798920e+01 7.037151e+01 4.711963e+01 5.462284e+01 4.063129e+01 1.539232e+02 2.799652e+00 3.563871e+00 3.331586e+00 3.474297e+00 4.480484e+00 4.292901e+00 3.524577e+00 4.649654e+00 4.166903e+00 3.188523e+00 3.539943e+00 2.643299e+00 6.368562e+00 4.553781e-01 5.341814e-01 5.254908e-01 5.633476e-01 8.181342e-01 7.580619e-01 6.386276e-01 8.101903e-01 7.308123e-01 5.871481e-01 6.467994e-01 4.841055e-01 8.304783e-01
<GCONST> 1.378214e+02
<STATE> 3
<MEAN> 39
 -2.172076e+00 -2.825924e+00 1.402877e+00 -3.764408e+00 -1.095588e+01 -3.916029e+00 -1.028233e+01 -3.341226e+00 -5.466148e+00 -1.793777e+00 -1.218176e+00 -6.362535e+00 6.119283e+01 -1.089293e-01 7.830787e-02 6.515642e-02 4.530184e-02 3.871944e-03 -7.234969e-02 8.873095e-02 -1.992430e-02 2.422057e-02 -3.726491e-02 5.412265e-03 9.295956e-02 -6.924009e-02 -3.262874e-02 -5.389911e-02 -5.076826e-02 -6.395688e-02 1.173156e-02 4.847804e-02 -9.110325e-03 1.840482e-02 3.234912e-02 -3.542842e-02 -5.852528e-03 -2.661230e-02 4.865541e-02
<VARIANCE> 39
 5.921085e+01 6.447664e+01 8.125539e+01 5.504115e+01 8.123891e+01 8.537432e+01 6.015007e+01 8.851221e+01 7.087956e+01 4.725398e+01 5.471708e+01 3.910766e+01 1.515910e+02 2.790973e+00 3.540994e+00 3.346888e+00 3.497044e+00 4.717892e+00 4.324468e+00 3.512117e+00 4.609033e+00 4.251684e+00 3.188758e+00 3.645125e+00 2.638804e+00 6.429148e+00 4.561926e-01 5.256628e-01 5.237888e-01 5.671891e-01 8.553753e-01 7.725849e-01 6.297772e-01 8.049048e-01 7.362232e-01 5.883959e-01 6.719886e-01 4.764971e-01 8.203307e-01
<GCONST> 1.379344e+02
<STATE> 4
<MEAN> 39
 -2.066638e+00 -2.538242e+00 2.242401e+00 -3.264437e+00 -1.147456e+01 -3.545436e+00 -1.027306e+01 -1.970694e+00 -5.701084e+00 -1.172455e+00 -1.516097e+00 -6.128680e+00 6.163266e+01 -1.703354e-01 -7.159670e-03 -6.370255e-02 -4.525575e-02 1.033714e-01 9.867734e-03 9.630252e-02 -1.372842e-02 8.927996e-02 -1.150786e-01 -2.122761e-02 4.538269e-02 -6.905938e-02 -2.806010e-02 -3.737401e-02 -4.370611e-02 -3.625643e-02 2.499812e-02 1.770205e-02 -5.620789e-03 -6.222768e-03 1.894270e-02 -2.763467e-02 5.067473e-03 -1.322095e-02 3.367091e-02
<VARIANCE> 39
 5.658467e+01 6.535077e+01 7.760812e+01 5.424141e+01 8.622958e+01 7.602281e+01 6.211684e+01 1.006020e+02 6.894636e+01 4.613657e+01 5.642324e+01 3.685330e+01 1.426558e+02 2.433190e+00 3.193162e+00 2.958666e+00 3.137488e+00 4.513823e+00 3.721307e+00 3.365710e+00 4.561792e+00 3.822972e+00 2.897307e+00 3.442037e+00 2.419803e+00 5.078789e+00 3.865849e-01 4.831795e-01 4.522032e-01 5.203096e-01 8.039017e-01 6.580961e-01 6.074703e-01 7.683799e-01 6.624665e-01 5.309760e-01 6.263157e-01 4.362852e-01 6.698048e-01
<GCONST> 1.351455e+02
<TRANSP> 5
 0.000000e+00 1.000000e+00 0.000000e+00 0.000000e+00 0.000000e+00
 0.000000e+00 5.550932e-01 4.449068e-01 0.000000e+00 0.000000e+00
 0.000000e+00 0.000000e+00 5.574505e-01 4.425496e-01 0.000000e+00
 0.000000e+00 0.000000e+00 0.000000e+00 7.414098e-01 2.585902e-01
 0.000000e+00 0.000000e+00 0.000000e+00 0.000000e+00 0.000000e+00
<ENDHMM>
~h "h"
<BEGINHMM>
<NUMSTATES> 5
<STATE> 2
<MEAN> 39
 -5.764032e+00 -4.328121e+00 -1.747182e+00 -3.938010e+00 -6.500197e+00 -2.574342e+00 -7.832212e+00 -2.642710e+00 -4.388627e+00 -2.897527e+00 -2.310637e+00 -5.567783e+00 5.901386e+01 -2.839391e-01 9.719681e-02 -4.335202e-02 1.095464e-01 2.247702e-01 -2.519176e-02 1.650293e-01 7.158003e-03 1.777029e-02 1.559513e-02 8.690951e-04 2.050938e-01 -3.802055e-01 3.315930e-02 -3.460556e-02 5.524635e-03 -5.786319e-02 -7.595693e-02 1.261662e-04 -5.623823e-02 -1.404306e-02 -4.760348e-03 -2.130426e-03 1.340203e-02 -2.996928e-02 6.544906e-02
<VARIANCE> 39
 7.610246e+01 7.113422e+01 7.309289e+01 5.436303e+01 8.226604e+01 6.319933e+01 5.420570e+01 6.822622e+01 6.216899e+01 4.574919e+01 4.746272e+01 4.349232e+01 1.762213e+02 3.025800e+00 3.223586e+00 2.794485e+00 2.753413e+00 3.518629e+00 2.978185e+00 3.007451e+00 3.839379e+00 3.381024e+00 2.725953e+00 2.953002e+00 2.570908e+00 4.750352e+00 4.495167e-01 5.078478e-01 4.356225e-01 4.714999e-01 5.876084e-01 5.123101e-01 5.468366e-01 6.716649e-01 5.962040e-01 5.039226e-01 5.400975e-01 4.696096e-01 6.256116e-01
<GCONST> 1.327052e+02
<STATE> 3
<MEAN> 39
 -6.320549e+00 -4.226318e+00 -1.866470e+00 -3.890969e+00 -6.222827e+00 -2.602719e+00 -7.645257e+00 -2.668144e+00 -4.328965e+00 -2.853799e+00 -2.266342e+00 -5.215199e+00 5.828645e+01 -1.212595e-01 4.632525e-02 -8.144174e-03 -1.632714e-02 2.060390e-02 -2.581429e-02 1.948956e-02 -2.426812e-02 -7.750118e-03 1.412605e-02 1.918496e-02 9.010584e-02 -2.030865e-01 6.985380e-02 -2.131283e-02 1.574413e-02 -4.486247e-02 -8.209020e-02 2.158680e-03 -5.901230e-02 -9.271340e-03 -4.613844e-03 -5.682271e-03 1.375233e-02 -4.968832e-02 8.146695e-02
<VARIANCE> 39
 8.226530e+01 6.960642e+01 7.281124e+01 5.370451e+01 8.035572e+01 6.159159e+01 5.304087e+01 6.412203e+01 6.102048e+01 4.454156e+01 4.580899e+01 4.225782e+01 1.777249e+02 3.295253e+00 3.178347e+00 2.846332e+00 2.817407e+00 3.457725e+00 2.928437e+00 3.000739e+00 3.759456e+00 3.360488e+00 2.717573e+00 2.903632e+00 2.574639e+00 5.084145e+00 4.943978e-01 4.915337e-01 4.456406e-01 4.748891e-01 5.845200e-01 5.084053e-01 5.413902e-01 6.618091e-01 5.918427e-01 5.008822e-01 5.321496e-01 4.667540e-01 6.412979e-01
<GCONST> 1.326546e+02
<STATE> 4
<MEAN> 39
 -6.051583e+00 -4.228830e+00 -1.642519e+00 -4.368297e+00 -6.490110e+00 -2.388184e+00 -7.887847e+00 -2.515960e+00 -4.747364e+00 -2.460620e+00 -2.156316e+00 -5.279078e+00 5.878394e+01 8.251797e-02 2.412293e-02 3.797058e-02 -6.280173e-02 -1.581091e-01 -2.461218e-02 -8.701134e-02 -4.640219e-02 7.280220e-03 -2.778611e-02 3.815263e-02 -4.764125e-02 -1.857716e-02 4.410374e-02 -1.441956e-02 8.512558e-03 -9.633060e-03 -4.871988e-02 -4.941260e-04 -2.546436e-02 -6.462074e-03 1.271286e-02 -1.561467e-02 1.095196e-02 -3.379208e-02 5.453558e-02
<VARIANCE> 39
 8.426324e+01 7.083514e+01 7.873036e+01 5.844556e+01 7.993406e+01 6.375899e+01 5.661206e+01 6.360303e+01 6.366735e+01 4.494392e+01 4.670267e+01 4.135337e+01 1.734810e+02 3.857151e+00 3.265895e+00 3.052811e+00 3.029941e+00 3.625712e+00 3.072986e+00 3.240399e+00 3.935772e+00 3.482389e+00 2.771771e+00 2.939607e+00 2.584240e+00 5.274729e+00 5.633754e-01 5.079296e-01 4.811139e-01 5.088444e-01 6.124918e-01 5.347905e-01 5.809502e-01 6.840463e-01 6.046519e-01 5.050757e-01 5.411267e-01 4.619269e-01 6.652016e-01
<GCONST> 1.342066e+02
<TRANSP> 5
 0.000000e+00 1.000000e+00 0.000000e+00 0.000000e+00 0.000000e+00
 0.000000e+00 5.395439e-01 4.604562e-01 0.000000e+00 0.000000e+00
 0.000000e+00 0.000000e+00 5.405146e-01 4.594854e-01 0.000000e+00
 0.000000e+00 0.000000e+00 0.000000e+00 6.833395e-01 3.166605e-01
 0.000000e+00 0.000000e+00 0.000000e+00 0.000000e+00 0.000000e+00
<ENDHMM>
~h "i"
<BEGINHMM>
<NUMSTATES> 5
<STATE> 2
<MEAN> 39
 -5.522706e+00 -1.926777e+00 5.499540e+00 -3.758829e+00 -1.369824e+01 -5.431076e+00 -1.062820e+01 -5.212543e+00 -7.733914e+00 -3.474160e+00 2.874429e-01 -5.903367e+00 6.170959e+01 -6.169173e-02 2.072122e-01 4.159056e-01 2.386637e-02 -2.688212e-01 -2.524739e-02 -6.450250e-02 -2.196536e-01 -2.134018e-01 -4.500299e-02 1.494973e-01 5.599450e-02 -1.577486e-01 3.141267e-03 -2.330477e-02 -1.318823e-01 -8.297391e-03 9.752717e-02 3.809578e-02 3.455738e-02 6.713844e-02 8.047187e-02 3.173253e-02 -5.671814e-02 -1.382822e-02 -6.751018e-02
<VARIANCE> 39
 6.488106e+01 5.340845e+01 1.224349e+02 4.816314e+01 1.009409e+02 7.888792e+01 6.245356e+01 7.785363e+01 6.402026e+01 4.262885e+01 5.547106e+01 3.846984e+01 1.422830e+02 3.105314e+00 2.562002e+00 3.696477e+00 2.425710e+00 4.450616e+00 3.175507e+00 3.643555e+00 3.854431e+00 3.441253e+00 2.557004e+00 3.169973e+00 2.287457e+00 4.613295e+00 4.631169e-01 4.082577e-01 5.263306e-01 4.179300e-01 7.336839e-01 5.705698e-01 6.286187e-01 6.766106e-01 6.035162e-01 4.684851e-01 5.491470e-01 4.088906e-01 6.076666e-01
<GCONST> 1.335992e+02
<STATE> 3
<MEAN> 39
 -5.636474e+00 -1.448280e+00 5.994010e+00 -3.686563e+00 -1.391854e+01 -5.340360e+00 -1.059347e+01 -5.502530e+00 -7.953275e+00 -3.421901e+00 3.637516e-01 -5.807596e+00 6.088795e+01 -1.423782e-02 1.220241e-01 1.458153e-02 3.200801e-02 2.645521e-02 1.466169e-02 5.740697e-02 -8.546149e-03 -5.298463e-03 4.071989e-02 -2.555516e-02 2.761418e-02 -3.106475e-01 1.262405e-02 -3.791734e-02 -1.317594e-01 -4.942634e-03 9.911622e-02 1.324594e-02 3.179125e-02 6.630250e-02 7.180852e-02 2.175257e-02 -5.683581e-02 -1.339147e-02 -2.631463e-02
<VARIANCE> 39
 6.307586e+01 5.229394e+01 1.245883e+02 4.775917e+01 1.023066e+02 7.709662e+01 6.249142e+01 7.553544e+01 6.272993e+01 4.176258e+01 5.420153e+01 3.759877e+01 1.501737e+02 2.685777e+00 2.453280e+00 3.256481e+00 2.279150e+00 3.954345e+00 2.907765e+00 3.316985e+00 3.583697e+00 3.189705e+00 2.419782e+00 2.911226e+00 2.144056e+00 4.330933e+00 4.161148e-01 3.861559e-01 4.779179e-01 3.942341e-01 6.694633e-01 5.264282e-01 5.900805e-01 6.320108e-01 5.628383e-01 4.490993e-01 5.157436e-01 3.909047e-01 5.673518e-01
<GCONST> 1.314826e+02
<STATE> 4
<MEAN> 39
 -5.390681e+00 -7.971003e-01 7.008608e+00 -3.711033e+00 -1.419442e+01 -4.652987e+00 -1.070123e+01 -4.980491e+00 -8.472994e+00 -2.933383e+00 6.732941e-02 -5.946160e+00 5.969224e+01 5.684273e-03 -1.520411e-02 -3.836357e-01 4.481453e-02 3.197965e-01 9.851542e-03 1.953233e-01 1.145965e-01 1.921811e-01 3.649118e-02 -1.721100e-01 3.246001e-02 -3.724082e-01 -5.714486e-03 -4.278213e-02 -8.725125e-02 -1.404056e-02 6.201602e-02 1.182751e-02 8.954114e-03 1.681292e-02 4.765213e-02 -6.771627e-03 -2.544501e-02 -6.667818e-03 2.350367e-02
<VARIANCE> 39
 5.562782e+01 5.599415e+01 1.180986e+02 4.969276e+01 1.021940e+02 7.489072e+01 6.764014e+01 7.566615e+01 5.959013e+01 4.064614e+01 5.350267e+01 3.654472e+01 1.589167e+02 2.510849e+00 2.595359e+00 3.286460e+00 2.373182e+00 4.062634e+00 2.982551e+00 3.480554e+00 3.707269e+00 3.178260e+00 2.457054e+00 2.942868e+00 2.183945e+00 4.597128e+00 3.797994e-01 3.958446e-01 4.588811e-01 4.056128e-01 6.727629e-01 5.250947e-01 6.042874e-01 6.352542e-01 5.560854e-01 4.500137e-01 5.156879e-01 3.910465e-01 5.957986e-01
<GCONST> 1.316642e+02
<TRANSP> 5
 0.000000e+00 1.000000e+00 0.000000e+00 0.000000e+00 0.000000e+00
 0.000000e+00 5.921285e-01 4.078715e-01 0.000000e+00 0.000000e+00
 0.000000e+00 0.000000e+00 5.921922e-01 4.078077e-01 0.000000e+00
 0.000000e+00 0.000000e+00 0.000000e+00 7.674107e-01 2.325893e-01
 0.000000e+00 0.000000e+00 0.000000e+00 0.000000e+00 0.000000e+00
<ENDHMM>
~h "j"
<BEGINHMM>
<NUMSTATES> 5
<STATE> 2
<MEAN> 39
 -4.766018e+00 -1.009418e+00 2.235796e+00 -2.571184e+00 -1.056218e+01 -5.208720e+00 -9.410107e+00 -3.453900e+00 -4.617852e+00 -3.388963e+00 -1.803153e+00 -5.632106e+00 5.916993e+01 -1.432613e-01 2.248564e-01 2.267573e-01 7.070264e-02 1.633808e-02 -1.193817e-01 1.976850e-03 4.454362e-02 -2.947968e-03 -6.080174e-02 4.613363e-02 1.257924e-01 1.067137e-01 -2.508687e-03 -1.024584e-01 -5.438190e-02 -9.164703e-02 -3.871676e-02 4.189770e-02 -4.244918e-02 -3.089482e-03 1.481640e-03 3.893895e-03 5.000580e-02 -2.890314e-02 1.766944e-01
<VARIANCE> 39
 7.615573e+01 6.312955e+01 7.998833e+01 4.655697e+01 8.473904e+01 7.272944e+01 5.512688e+01 6.285436e+01 5.982693e+01 4.400729e+01 4.924992e+01 3.663805e+01 1.623489e+02 5.716117e+00 4.620963e+00 3.542331e+00 3.425216e+00 5.625275e+00 4.153722e+00 3.920480e+00 4.562705e+00 4.147147e+00 3.070433e+00 3.673079e+00 2.906813e+00 9.042791e+00 9.801645e-01 7.184904e-01 5.602509e-01 5.888910e-01 1.023785e+00 7.675887e-01 6.998950e-01 8.217924e-01 7.776129e-01 5.945399e-01 6.716059e-01 5.359814e-01 1.251681e+00
<GCONST> 1.408152e+02
<STATE> 3
<MEAN> 39
 -5.169098e+00 -8.026052e-01 2.682978e+00 -2.769783e+00 -1.078203e+01 -5.407287e+00 -9.595293e+00 -3.427659e+00 -4.635048e+00 -3.507822e+00 -1.387500e+00 -5.410656e+00 6.024319e+01 -5.144335e-02 -1.482235e-01 8.096026e-02 -1.887557e-01 -2.001249e-01 -4.239283e-02 -1.543834e-01 4.908264e-02 4.998675e-03 -4.438113e-02 1.987970e-01 2.073414e-02 6.158706e-01 5.189674e-02 -1.255684e-01 -6.091410e-02 -7.065255e-02 -6.002779e-02 4.013723e-02 -3.677212e-02 2.134266e-02 1.356644e-02 2.784654e-03 3.331502e-02 -4.560925e-02 1.128719e-01
<VARIANCE> 39
 7.659528e+01 6.428440e+01 8.220483e+01 4.682815e+01 8.979868e+01 7.460349e+01 5.361861e+01 6.088139e+01 6.072775e+01 4.314137e+01 4.993010e+01 3.647911e+01 1.540228e+02 6.809838e+00 5.186349e+00 3.878088e+00 3.606159e+00 6.654839e+00 4.573564e+00 4.024569e+00 4.781238e+00 4.341897e+00 3.100575e+00 3.907877e+00 3.076200e+00 9.743801e+00 1.184579e+00 7.869556e-01 6.331316e-01 6.189123e-01 1.213455e+00 8.467448e-01 7.227488e-01 8.672819e-01 8.110653e-01 5.980170e-01 7.125531e-01 5.675939e-01 1.324144e+00
<GCONST> 1.428940e+02
<STATE> 4
<MEAN> 39
 -4.336656e+00 -2.039010e+00 3.821314e+00 -3.594910e+00 -1.363742e+01 -4.657730e+00 -1.087265e+01 -3.107579e+00 -5.101838e+00 -3.528309e+00 -3.904995e-01 -5.950841e+00 6.366805e+01 1.107885e-01 -4.188549e-01 -2.087322e-01 -2.481456e-01 -1.402554e-01 8.684002e-02 -8.519299e-02 1.170301e-01 1.197506e-01 -5.736965e-02 8.259089e-02 -1.023225e-01 5.196943e-01 2.064506e-02 -3.173264e-02 -8.370174e-02 -1.619782e-03 6.550778e-02 5.575987e-02 2.961438e-02 -1.249878e-02 2.693296e-02 -1.557779e-03 -4.573815e-02 -2.983300e-02 -6.940567e-02
<VARIANCE> 39
 6.350328e+01 7.191412e+01 9.405846e+01 4.962216e+01 1.009539e+02 7.887833e+01 5.810930e+01 7.314342e+01 7.154427e+01 4.390190e+01 5.565028e+01 3.798431e+01 1.340943e+02 5.664253e+00 5.254512e+00 4.259788e+00 3.468472e+00 7.136498e+00 4.892239e+00 4.260810e+00 5.249536e+00 4.362711e+00 3.110173e+00 4.285627e+00 3.123964e+00 8.347843e+00 9.940929e-01 7.502256e-01 6.658911e-01 5.995712e-01 1.305044e+00 8.898769e-01 7.779661e-01 9.311607e-01 7.692812e-01 5.810250e-01 7.701135e-01 5.636578e-01 1.120265e+00
<GCONST> 1.436568e+02
<TRANSP> 5
 0.000000e+00 1.000000e+00 0.000000e+00 0.000000e+00 0.000000e+00
 0.000000e+00 6.221193e-01 3.778807e-01 0.000000e+00 0.000000e+00
 0.000000e+00 0.000000e+00 6.234233e-01 3.765767e-01 0.000000e+00
 0.000000e+00 0.000000e+00 0.000000e+00 8.192868e-01 1.807132e-01
 0.000000e+00 0.000000e+00 0.000000e+00 0.000000e+00 0.000000e+00
<ENDHMM>
~h "k"
<BEGINHMM>
<NUMSTATES> 5
<STATE> 2
<MEAN> 39
 -4.842018e+00 -3.864555e+00 -1.212330e+00 -4.499134e+00 -8.885798e+00 -3.795926e+00 -9.087900e+00 -2.562313e+00 -4.591743e+00 -2.648931e+00 -2.101430e+00 -6.441622e+00 5.769207e+01 -1.390069e-01 -3.278442e-02 -1.210754e-01 2.325115e-02 1.211428e-01 -8.779650e-02 3.918824e-02 1.028173e-01 3.307206e-02 2.961754e-02 -6.704723e-02 5.922959e-02 -9.726843e-02 1.741846e-02 -4.979676e-02 -5.866710e-03 -5.205467e-02 -3.072919e-02 2.794455e-02 -3.652316e-02 -1.060149e-02 -1.276378e-02 -2.635227e-03 1.759147e-02 -2.249586e-02 1.588616e-01
<VARIANCE> 39
 6.537306e+01 7.384948e+01 7.173571e+01 5.682160e+01 7.637702e+01 7.149751e+01 5.667138e+01 6.885567e+01 5.643821e+01 4.612246e+01 5.141235e+01 4.842796e+01 2.076379e+02 3.033243e+00 3.648458e+00 3.010097e+00 2.955629e+00 3.909918e+00 3.597179e+00 3.382279e+00 3.914438e+00 3.412652e+00 3.159204e+00 3.191539e+00 2.932898e+00 8.093105e+00 4.854173e-01 5.639357e-01 4.782081e-01 5.255631e-01 7.144193e-01 6.499810e-01 6.366655e-01 6.989142e-01 6.101400e-01 5.961599e-01 5.825829e-01 5.418991e-01 1.098869e+00
<GCONST> 1.365655e+02
<STATE> 3
<MEAN> 39
 -5.022550e+00 -4.130591e+00 -1.486389e+00 -4.654256e+00 -8.787835e+00 -3.885833e+00 -9.169392e+00 -2.357966e+00 -4.552575e+00 -2.581913e+00 -2.172817e+00 -6.452604e+00 5.812996e+01 -5.207053e-02 -1.452212e-01 -1.168868e-01 -1.026273e-01 3.465789e-02 -9.338425e-03 -4.685988e-02 9.063084e-02 1.272610e-02 6.335468e-03 -2.054119e-02 -2.805704e-02 2.901407e-01 3.546240e-02 -2.826222e-02 7.498815e-03 -4.038512e-02 -3.370634e-02 3.888834e-02 -2.564247e-02 -1.745217e-02 -4.105493e-03 -1.871400e-02 2.350774e-02 -2.926211e-02 1.219762e-01
<VARIANCE> 39
 6.678452e+01 7.482313e+01 7.155946e+01 5.639409e+01 7.560319e+01 7.285474e+01 5.606422e+01 6.736330e+01 5.524146e+01 4.615993e+01 5.088270e+01 4.805819e+01 2.065831e+02 3.283685e+00 3.884854e+00 3.207805e+00 3.173087e+00 4.132982e+00 3.850111e+00 3.548723e+00 4.020555e+00 3.486428e+00 3.336252e+00 3.266220e+00 3.141538e+00 9.368757e+00 5.182238e-01 5.758014e-01 5.110108e-01 5.469549e-01 7.472363e-01 6.755794e-01 6.514287e-01 7.137898e-01 6.193658e-01 6.219886e-01 5.990319e-01 5.713199e-01 1.171988e+00
<GCONST> 1.378338e+02
<STATE> 4
<MEAN> 39
 -4.746009e+00 -5.030712e+00 -1.627814e+00 -5.265088e+00 -8.967471e+00 -3.729968e+00 -9.577361e+00 -1.558938e+00 -4.763695e+00 -2.480005e+00 -2.318316e+00 -6.989213e+00 6.016656e+01 2.173864e-02 -1.302831e-01 -6.879402e-02 -1.227505e-01 -2.176396e-02 6.122230e-02 -3.897597e-02 4.560437e-03 3.169389e-02 -7.497611e-02 2.264382e-02 -6.630605e-02 3.846275e-01 1.563566e-02 1.651138e-02 1.443840e-02 1.299847e-03 -1.153115e-02 2.541773e-02 7.498790e-03 -4.578747e-02 6.894230e-03 -2.371351e-02 1.973210e-02 6.705133e-04 8.623091e-04
<VARIANCE> 39
 6.417146e+01 7.989030e+01 7.561860e+01 5.844591e+01 7.798884e+01 7.570603e+01 5.777351e+01 7.114286e+01 5.556856e+01 4.724274e+01 5.292648e+01 4.782391e+01 1.997270e+02 3.210405e+00 3.871619e+00 3.300819e+00 3.258178e+00 4.283650e+00 3.880829e+00 3.611570e+00 4.257727e+00 3.474297e+00 3.319176e+00 3.301934e+00 3.134299e+00 8.952012e+00 5.136886e-01 5.664417e-01 5.255102e-01 5.477492e-01 7.654982e-01 6.696203e-01 6.600811e-01 7.460516e-01 6.132141e-01 6.096483e-01 6.040978e-01 5.641209e-01 1.098002e+00
<GCONST> 1.382138e+02
<TRANSP> 5
 0.000000e+00 1.000000e+00 0.000000e+00 0.000000e+00 0.000000e+00
 0.000000e+00 5.326386e-01 4.673614e-01 0.000000e+00 0.000000e+00
 0.000000e+00 0.000000e+00 5.341729e-01 4.658271e-01 0.000000e+00
 0.000000e+00 0.000000e+00 0.000000e+00 6.877428e-01 3.122572e-01
 0.000000e+00 0.000000e+00 0.000000e+00 0.000000e+00 0.000000e+00
<ENDHMM>
~h "l"
<BEGINHMM>
<NUMSTATES> 5
<STATE> 2
<MEAN> 39
 -2.216007e+00 -6.156860e+00 -1.807754e+00 -7.467568e+00 -1.077375e+01 -7.718101e-01 -1.171705e+01 -4.832645e+00 -2.905491e+00 -3.061568e+00 -6.207849e-01 -7.954109e+00 6.526537e+01 1.231081e-01 -4.259939e-02 -2.856653e-02 -1.255871e-01 -2.019872e-02 1.693549e-01 -1.206829e-01 -9.845302e-02 5.743872e-02 5.964825e-02 1.417018e-02 -8.004155e-02 -1.742013e-02 -4.392989e-02 3.801282e-02 1.797974e-02 3.258266e-02 2.984320e-02 -3.398217e-02 3.826286e-02 2.264924e-02 -4.005027e-02 3.321567e-04 -3.085847e-02 2.937518e-02 -7.334061e-02
<VARIANCE> 39
 5.679363e+01 7.424055e+01 8.405295e+01 7.959315e+01 7.635918e+01 9.301503e+01 6.945290e+01 9.466373e+01 9.142867e+01 5.449561e+01 5.886461e+01 5.106304e+01 1.323566e+02 2.489546e+00 2.715722e+00 2.840530e+00 3.227954e+00 3.781627e+00 3.972358e+00 3.546980e+00 4.205951e+00 3.873413e+00 3.302745e+00 3.285593e+00 2.711239e+00 3.957268e+00 3.773656e-01 4.036081e-01 4.182365e-01 5.253181e-01 6.437259e-01 6.504624e-01 6.169040e-01 7.303768e-01 6.539703e-01 5.848389e-01 5.789930e-01 4.841595e-01 5.204832e-01
<GCONST> 1.355984e+02
<STATE> 3
<MEAN> 39
 -1.975152e+00 -6.182423e+00 -1.839136e+00 -7.762868e+00 -1.076368e+01 -4.128306e-01 -1.194837e+01 -5.025666e+00 -2.898558e+00 -2.922657e+00 -6.640718e-01 -8.104613e+00 6.508526e+01 1.438936e-02 3.349161e-02 1.213662e-02 -1.129211e-02 5.019070e-02 4.974996e-02 -8.992837e-03 9.923059e-03 -5.431107e-02 3.730075e-02 -7.362205e-02 -4.169491e-03 -1.534123e-01 -4.612447e-02 3.178957e-02 1.472941e-02 4.847511e-02 2.862868e-02 -4.908499e-02 5.241308e-02 3.517738e-02 -3.623657e-02 -1.470806e-02 -3.026127e-02 3.256975e-02 -5.414129e-02
<VARIANCE> 39
 5.533718e+01 7.444645e+01 8.356618e+01 8.363348e+01 7.549809e+01 9.238960e+01 7.166659e+01 9.621069e+01 9.320778e+01 5.514015e+01 5.997575e+01 5.115410e+01 1.330982e+02 2.243893e+00 2.648864e+00 2.737042e+00 3.169168e+00 3.582395e+00 3.820017e+00 3.500197e+00 4.069352e+00 3.814164e+00 3.339812e+00 3.193470e+00 2.608086e+00 3.623048e+00 3.345223e-01 3.896826e-01 4.021304e-01 5.154775e-01 6.109596e-01 6.246712e-01 6.148425e-01 7.086421e-01 6.470312e-01 5.926058e-01 5.638650e-01 4.665978e-01 4.632691e-01
<GCONST> 1.347047e+02
<STATE> 4
<MEAN> 39
 -1.339350e+00 -5.850534e+00 -1.729100e+00 -8.161597e+00 -1.073648e+01 5.186563e-01 -1.258503e+01 -4.065934e+00 -3.935449e+00 -2.062677e+00 -1.618970e+00 -8.263026e+00 6.544911e+01 -1.247873e-01 1.088542e-01 4.185550e-02 1.656155e-01 1.364711e-01 -1.420980e-01 1.807423e-01 7.149258e-02 -7.363372e-02 -5.939490e-02 -1.332847e-01 8.478521e-02 -2.802352e-01 -3.845525e-02 2.669824e-02 7.799808e-03 3.747267e-02 1.794791e-02 -4.345292e-02 4.827529e-02 1.979107e-03 -3.839896e-03 -2.203825e-02 -1.617741e-03 2.496161e-02 -4.374872e-02
<VARIANCE> 39
 4.848279e+01 7.738158e+01 8.399406e+01 8.519348e+01 7.857052e+01 9.206458e+01 7.248831e+01 9.561701e+01 8.792487e+01 5.612626e+01 6.362203e+01 4.803539e+01 1.224744e+02 2.125640e+00 2.852653e+00 2.848472e+00 3.334937e+00 3.710483e+00 3.738658e+00 3.644302e+00 4.195482e+00 3.802179e+00 3.308685e+00 3.253710e+00 2.583824e+00 3.722675e+00 3.159938e-01 4.059472e-01 4.143088e-01 5.335393e-01 6.260310e-01 6.069272e-01 6.325244e-01 7.147102e-01 6.348392e-01 5.841511e-01 5.700882e-01 4.532195e-01 4.615265e-01
<GCONST> 1.347931e+02
<TRANSP> 5
 0.000000e+00 1.000000e+00 0.000000e+00 0.000000e+00 0.000000e+00
 0.000000e+00 5.643734e-01 4.356266e-01 0.000000e+00 0.000000e+00
 0.000000e+00 0.000000e+00 5.692955e-01 4.307044e-01 0.000000e+00
 0.000000e+00 0.000000e+00 0.000000e+00 7.736398e-01 2.263602e-01
 0.000000e+00 0.000000e+00 0.000000e+00 0.000000e+00 0.000000e+00
<ENDHMM>
~h "m"
<BEGINHMM>
<NUMSTATES> 5
<STATE> 2
<MEAN> 39
 -3.623786e+00 -4.632935e+00 -9.015754e-01 -5.229912e+00 -9.180177e+00 -2.641855e+00 -9.050666e+00 -5.430013e+00 -5.929412e+00 -3.909441e+00 -1.666240e+00 -6.950711e+00 6.017811e+01 -3.165036e-02 1.269484e-01 6.725337e-02 1.426777e-01 1.099795e-01 9.858684e-03 1.821865e-01 -2.219748e-01 -1.972608e-01 -4.530937e-02 -5.461656e-02 4.885674e-02 -3.001504e-01 -1.066573e-02 -2.496344e-03 -1.581535e-03 -2.047212e-02 -5.418618e-03 -1.458939e-02 -3.308653e-02 4.686692e-02 3.552828e-02 1.883957e-02 -3.344798e-03 8.537620e-03 2.251274e-02
<VARIANCE> 39
 6.905858e+01 6.305741e+01 7.104121e+01 5.626911e+01 7.143774e+01 7.076449e+01 5.911765e+01 9.371952e+01 7.055643e+01 5.469901e+01 5.736597e+01 4.660263e+01 1.838651e+02 1.899780e+00 2.245512e+00 2.392475e+00 2.604309e+00 2.811696e+00 2.738751e+00 2.794945e+00 3.680385e+00 3.586135e+00 2.626963e+00 3.012564e+00 2.272436e+00 3.286833e+00 2.979938e-01 3.433286e-01 3.689515e-01 4.446940e-01 4.924044e-01 4.661966e-01 5.064466e-01 6.306456e-01 6.053560e-01 4.779419e-01 5.297883e-01 4.145025e-01 4.553512e-01
<GCONST> 1.296270e+02
<STATE> 3
<MEAN> 39
 -3.515699e+00 -4.425971e+00 -7.297792e-01 -5.083124e+00 -9.026369e+00 -2.535278e+00 -8.810554e+00 -5.879745e+00 -6.311872e+00 -3.997142e+00 -1.718038e+00 -6.922631e+00 5.988977e+01 -2.681852e-02 1.106420e-01 3.860845e-02 7.033200e-02 7.856852e-02 5.847244e-03 6.910434e-02 -6.543545e-02 -6.236524e-02 3.168375e-02 -5.952523e-02 4.497945e-02 -2.232627e-01 6.461247e-04 -9.442067e-03 -1.392575e-02 -2.889087e-02 -1.141624e-02 -5.961981e-03 -4.684872e-02 7.069200e-02 6.650587e-02 2.410968e-02 1.896552e-03 -9.209722e-05 3.306546e-02
<VARIANCE> 39
 7.057822e+01 6.194021e+01 6.982204e+01 5.558553e+01 7.105899e+01 6.941705e+01 5.963154e+01 9.561664e+01 7.319760e+01 5.694936e+01 5.841692e+01 4.580225e+01 1.797831e+02 1.805484e+00 2.177450e+00 2.289044e+00 2.577890e+00 2.670344e+00 2.641239e+00 2.731664e+00 3.502054e+00 3.560001e+00 2.563112e+00 2.885457e+00 2.145442e+00 3.523191e+00 2.804114e-01 3.284671e-01 3.585899e-01 4.393032e-01 4.691600e-01 4.509764e-01 4.876269e-01 6.099803e-01 6.111160e-01 4.678398e-01 5.117146e-01 3.959539e-01 4.446854e-01
<GCONST> 1.288868e+02
<STATE> 4
<MEAN> 39
 -3.209124e+00 -4.356017e+00 -7.079495e-01 -5.313869e+00 -8.698749e+00 -1.961676e+00 -8.947581e+00 -5.459037e+00 -6.301925e+00 -3.532331e+00 -2.055519e+00 -6.868910e+00 5.970193e+01 -5.550869e-02 8.701663e-02 -1.375538e-02 2.639116e-02 5.997607e-02 -1.572248e-02 -2.817268e-02 9.245300e-02 1.439253e-01 5.790111e-02 -4.593570e-02 4.316792e-02 -1.864705e-01 -8.945390e-03 -1.193701e-02 -1.039077e-02 -1.331504e-02 -8.433736e-03 -1.449366e-02 -3.107789e-02 4.089753e-02 5.412832e-02 -3.125883e-03 1.004313e-02 1.825830e-03 3.322383e-02
<VARIANCE> 39
 6.609103e+01 6.505605e+01 6.847552e+01 6.019178e+01 7.317123e+01 6.933991e+01 6.144059e+01 9.245116e+01 7.379844e+01 5.551433e+01 5.924658e+01 4.303705e+01 1.797636e+02 1.891821e+00 2.380713e+00 2.413903e+00 2.763759e+00 2.837283e+00 2.752476e+00 2.956819e+00 3.626958e+00 3.787672e+00 2.614249e+00 2.944998e+00 2.160544e+00 3.855982e+00 2.909172e-01 3.492469e-01 3.721086e-01 4.665123e-01 4.855139e-01 4.677254e-01 5.121754e-01 6.135327e-01 6.319697e-01 4.676580e-01 5.181478e-01 3.912952e-01 4.688127e-01
<GCONST> 1.299709e+02
<TRANSP> 5
 0.000000e+00 1.000000e+00 0.000000e+00 0.000000e+00 0.000000e+00
 0.000000e+00 5.535085e-01 4.464915e-01 0.000000e+00 0.000000e+00
 0.000000e+00 0.000000e+00 5.542651e-01 4.457350e-01 0.000000e+00
 0.000000e+00 0.000000e+00 0.000000e+00 6.971316e-01 3.028684e-01
 0.000000e+00 0.000000e+00 0.000000e+00 0.000000e+00 0.000000e+00
<ENDHMM>
~h "n"
<BEGINHMM>
<NUMSTATES> 5
<STATE> 2
<MEAN> 39
 -2.086063e+00 -5.653789e+00 -1.124427e-01 -5.008952e+00 -1.133738e+01 -4.316007e+00 -1.074285e+01 -4.244086e+00 -4.816332e+00 -2.801855e+00 -2.774306e+00 -8.563803e+00 6.335925e+01 1.804368e-01 2.360011e-01 2.041863e-01 2.128693e-01 -8.495995e-02 -3.166299e-01 2.999489e-02 -2.739287e-01 -1.333222e-01 2.117120e-01 -1.783633e-01 -8.703404e-02 -2.032820e-01 -4.207354e-02 2.073849e-02 -1.106414e-02 -1.638163e-02 2.824478e-02 3.361142e-02 2.221169e-02 1.650987e-02 -2.007782e-03 -1.093797e-02 1.830296e-02 3.903578e-02 -1.522686e-02
<VARIANCE> 39
 5.277723e+01 7.356102e+01 8.120186e+01 5.439030e+01 7.392424e+01 9.676565e+01 6.050689e+01 9.428047e+01 6.949018e+01 5.796274e+01 6.390513e+01 5.263726e+01 1.400968e+02 2.664780e+00 3.767113e+00 3.358635e+00 3.250057e+00 3.972831e+00 4.625959e+00 3.885487e+00 5.544233e+00 3.759808e+00 3.910126e+00 3.724781e+00 2.990385e+00 6.317582e+00 4.180090e-01 5.432912e-01 4.911774e-01 5.294256e-01 6.814097e-01 7.545013e-01 6.960262e-01 9.438129e-01 6.397806e-01 6.807286e-01 6.474778e-01 5.300643e-01 8.026794e-01
<GCONST> 1.388073e+02
<STATE> 3
<MEAN> 39
 -1.786271e+00 -5.006748e+00 3.181612e-01 -4.537991e+00 -1.142742e+01 -4.859200e+00 -1.055993e+01 -4.805023e+00 -5.175349e+00 -2.358111e+00 -3.165280e+00 -8.639885e+00 6.275225e+01 3.681735e-02 2.158194e-01 1.158712e-01 1.273506e-01 1.410390e-02 -1.040101e-01 3.173846e-02 -9.450288e-02 -1.158581e-01 9.491766e-02 -8.224829e-02 3.267292e-02 -2.211493e-01 -6.253692e-02 -7.039217e-03 -3.298577e-02 -3.194069e-02 3.896981e-02 7.665997e-02 -5.116971e-04 6.936818e-02 1.305353e-02 -5.233446e-02 4.456388e-02 4.432501e-02 -7.462889e-03
<VARIANCE> 39
 5.006420e+01 6.707494e+01 8.058864e+01 5.320848e+01 7.346805e+01 1.004228e+02 6.148414e+01 9.705180e+01 6.755540e+01 5.627386e+01 6.713200e+01 5.342239e+01 1.349346e+02 2.615647e+00 3.686202e+00 3.335759e+00 3.204903e+00 3.987915e+00 4.534709e+00 3.824801e+00 5.471162e+00 3.750736e+00 3.908454e+00 3.722621e+00 2.991898e+00 6.181536e+00 4.088388e-01 5.345259e-01 4.979225e-01 5.292752e-01 6.891348e-01 7.519028e-01 6.853206e-01 9.342706e-01 6.426641e-01 6.937528e-01 6.550179e-01 5.336064e-01 7.771987e-01
<GCONST> 1.385128e+02
<STATE> 4
<MEAN> 39
 -1.598537e+00 -4.946489e+00 5.991423e-01 -5.109653e+00 -1.180234e+01 -3.851784e+00 -1.142766e+01 -3.685241e+00 -6.234653e+00 -2.051045e+00 -3.236759e+00 -8.963254e+00 6.373203e+01 -1.487739e-01 1.590730e-01 -9.955383e-03 5.513332e-02 1.328556e-01 4.976987e-02 6.559937e-02 5.056645e-02 6.155388e-03 -8.235503e-02 2.770688e-02 1.405516e-01 -2.524973e-01 -5.847331e-02 2.270172e-03 -2.959675e-02 -1.053763e-02 3.263367e-02 2.334182e-02 2.304135e-02 1.392688e-02 2.799811e-02 -3.501753e-02 2.831161e-02 3.177588e-02 -2.703855e-02
<VARIANCE> 39
 4.387383e+01 7.060918e+01 8.782159e+01 5.907923e+01 7.961620e+01 9.840235e+01 6.601704e+01 9.893557e+01 6.827988e+01 5.777008e+01 7.170858e+01 4.965268e+01 1.297467e+02 2.593283e+00 3.660863e+00 3.546005e+00 3.308851e+00 4.337841e+00 4.459162e+00 3.990517e+00 5.442933e+00 3.899914e+00 3.812194e+00 3.883714e+00 3.080319e+00 6.049300e+00 4.016340e-01 5.364550e-01 5.272985e-01 5.515311e-01 7.511761e-01 7.371039e-01 7.216967e-01 9.321993e-01 6.716762e-01 6.852350e-01 6.858769e-01 5.446972e-01 7.823884e-01
<GCONST> 1.393149e+02
<TRANSP> 5
 0.000000e+00 1.000000e+00 0.000000e+00 0.000000e+00 0.000000e+00
 0.000000e+00 5.797535e-01 4.202465e-01 0.000000e+00 0.000000e+00
 0.000000e+00 0.000000e+00 5.780470e-01 4.219530e-01 0.000000e+00
 0.000000e+00 0.000000e+00 0.000000e+00 8.027337e-01 1.972664e-01
 0.000000e+00 0.000000e+00 0.000000e+00 0.000000e+00 0.000000e+00
<ENDHMM>
~h "o"
<BEGINHMM>
<NUMSTATES> 5
<STATE> 2
<MEAN> 39
 -2.377530e+00 -3.578740e+00 -3.322378e+00 -8.748831e+00 -1.052671e+01 3.778257e-01 -1.061563e+01 -6.001698e+00 -3.725720e+00 -3.218228e+00 1.832693e-01 -6.633366e+00 6.294943e+01 3.986228e-01 -1.443086e-01 -2.605110e-01 -7.298386e-01 -2.630012e-01 6.096100e-01 -1.213218e-01 -2.240347e-01 1.020921e-01 -1.549324e-01 3.480730e-01 -1.166080e-01 6.794469e-01 -2.279027e-02 6.281824e-03 5.624597e-02 5.638281e-02 5.690299e-03 -2.858951e-02 1.737374e-02 4.085898e-02 -1.615012e-02 5.786917e-03 -3.612208e-02 -3.889604e-03 -6.884003e-02
<VARIANCE> 39
 7.214066e+01 5.897581e+01 8.313270e+01 1.137409e+02 7.606741e+01 9.260631e+01 5.881788e+01 7.846526e+01 7.409748e+01 5.344245e+01 6.256859e+01 4.680056e+01 1.459593e+02 4.005177e+00 3.292849e+00 3.882726e+00 5.845985e+00 4.959938e+00 5.108723e+00 3.867917e+00 4.510523e+00 4.335678e+00 3.599705e+00 3.995452e+00 3.346502e+00 8.026765e+00 6.229180e-01 5.043277e-01 6.199191e-01 8.913693e-01 8.760993e-01 8.405468e-01 6.978372e-01 7.861938e-01 7.459312e-01 6.510443e-01 7.005812e-01 5.889700e-01 1.047030e+00
<GCONST> 1.427317e+02
<STATE> 3
<MEAN> 39
 -1.320314e+00 -3.923374e+00 -3.758785e+00 -1.050387e+01 -1.119987e+01 1.882962e+00 -1.082397e+01 -6.514765e+00 -3.463444e+00 -3.668417e+00 9.048513e-01 -6.947650e+00 6.438775e+01 2.318149e-01 -9.493081e-02 -4.442978e-02 -2.646018e-01 -1.526923e-01 2.934069e-01 -1.082981e-01 -5.483401e-02 1.755157e-02 -4.288785e-02 1.033441e-01 -1.121981e-01 2.869016e-01 -5.759014e-02 1.590749e-02 6.168703e-02 1.531195e-01 4.506314e-02 -1.165889e-01 5.283717e-03 5.791927e-02 -2.437847e-02 3.475883e-02 -8.516398e-02 2.524558e-03 -1.228626e-01
<VARIANCE> 39
 6.340691e+01 5.831390e+01 8.264014e+01 1.336772e+02 7.523600e+01 9.709042e+01 5.815995e+01 8.262640e+01 7.658827e+01 5.726429e+01 6.548185e+01 4.833760e+01 1.250250e+02 3.187699e+00 3.037063e+00 3.402905e+00 5.318809e+00 4.545921e+00 4.858126e+00 3.566443e+00 4.243561e+00 4.080671e+00 3.420513e+00 3.867101e+00 3.132048e+00 6.583665e+00 5.066894e-01 4.615323e-01 5.475715e-01 8.305119e-01 8.144515e-01 7.989909e-01 6.425240e-01 7.440166e-01 7.042068e-01 6.241208e-01 6.816719e-01 5.640860e-01 8.248504e-01
<GCONST> 1.404646e+02
<STATE> 4
<MEAN> 39
 7.133150e-02 -3.667987e+00 -3.521731e+00 -1.120415e+01 -1.282466e+01 3.838092e+00 -1.199850e+01 -6.441401e+00 -4.721125e+00 -3.250314e+00 3.419605e-01 -7.672404e+00 6.487358e+01 -5.517332e-02 -1.659488e-02 9.156284e-02 2.621689e-01 8.797867e-02 -1.988614e-01 -1.173860e-03 8.289745e-02 -1.797559e-02 6.013406e-02 -1.462059e-01 -4.244175e-02 -1.624073e-01 -4.814861e-02 1.519257e-02 1.901447e-02 6.832191e-02 3.813833e-02 -7.567209e-02 3.206943e-02 2.264723e-02 -4.333314e-03 2.115696e-03 -3.629054e-02 1.811608e-02 -6.347320e-02
<VARIANCE> 39
 4.538281e+01 6.209412e+01 8.782013e+01 1.226940e+02 8.469437e+01 9.727991e+01 6.209758e+01 8.518283e+01 7.775724e+01 5.705439e+01 6.659102e+01 4.950176e+01 1.132183e+02 2.393827e+00 3.002317e+00 3.430270e+00 4.897162e+00 4.734927e+00 4.850029e+00 3.619544e+00 4.306938e+00 4.125308e+00 3.435985e+00 4.025225e+00 3.083332e+00 5.560875e+00 3.697822e-01 4.508339e-01 5.348626e-01 7.465719e-01 8.419117e-01 7.861478e-01 6.499540e-01 7.406099e-01 7.153955e-01 6.214991e-01 7.034727e-01 5.490760e-01 7.111562e-01
<GCONST> 1.393275e+02
<TRANSP> 5
 0.000000e+00 1.000000e+00 0.000000e+00 0.000000e+00 0.000000e+00
 0.000000e+00 6.231011e-01 3.768989e-01 0.000000e+00 0.000000e+00
 0.000000e+00 0.000000e+00 6.249498e-01 3.750503e-01 0.000000e+00
 0.000000e+00 0.000000e+00 0.000000e+00 8.723331e-01 1.276669e-01
 0.000000e+00 0.000000e+00 0.000000e+00 0.000000e+00 0.000000e+00
<ENDHMM>
~h "p"
<BEGINHMM>
<NUMSTATES> 5
<STATE> 2
<MEAN> 39
 -5.363005e+00 -2.513443e+00 -2.166920e+00 -4.096689e+00 -8.184544e+00 -2.904831e+00 -8.464649e+00 -4.061712e+00 -3.909575e+00 -2.786627e+00 -2.451170e+00 -5.942241e+00 5.418721e+01 -1.847233e-01 4.478239e-02 -1.311346e-01 4.150433e-02 1.043762e-01 -3.953140e-02 7.310495e-02 1.203768e-02 1.300994e-01 4.893300e-03 -2.333309e-02 9.450267e-02 -1.717050e-01 3.083034e-02 -9.850940e-02 1.272242e-03 -6.384744e-02 -5.407619e-02 1.421919e-02 -4.633544e-02 1.212232e-02 -4.946816e-03 -1.931584e-03 3.266149e-02 -3.280182e-02 2.711850e-01
<VARIANCE> 39
 8.107269e+01 6.450927e+01 6.549496e+01 4.841218e+01 6.575436e+01 6.345204e+01 4.950578e+01 6.140931e+01 5.590221e+01 3.996133e+01 4.574435e+01 4.323045e+01 2.262371e+02 3.486163e+00 3.607066e+00 2.922928e+00 3.010820e+00 3.617950e+00 3.265427e+00 2.928687e+00 3.610260e+00 3.238973e+00 2.657018e+00 3.179191e+00 2.703640e+00 8.830809e+00 5.610357e-01 6.015372e-01 4.989721e-01 5.543770e-01 6.704547e-01 5.989978e-01 5.524851e-01 6.555719e-01 5.897821e-01 5.029023e-01 5.996541e-01 5.084076e-01 1.266590e+00
<GCONST> 1.349297e+02
<STATE> 3
<MEAN> 39
 -5.555412e+00 -2.737771e+00 -2.465747e+00 -4.221245e+00 -8.174149e+00 -2.888398e+00 -8.437286e+00 -4.015817e+00 -3.635790e+00 -2.760235e+00 -2.381292e+00 -5.882373e+00 5.481020e+01 -1.839292e-02 -2.056688e-01 -1.052615e-01 -1.261033e-01 -5.195013e-02 1.255763e-02 -5.234988e-02 3.440998e-02 9.807183e-02 -8.020571e-03 6.361904e-02 -2.369140e-02 5.735767e-01 7.867209e-02 -9.295353e-02 1.871151e-02 -6.948883e-02 -7.492703e-02 3.155338e-02 -5.880938e-02 7.928429e-03 -1.824898e-02 -9.232666e-03 3.965455e-02 -5.670539e-02 2.726866e-01
<VARIANCE> 39
 8.047886e+01 6.491998e+01 6.584776e+01 4.930336e+01 6.595168e+01 6.475333e+01 4.819878e+01 6.013367e+01 5.386684e+01 3.928084e+01 4.466646e+01 4.291060e+01 2.266011e+02 4.028259e+00 4.155645e+00 3.290679e+00 3.519066e+00 4.102680e+00 3.692022e+00 3.096343e+00 3.879713e+00 3.423534e+00 2.789759e+00 3.341551e+00 3.033893e+00 1.196123e+01 6.393987e-01 6.525294e-01 5.372597e-01 6.249327e-01 7.369868e-01 6.622686e-01 5.742603e-01 6.900802e-01 6.082996e-01 5.212727e-01 6.228462e-01 5.623332e-01 1.584661e+00
<GCONST> 1.374736e+02
<STATE> 4
<MEAN> 39
 -4.684407e+00 -3.844102e+00 -2.670599e+00 -4.703739e+00 -9.418956e+00 -2.559936e+00 -8.875873e+00 -4.268519e+00 -2.892182e+00 -2.787461e+00 -1.807136e+00 -6.263241e+00 5.878170e+01 1.887489e-01 -3.675757e-01 -3.585970e-02 -2.449303e-01 -2.242151e-01 8.927545e-02 -1.633526e-01 3.427186e-02 5.313968e-02 -7.456502e-02 1.486527e-01 -1.636523e-01 1.000882e+00 3.222327e-02 -1.338427e-03 2.785298e-02 -1.094099e-02 -3.149300e-02 2.291934e-02 -1.472175e-02 -5.184794e-03 -1.865246e-02 -1.653503e-02 1.527230e-02 -2.183705e-02 7.518790e-03
<VARIANCE> 39
 7.664639e+01 7.140100e+01 7.563113e+01 5.677596e+01 7.818671e+01 7.263972e+01 4.977650e+01 7.011499e+01 5.929467e+01 4.135226e+01 4.907096e+01 4.351696e+01 2.124546e+02 4.542197e+00 4.762992e+00 3.853910e+00 4.032829e+00 5.214547e+00 4.348022e+00 3.437092e+00 4.481247e+00 3.910383e+00 3.042561e+00 3.718484e+00 3.366924e+00 1.328998e+01 7.325431e-01 7.268243e-01 6.048526e-01 7.130716e-01 9.202750e-01 7.646938e-01 6.252427e-01 7.775196e-01 6.669105e-01 5.554351e-01 6.833799e-01 6.089154e-01 1.797652e+00
<GCONST> 1.417187e+02
<TRANSP> 5
 0.000000e+00 1.000000e+00 0.000000e+00 0.000000e+00 0.000000e+00
 0.000000e+00 5.536140e-01 4.463860e-01 0.000000e+00 0.000000e+00
 0.000000e+00 0.000000e+00 5.549657e-01 4.450342e-01 0.000000e+00
 0.000000e+00 0.000000e+00 0.000000e+00 7.297078e-01 2.702922e-01
 0.000000e+00 0.000000e+00 0.000000e+00 0.000000e+00 0.000000e+00
<ENDHMM>
~h "q"
<BEGINHMM>
<NUMSTATES> 5
<STATE> 2
<MEAN> 39
 -6.553217e+00 -8.597834e+00 -7.356708e+00 -6.758428e+00 -6.794182e+00 -5.236130e+00 -6.888011e+00 -7.993985e-01 -5.766498e+00 5.177203e-01 -3.206366e+00 -7.021242e+00 6.690083e+01 1.506780e-01 -1.614211e-01 -1.920832e-01 -3.947812e-03 7.627207e-02 -4.130054e-02 -1.238569e-01 1.746252e-01 7.448326e-02 -1.450258e-02 -1.135944e-01 -1.947286e-01 2.946000e-01 4.692370e-02 5.283560e-02 5.172172e-02 2.490785e-04 -3.777145e-02 3.498035e-02 -2.963039e-02 -3.922297e-02 -2.152106e-02 -5.819600e-03 2.142611e-02 -1.212104e-02 -5.105966e-02
<VARIANCE> 39
 1.048722e+02 7.642147e+01 4.834687e+01 4.858719e+01 4.436623e+01 4.726183e+01 4.957311e+01 7.293925e+01 3.721556e+01 3.034205e+01 3.536898e+01 5.906569e+01 1.178171e+02 7.010965e+00 5.053390e+00 3.169508e+00 3.802089e+00 4.266799e+00 3.816326e+00 3.869153e+00 5.362329e+00 3.135185e+00 2.646667e+00 2.814337e+00 4.638064e+00 9.071465e+00 1.033643e+00 7.507120e-01 4.752008e-01 6.180041e-01 8.070561e-01 6.727482e-01 7.375779e-01 9.155686e-01 5.762171e-01 5.156504e-01 5.232221e-01 7.907038e-01 1.273529e+00
<GCONST> 1.381449e+02
<STATE> 3
<MEAN> 39
 -5.053145e+00 -6.943429e+00 -7.637910e+00 -5.974620e+00 -7.993326e+00 -4.103568e+00 -9.764446e+00 -2.188197e+00 -3.951149e+00 -5.240440e-02 -3.386894e+00 -7.344526e+00 6.780148e+01 3.867092e-01 6.368501e-02 -4.396302e-02 -2.403615e-02 1.044921e-02 4.547901e-02 -2.571648e-01 -1.721675e-01 5.220673e-02 1.885362e-02 3.258874e-02 -2.680812e-01 -1.008260e-01 -7.078657e-02 4.853712e-02 1.463736e-02 -1.597709e-02 1.825760e-02 1.416263e-02 1.029789e-01 -1.898558e-02 -2.931839e-02 2.351372e-02 3.346822e-02 8.619846e-02 -8.795430e-02
<VARIANCE> 39
 8.624644e+01 5.510015e+01 5.225203e+01 3.281587e+01 4.453528e+01 5.324817e+01 6.260699e+01 1.049342e+02 2.971462e+01 3.188036e+01 4.013459e+01 5.648237e+01 9.154227e+01 9.234715e+00 5.394706e+00 2.929111e+00 3.587292e+00 4.383999e+00 4.164936e+00 4.078254e+00 6.615169e+00 3.104015e+00 1.976241e+00 3.281848e+00 4.726435e+00 7.467344e+00 1.373759e+00 8.975456e-01 5.249600e-01 6.358659e-01 8.070275e-01 7.678962e-01 7.718593e-01 1.167550e+00 6.031104e-01 3.552968e-01 6.507946e-01 7.344795e-01 1.115228e+00
<GCONST> 1.386349e+02
<STATE> 4
<MEAN> 39
 -3.833472e+00 -8.146640e+00 -6.317750e+00 -7.813570e+00 -7.566331e+00 -6.017157e+00 -7.722621e+00 -1.282294e+00 -6.040812e+00 9.479244e-01 -4.264922e+00 -7.686987e+00 6.236262e+01 -2.473693e-02 6.224360e-02 1.076914e-02 2.374596e-02 3.630671e-02 -3.093693e-03 6.888404e-03 -1.315268e-02 3.624596e-02 -1.401118e-02 4.698295e-03 2.467768e-02 -1.489353e-01 -5.036512e-03 7.111866e-03 1.175289e-02 -2.308783e-03 -5.173063e-03 9.017198e-03 6.552579e-03 -9.564286e-03 -1.071918e-02 -5.494176e-03 7.584827e-03 6.383445e-03 -5.434857e-03
<VARIANCE> 39
 3.203200e+01 7.127525e+01 6.257039e+01 6.176649e+01 6.750662e+01 7.654694e+01 5.285709e+01 6.850813e+01 5.494208e+01 3.799245e+01 5.666188e+01 4.829969e+01 2.171614e+02 1.834091e+00 3.237424e+00 3.483160e+00 3.051124e+00 3.219573e+00 2.980605e+00 3.319839e+00 5.345498e+00 3.147885e+00 2.736876e+00 3.415983e+00 3.008131e+00 8.712999e+00 3.069810e-01 4.714082e-01 5.903172e-01 5.043940e-01 5.297034e-01 5.144491e-01 5.908651e-01 9.647708e-01 5.462684e-01 5.095465e-01 6.332764e-01 5.103238e-01 1.087681e+00
<GCONST> 1.339531e+02
<TRANSP> 5
 0.000000e+00 1.000000e+00 0.000000e+00 0.000000e+00 0.000000e+00
 0.000000e+00 9.429578e-01 5.704230e-02 0.000000e+00 0.000000e+00
 0.000000e+00 0.000000e+00 8.399476e-01 1.600524e-01 0.000000e+00
 0.000000e+00 0.000000e+00 0.000000e+00 9.853536e-01 1.464639e-02
 0.000000e+00 0.000000e+00 0.000000e+00 0.000000e+00 0.000000e+00
<ENDHMM>
~h "r"
<BEGINHMM>
<NUMSTATES> 5
<STATE> 2
<MEAN> 39
 -2.211180e+00 -6.534011e+00 -2.334652e+00 -5.812749e+00 -1.081469e+01 -2.190052e+00 -1.145429e+01 -2.927264e+00 -3.405060e+00 -2.863932e+00 -1.289308e+00 -8.439657e+00 6.477808e+01 1.643632e-01 -1.080488e-01 1.850083e-02 4.482120e-02 -7.694517e-02 3.764845e-02 -1.408703e-01 5.590839e-02 -6.096963e-02 2.050934e-02 -3.456525e-04 -9.793918e-02 7.858121e-02 -3.688102e-02 4.918371e-02 4.463667e-02 7.827388e-03 1.429129e-02 -9.520073e-03 3.053234e-02 -1.527900e-02 -4.334383e-02 1.967018e-03 -3.679332e-04 3.934579e-02 -6.192746e-02
<VARIANCE> 39
 5.381217e+01 7.599217e+01 8.533534e+01 5.746409e+01 7.474120e+01 8.903612e+01 5.804498e+01 8.436678e+01 8.031203e+01 5.100651e+01 5.883522e+01 5.134214e+01 1.441831e+02 2.873696e+00 3.364355e+00 3.140405e+00 3.307805e+00 4.106112e+00 4.049281e+00 3.514682e+00 4.540033e+00 4.149529e+00 3.239578e+00 3.612097e+00 3.008816e+00 6.327885e+00 4.616995e-01 5.112158e-01 4.684704e-01 5.630016e-01 7.089218e-01 6.740081e-01 6.289904e-01 7.773686e-01 7.173862e-01 5.941890e-01 6.421353e-01 5.388547e-01 8.692402e-01
<GCONST> 1.378277e+02
<STATE> 3
<MEAN> 39
 -1.923108e+00 -6.628963e+00 -2.122971e+00 -5.674114e+00 -1.096738e+01 -2.118419e+00 -1.167923e+01 -2.843429e+00 -3.722729e+00 -2.781852e+00 -1.306213e+00 -8.545712e+00 6.474291e+01 6.805268e-02 1.429997e-02 1.281202e-01 5.350838e-02 -4.957661e-02 4.912852e-03 -6.002833e-02 2.373216e-02 -1.587881e-01 2.174458e-02 -1.769337e-03 1.239852e-03 -5.758140e-02 -4.657017e-02 5.112384e-02 3.358044e-02 2.475689e-03 1.628102e-02 -1.038234e-02 4.303844e-02 -1.983970e-02 -2.380852e-02 -6.871616e-03 -1.234780e-03 4.011992e-02 -5.477915e-02
<VARIANCE> 39
 5.115557e+01 7.672296e+01 8.715873e+01 5.618774e+01 7.514175e+01 9.069476e+01 5.855597e+01 8.492494e+01 7.989249e+01 5.088612e+01 6.074365e+01 5.134448e+01 1.371685e+02 2.783076e+00 3.404616e+00 3.164440e+00 3.193112e+00 4.148584e+00 3.990202e+00 3.540834e+00 4.577658e+00 4.170197e+00 3.274855e+00 3.645598e+00 2.963086e+00 6.118950e+00 4.410273e-01 5.146790e-01 4.684883e-01 5.414195e-01 7.125427e-01 6.668713e-01 6.324033e-01 7.811285e-01 7.127809e-01 5.987471e-01 6.486923e-01 5.294052e-01 8.146116e-01
<GCONST> 1.375939e+02
<STATE> 4
<MEAN> 39
 -1.392672e+00 -6.382461e+00 -1.247322e+00 -5.999353e+00 -1.193527e+01 -1.024284e+00 -1.254171e+01 -2.426109e+00 -5.151633e+00 -2.323725e+00 -1.468043e+00 -8.958393e+00 6.557860e+01 -7.974420e-02 1.461019e-01 1.424622e-01 6.628481e-02 4.041462e-02 -7.106233e-02 1.083553e-01 -4.828170e-02 -1.011397e-01 -3.488886e-02 -2.693764e-02 1.018895e-01 -2.051850e-01 -4.963356e-02 4.345709e-02 -2.817191e-03 9.654741e-03 3.191041e-02 -1.644154e-02 5.230753e-02 -2.730113e-02 1.744991e-02 -1.583825e-02 -7.622577e-03 3.112503e-02 -6.057183e-02
<VARIANCE> 39
 4.479414e+01 7.787036e+01 9.599350e+01 5.699635e+01 8.355518e+01 9.705267e+01 6.169942e+01 9.028354e+01 8.070325e+01 5.109984e+01 6.787233e+01 5.092361e+01 1.214314e+02 2.685498e+00 3.538058e+00 3.448803e+00 3.201549e+00 4.522249e+00 4.151416e+00 3.746654e+00 4.840632e+00 4.267217e+00 3.229546e+00 3.838835e+00 3.051586e+00 5.992095e+00 4.239428e-01 5.212682e-01 5.021455e-01 5.394710e-01 7.755181e-01 6.883534e-01 6.657998e-01 8.141685e-01 7.264959e-01 5.896217e-01 6.783094e-01 5.387270e-01 7.828438e-01
<GCONST> 1.385424e+02
<TRANSP> 5
 0.000000e+00 1.000000e+00 0.000000e+00 0.000000e+00 0.000000e+00
 0.000000e+00 5.658702e-01 4.341298e-01 0.000000e+00 0.000000e+00
 0.000000e+00 0.000000e+00 5.643509e-01 4.356491e-01 0.000000e+00
 0.000000e+00 0.000000e+00 0.000000e+00 7.893084e-01 2.106916e-01
 0.000000e+00 0.000000e+00 0.000000e+00 0.000000e+00 0.000000e+00
<ENDHMM>
~h "s"
<BEGINHMM>
<NUMSTATES> 5
<STATE> 2
<MEAN> 39
 -1.205560e+01 -1.058402e-01 -2.648760e+00 -3.214718e+00 -5.997809e+00 -4.726062e+00 -6.940206e+00 -2.536193e+00 -3.718176e+00 -2.664119e+00 -2.103989e+00 -3.881262e+00 5.869569e+01 -1.121053e+00 2.184055e-01 -3.451557e-01 6.263372e-02 2.563834e-01 -1.891842e-03 2.941723e-01 8.399944e-02 1.551338e-01 3.709572e-02 1.558609e-01 3.550210e-01 -1.964007e-01 1.921047e-01 -1.701394e-01 3.105213e-02 -7.917120e-02 -1.423198e-01 2.872333e-02 -1.022394e-01 -2.771273e-02 -3.343333e-02 5.723938e-03 2.102502e-02 -8.882830e-02 1.157941e-01
<VARIANCE> 39
 1.372542e+02 6.051537e+01 6.890232e+01 4.059222e+01 6.246233e+01 5.671269e+01 5.710037e+01 5.465765e+01 4.746072e+01 3.633451e+01 4.020518e+01 3.977607e+01 1.627842e+02 6.215955e+00 3.890090e+00 3.221917e+00 2.697078e+00 3.571915e+00 3.133753e+00 3.286808e+00 3.703706e+00 3.088647e+00 2.599612e+00 2.814319e+00 2.675133e+00 4.496519e+00 8.201033e-01 6.278431e-01 5.000296e-01 4.726015e-01 6.181535e-01 5.463131e-01 5.913174e-01 6.433027e-01 5.660988e-01 4.895747e-01 5.181441e-01 4.638435e-01 6.064959e-01
<GCONST> 1.332789e+02
<STATE> 3
<MEAN> 39
 -1.404987e+01 -2.948241e-01 -3.448015e+00 -3.400277e+00 -5.958754e+00 -4.622941e+00 -6.630527e+00 -2.399348e+00 -3.381556e+00 -2.465581e+00 -1.640353e+00 -3.340719e+00 5.859527e+01 -9.364685e-02 -1.590897e-01 -6.335133e-02 -9.903939e-02 -1.200520e-01 2.047108e-02 -4.749435e-02 -2.120864e-02 3.846634e-02 2.846057e-02 8.133718e-02 1.287457e-02 6.544925e-02 3.377012e-01 -1.039165e-01 1.032880e-01 -4.537274e-02 -1.152275e-01 1.149695e-02 -1.182904e-01 -3.158233e-02 -3.862130e-02 -1.307901e-02 -1.821750e-02 -1.135763e-01 1.004162e-01
<VARIANCE> 39
 1.570315e+02 5.592429e+01 7.056094e+01 3.938201e+01 5.999519e+01 5.371235e+01 5.660626e+01 5.159682e+01 4.577750e+01 3.396111e+01 3.737876e+01 3.883969e+01 1.527485e+02 6.845022e+00 3.189889e+00 3.225508e+00 2.575539e+00 3.288913e+00 3.018053e+00 3.316700e+00 3.514405e+00 3.050385e+00 2.481585e+00 2.664281e+00 2.678051e+00 4.863585e+00 8.896825e-01 5.246642e-01 4.991091e-01 4.591399e-01 5.817841e-01 5.423797e-01 6.004040e-01 6.332420e-01 5.536584e-01 4.695859e-01 4.970951e-01 4.754679e-01 6.210631e-01
<GCONST> 1.323043e+02
<STATE> 4
<MEAN> 39
 -1.255296e+01 -1.085204e+00 -2.771778e+00 -3.710814e+00 -6.582475e+00 -4.214400e+00 -7.289325e+00 -2.371171e+00 -3.412256e+00 -2.226168e+00 -1.527508e+00 -3.673546e+00 5.822280e+01 8.147209e-01 -3.020708e-01 2.698460e-01 -1.461960e-01 -3.528888e-01 2.518038e-02 -3.438379e-01 -1.679462e-01 -6.706705e-02 -6.642780e-02 5.315411e-03 -2.876455e-01 2.198768e-01 1.700113e-01 -5.412309e-02 5.649436e-02 -2.074208e-02 -5.958671e-02 1.799607e-02 -7.221128e-02 -3.323883e-02 -1.749063e-02 -2.755840e-02 1.145601e-02 -6.509481e-02 6.952491e-02
<VARIANCE> 39
 1.496125e+02 5.738540e+01 7.574598e+01 4.189567e+01 6.453062e+01 5.730209e+01 5.974228e+01 5.470996e+01 4.924990e+01 3.376689e+01 3.769309e+01 3.965758e+01 1.754728e+02 7.036409e+00 3.244512e+00 3.457983e+00 2.686172e+00 3.565588e+00 3.289878e+00 3.866877e+00 3.889982e+00 3.235237e+00 2.496633e+00 2.755236e+00 2.846496e+00 5.141170e+00 9.629173e-01 4.961777e-01 4.972845e-01 4.604196e-01 5.920770e-01 5.634780e-01 6.712185e-01 6.676470e-01 5.657222e-01 4.597169e-01 5.141022e-01 4.916876e-01 6.488358e-01
<GCONST> 1.340468e+02
<TRANSP> 5
 0.000000e+00 1.000000e+00 0.000000e+00 0.000000e+00 0.000000e+00
 0.000000e+00 6.132762e-01 3.867238e-01 0.000000e+00 0.000000e+00
 0.000000e+00 0.000000e+00 6.128584e-01 3.871416e-01 0.000000e+00
 0.000000e+00 0.000000e+00 0.000000e+00 7.331124e-01 2.668876e-01
 0.000000e+00 0.000000e+00 0.000000e+00 0.000000e+00 0.000000e+00
<ENDHMM>
~h "t"
<BEGINHMM>
<NUMSTATES> 5
<STATE> 2
<MEAN> 39
 -4.979026e+00 -2.328937e+00 -1.651694e+00 -4.376837e+00 -8.818924e+00 -3.738348e+00 -9.347858e+00 -4.164937e+00 -3.953470e+00 -2.584477e+00 -2.177067e+00 -6.352980e+00 5.608474e+01 -1.719753e-01 -3.620261e-02 -1.350983e-01 -5.008483e-02 1.138004e-01 -1.451389e-02 3.877530e-02 5.503790e-02 6.713840e-02 -1.907692e-02 3.980673e-03 1.000106e-01 2.337743e-02 1.952906e-02 -1.244320e-01 -1.529012e-02 -7.838070e-02 -6.302966e-02 3.735087e-02 -4.461651e-02 2.255888e-02 -3.169092e-03 -8.549632e-03 2.878029e-02 -3.974230e-02 3.248110e-01
<VARIANCE> 39
 7.036693e+01 6.246744e+01 7.873230e+01 5.420151e+01 6.977589e+01 6.963412e+01 5.327507e+01 6.217334e+01 6.089010e+01 4.170914e+01 4.973366e+01 4.806138e+01 2.097018e+02 4.131699e+00 4.126523e+00 3.515635e+00 3.422950e+00 4.294596e+00 3.831111e+00 3.505640e+00 3.831684e+00 3.730309e+00 3.046145e+00 3.471455e+00 3.158911e+00 1.271834e+01 6.747170e-01 6.496035e-01 5.732919e-01 6.034391e-01 7.831370e-01 6.967208e-01 6.526619e-01 6.948816e-01 6.671446e-01 5.768587e-01 6.457137e-01 5.848649e-01 1.738341e+00
<GCONST> 1.394146e+02
<STATE> 3
<MEAN> 39
 -5.277547e+00 -2.897185e+00 -2.067370e+00 -4.777871e+00 -8.829144e+00 -3.597907e+00 -9.420085e+00 -3.917126e+00 -3.784847e+00 -2.638720e+00 -2.054479e+00 -6.310642e+00 5.742711e+01 -3.567727e-02 -3.014656e-01 -1.142531e-01 -2.256828e-01 -7.923259e-02 7.936323e-02 -1.022702e-01 1.019879e-01 4.535076e-02 -3.700197e-02 7.326856e-02 -5.609211e-02 8.053355e-01 6.621413e-02 -6.885411e-02 2.592582e-02 -4.762519e-02 -7.246732e-02 4.070178e-02 -5.015408e-02 8.865695e-03 -1.145356e-02 -9.876942e-03 2.769762e-02 -6.137041e-02 2.024828e-01
<VARIANCE> 39
 7.084087e+01 6.289884e+01 8.081365e+01 5.533634e+01 7.009539e+01 7.176731e+01 5.346595e+01 6.097601e+01 5.990321e+01 4.118914e+01 4.937469e+01 4.780177e+01 2.080257e+02 4.682972e+00 4.392094e+00 3.938129e+00 3.756833e+00 4.795373e+00 4.302296e+00 3.820420e+00 4.097311e+00 4.053378e+00 3.172469e+00 3.706351e+00 3.627272e+00 1.487115e+01 7.582536e-01 6.647804e-01 6.233790e-01 6.423507e-01 8.497443e-01 7.605431e-01 6.922826e-01 7.285200e-01 7.018126e-01 5.899819e-01 6.743930e-01 6.546887e-01 1.959444e+00
<GCONST> 1.416122e+02
<STATE> 4
<MEAN> 39
 -4.647685e+00 -3.965841e+00 -2.151500e+00 -5.623957e+00 -9.640768e+00 -2.768924e+00 -1.017147e+01 -3.366478e+00 -4.065538e+00 -2.516847e+00 -1.735816e+00 -7.012554e+00 6.095810e+01 1.195018e-01 -2.920010e-01 6.483893e-03 -1.985060e-01 -1.859489e-01 1.186827e-01 -1.380920e-01 5.542403e-02 7.910322e-03 -7.679457e-02 1.045866e-01 -1.432871e-01 7.926257e-01 2.705866e-02 1.758040e-02 2.747672e-02 1.944465e-02 -1.508157e-02 1.449165e-02 8.642508e-03 -2.189664e-02 -1.039459e-02 -1.419234e-02 1.153188e-02 -6.446875e-03 -6.937250e-02
<VARIANCE> 39
 6.751575e+01 6.886562e+01 8.993609e+01 5.980669e+01 7.746778e+01 8.064999e+01 5.841884e+01 6.760594e+01 6.524243e+01 4.267456e+01 5.260646e+01 4.998303e+01 1.955490e+02 4.498784e+00 4.280143e+00 4.065637e+00 3.841489e+00 5.143928e+00 4.673858e+00 4.112433e+00 4.427585e+00 4.154155e+00 3.197463e+00 3.931962e+00 3.746027e+00 1.324207e+01 7.403966e-01 6.453851e-01 6.339036e-01 6.558710e-01 9.057237e-01 8.062103e-01 7.445739e-01 7.701702e-01 7.192348e-01 5.899841e-01 7.126642e-01 6.703215e-01 1.794730e+00
<GCONST> 1.429651e+02
<TRANSP> 5
 0.000000e+00 1.000000e+00 0.000000e+00 0.000000e+00 0.000000e+00
 0.000000e+00 5.821541e-01 4.178459e-01 0.000000e+00 0.000000e+00
 0.000000e+00 0.000000e+00 5.809071e-01 4.190929e-01 0.000000e+00
 0.000000e+00 0.000000e+00 0.000000e+00 7.397032e-01 2.602968e-01
 0.000000e+00 0.000000e+00 0.000000e+00 0.000000e+00 0.000000e+00
<ENDHMM>
~h "u"
<BEGINHMM>
<NUMSTATES> 5
<STATE> 2
<MEAN> 39
 -2.539397e+00 -2.349892e+00 -1.331535e+00 -6.400149e+00 -1.064046e+01 -2.118198e+00 -1.147650e+01 -6.082848e+00 -5.677169e+00 -2.592490e+00 -6.967227e-01 -6.331933e+00 6.205020e+01 2.642507e-01 6.140034e-02 -5.381850e-02 -2.817238e-01 -1.569756e-01 1.531647e-01 -1.743983e-01 -2.811892e-01 -1.138493e-01 -7.257529e-04 1.511466e-01 1.999756e-03 2.656207e-01 -2.893465e-02 -2.040679e-02 1.559161e-02 1.737359e-02 5.177015e-03 1.229157e-02 3.188058e-02 6.661692e-02 1.690692e-02 -2.333265e-03 -2.251318e-02 -1.635416e-02 -2.660238e-02
<VARIANCE> 39
 7.563310e+01 5.694928e+01 7.734187e+01 8.430214e+01 7.334226e+01 7.975566e+01 6.793318e+01 9.983750e+01 6.694543e+01 4.999235e+01 5.873692e+01 4.385632e+01 1.333179e+02 4.413023e+00 3.380465e+00 3.778305e+00 4.738576e+00 4.881155e+00 4.461947e+00 4.336245e+00 5.733456e+00 4.370991e+00 3.590236e+00 4.133679e+00 3.296710e+00 7.088876e+00 6.717946e-01 5.304297e-01 5.956293e-01 7.769126e-01 8.593149e-01 7.698567e-01 7.794580e-01 9.786621e-01 7.655625e-01 6.679671e-01 7.375697e-01 5.998330e-01 9.537535e-01
<GCONST> 1.423724e+02
<STATE> 3
<MEAN> 39
 -2.002191e+00 -2.283585e+00 -1.419619e+00 -7.015653e+00 -1.099805e+01 -1.701856e+00 -1.177411e+01 -6.506899e+00 -5.890934e+00 -2.585747e+00 -4.496311e-01 -6.388681e+00 6.262659e+01 1.281495e-01 -2.907348e-02 -1.409847e-03 -1.299492e-01 -9.370473e-02 1.010260e-01 -8.275007e-02 -1.268589e-02 -3.936680e-02 2.581467e-02 3.178984e-02 -6.052095e-02 1.637893e-01 -5.628788e-02 -2.582408e-02 1.633423e-02 6.362769e-02 2.826032e-02 -2.446598e-02 4.098951e-02 9.199350e-02 2.940647e-02 -1.637352e-03 -4.650806e-02 -1.847793e-02 -5.112557e-02
<VARIANCE> 39
 7.194514e+01 5.648095e+01 7.648530e+01 9.027511e+01 7.308560e+01 8.150295e+01 6.902920e+01 1.062088e+02 6.804446e+01 5.187676e+01 6.031767e+01 4.378005e+01 1.245266e+02 4.037621e+00 3.395867e+00 3.629595e+00 4.812854e+00 4.862858e+00 4.500511e+00 4.285491e+00 5.668502e+00 4.375458e+00 3.642220e+00 4.251462e+00 3.300621e+00 6.511514e+00 6.189353e-01 5.195717e-01 5.761309e-01 7.886546e-01 8.567187e-01 7.706693e-01 7.721465e-01 9.840221e-01 7.642478e-01 6.789293e-01 7.614545e-01 6.033095e-01 8.512389e-01
<GCONST> 1.421215e+02
<STATE> 4
<MEAN> 39
 -1.268997e+00 -2.490867e+00 -1.363389e+00 -7.695855e+00 -1.142043e+01 -6.296645e-01 -1.260074e+01 -5.506005e+00 -6.471111e+00 -1.826978e+00 -9.760369e-01 -7.014524e+00 6.375975e+01 -9.625997e-02 -7.527985e-02 3.036210e-02 1.221905e-01 7.491653e-02 -9.137394e-02 9.160285e-02 1.646783e-01 7.699049e-02 -3.500427e-03 -1.096012e-01 -5.210960e-02 -6.331351e-02 -5.642745e-02 -6.134474e-03 -3.943551e-04 4.278008e-02 3.155947e-02 -3.653451e-02 4.710674e-02 2.823327e-02 2.741376e-02 -2.318206e-02 -2.128236e-02 1.147897e-02 -4.787751e-02
<VARIANCE> 39
 6.347784e+01 6.097443e+01 8.086750e+01 9.050212e+01 7.731580e+01 8.607597e+01 7.175981e+01 1.063556e+02 6.900017e+01 5.231415e+01 6.310192e+01 4.454174e+01 1.146237e+02 3.435051e+00 3.331920e+00 3.496000e+00 4.628641e+00 4.752750e+00 4.497337e+00 4.217723e+00 5.440290e+00 4.158836e+00 3.528294e+00 4.218566e+00 3.201092e+00 5.550147e+00 5.115033e-01 5.010905e-01 5.430508e-01 7.499822e-01 8.310600e-01 7.575212e-01 7.581028e-01 9.410499e-01 7.219933e-01 6.547084e-01 7.581556e-01 5.741478e-01 7.297472e-01
<GCONST> 1.409174e+02
<TRANSP> 5
 0.000000e+00 1.000000e+00 0.000000e+00 0.000000e+00 0.000000e+00
 0.000000e+00 5.967616e-01 4.032384e-01 0.000000e+00 0.000000e+00
 0.000000e+00 0.000000e+00 5.976132e-01 4.023867e-01 0.000000e+00
 0.000000e+00 0.000000e+00 0.000000e+00 8.000212e-01 1.999789e-01
 0.000000e+00 0.000000e+00 0.000000e+00 0.000000e+00 0.000000e+00
<ENDHMM>
~h "v"
<BEGINHMM>
<NUMSTATES> 5
<STATE> 2
<MEAN> 39
 -5.720369e+00 -3.212366e+00 -9.603557e-01 -4.140341e+00 -8.282138e+00 -2.741488e+00 -8.362382e+00 -2.900852e+00 -4.227129e+00 -2.588475e+00 -1.643602e+00 -5.417910e+00 5.514945e+01 4.041251e-04 8.054070e-04 2.982348e-04 -7.923298e-04 1.777842e-04 5.770657e-04 1.920456e-06 -1.539215e-03 -3.851559e-04 2.390032e-04 -1.168943e-03 -1.209440e-03 7.453487e-05 5.293762e-05 1.484293e-04 1.038093e-04 6.097702e-05 2.683362e-05 9.535497e-05 -3.359811e-05 -1.456941e-05 1.142907e-04 1.394317e-04 6.521364e-05 -2.366633e-05 -8.404750e-05
<VARIANCE> 39
 6.548970e+01 6.558094e+01 6.975499e+01 5.597869e+01 7.619009e+01 6.664177e+01 6.092598e+01 6.794641e+01 5.794476e+01 4.215612e+01 4.686914e+01 4.500091e+01 2.513958e+02 2.532669e+00 2.732701e+00 2.556041e+00 2.640352e+00 3.358491e+00 3.125732e+00 3.024375e+00 3.669678e+00 3.178414e+00 2.664217e+00 2.899224e+00 2.436845e+00 5.033377e+00 3.927859e-01 4.190547e-01 3.991563e-01 4.514541e-01 5.906611e-01 5.447152e-01 5.501792e-01 6.469660e-01 5.645853e-01 4.966201e-01 5.287678e-01 4.459183e-01 6.618989e-01
<GCONST> 1.316507e+02
<STATE> 3
<MEAN> 39
 -5.720369e+00 -3.212366e+00 -9.603557e-01 -4.140341e+00 -8.282138e+00 -2.741488e+00 -8.362382e+00 -2.900852e+00 -4.227129e+00 -2.588475e+00 -1.643602e+00 -5.417910e+00 5.514945e+01 4.041251e-04 8.054070e-04 2.982348e-04 -7.923298e-04 1.777842e-04 5.770657e-04 1.920456e-06 -1.539215e-03 -3.851559e-04 2.390032e-04 -1.168943e-03 -1.209440e-03 7.453487e-05 5.293762e-05 1.484293e-04 1.038093e-04 6.097702e-05 2.683362e-05 9.535497e-05 -3.359811e-05 -1.456941e-05 1.142907e-04 1.394317e-04 6.521364e-05 -2.366633e-05 -8.404750e-05
<VARIANCE> 39
 6.548970e+01 6.558094e+01 6.975499e+01 5.597869e+01 7.619009e+01 6.664177e+01 6.092598e+01 6.794641e+01 5.794476e+01 4.215612e+01 4.686914e+01 4.500091e+01 2.513958e+02 2.532669e+00 2.732701e+00 2.556041e+00 2.640352e+00 3.358491e+00 3.125732e+00 3.024375e+00 3.669678e+00 3.178414e+00 2.664217e+00 2.899224e+00 2.436845e+00 5.033377e+00 3.927859e-01 4.190547e-01 3.991563e-01 4.514541e-01 5.906611e-01 5.447152e-01 5.501792e-01 6.469660e-01 5.645853e-01 4.966201e-01 5.287678e-01 4.459183e-01 6.618989e-01
<GCONST> 1.316507e+02
<STATE> 4
<MEAN> 39
 -5.720369e+00 -3.212366e+00 -9.603557e-01 -4.140341e+00 -8.282138e+00 -2.741488e+00 -8.362382e+00 -2.900852e+00 -4.227129e+00 -2.588475e+00 -1.643602e+00 -5.417910e+00 5.514945e+01 4.041251e-04 8.054070e-04 2.982348e-04 -7.923298e-04 1.777842e-04 5.770657e-04 1.920456e-06 -1.539215e-03 -3.851559e-04 2.390032e-04 -1.168943e-03 -1.209440e-03 7.453487e-05 5.293762e-05 1.484293e-04 1.038093e-04 6.097702e-05 2.683362e-05 9.535497e-05 -3.359811e-05 -1.456941e-05 1.142907e-04 1.394317e-04 6.521364e-05 -2.366633e-05 -8.404750e-05
<VARIANCE> 39
 6.548970e+01 6.558094e+01 6.975499e+01 5.597869e+01 7.619009e+01 6.664177e+01 6.092598e+01 6.794641e+01 5.794476e+01 4.215612e+01 4.686914e+01 4.500091e+01 2.513958e+02 2.532669e+00 2.732701e+00 2.556041e+00 2.640352e+00 3.358491e+00 3.125732e+00 3.024375e+00 3.669678e+00 3.178414e+00 2.664217e+00 2.899224e+00 2.436845e+00 5.033377e+00 3.927859e-01 4.190547e-01 3.991563e-01 4.514541e-01 5.906611e-01 5.447152e-01 5.501792e-01 6.469660e-01 5.645853e-01 4.966201e-01 5.287678e-01 4.459183e-01 6.618989e-01
<GCONST> 1.316507e+02
<TRANSP> 5
 0.000000e+00 1.000000e+00 0.000000e+00 0.000000e+00 0.000000e+00
 0.000000e+00 6.000000e-01 4.000000e-01 0.000000e+00 0.000000e+00
 0.000000e+00 0.000000e+00 6.000000e-01 4.000000e-01 0.000000e+00
 0.000000e+00 0.000000e+00 0.000000e+00 7.000000e-01 3.000000e-01
 0.000000e+00 0.000000e+00 0.000000e+00 0.000000e+00 0.000000e+00
<ENDHMM>
~h "w"
<BEGINHMM>
<NUMSTATES> 5
<STATE> 2
<MEAN> 39
 -2.915151e+00 -4.383110e+00 -1.857653e+00 -8.205842e+00 -1.063193e+01 -7.535677e-01 -1.081479e+01 -4.666022e+00 -4.687867e+00 -2.603725e+00 -7.513708e-01 -6.506895e+00 6.269490e+01 1.823981e-01 -1.236313e-03 2.887496e-04 -2.981094e-01 -1.605230e-01 1.851844e-01 -8.460338e-02 -1.096282e-01 -7.802585e-02 1.744267e-02 1.072850e-01 4.001632e-02 2.540195e-01 -2.309906e-02 -1.155134e-02 1.162702e-02 4.524387e-02 2.311351e-02 -1.755142e-02 2.496677e-02 4.419771e-02 1.438195e-02 -1.165005e-02 -1.858230e-02 -2.224053e-02 3.147669e-03
<VARIANCE> 39
 8.034499e+01 6.710359e+01 8.852321e+01 9.565286e+01 7.726454e+01 9.442766e+01 6.150198e+01 7.681657e+01 7.581551e+01 5.183240e+01 6.226451e+01 4.006844e+01 1.512955e+02 3.643270e+00 3.161276e+00 3.627820e+00 3.272750e+00 4.154634e+00 3.986098e+00 3.588159e+00 4.004727e+00 3.330412e+00 3.227982e+00 3.525826e+00 2.823633e+00 5.752104e+00 5.377870e-01 4.632474e-01 5.523736e-01 5.212880e-01 7.025718e-01 6.570552e-01 6.378724e-01 6.887849e-01 5.778531e-01 5.918947e-01 6.180670e-01 4.949480e-01 7.418954e-01
<GCONST> 1.378137e+02
<STATE> 3
<MEAN> 39
 -2.425435e+00 -4.466025e+00 -1.808824e+00 -8.882322e+00 -1.100361e+01 -2.294261e-01 -1.097035e+01 -4.788137e+00 -4.798481e+00 -2.679726e+00 -5.611385e-01 -6.545068e+00 6.332801e+01 7.313115e-02 -7.834624e-02 2.018951e-02 -7.619831e-02 -1.230216e-02 7.025404e-02 -2.538584e-02 1.833710e-02 -8.621813e-03 1.577597e-02 -6.191118e-03 -5.570523e-02 1.664405e-01 -3.661777e-02 -2.460417e-02 -4.825985e-04 7.561415e-02 4.949002e-02 -3.578196e-02 2.023683e-02 4.270907e-02 2.873010e-02 -6.179377e-03 -3.405931e-02 -3.466471e-02 -2.920594e-02
<VARIANCE> 39
 7.913278e+01 6.573648e+01 9.229471e+01 1.033124e+02 7.772485e+01 9.756689e+01 6.202329e+01 7.677749e+01 7.693656e+01 5.469832e+01 6.541307e+01 3.857979e+01 1.384005e+02 3.260414e+00 3.162383e+00 3.486831e+00 3.069549e+00 4.125742e+00 3.856699e+00 3.467189e+00 3.690480e+00 3.312878e+00 3.170087e+00 3.477246e+00 2.773606e+00 5.463825e+00 4.858975e-01 4.487699e-01 5.266485e-01 4.905874e-01 6.835743e-01 6.401713e-01 6.178161e-01 6.374131e-01 5.606758e-01 5.873997e-01 6.107745e-01 4.837940e-01 6.530986e-01
<GCONST> 1.368528e+02
<STATE> 4
<MEAN> 39
 -2.316772e+00 -5.235774e+00 -2.157533e+00 -9.346338e+00 -1.115900e+01 -5.413604e-02 -1.170056e+01 -3.889670e+00 -5.537216e+00 -2.168294e+00 -1.504403e+00 -7.331344e+00 6.457826e+01 -4.332862e-02 -1.156550e-01 1.636585e-02 1.332077e-01 1.089894e-01 -8.931634e-02 7.652397e-02 8.705053e-02 7.115167e-02 -3.632341e-02 -8.433226e-02 -9.014238e-02 1.336070e-02 -2.940421e-02 7.123318e-03 -6.380298e-03 4.597804e-02 2.356756e-02 -2.655772e-02 2.629630e-02 9.094395e-03 1.996565e-02 -2.028963e-02 -1.005130e-02 3.170226e-03 -5.033526e-02
<VARIANCE> 39
 7.153000e+01 7.531770e+01 9.721249e+01 9.192154e+01 8.344202e+01 1.028783e+02 6.194455e+01 7.836552e+01 7.564118e+01 5.270270e+01 6.465044e+01 4.109276e+01 1.343839e+02 3.379652e+00 3.375878e+00 3.489555e+00 3.036092e+00 4.266484e+00 3.910970e+00 3.408199e+00 3.759086e+00 3.390329e+00 3.104154e+00 3.519377e+00 2.762633e+00 5.393844e+00 4.926027e-01 4.680883e-01 5.282546e-01 4.703897e-01 6.984034e-01 6.408063e-01 6.175132e-01 6.406093e-01 5.723833e-01 5.701004e-01 6.130136e-01 4.789276e-01 6.576174e-01
<GCONST> 1.371060e+02
<TRANSP> 5
 0.000000e+00 1.000000e+00 0.000000e+00 0.000000e+00 0.000000e+00
 0.000000e+00 6.019097e-01 3.980903e-01 0.000000e+00 0.000000e+00
 0.000000e+00 0.000000e+00 5.998785e-01 4.001214e-01 0.000000e+00
 0.000000e+00 0.000000e+00 0.000000e+00 8.164209e-01 1.835792e-01
 0.000000e+00 0.000000e+00 0.000000e+00 0.000000e+00 0.000000e+00
<ENDHMM>
~h "y"
<BEGINHMM>
<NUMSTATES> 5
<STATE> 2
<MEAN> 39
 -4.303558e+00 -7.010507e+00 -1.594198e+00 -6.156340e+00 -9.316114e+00 -3.896021e+00 -9.258945e+00 -8.560123e-01 -3.967321e+00 -3.401299e+00 -2.000425e+00 -6.942092e+00 6.160629e+01 -6.708935e-02 -4.958698e-02 -4.405466e-02 2.448259e-02 1.063958e-01 5.724938e-03 1.023873e-01 9.319075e-02 -3.803134e-02 3.757972e-03 -1.023958e-01 2.004275e-02 -2.145628e-01 -5.809645e-03 5.384857e-02 1.357501e-02 1.637261e-02 5.375591e-03 -9.322038e-03 -1.424929e-02 -4.745167e-02 -1.716763e-02 1.330021e-02 -6.593318e-03 1.475510e-02 -3.283544e-02
<VARIANCE> 39
 5.398315e+01 7.892320e+01 7.480096e+01 5.301949e+01 7.418585e+01 7.250414e+01 5.029583e+01 7.206591e+01 5.469338e+01 5.700890e+01 5.132293e+01 4.241765e+01 2.169012e+02 1.505096e+00 2.398064e+00 2.429615e+00 1.931665e+00 2.908039e+00 2.653388e+00 2.603563e+00 3.307191e+00 2.580642e+00 2.421632e+00 2.711325e+00 2.111236e+00 2.723750e+00 2.498926e-01 3.618077e-01 3.361588e-01 3.386937e-01 4.724619e-01 4.301824e-01 4.765973e-01 5.884302e-01 4.541725e-01 4.459723e-01 4.674469e-01 3.831172e-01 3.974055e-01
<GCONST> 1.261404e+02
<STATE> 3
<MEAN> 39
 -4.475074e+00 -6.991037e+00 -1.596161e+00 -6.034097e+00 -9.116147e+00 -3.874562e+00 -9.096127e+00 -7.334226e-01 -4.127491e+00 -3.308347e+00 -2.210500e+00 -6.875015e+00 6.114411e+01 -3.644140e-02 5.281567e-02 -3.049665e-02 3.343705e-02 9.554361e-02 6.436090e-03 5.484482e-02 1.787179e-02 -5.457527e-02 4.548378e-02 -1.101790e-01 7.230951e-03 -2.162336e-01 1.344685e-02 4.508043e-02 1.271476e-02 1.041791e-02 -1.227780e-03 -1.103754e-03 -1.741237e-02 -3.917092e-02 -3.447355e-03 1.094699e-02 8.008825e-03 3.763322e-03 -4.607357e-03
<VARIANCE> 39
 5.620525e+01 7.966769e+01 7.375242e+01 5.332651e+01 7.281601e+01 7.040637e+01 5.055358e+01 7.111472e+01 5.243436e+01 5.715221e+01 4.994866e+01 4.160497e+01 2.187782e+02 1.475388e+00 2.302419e+00 2.356673e+00 1.906029e+00 2.815081e+00 2.499585e+00 2.587450e+00 3.188684e+00 2.476905e+00 2.369653e+00 2.602654e+00 2.027836e+00 2.906521e+00 2.383269e-01 3.491372e-01 3.283975e-01 3.262717e-01 4.543480e-01 4.109556e-01 4.689364e-01 5.677963e-01 4.352249e-01 4.381325e-01 4.463639e-01 3.610211e-01 3.928124e-01
<GCONST> 1.252717e+02
<STATE> 4
<MEAN> 39
 -3.368509e+00 -9.158965e+00 -2.607940e+00 -7.550529e+00 -8.796897e+00 -3.187701e+00 -9.680905e+00 7.820327e-01 -5.336948e+00 -2.211313e+00 -3.460744e+00 -8.015821e+00 6.457825e+01 2.938688e-02 1.586067e-01 1.880663e-03 1.151750e-01 9.934044e-02 1.469740e-02 5.121271e-02 -1.272604e-01 -2.554873e-02 -4.082233e-03 -9.693921e-02 2.197115e-02 -2.525798e-01 -2.548940e-03 4.635518e-02 1.817062e-02 2.595961e-02 4.390010e-03 -8.854542e-04 3.437100e-03 -5.340703e-02 1.110285e-02 -1.192674e-02 2.177328e-02 1.552377e-02 -3.714789e-02
<VARIANCE> 39
 5.053923e+01 8.092750e+01 7.746590e+01 5.901360e+01 7.594865e+01 7.032611e+01 5.249252e+01 7.559407e+01 5.318317e+01 6.270632e+01 5.207300e+01 4.070261e+01 1.742486e+02 1.804253e+00 2.759926e+00 2.648205e+00 2.263663e+00 3.226106e+00 2.742712e+00 2.893444e+00 3.664519e+00 2.765422e+00 2.649298e+00 2.795856e+00 2.151626e+00 4.141151e+00 2.712316e-01 3.846696e-01 3.698647e-01 3.729763e-01 5.006644e-01 4.442857e-01 5.132687e-01 6.104465e-01 4.682402e-01 4.715092e-01 4.751158e-01 3.733900e-01 4.911552e-01
<GCONST> 1.285108e+02
<TRANSP> 5
 0.000000e+00 1.000000e+00 0.000000e+00 0.000000e+00 0.000000e+00
 0.000000e+00 5.774627e-01 4.225372e-01 0.000000e+00 0.000000e+00
 0.000000e+00 0.000000e+00 5.715373e-01 4.284627e-01 0.000000e+00
 0.000000e+00 0.000000e+00 0.000000e+00 7.849157e-01 2.150843e-01
 0.000000e+00 0.000000e+00 0.000000e+00 0.000000e+00 0.000000e+00
<ENDHMM>
~h "z"
<BEGINHMM>
<NUMSTATES> 5
<STATE> 2
<MEAN> 39
 -7.870528e+00 -1.375122e+00 -2.348006e+00 -2.093443e+00 -6.184833e+00 -4.223936e+00 -7.320344e+00 -2.426595e+00 -3.160148e+00 -3.149179e+00 -2.539348e+00 -3.147750e+00 5.287160e+01 -3.683061e-01 2.642282e-01 -1.206854e-01 2.007322e-01 2.036477e-01 3.157651e-02 2.770480e-01 -1.456027e-02 3.455738e-02 2.536565e-02 4.667892e-02 1.760729e-01 -4.502708e-01 5.042662e-02 -6.176376e-02 3.406370e-02 -4.198230e-02 -6.070036e-02 4.243891e-03 -5.877822e-02 8.709167e-03 -2.858577e-02 -1.105047e-04 2.674157e-02 -5.032168e-02 4.434955e-02
<VARIANCE> 39
 8.465870e+01 6.516202e+01 4.789275e+01 4.194163e+01 4.988505e+01 5.120665e+01 4.104387e+01 4.974780e+01 4.280300e+01 3.357956e+01 3.928809e+01 2.712300e+01 1.942355e+02 2.088798e+00 2.319452e+00 1.619791e+00 1.805698e+00 2.395034e+00 2.253146e+00 2.222842e+00 2.465743e+00 2.126951e+00 2.065664e+00 2.253006e+00 1.899881e+00 2.184600e+00 2.931558e-01 3.600089e-01 2.471435e-01 2.984018e-01 4.013825e-01 3.934348e-01 3.901626e-01 4.452506e-01 3.954341e-01 3.851096e-01 4.156654e-01 3.554201e-01 2.892143e-01
<GCONST> 1.191432e+02
<STATE> 3
<MEAN> 39
 -9.090502e+00 -6.329505e-01 -2.349962e+00 -1.583927e+00 -5.604887e+00 -3.887061e+00 -6.458105e+00 -2.382440e+00 -2.995452e+00 -2.797098e+00 -2.090584e+00 -2.710853e+00 5.092829e+01 -1.184918e-01 1.280856e-01 3.344977e-02 7.817513e-02 2.761897e-02 5.821013e-02 8.275281e-02 -3.260531e-02 -1.883616e-02 3.216371e-02 6.330155e-02 5.114707e-02 -2.582888e-01 7.254800e-02 -7.213287e-02 3.149156e-02 -5.259157e-02 -4.907876e-02 -1.594527e-02 -6.347204e-02 -3.490420e-03 -9.233432e-03 -7.470100e-03 8.379350e-03 -3.499049e-02 7.338084e-02
<VARIANCE> 39
 8.558793e+01 6.546589e+01 4.354520e+01 4.156818e+01 4.682038e+01 5.072350e+01 3.798407e+01 4.573021e+01 3.732493e+01 2.974193e+01 3.351791e+01 2.507783e+01 2.003004e+02 1.723415e+00 1.890801e+00 1.376662e+00 1.575800e+00 2.089028e+00 2.011053e+00 2.022661e+00 2.147172e+00 1.914249e+00 1.847383e+00 1.979084e+00 1.717853e+00 1.997789e+00 2.872936e-01 3.237864e-01 2.226690e-01 2.876011e-01 3.756335e-01 3.634919e-01 3.754997e-01 4.066551e-01 3.580150e-01 3.511000e-01 3.745496e-01 3.395557e-01 2.778046e-01
<GCONST> 1.157162e+02
<STATE> 4
<MEAN> 39
 -5.933430e+00 -3.360023e-01 -1.288526e+00 -1.902686e+00 -6.510049e+00 -2.449247e+00 -8.118441e+00 -2.184546e+00 -3.170263e+00 -2.162497e+00 -2.366500e+00 -3.885367e+00 5.604749e+01 1.325712e-01 -9.964103e-02 1.140525e-01 -8.854851e-02 -1.272856e-01 -2.112363e-02 -8.933724e-02 -1.140157e-01 -1.537041e-02 -2.520905e-02 6.223526e-02 -4.754051e-02 2.995848e-02 6.303532e-02 -8.064216e-02 6.383750e-04 -6.417917e-02 -4.737531e-02 -1.165502e-02 -5.914444e-02 -2.184787e-02 1.321769e-02 -7.412485e-03 9.183574e-03 -3.851002e-02 1.039071e-01
<VARIANCE> 39
 7.652930e+01 7.323792e+01 5.303364e+01 5.002340e+01 6.085003e+01 6.502823e+01 4.646177e+01 6.069413e+01 4.313545e+01 3.352930e+01 4.185157e+01 2.979503e+01 1.855814e+02 2.398990e+00 2.818388e+00 1.891703e+00 2.535294e+00 3.276153e+00 2.781820e+00 2.809050e+00 3.045661e+00 2.171345e+00 2.030630e+00 2.251659e+00 1.933704e+00 3.363499e+00 3.926766e-01 4.220532e-01 3.116895e-01 4.494579e-01 5.503449e-01 4.945025e-01 5.096533e-01 5.585808e-01 4.007775e-01 3.782952e-01 4.213484e-01 3.749514e-01 4.610619e-01
<GCONST> 1.252250e+02
<TRANSP> 5
 0.000000e+00 1.000000e+00 0.000000e+00 0.000000e+00 0.000000e+00
 0.000000e+00 7.296397e-01 2.703603e-01 0.000000e+00 0.000000e+00
 0.000000e+00 0.000000e+00 7.375475e-01 2.624525e-01 0.000000e+00
 0.000000e+00 0.000000e+00 0.000000e+00 7.459412e-01 2.540588e-01
 0.000000e+00 0.000000e+00 0.000000e+00 0.000000e+00 0.000000e+00
<ENDHMM>
~h "ai"
<BEGINHMM>
<NUMSTATES> 5
<STATE> 2
<MEAN> 39
 -3.606608e+00 -4.302939e+00 3.662850e-01 -5.186686e+00 -1.139463e+01 -3.856792e+00 -9.799242e+00 -2.849420e+00 -3.646364e+00 -4.085824e+00 -8.827502e-01 -6.309814e+00 6.154890e+01 7.639499e-02 -5.009765e-01 1.302674e-01 -2.411669e-01 -4.956768e-01 -9.486420e-02 -1.860942e-01 2.280292e-01 1.272177e-02 -1.757640e-01 2.276069e-01 -6.844043e-02 1.101553e+00 2.804031e-02 -5.226845e-02 9.189263e-03 -2.732588e-02 -7.083750e-02 4.445849e-02 -3.388024e-02 1.260196e-02 -1.959230e-02 9.284997e-03 1.513574e-02 -3.888266e-02 1.188916e-01
<VARIANCE> 39
 6.731081e+01 9.373547e+01 7.864823e+01 6.118550e+01 8.727335e+01 1.015009e+02 5.504501e+01 7.574435e+01 6.895927e+01 5.431556e+01 5.628173e+01 4.020070e+01 1.776380e+02 4.943288e+00 5.116335e+00 4.184564e+00 4.123272e+00 6.504487e+00 5.323258e+00 4.213438e+00 4.995611e+00 4.735210e+00 3.665060e+00 4.055150e+00 3.167953e+00 1.176542e+01 7.902201e-01 8.009622e-01 6.417446e-01 6.842467e-01 1.128340e+00 9.255047e-01 7.431303e-01 8.324981e-01 8.121384e-01 6.680941e-01 7.500234e-01 5.608047e-01 1.696414e+00
<GCONST> 1.453387e+02
<STATE> 3
<MEAN> 39
 -3.282739e+00 -5.786551e+00 1.027423e+00 -5.871573e+00 -1.324001e+01 -4.238188e+00 -1.029187e+01 -2.165497e+00 -3.853361e+00 -4.635343e+00 -5.309689e-02 -6.818205e+00 6.476541e+01 1.043486e-01 -3.635604e-01 1.709816e-01 -1.637833e-01 -4.920546e-01 2.475939e-02 -1.948527e-01 1.797613e-01 -1.086503e-01 -5.971412e-02 1.811786e-01 -1.317999e-01 8.216459e-01 1.492598e-02 6.097471e-02 9.017272e-04 2.385484e-02 1.880183e-02 4.270443e-02 4.872998e-03 -1.553557e-02 -2.699699e-02 3.047699e-02 -2.724018e-02 -1.734983e-02 -1.124711e-01
<VARIANCE> 39
 5.857740e+01 9.715363e+01 8.820333e+01 6.188147e+01 9.458238e+01 1.170686e+02 5.626656e+01 8.181327e+01 6.906477e+01 5.833625e+01 5.981104e+01 4.188215e+01 1.438226e+02 4.610799e+00 5.050933e+00 4.283209e+00 3.835543e+00 6.913998e+00 5.095369e+00 4.266016e+00 5.056863e+00 4.510508e+00 3.476159e+00 4.078081e+00 3.078559e+00 1.046650e+01 7.671778e-01 7.414867e-01 6.506432e-01 6.399775e-01 1.187605e+00 8.834408e-01 7.498433e-01 8.371876e-01 7.723625e-01 6.414814e-01 7.282965e-01 5.461143e-01 1.427418e+00
<GCONST> 1.448560e+02
<STATE> 4
<MEAN> 39
 -2.208699e+00 -5.252536e+00 1.548937e+00 -5.123470e+00 -1.553202e+01 -1.566981e+00 -1.132624e+01 -2.345436e+00 -4.089688e+00 -3.239698e+00 -4.779079e-01 -7.427619e+00 6.497900e+01 1.674399e-02 5.398432e-03 -2.941666e-02 3.253457e-03 1.393026e-02 1.414360e-02 1.550186e-02 1.461334e-02 -3.103783e-02 3.774935e-02 -1.878674e-02 -2.686564e-02 -8.214392e-03 -1.197811e-02 3.072080e-02 -2.254435e-02 9.411577e-03 4.192545e-02 -4.285684e-04 2.241413e-02 -1.849826e-02 5.288769e-03 2.117718e-03 -1.674588e-02 4.699841e-03 -6.235073e-02
<VARIANCE> 39
 5.698679e+01 8.538231e+01 9.392200e+01 5.683612e+01 1.023932e+02 9.206427e+01 6.220122e+01 1.008430e+02 7.200978e+01 4.928498e+01 6.157140e+01 4.350505e+01 1.384292e+02 3.821589e+00 4.296237e+00 3.787837e+00 3.180584e+00 6.374279e+00 4.276483e+00 3.821890e+00 4.720967e+00 3.762208e+00 2.950807e+00 3.781737e+00 2.804744e+00 8.211664e+00 6.403478e-01 6.537192e-01 5.804189e-01 5.374063e-01 1.116324e+00 7.216530e-01 6.960592e-01 8.091435e-01 6.552856e-01 5.358061e-01 6.679393e-01 4.942196e-01 1.136710e+00
<GCONST> 1.411495e+02
<TRANSP> 5
 0.000000e+00 1.000000e+00 0.000000e+00 0.000000e+00 0.000000e+00
 0.000000e+00 6.681218e-01 3.318782e-01 0.000000e+00 0.000000e+00
 0.000000e+00 0.000000e+00 6.823131e-01 3.176869e-01 0.000000e+00
 0.000000e+00 0.000000e+00 0.000000e+00 9.426792e-01 5.732083e-02
 0.000000e+00 0.000000e+00 0.000000e+00 0.000000e+00 0.000000e+00
<ENDHMM>
~h "au"
<BEGINHMM>
<NUMSTATES> 5
<STATE> 2
<MEAN> 39
 -7.585836e+00 -2.617706e+00 -2.419679e+00 -2.041197e+00 -4.016969e+00 -2.975912e+00 -6.558243e+00 -1.483463e+00 -2.899752e+00 -3.872761e+00 -2.733138e+00 -3.227118e+00 4.958101e+01 -1.840350e-01 -2.125978e-03 -5.971103e-02 4.043465e-02 1.724749e-01 -1.262492e-02 1.663299e-01 8.430973e-03 2.653711e-02 -6.542318e-02 1.111906e-01 1.503465e-01 -4.698068e-01 1.851262e-02 3.424449e-03 1.216379e-02 -1.765634e-02 -4.051840e-02 -5.414033e-03 -2.931040e-02 1.718321e-03 -1.949038e-02 1.476626e-02 6.114928e-03 -1.107675e-02 3.294865e-02
<VARIANCE> 39
